~o
<STREAMINFO> 1 39
<VECSIZE> 39<NULLD><MFCC_D_A_0><DIAGC>
~s "silst"
<MEAN> 39
 -2.095884e+01 -5.380480e+00 -4.644858e+00 6.476457e-01 4.049043e-02 -2.220671e-01 2.433597e+00 -2.025740e-01 9.691805e-03 -4.681416e+00 -2.110055e+00 -3.482482e+00 4.323999e+01 1.459693e+00 -1.206729e+00 -1.010754e+00 -7.434143e-02 -1.306561e-01 -1.139563e+00 -1.492140e-01 1.054359e+00 -3.033796e-01 -1.559202e+00 -6.955248e-01 2.833463e-01 1.557355e+00 7.964561e-01 -5.777672e-01 -4.197375e-01 -1.127048e-01 7.268257e-03 -4.316936e-01 -1.042681e-01 3.405213e-01 -1.227090e-01 -7.218328e-01 -4.169030e-01 5.943701e-03 9.585435e-01
<VARIANCE> 39
 2.206343e+00 2.869119e+00 4.001484e+00 3.862180e+00 4.686586e+00 6.929848e+00 8.772939e+00 9.046764e+00 7.980720e+00 7.155897e+00 6.803338e+00 7.312088e+00 5.791945e+00 3.322035e+00 6.935268e+00 7.843870e+00 1.927763e+00 1.793014e+00 3.008668e+00 7.439423e+00 1.386510e+01 3.021827e+00 9.250125e+00 3.550757e+00 1.754778e+00 3.036999e+00 4.280559e-01 8.857909e-01 1.166140e+00 3.521108e-01 3.225021e-01 4.978994e-01 1.230135e+00 2.056056e+00 4.970767e-01 1.065186e+00 5.058191e-01 3.997963e-01 3.782912e-01
<GCONST> 1.063018e+02
~h "b"
<BEGINHMM>
<NUMSTATES> 5
<STATE> 2
<MEAN> 39
 -1.111330e+01 -2.349416e+00 -3.490061e+00 -1.104783e+00 1.608937e+00 -1.843677e+00 -6.084735e-01 -6.096977e+00 -5.563593e+00 -9.161440e+00 -1.860789e+00 -3.055717e+00 5.518304e+01 -8.810073e-02 -1.496969e-02 -1.251229e-01 9.048080e-02 -2.575935e-02 -2.235017e-01 -2.348052e-01 2.311774e-01 5.463109e-01 7.642274e-02 -3.771342e-02 2.609915e-02 -2.572387e-01 2.978823e-01 -1.569233e-01 8.537071e-03 -5.983641e-02 -3.734477e-03 -2.478404e-01 -3.761660e-01 -5.748245e-02 2.823510e-02 5.753132e-02 -5.282291e-02 -4.190931e-02 3.744381e-01
<VARIANCE> 39
 7.032165e+01 2.387256e+01 3.092342e+01 3.750898e+01 3.731157e+01 2.345992e+01 2.556441e+01 2.725928e+01 2.988676e+01 1.901132e+01 2.232844e+01 2.140849e+01 4.893683e+01 3.117265e+00 1.539329e+00 1.996611e+00 2.029262e+00 2.053610e+00 2.662449e+00 2.433215e+00 1.759480e+00 2.161431e+00 1.637779e+00 1.625701e+00 1.336382e+00 2.158575e+00 4.426766e-01 2.284215e-01 2.153705e-01 3.599997e-01 5.332639e-01 5.816178e-01 4.802707e-01 3.694462e-01 3.213613e-01 3.420203e-01 3.061253e-01 2.173087e-01 3.350160e-01
<GCONST> 1.110527e+02
<STATE> 3
<MEAN> 39
 -9.588362e-01 -2.257291e+00 -4.117944e+00 -1.309185e+00 2.666028e+00 -5.320199e+00 -7.415017e+00 -5.919806e+00 -2.004705e+00 -9.018338e+00 -3.245466e+00 -5.634458e+00 6.381455e+01 3.058076e+00 -5.944759e-01 -1.397363e-01 4.355580e-01 5.002160e-01 -2.246873e+00 -2.652596e+00 -6.533341e-01 5.160829e-01 1.773517e-01 -4.540979e-01 -1.967838e-01 3.153475e+00 -5.220104e-02 -1.661436e-01 1.631018e-01 2.925765e-02 -6.542455e-02 -2.202610e-01 2.162792e-03 -2.621563e-01 -3.654733e-01 -1.665822e-02 -2.524948e-01 2.588570e-01 1.361901e-01
<VARIANCE> 39
 6.547815e+01 3.650877e+01 2.893495e+01 7.602163e+01 9.740459e+01 7.136321e+01 7.858482e+01 5.846858e+01 3.906782e+01 2.798309e+01 3.028214e+01 1.938905e+01 5.053327e+01 1.034361e+01 3.835650e+00 5.100731e+00 9.207958e+00 1.234284e+01 8.685516e+00 6.896682e+00 4.553084e+00 5.856036e+00 3.578352e+00 4.103672e+00 2.279157e+00 4.929234e+00 1.765534e+00 8.479099e-01 6.202100e-01 1.162081e+00 1.395461e+00 1.306243e+00 1.537743e+00 8.489139e-01 9.560863e-01 7.940674e-01 5.721220e-01 6.213309e-01 8.874285e-01
<GCONST> 1.437653e+02
<STATE> 4
<MEAN> 39
 5.210714e+00 -2.078866e+00 -3.375668e+00 -1.461114e+00 -3.014860e+00 -1.465101e+01 -1.176555e+01 -3.949323e+00 2.226348e+00 -1.097124e+01 -6.145059e+00 -2.860925e+00 6.954510e+01 4.710743e-01 -7.619080e-01 3.896519e-02 -1.991328e-01 -2.471114e-01 -9.006258e-01 -6.669882e-01 -2.254378e-01 -4.781091e-01 -3.957483e-01 -2.108611e-01 6.404010e-01 1.007210e+00 -2.943979e-01 3.255572e-02 4.198455e-02 -1.495734e-01 -2.121370e-02 2.915265e-01 2.898819e-01 -1.967691e-03 -2.968026e-01 1.210583e-01 1.353232e-01 2.126537e-02 -2.614824e-01
<VARIANCE> 39
 4.596165e+01 3.054389e+01 3.333547e+01 5.484771e+01 1.353487e+02 9.679343e+01 7.540128e+01 4.692331e+01 7.631091e+01 4.050755e+01 3.594148e+01 3.322058e+01 3.023991e+01 2.998507e+00 2.762689e+00 2.489393e+00 3.940631e+00 4.721682e+00 6.385123e+00 7.560931e+00 3.787979e+00 4.202816e+00 5.080575e+00 2.415447e+00 3.348654e+00 2.421523e+00 7.389829e-01 3.454538e-01 5.326244e-01 6.037790e-01 5.446684e-01 1.060878e+00 7.188460e-01 5.392962e-01 5.013950e-01 7.530888e-01 3.470197e-01 4.855732e-01 3.085244e-01
<GCONST> 1.318857e+02
<TRANSP> 5
 0.000000e+00 1.000000e+00 0.000000e+00 0.000000e+00 0.000000e+00
 0.000000e+00 7.977595e-01 2.022404e-01 0.000000e+00 0.000000e+00
 0.000000e+00 0.000000e+00 5.329551e-01 4.670449e-01 0.000000e+00
 0.000000e+00 0.000000e+00 0.000000e+00 5.230772e-01 4.769228e-01
 0.000000e+00 0.000000e+00 0.000000e+00 0.000000e+00 0.000000e+00
<ENDHMM>
~h "d"
<BEGINHMM>
<NUMSTATES> 5
<STATE> 2
<MEAN> 39
 1.787549e+00 -4.525442e+00 -6.428784e+00 5.526203e-01 5.663532e+00 -3.521463e+00 -5.553282e+00 -9.197066e+00 -7.607481e+00 -1.046610e+01 -2.070491e+00 -3.361243e+00 6.637273e+01 -7.071639e-01 4.122448e-01 -1.596678e-01 3.730145e-01 -8.856200e-02 7.179495e-01 8.552437e-01 2.158708e-01 1.994936e-01 -6.160334e-03 3.526602e-01 4.332832e-01 -1.036349e+00 -1.688931e-01 -1.408152e-01 3.027866e-01 -2.320507e-01 -4.496484e-02 -2.577475e-01 -2.034885e-01 -4.695874e-02 9.212454e-02 7.415079e-02 -9.462798e-02 -4.778980e-02 2.364120e-01
<VARIANCE> 39
 4.796559e+01 2.889533e+01 3.966837e+01 5.988700e+01 3.726872e+01 4.507448e+01 3.664272e+01 4.010476e+01 5.065594e+01 3.451465e+01 4.168332e+01 2.994826e+01 4.076762e+01 5.986079e-01 8.777999e-01 1.464021e+00 1.607772e+00 1.585766e+00 2.448212e+00 2.276544e+00 1.823750e+00 1.895971e+00 1.955879e+00 1.806449e+00 1.677235e+00 5.651887e-01 1.439775e-01 3.698868e-01 3.656087e-01 3.957477e-01 4.910165e-01 5.251485e-01 5.005546e-01 4.301972e-01 4.914460e-01 3.866324e-01 4.915411e-01 3.190636e-01 2.091428e-01
<GCONST> 1.117137e+02
<STATE> 3
<MEAN> 39
 1.031910e+00 -2.605643e+00 -5.533208e+00 2.706078e+00 6.097223e+00 -2.604292e+00 -4.678308e+00 -9.943446e+00 -7.780892e+00 -1.010656e+01 -8.435812e-01 -2.436607e+00 6.465591e+01 -1.307643e+00 -5.108643e-01 1.019844e+00 -4.767228e-01 2.778107e-02 -2.532625e-01 -1.905594e-01 3.227985e-01 7.887601e-01 1.881962e-01 -1.554478e-01 -1.580160e-01 4.163995e-02 -2.473686e-01 -6.113452e-01 6.591188e-01 -5.379148e-01 1.143305e-02 -5.353045e-01 -3.571605e-01 5.841187e-02 1.478237e-01 1.278375e-01 -3.174757e-01 -3.580090e-01 8.035823e-01
<VARIANCE> 39
 3.624456e+01 2.772944e+01 4.379375e+01 5.970853e+01 4.807669e+01 4.746721e+01 4.166679e+01 4.532479e+01 5.266509e+01 3.542630e+01 3.708981e+01 2.919128e+01 3.154247e+01 1.744697e+00 3.288993e+00 3.514334e+00 3.860386e+00 3.361744e+00 3.410974e+00 3.905446e+00 4.215606e+00 4.942678e+00 3.390622e+00 3.032023e+00 2.406722e+00 1.288215e+00 4.421350e-01 6.091355e-01 8.107124e-01 6.937802e-01 6.670977e-01 9.002032e-01 6.863842e-01 7.525166e-01 7.709249e-01 6.839569e-01 6.496313e-01 4.080016e-01 2.946221e-01
<GCONST> 1.281126e+02
<STATE> 4
<MEAN> 39
 -6.764082e+00 -9.761238e+00 2.532692e+00 -2.624981e-01 3.638326e+00 -4.988230e+00 -4.319549e+00 -7.436186e+00 -4.973935e+00 -7.958041e+00 -1.321659e+00 -4.794741e+00 6.701803e+01 -6.983294e-01 -9.213188e-01 1.135384e+00 -5.881665e-01 -1.759913e-01 -5.189812e-01 -2.238265e-01 -6.678958e-02 -2.490740e-01 -1.995361e-02 -2.729397e-01 -4.919071e-01 7.984647e-01 4.033625e-01 3.237037e-01 -3.297209e-01 7.149605e-02 -1.513984e-03 5.845020e-02 2.519868e-02 -1.449707e-01 -3.095110e-01 -1.373538e-01 -6.862649e-02 2.582962e-02 -5.267078e-02
<VARIANCE> 39
 4.948970e+01 6.422150e+01 7.001169e+01 6.695468e+01 5.736495e+01 6.229486e+01 6.742326e+01 6.338023e+01 6.777399e+01 6.359831e+01 4.726326e+01 3.093253e+01 5.314028e+01 6.400882e+00 6.130862e+00 7.494371e+00 6.979043e+00 4.722123e+00 5.111710e+00 5.118732e+00 4.554473e+00 6.127213e+00 3.542345e+00 4.007995e+00 2.716840e+00 4.339267e+00 6.915123e-01 7.428585e-01 9.855641e-01 1.071797e+00 7.030129e-01 8.621656e-01 8.268640e-01 6.902421e-01 1.014149e+00 6.468798e-01 6.190901e-01 4.776769e-01 6.275364e-01
<GCONST> 1.414787e+02
<TRANSP> 5
 0.000000e+00 1.000000e+00 0.000000e+00 0.000000e+00 0.000000e+00
 0.000000e+00 5.115867e-01 4.884132e-01 0.000000e+00 0.000000e+00
 0.000000e+00 0.000000e+00 2.715129e-01 7.284871e-01 0.000000e+00
 0.000000e+00 0.000000e+00 0.000000e+00 6.890284e-01 3.109716e-01
 0.000000e+00 0.000000e+00 0.000000e+00 0.000000e+00 0.000000e+00
<ENDHMM>
~h "f"
<BEGINHMM>
<NUMSTATES> 5
<STATE> 2
<MEAN> 39
 -1.725679e+01 -7.370142e-01 -3.289520e+00 -5.873229e+00 1.318647e+01 -9.914564e+00 7.923609e-01 -6.554887e+00 -6.605277e+00 -1.058487e+01 -3.181638e+00 -7.122160e+00 7.185578e+01 -2.128319e+00 3.082615e-01 1.339612e-01 -4.539685e-01 4.229488e-01 -2.032743e-01 2.684135e-01 4.477699e-01 2.754737e-01 2.135862e-02 1.443993e-01 -5.903668e-01 2.766886e-02 3.905627e-01 -1.553072e-01 -6.649137e-02 1.516747e-02 -3.493264e-01 -1.666391e-02 -2.984524e-01 -8.474481e-02 1.140969e-01 8.498687e-02 -8.494481e-04 4.756138e-02 8.798797e-03
<VARIANCE> 39
 8.973345e+01 2.652435e+01 3.815723e+01 5.428768e+01 7.890950e+01 4.274150e+01 3.556014e+01 5.348719e+01 4.461409e+01 3.555074e+01 3.032012e+01 4.296810e+01 3.663908e+01 4.349891e+00 2.047452e+00 1.631355e+00 1.821422e+00 3.526024e+00 2.826774e+00 3.812433e+00 2.578463e+00 3.160250e+00 2.525540e+00 2.188099e+00 2.208829e+00 1.253502e+00 5.899186e-01 2.743063e-01 3.061366e-01 3.446343e-01 5.396543e-01 5.629689e-01 6.197920e-01 4.873990e-01 5.118792e-01 5.164282e-01 4.061944e-01 4.554044e-01 2.393005e-01
<GCONST> 1.217370e+02
<STATE> 3
<MEAN> 39
 -2.190288e+01 -2.864473e+00 -5.044723e+00 -9.858595e+00 7.407669e+00 -1.257607e+01 -2.330863e+00 -4.918149e+00 -1.702277e+00 -8.178082e+00 -2.258493e+00 -9.394202e+00 7.296044e+01 2.833950e+00 1.984499e-01 5.595785e-01 -7.384985e-01 -2.317558e+00 -1.288015e+00 -8.098012e-01 -7.728863e-01 5.158628e-01 8.606338e-01 3.102530e-01 3.220330e-01 3.576987e-01 1.263794e+00 5.303726e-01 4.410035e-01 1.665367e-02 -2.759120e-02 -2.810250e-01 -1.463970e-01 -1.156204e-01 -3.076510e-01 1.455528e-01 -1.068313e-01 1.161707e-01 -8.899066e-02
<VARIANCE> 39
 4.936524e+01 3.433171e+01 3.223070e+01 4.519976e+01 8.503176e+01 4.846396e+01 3.168669e+01 4.105011e+01 4.256955e+01 4.204935e+01 2.306230e+01 3.042504e+01 2.163231e+01 8.642747e+00 4.816115e+00 4.743356e+00 4.058942e+00 4.911012e+00 4.104772e+00 3.093608e+00 3.609610e+00 3.497532e+00 3.423606e+00 1.859532e+00 2.877239e+00 1.706027e+00 4.428921e-01 7.542721e-01 7.357203e-01 7.155460e-01 8.367792e-01 6.763543e-01 7.219412e-01 5.848909e-01 5.881700e-01 5.915999e-01 4.086021e-01 5.464798e-01 2.270599e-01
<GCONST> 1.285988e+02
<STATE> 4
<MEAN> 39
 -4.710704e+00 1.914906e+00 -1.111524e+00 -1.117121e+01 -1.495001e+00 -1.660636e+01 -4.098318e+00 -5.493392e+00 -4.802901e-02 -3.322528e+00 -2.098383e+00 -7.391904e+00 7.218214e+01 3.523331e+00 5.429325e-01 1.986103e-01 -3.835660e-01 -7.500414e-01 -6.447358e-01 -1.180675e+00 -5.349661e-02 -1.619969e-01 7.421130e-01 -8.791072e-01 4.507180e-01 -1.898547e-01 -3.723873e-01 -4.515210e-01 -5.800211e-01 1.718151e-01 2.922157e-01 3.531826e-01 -1.155099e-01 1.332241e-01 -1.006483e-01 -1.789007e-01 -2.658750e-01 1.514307e-01 3.051332e-02
<VARIANCE> 39
 9.284447e+01 4.632263e+01 4.513099e+01 6.618713e+01 7.404971e+01 6.198432e+01 6.213584e+01 5.085543e+01 4.174412e+01 4.032045e+01 2.814591e+01 2.092988e+01 2.422903e+01 9.118923e+00 5.212132e+00 4.870745e+00 3.606187e+00 4.857313e+00 5.124056e+00 4.640762e+00 2.765318e+00 3.385817e+00 4.074535e+00 2.205890e+00 2.096131e+00 9.770999e-01 7.710353e-01 8.360105e-01 7.984906e-01 5.399881e-01 6.601250e-01 7.044774e-01 7.031448e-01 4.899217e-01 5.172148e-01 4.829557e-01 4.092889e-01 4.261064e-01 1.038774e-01
<GCONST> 1.296466e+02
<TRANSP> 5
 0.000000e+00 1.000000e+00 0.000000e+00 0.000000e+00 0.000000e+00
 0.000000e+00 8.796923e-01 1.203078e-01 0.000000e+00 0.000000e+00
 0.000000e+00 0.000000e+00 7.021106e-01 2.978894e-01 0.000000e+00
 0.000000e+00 0.000000e+00 0.000000e+00 6.879879e-01 3.120121e-01
 0.000000e+00 0.000000e+00 0.000000e+00 0.000000e+00 0.000000e+00
<ENDHMM>
~h "g"
<BEGINHMM>
<NUMSTATES> 5
<STATE> 2
<MEAN> 39
 -3.750641e+00 -4.899185e+00 -6.841827e+00 -5.463881e+00 5.929419e+00 -8.671079e+00 -4.421119e+00 -6.072923e+00 -3.836295e+00 -1.155765e+01 -2.640242e+00 -5.201621e+00 6.671047e+01 7.954609e-02 -5.669990e-01 2.127346e-01 -9.070246e-01 4.446463e-01 -1.609347e+00 3.783010e-01 3.254215e-01 -3.121303e-01 -5.866706e-01 -2.624098e-01 -1.351802e-01 1.467434e+00 4.536861e-01 2.391531e-01 2.826633e-01 2.899187e-01 -5.650378e-02 5.715331e-02 -1.638524e-01 -3.057180e-01 -5.369428e-01 1.522454e-01 -5.396686e-02 -6.197650e-02 2.276273e-02
<VARIANCE> 39
 2.712358e+01 2.795459e+01 6.952287e+01 1.186126e+02 9.539870e+01 8.940585e+01 1.282135e+02 1.234305e+02 6.310770e+01 8.913445e+01 5.752328e+01 4.475141e+01 4.069077e+01 3.722348e+00 3.498270e+00 4.767386e+00 9.634275e+00 6.965941e+00 5.822762e+00 6.472651e+00 9.380451e+00 8.581897e+00 7.131762e+00 5.571925e+00 3.242368e+00 4.041129e+00 4.875678e-01 7.877191e-01 1.082982e+00 1.587764e+00 9.975336e-01 1.378581e+00 1.329201e+00 1.698162e+00 1.124221e+00 1.190726e+00 8.664877e-01 7.176863e-01 8.270310e-01
<GCONST> 1.491927e+02
<STATE> 3
<MEAN> 39
 1.016014e+00 -5.521700e+00 -1.737118e+00 -2.058465e+00 1.120332e+01 -1.116088e+01 -8.146998e+00 -1.129324e+01 -1.105729e+01 -9.762710e+00 -1.447687e+00 -5.391688e+00 7.184151e+01 1.357801e+00 5.902877e-01 1.647776e-01 6.683803e-01 -3.374719e-01 5.002532e-01 -2.950960e-01 -2.034878e-01 -1.177060e+00 7.626170e-02 6.659303e-02 -2.974764e-01 7.197629e-02 4.090298e-03 1.945387e-01 -2.360315e-01 8.390523e-02 -4.011210e-01 8.146767e-02 -2.342639e-01 -2.190599e-01 4.879569e-01 5.301091e-01 -1.439141e-01 -1.114147e-01 -1.901405e-01
<VARIANCE> 39
 1.722776e+01 2.247084e+01 4.890137e+01 9.302837e+01 8.592088e+01 7.433811e+01 9.205606e+01 8.540940e+01 9.069394e+01 7.760925e+01 7.236250e+01 2.533856e+01 1.664139e+01 3.158017e+00 2.382553e+00 4.807953e+00 6.090117e+00 3.162732e+00 6.134647e+00 4.242981e+00 4.933910e+00 6.035247e+00 5.238853e+00 5.484528e+00 4.107290e+00 1.231067e+00 3.674504e-01 3.257207e-01 5.609583e-01 6.887918e-01 4.249597e-01 7.168572e-01 7.199916e-01 1.116403e+00 1.443798e+00 8.537151e-01 6.753409e-01 5.821004e-01 2.672513e-01
<GCONST> 1.346289e+02
<STATE> 4
<MEAN> 39
 2.463049e+00 -3.122115e+00 -4.869184e+00 -7.304668e-03 1.168574e+01 -5.788543e+00 -7.276894e+00 -8.992395e+00 -8.971804e+00 -1.113115e+01 -2.567110e+00 -5.984826e+00 6.853709e+01 8.744876e-01 4.167557e-01 -1.913900e-01 -7.602992e-02 -4.956175e-01 -3.751930e-01 -4.902376e-01 5.893533e-02 -9.925604e-03 2.067537e-01 -8.352392e-01 -4.991162e-01 3.182073e-01 -1.903622e-01 -1.564704e-01 -6.792163e-02 -2.357747e-01 -7.720035e-02 -1.552301e-01 -6.857196e-02 1.644453e-01 3.386489e-01 1.832579e-01 -9.261465e-02 -3.278510e-02 1.410697e-01
<VARIANCE> 39
 2.325448e+01 2.333074e+01 3.129334e+01 1.000147e+02 8.519312e+01 7.566740e+01 7.321550e+01 7.433834e+01 5.418469e+01 4.928354e+01 6.905273e+01 1.356042e+01 2.482142e+01 3.977385e+00 2.299814e+00 3.332204e+00 5.994572e+00 3.361142e+00 6.563305e+00 5.104832e+00 9.069406e+00 3.988178e+00 5.691444e+00 3.093722e+00 3.538676e+00 1.470422e+00 3.999719e-01 3.240147e-01 7.359813e-01 1.384462e+00 4.695088e-01 1.011926e+00 7.673780e-01 1.530889e+00 1.187297e+00 8.110809e-01 6.885278e-01 3.382573e-01 3.191484e-01
<GCONST> 1.341323e+02
<TRANSP> 5
 0.000000e+00 1.000000e+00 0.000000e+00 0.000000e+00 0.000000e+00
 0.000000e+00 7.358975e-01 2.641025e-01 0.000000e+00 0.000000e+00
 0.000000e+00 0.000000e+00 4.024185e-01 5.975815e-01 0.000000e+00
 0.000000e+00 0.000000e+00 0.000000e+00 4.596497e-01 5.403503e-01
 0.000000e+00 0.000000e+00 0.000000e+00 0.000000e+00 0.000000e+00
<ENDHMM>
~h "k"
<BEGINHMM>
<NUMSTATES> 5
<STATE> 2
<MEAN> 39
 -4.223505e+00 -2.796558e+00 -4.246105e+00 7.720211e-02 6.088832e+00 -2.899127e+00 -3.606861e+00 -9.881544e+00 -6.077874e+00 -6.430330e+00 6.086709e-01 -3.634879e+00 6.231550e+01 -1.043401e+00 -2.710431e-01 -3.779284e-01 -3.056151e+00 -1.514296e-01 -1.809899e+00 3.023333e-01 1.027030e+00 4.108571e-01 -4.228355e-01 -3.660734e-01 1.594760e-01 7.870777e-01 -9.500380e-02 -5.345743e-01 8.246344e-02 -8.743894e-01 -2.372356e-01 -7.925398e-01 3.713986e-02 2.828289e-01 9.043252e-02 -2.603915e-01 -1.505720e-01 -4.584173e-02 8.262175e-01
<VARIANCE> 39
 3.990193e+01 4.790847e+01 4.130969e+01 9.962236e+01 1.135852e+02 6.063774e+01 5.159352e+01 8.508416e+01 6.197635e+01 4.548956e+01 4.368587e+01 4.223439e+01 3.485069e+01 2.951409e+00 4.210897e+00 5.020407e+00 1.265786e+01 8.372038e+00 1.030386e+01 5.391167e+00 6.361346e+00 6.247705e+00 6.196780e+00 5.740457e+00 3.793729e+00 3.511296e+00 3.280323e-01 5.790145e-01 6.743665e-01 1.538176e+00 1.182477e+00 1.439285e+00 5.840941e-01 1.036669e+00 8.592479e-01 8.019347e-01 8.040190e-01 4.351133e-01 4.256903e-01
<GCONST> 1.425816e+02
<STATE> 3
<MEAN> 39
 -7.020048e+00 -6.743610e+00 -5.849874e+00 -1.580890e+01 3.210418e+00 -1.609601e+01 -2.310112e+00 -4.219720e+00 -3.708247e+00 -1.140067e+01 -1.465621e+00 -3.410703e+00 7.121748e+01 -1.021192e+00 -1.993055e+00 4.894533e-01 -2.811749e+00 -9.038000e-01 -2.014042e+00 5.664455e-01 8.839468e-01 1.053818e-01 -9.422879e-01 -3.637141e-01 -1.642214e-01 2.131152e+00 2.721566e-01 -5.393235e-02 4.369220e-01 1.444584e+00 1.334974e-02 1.227016e+00 -7.082685e-02 -4.389775e-01 -3.627788e-01 4.129344e-01 7.248441e-02 -1.043115e-01 -6.044413e-01
<VARIANCE> 39
 2.576021e+01 5.766148e+01 4.997126e+01 1.110053e+02 9.639788e+01 1.218942e+02 9.304235e+01 8.757428e+01 7.080080e+01 9.691648e+01 8.129247e+01 5.372096e+01 3.037201e+01 3.754975e+00 4.384380e+00 5.485997e+00 1.170859e+01 7.079290e+00 1.072885e+01 5.158305e+00 6.778263e+00 7.098398e+00 4.795791e+00 4.427798e+00 3.827366e+00 3.643315e+00 5.261558e-01 7.379739e-01 6.849797e-01 1.621819e+00 1.480149e+00 1.705011e+00 1.055356e+00 1.270903e+00 1.213101e+00 1.120854e+00 9.618465e-01 7.719443e-01 5.714158e-01
<GCONST> 1.489350e+02
<STATE> 4
<MEAN> 39
 -6.301363e+00 -1.065443e+01 -2.143122e+00 -1.182925e+01 1.846628e+00 -1.025048e+01 -2.744160e+00 -4.748568e+00 -6.724408e+00 -1.011184e+01 -1.897290e+00 -4.668808e+00 7.038673e+01 1.327932e+00 7.989510e-01 1.020934e+00 1.726561e+00 -2.196901e-01 1.166533e+00 -5.643997e-01 -8.071901e-01 -6.511666e-01 7.668286e-01 -1.608935e-01 -2.638708e-01 -3.840075e-01 4.795872e-01 7.135882e-01 -1.520101e-01 2.728074e-01 -3.106275e-02 -1.030009e-01 -2.394817e-01 -3.322415e-01 1.341693e-02 8.977197e-02 2.410884e-02 -2.595389e-02 -7.066675e-02
<VARIANCE> 39
 3.696784e+01 5.923683e+01 6.596072e+01 8.690679e+01 7.214729e+01 1.046056e+02 6.784951e+01 9.918961e+01 5.890685e+01 7.051855e+01 5.869954e+01 3.816313e+01 2.385243e+01 4.204977e+00 6.218503e+00 3.481101e+00 4.132943e+00 3.793482e+00 4.358643e+00 3.999332e+00 4.498614e+00 3.625313e+00 3.712701e+00 2.251997e+00 2.271111e+00 1.271194e+00 5.381271e-01 9.554658e-01 8.136454e-01 1.059394e+00 6.444337e-01 9.656391e-01 8.159524e-01 8.487296e-01 5.892116e-01 6.756063e-01 4.900947e-01 4.627983e-01 3.030553e-01
<GCONST> 1.358271e+02
<TRANSP> 5
 0.000000e+00 1.000000e+00 0.000000e+00 0.000000e+00 0.000000e+00
 0.000000e+00 6.352634e-01 3.647365e-01 0.000000e+00 0.000000e+00
 0.000000e+00 0.000000e+00 5.538014e-01 4.461986e-01 0.000000e+00
 0.000000e+00 0.000000e+00 0.000000e+00 7.418886e-01 2.581113e-01
 0.000000e+00 0.000000e+00 0.000000e+00 0.000000e+00 0.000000e+00
<ENDHMM>
~h "l"
<BEGINHMM>
<NUMSTATES> 5
<STATE> 2
<MEAN> 39
 7.318762e+00 -5.535203e+00 -4.755561e+00 -8.381019e-01 7.170555e+00 -7.558672e+00 -9.157381e+00 -8.917512e+00 -1.029582e+01 -1.177766e+01 -6.810697e+00 -5.583107e+00 7.287193e+01 4.268524e-01 -9.419486e-03 -8.822010e-01 7.060294e-01 7.798009e-01 -3.462753e-02 1.123915e-01 -1.969849e-01 -4.931690e-01 -7.932034e-01 -5.460593e-02 4.511203e-01 6.228865e-02 -2.180448e-01 3.442892e-02 1.905033e-01 -5.691383e-02 -5.052904e-02 6.004824e-02 6.643260e-02 1.717363e-01 2.730965e-01 6.641899e-02 7.922740e-02 8.464015e-02 -1.070496e-01
<VARIANCE> 39
 1.358186e+01 3.208508e+01 4.711568e+01 4.008355e+01 3.859559e+01 7.095975e+01 2.691811e+01 8.136179e+01 5.947375e+01 3.846839e+01 4.029085e+01 3.068966e+01 1.608136e+01 8.086398e-01 2.065093e+00 2.628464e+00 2.791192e+00 2.240086e+00 4.662220e+00 2.605089e+00 3.394403e+00 3.767798e+00 2.626445e+00 2.403101e+00 2.373861e+00 8.751115e-01 1.075380e-01 2.131716e-01 3.101581e-01 4.273914e-01 3.582677e-01 7.142390e-01 5.575454e-01 6.699536e-01 6.130762e-01 4.982547e-01 4.179166e-01 3.968334e-01 1.030946e-01
<GCONST> 1.160704e+02
<STATE> 3
<MEAN> 39
 8.209617e+00 -7.576601e+00 -7.566825e+00 2.736173e+00 9.615267e+00 -6.719100e+00 -9.442788e+00 -9.950675e+00 -1.161685e+01 -1.539709e+01 -5.704594e+00 -2.252060e+00 7.305266e+01 -2.163088e-01 3.565675e-01 -1.000549e-01 3.233980e-01 3.191489e-01 5.941454e-01 2.428751e-01 1.740280e-01 1.973043e-01 -3.012836e-01 1.022602e-01 8.322741e-02 -4.546293e-01 -1.383012e-01 4.133948e-02 1.101852e-01 -1.744501e-01 -6.419182e-02 -5.099529e-02 -1.900271e-05 1.946690e-02 6.693079e-02 1.680118e-01 3.510589e-02 -5.458301e-02 -3.348330e-02
<VARIANCE> 39
 9.363562e+00 1.920659e+01 2.652079e+01 3.175847e+01 3.733334e+01 4.449033e+01 2.497754e+01 2.863730e+01 4.535989e+01 3.114979e+01 4.703954e+01 2.922499e+01 1.264820e+01 4.518107e-01 8.040479e-01 1.173164e+00 1.564389e+00 1.762263e+00 2.988158e+00 2.279774e+00 2.167712e+00 2.114367e+00 1.932202e+00 2.173109e+00 1.407713e+00 5.383999e-01 5.254462e-02 1.175379e-01 1.806325e-01 2.455624e-01 2.790779e-01 5.164469e-01 3.879004e-01 3.980677e-01 3.662827e-01 3.848732e-01 3.450425e-01 2.862456e-01 6.519642e-02
<GCONST> 1.003579e+02
<STATE> 4
<MEAN> 39
 2.047275e+00 -1.394972e+00 -4.618131e+00 4.081910e-01 6.685566e+00 -1.424057e-01 -4.550916e+00 -9.945248e+00 -9.146465e+00 -1.357652e+01 -6.426865e+00 -4.139024e+00 6.546490e+01 -7.421473e-01 1.048651e-01 3.934011e-01 -1.454483e-01 -1.555514e-01 -2.122560e-01 1.248520e-01 8.310048e-02 1.152432e-01 3.188985e-01 1.340279e-01 -1.269003e-01 -4.036464e-01 -4.575973e-02 -1.863626e-01 1.036823e-01 -1.166920e-01 -1.028928e-01 -2.823518e-01 -1.969998e-01 -5.340317e-02 5.140809e-02 1.831115e-01 5.655622e-02 2.530322e-02 1.591618e-01
<VARIANCE> 39
 4.676331e+01 2.489264e+01 3.630479e+01 3.903564e+01 4.415162e+01 4.465590e+01 2.917760e+01 3.801283e+01 4.024132e+01 3.439672e+01 3.616997e+01 2.372651e+01 4.323264e+01 6.714181e-01 1.199297e+00 1.218717e+00 1.770160e+00 2.199697e+00 3.469718e+00 2.702836e+00 2.461988e+00 2.386615e+00 2.628643e+00 1.718522e+00 1.688143e+00 7.424300e-01 1.067780e-01 1.732301e-01 2.332242e-01 3.572109e-01 3.009818e-01 5.690680e-01 4.082843e-01 4.612684e-01 4.218219e-01 5.579225e-01 3.230734e-01 2.933878e-01 9.280342e-02
<GCONST> 1.093396e+02
<TRANSP> 5
 0.000000e+00 1.000000e+00 0.000000e+00 0.000000e+00 0.000000e+00
 0.000000e+00 5.101064e-01 4.898936e-01 0.000000e+00 0.000000e+00
 0.000000e+00 0.000000e+00 7.697731e-01 2.302269e-01 0.000000e+00
 0.000000e+00 0.000000e+00 0.000000e+00 7.154559e-01 2.845441e-01
 0.000000e+00 0.000000e+00 0.000000e+00 0.000000e+00 0.000000e+00
<ENDHMM>
~h "m"
<BEGINHMM>
<NUMSTATES> 5
<STATE> 2
<MEAN> 39
 9.051172e+00 -3.758117e+00 -1.004113e+01 8.188502e-01 6.711656e+00 -7.588198e+00 -1.043921e+01 -6.209834e+00 -3.678678e+00 -1.101148e+01 -4.878170e+00 -5.833260e+00 7.064749e+01 2.571673e-02 6.623209e-01 -1.990761e-01 8.846229e-01 3.553586e-01 5.893364e-01 7.477886e-02 -7.486130e-02 1.158620e+00 3.794475e-01 -3.618304e-01 -7.953098e-01 -7.051396e-01 -1.430075e-01 -2.599302e-03 1.113934e-01 -2.297357e-01 -5.746029e-03 -1.478393e-01 -6.958272e-02 -1.387481e-01 -1.071666e-01 1.755405e-01 1.313283e-02 8.109808e-03 7.261729e-02
<VARIANCE> 39
 1.697476e+01 2.143906e+01 4.097741e+01 4.634153e+01 2.708949e+01 2.588470e+01 3.070866e+01 3.359796e+01 4.469298e+01 3.257194e+01 2.255861e+01 4.222509e+01 1.249576e+01 5.722525e-01 6.456499e-01 1.043704e+00 2.091608e+00 1.322966e+00 1.710181e+00 1.921447e+00 1.558219e+00 1.998650e+00 1.671093e+00 1.017843e+00 1.330741e+00 3.304747e-01 5.116166e-02 1.046975e-01 1.288859e-01 2.633047e-01 2.183772e-01 2.863851e-01 3.561662e-01 2.913714e-01 3.301159e-01 2.697000e-01 2.065561e-01 2.312136e-01 3.668942e-02
<GCONST> 9.496729e+01
<STATE> 3
<MEAN> 39
 7.152526e+00 5.606188e-01 -7.476193e+00 3.490910e+00 7.981897e+00 -5.978258e+00 -1.048719e+01 -7.585213e+00 2.209940e+00 -5.017574e+00 -6.275859e+00 -1.210473e+01 6.733676e+01 -2.754804e-01 4.389282e-01 2.134383e-01 8.687377e-05 -3.576554e-03 1.945333e-02 -1.173836e-01 -4.407726e-01 2.189986e-01 6.913435e-01 1.511612e-01 -3.292122e-01 -3.131089e-01 -2.589079e-02 -1.053404e-01 4.276488e-02 -4.481518e-01 -3.066751e-01 -2.710457e-01 -1.084922e-02 3.227727e-02 -3.580412e-01 -2.200046e-01 8.569308e-02 3.229716e-01 1.703976e-01
<VARIANCE> 39
 1.610855e+01 1.485866e+01 3.521385e+01 2.625794e+01 2.451936e+01 3.145345e+01 3.654463e+01 3.477585e+01 3.421502e+01 3.377419e+01 1.987928e+01 2.979264e+01 7.968741e+00 5.594459e-01 6.504422e-01 1.183584e+00 1.674073e+00 1.307186e+00 1.547309e+00 2.379811e+00 1.457775e+00 1.705717e+00 1.392135e+00 1.043262e+00 1.417044e+00 3.402368e-01 5.749641e-02 1.117056e-01 1.581297e-01 2.989123e-01 2.354189e-01 3.595797e-01 3.677048e-01 2.860390e-01 2.896858e-01 3.360463e-01 2.130300e-01 2.700632e-01 5.305711e-02
<GCONST> 9.414822e+01
<STATE> 4
<MEAN> 39
 5.072458e+00 1.471740e+00 -6.361259e+00 1.443893e+00 5.934708e+00 -7.145973e+00 -9.892632e+00 -9.354098e+00 -1.173072e-03 -5.464304e+00 -5.415187e+00 -1.031014e+01 6.663631e+01 -9.166582e-02 -1.959608e-01 -2.926095e-01 -1.864263e+00 -1.218414e+00 -1.338740e+00 -3.983251e-01 -1.235334e-01 -6.218790e-01 -3.679389e-01 2.146453e-01 1.043243e+00 7.036843e-01 4.145383e-02 -4.037142e-01 -1.169381e-01 -3.746574e-01 -2.033680e-01 -4.900433e-01 -5.371098e-02 2.706518e-01 -2.287114e-01 -2.337479e-01 1.137427e-01 4.854413e-01 3.838168e-01
<VARIANCE> 39
 3.372675e+01 1.968295e+01 4.286389e+01 3.410388e+01 2.879768e+01 3.975930e+01 5.106843e+01 3.921119e+01 3.672800e+01 4.818029e+01 2.170618e+01 3.489349e+01 1.994787e+01 1.803819e+00 1.778952e+00 3.384231e+00 3.932912e+00 4.082358e+00 5.124917e+00 3.254053e+00 3.110056e+00 2.853269e+00 4.252163e+00 2.258186e+00 3.452176e+00 1.179224e+00 2.613529e-01 2.205917e-01 2.943504e-01 6.596884e-01 5.059582e-01 6.814451e-01 6.131428e-01 3.853177e-01 4.400477e-01 7.407441e-01 4.153503e-01 7.133576e-01 1.551332e-01
<GCONST> 1.198327e+02
<TRANSP> 5
 0.000000e+00 1.000000e+00 0.000000e+00 0.000000e+00 0.000000e+00
 0.000000e+00 7.428280e-01 2.571720e-01 0.000000e+00 0.000000e+00
 0.000000e+00 0.000000e+00 6.824390e-01 3.175610e-01 0.000000e+00
 0.000000e+00 0.000000e+00 0.000000e+00 5.152839e-01 4.847161e-01
 0.000000e+00 0.000000e+00 0.000000e+00 0.000000e+00 0.000000e+00
<ENDHMM>
~h "n"
<BEGINHMM>
<NUMSTATES> 5
<STATE> 2
<MEAN> 39
 5.551684e+00 -7.236115e+00 -2.984272e+00 1.404162e+00 8.783547e+00 -5.731990e+00 -1.195202e+01 -1.310319e+01 -8.978210e+00 -9.124358e+00 -3.250869e-01 -3.723610e+00 7.278844e+01 7.443144e-01 7.643449e-01 -9.929619e-01 1.946529e+00 -1.710522e-02 6.933151e-01 2.371147e-01 6.605080e-01 1.178325e+00 6.760198e-01 3.084820e-02 -8.716666e-01 -1.156231e+00 -1.648767e-01 1.769970e-01 4.052215e-02 -2.793004e-02 -5.060175e-02 -3.608054e-01 -8.472205e-02 3.319914e-03 2.340236e-01 1.440646e-01 -2.017315e-02 -1.134781e-01 -4.050804e-02
<VARIANCE> 39
 2.219074e+01 2.274452e+01 4.479641e+01 4.712745e+01 3.538542e+01 6.135970e+01 2.895037e+01 4.156004e+01 5.903521e+01 3.636905e+01 4.617436e+01 2.413166e+01 1.858574e+01 5.926614e-01 6.581049e-01 1.585952e+00 1.922885e+00 1.824780e+00 2.507624e+00 2.047878e+00 2.238602e+00 2.549103e+00 2.135450e+00 2.195556e+00 1.932572e+00 3.903707e-01 9.026507e-02 8.727822e-02 1.727187e-01 4.261094e-01 3.067023e-01 4.336618e-01 4.439862e-01 3.296595e-01 4.645442e-01 4.432435e-01 4.464315e-01 3.058094e-01 7.687284e-02
<GCONST> 1.058291e+02
<STATE> 3
<MEAN> 39
 6.418766e+00 -2.151585e+00 -5.600313e+00 6.425557e+00 9.448718e+00 -5.943236e+00 -1.253985e+01 -1.174158e+01 -3.012351e+00 -5.796195e+00 -1.805677e+00 -7.609660e+00 6.809962e+01 -3.848419e-01 8.461421e-01 1.405174e-01 4.138039e-01 2.795623e-02 7.944182e-02 1.683585e-01 1.572996e-01 6.195450e-01 3.382913e-01 -2.607413e-01 -4.357331e-01 -7.928572e-01 -2.640043e-01 -1.319615e-01 2.582845e-01 -3.516714e-01 -6.969694e-03 -6.115984e-02 7.609026e-02 -4.795411e-03 -2.497551e-01 -2.167967e-01 8.523244e-03 2.650834e-01 1.261790e-01
<VARIANCE> 39
 1.692269e+01 1.888674e+01 1.729597e+01 2.786029e+01 1.963914e+01 3.322583e+01 2.877869e+01 2.624995e+01 4.306218e+01 2.540851e+01 4.402106e+01 2.269061e+01 1.197174e+01 6.371120e-01 5.456553e-01 1.200215e+00 1.456810e+00 1.067462e+00 1.649066e+00 1.940903e+00 1.663435e+00 2.185005e+00 1.505329e+00 1.383361e+00 1.605779e+00 2.319778e-01 7.480871e-02 1.174515e-01 1.837588e-01 2.869797e-01 2.214220e-01 3.307963e-01 3.851103e-01 3.456007e-01 3.632368e-01 3.124428e-01 3.236576e-01 2.973456e-01 4.945003e-02
<GCONST> 9.505298e+01
<STATE> 4
<MEAN> 39
 6.839459e-01 -1.904750e-01 -2.032495e+00 5.262730e+00 7.544930e+00 -5.077631e+00 -8.703448e+00 -9.336946e+00 -3.012182e+00 -7.018612e+00 -2.686986e+00 -5.853411e+00 6.408669e+01 -9.873273e-01 -2.219471e-01 6.918183e-01 -6.462525e-01 -3.115412e-01 -3.594559e-02 5.125494e-01 4.538994e-01 -3.038353e-01 -4.980594e-01 -4.662173e-02 5.729049e-01 -2.242068e-01 -1.388737e-01 -2.642052e-01 1.510392e-01 -4.896334e-01 -8.557159e-02 -1.831796e-02 -5.875359e-02 7.807203e-03 -4.709528e-02 -1.013734e-01 -1.965606e-02 5.237417e-02 2.748062e-01
<VARIANCE> 39
 5.137711e+01 2.389450e+01 2.784682e+01 4.006548e+01 2.713110e+01 5.041179e+01 5.290463e+01 4.076437e+01 4.384620e+01 2.608130e+01 3.320925e+01 3.156814e+01 3.939801e+01 1.110486e+00 1.360576e+00 2.428477e+00 3.983440e+00 2.345433e+00 3.350573e+00 3.195265e+00 3.143342e+00 3.389349e+00 3.330240e+00 2.350470e+00 2.679367e+00 9.666867e-01 2.825100e-01 2.984934e-01 4.575280e-01 7.040659e-01 4.211754e-01 5.811294e-01 6.267510e-01 5.213639e-01 5.890737e-01 4.639732e-01 3.868845e-01 4.471042e-01 1.901949e-01
<GCONST> 1.188125e+02
<TRANSP> 5
 0.000000e+00 1.000000e+00 0.000000e+00 0.000000e+00 0.000000e+00
 0.000000e+00 5.412592e-01 4.587407e-01 0.000000e+00 0.000000e+00
 0.000000e+00 0.000000e+00 7.442159e-01 2.557841e-01 0.000000e+00
 0.000000e+00 0.000000e+00 0.000000e+00 6.122286e-01 3.877713e-01
 0.000000e+00 0.000000e+00 0.000000e+00 0.000000e+00 0.000000e+00
<ENDHMM>
~h "p"
<BEGINHMM>
<NUMSTATES> 5
<STATE> 2
<MEAN> 39
 -5.913346e+00 -2.096691e-01 -8.869159e-01 -1.481667e-01 1.924896e+00 -4.275954e+00 -3.273578e+00 -6.218218e+00 -3.688627e+00 -8.647003e+00 -4.440016e+00 -5.669035e+00 5.967189e+01 -2.767774e-02 -2.549574e+00 -9.553677e-01 -7.990680e-01 7.567315e-01 -7.314777e-01 -1.700367e+00 -2.986748e-01 3.470905e-01 -1.600482e-01 -1.981137e-01 4.230749e-02 1.548755e+00 4.048448e-01 -4.976425e-01 -2.044363e-01 -2.330707e-01 2.150000e-01 -2.511404e-01 -1.548423e-01 -3.417173e-02 -1.361783e-01 6.857503e-02 2.014657e-01 1.204557e-01 7.284012e-01
<VARIANCE> 39
 2.843903e+01 5.394633e+01 3.232343e+01 5.815232e+01 9.605414e+01 9.567484e+01 4.568892e+01 5.713069e+01 7.373656e+01 4.834417e+01 2.651131e+01 4.070551e+01 1.833063e+01 4.308982e+00 5.800206e+00 5.599094e+00 5.371992e+00 5.859766e+00 6.321698e+00 4.096714e+00 2.724924e+00 6.624671e+00 4.641276e+00 2.776532e+00 2.814506e+00 2.962455e+00 2.704542e-01 1.127598e+00 5.564176e-01 5.773512e-01 7.636288e-01 8.719991e-01 8.380409e-01 4.250776e-01 9.038644e-01 8.794134e-01 4.676113e-01 5.277458e-01 2.539462e-01
<GCONST> 1.340698e+02
<STATE> 3
<MEAN> 39
 -3.396440e+00 -1.114858e+01 -6.235229e+00 -4.852997e+00 4.615437e+00 -6.435487e+00 -7.174643e+00 -5.763295e+00 -3.305386e+00 -8.970770e+00 -4.828683e+00 -4.723493e+00 6.773770e+01 1.844455e+00 3.504086e-01 2.218903e-01 -3.574470e-01 7.595303e-01 -1.001910e+00 -5.868554e-01 3.366378e-01 -5.776325e-01 2.942427e-01 9.110916e-03 2.550120e-01 1.829360e+00 3.264480e-01 1.256328e+00 5.695564e-01 1.860442e-01 -4.611234e-02 -3.492981e-01 -3.679915e-03 -2.417134e-02 -3.735710e-01 1.168797e-01 -1.600601e-02 7.020869e-02 -2.041445e-01
<VARIANCE> 39
 2.178281e+01 4.171932e+01 3.964925e+01 5.355647e+01 1.092378e+02 4.986732e+01 4.577041e+01 4.215805e+01 6.385599e+01 4.276036e+01 3.419933e+01 3.541412e+01 8.534904e+00 3.408029e+00 1.208469e+01 5.768569e+00 4.511918e+00 8.317931e+00 7.734343e+00 5.049977e+00 3.353396e+00 8.050398e+00 4.298250e+00 3.082894e+00 3.266114e+00 1.507414e+00 4.164580e-01 1.556976e+00 1.181082e+00 8.947601e-01 1.119965e+00 1.356137e+00 1.283300e+00 6.651669e-01 9.902963e-01 8.192853e-01 5.998142e-01 6.438146e-01 2.461174e-01
<GCONST> 1.370274e+02
<STATE> 4
<MEAN> 39
 1.618216e+00 -7.571146e+00 -3.508728e-01 -1.268519e-01 6.336661e+00 -9.612619e+00 -1.078023e+01 -7.610546e+00 -9.882156e+00 -1.038434e+01 -1.386796e+00 -4.305171e+00 7.157368e+01 9.937089e-01 4.554153e-01 8.543690e-02 -4.010811e-01 1.237531e-01 -1.036539e+00 -9.435067e-01 -4.061084e-01 -7.142663e-01 -5.013168e-03 1.344776e-02 5.755804e-01 1.043654e+00 -2.296357e-01 -2.378859e-01 -1.938732e-01 -2.688873e-02 -1.285859e-01 3.117692e-01 1.729777e-01 -1.211431e-01 8.434527e-02 -1.401352e-01 -5.188206e-02 3.593060e-02 -2.066378e-01
<VARIANCE> 39
 6.010233e+01 7.117373e+01 7.896450e+01 7.836058e+01 8.884763e+01 6.389442e+01 4.805967e+01 4.525504e+01 6.678249e+01 4.875180e+01 4.449601e+01 2.744993e+01 1.533485e+01 3.884099e+00 6.465787e+00 4.880538e+00 3.001458e+00 4.462408e+00 5.001384e+00 4.978722e+00 3.218183e+00 2.879190e+00 3.511574e+00 2.568924e+00 2.875042e+00 1.269039e+00 3.626780e-01 8.301895e-01 7.679029e-01 5.178950e-01 8.553990e-01 7.509618e-01 7.078735e-01 4.727364e-01 8.436680e-01 6.013066e-01 4.477743e-01 4.343084e-01 1.836133e-01
<GCONST> 1.316915e+02
<TRANSP> 5
 0.000000e+00 1.000000e+00 0.000000e+00 0.000000e+00 0.000000e+00
 0.000000e+00 5.903797e-01 4.096203e-01 0.000000e+00 0.000000e+00
 0.000000e+00 0.000000e+00 6.244265e-01 3.755735e-01 0.000000e+00
 0.000000e+00 0.000000e+00 0.000000e+00 6.161588e-01 3.838412e-01
 0.000000e+00 0.000000e+00 0.000000e+00 0.000000e+00 0.000000e+00
<ENDHMM>
~h "r"
<BEGINHMM>
<NUMSTATES> 5
<STATE> 2
<MEAN> 39
 5.277198e+00 2.293141e+00 -1.932338e+00 -4.944515e+00 3.075926e+00 -7.771024e+00 -6.148744e+00 -4.931591e+00 -7.056730e+00 -1.109843e+01 -7.775421e+00 -8.622416e+00 6.895552e+01 1.233097e+00 1.228595e+00 -1.104904e+00 -8.183522e-01 -3.200229e-01 -4.974867e-02 -3.667002e-01 -2.223631e-01 -1.064823e-01 6.225860e-02 -4.477840e-01 -5.055015e-01 -4.085833e-02 -2.677559e-01 -4.888691e-01 -4.191641e-01 2.306911e-02 4.920185e-01 2.966409e-02 -2.255521e-01 -3.008513e-01 -1.186749e-02 1.094082e-01 2.087135e-01 2.654052e-01 6.606767e-02
<VARIANCE> 39
 1.744338e+01 7.409384e+01 6.074089e+01 6.302615e+01 7.538751e+01 5.628321e+01 5.115101e+01 3.412928e+01 5.400712e+01 4.351642e+01 2.635749e+01 5.562394e+01 2.634846e+01 1.330818e+00 2.698178e+00 3.400200e+00 2.367637e+00 4.674484e+00 3.217250e+00 3.014891e+00 3.542179e+00 4.476617e+00 3.356076e+00 1.821985e+00 2.353298e+00 6.140933e-01 2.328827e-01 5.246924e-01 5.310467e-01 4.036730e-01 6.503550e-01 4.185779e-01 4.931506e-01 4.760305e-01 7.873110e-01 5.081260e-01 3.899796e-01 5.374107e-01 7.087024e-02
<GCONST> 1.218362e+02
<STATE> 3
<MEAN> 39
 9.385324e+00 8.401107e-01 -1.086830e+01 -6.937807e+00 9.727480e+00 -6.958183e+00 -1.020127e+01 -6.541352e+00 -8.943565e+00 -1.284174e+01 -9.220652e+00 -6.823755e+00 7.103707e+01 1.965374e-01 -2.927437e-03 -7.939067e-01 1.759055e-01 8.590391e-01 2.224669e-01 -4.846756e-01 -6.914573e-01 -6.131075e-03 1.690979e-01 1.690338e-01 2.509301e-01 -1.679555e-02 -2.110350e-01 -3.842668e-01 1.920071e-01 2.738556e-01 5.804145e-02 -1.376187e-01 -7.186781e-02 -4.941420e-02 5.934836e-02 7.725282e-02 2.126933e-01 2.086669e-01 1.175267e-01
<VARIANCE> 39
 6.702456e+00 3.686753e+01 3.261202e+01 5.185027e+01 6.818198e+01 3.872911e+01 3.229763e+01 2.735404e+01 4.046444e+01 3.244310e+01 2.569135e+01 4.200990e+01 1.102904e+01 4.380293e-01 2.014873e+00 2.468752e+00 1.868854e+00 3.487758e+00 2.141907e+00 2.914435e+00 2.758708e+00 3.430229e+00 2.583276e+00 1.783307e+00 2.670424e+00 7.259137e-01 8.811811e-02 2.408934e-01 2.881378e-01 2.818952e-01 4.204651e-01 3.716282e-01 3.672281e-01 3.294531e-01 4.825649e-01 3.312792e-01 2.873088e-01 3.308878e-01 5.365628e-02
<GCONST> 1.073256e+02
<STATE> 4
<MEAN> 39
 7.129448e+00 -1.857391e+00 -7.769526e+00 -1.422344e+00 1.376176e+01 -5.747462e+00 -1.306105e+01 -1.061976e+01 -9.507421e+00 -1.110437e+01 -5.671113e+00 -5.790759e+00 7.103913e+01 -4.047611e-01 -1.519513e+00 4.860258e-01 1.343603e+00 5.482126e-01 -5.282607e-01 -7.856183e-01 -3.869899e-01 -1.089569e-01 2.697395e-01 1.154717e+00 7.533121e-01 5.464095e-01 -2.466717e-01 1.280239e-02 5.226343e-01 1.262144e-01 -4.799005e-01 -3.441085e-02 4.411480e-01 3.134605e-01 1.735813e-01 7.797277e-03 -2.460897e-02 -1.628148e-01 -8.505803e-02
<VARIANCE> 39
 1.755649e+01 3.993938e+01 1.009543e+02 1.092055e+02 1.033806e+02 5.833697e+01 4.089843e+01 3.711285e+01 5.057795e+01 4.398490e+01 3.172362e+01 3.571159e+01 1.174254e+01 5.526642e-01 2.198109e+00 4.628356e+00 3.230189e+00 4.855740e+00 3.612942e+00 3.915910e+00 3.284340e+00 3.247484e+00 2.873922e+00 2.719646e+00 2.645620e+00 7.529779e-01 7.481321e-02 2.693917e-01 4.932133e-01 4.369102e-01 7.446424e-01 5.667863e-01 5.091593e-01 5.071655e-01 5.280452e-01 4.395254e-01 4.862257e-01 4.037518e-01 7.169873e-02
<GCONST> 1.196325e+02
<TRANSP> 5
 0.000000e+00 1.000000e+00 0.000000e+00 0.000000e+00 0.000000e+00
 0.000000e+00 5.949399e-01 4.050602e-01 0.000000e+00 0.000000e+00
 0.000000e+00 0.000000e+00 6.903208e-01 3.096792e-01 0.000000e+00
 0.000000e+00 0.000000e+00 0.000000e+00 5.741902e-01 4.258099e-01
 0.000000e+00 0.000000e+00 0.000000e+00 0.000000e+00 0.000000e+00
<ENDHMM>
~h "s"
<BEGINHMM>
<NUMSTATES> 5
<STATE> 2
<MEAN> 39
 -4.671970e+00 -6.292219e+00 7.178598e+00 -9.691447e+00 7.875880e+00 -2.839800e+00 -5.597284e+00 -1.071715e+01 -8.070849e+00 -7.918196e+00 -3.197957e+00 -5.555683e+00 7.340406e+01 -4.826410e+00 4.000555e-01 3.833763e+00 -3.284517e+00 1.006968e+00 9.013278e-01 1.834738e+00 -8.364072e-01 7.477171e-01 -3.150775e-02 2.927179e-01 -3.755825e-01 1.297505e+00 -6.841027e-01 3.833038e-01 -8.465549e-02 2.603467e-02 -2.735418e-01 -1.146971e-01 6.821798e-02 -3.669560e-01 3.137346e-01 -1.136117e-01 4.370114e-02 8.686338e-02 2.412667e-01
<VARIANCE> 39
 8.997203e+01 3.105659e+01 9.343655e+01 9.037258e+01 6.423611e+01 7.005772e+01 7.521803e+01 7.475262e+01 8.044413e+01 5.919913e+01 4.530405e+01 3.921215e+01 3.346150e+01 4.365386e+00 2.121515e+00 3.607227e+00 3.856471e+00 2.727947e+00 3.334715e+00 4.680246e+00 3.532394e+00 5.018302e+00 3.970397e+00 3.317266e+00 2.937600e+00 9.932388e-01 8.449796e-01 2.720005e-01 1.181231e+00 1.316651e+00 6.391478e-01 5.635368e-01 7.991178e-01 5.758629e-01 7.604387e-01 7.264905e-01 5.518918e-01 4.373765e-01 1.969906e-01
<GCONST> 1.338298e+02
<STATE> 3
<MEAN> 39
 -2.626477e+01 -2.134264e+00 1.588949e+01 -1.595985e+01 6.508363e+00 2.557993e-03 -9.526505e-02 -1.455451e+01 -4.485300e+00 -8.945719e+00 -2.156374e+00 -5.502831e+00 7.717277e+01 -1.481514e+00 1.443917e-01 5.376661e-01 5.183652e-03 -4.252046e-01 -5.761868e-02 4.580115e-01 -1.367173e-01 1.396402e-01 -4.922250e-02 -2.040810e-01 2.746982e-02 -4.382577e-01 6.876173e-01 -2.604071e-01 -2.517336e-01 2.516491e-01 -3.181318e-02 -2.065271e-01 -1.916113e-01 1.597370e-01 -1.788616e-01 5.965149e-02 -8.485614e-02 3.824799e-02 -2.732733e-01
<VARIANCE> 39
 4.147800e+01 2.424537e+01 4.061573e+01 4.631872e+01 4.238381e+01 4.199956e+01 5.827222e+01 5.169181e+01 4.272779e+01 3.171281e+01 3.144657e+01 2.770352e+01 1.797231e+01 3.726063e+00 1.707962e+00 1.408420e+00 1.535311e+00 1.563042e+00 2.142014e+00 1.862847e+00 2.220098e+00 2.299726e+00 1.783596e+00 1.566307e+00 1.336378e+00 1.029768e+00 2.737247e-01 1.894598e-01 3.730179e-01 4.553823e-01 3.207774e-01 3.597465e-01 3.785814e-01 4.396267e-01 4.021653e-01 3.479173e-01 3.056816e-01 2.878551e-01 1.057417e-01
<GCONST> 1.105963e+02
<STATE> 4
<MEAN> 39
 -2.115845e+01 -6.355252e+00 1.684069e+01 -1.343061e+01 4.119825e+00 -4.986601e+00 -9.702921e-01 -1.362282e+01 -5.830578e+00 -6.796320e+00 -4.791139e+00 -5.002542e+00 7.099475e+01 2.497139e+00 -3.636039e-01 -1.064670e+00 3.985850e-01 -4.143904e-01 -7.346336e-01 -1.058029e+00 3.933064e-01 -3.899417e-01 4.149867e-01 -2.198576e-01 1.078460e-01 -4.128848e-01 3.165791e-01 6.575693e-02 -4.534273e-01 9.969976e-02 -6.409650e-02 6.932297e-02 -1.814310e-01 1.029144e-01 5.507249e-02 1.817212e-02 1.013927e-01 -4.878115e-02 1.751599e-01
<VARIANCE> 39
 1.019133e+02 2.955180e+01 4.631447e+01 6.585213e+01 4.443382e+01 7.148222e+01 6.861852e+01 5.205648e+01 6.532037e+01 4.024183e+01 3.523225e+01 2.423738e+01 5.134897e+01 5.617668e+00 2.607400e+00 4.255658e+00 4.070636e+00 3.648931e+00 4.697004e+00 3.857604e+00 4.063588e+00 5.159568e+00 3.147547e+00 2.674839e+00 2.039177e+00 2.004837e+00 8.283352e-01 4.589316e-01 6.251684e-01 6.860917e-01 6.013023e-01 7.531375e-01 7.464480e-01 6.429324e-01 8.784209e-01 5.759695e-01 4.895605e-01 3.579212e-01 2.598677e-01
<GCONST> 1.317161e+02
<TRANSP> 5
 0.000000e+00 1.000000e+00 0.000000e+00 0.000000e+00 0.000000e+00
 0.000000e+00 6.924089e-01 3.075911e-01 0.000000e+00 0.000000e+00
 0.000000e+00 0.000000e+00 8.752535e-01 1.247465e-01 0.000000e+00
 0.000000e+00 0.000000e+00 0.000000e+00 8.498816e-01 1.501184e-01
 0.000000e+00 0.000000e+00 0.000000e+00 0.000000e+00 0.000000e+00
<ENDHMM>
~h "t"
<BEGINHMM>
<NUMSTATES> 5
<STATE> 2
<MEAN> 39
 -8.576017e+00 -7.820889e+00 7.752185e-01 -4.196026e+00 1.927976e+00 -7.683470e+00 -4.925722e+00 -1.041307e+01 -4.460489e+00 -8.707591e+00 -1.815617e+00 -5.588602e+00 6.865597e+01 -1.810655e+00 -1.712795e+00 1.564392e+00 -1.824949e+00 -3.493189e-01 -8.229480e-01 -5.773433e-02 -2.330724e-01 6.300523e-01 1.036577e-01 1.978227e-01 -5.810401e-01 2.189153e+00 2.065800e-01 -1.450799e-01 2.154205e-01 1.268709e-01 1.626523e-01 1.745022e-01 9.083354e-02 -7.040600e-02 -3.254970e-01 8.527668e-03 -2.591082e-02 1.008899e-01 1.644548e-01
<VARIANCE> 39
 9.569507e+01 4.649162e+01 7.132888e+01 8.997285e+01 7.594389e+01 8.732363e+01 5.494425e+01 7.591321e+01 6.955656e+01 4.434196e+01 4.725124e+01 3.200846e+01 6.384636e+01 8.680469e+00 5.047890e+00 7.444846e+00 8.999763e+00 6.010859e+00 6.911925e+00 4.602372e+00 6.399172e+00 7.223962e+00 4.150717e+00 4.049163e+00 3.497944e+00 5.998332e+00 1.342040e+00 9.235280e-01 8.928154e-01 1.667683e+00 9.802827e-01 1.328012e+00 9.333476e-01 1.094611e+00 1.318837e+00 7.312710e-01 7.193124e-01 6.222740e-01 1.435907e+00
<GCONST> 1.488488e+02
<STATE> 3
<MEAN> 39
 -1.333956e+01 -1.505679e+01 5.259542e+00 -8.103178e+00 2.835216e+00 -7.530668e+00 -3.487220e+00 -9.959138e+00 -4.725248e+00 -9.125190e+00 -8.938602e-01 -5.803433e+00 7.396928e+01 1.451011e+00 -2.223230e-01 8.938262e-01 9.472258e-01 6.769992e-01 1.010204e+00 1.768797e-01 8.635020e-02 -1.174405e+00 1.635342e-01 -1.768888e-01 3.680985e-01 -2.439732e-01 1.084292e+00 9.328005e-01 -2.085536e-01 5.921090e-01 -1.552826e-02 1.311049e-01 -2.876283e-01 -1.072511e-01 -3.033594e-01 7.207798e-02 -2.160156e-01 8.556192e-02 -4.911953e-01
<VARIANCE> 39
 8.710526e+01 5.263365e+01 6.218932e+01 4.844297e+01 5.263796e+01 6.042646e+01 4.025321e+01 5.199839e+01 4.788584e+01 4.305184e+01 3.722241e+01 2.715351e+01 2.920610e+01 5.499704e+00 3.837742e+00 4.017240e+00 3.562173e+00 3.561197e+00 3.974314e+00 3.598416e+00 3.715689e+00 4.209680e+00 2.597256e+00 2.674803e+00 2.005358e+00 1.543561e+00 1.069364e+00 7.766339e-01 9.963593e-01 9.195794e-01 7.108524e-01 8.134676e-01 7.117631e-01 6.628212e-01 8.710248e-01 5.131379e-01 5.449137e-01 5.459901e-01 5.167505e-01
<GCONST> 1.329627e+02
<STATE> 4
<MEAN> 39
 -7.141666e+00 -1.097462e+01 5.328228e+00 -3.584209e+00 1.913818e+00 -4.934453e+00 -4.376241e+00 -9.225319e+00 -6.940244e+00 -8.034236e+00 -2.120170e+00 -4.239431e+00 6.906839e+01 1.964189e+00 1.182939e+00 -6.281826e-02 9.469476e-01 -2.477949e-01 2.490235e-01 -7.291740e-01 -2.336442e-01 -7.188030e-01 6.748126e-02 -3.459666e-01 3.201484e-02 -3.235661e-01 -1.035132e-01 6.301831e-02 -4.779747e-01 -1.797004e-01 -1.959838e-01 -2.242661e-01 -9.640912e-02 -6.008723e-02 1.957951e-01 -6.208282e-02 7.832509e-03 -7.220858e-02 2.697580e-02
<VARIANCE> 39
 5.480061e+01 4.282085e+01 1.023036e+02 6.621605e+01 6.066850e+01 5.579354e+01 4.786995e+01 5.541709e+01 5.482714e+01 3.521007e+01 2.986329e+01 2.999652e+01 7.731966e+01 5.646710e+00 3.890887e+00 3.782399e+00 3.521515e+00 3.888036e+00 3.387521e+00 3.703715e+00 3.806147e+00 4.212939e+00 2.312374e+00 2.313383e+00 2.195693e+00 1.397989e+00 4.416535e-01 5.445820e-01 7.437760e-01 4.887525e-01 6.501553e-01 6.024951e-01 5.332518e-01 5.897763e-01 5.008515e-01 4.267353e-01 3.552550e-01 4.021543e-01 2.272196e-01
<GCONST> 1.286184e+02
<TRANSP> 5
 0.000000e+00 1.000000e+00 0.000000e+00 0.000000e+00 0.000000e+00
 0.000000e+00 6.542273e-01 3.457727e-01 0.000000e+00 0.000000e+00
 0.000000e+00 0.000000e+00 4.531910e-01 5.468091e-01 0.000000e+00
 0.000000e+00 0.000000e+00 0.000000e+00 6.031622e-01 3.968378e-01
 0.000000e+00 0.000000e+00 0.000000e+00 0.000000e+00 0.000000e+00
<ENDHMM>
~h "v"
<BEGINHMM>
<NUMSTATES> 5
<STATE> 2
<MEAN> 39
 -6.404113e+00 5.133256e-02 -2.568778e+00 -5.386999e+00 6.539335e-01 -1.163113e+01 -2.296975e+00 -5.546227e+00 -4.076511e+00 -5.257126e+00 -3.536806e+00 -3.790237e+00 6.492041e+01 1.167190e+00 1.329727e+00 -1.511112e-03 -1.379039e+00 -1.208439e+00 -2.684618e+00 -5.765151e-01 9.492199e-01 8.534141e-01 1.367738e+00 -2.930271e-01 -3.881774e-01 9.288549e-01 3.583925e-01 -1.685156e-01 -2.548423e-02 6.468925e-02 -6.860357e-02 -2.822029e-01 -3.069570e-01 -1.097512e-01 -1.365812e-01 -6.631593e-02 -3.196865e-02 -2.720126e-02 3.487717e-01
<VARIANCE> 39
 9.802802e+01 4.543462e+01 5.805379e+01 6.254274e+01 1.612028e+02 1.267480e+02 4.412835e+01 6.539091e+01 6.418910e+01 5.425763e+01 3.045868e+01 3.518288e+01 6.194749e+01 1.236784e+01 3.543216e+00 2.336563e+00 4.276873e+00 8.642836e+00 9.122257e+00 5.422325e+00 2.695272e+00 3.693800e+00 4.017346e+00 2.603703e+00 2.350469e+00 2.778374e+00 1.193419e+00 7.421632e-01 3.883979e-01 9.147765e-01 1.191063e+00 1.292799e+00 7.892218e-01 4.267898e-01 6.986444e-01 6.536800e-01 4.497897e-01 5.413159e-01 2.747568e-01
<GCONST> 1.387883e+02
<STATE> 3
<MEAN> 39
 4.290381e+00 2.787852e-01 -4.827703e+00 -9.680771e+00 -5.176311e+00 -2.498458e+01 -6.158160e+00 -1.018366e+00 -4.214344e+00 1.618197e-01 -5.841369e+00 -5.591033e+00 7.140749e+01 2.535715e-01 -2.946057e-01 -1.947476e-01 4.907075e-01 2.764552e-01 -1.034272e+00 -1.871457e-01 1.294699e-01 8.760367e-02 6.676224e-02 -8.804908e-02 -1.333095e-01 1.031520e+00 -5.315273e-01 -2.114674e-01 7.823324e-02 2.234665e-01 2.288757e-01 8.774670e-01 1.305350e-01 -2.739568e-01 8.400945e-02 -4.513299e-01 1.459275e-01 2.230608e-02 -2.438878e-01
<VARIANCE> 39
 4.210734e+01 3.724228e+01 2.870263e+01 3.184921e+01 1.399990e+02 1.227236e+02 5.054693e+01 5.087784e+01 6.506441e+01 7.191848e+01 4.182683e+01 3.247199e+01 1.258236e+01 5.704288e+00 3.454994e+00 2.887645e+00 2.951015e+00 3.579428e+00 4.646986e+00 4.626081e+00 1.929674e+00 4.642901e+00 2.721672e+00 2.632660e+00 2.733117e+00 1.284210e+00 7.304546e-01 6.002159e-01 3.665681e-01 6.322720e-01 8.340849e-01 7.715600e-01 9.524208e-01 3.098025e-01 9.146825e-01 5.540972e-01 4.229456e-01 4.732427e-01 1.833680e-01
<GCONST> 1.286058e+02
<STATE> 4
<MEAN> 39
 -5.499125e+00 9.129685e-01 -2.591061e+00 -9.371507e+00 -4.251438e+00 -1.799306e+01 -2.424747e+00 -1.798139e+00 1.740741e+00 -1.088647e+00 -3.544832e+00 -7.802269e+00 7.263044e+01 -9.510136e-01 -3.462658e-02 3.547889e-01 8.042972e-02 2.836812e-01 6.515419e-01 2.231640e-01 -2.585680e-01 1.788450e-01 -3.333533e-01 1.680752e-01 -1.895843e-01 -2.727616e-01 2.122853e-01 -1.377579e-01 6.434497e-02 2.719869e-02 -7.454106e-02 7.171397e-02 -9.196582e-02 -9.692703e-02 -1.717070e-01 -1.761307e-02 -4.429674e-02 3.358867e-02 -1.102766e-01
<VARIANCE> 39
 1.133011e+02 3.533130e+01 2.253043e+01 2.372149e+01 8.203282e+01 1.576047e+02 4.436898e+01 4.637274e+01 5.462347e+01 4.957110e+01 3.565112e+01 2.871034e+01 2.265841e+01 6.445650e+00 3.192930e+00 1.804183e+00 2.023404e+00 3.074357e+00 2.712512e+00 3.295488e+00 2.684212e+00 3.624170e+00 1.975181e+00 2.827274e+00 1.991076e+00 1.616397e+00 8.884682e-01 5.448196e-01 3.262612e-01 3.740068e-01 5.143811e-01 4.890575e-01 5.249634e-01 4.884874e-01 5.238310e-01 3.410988e-01 4.679252e-01 3.557097e-01 2.713899e-01
<GCONST> 1.237123e+02
<TRANSP> 5
 0.000000e+00 1.000000e+00 0.000000e+00 0.000000e+00 0.000000e+00
 0.000000e+00 6.195236e-01 3.804764e-01 0.000000e+00 0.000000e+00
 0.000000e+00 0.000000e+00 4.979811e-01 5.020189e-01 0.000000e+00
 0.000000e+00 0.000000e+00 0.000000e+00 8.591343e-01 1.408658e-01
 0.000000e+00 0.000000e+00 0.000000e+00 0.000000e+00 0.000000e+00
<ENDHMM>
~h "w"
<BEGINHMM>
<NUMSTATES> 5
<STATE> 2
<MEAN> 39
 2.482111e+00 2.166111e+00 -1.371054e+00 -4.557105e+00 -1.811233e+00 -8.701621e+00 -5.752569e+00 -6.881197e+00 -6.073769e+00 -9.250841e+00 -5.849285e+00 -8.400000e+00 6.547601e+01 9.046264e-01 6.878678e-01 -7.168670e-01 2.693513e-01 -1.812558e-01 -1.048770e-01 -3.604145e-01 -1.378693e-01 -1.675758e-01 -2.325284e-01 -2.025229e-02 1.909387e-01 -6.430468e-02 -2.714354e-01 -1.774175e-01 5.989155e-02 1.248939e-01 2.998568e-01 -3.685840e-02 -2.428892e-02 -4.762671e-02 1.426337e-01 1.925341e-01 2.309040e-01 3.216605e-01 4.128226e-02
<VARIANCE> 39
 5.752847e+01 9.659309e+01 7.860824e+01 4.089154e+01 8.959282e+01 6.362056e+01 7.252324e+01 3.905561e+01 6.173215e+01 2.997277e+01 2.995393e+01 3.232641e+01 3.103012e+01 2.520864e+00 6.063725e+00 5.096652e+00 3.026749e+00 6.286928e+00 4.632406e+00 5.062285e+00 3.697492e+00 4.338797e+00 3.192336e+00 2.419965e+00 3.331579e+00 2.186213e+00 2.191205e-01 5.351034e-01 5.858967e-01 3.989569e-01 7.623358e-01 7.417730e-01 6.283406e-01 7.640572e-01 7.442638e-01 6.224833e-01 4.484039e-01 6.084085e-01 1.129875e-01
<GCONST> 1.309182e+02
<STATE> 3
<MEAN> 39
 2.392983e+00 -2.560701e-01 -5.178337e+00 -1.263252e+00 2.057321e+00 -5.237204e+00 -3.740015e+00 -7.994075e+00 -8.587108e+00 -1.046339e+01 -3.106011e+00 -5.525107e+00 6.488744e+01 -1.478470e-01 1.205956e+00 2.566118e-01 1.894216e-01 -3.128414e-01 -8.950392e-04 -2.614703e-02 -2.233306e-01 5.098270e-01 5.760725e-01 4.600387e-01 4.885649e-01 -7.016777e-01 -8.606946e-02 -9.346956e-02 1.300853e-01 -1.239284e-01 -3.660685e-02 -2.711854e-01 -2.456632e-01 -1.086788e-02 1.226188e-01 1.282835e-01 -8.900760e-03 2.799308e-02 1.012346e-01
<VARIANCE> 39
 5.131326e+01 5.855578e+01 6.672393e+01 3.985413e+01 6.770894e+01 3.950613e+01 5.690440e+01 3.205425e+01 3.799768e+01 2.822025e+01 2.536612e+01 2.884422e+01 2.269775e+01 1.163978e+00 2.486588e+00 1.272670e+00 1.798635e+00 2.402820e+00 2.426981e+00 2.746131e+00 2.107642e+00 1.914947e+00 1.818968e+00 1.519450e+00 2.025496e+00 7.418023e-01 7.071502e-02 2.374503e-01 3.121717e-01 3.181658e-01 3.818235e-01 5.265294e-01 4.820963e-01 4.426551e-01 3.606189e-01 3.191080e-01 3.158992e-01 3.016401e-01 5.467129e-02
<GCONST> 1.101854e+02
<STATE> 4
<MEAN> 39
 -4.085653e+00 4.501956e+00 2.327904e-01 -6.865578e-01 -2.059194e+00 -7.607219e+00 -5.100302e+00 -7.028054e+00 -3.980058e+00 -6.721444e+00 -1.564512e+00 -3.464897e+00 5.821589e+01 3.558274e-01 6.214793e-01 2.226087e-01 -1.832389e-01 -6.202491e-01 -1.090933e+00 -6.682996e-01 1.867939e-01 5.142163e-01 4.978721e-01 -5.144321e-03 -2.098334e-01 5.990911e-02 1.170851e-01 -2.004058e-01 -2.174842e-01 -2.003376e-01 2.717849e-02 -1.012807e-01 -2.058735e-02 1.101572e-01 1.325297e-02 -2.902711e-02 -1.565431e-01 -1.761457e-01 1.897263e-01
<VARIANCE> 39
 1.016000e+02 8.498367e+01 7.203018e+01 2.998226e+01 2.941513e+01 7.766797e+01 6.919701e+01 2.742199e+01 2.386893e+01 2.252613e+01 1.549288e+01 2.405244e+01 4.581263e+01 1.468631e+00 2.027560e+00 1.804324e+00 1.930732e+00 2.027635e+00 2.502851e+00 1.927415e+00 1.826724e+00 1.685233e+00 1.417007e+00 1.274011e+00 1.602241e+00 7.186412e-01 1.550095e-01 4.134614e-01 3.853204e-01 3.075083e-01 3.250575e-01 3.749753e-01 3.140393e-01 3.073694e-01 3.663903e-01 3.128962e-01 2.465257e-01 2.589186e-01 7.075037e-02
<GCONST> 1.093199e+02
<TRANSP> 5
 0.000000e+00 1.000000e+00 0.000000e+00 0.000000e+00 0.000000e+00
 0.000000e+00 5.057589e-01 4.942412e-01 0.000000e+00 0.000000e+00
 0.000000e+00 0.000000e+00 6.144854e-01 3.855146e-01 0.000000e+00
 0.000000e+00 0.000000e+00 0.000000e+00 8.260792e-01 1.739207e-01
 0.000000e+00 0.000000e+00 0.000000e+00 0.000000e+00 0.000000e+00
<ENDHMM>
~h "y"
<BEGINHMM>
<NUMSTATES> 5
<STATE> 2
<MEAN> 39
 6.935313e-01 -9.184694e+00 6.641035e-01 5.673187e+00 1.219714e+01 -9.726661e+00 -8.141882e+00 -8.628910e+00 -1.234580e+01 -7.331560e+00 -2.619615e+00 -7.799915e+00 7.260932e+01 7.599218e-01 4.978471e-01 -5.251567e-02 4.483756e-01 7.631808e-01 -3.946710e-01 -3.816450e-01 2.538747e-01 -4.959409e-01 3.102503e-01 3.987756e-01 2.411971e-01 -1.253674e-01 -6.965069e-02 2.398236e-02 -2.265540e-01 -3.252133e-01 -1.442384e-01 -2.414913e-02 7.302012e-02 6.732506e-02 1.232698e-01 -9.110813e-02 8.362409e-02 1.920212e-01 -2.090621e-02
<VARIANCE> 39
 8.040309e+01 1.710261e+01 1.574758e+02 9.351994e+01 4.591625e+01 9.445060e+01 4.453759e+01 5.787579e+01 7.010583e+01 2.802708e+01 2.053805e+01 2.455532e+01 2.097242e+01 3.537923e+00 2.029526e+00 3.487975e+00 3.487008e+00 3.135778e+00 4.048276e+00 3.055764e+00 3.974023e+00 2.935687e+00 1.693995e+00 4.301617e+00 1.936757e+00 8.500777e-01 3.640464e-01 1.831410e-01 4.056558e-01 6.138102e-01 3.177856e-01 6.607705e-01 5.701131e-01 5.653757e-01 5.303156e-01 3.582465e-01 4.494965e-01 2.763287e-01 1.191256e-01
<GCONST> 1.219839e+02
<STATE> 3
<MEAN> 39
 1.079723e+00 -6.562761e+00 4.534706e+00 1.135811e+01 1.947717e+01 -8.281740e+00 -1.170782e+01 -6.943380e+00 -1.100384e+01 -8.377826e+00 -1.128611e+00 -2.686938e+00 6.995943e+01 1.018051e+00 7.118608e-01 -1.441136e+00 -1.244650e+00 -3.559031e-01 8.913901e-01 4.569752e-01 3.153877e-01 1.487416e-01 -9.096026e-01 -5.141449e-01 6.834711e-02 8.036229e-02 -9.344631e-02 -9.458039e-03 -5.140292e-02 -3.459691e-01 -4.257284e-01 2.768844e-02 2.801474e-01 1.609073e-01 3.021220e-01 -5.696511e-02 -3.145717e-01 -2.288384e-01 1.194300e-02
<VARIANCE> 39
 3.975529e+01 1.273915e+01 7.895184e+01 8.647375e+01 8.493010e+01 6.533974e+01 5.788079e+01 3.561042e+01 4.011817e+01 2.441817e+01 4.897797e+01 4.308310e+01 1.906409e+01 7.818111e-01 9.478609e-01 2.897959e+00 4.333346e+00 5.595955e+00 2.988226e+00 4.438901e+00 3.159240e+00 3.162082e+00 3.127830e+00 3.427888e+00 2.834466e+00 6.193767e-01 1.808744e-01 1.716497e-01 3.122400e-01 5.580882e-01 9.368960e-01 5.126570e-01 7.709589e-01 6.037379e-01 5.157695e-01 7.083579e-01 6.148605e-01 4.568214e-01 1.115390e-01
<GCONST> 1.210620e+02
<STATE> 4
<MEAN> 39
 6.546200e+00 4.581607e+00 -1.788737e+00 -2.543132e-01 5.743537e+00 -3.518622e+00 -6.203251e+00 -3.691312e+00 -7.377347e-01 -7.321989e+00 -3.931204e+00 -8.508264e+00 6.720431e+01 -1.136245e-01 8.554131e-01 4.832561e-02 -4.079693e-01 -1.046350e+00 -3.857650e-01 3.181032e-01 3.363827e-01 1.274660e+00 5.937895e-01 -3.891556e-01 -4.369511e-01 -4.789047e-01 -1.451522e-01 -1.612838e-01 1.409025e-01 1.770500e-01 1.762874e-01 -3.531143e-02 -1.267341e-01 -1.628724e-01 -1.972495e-01 1.258396e-02 1.289472e-01 1.069302e-01 3.536851e-04
<VARIANCE> 39
 1.006054e+01 3.080702e+01 2.532555e+01 3.617225e+01 5.262158e+01 4.327707e+01 3.766025e+01 3.151396e+01 9.097964e+01 7.367975e+01 2.722326e+01 3.244140e+01 1.241693e+01 3.830345e-01 8.531973e-01 9.207053e-01 1.976880e+00 2.466411e+00 1.775293e+00 1.761715e+00 1.371952e+00 2.270242e+00 2.829518e+00 1.989713e+00 1.355946e+00 3.383362e-01 5.308350e-02 8.040626e-02 2.012966e-01 2.588768e-01 2.966855e-01 3.150281e-01 4.482845e-01 3.100113e-01 3.953634e-01 5.364513e-01 3.647873e-01 2.733462e-01 2.264034e-02
<GCONST> 1.003661e+02
<TRANSP> 5
 0.000000e+00 1.000000e+00 0.000000e+00 0.000000e+00 0.000000e+00
 0.000000e+00 7.906408e-01 2.093591e-01 0.000000e+00 0.000000e+00
 0.000000e+00 0.000000e+00 8.069909e-01 1.930091e-01 0.000000e+00
 0.000000e+00 0.000000e+00 0.000000e+00 8.251863e-01 1.748137e-01
 0.000000e+00 0.000000e+00 0.000000e+00 0.000000e+00 0.000000e+00
<ENDHMM>
~h "z"
<BEGINHMM>
<NUMSTATES> 5
<STATE> 2
<MEAN> 39
 -2.016079e+01 -7.451768e-01 1.351762e+01 -1.793418e+01 5.455202e+00 -6.042969e-01 -2.728983e+00 -1.437002e+01 -2.399098e+00 -7.375107e+00 -3.496029e+00 -6.524181e+00 7.804936e+01 -2.935391e+00 6.303767e-01 1.111318e+00 -7.008678e-01 -2.695006e-01 3.358958e-01 6.689761e-01 -4.093971e-01 5.588911e-01 -2.284425e-01 -1.879743e-01 -2.545617e-02 5.805977e-02 7.520068e-01 -2.950091e-01 -4.078203e-01 5.584406e-01 -1.444714e-01 -2.987225e-01 -5.557187e-02 1.304103e-01 -2.916986e-01 4.761627e-03 -1.299477e-01 1.943188e-02 -3.201360e-01
<VARIANCE> 39
 7.252116e+01 2.454403e+01 5.032189e+01 7.803000e+01 5.954304e+01 6.662533e+01 5.022840e+01 6.537110e+01 4.189057e+01 3.256955e+01 3.498611e+01 2.611410e+01 1.757003e+01 5.337667e+00 2.491364e+00 2.786523e+00 4.003985e+00 1.517630e+00 2.257202e+00 2.348059e+00 2.755994e+00 2.383474e+00 1.979639e+00 1.917500e+00 1.512521e+00 1.130205e+00 3.836980e-01 3.309469e-01 5.538070e-01 5.722589e-01 3.031318e-01 4.131213e-01 4.618919e-01 4.967047e-01 3.782472e-01 4.257829e-01 3.997024e-01 3.203727e-01 9.731898e-02
<GCONST> 1.185849e+02
<STATE> 3
<MEAN> 39
 -2.177173e+01 -5.564152e+00 9.554383e+00 -1.103058e+01 1.874614e+00 -1.424404e+00 -1.701675e-01 -1.069660e+01 -3.463437e+00 -6.729958e+00 -4.863930e+00 -4.178151e+00 6.418117e+01 4.445160e-01 -3.336980e-01 -3.545532e-01 4.095985e-01 -1.354735e-01 -2.038822e-01 -4.170502e-02 1.959929e-01 -2.926437e-01 -4.471797e-02 -1.072846e-01 1.631689e-01 -1.121449e+00 1.493949e-01 5.502130e-02 -5.772900e-02 1.340180e-02 2.365408e-03 3.651752e-02 -1.133375e-01 4.811357e-02 -4.003575e-02 4.928445e-02 2.094690e-02 -6.685236e-03 -2.323009e-02
<VARIANCE> 39
 4.676818e+01 2.188373e+01 1.282433e+02 8.398792e+01 5.055723e+01 3.385110e+01 3.265248e+01 5.264666e+01 2.572848e+01 2.894802e+01 3.093558e+01 3.016821e+01 1.120739e+02 1.009648e+00 9.535412e-01 2.211093e+00 1.790520e+00 1.500952e+00 1.814624e+00 1.749288e+00 1.676330e+00 1.945031e+00 1.311686e+00 1.533712e+00 1.148968e+00 6.098550e-01 1.600001e-01 1.216285e-01 2.221386e-01 3.067763e-01 2.556191e-01 3.720362e-01 3.329533e-01 3.291812e-01 3.281332e-01 2.532788e-01 2.456013e-01 2.331600e-01 5.383492e-02
<GCONST> 1.059241e+02
<STATE> 4
<MEAN> 39
 -1.691199e+01 -4.749312e+00 1.499491e+01 -1.136880e+01 2.718915e+00 -2.308706e+00 -1.666004e+00 -1.230302e+01 -7.439207e+00 -7.045422e+00 -6.492908e+00 -6.295018e+00 6.745538e+01 1.752832e+00 -1.853399e-01 -8.478597e-01 9.082208e-01 -5.190459e-01 -4.681463e-01 -6.168054e-01 7.035729e-01 -3.115291e-01 2.942162e-01 -4.481329e-02 -1.670518e-01 -4.312002e-01 2.616125e-01 5.938072e-02 -4.467137e-01 1.656898e-01 -5.271237e-02 -2.050853e-01 -1.757016e-01 -5.977444e-02 1.794298e-01 3.381573e-02 2.211803e-01 -1.591385e-02 3.273213e-01
<VARIANCE> 39
 8.311832e+01 3.123959e+01 8.290692e+01 1.114553e+02 6.828901e+01 9.441674e+01 8.383794e+01 7.741496e+01 5.230165e+01 4.298876e+01 2.755871e+01 2.575366e+01 6.164088e+01 5.509878e+00 3.564013e+00 7.163763e+00 5.328501e+00 4.538020e+00 5.641784e+00 6.056275e+00 4.763274e+00 4.701491e+00 3.717856e+00 3.144752e+00 2.785607e+00 3.042428e+00 6.898421e-01 5.815953e-01 9.084632e-01 7.881871e-01 7.170835e-01 9.986497e-01 8.702027e-01 9.164009e-01 7.951038e-01 6.800774e-01 5.726954e-01 5.577714e-01 4.119191e-01
<GCONST> 1.395419e+02
<TRANSP> 5
 0.000000e+00 1.000000e+00 0.000000e+00 0.000000e+00 0.000000e+00
 0.000000e+00 8.381873e-01 1.618127e-01 0.000000e+00 0.000000e+00
 0.000000e+00 0.000000e+00 8.651139e-01 1.348861e-01 0.000000e+00
 0.000000e+00 0.000000e+00 0.000000e+00 8.055732e-01 1.944267e-01
 0.000000e+00 0.000000e+00 0.000000e+00 0.000000e+00 0.000000e+00
<ENDHMM>
~h "aa"
<BEGINHMM>
<NUMSTATES> 5
<STATE> 2
<MEAN> 39
 5.971857e+00 -9.164425e+00 -1.075820e+01 -1.312333e+01 -7.592274e+00 -1.865793e+01 1.835462e+00 -3.703790e+00 -2.175177e+00 2.700260e+00 -9.850303e+00 -3.236490e+00 7.758705e+01 1.171955e-01 -1.754690e-01 2.186816e-02 1.310464e-01 -2.755327e-01 3.266285e-01 3.048464e-01 2.933037e-02 -1.583314e-01 -3.200489e-02 -6.343382e-02 2.345181e-01 1.682823e-02 -1.133437e-01 1.239309e-01 9.382439e-02 4.067539e-02 6.452291e-02 2.021285e-01 -9.719455e-02 3.030960e-02 7.092756e-02 -1.699598e-01 1.395698e-01 -1.063526e-01 -1.592773e-01
<VARIANCE> 39
 1.066151e+01 2.692995e+01 1.541313e+01 3.199076e+01 3.392709e+01 7.232135e+01 3.434974e+01 3.578846e+01 3.525900e+01 4.309426e+01 4.806787e+01 2.544880e+01 2.398402e+01 5.587355e-01 1.115092e+00 1.246416e+00 1.585152e+00 1.468976e+00 3.291356e+00 2.009301e+00 1.792569e+00 2.183604e+00 2.718897e+00 2.585287e+00 1.596766e+00 1.221865e+00 1.180193e-01 1.521712e-01 2.243434e-01 2.573620e-01 2.351355e-01 4.012510e-01 3.412270e-01 3.717056e-01 3.944867e-01 3.529302e-01 5.056894e-01 3.007264e-01 6.895962e-02
<GCONST> 1.047082e+02
<STATE> 3
<MEAN> 39
 2.649072e+00 -6.145340e+00 -1.040415e+01 -1.161549e+01 -8.174763e+00 -1.081550e+01 1.066133e+00 -1.472866e+00 -2.314082e+00 -4.642331e+00 -4.763893e+00 -1.591036e+00 7.037956e+01 -1.496197e+00 8.098866e-01 2.757228e-01 -3.244741e-01 5.044699e-01 4.881615e-01 -4.618303e-01 8.674305e-01 3.641778e-01 -1.048897e+00 1.169527e+00 -4.646701e-01 -6.861219e-01 -3.899486e-01 1.468444e-02 4.204438e-01 -3.293765e-01 4.132659e-01 -2.938268e-01 -1.659116e-01 -4.479556e-02 -1.735024e-01 1.010023e-03 -5.862629e-02 -2.208523e-01 3.912009e-01
<VARIANCE> 39
 3.774176e+01 3.855574e+01 1.408813e+01 2.588019e+01 4.613045e+01 2.795997e+01 3.548906e+01 4.777176e+01 2.873318e+01 3.464456e+01 3.950970e+01 2.185868e+01 5.275937e+01 1.551541e+00 9.984131e-01 2.144920e+00 1.851967e+00 2.097268e+00 1.733161e+00 2.868050e+00 2.650100e+00 1.510834e+00 1.957344e+00 3.889057e+00 2.186024e+00 4.748613e-01 5.547367e-01 3.204305e-01 4.725797e-01 3.760975e-01 3.860070e-01 3.506148e-01 5.298831e-01 4.952883e-01 4.351701e-01 3.198049e-01 5.459002e-01 3.348836e-01 1.612002e-01
<GCONST> 1.124135e+02
<STATE> 4
<MEAN> 39
 -8.085175e+00 -1.030082e+01 -6.200987e-02 -1.443704e+01 -6.896696e+00 -9.128122e+00 -2.015758e-02 -2.517269e+00 -2.513619e+00 -6.177536e+00 -1.119752e+00 -3.035369e+00 7.176047e+01 -1.721878e+00 1.769750e-01 1.181123e+00 -4.436942e-01 7.561024e-01 2.508396e-01 -5.203577e-01 -1.658982e-01 -3.925431e-02 -5.064666e-01 5.279071e-01 -6.986461e-01 9.310132e-02 1.511164e-01 8.672919e-03 -1.820365e-01 3.698188e-02 -1.023793e-01 -2.749211e-02 5.317833e-02 -3.655608e-01 -9.311007e-02 3.168630e-01 -3.189935e-01 9.113913e-02 8.227210e-02
<VARIANCE> 39
 1.002490e+02 6.085767e+01 7.425292e+01 5.484847e+01 3.699205e+01 5.149153e+01 3.647564e+01 7.753822e+01 2.777421e+01 2.499879e+01 2.707510e+01 1.858152e+01 7.773782e+01 6.615855e+00 3.765059e+00 5.920427e+00 5.237106e+00 2.764855e+00 4.218658e+00 3.509990e+00 3.820398e+00 3.160104e+00 3.066951e+00 3.919252e+00 2.070670e+00 2.645638e+00 7.920008e-01 3.502163e-01 8.005031e-01 4.375922e-01 3.404810e-01 6.129566e-01 3.491599e-01 7.473189e-01 3.182242e-01 5.480048e-01 6.059533e-01 3.484473e-01 3.957308e-01
<GCONST> 1.288914e+02
<TRANSP> 5
 0.000000e+00 1.000000e+00 0.000000e+00 0.000000e+00 0.000000e+00
 0.000000e+00 9.230695e-01 7.693040e-02 0.000000e+00 0.000000e+00
 0.000000e+00 0.000000e+00 6.787052e-01 3.212947e-01 0.000000e+00
 0.000000e+00 0.000000e+00 0.000000e+00 6.257883e-01 3.742117e-01
 0.000000e+00 0.000000e+00 0.000000e+00 0.000000e+00 0.000000e+00
<ENDHMM>
~h "ae"
<BEGINHMM>
<NUMSTATES> 5
<STATE> 2
<MEAN> 39
 -3.528625e+00 -6.095296e+00 -4.361423e+00 -3.560225e+00 1.442386e-01 -5.950801e+00 -1.036205e+01 -1.470131e+01 -2.851139e+00 -5.837438e+00 4.325879e-01 -1.890476e+00 6.577564e+01 1.964225e+00 -7.351921e-01 -4.117640e-01 -3.484768e-02 -5.914595e-01 -9.239440e-01 -1.911630e+00 -2.062035e+00 4.713646e-01 1.812869e-01 9.630978e-01 9.727353e-01 2.760054e+00 -7.097420e-02 -1.816788e-01 1.249884e-01 8.606321e-02 1.337392e-01 -1.075918e-01 1.952246e-01 1.082121e-01 -2.845581e-01 -2.167403e-01 -7.052787e-02 5.597139e-02 2.410488e-01
<VARIANCE> 39
 7.245538e+01 3.083142e+01 6.437852e+01 6.263661e+01 5.167060e+01 7.498929e+01 1.117320e+02 8.131026e+01 8.922752e+01 6.492426e+01 6.157468e+01 4.140284e+01 1.010717e+02 5.536341e+00 3.774681e+00 6.015389e+00 6.003320e+00 3.593613e+00 5.996790e+00 7.818417e+00 7.590182e+00 7.219730e+00 6.141659e+00 5.819921e+00 4.518956e+00 6.104757e+00 1.030108e+00 5.800474e-01 9.207977e-01 8.951508e-01 5.418177e-01 1.100476e+00 1.775543e+00 1.523494e+00 1.246323e+00 9.134339e-01 9.536263e-01 7.248227e-01 1.020389e+00
<GCONST> 1.483922e+02
<STATE> 3
<MEAN> 39
 2.870347e+00 -9.793860e+00 -5.644082e+00 -4.131329e+00 4.691814e-01 -9.519844e+00 -1.496155e+01 -1.982081e+01 -4.831008e+00 -7.411631e+00 1.949535e+00 1.383216e+00 7.769759e+01 1.223531e-01 -7.275845e-01 1.495147e-01 -9.140818e-02 4.834064e-01 -1.274954e-01 -2.164723e-01 -5.065718e-01 -3.764688e-01 -7.035863e-01 1.289797e-01 5.533843e-01 9.365709e-01 -2.070005e-01 2.556618e-01 1.249163e-01 5.682876e-02 2.862671e-01 2.871104e-01 3.817735e-01 3.587943e-01 4.424758e-02 -7.348578e-02 -2.739355e-01 -3.634987e-01 -5.005789e-01
<VARIANCE> 39
 1.350746e+01 1.548443e+01 3.741449e+01 4.632837e+01 4.915569e+01 6.109316e+01 3.906062e+01 5.784478e+01 7.210434e+01 5.982181e+01 5.699879e+01 3.834069e+01 1.728044e+01 1.240698e+00 1.517632e+00 2.338878e+00 2.794497e+00 3.446884e+00 4.289317e+00 3.499660e+00 3.347684e+00 3.846649e+00 3.374274e+00 3.643283e+00 3.030167e+00 1.015532e+00 2.954216e-01 2.906652e-01 4.407507e-01 5.519631e-01 5.088859e-01 7.436899e-01 5.209026e-01 7.468864e-01 6.242444e-01 6.974901e-01 5.947311e-01 6.158408e-01 1.863704e-01
<GCONST> 1.224619e+02
<STATE> 4
<MEAN> 39
 2.622727e+00 -1.056433e+01 -6.431186e+00 -2.246159e+00 2.171331e+00 -7.696775e+00 -1.201274e+01 -1.987966e+01 -6.796559e+00 -8.942224e+00 1.921608e+00 1.305444e+00 7.663911e+01 7.067390e-03 2.591932e-01 -9.854924e-03 3.332514e-01 4.731647e-01 5.855218e-01 5.846292e-01 3.042175e-01 -3.719860e-01 -1.973056e-02 -1.760872e-02 -1.901084e-01 -7.123911e-01 -5.281322e-02 1.060291e-01 3.135433e-02 5.185324e-02 1.475320e-02 4.030251e-02 2.034654e-02 1.502118e-01 3.625346e-03 1.306157e-01 3.978489e-02 -1.099961e-01 -1.501810e-01
<VARIANCE> 39
 2.022859e+01 2.266630e+01 2.574450e+01 3.346083e+01 2.927217e+01 4.328795e+01 3.444070e+01 3.030188e+01 3.824926e+01 3.324068e+01 3.262365e+01 2.654277e+01 3.588103e+01 1.261821e+00 8.649679e-01 1.334330e+00 1.778605e+00 1.797528e+00 2.198681e+00 2.165603e+00 2.216615e+00 1.831282e+00 1.997174e+00 2.046399e+00 2.348947e+00 1.157434e+00 2.255681e-01 1.601497e-01 2.590052e-01 3.521943e-01 3.166775e-01 4.492017e-01 3.881446e-01 4.178354e-01 3.609105e-01 3.781785e-01 3.699160e-01 4.462677e-01 1.774424e-01
<GCONST> 1.080519e+02
<TRANSP> 5
 0.000000e+00 1.000000e+00 0.000000e+00 0.000000e+00 0.000000e+00
 0.000000e+00 6.591693e-01 3.408307e-01 0.000000e+00 0.000000e+00
 0.000000e+00 0.000000e+00 6.556196e-01 3.443804e-01 0.000000e+00
 0.000000e+00 0.000000e+00 0.000000e+00 8.523679e-01 1.476321e-01
 0.000000e+00 0.000000e+00 0.000000e+00 0.000000e+00 0.000000e+00
<ENDHMM>
~h "ah"
<BEGINHMM>
<NUMSTATES> 5
<STATE> 2
<MEAN> 39
 6.369526e+00 -7.999758e-01 -4.474449e+00 -9.898293e+00 -4.127249e+00 -1.911692e+01 -1.070831e+01 -6.094950e+00 -2.878901e+00 -1.894052e+00 -4.466212e+00 -4.663323e+00 7.208578e+01 1.250671e+00 -1.320186e+00 -1.642733e+00 -1.321221e+00 -7.932096e-01 -2.140718e+00 2.928065e-01 1.425411e+00 -7.737675e-01 1.038464e+00 -2.516623e-01 4.931447e-01 1.529548e+00 -3.999853e-01 -2.428464e-01 1.277100e-02 3.705117e-01 3.671353e-01 5.220240e-01 4.843375e-01 1.583646e-01 -2.364324e-01 -2.601168e-01 -5.788658e-02 -9.701919e-02 -1.682273e-01
<VARIANCE> 39
 1.706504e+01 7.230997e+01 4.557468e+01 8.116589e+01 6.824802e+01 8.287913e+01 6.028881e+01 5.422445e+01 6.348199e+01 6.734448e+01 4.299783e+01 3.512894e+01 3.224981e+01 2.073703e+00 3.789318e+00 2.476824e+00 6.361381e+00 5.104704e+00 6.618436e+00 5.576891e+00 5.062819e+00 4.385610e+00 4.562926e+00 3.682618e+00 3.481122e+00 1.546993e+00 2.518057e-01 5.190898e-01 4.509263e-01 8.634466e-01 6.747433e-01 6.511699e-01 7.370750e-01 7.225288e-01 6.411523e-01 7.500306e-01 5.411141e-01 4.637277e-01 1.836975e-01
<GCONST> 1.323213e+02
<STATE> 3
<MEAN> 39
 7.923862e+00 -8.594463e+00 -9.263304e+00 -1.093916e+01 -5.049540e+00 -2.243845e+01 -4.765705e+00 -1.759589e+00 -8.551867e+00 -9.772214e-01 -7.302813e+00 -3.414443e+00 7.716690e+01 2.278227e-01 -3.934547e-01 -2.888678e-01 2.969870e-01 2.890581e-01 5.053394e-01 4.049574e-01 1.436726e-01 -6.923955e-01 -5.563266e-01 -2.538936e-01 -1.261859e-01 2.261097e-01 -5.064291e-02 2.753757e-01 1.348613e-01 3.312861e-01 1.503132e-01 4.542235e-01 -1.411267e-01 -2.091521e-01 3.333462e-01 -3.400605e-01 1.226239e-01 -1.389188e-01 -2.754641e-01
<VARIANCE> 39
 7.639641e+00 2.356098e+01 1.970491e+01 3.638288e+01 3.557276e+01 7.901291e+01 5.217132e+01 4.807540e+01 7.116309e+01 6.462645e+01 4.700158e+01 3.128129e+01 1.141706e+01 4.966163e-01 1.223652e+00 1.369266e+00 2.707542e+00 2.195475e+00 3.341460e+00 2.520483e+00 3.035465e+00 3.094646e+00 3.836994e+00 2.263229e+00 2.220158e+00 8.324103e-01 9.304575e-02 1.839075e-01 1.969857e-01 3.543069e-01 4.021959e-01 5.297194e-01 4.631042e-01 5.970380e-01 6.020295e-01 4.910716e-01 5.103062e-01 4.045659e-01 9.219422e-02
<GCONST> 1.113785e+02
<STATE> 4
<MEAN> 39
 8.971916e+00 -6.684939e+00 -9.888780e+00 -6.703348e+00 -1.183523e+00 -1.325815e+01 -6.060553e+00 -2.053179e+00 -5.161744e+00 -8.273651e+00 -5.587774e+00 -4.125542e+00 7.411710e+01 -1.374273e-01 5.571725e-01 -5.523887e-02 8.351898e-01 4.899246e-01 1.116559e+00 -1.316358e-01 -1.205662e-01 7.499498e-01 -6.364772e-01 2.206245e-01 -2.224397e-01 -8.129812e-01 -1.672270e-01 6.499820e-02 1.381849e-01 -1.557551e-01 -6.888080e-04 -6.609096e-02 -4.133636e-02 -4.032623e-02 5.048407e-02 1.948819e-01 -1.401056e-02 -2.103423e-02 -3.760610e-02
<VARIANCE> 39
 1.166859e+01 2.798302e+01 2.306596e+01 4.756830e+01 4.496050e+01 4.710270e+01 4.384101e+01 3.595583e+01 6.284714e+01 3.461967e+01 3.497639e+01 4.061813e+01 2.352096e+01 6.465207e-01 6.390632e-01 1.123050e+00 3.205370e+00 2.015866e+00 1.546790e+00 2.219592e+00 1.981816e+00 2.615719e+00 2.004550e+00 2.333455e+00 1.640296e+00 5.417944e-01 8.864260e-02 9.281430e-02 1.853421e-01 3.685661e-01 3.003888e-01 2.408985e-01 3.942223e-01 4.048501e-01 4.163864e-01 3.286915e-01 3.548695e-01 3.260781e-01 7.032538e-02
<GCONST> 1.042458e+02
<TRANSP> 5
 0.000000e+00 1.000000e+00 0.000000e+00 0.000000e+00 0.000000e+00
 0.000000e+00 6.162897e-01 3.837104e-01 0.000000e+00 0.000000e+00
 0.000000e+00 0.000000e+00 7.941879e-01 2.058121e-01 0.000000e+00
 0.000000e+00 0.000000e+00 0.000000e+00 8.179505e-01 1.820495e-01
 0.000000e+00 0.000000e+00 0.000000e+00 0.000000e+00 0.000000e+00
<ENDHMM>
~h "ao"
<BEGINHMM>
<NUMSTATES> 5
<STATE> 2
<MEAN> 39
 5.088244e+00 2.821666e+00 3.391727e-01 -1.138197e+01 -1.044687e+01 -2.364505e+01 -1.228757e+01 -6.672259e+00 -2.541293e+00 -7.787921e-01 -3.415186e+00 -7.218421e+00 7.026093e+01 2.314397e+00 8.610392e-02 -1.335418e+00 -7.370107e-02 -1.579930e+00 -2.605379e+00 -1.786422e+00 8.094088e-01 2.665536e-01 1.957425e+00 -1.541222e-01 -1.028060e-01 3.787244e-01 -7.452238e-01 -5.542784e-01 -3.863344e-01 3.311238e-01 8.096547e-01 4.219448e-01 5.831611e-01 3.522366e-01 -3.674701e-02 -2.125151e-01 -1.829199e-02 1.723907e-01 -3.940798e-02
<VARIANCE> 39
 1.507650e+01 4.950243e+01 2.747697e+01 3.663013e+01 4.874945e+01 6.260280e+01 3.731978e+01 3.601103e+01 4.616261e+01 5.400057e+01 2.322450e+01 2.409170e+01 2.535116e+01 2.815169e+00 4.074195e+00 3.878210e+00 2.916497e+00 5.174593e+00 5.543939e+00 4.212741e+00 3.816221e+00 2.752949e+00 4.258640e+00 3.016968e+00 2.377362e+00 1.016678e+00 4.465981e-01 5.021835e-01 5.460683e-01 5.321887e-01 6.241227e-01 8.756090e-01 5.161101e-01 4.380273e-01 4.894538e-01 8.249174e-01 3.461521e-01 2.951393e-01 1.635127e-01
<GCONST> 1.234414e+02
<STATE> 3
<MEAN> 39
 9.674287e+00 5.978411e-01 -6.230206e+00 -8.812169e+00 -8.090562e+00 -2.921913e+01 -1.477543e+01 -1.306965e+00 -2.216430e+00 4.115826e+00 -3.779983e+00 -6.218927e+00 7.193770e+01 3.071626e-01 -4.995289e-01 -7.697880e-01 -4.855730e-04 5.218844e-01 -2.472995e-01 2.997834e-01 8.253599e-01 6.268564e-02 4.305880e-02 -5.281751e-01 3.399702e-01 3.549468e-01 -1.577112e-01 -3.923869e-02 1.566518e-01 -1.096402e-01 1.544610e-01 4.728535e-01 2.182724e-01 -1.403218e-01 -2.558493e-02 -3.109263e-01 -1.705610e-01 -2.068207e-02 1.146853e-02
<VARIANCE> 39
 5.082456e+00 2.986398e+01 2.084388e+01 2.731971e+01 2.863381e+01 6.068163e+01 4.680347e+01 4.523814e+01 5.428788e+01 5.198787e+01 3.429894e+01 2.137035e+01 9.919159e+00 3.028412e-01 1.104273e+00 1.363632e+00 1.703963e+00 1.924196e+00 3.160870e+00 1.898079e+00 1.976959e+00 1.836542e+00 3.363078e+00 1.632286e+00 1.408981e+00 3.544655e-01 6.832562e-02 1.103709e-01 1.824274e-01 2.288219e-01 3.403176e-01 2.912847e-01 2.892481e-01 3.584701e-01 2.753437e-01 3.777662e-01 2.539634e-01 2.145427e-01 2.772364e-02
<GCONST> 9.809152e+01
<STATE> 4
<MEAN> 39
 9.281082e+00 -4.854245e+00 -1.003285e+01 -1.073717e+01 -4.094380e+00 -1.933981e+01 -8.195459e+00 -5.615981e-01 -3.386735e+00 -3.483255e+00 -9.255667e+00 -3.371677e+00 7.395597e+01 -2.866295e-01 -1.847742e-01 -1.508720e-01 3.587146e-01 5.826944e-01 1.764405e+00 5.294970e-01 -3.079735e-01 -1.531224e-01 -1.152696e+00 -9.786627e-02 -2.084470e-01 -2.792317e-01 -8.654532e-02 9.815533e-02 7.658801e-02 1.558130e-01 1.461264e-04 -4.117886e-02 -6.971523e-02 -1.243346e-01 -5.566133e-03 4.319503e-02 1.507139e-01 -7.328203e-02 -9.985533e-02
<VARIANCE> 39
 1.499102e+01 2.102666e+01 3.559820e+01 2.885365e+01 4.981518e+01 8.802750e+01 4.899810e+01 3.705485e+01 6.018700e+01 8.076730e+01 5.153059e+01 3.072200e+01 1.987984e+01 5.148253e-01 9.132119e-01 9.256887e-01 1.649276e+00 2.548756e+00 2.872836e+00 2.080492e+00 2.167886e+00 3.346544e+00 3.646412e+00 2.488772e+00 1.861698e+00 6.426241e-01 5.465262e-02 1.013853e-01 1.521271e-01 2.273907e-01 3.198113e-01 4.354859e-01 3.128774e-01 3.419792e-01 5.862405e-01 6.336975e-01 3.916792e-01 3.382804e-01 6.183876e-02
<GCONST> 1.072989e+02
<TRANSP> 5
 0.000000e+00 1.000000e+00 0.000000e+00 0.000000e+00 0.000000e+00
 0.000000e+00 6.641019e-01 3.358981e-01 0.000000e+00 0.000000e+00
 0.000000e+00 0.000000e+00 8.461810e-01 1.538190e-01 0.000000e+00
 0.000000e+00 0.000000e+00 0.000000e+00 8.794481e-01 1.205519e-01
 0.000000e+00 0.000000e+00 0.000000e+00 0.000000e+00 0.000000e+00
<ENDHMM>
~h "aw"
<BEGINHMM>
<NUMSTATES> 5
<STATE> 2
<MEAN> 39
 1.922558e+00 -1.642055e+00 -4.362615e+00 -7.777428e+00 -5.721756e+00 -1.634656e+01 -5.369140e+00 -5.272160e+00 -1.439494e+00 -1.442890e+00 -7.320807e+00 -6.213466e+00 6.907179e+01 2.045395e+00 -7.059214e-01 -1.631122e+00 -2.007795e+00 -1.945167e+00 -3.541833e+00 -2.912554e-01 1.178439e+00 8.800834e-01 3.053125e+00 -1.466678e+00 1.965842e-01 2.107145e+00 -2.080080e-01 -2.353482e-01 -1.587653e-01 1.955128e-01 5.339884e-01 2.601306e-01 2.047704e-01 1.626132e-01 -1.936720e-01 1.218021e-01 3.076530e-02 1.124465e-02 1.028512e-01
<VARIANCE> 39
 5.006493e+01 3.394628e+01 4.136461e+01 1.031896e+02 8.743234e+01 1.097384e+02 5.527246e+01 5.189274e+01 7.378069e+01 8.921488e+01 4.950509e+01 3.018158e+01 4.650001e+01 4.103554e+00 2.599345e+00 3.320354e+00 5.620126e+00 7.584914e+00 7.848752e+00 8.225554e+00 5.203771e+00 8.277995e+00 5.326005e+00 4.161709e+00 3.822049e+00 3.327074e+00 8.062834e-01 4.723367e-01 6.425074e-01 1.028853e+00 1.581833e+00 1.377189e+00 1.162888e+00 5.946473e-01 1.215544e+00 1.241210e+00 7.393706e-01 7.933890e-01 6.284872e-01
<GCONST> 1.438811e+02
<STATE> 3
<MEAN> 39
 4.863859e+00 -5.141538e+00 -6.108624e+00 -1.561579e+01 -7.173896e+00 -2.403736e+01 -2.469286e+00 -5.682252e+00 -2.968124e-01 1.192759e+01 -1.483526e+01 -6.067652e+00 7.711552e+01 5.624854e-01 -2.725519e-01 -1.050387e-01 -4.052202e-02 6.508450e-02 -7.268639e-01 -4.882849e-01 3.112912e-01 -3.962839e-01 1.101292e+00 -2.771635e-01 1.129004e-02 3.356213e-01 -8.700147e-02 1.039449e-01 1.608330e-01 2.796865e-01 8.129997e-02 3.265711e-01 2.697715e-02 -5.156406e-02 -1.135233e-01 -5.280597e-01 1.835843e-01 1.061468e-01 -2.084605e-01
<VARIANCE> 39
 1.421917e+01 2.571812e+01 1.997687e+01 2.393892e+01 2.787988e+01 5.182391e+01 6.542634e+01 5.396241e+01 3.187020e+01 8.182550e+01 5.108370e+01 3.600797e+01 1.755692e+01 8.522193e-01 1.148070e+00 1.809714e+00 2.630714e+00 2.047909e+00 2.755460e+00 3.091152e+00 2.035587e+00 2.189819e+00 2.978224e+00 2.098918e+00 2.388134e+00 6.520686e-01 1.895762e-01 1.487297e-01 2.431472e-01 4.052998e-01 3.959569e-01 6.078758e-01 6.811525e-01 4.029236e-01 3.797868e-01 4.950096e-01 5.286834e-01 3.764139e-01 1.037625e-01
<GCONST> 1.114563e+02
<STATE> 4
<MEAN> 39
 8.588908e+00 -2.951741e+00 -7.253995e+00 -9.885877e+00 -5.980076e+00 -2.193574e+01 -8.695539e+00 5.536758e-01 -1.431251e+00 7.695048e-01 -1.010044e+01 -6.058143e+00 7.352615e+01 -6.872795e-02 1.022224e-01 -1.300897e-01 4.801025e-01 2.136979e-01 7.138571e-01 7.969435e-02 2.255762e-01 1.894968e-01 -1.112235e+00 8.748740e-02 -1.677894e-01 -3.930183e-01 -1.032505e-01 1.646242e-02 3.251259e-02 -2.903725e-02 -7.318380e-03 1.143321e-01 8.061957e-02 -5.935497e-02 -4.088019e-03 -1.326555e-02 4.327285e-02 -3.939806e-02 -5.007523e-02
<VARIANCE> 39
 9.353981e+00 2.978992e+01 1.892023e+01 3.462324e+01 2.983200e+01 9.758131e+01 6.250375e+01 3.434290e+01 4.756409e+01 7.873101e+01 2.654239e+01 2.900243e+01 1.540308e+01 4.166816e-01 1.232519e+00 9.721907e-01 1.555136e+00 1.536312e+00 3.031531e+00 2.259525e+00 1.955355e+00 2.602905e+00 3.535823e+00 1.783457e+00 1.877411e+00 5.447407e-01 5.294506e-02 1.835384e-01 1.958210e-01 2.828646e-01 2.693883e-01 5.080546e-01 3.268178e-01 3.069401e-01 4.330279e-01 6.101595e-01 3.173557e-01 3.241684e-01 6.053111e-02
<GCONST> 1.044152e+02
<TRANSP> 5
 0.000000e+00 1.000000e+00 0.000000e+00 0.000000e+00 0.000000e+00
 0.000000e+00 6.621256e-01 3.378744e-01 0.000000e+00 0.000000e+00
 0.000000e+00 0.000000e+00 7.684076e-01 2.315924e-01 0.000000e+00
 0.000000e+00 0.000000e+00 0.000000e+00 9.317319e-01 6.826815e-02
 0.000000e+00 0.000000e+00 0.000000e+00 0.000000e+00 0.000000e+00
<ENDHMM>
~h "ax"
<BEGINHMM>
<NUMSTATES> 5
<STATE> 2
<MEAN> 39
 -1.809168e+00 -3.035714e+00 4.746712e-01 -4.976768e+00 -1.073666e+00 -9.408275e+00 -7.266422e+00 -7.090055e+00 -4.285183e+00 -6.492806e+00 -3.867308e+00 -4.960680e+00 6.648116e+01 1.342406e+00 -2.285299e-01 1.167223e-02 -2.172998e-01 -1.146639e-01 -7.512762e-01 -1.036537e+00 -2.959829e-01 -3.673280e-01 1.358541e-02 -4.379944e-01 -3.111303e-01 1.201880e+00 -2.834953e-02 -1.028524e-01 -1.834147e-01 4.009921e-02 1.792790e-01 9.347679e-02 1.660114e-01 -6.549617e-02 -1.976959e-01 -1.414150e-01 -2.160936e-02 -5.279324e-02 9.519008e-02
<VARIANCE> 39
 8.652972e+01 7.048233e+01 8.065556e+01 6.844275e+01 9.300182e+01 1.093392e+02 7.021071e+01 6.581698e+01 8.364735e+01 4.737247e+01 3.458788e+01 3.449155e+01 7.458830e+01 5.373173e+00 5.517056e+00 4.533132e+00 4.391138e+00 6.102202e+00 6.081922e+00 5.361455e+00 5.600332e+00 6.390455e+00 3.162149e+00 2.890021e+00 3.367652e+00 4.029519e+00 7.728416e-01 9.314975e-01 8.059877e-01 6.530935e-01 8.308485e-01 1.022530e+00 9.802752e-01 8.129141e-01 9.868064e-01 5.109253e-01 4.825824e-01 5.061004e-01 5.512487e-01
<GCONST> 1.423766e+02
<STATE> 3
<MEAN> 39
 5.511682e+00 -5.256164e+00 -3.405127e+00 -6.862168e+00 -7.685924e-01 -1.405519e+01 -8.280299e+00 -6.551436e+00 -8.860930e+00 -6.261282e+00 -5.825593e+00 -4.580201e+00 7.305265e+01 2.963001e-01 -1.979135e-01 -5.481114e-01 -1.153187e-02 1.709441e-01 5.057524e-01 4.383926e-01 5.061973e-02 -5.987456e-01 -4.274072e-01 -1.290441e-01 -2.956005e-01 1.783802e-01 -4.288243e-01 1.276232e-01 1.116909e-01 3.429603e-03 8.280603e-02 2.966653e-01 2.555642e-01 2.985187e-02 3.618542e-01 -5.540273e-02 2.053079e-01 -4.145914e-02 -2.071732e-01
<VARIANCE> 39
 3.517376e+01 3.319751e+01 6.421030e+01 5.261531e+01 7.630795e+01 1.769484e+02 4.884735e+01 7.718761e+01 7.281084e+01 6.768592e+01 4.320419e+01 4.986213e+01 2.887650e+01 2.433285e+00 2.123742e+00 3.751683e+00 3.195336e+00 3.330177e+00 4.483438e+00 4.101433e+00 3.650712e+00 4.517149e+00 3.408563e+00 2.622271e+00 2.951487e+00 1.107915e+00 3.261616e-01 3.669741e-01 4.967066e-01 5.263568e-01 5.289752e-01 6.816679e-01 6.573977e-01 6.815221e-01 9.412961e-01 6.336755e-01 5.187606e-01 5.796013e-01 1.915017e-01
<GCONST> 1.299121e+02
<STATE> 4
<MEAN> 39
 2.076591e+00 -3.368397e+00 -2.505603e+00 -4.806626e+00 9.108202e-01 -6.757328e+00 -4.662183e+00 -6.869199e+00 -8.036915e+00 -8.924932e+00 -3.988496e+00 -5.874991e+00 6.898880e+01 -6.323550e-01 5.515507e-01 -6.596491e-02 1.586435e-01 3.211882e-01 6.389065e-01 6.292621e-01 1.873173e-01 6.069367e-01 -4.897063e-02 3.300268e-01 -3.548868e-02 -6.174255e-01 -2.814476e-01 -1.227839e-02 1.837455e-01 -9.611811e-02 5.223599e-02 -1.289391e-01 -1.506909e-02 2.198628e-02 2.206277e-01 1.192463e-01 4.578715e-02 8.168928e-02 4.172226e-02
<VARIANCE> 39
 6.006150e+01 4.683571e+01 6.130426e+01 7.192834e+01 8.137130e+01 7.615104e+01 5.516989e+01 5.115319e+01 6.593985e+01 4.771957e+01 3.634499e+01 3.750307e+01 5.321497e+01 2.608033e+00 1.470018e+00 3.653627e+00 3.400350e+00 2.151486e+00 3.113040e+00 2.885818e+00 2.322058e+00 2.904770e+00 2.503818e+00 2.069530e+00 2.048958e+00 9.523262e-01 3.385089e-01 2.584884e-01 3.551779e-01 4.101549e-01 4.165336e-01 5.150354e-01 5.351738e-01 3.978358e-01 4.611625e-01 4.727684e-01 3.775116e-01 4.112934e-01 1.578559e-01
<GCONST> 1.223006e+02
<TRANSP> 5
 0.000000e+00 1.000000e+00 0.000000e+00 0.000000e+00 0.000000e+00
 0.000000e+00 4.807563e-01 5.192437e-01 0.000000e+00 0.000000e+00
 0.000000e+00 0.000000e+00 5.189369e-01 4.810632e-01 0.000000e+00
 0.000000e+00 0.000000e+00 0.000000e+00 6.025713e-01 3.974287e-01
 0.000000e+00 0.000000e+00 0.000000e+00 0.000000e+00 0.000000e+00
<ENDHMM>
~h "ay"
<BEGINHMM>
<NUMSTATES> 5
<STATE> 2
<MEAN> 39
 4.925084e+00 -4.229976e+00 -8.276363e+00 -1.115363e+01 -6.354680e+00 -1.919992e+01 -4.919003e+00 -5.678370e+00 -1.333927e+00 -1.266641e+00 -7.174264e+00 -4.655859e+00 7.283279e+01 5.107246e-01 -2.041594e+00 -1.421846e+00 -1.119916e+00 -7.692257e-01 -1.174630e+00 1.020801e+00 2.954161e-01 -5.428771e-01 8.096857e-01 -6.574726e-01 1.435457e+00 1.825783e+00 -3.905167e-01 -1.177716e-01 2.739890e-01 4.048029e-01 4.272540e-01 8.523330e-01 1.608786e-01 -2.172806e-01 -2.512085e-01 -2.807522e-01 9.544926e-02 1.652838e-01 -1.787558e-01
<VARIANCE> 39
 4.750743e+01 7.431956e+01 4.846513e+01 8.021376e+01 5.165812e+01 8.116621e+01 7.026552e+01 3.887964e+01 5.973616e+01 5.663234e+01 3.716709e+01 3.524005e+01 4.846214e+01 2.552550e+00 3.410297e+00 3.606095e+00 6.757794e+00 4.690110e+00 7.267762e+00 5.696673e+00 4.707139e+00 3.885301e+00 6.132360e+00 3.850364e+00 3.586560e+00 2.528249e+00 2.877134e-01 7.527596e-01 5.610054e-01 1.074181e+00 9.046113e-01 8.991243e-01 1.062782e+00 7.878953e-01 6.272111e-01 7.538118e-01 6.444091e-01 6.160557e-01 2.632123e-01
<GCONST> 1.370215e+02
<STATE> 3
<MEAN> 39
 5.993969e+00 -1.256887e+01 -9.724903e+00 -1.198176e+01 -5.774158e+00 -1.492751e+01 -3.423633e+00 -8.470812e+00 -5.276304e+00 -1.722433e+00 -8.472406e+00 2.203293e+00 7.939415e+01 -4.365750e-02 -8.175373e-01 2.811535e-01 6.574933e-01 6.025664e-01 1.818349e+00 -9.445238e-01 -1.310512e+00 -7.966647e-01 -1.204919e+00 9.831948e-01 9.413900e-01 4.228009e-01 2.465233e-03 3.376143e-01 1.461577e-01 2.752815e-01 2.428677e-01 3.150156e-03 -3.278141e-01 -2.391752e-01 2.732481e-02 -2.286685e-01 2.783966e-01 -3.310849e-01 -1.829110e-01
<VARIANCE> 39
 1.412006e+01 2.209021e+01 2.256755e+01 2.524861e+01 4.248466e+01 6.374177e+01 4.952806e+01 4.081976e+01 4.940179e+01 6.139746e+01 4.140708e+01 3.552489e+01 1.484074e+01 3.606830e-01 9.572787e-01 1.258521e+00 1.970044e+00 2.031116e+00 2.733220e+00 4.074229e+00 2.783286e+00 2.361186e+00 3.451651e+00 3.065902e+00 2.688220e+00 2.260274e-01 6.008622e-02 1.134015e-01 2.237253e-01 2.685049e-01 2.879727e-01 6.427550e-01 6.787833e-01 4.620333e-01 4.813136e-01 6.807043e-01 5.374409e-01 5.434113e-01 3.615411e-02
<GCONST> 1.076823e+02
<STATE> 4
<MEAN> 39
 5.708258e+00 -1.209483e+01 -7.846728e+00 -3.493997e+00 1.724255e+00 -8.372824e+00 -8.145313e+00 -1.610474e+01 -9.108989e+00 -8.538873e+00 -1.663291e+00 3.071506e+00 7.651894e+01 -2.796716e-01 5.460009e-01 -7.906510e-02 7.247859e-01 9.404171e-01 3.045215e-01 1.653404e-01 -1.211136e-01 -3.371887e-01 -1.461306e-01 4.419687e-01 -5.230117e-01 -8.383119e-01 -9.230121e-02 8.197177e-02 -2.661755e-02 -1.372892e-01 -7.021686e-02 -7.264286e-02 1.616839e-01 2.859759e-01 7.478201e-02 1.542291e-01 -1.124483e-01 -1.069869e-01 -9.913710e-02
<VARIANCE> 39
 1.804273e+01 1.913764e+01 2.232763e+01 2.876004e+01 5.090804e+01 3.001208e+01 3.253821e+01 4.268603e+01 3.333146e+01 3.233931e+01 2.955280e+01 2.590096e+01 3.233627e+01 4.133199e-01 5.245866e-01 1.374107e+00 1.371704e+00 2.475003e+00 1.721124e+00 2.394919e+00 2.838162e+00 2.465105e+00 2.283796e+00 2.021382e+00 1.654372e+00 5.411565e-01 7.511138e-02 1.039955e-01 2.401921e-01 2.068589e-01 3.920990e-01 3.807502e-01 5.097341e-01 4.886974e-01 4.968153e-01 4.245372e-01 4.939478e-01 2.879967e-01 7.731336e-02
<GCONST> 1.032336e+02
<TRANSP> 5
 0.000000e+00 1.000000e+00 0.000000e+00 0.000000e+00 0.000000e+00
 0.000000e+00 7.122548e-01 2.877451e-01 0.000000e+00 0.000000e+00
 0.000000e+00 0.000000e+00 8.009092e-01 1.990907e-01 0.000000e+00
 0.000000e+00 0.000000e+00 0.000000e+00 8.638830e-01 1.361170e-01
 0.000000e+00 0.000000e+00 0.000000e+00 0.000000e+00 0.000000e+00
<ENDHMM>
~h "ch"
<BEGINHMM>
<NUMSTATES> 5
<STATE> 2
<MEAN> 39
 8.975653e-01 -2.606286e+00 1.336064e-01 -1.385946e+00 -1.077178e+00 -4.820585e+00 -4.676404e+00 -6.015871e+00 -6.311066e+00 -9.808287e+00 -2.966789e+00 -5.542753e+00 6.605746e+01 -7.620822e-01 -2.584591e+00 1.311418e+00 5.097981e-02 4.098202e-01 -7.319178e-01 -8.091758e-01 1.042274e+00 -2.152415e-01 -5.334942e-01 -1.832799e-01 -1.633162e-01 1.471473e+00 -6.497321e-01 -7.388597e-01 4.686856e-01 -1.073540e-01 4.066681e-01 -5.396740e-02 -8.519422e-02 -2.583388e-02 5.626179e-02 1.325292e-01 -7.473251e-02 1.046029e-01 3.574739e-01
<VARIANCE> 39
 4.809970e+01 1.032235e+02 1.076153e+02 6.315294e+01 1.021813e+02 1.116886e+02 3.777528e+01 6.960603e+01 7.555782e+01 5.406870e+01 3.537433e+01 5.382790e+01 3.224863e+01 9.406137e+00 8.195669e+00 1.493161e+01 5.537886e+00 7.575139e+00 7.122872e+00 3.830981e+00 7.517216e+00 6.453367e+00 4.606495e+00 3.722095e+00 5.107372e+00 2.577980e+00 2.132615e-01 8.164433e-01 1.766518e+00 1.149104e+00 1.327206e+00 1.004651e+00 9.360569e-01 1.020126e+00 6.997648e-01 6.933950e-01 5.966162e-01 1.121079e+00 3.845260e-01
<GCONST> 1.460819e+02
<STATE> 3
<MEAN> 39
 -1.402986e+01 -2.200499e+01 1.325197e+01 -1.733722e+00 6.703114e+00 -8.160403e+00 -9.116509e+00 -1.587794e+00 -5.442608e+00 -1.204570e+01 -2.761121e+00 -2.890979e+00 7.648430e+01 -3.034661e+00 -1.795736e+00 1.419831e+00 -1.205042e-01 6.741418e-01 -8.926177e-01 2.021970e-01 -3.267061e-01 9.334464e-01 1.527359e-01 -4.782113e-02 -2.730135e-02 1.302865e+00 5.572473e-01 6.383387e-01 -8.406548e-01 1.610263e-01 -1.144494e-01 1.579993e-01 2.115685e-01 -4.961696e-01 -2.091928e-01 -8.991611e-02 2.147847e-01 5.328163e-02 -3.380012e-01
<VARIANCE> 39
 8.487164e+01 3.422765e+01 7.671914e+01 7.059085e+01 6.792733e+01 4.638261e+01 1.825986e+01 4.009937e+01 8.304018e+01 4.284389e+01 4.052526e+01 1.871823e+01 1.696609e+01 3.264767e+00 2.848475e+00 8.530227e+00 4.081062e+00 3.331617e+00 3.380012e+00 1.696770e+00 3.478964e+00 3.348922e+00 2.362644e+00 3.120270e+00 2.234928e+00 1.699042e+00 6.190808e-01 3.395858e-01 1.361411e+00 7.983957e-01 5.994966e-01 7.456164e-01 3.309048e-01 4.874890e-01 8.287249e-01 4.523154e-01 6.693618e-01 3.704796e-01 2.980787e-01
<GCONST> 1.273649e+02
<STATE> 4
<MEAN> 39
 -1.640204e+01 -2.340653e+01 1.458001e+01 1.046792e+00 4.412263e+00 -8.533148e+00 -8.608954e+00 -7.490778e+00 -6.917830e+00 -1.176686e+01 4.352510e-01 -2.261599e+00 7.551215e+01 2.183126e+00 1.054305e+00 -5.493479e-01 9.026387e-02 -1.002010e+00 3.748425e-01 -3.819082e-01 -6.994097e-01 -8.727776e-01 -2.937214e-02 2.847749e-01 6.011739e-02 -5.166148e-01 3.791004e-01 2.809382e-01 -2.162142e-01 -8.213525e-02 -1.673741e-01 6.659407e-03 -2.014223e-02 -7.335437e-03 -3.130350e-03 6.891246e-02 -1.598483e-01 -4.676768e-02 -2.164903e-02
<VARIANCE> 39
 8.371157e+01 3.686684e+01 3.406923e+01 4.931010e+01 5.649137e+01 4.476103e+01 2.312394e+01 4.732457e+01 4.041943e+01 2.813404e+01 2.914531e+01 1.653211e+01 3.659980e+01 5.140827e+00 3.982020e+00 3.671026e+00 2.884334e+00 4.245540e+00 3.412234e+00 2.702954e+00 3.089716e+00 4.069620e+00 1.669258e+00 1.944545e+00 1.031712e+00 1.272005e+00 8.025869e-01 6.033315e-01 6.188526e-01 5.333130e-01 6.326522e-01 6.628980e-01 5.401552e-01 5.016156e-01 8.493632e-01 2.791959e-01 4.080992e-01 2.360883e-01 1.891128e-01
<GCONST> 1.223600e+02
<TRANSP> 5
 0.000000e+00 1.000000e+00 0.000000e+00 0.000000e+00 0.000000e+00
 0.000000e+00 7.753193e-01 2.246807e-01 0.000000e+00 0.000000e+00
 0.000000e+00 0.000000e+00 7.913752e-01 2.086249e-01 0.000000e+00
 0.000000e+00 0.000000e+00 0.000000e+00 8.713028e-01 1.286971e-01
 0.000000e+00 0.000000e+00 0.000000e+00 0.000000e+00 0.000000e+00
<ENDHMM>
~h "dh"
<BEGINHMM>
<NUMSTATES> 5
<STATE> 2
<MEAN> 39
 -1.859638e+00 -7.664074e+00 2.942382e+00 -4.178253e+00 1.145782e+00 -4.830859e+00 -9.725512e+00 -1.450810e+01 -8.120371e+00 -6.518109e+00 -3.905189e+00 -7.356923e+00 7.047906e+01 1.761330e+00 -4.678144e-01 -1.630355e-01 2.148350e-01 8.119375e-01 -3.166333e-01 -7.248961e-01 -1.672708e+00 -1.686916e+00 -2.679268e-01 -8.260924e-02 1.963824e-01 1.364346e+00 -1.300592e-01 1.488772e-01 -6.568640e-01 1.837730e-01 1.467305e-01 -1.351595e-01 4.007086e-01 5.160221e-01 6.024561e-02 -6.334670e-02 1.610983e-01 2.588023e-01 -4.351254e-01
<VARIANCE> 39
 6.631247e+01 2.808553e+01 6.105087e+01 4.974078e+01 5.737194e+01 7.042100e+01 6.070185e+01 8.787519e+01 7.523279e+01 4.939510e+01 3.944434e+01 3.061801e+01 4.299963e+01 4.878026e+00 3.323264e+00 6.795278e+00 4.864347e+00 5.704693e+00 6.224933e+00 5.186664e+00 6.460398e+00 5.392401e+00 3.370412e+00 2.950186e+00 3.059017e+00 5.343880e+00 9.006447e-01 5.345597e-01 8.636613e-01 7.872093e-01 9.390049e-01 8.489801e-01 9.730586e-01 1.257641e+00 1.286939e+00 6.696846e-01 5.761329e-01 5.571373e-01 4.237933e-01
<GCONST> 1.400457e+02
<STATE> 3
<MEAN> 39
 2.340547e+00 -7.876657e+00 -3.703843e+00 -3.506051e+00 2.894008e+00 -6.352903e+00 -7.300311e+00 -1.147072e+01 -1.178146e+01 -8.689449e+00 -2.620049e+00 -4.379746e+00 7.109375e+01 5.571120e-02 2.217291e-01 -9.901490e-01 4.050443e-01 1.541441e-01 4.066886e-01 7.638165e-01 5.160557e-01 1.395777e-01 -4.325949e-02 3.603239e-01 5.150514e-01 -6.961436e-01 -2.781364e-01 1.148127e-01 1.007817e-01 -5.153881e-05 -1.247867e-02 7.116343e-02 9.346420e-02 1.800743e-01 3.388866e-01 6.188067e-02 6.510602e-02 -3.122802e-03 -1.538476e-01
<VARIANCE> 39
 5.436989e+01 3.333351e+01 4.318243e+01 6.304696e+01 5.201925e+01 7.223594e+01 4.982455e+01 6.564260e+01 5.479486e+01 3.533242e+01 2.367307e+01 3.333287e+01 4.490168e+01 8.296601e-01 1.597505e+00 1.960831e+00 1.785733e+00 2.324473e+00 3.543869e+00 2.798393e+00 2.807325e+00 2.242348e+00 2.075709e+00 1.988807e+00 1.836373e+00 1.298028e+00 1.474858e-01 2.247911e-01 2.452462e-01 3.379656e-01 3.742936e-01 4.551288e-01 4.680525e-01 5.349141e-01 4.142394e-01 3.277865e-01 3.476731e-01 3.818968e-01 1.087530e-01
<GCONST> 1.149697e+02
<STATE> 4
<MEAN> 39
 -1.092630e+01 -6.845283e+00 -6.608362e+00 -2.152063e+00 9.764950e-01 -2.249167e+00 -2.359216e+00 -7.501811e+00 -5.282447e+00 -7.733548e+00 -5.527594e-01 -9.711983e-01 5.620887e+01 -3.233351e-01 2.795394e-01 -1.174312e-01 5.304508e-02 7.809913e-02 -2.163894e-02 2.218467e-01 3.377471e-01 3.620844e-01 1.167339e-01 -8.029167e-02 2.190520e-02 -5.047053e-01 -2.049275e-02 -1.777998e-02 1.432499e-01 -5.142411e-02 -2.967408e-02 -2.755361e-02 -1.052666e-01 -5.728648e-02 3.795676e-02 2.650353e-02 -4.465755e-02 -6.789139e-02 8.869570e-02
<VARIANCE> 39
 7.461570e+01 2.337992e+01 3.407886e+01 2.758029e+01 2.480973e+01 2.780934e+01 3.316290e+01 3.808869e+01 3.491870e+01 2.862234e+01 1.732928e+01 2.182132e+01 8.257687e+01 3.541791e-01 5.876756e-01 9.908975e-01 9.467356e-01 9.788026e-01 1.301987e+00 1.402344e+00 1.367401e+00 1.506743e+00 1.285092e+00 1.107845e+00 1.281420e+00 4.202834e-01 1.005033e-01 1.129718e-01 1.509339e-01 1.803780e-01 2.197481e-01 3.352651e-01 3.596925e-01 2.842462e-01 2.718741e-01 2.535605e-01 2.087025e-01 1.978299e-01 8.866742e-02
<GCONST> 9.507089e+01
<TRANSP> 5
 0.000000e+00 1.000000e+00 0.000000e+00 0.000000e+00 0.000000e+00
 0.000000e+00 6.083990e-01 3.916009e-01 0.000000e+00 0.000000e+00
 0.000000e+00 0.000000e+00 6.249762e-01 3.750238e-01 0.000000e+00
 0.000000e+00 0.000000e+00 0.000000e+00 7.750323e-01 2.249677e-01
 0.000000e+00 0.000000e+00 0.000000e+00 0.000000e+00 0.000000e+00
<ENDHMM>
~h "ea"
<BEGINHMM>
<NUMSTATES> 5
<STATE> 2
<MEAN> 39
 3.802880e+00 -9.719839e+00 -9.700586e+00 1.715793e+00 8.252855e+00 -1.784054e+01 -9.253654e+00 -2.267830e+01 -8.295135e+00 -7.872408e+00 -1.081880e+00 8.147116e-02 7.963770e+01 -1.337646e-01 -3.803097e-01 -7.198820e-01 2.239380e-01 -7.866397e-01 1.460063e-01 8.973973e-01 -8.161767e-01 6.198818e-01 -7.408810e-02 6.573741e-01 8.549764e-01 5.293389e-01 9.996012e-02 2.291555e-02 1.065325e-01 -2.892848e-01 -1.743620e-01 4.648496e-01 -5.442706e-02 3.922878e-01 -8.861980e-02 7.021213e-02 -1.701280e-01 -6.123010e-02 -2.344544e-01
<VARIANCE> 39
 6.140525e+00 1.185867e+01 3.809129e+01 3.285773e+01 1.277878e+01 3.174038e+01 3.077748e+01 3.470575e+01 2.816175e+01 2.277238e+01 2.977253e+01 6.260255e+01 1.343936e+01 9.161583e-01 7.357590e-01 1.048526e+00 2.631106e+00 2.228503e+00 2.059064e+00 2.148616e+00 4.372799e+00 1.565182e+00 2.606132e+00 2.332100e+00 2.714078e+00 6.196712e-01 1.110265e-01 1.640397e-01 1.062631e-01 2.089042e-01 2.504384e-01 2.099665e-01 4.864210e-01 9.212555e-01 3.690591e-01 3.524198e-01 4.933843e-01 6.112731e-01 3.007182e-02
<GCONST> 1.015212e+02
<STATE> 3
<MEAN> 39
 5.722172e+00 -1.235602e+01 -1.079733e+01 -1.601251e+00 4.020489e+00 -1.587020e+01 -7.441027e+00 -1.786984e+01 -1.198798e+01 -4.927125e+00 6.507635e-02 3.742161e+00 7.941052e+01 4.442711e-01 -9.589788e-02 -1.962476e-01 -7.226774e-01 -2.668638e-01 2.667941e-01 4.437864e-01 1.285116e+00 -7.665148e-01 3.063182e-01 -6.251772e-01 1.515730e-01 -1.284391e-01 -4.565679e-04 1.657287e-01 8.978442e-02 -2.166567e-02 1.767800e-01 -3.433380e-02 -7.858850e-03 1.496923e-01 -1.261734e-01 3.097323e-02 -1.919381e-01 -2.541641e-01 -9.972674e-02
<VARIANCE> 39
 7.345326e+00 1.426201e+01 2.462472e+01 2.941587e+01 6.046664e+01 4.025734e+01 2.256684e+01 3.673532e+01 8.428121e+01 2.368510e+01 3.769262e+01 5.266365e+01 1.687748e+01 4.206280e-01 7.034096e-01 9.882567e-01 1.541130e+00 2.119476e+00 1.453929e+00 1.845991e+00 2.953699e+00 2.936411e+00 2.254725e+00 2.580251e+00 2.149406e+00 2.618396e-01 5.090915e-02 8.795168e-02 8.602816e-02 1.713994e-01 2.830679e-01 1.959118e-01 3.002320e-01 4.463444e-01 5.371059e-01 3.010888e-01 3.931984e-01 3.570795e-01 2.889267e-02
<GCONST> 9.788094e+01
<STATE> 4
<MEAN> 39
 8.343241e+00 -8.418488e+00 -1.326398e+01 -6.335947e+00 6.281465e-01 -1.184270e+01 -6.092674e+00 -9.199904e+00 -1.209014e+01 -4.611029e+00 -2.789785e+00 8.090330e-01 7.425597e+01 -9.929632e-02 9.743251e-01 -7.656300e-02 7.896176e-02 1.052276e-01 4.150782e-01 -5.647257e-02 1.482209e-01 2.408637e-01 -5.328813e-01 2.797630e-01 -5.862013e-01 -1.059905e+00 -1.451570e-01 2.984783e-02 1.125371e-01 8.684243e-02 -1.820359e-02 5.266853e-02 -4.791920e-02 -2.568671e-01 1.584389e-01 -1.150398e-01 1.732187e-01 5.553360e-02 -1.090553e-02
<VARIANCE> 39
 1.233428e+01 3.222788e+01 2.380398e+01 1.698617e+01 3.408027e+01 4.165688e+01 1.462976e+01 3.304972e+01 4.199436e+01 3.264425e+01 2.954974e+01 4.007760e+01 2.278720e+01 4.949609e-01 7.496019e-01 9.758572e-01 1.556291e+00 9.177117e-01 9.059960e-01 1.100681e+00 1.848587e+00 1.960062e+00 1.731024e+00 1.913734e+00 1.632298e+00 3.116532e-01 5.669397e-02 9.865449e-02 1.932749e-01 2.072346e-01 1.407131e-01 2.174236e-01 2.252589e-01 2.881214e-01 3.818877e-01 3.689061e-01 3.394724e-01 2.343588e-01 5.521004e-02
<GCONST> 9.366394e+01
<TRANSP> 5
 0.000000e+00 1.000000e+00 0.000000e+00 0.000000e+00 0.000000e+00
 0.000000e+00 7.249382e-01 2.750619e-01 0.000000e+00 0.000000e+00
 0.000000e+00 0.000000e+00 8.503191e-01 1.496809e-01 0.000000e+00
 0.000000e+00 0.000000e+00 0.000000e+00 8.379651e-01 1.620349e-01
 0.000000e+00 0.000000e+00 0.000000e+00 0.000000e+00 0.000000e+00
<ENDHMM>
~h "eh"
<BEGINHMM>
<NUMSTATES> 5
<STATE> 2
<MEAN> 39
 4.621029e-02 -3.138876e+00 -7.762341e-01 -5.542280e+00 1.311562e+00 -8.914485e+00 -8.013020e+00 -1.110879e+01 -5.703389e+00 -7.888339e+00 -4.097816e+00 -6.831007e+00 6.970058e+01 1.766918e+00 -1.167341e+00 -1.890972e+00 -1.107546e+00 -1.672922e-02 -1.015201e+00 -1.501165e+00 -1.387621e+00 -1.000447e+00 -6.087804e-01 2.608134e-01 8.086350e-01 2.005798e+00 -1.795007e-01 -4.612744e-01 -1.838507e-01 3.313483e-01 2.536579e-01 7.370250e-02 3.187664e-02 -2.076310e-01 -1.562816e-01 4.333481e-02 2.974510e-01 4.651027e-01 1.400187e-01
<VARIANCE> 39
 8.131244e+01 9.482935e+01 9.460411e+01 6.738078e+01 7.655005e+01 4.820245e+01 5.746250e+01 7.628736e+01 6.943165e+01 5.981466e+01 3.211200e+01 4.432241e+01 6.762234e+01 6.620496e+00 7.157753e+00 7.737235e+00 4.837977e+00 7.759740e+00 4.726334e+00 4.686874e+00 6.191471e+00 8.076062e+00 5.166711e+00 4.162742e+00 6.019160e+00 3.105434e+00 1.094597e+00 1.116351e+00 1.246226e+00 9.092199e-01 1.013875e+00 5.908933e-01 8.738730e-01 1.294396e+00 1.394707e+00 8.381599e-01 6.704780e-01 7.964924e-01 5.654655e-01
<GCONST> 1.472243e+02
<STATE> 3
<MEAN> 39
 4.611836e+00 -9.690735e+00 -7.316316e+00 -6.080323e+00 3.030636e+00 -1.322098e+01 -1.180926e+01 -1.793640e+01 -1.096580e+01 -8.109583e+00 6.793339e-01 2.642274e-01 7.778694e+01 1.586079e-01 -1.335645e+00 -7.820684e-01 5.707070e-01 -4.410950e-01 -2.432655e-01 -4.554337e-01 -9.400470e-01 1.762986e-01 2.994144e-02 9.572606e-01 1.298213e+00 8.999913e-01 -3.028542e-01 3.215875e-01 4.306476e-01 2.934048e-01 7.527190e-02 4.122793e-01 3.423449e-01 3.447437e-01 3.429935e-01 -3.200313e-02 -3.352916e-01 -4.934507e-01 -3.799242e-01
<VARIANCE> 39
 1.663903e+01 1.885482e+01 5.306466e+01 4.221461e+01 3.971636e+01 4.792204e+01 3.671548e+01 4.202500e+01 4.763840e+01 4.697852e+01 3.325158e+01 3.235289e+01 1.724164e+01 1.952734e+00 1.592860e+00 4.017885e+00 2.285135e+00 3.619176e+00 3.146895e+00 3.570484e+00 4.602366e+00 3.455652e+00 3.548573e+00 2.780452e+00 2.901236e+00 1.169035e+00 2.987144e-01 3.058951e-01 4.078370e-01 4.404717e-01 6.035460e-01 5.730443e-01 6.432688e-01 6.466046e-01 6.873080e-01 6.613399e-01 4.630383e-01 5.489968e-01 1.139005e-01
<GCONST> 1.205296e+02
<STATE> 4
<MEAN> 39
 4.293826e+00 -1.142370e+01 -6.622024e+00 -2.890046e+00 2.165244e+00 -8.265315e+00 -1.144414e+01 -2.006993e+01 -8.471348e+00 -7.643534e+00 7.590325e-01 1.528187e+00 7.784988e+01 1.759837e-01 2.455070e-01 1.680043e-02 5.688608e-01 8.060474e-01 6.662786e-01 4.016230e-01 4.902939e-01 -3.895636e-01 -1.450426e-01 -8.606432e-02 -2.395129e-01 -6.932583e-01 -5.926326e-02 2.060894e-01 1.094154e-01 -1.366566e-02 2.037860e-01 3.251153e-02 6.675095e-02 2.643479e-01 -4.679486e-02 6.178402e-02 -3.221237e-02 -1.869102e-01 -2.000365e-01
<VARIANCE> 39
 1.405706e+01 1.741477e+01 3.251423e+01 3.596305e+01 3.961682e+01 4.842947e+01 2.636070e+01 4.064537e+01 4.136257e+01 3.867192e+01 2.962897e+01 2.229574e+01 2.651104e+01 9.004619e-01 8.511456e-01 1.692634e+00 1.949497e+00 2.121037e+00 2.256944e+00 2.125247e+00 2.437400e+00 2.102304e+00 2.042851e+00 1.919362e+00 1.635684e+00 8.197674e-01 2.013629e-01 1.344046e-01 3.197242e-01 3.411164e-01 3.800648e-01 4.347566e-01 4.897578e-01 4.903307e-01 4.753202e-01 3.674079e-01 3.840619e-01 3.089912e-01 1.129823e-01
<GCONST> 1.073582e+02
<TRANSP> 5
 0.000000e+00 1.000000e+00 0.000000e+00 0.000000e+00 0.000000e+00
 0.000000e+00 6.111280e-01 3.888720e-01 0.000000e+00 0.000000e+00
