~o
<STREAMINFO> 1 39
<VECSIZE> 39<NULLD><MFCC_D_A_0><DIAGC>
~s "silst"
<MEAN> 39
 -2.037429e+01 -5.252887e+00 -4.137923e+00 3.905764e-01 -8.176591e-02 -4.797263e-01 2.028187e+00 -7.266451e-01 -1.980623e-01 -5.216993e+00 -2.072839e+00 -3.452557e+00 4.465107e+01 8.155361e-01 -6.514215e-01 -4.151751e-01 -1.541605e-01 1.398161e-02 -7.794076e-01 -2.375083e-01 5.382483e-01 -2.171916e-01 -7.948326e-01 -3.269904e-01 9.871344e-02 1.029323e+00 5.039808e-01 -2.999772e-01 -1.652563e-01 -1.233138e-01 1.819901e-02 -3.102409e-01 -1.368748e-01 9.580594e-02 -1.390265e-01 -3.904531e-01 -2.066529e-01 -2.047965e-03 6.568619e-01
<VARIANCE> 39
 3.507503e+00 3.784957e+00 5.910254e+00 5.222626e+00 5.394795e+00 7.197224e+00 9.842031e+00 1.150988e+01 9.560864e+00 8.456483e+00 7.492203e+00 7.449075e+00 1.102981e+01 2.915606e+00 4.625131e+00 5.165320e+00 1.926674e+00 1.962063e+00 2.673942e+00 5.064859e+00 9.035068e+00 2.791773e+00 6.316391e+00 2.749959e+00 1.607896e+00 2.588316e+00 4.575273e-01 6.416102e-01 7.939085e-01 3.072340e-01 3.462280e-01 4.519751e-01 8.433551e-01 1.372109e+00 4.488167e-01 8.285681e-01 4.473052e-01 2.984304e-01 3.928230e-01
<GCONST> 1.043019e+02
~h "b"
<BEGINHMM>
<NUMSTATES> 5
<STATE> 2
<MEAN> 39
 -1.169759e+01 -3.203057e+00 -4.393488e+00 -1.869952e+00 2.153482e-01 -1.713254e+00 -1.836388e-01 -5.807816e+00 -5.521268e+00 -8.944928e+00 -1.382067e+00 -1.817041e+00 5.428764e+01 -2.743680e-01 2.392815e-02 -7.678363e-02 1.494715e-01 -4.318721e-02 -8.263050e-02 -1.201430e-01 2.112652e-01 4.996453e-01 5.003434e-02 -9.609853e-02 3.262278e-02 -4.209797e-01 2.037128e-01 -1.219538e-01 2.922363e-02 -5.687269e-02 4.536713e-02 -2.099763e-01 -2.934725e-01 -2.212837e-03 5.073642e-02 2.852024e-02 -1.909014e-02 -5.529994e-02 3.063762e-01
<VARIANCE> 39
 5.714112e+01 2.406544e+01 3.450081e+01 3.217278e+01 2.835364e+01 2.118811e+01 2.087071e+01 2.687346e+01 2.772031e+01 1.953706e+01 1.848668e+01 2.339728e+01 3.711821e+01 1.163058e+00 1.062650e+00 1.810473e+00 1.300245e+00 1.314512e+00 1.557334e+00 1.653256e+00 1.579760e+00 1.837134e+00 1.460183e+00 1.297777e+00 1.349355e+00 7.046127e-01 3.011135e-01 1.871564e-01 1.486086e-01 2.554087e-01 3.874641e-01 5.259665e-01 4.018829e-01 2.906106e-01 2.959991e-01 2.983606e-01 2.782061e-01 2.514268e-01 2.487780e-01
<GCONST> 1.021995e+02
<STATE> 3
<MEAN> 39
 -4.475410e+00 -2.687327e+00 -3.149519e+00 -7.675777e-01 2.847577e+00 -3.522204e+00 -5.334583e+00 -5.231643e+00 -2.127465e+00 -8.885123e+00 -3.332072e+00 -5.151066e+00 6.082096e+01 3.403817e+00 -4.662234e-01 -9.328257e-02 1.814457e-01 4.449743e-01 -2.353185e+00 -3.023382e+00 -4.063112e-01 7.474985e-01 1.409862e-01 -1.755601e-01 -3.354485e-01 3.379483e+00 4.592834e-01 -3.315724e-02 7.464199e-02 -4.257783e-02 -1.233597e-01 -5.148390e-01 -2.529285e-01 -2.542109e-01 -2.861384e-01 1.527304e-02 -2.023369e-01 1.619692e-01 4.984332e-01
<VARIANCE> 39
 7.555898e+01 3.865207e+01 2.721008e+01 6.643185e+01 8.004956e+01 4.664496e+01 6.770345e+01 5.288936e+01 3.579710e+01 2.649459e+01 2.762311e+01 1.746725e+01 5.859144e+01 1.069003e+01 4.427437e+00 5.754673e+00 8.942723e+00 1.188509e+01 8.458891e+00 5.844823e+00 4.584731e+00 4.961011e+00 3.491545e+00 4.252895e+00 2.288277e+00 4.500427e+00 1.656651e+00 8.901327e-01 6.614552e-01 1.052510e+00 1.272041e+00 1.189014e+00 1.261691e+00 7.925993e-01 8.784328e-01 6.996548e-01 5.687066e-01 5.512902e-01 8.981026e-01
<GCONST> 1.416836e+02
<STATE> 4
<MEAN> 39
 5.284509e+00 -1.530329e+00 -3.233716e+00 -1.521986e+00 -1.851315e+00 -1.369931e+01 -1.239581e+01 -5.201705e+00 1.239451e+00 -1.081635e+01 -6.145853e+00 -3.589757e+00 6.942668e+01 9.195074e-01 -5.776424e-01 -9.082630e-02 -2.918846e-01 -2.846047e-01 -1.284573e+00 -9.707674e-01 -2.780336e-01 -4.972807e-01 -4.343129e-01 -3.455013e-01 5.544233e-01 1.299244e+00 -4.557638e-01 -8.799896e-02 1.869263e-02 -1.156041e-01 -6.668137e-02 3.729581e-01 4.560596e-01 4.352207e-02 -2.875251e-01 1.213948e-01 1.162899e-01 1.122406e-01 -3.578849e-01
<VARIANCE> 39
 3.289585e+01 2.995025e+01 3.385685e+01 5.995126e+01 1.453974e+02 9.861528e+01 5.783283e+01 5.185223e+01 8.192286e+01 4.365273e+01 3.614982e+01 3.435349e+01 2.275584e+01 3.847784e+00 3.146544e+00 2.824181e+00 4.059565e+00 5.057775e+00 7.987828e+00 6.701729e+00 4.038526e+00 4.580720e+00 4.999993e+00 2.820560e+00 3.787427e+00 2.734608e+00 8.771231e-01 4.183708e-01 5.201403e-01 6.950480e-01 6.300389e-01 8.978666e-01 7.532396e-01 5.612008e-01 5.555583e-01 8.205546e-01 3.464327e-01 5.435246e-01 3.357467e-01
<GCONST> 1.336323e+02
<TRANSP> 5
 0.000000e+00 1.000000e+00 0.000000e+00 0.000000e+00 0.000000e+00
 0.000000e+00 8.303567e-01 1.696434e-01 0.000000e+00 0.000000e+00
 0.000000e+00 0.000000e+00 5.917377e-01 4.082623e-01 0.000000e+00
 0.000000e+00 0.000000e+00 0.000000e+00 5.340909e-01 4.659092e-01
 0.000000e+00 0.000000e+00 0.000000e+00 0.000000e+00 0.000000e+00
<ENDHMM>
~h "d"
<BEGINHMM>
<NUMSTATES> 5
<STATE> 2
<MEAN> 39
 -1.228165e+00 -4.483973e+00 -6.202589e+00 2.906998e-01 3.583749e+00 -2.211569e+00 -3.807348e+00 -9.857216e+00 -7.917094e+00 -9.522598e+00 -3.731852e-01 -1.597134e+00 6.346411e+01 -7.629294e-01 5.306122e-01 -1.196448e-01 1.697093e-01 8.545391e-03 4.253042e-01 5.021831e-01 1.823053e-01 2.711049e-01 6.436707e-02 2.961709e-01 4.726403e-01 -1.061182e+00 -1.462447e-01 -1.205895e-01 2.819545e-01 -1.933357e-01 1.045762e-02 -2.478871e-01 -2.364531e-01 -8.815382e-02 5.463463e-02 2.642309e-02 -1.312735e-01 -9.194735e-02 2.180354e-01
<VARIANCE> 39
 7.589426e+01 2.126366e+01 3.380194e+01 5.052689e+01 4.489175e+01 3.144721e+01 3.162150e+01 3.991914e+01 3.521748e+01 2.963646e+01 3.111613e+01 2.713068e+01 5.114656e+01 5.059242e-01 6.880198e-01 1.153934e+00 1.251611e+00 1.307797e+00 1.944515e+00 1.624652e+00 1.532164e+00 1.605229e+00 1.878789e+00 1.875100e+00 1.638000e+00 4.685862e-01 1.186817e-01 2.761657e-01 2.979759e-01 3.255033e-01 3.322542e-01 4.423126e-01 4.294889e-01 3.467597e-01 4.188147e-01 3.612787e-01 4.352152e-01 3.134699e-01 1.370010e-01
<GCONST> 1.057079e+02
<STATE> 3
<MEAN> 39
 2.889335e-01 -2.027931e+00 -5.478573e+00 2.633438e+00 6.041140e+00 -2.160956e+00 -4.428863e+00 -1.028906e+01 -7.794146e+00 -9.934196e+00 -7.532713e-01 -1.757512e+00 6.374068e+01 -1.701254e+00 -9.222409e-01 1.509332e+00 -7.756486e-01 7.339137e-03 -7.027392e-01 -3.608549e-01 4.270917e-01 1.015753e+00 2.204137e-01 -3.530332e-01 -3.469922e-01 4.182533e-01 -2.707503e-01 -7.303924e-01 7.349863e-01 -5.438735e-01 -9.767879e-03 -5.306068e-01 -3.271157e-01 8.618010e-02 1.174291e-01 1.282188e-01 -2.956054e-01 -4.253036e-01 9.061019e-01
<VARIANCE> 39
 3.713614e+01 2.424756e+01 4.476917e+01 6.248660e+01 4.898539e+01 4.435419e+01 4.069044e+01 4.556953e+01 5.035983e+01 3.777817e+01 3.850124e+01 2.932453e+01 2.753032e+01 2.165819e+00 3.779351e+00 4.756934e+00 5.005198e+00 3.970729e+00 4.474327e+00 4.755062e+00 5.048738e+00 6.082563e+00 4.175382e+00 3.786270e+00 2.617126e+00 1.686243e+00 4.925922e-01 5.383198e-01 7.710419e-01 7.597941e-01 6.443346e-01 8.206506e-01 6.628688e-01 7.212486e-01 7.888620e-01 6.611049e-01 6.794817e-01 4.287018e-01 2.457045e-01
<GCONST> 1.303742e+02
<STATE> 4
<MEAN> 39
 -7.755424e+00 -1.113546e+01 3.273174e+00 -4.053439e-01 2.917654e+00 -5.251124e+00 -4.392461e+00 -7.100793e+00 -4.616096e+00 -7.729957e+00 -1.389104e+00 -5.089455e+00 6.726212e+01 -7.243564e-01 -7.568374e-01 1.096438e+00 -2.991197e-01 -1.414919e-01 -2.820485e-01 -1.499499e-01 -1.327929e-01 -4.300978e-01 -1.085422e-01 -1.960479e-01 -4.524279e-01 4.895115e-01 4.567797e-01 4.166228e-01 -4.383069e-01 1.275591e-01 3.169187e-03 9.564764e-02 3.726226e-02 -1.649290e-01 -3.238933e-01 -1.309297e-01 -2.459558e-02 6.191379e-02 -1.582837e-01
<VARIANCE> 39
 4.475821e+01 5.791428e+01 6.212861e+01 6.380882e+01 5.825395e+01 5.853527e+01 6.773471e+01 5.775985e+01 6.365794e+01 5.991512e+01 4.761430e+01 2.884188e+01 5.471637e+01 5.400218e+00 6.182936e+00 6.672054e+00 6.103456e+00 3.909088e+00 4.214216e+00 4.759488e+00 3.872458e+00 5.069149e+00 3.096684e+00 3.632826e+00 2.665587e+00 4.281806e+00 6.579810e-01 6.515521e-01 8.267431e-01 9.936010e-01 6.531044e-01 7.737159e-01 7.997590e-01 6.582431e-01 1.003912e+00 6.388236e-01 5.862818e-01 4.391096e-01 5.484310e-01
<GCONST> 1.383418e+02
<TRANSP> 5
 0.000000e+00 1.000000e+00 0.000000e+00 0.000000e+00 0.000000e+00
 0.000000e+00 6.534638e-01 3.465362e-01 0.000000e+00 0.000000e+00
 0.000000e+00 0.000000e+00 4.035816e-01 5.964184e-01 0.000000e+00
 0.000000e+00 0.000000e+00 0.000000e+00 6.889135e-01 3.110865e-01
 0.000000e+00 0.000000e+00 0.000000e+00 0.000000e+00 0.000000e+00
<ENDHMM>
~h "f"
<BEGINHMM>
<NUMSTATES> 5
<STATE> 2
<MEAN> 39
 -1.736995e+01 -3.565368e-01 -2.916946e+00 -5.628864e+00 1.304670e+01 -1.000751e+01 7.933376e-01 -6.769727e+00 -6.189560e+00 -9.696882e+00 -2.833541e+00 -7.061470e+00 7.220094e+01 -2.148820e+00 2.488336e-01 1.821069e-01 -4.016632e-01 4.811812e-01 -1.945313e-01 3.496478e-01 4.087119e-01 1.589509e-01 -1.190872e-02 7.458771e-02 -5.757968e-01 -5.233988e-02 3.982667e-01 -2.029819e-01 -7.809860e-02 7.327838e-02 -3.114284e-01 3.071712e-02 -2.907226e-01 -5.673105e-02 8.019425e-02 4.816367e-02 -3.265686e-02 6.618249e-02 -3.695481e-02
<VARIANCE> 39
 7.734624e+01 2.752648e+01 3.876466e+01 6.397644e+01 8.216215e+01 4.750863e+01 3.786453e+01 6.032793e+01 4.726970e+01 4.309868e+01 3.025969e+01 3.993966e+01 3.281021e+01 4.005624e+00 2.019501e+00 1.554524e+00 1.809562e+00 2.846354e+00 2.827739e+00 3.990176e+00 2.532038e+00 2.815278e+00 2.455072e+00 2.142946e+00 2.127339e+00 1.240687e+00 4.756477e-01 2.507470e-01 2.804516e-01 3.455266e-01 4.995578e-01 5.485179e-01 6.261457e-01 5.074631e-01 5.041701e-01 4.976455e-01 3.981169e-01 4.376927e-01 2.258196e-01
<GCONST> 1.210370e+02
<STATE> 3
<MEAN> 39
 -2.334115e+01 -4.225693e+00 -5.113648e+00 -8.917293e+00 7.975798e+00 -1.125886e+01 -2.393587e+00 -5.434592e+00 -1.568404e+00 -8.720052e+00 -2.359382e+00 -8.987336e+00 7.247913e+01 2.914786e+00 -6.005833e-02 5.860687e-01 -4.070489e-01 -2.075397e+00 -1.037429e+00 -7.490362e-01 -6.668381e-01 4.622695e-01 5.499107e-01 3.554795e-01 3.448162e-01 2.564107e-01 1.349805e+00 7.359544e-01 5.334654e-01 -3.092762e-02 -9.696003e-02 -3.818285e-01 -1.134372e-01 -7.239167e-02 -2.695554e-01 1.979796e-01 -2.373100e-02 7.509434e-02 -6.848684e-02
<VARIANCE> 39
 3.846549e+01 2.712387e+01 2.926558e+01 4.450514e+01 8.489548e+01 4.148878e+01 3.358804e+01 4.374687e+01 4.450295e+01 4.188048e+01 2.183382e+01 3.355042e+01 2.155001e+01 5.698654e+00 4.670722e+00 5.008039e+00 3.949726e+00 5.345291e+00 4.117897e+00 3.184883e+00 3.518519e+00 3.706272e+00 3.582007e+00 1.571237e+00 2.583616e+00 1.741706e+00 3.244184e-01 5.641090e-01 6.304190e-01 6.695632e-01 9.216198e-01 5.952827e-01 7.619954e-01 5.186797e-01 5.717273e-01 6.436779e-01 3.360443e-01 5.210920e-01 1.894387e-01
<GCONST> 1.262772e+02
<STATE> 4
<MEAN> 39
 -3.312619e+00 3.429728e+00 1.780167e+00 -1.172601e+01 -9.915876e-02 -1.810725e+01 -5.465320e+00 -7.177374e+00 -1.816383e+00 -5.060881e+00 -2.265112e+00 -8.447544e+00 7.280980e+01 5.134701e+00 1.158133e+00 8.086380e-02 -9.935780e-01 -1.606994e+00 -1.310155e+00 -1.903092e+00 -8.836683e-02 -6.731337e-02 1.507181e+00 -1.008590e+00 5.853374e-01 -9.358419e-02 -7.067661e-01 -7.765317e-01 -1.020153e+00 5.466502e-02 3.276021e-01 4.904030e-01 -2.492434e-01 2.331777e-01 -2.109144e-02 -1.272800e-01 -4.196239e-01 1.985070e-01 6.178704e-02
<VARIANCE> 39
 5.043201e+01 3.969083e+01 3.375944e+01 7.316293e+01 8.845229e+01 6.256818e+01 4.811658e+01 4.749722e+01 4.789583e+01 3.448021e+01 2.558641e+01 1.742190e+01 1.903736e+01 4.473957e+00 5.427743e+00 5.449151e+00 3.646989e+00 4.910028e+00 5.707488e+00 3.845411e+00 2.912513e+00 3.683110e+00 3.636706e+00 2.416038e+00 2.526611e+00 8.061652e-01 5.263324e-01 6.012235e-01 4.945512e-01 5.913414e-01 6.801727e-01 7.380978e-01 6.526529e-01 5.258550e-01 5.766459e-01 5.026813e-01 3.985248e-01 5.222149e-01 7.507362e-02
<GCONST> 1.264801e+02
<TRANSP> 5
 0.000000e+00 1.000000e+00 0.000000e+00 0.000000e+00 0.000000e+00
 0.000000e+00 8.835137e-01 1.164863e-01 0.000000e+00 0.000000e+00
 0.000000e+00 0.000000e+00 7.154585e-01 2.845415e-01 0.000000e+00
 0.000000e+00 0.000000e+00 0.000000e+00 5.930813e-01 4.069187e-01
 0.000000e+00 0.000000e+00 0.000000e+00 0.000000e+00 0.000000e+00
<ENDHMM>
~h "g"
<BEGINHMM>
<NUMSTATES> 5
<STATE> 2
<MEAN> 39
 -3.632936e+00 -5.166130e+00 -8.767385e+00 -5.753511e+00 6.011766e+00 -6.877128e+00 -2.409347e+00 -3.536804e+00 -2.769546e+00 -1.185246e+01 -2.619361e+00 -4.524681e+00 6.613650e+01 -4.252094e-01 -6.337357e-01 2.027246e-01 -1.615802e+00 -1.851866e-01 -1.748213e+00 5.052182e-01 9.975762e-01 6.019050e-02 -1.029631e+00 -7.208793e-01 -3.886276e-01 1.352785e+00 5.063770e-01 2.579278e-01 4.490685e-01 3.851821e-01 4.466135e-02 -2.740397e-02 -2.784805e-01 -5.309981e-01 -6.455091e-01 1.075132e-01 -5.947991e-02 -9.410779e-02 1.422177e-01
<VARIANCE> 39
 2.595453e+01 3.206438e+01 5.239214e+01 1.227312e+02 1.037075e+02 8.317019e+01 1.004939e+02 8.238987e+01 6.005646e+01 8.128241e+01 5.945073e+01 3.686634e+01 3.543043e+01 2.753584e+00 3.209980e+00 4.824696e+00 1.007445e+01 4.543864e+00 6.083104e+00 6.610239e+00 7.259165e+00 7.413391e+00 6.622315e+00 4.570639e+00 2.661669e+00 3.251629e+00 4.664189e-01 8.153572e-01 1.048613e+00 1.912153e+00 8.797200e-01 1.585163e+00 1.202564e+00 1.680465e+00 1.158426e+00 1.205000e+00 7.283897e-01 5.862195e-01 7.404947e-01
<GCONST> 1.457790e+02
<STATE> 3
<MEAN> 39
 -8.192539e-01 -4.518294e+00 -2.707579e+00 -5.059456e+00 7.531213e+00 -8.262787e+00 -3.331541e+00 -5.948460e+00 -8.280785e+00 -1.370145e+01 -3.886735e+00 -6.650197e+00 7.100806e+01 2.360291e+00 1.227504e+00 1.067114e+00 1.300034e+00 -2.380046e-02 1.450705e-01 -6.028652e-01 -1.802285e+00 -2.608681e+00 -1.122919e-01 -4.247889e-01 -8.601266e-01 4.282579e-01 3.159564e-01 2.347778e-01 -4.511069e-01 2.198013e-01 -2.197751e-01 8.061302e-02 -4.549467e-01 -5.484568e-01 1.778201e-01 8.253498e-01 3.320774e-02 3.379619e-02 -2.192186e-01
<VARIANCE> 39
 2.671327e+01 2.801553e+01 6.166553e+01 9.428682e+01 6.429627e+01 2.571343e+01 9.914515e+01 6.857047e+01 8.572645e+01 5.481389e+01 7.047072e+01 3.731539e+01 2.021790e+01 2.679780e+00 2.542175e+00 4.837763e+00 4.525957e+00 3.172976e+00 7.144734e+00 5.478790e+00 8.282897e+00 2.205453e+00 5.275401e+00 4.289972e+00 4.180673e+00 6.364408e-01 4.420534e-01 4.120709e-01 9.459455e-01 7.960396e-01 5.036104e-01 7.331745e-01 8.811177e-01 9.548277e-01 1.227701e+00 6.898533e-01 9.928689e-01 7.721190e-01 2.828365e-01
<GCONST> 1.345140e+02
<STATE> 4
<MEAN> 39
 4.831309e+00 -1.865032e+00 -4.010497e+00 -2.914794e+00 7.148122e+00 -7.475931e+00 -6.812527e+00 -9.675467e+00 -1.091434e+01 -1.254418e+01 -5.279925e+00 -7.155551e+00 7.049667e+01 1.680958e+00 7.994331e-01 -1.547466e-01 2.617656e-02 -7.214435e-01 -5.477374e-01 -1.403386e+00 -1.157358e+00 -5.207282e-01 8.482210e-01 -6.811636e-01 -7.158785e-01 5.218269e-01 -4.422415e-01 -2.693076e-01 -4.420232e-01 -3.521722e-01 -3.266429e-02 -3.746101e-01 -8.452356e-03 4.609295e-01 6.703190e-01 1.270065e-01 7.968766e-02 1.314185e-01 3.908122e-02
<VARIANCE> 39
 1.376465e+01 3.083274e+01 3.303945e+01 8.047112e+01 9.160784e+01 6.150684e+01 9.365248e+01 5.903309e+01 5.514529e+01 3.930848e+01 4.493768e+01 2.711325e+01 1.642232e+01 3.115430e+00 1.910893e+00 3.732521e+00 3.693062e+00 3.568818e+00 4.859117e+00 4.876281e+00 9.343643e+00 4.456692e+00 7.330606e+00 3.544956e+00 4.367720e+00 5.602671e-01 2.481126e-01 3.062080e-01 7.023380e-01 4.809492e-01 2.909470e-01 5.477725e-01 7.948205e-01 9.137754e-01 9.528388e-01 7.142833e-01 4.670611e-01 4.972400e-01 9.092186e-02
<GCONST> 1.271182e+02
<TRANSP> 5
 0.000000e+00 1.000000e+00 0.000000e+00 0.000000e+00 0.000000e+00
 0.000000e+00 7.293729e-01 2.706271e-01 0.000000e+00 0.000000e+00
 0.000000e+00 0.000000e+00 2.501786e-01 7.498214e-01 0.000000e+00
 0.000000e+00 0.000000e+00 0.000000e+00 3.296747e-01 6.703253e-01
 0.000000e+00 0.000000e+00 0.000000e+00 0.000000e+00 0.000000e+00
<ENDHMM>
~h "k"
<BEGINHMM>
<NUMSTATES> 5
<STATE> 2
<MEAN> 39
 -3.785470e+00 -2.581682e+00 -3.941440e+00 -3.157019e-01 5.698876e+00 -2.545234e+00 -4.086384e+00 -1.037034e+01 -6.822614e+00 -6.781138e+00 8.954130e-01 -4.044247e+00 6.268242e+01 -1.098514e+00 -2.368892e-01 -4.661397e-01 -3.252548e+00 1.300082e-03 -1.847078e+00 3.507829e-01 1.086032e+00 4.019420e-01 -4.065687e-01 -2.933907e-01 2.153852e-01 8.499226e-01 -1.439660e-01 -5.671973e-01 8.340506e-02 -8.866792e-01 -1.884826e-01 -8.244153e-01 1.094351e-01 3.251074e-01 1.564993e-01 -2.373010e-01 -2.113305e-01 -4.457561e-02 8.319654e-01
<VARIANCE> 39
 3.666188e+01 4.662084e+01 4.094764e+01 1.084869e+02 1.089402e+02 5.931040e+01 5.827503e+01 8.691972e+01 6.111565e+01 4.402511e+01 4.562509e+01 3.742380e+01 3.150301e+01 3.199584e+00 4.253578e+00 5.560359e+00 1.267573e+01 8.652527e+00 1.006520e+01 5.598589e+00 5.967825e+00 6.264646e+00 6.370563e+00 6.125203e+00 3.868476e+00 3.643964e+00 2.994716e-01 5.133026e-01 6.601698e-01 1.559831e+00 1.082582e+00 1.266339e+00 6.483394e-01 1.052655e+00 8.934510e-01 7.528176e-01 8.110823e-01 4.432206e-01 3.703041e-01
<GCONST> 1.422780e+02
<STATE> 3
<MEAN> 39
 -7.399538e+00 -6.939290e+00 -5.852470e+00 -1.613738e+01 3.380213e+00 -1.635833e+01 -1.702462e+00 -4.042428e+00 -3.624642e+00 -1.116079e+01 -1.452366e+00 -3.677130e+00 7.162984e+01 -1.081379e+00 -1.994252e+00 4.230091e-01 -2.451673e+00 -8.528631e-01 -1.768970e+00 6.987537e-01 9.666643e-01 1.332547e-01 -7.591732e-01 -3.062237e-01 -1.358712e-01 1.804698e+00 3.236097e-01 3.116578e-05 4.473877e-01 1.477974e+00 2.874708e-03 1.270416e+00 -1.537304e-01 -4.460583e-01 -3.729951e-01 4.190705e-01 6.863879e-02 -5.177113e-02 -6.765315e-01
<VARIANCE> 39
 2.522988e+01 5.708250e+01 5.305838e+01 1.080306e+02 1.164222e+02 1.134580e+02 8.796439e+01 7.733583e+01 6.686337e+01 1.034910e+02 8.248309e+01 5.379885e+01 2.598534e+01 2.917957e+00 4.007471e+00 5.498902e+00 1.130205e+01 6.679443e+00 1.034959e+01 4.454713e+00 5.920274e+00 6.510546e+00 4.771816e+00 4.559378e+00 3.470218e+00 3.688047e+00 5.210068e-01 8.096927e-01 7.462314e-01 1.460114e+00 1.647740e+00 1.513697e+00 1.009609e+00 1.141756e+00 1.192193e+00 1.202117e+00 1.060074e+00 7.249938e-01 4.939639e-01
<GCONST> 1.476844e+02
<STATE> 4
<MEAN> 39
 -6.765517e+00 -1.102388e+01 -2.711637e+00 -1.169465e+01 1.617444e+00 -9.794380e+00 -2.242884e+00 -4.318728e+00 -6.800828e+00 -9.589910e+00 -1.292567e+00 -4.299146e+00 6.962627e+01 1.267918e+00 8.319064e-01 9.706886e-01 1.870276e+00 -3.020560e-01 1.189282e+00 -5.096163e-01 -6.657827e-01 -5.022086e-01 7.561905e-01 -1.813800e-01 -2.370404e-01 -5.716441e-01 4.816434e-01 7.730554e-01 -9.474313e-02 2.216187e-01 -4.565561e-02 -1.787903e-01 -2.545535e-01 -3.856899e-01 5.027442e-02 3.516879e-02 -3.750112e-02 -5.808951e-02 4.265158e-03
<VARIANCE> 39
 3.386993e+01 5.332154e+01 6.574775e+01 8.400764e+01 7.828268e+01 9.533350e+01 6.669180e+01 8.380257e+01 5.983463e+01 6.718357e+01 5.771015e+01 3.614479e+01 2.888620e+01 3.854993e+00 5.574753e+00 3.312409e+00 3.512344e+00 3.975321e+00 4.076002e+00 4.009419e+00 4.200747e+00 3.625413e+00 3.810570e+00 2.295311e+00 2.119508e+00 1.024627e+00 4.858021e-01 8.675954e-01 7.623907e-01 9.350165e-01 6.244628e-01 8.315656e-01 7.361901e-01 7.164626e-01 5.346401e-01 6.197135e-01 4.424158e-01 3.959938e-01 2.608821e-01
<GCONST> 1.333195e+02
<TRANSP> 5
 0.000000e+00 1.000000e+00 0.000000e+00 0.000000e+00 0.000000e+00
 0.000000e+00 6.267167e-01 3.732833e-01 0.000000e+00 0.000000e+00
 0.000000e+00 0.000000e+00 5.877247e-01 4.122753e-01 0.000000e+00
 0.000000e+00 0.000000e+00 0.000000e+00 7.311003e-01 2.688997e-01
 0.000000e+00 0.000000e+00 0.000000e+00 0.000000e+00 0.000000e+00
<ENDHMM>
~h "l"
<BEGINHMM>
<NUMSTATES> 5
<STATE> 2
<MEAN> 39
 6.926486e+00 -5.171142e+00 -3.801888e+00 4.768346e-01 6.980747e+00 -5.434123e+00 -8.872112e+00 -9.306897e+00 -8.636439e+00 -1.189087e+01 -6.820024e+00 -5.817193e+00 7.217409e+01 4.887750e-01 2.081224e-01 -8.745530e-01 6.856799e-01 7.119598e-01 7.834168e-02 9.355053e-02 -7.001497e-02 -3.917319e-01 -7.365319e-01 -7.909545e-02 3.011922e-01 -4.840636e-02 -2.197504e-01 -6.637297e-03 1.706823e-01 -1.251709e-01 -2.153513e-02 -7.537667e-02 4.877258e-02 2.093332e-01 1.036259e-01 2.863820e-02 1.337114e-01 1.095310e-01 -7.856390e-02
<VARIANCE> 39
 1.429655e+01 3.704572e+01 4.652840e+01 4.067741e+01 3.643844e+01 4.766206e+01 2.690919e+01 7.095564e+01 4.960860e+01 4.001600e+01 3.753605e+01 3.099195e+01 1.738494e+01 8.173032e-01 1.856012e+00 2.748766e+00 2.910554e+00 2.208566e+00 4.293040e+00 2.576094e+00 3.573221e+00 3.413121e+00 2.693412e+00 2.263195e+00 2.235008e+00 7.854770e-01 1.039867e-01 2.185582e-01 3.335382e-01 3.965791e-01 3.778976e-01 5.639274e-01 5.180050e-01 5.766271e-01 5.361009e-01 4.837437e-01 3.420725e-01 3.575646e-01 9.106492e-02
<GCONST> 1.141724e+02
<STATE> 3
<MEAN> 39
 8.382302e+00 -7.279669e+00 -7.299523e+00 2.922976e+00 8.770670e+00 -5.466625e+00 -9.458178e+00 -9.873508e+00 -9.815899e+00 -1.555766e+01 -6.672862e+00 -2.561776e+00 7.262460e+01 -2.768027e-01 4.697429e-01 -1.135862e-01 2.910517e-01 4.448142e-01 6.719813e-01 3.135388e-01 1.866902e-01 7.114722e-02 -2.909203e-01 1.263345e-01 1.060857e-01 -5.821056e-01 -1.750876e-01 4.821015e-02 1.451856e-01 -2.082371e-01 -6.694408e-02 -8.814926e-02 1.367931e-02 5.556025e-03 3.324405e-02 1.992920e-01 3.841082e-02 -6.151956e-02 -3.063704e-02
<VARIANCE> 39
 9.213409e+00 1.917150e+01 2.665341e+01 3.440641e+01 3.153347e+01 3.486050e+01 2.054432e+01 3.082784e+01 3.758514e+01 3.251009e+01 4.227250e+01 2.833061e+01 1.301686e+01 4.665993e-01 7.191136e-01 1.157777e+00 1.380270e+00 1.545255e+00 2.396430e+00 1.699868e+00 2.070867e+00 1.873603e+00 1.642343e+00 1.782476e+00 1.278988e+00 3.635054e-01 4.590104e-02 1.027425e-01 1.766655e-01 2.373698e-01 2.520155e-01 4.754867e-01 3.014828e-01 3.944148e-01 3.416975e-01 3.561652e-01 2.966996e-01 2.412988e-01 4.766845e-02
<GCONST> 9.620293e+01
<STATE> 4
<MEAN> 39
 1.661946e+00 -1.068538e+00 -4.125585e+00 9.482186e-01 7.042324e+00 5.324518e-02 -4.568965e+00 -1.000491e+01 -9.020798e+00 -1.373905e+01 -6.476139e+00 -4.308849e+00 6.498069e+01 -7.591164e-01 4.052546e-02 4.014827e-01 -1.639775e-01 -2.086675e-01 -3.884476e-01 1.571509e-01 1.122189e-01 -9.084977e-03 2.478800e-01 1.744971e-01 -6.009742e-02 -3.580132e-01 -4.394630e-02 -2.480893e-01 6.812944e-02 -1.362279e-01 -1.363457e-01 -3.725511e-01 -2.365814e-01 -8.030988e-02 8.170564e-02 2.298024e-01 8.519876e-02 3.421676e-02 2.214709e-01
<VARIANCE> 39
 4.700797e+01 2.575641e+01 3.735786e+01 3.534375e+01 4.608870e+01 4.302096e+01 2.995372e+01 3.750431e+01 4.163570e+01 3.158857e+01 3.770679e+01 2.383970e+01 4.114782e+01 7.021902e-01 1.187683e+00 1.190438e+00 1.563917e+00 2.182897e+00 3.255933e+00 2.705448e+00 2.366452e+00 2.416215e+00 2.615968e+00 1.767599e+00 1.614170e+00 7.305616e-01 1.165777e-01 1.933174e-01 2.521475e-01 3.714908e-01 3.091650e-01 5.755597e-01 4.122041e-01 4.300204e-01 4.352013e-01 5.569145e-01 3.507606e-01 3.029646e-01 1.058531e-01
<GCONST> 1.095926e+02
<TRANSP> 5
 0.000000e+00 1.000000e+00 0.000000e+00 0.000000e+00 0.000000e+00
 0.000000e+00 4.342737e-01 5.657263e-01 0.000000e+00 0.000000e+00
 0.000000e+00 0.000000e+00 7.381914e-01 2.618086e-01 0.000000e+00
 0.000000e+00 0.000000e+00 0.000000e+00 6.845575e-01 3.154426e-01
 0.000000e+00 0.000000e+00 0.000000e+00 0.000000e+00 0.000000e+00
<ENDHMM>
~h "m"
<BEGINHMM>
<NUMSTATES> 5
<STATE> 2
<MEAN> 39
 9.299434e+00 -3.723354e+00 -1.056541e+01 1.611070e+00 7.526863e+00 -7.236714e+00 -1.053545e+01 -6.305646e+00 -3.609843e+00 -1.149221e+01 -4.769699e+00 -5.322674e+00 7.045529e+01 -1.428693e-02 7.445607e-01 -1.998646e-01 7.214741e-01 3.211251e-01 5.551059e-01 8.473301e-02 -9.569497e-02 1.153442e+00 4.500735e-01 -4.628048e-01 -8.138754e-01 -7.403208e-01 -1.540222e-01 -2.228604e-02 1.191560e-01 -2.892512e-01 -6.293978e-02 -1.371320e-01 -6.857926e-02 -1.840241e-01 -1.515620e-01 1.989118e-01 6.190831e-02 -1.669469e-02 9.352341e-02
<VARIANCE> 39
 1.330810e+01 1.796339e+01 3.164633e+01 4.484256e+01 2.629613e+01 2.234274e+01 2.935580e+01 2.948879e+01 3.767947e+01 2.654334e+01 1.962371e+01 3.110459e+01 1.153137e+01 5.816613e-01 5.864038e-01 9.955934e-01 2.062905e+00 1.351505e+00 1.503188e+00 1.649792e+00 1.434834e+00 1.855935e+00 1.644068e+00 9.200652e-01 1.315243e+00 3.002729e-01 4.997241e-02 9.656136e-02 1.142011e-01 2.179695e-01 2.137780e-01 2.711879e-01 3.043653e-01 2.628388e-01 2.568274e-01 2.828536e-01 1.967563e-01 2.195408e-01 2.804106e-02
<GCONST> 9.089713e+01
<STATE> 3
<MEAN> 39
 7.327873e+00 1.388234e+00 -7.091883e+00 3.077789e+00 7.882320e+00 -5.028921e+00 -1.016938e+01 -7.503064e+00 3.033130e+00 -3.973256e+00 -6.062402e+00 -1.269273e+01 6.709316e+01 -2.998594e-01 4.106926e-01 2.567520e-01 2.005914e-01 8.397105e-02 -3.455142e-02 -1.094067e-01 -3.427637e-01 2.948641e-01 7.092583e-01 2.167878e-01 -3.391149e-01 -3.459328e-01 -2.770427e-02 -9.147614e-02 6.197874e-02 -3.898143e-01 -2.824647e-01 -2.938258e-01 -2.973342e-02 3.951286e-02 -3.551859e-01 -2.585887e-01 6.265941e-02 3.103175e-01 1.618840e-01
<VARIANCE> 39
 1.076118e+01 1.509211e+01 2.577950e+01 2.393318e+01 2.074316e+01 4.216004e+01 3.686585e+01 3.301389e+01 3.527563e+01 2.652165e+01 2.096599e+01 2.573231e+01 7.224867e+00 4.911736e-01 5.583569e-01 1.169201e+00 1.564697e+00 1.358241e+00 1.506962e+00 2.344858e+00 1.444273e+00 1.717978e+00 1.359672e+00 9.929029e-01 1.353517e+00 2.778250e-01 5.223075e-02 1.061687e-01 1.471224e-01 2.954639e-01 2.341990e-01 3.462058e-01 3.787262e-01 2.636817e-01 3.034380e-01 2.846251e-01 1.994082e-01 2.537229e-01 4.586437e-02
<GCONST> 9.162710e+01
<STATE> 4
<MEAN> 39
 5.419077e+00 1.762909e+00 -5.699151e+00 2.196990e+00 6.540002e+00 -7.127310e+00 -1.102347e+01 -9.811757e+00 8.338711e-02 -5.263915e+00 -5.186437e+00 -1.052288e+01 6.659520e+01 -1.740035e-01 -4.189682e-01 -2.596560e-01 -2.032895e+00 -1.231802e+00 -1.549047e+00 -4.708416e-01 -4.100147e-02 -6.374846e-01 -4.942323e-01 1.570741e-01 1.284780e+00 8.590300e-01 -4.470252e-02 -4.371628e-01 -6.322192e-02 -4.401886e-01 -2.253175e-01 -4.890068e-01 1.578894e-02 2.925150e-01 -2.183250e-01 -1.619717e-01 1.349061e-01 5.143533e-01 4.135080e-01
<VARIANCE> 39
 2.072369e+01 1.988216e+01 3.614221e+01 3.633435e+01 2.669030e+01 3.934937e+01 4.783247e+01 3.586266e+01 4.238710e+01 4.605546e+01 2.227197e+01 3.229502e+01 1.557824e+01 2.369752e+00 2.302383e+00 4.700021e+00 4.529989e+00 4.709724e+00 5.297529e+00 3.813788e+00 3.432462e+00 3.114938e+00 5.037161e+00 2.644428e+00 3.929076e+00 1.180655e+00 2.687497e-01 2.187481e-01 4.201215e-01 6.332840e-01 5.179706e-01 6.745389e-01 7.205974e-01 4.093886e-01 5.022754e-01 8.058748e-01 4.727952e-01 7.558251e-01 1.385527e-01
<GCONST> 1.216472e+02
<TRANSP> 5
 0.000000e+00 1.000000e+00 0.000000e+00 0.000000e+00 0.000000e+00
 0.000000e+00 7.240835e-01 2.759165e-01 0.000000e+00 0.000000e+00
 0.000000e+00 0.000000e+00 7.178140e-01 2.821861e-01 0.000000e+00
 0.000000e+00 0.000000e+00 0.000000e+00 5.616689e-01 4.383311e-01
 0.000000e+00 0.000000e+00 0.000000e+00 0.000000e+00 0.000000e+00
<ENDHMM>
~h "n"
<BEGINHMM>
<NUMSTATES> 5
<STATE> 2
<MEAN> 39
 6.106420e+00 -7.496224e+00 -3.330611e+00 1.772421e+00 8.707504e+00 -5.956688e+00 -1.202334e+01 -1.303451e+01 -8.731924e+00 -9.160910e+00 -2.979887e-01 -3.391106e+00 7.301373e+01 7.590529e-01 8.486912e-01 -1.051663e+00 2.064060e+00 3.977010e-02 6.801713e-01 3.042507e-01 6.915543e-01 1.188956e+00 6.962494e-01 -1.925287e-02 -9.952767e-01 -1.226121e+00 -1.551769e-01 1.885058e-01 6.554464e-02 -8.296666e-02 -4.898044e-02 -3.714992e-01 -1.435351e-01 -1.733606e-02 1.838202e-01 1.551071e-01 -1.040598e-02 -1.254317e-01 -2.182264e-02
<VARIANCE> 39
 1.322062e+01 1.979026e+01 4.142252e+01 4.484108e+01 3.641769e+01 5.685701e+01 2.784251e+01 4.112941e+01 5.506058e+01 3.641097e+01 4.581811e+01 2.468621e+01 1.229568e+01 4.890799e-01 5.099580e-01 1.373776e+00 1.618566e+00 1.809225e+00 2.583912e+00 1.954002e+00 2.256720e+00 2.446641e+00 1.952522e+00 2.013388e+00 1.716196e+00 2.710373e-01 7.869060e-02 7.474892e-02 1.583617e-01 3.832313e-01 2.926677e-01 3.835707e-01 3.932109e-01 3.196663e-01 4.162925e-01 3.803847e-01 3.966959e-01 2.726640e-01 5.716061e-02
<GCONST> 1.014006e+02
<STATE> 3
<MEAN> 39
 7.128116e+00 -1.700633e+00 -5.999019e+00 6.092380e+00 9.265556e+00 -6.196837e+00 -1.287032e+01 -1.119231e+01 -1.847552e+00 -5.686359e+00 -2.846898e+00 -8.245794e+00 6.832066e+01 -3.972939e-01 9.302415e-01 1.768819e-01 3.338126e-01 6.776676e-02 1.295175e-01 1.226595e-01 5.293373e-02 6.339732e-01 4.162306e-01 -2.820345e-01 -5.570083e-01 -7.915742e-01 -2.669261e-01 -1.488078e-01 2.743632e-01 -3.090236e-01 -3.032363e-02 -4.966095e-02 1.164754e-01 2.864993e-03 -2.873051e-01 -2.116230e-01 4.802004e-02 2.839296e-01 1.129554e-01
<VARIANCE> 39
 1.052865e+01 1.779835e+01 1.721796e+01 2.905243e+01 1.892794e+01 3.283125e+01 2.548400e+01 2.711185e+01 4.813342e+01 2.565491e+01 4.991845e+01 2.296186e+01 8.075001e+00 4.855938e-01 4.504120e-01 1.051013e+00 1.209022e+00 1.031837e+00 1.439077e+00 1.782721e+00 1.599991e+00 1.843861e+00 1.372130e+00 1.299881e+00 1.356665e+00 1.566301e-01 6.106268e-02 9.484446e-02 1.630475e-01 2.705693e-01 2.168460e-01 3.049146e-01 3.587964e-01 3.373007e-01 3.208704e-01 2.882674e-01 3.127021e-01 2.704197e-01 3.997643e-02
<GCONST> 9.098125e+01
<STATE> 4
<MEAN> 39
 -5.096813e-01 7.499867e-01 -1.006086e+00 5.744649e+00 7.417301e+00 -4.006878e+00 -6.980736e+00 -8.125690e+00 -2.308814e+00 -6.878173e+00 -2.737051e+00 -6.155210e+00 6.277361e+01 -1.060707e+00 -2.195567e-01 5.772423e-01 -3.426724e-01 -2.802685e-01 2.677645e-02 5.983608e-01 4.323982e-01 -3.473831e-01 -4.746653e-01 1.276757e-02 4.365179e-01 -4.273726e-01 -1.227441e-01 -2.306925e-01 1.380300e-01 -4.525259e-01 -6.163885e-02 -4.241112e-02 -7.556950e-02 -1.095119e-02 -6.322247e-02 -1.099587e-01 -2.397782e-02 8.307163e-02 2.529938e-01
<VARIANCE> 39
 5.755212e+01 2.281471e+01 3.041041e+01 3.373592e+01 2.245661e+01 3.744439e+01 5.775375e+01 4.734502e+01 4.431713e+01 2.433386e+01 3.280891e+01 2.940089e+01 3.495639e+01 8.960344e-01 1.327406e+00 2.145483e+00 2.819062e+00 2.070394e+00 2.771255e+00 2.925283e+00 2.711957e+00 3.093699e+00 2.844674e+00 2.211418e+00 2.251140e+00 7.213417e-01 2.727957e-01 2.873857e-01 4.298961e-01 6.411366e-01 3.824871e-01 5.155562e-01 5.952747e-01 4.858376e-01 5.930574e-01 4.477949e-01 3.769534e-01 3.998497e-01 1.691737e-01
<GCONST> 1.153985e+02
<TRANSP> 5
 0.000000e+00 1.000000e+00 0.000000e+00 0.000000e+00 0.000000e+00
 0.000000e+00 6.052885e-01 3.947115e-01 0.000000e+00 0.000000e+00
 0.000000e+00 0.000000e+00 7.375236e-01 2.624764e-01 0.000000e+00
 0.000000e+00 0.000000e+00 0.000000e+00 6.901934e-01 3.098066e-01
 0.000000e+00 0.000000e+00 0.000000e+00 0.000000e+00 0.000000e+00
<ENDHMM>
~h "p"
<BEGINHMM>
<NUMSTATES> 5
<STATE> 2
<MEAN> 39
 -4.797175e+00 1.968819e+00 -9.551790e-01 -2.898967e-01 8.769454e-01 -3.567588e+00 -1.715055e+00 -5.553237e+00 -3.651881e+00 -9.111126e+00 -4.048770e+00 -5.428033e+00 5.925101e+01 -5.268700e-01 -2.013221e+00 -6.199065e-01 -4.277763e-01 5.415584e-01 -6.648567e-01 -1.389472e+00 -1.752637e-01 2.042982e-01 -4.835095e-01 -2.199791e-01 1.710954e-01 8.346279e-01 3.488110e-01 -8.021489e-01 -2.818645e-01 -2.199795e-01 2.950900e-01 -3.388878e-01 -3.777880e-01 -7.182752e-02 6.475627e-03 1.675721e-01 1.455051e-01 1.325280e-01 8.057080e-01
<VARIANCE> 39
 2.701726e+01 3.268232e+01 2.906012e+01 5.938432e+01 9.554817e+01 1.115729e+02 4.233585e+01 6.607959e+01 8.231207e+01 4.473109e+01 2.053470e+01 3.394997e+01 1.384000e+01 3.145034e+00 4.719357e+00 3.887288e+00 4.302649e+00 4.310843e+00 5.123376e+00 4.247519e+00 2.655585e+00 4.944433e+00 3.825853e+00 2.552933e+00 1.962809e+00 3.025210e+00 2.004516e-01 6.873432e-01 3.607163e-01 3.973294e-01 6.752078e-01 8.149549e-01 6.693614e-01 4.178508e-01 8.025594e-01 7.326803e-01 3.864392e-01 3.645359e-01 1.722033e-01
<GCONST> 1.271553e+02
<STATE> 3
<MEAN> 39
 -4.701072e+00 -1.203612e+01 -6.901217e+00 -4.322104e+00 3.509966e+00 -6.276657e+00 -6.373083e+00 -5.200168e+00 -2.072123e+00 -9.024485e+00 -4.369851e+00 -4.813020e+00 6.664120e+01 1.552224e+00 -5.152850e-01 -1.002712e-01 -3.759522e-01 5.024036e-01 -7.022149e-01 -4.506767e-01 2.468365e-01 -2.952768e-02 3.932269e-01 3.985612e-02 2.917048e-01 1.824309e+00 4.926928e-01 1.518952e+00 7.480786e-01 1.840764e-01 -2.600967e-02 -3.287765e-01 8.448008e-02 3.952997e-03 -4.221113e-01 1.967541e-01 -5.458871e-02 1.853690e-03 -1.570001e-01
<VARIANCE> 39
 1.264042e+01 2.913738e+01 3.346912e+01 4.706817e+01 9.182332e+01 4.956284e+01 4.160757e+01 4.602018e+01 5.476055e+01 3.782639e+01 3.629719e+01 3.557710e+01 1.013635e+01 2.977732e+00 1.286201e+01 5.475657e+00 4.468000e+00 7.797889e+00 7.223681e+00 5.118843e+00 3.814615e+00 7.937682e+00 4.075119e+00 2.641559e+00 3.103711e+00 1.678724e+00 3.307912e-01 8.890594e-01 8.038846e-01 7.660388e-01 9.207047e-01 1.272452e+00 1.235052e+00 6.719394e-01 9.156526e-01 7.299924e-01 5.647234e-01 5.700206e-01 2.561482e-01
<GCONST> 1.333534e+02
<STATE> 4
<MEAN> 39
 2.935326e+00 -3.020815e+00 -1.775620e+00 -3.198125e+00 6.463878e+00 -1.119956e+01 -9.843258e+00 -5.959761e+00 -5.865634e+00 -6.970750e+00 -4.050042e+00 -4.079906e+00 7.109691e+01 2.150973e+00 1.801209e+00 5.780559e-01 -9.017260e-01 2.031647e-01 -2.564657e+00 -2.055932e+00 -3.407202e-01 -1.382931e+00 4.378570e-01 -3.039737e-01 5.351192e-01 1.773685e+00 -3.702471e-01 -5.953516e-01 -4.953957e-01 -2.930433e-01 -1.636614e-01 1.816777e-01 -3.625039e-02 -1.739374e-01 -1.325602e-01 -2.695776e-01 -3.529820e-02 1.205490e-01 -1.229431e-01
<VARIANCE> 39
 2.062650e+01 2.976804e+01 3.562678e+01 5.471252e+01 1.416442e+02 5.924053e+01 4.332376e+01 3.186165e+01 8.039272e+01 4.642748e+01 3.246210e+01 2.327796e+01 1.176455e+01 2.931213e+00 6.466277e+00 4.754962e+00 3.943125e+00 7.815478e+00 5.528706e+00 4.126244e+00 3.111553e+00 3.334537e+00 3.580070e+00 2.643800e+00 3.031418e+00 7.140377e-01 2.601388e-01 7.241418e-01 7.386659e-01 5.904118e-01 1.146908e+00 1.002828e+00 7.134687e-01 3.891710e-01 8.790497e-01 6.472951e-01 2.940431e-01 4.643321e-01 1.084091e-01
<GCONST> 1.272533e+02
<TRANSP> 5
 0.000000e+00 1.000000e+00 0.000000e+00 0.000000e+00 0.000000e+00
 0.000000e+00 6.103279e-01 3.896721e-01 0.000000e+00 0.000000e+00
 0.000000e+00 0.000000e+00 6.440766e-01 3.559234e-01 0.000000e+00
 0.000000e+00 0.000000e+00 0.000000e+00 4.686877e-01 5.313123e-01
 0.000000e+00 0.000000e+00 0.000000e+00 0.000000e+00 0.000000e+00
<ENDHMM>
~h "r"
<BEGINHMM>
<NUMSTATES> 5
<STATE> 2
<MEAN> 39
 5.327013e+00 4.000742e+00 -1.729526e+00 -4.523846e+00 2.793877e+00 -6.832528e+00 -5.156756e+00 -4.559096e+00 -6.599161e+00 -1.122678e+01 -7.905954e+00 -9.525599e+00 6.784563e+01 1.294363e+00 1.276587e+00 -1.178902e+00 -1.047509e+00 -2.161021e-01 -1.164343e-01 -6.603404e-01 -5.616664e-01 -1.514976e-01 3.348678e-01 -4.255716e-01 -5.441978e-01 9.363784e-02 -3.042616e-01 -6.545674e-01 -4.916326e-01 -1.631846e-02 5.719724e-01 -2.054194e-02 -3.141134e-01 -3.041216e-01 -2.173238e-02 1.253147e-01 2.061957e-01 3.332719e-01 1.280729e-01
<VARIANCE> 39
 1.414503e+01 5.486953e+01 5.148515e+01 6.384351e+01 7.504993e+01 4.614808e+01 4.459448e+01 2.536505e+01 4.796783e+01 4.094855e+01 2.646053e+01 3.413649e+01 1.942330e+01 1.282996e+00 3.143499e+00 3.617201e+00 2.522911e+00 4.840950e+00 3.280776e+00 3.140808e+00 3.803991e+00 4.465009e+00 3.646849e+00 2.136896e+00 2.415821e+00 6.572294e-01 2.429311e-01 4.755322e-01 5.055869e-01 4.423721e-01 6.677110e-01 4.792828e-01 4.833899e-01 5.105603e-01 7.561485e-01 5.659574e-01 4.250352e-01 4.566699e-01 7.212356e-02
<GCONST> 1.205168e+02
<STATE> 3
<MEAN> 39
 9.907336e+00 1.307756e+00 -1.107435e+01 -7.656635e+00 8.581143e+00 -7.975910e+00 -1.062139e+01 -6.592545e+00 -8.488350e+00 -1.171111e+01 -9.480697e+00 -7.441879e+00 7.119315e+01 1.717215e-01 2.841297e-03 -8.229726e-01 2.069627e-01 1.037681e+00 8.879968e-02 -5.970070e-01 -5.650560e-01 5.266682e-02 1.313119e-01 3.911497e-02 2.152338e-01 2.218672e-02 -2.072584e-01 -4.021774e-01 2.315526e-01 3.255393e-01 3.305694e-02 -1.602191e-01 -2.420062e-02 -6.733375e-03 6.916901e-02 3.818495e-02 2.179213e-01 2.314090e-01 1.169030e-01
<VARIANCE> 39
 5.633380e+00 3.505296e+01 2.776485e+01 5.175842e+01 7.620282e+01 4.784292e+01 2.648629e+01 3.099518e+01 4.482287e+01 3.948559e+01 2.449155e+01 4.463795e+01 9.423149e+00 3.449233e-01 1.895971e+00 2.283595e+00 1.693044e+00 3.376518e+00 2.610915e+00 2.860708e+00 2.736642e+00 3.258685e+00 2.756244e+00 1.772614e+00 2.267655e+00 6.864222e-01 8.167185e-02 1.972947e-01 1.929253e-01 2.352226e-01 3.674293e-01 4.116526e-01 3.402735e-01 3.267955e-01 4.445997e-01 3.217880e-01 2.925078e-01 3.397226e-01 4.897817e-02
<GCONST> 1.056600e+02
<STATE> 4
<MEAN> 39
 8.330111e+00 -1.620822e+00 -1.103851e+01 -3.151366e+00 1.455589e+01 -7.065924e+00 -1.327817e+01 -1.017413e+01 -1.011006e+01 -1.133863e+01 -6.449049e+00 -5.654067e+00 7.163027e+01 -4.133265e-01 -1.884887e+00 4.995674e-01 1.592093e+00 5.399440e-01 -7.723947e-01 -8.628010e-01 -3.899711e-01 -1.178255e-01 1.563685e-01 1.345351e+00 1.046007e+00 7.409614e-01 -2.857447e-01 2.824066e-02 7.191357e-01 1.519630e-01 -6.473438e-01 3.639680e-02 5.206763e-01 2.562630e-01 2.358312e-01 2.744890e-02 2.211756e-03 -1.626162e-01 -9.897787e-02
<VARIANCE> 39
 9.510177e+00 3.155494e+01 3.971915e+01 9.715712e+01 1.003870e+02 5.862877e+01 3.336092e+01 4.120919e+01 5.057981e+01 4.862750e+01 2.789445e+01 3.538015e+01 1.084449e+01 4.797451e-01 1.560895e+00 4.434611e+00 2.981448e+00 4.701125e+00 3.848684e+00 3.428142e+00 3.422198e+00 3.639646e+00 2.771662e+00 2.734092e+00 2.974771e+00 5.980796e-01 6.063751e-02 2.252244e-01 3.599370e-01 4.739677e-01 5.300660e-01 5.347098e-01 4.956044e-01 5.709382e-01 5.616614e-01 4.434735e-01 5.052209e-01 3.644035e-01 5.400914e-02
<GCONST> 1.155894e+02
<TRANSP> 5
 0.000000e+00 1.000000e+00 0.000000e+00 0.000000e+00 0.000000e+00
 0.000000e+00 5.981656e-01 4.018344e-01 0.000000e+00 0.000000e+00
 0.000000e+00 0.000000e+00 6.782411e-01 3.217589e-01 0.000000e+00
 0.000000e+00 0.000000e+00 0.000000e+00 5.333627e-01 4.666373e-01
 0.000000e+00 0.000000e+00 0.000000e+00 0.000000e+00 0.000000e+00
<ENDHMM>
~h "s"
<BEGINHMM>
<NUMSTATES> 5
<STATE> 2
<MEAN> 39
 -6.710287e+00 -6.040301e+00 8.739910e+00 -1.123679e+01 8.338387e+00 -3.187551e+00 -4.713370e+00 -1.102836e+01 -7.501244e+00 -8.078475e+00 -3.173612e+00 -5.833349e+00 7.449583e+01 -5.056281e+00 6.165379e-01 3.582526e+00 -3.054141e+00 7.284319e-01 8.415377e-01 1.864000e+00 -1.063037e+00 7.542600e-01 -1.199539e-01 3.994842e-01 -3.548893e-01 1.359457e+00 -4.129145e-01 3.598969e-01 -3.149353e-01 2.567904e-01 -3.648779e-01 -7.889852e-02 -7.586001e-02 -2.536336e-01 2.466967e-01 -9.959958e-02 1.402020e-02 1.042348e-01 1.218581e-01
<VARIANCE> 39
 1.074746e+02 3.196099e+01 9.791238e+01 8.604976e+01 5.610511e+01 6.467497e+01 7.723778e+01 7.977165e+01 7.740352e+01 5.411308e+01 4.048577e+01 3.923057e+01 2.869342e+01 3.312700e+00 2.103136e+00 3.611423e+00 3.641858e+00 3.038842e+00 3.151649e+00 4.200670e+00 3.296769e+00 4.465357e+00 3.741689e+00 2.929834e+00 2.965357e+00 7.542384e-01 1.095191e+00 2.803486e-01 1.120961e+00 1.337116e+00 5.458989e-01 5.563311e-01 7.953419e-01 6.741759e-01 7.490589e-01 6.450437e-01 5.074356e-01 4.436148e-01 2.348438e-01
<GCONST> 1.326905e+02
<STATE> 3
<MEAN> 39
 -2.736739e+01 -2.087222e+00 1.614157e+01 -1.576840e+01 6.069419e+00 4.300041e-02 1.455564e-01 -1.425116e+01 -4.241619e+00 -8.703860e+00 -2.284919e+00 -5.567216e+00 7.685683e+01 -1.116407e+00 -7.239120e-02 3.670341e-01 1.530701e-01 -4.132506e-01 -1.851678e-01 3.525466e-01 4.559450e-03 8.102811e-02 -6.560517e-03 -2.125723e-01 6.394810e-02 -5.541847e-01 6.666488e-01 -2.800775e-01 -1.777223e-01 1.713873e-01 2.195156e-02 -2.184380e-01 -1.671679e-01 1.180677e-01 -1.701589e-01 5.747570e-02 -7.245565e-02 2.864525e-02 -2.409916e-01
<VARIANCE> 39
 3.718219e+01 2.450432e+01 3.845333e+01 4.368647e+01 4.117083e+01 4.102217e+01 5.902549e+01 4.932585e+01 4.335320e+01 3.161748e+01 3.077029e+01 2.783013e+01 1.719754e+01 2.733735e+00 1.664243e+00 1.308349e+00 1.455379e+00 1.548815e+00 2.235812e+00 1.805116e+00 1.987865e+00 2.182130e+00 1.661239e+00 1.541528e+00 1.269831e+00 8.673695e-01 2.660541e-01 1.783290e-01 3.137676e-01 3.656590e-01 2.934011e-01 3.544869e-01 3.558097e-01 4.237476e-01 3.945583e-01 3.297958e-01 2.957835e-01 2.733918e-01 1.083185e-01
<GCONST> 1.084977e+02
<STATE> 4
<MEAN> 39
 -2.054869e+01 -6.520494e+00 1.702424e+01 -1.331098e+01 4.414879e+00 -5.101895e+00 -9.173170e-01 -1.352247e+01 -6.258678e+00 -6.763121e+00 -4.804850e+00 -5.045635e+00 7.095399e+01 2.721418e+00 -2.976033e-01 -1.022415e+00 3.527092e-01 -3.929876e-01 -6.592482e-01 -1.120179e+00 3.825279e-01 -4.455956e-01 4.798520e-01 -2.697446e-01 8.905565e-02 -4.497578e-01 3.105539e-01 1.143438e-01 -4.992154e-01 9.509160e-02 -8.618188e-02 8.734091e-02 -2.017043e-01 1.031529e-01 8.433302e-02 1.775083e-02 9.244506e-02 -6.806953e-02 2.004359e-01
<VARIANCE> 39
 9.336008e+01 3.132619e+01 4.323152e+01 6.939182e+01 4.404216e+01 7.278812e+01 7.177204e+01 5.232159e+01 6.411127e+01 4.159544e+01 3.429586e+01 2.441944e+01 4.981101e+01 5.410351e+00 2.568556e+00 4.519389e+00 4.165508e+00 3.782306e+00 4.917254e+00 3.873848e+00 4.285030e+00 5.262657e+00 3.288057e+00 2.575470e+00 2.106035e+00 1.967443e+00 8.673487e-01 4.721427e-01 6.600625e-01 7.185435e-01 6.191928e-01 7.557623e-01 7.652796e-01 6.372250e-01 9.138007e-01 6.039640e-01 4.945527e-01 3.720057e-01 2.615224e-01
<GCONST> 1.322683e+02
<TRANSP> 5
 0.000000e+00 1.000000e+00 0.000000e+00 0.000000e+00 0.000000e+00
 0.000000e+00 7.163389e-01 2.836610e-01 0.000000e+00 0.000000e+00
 0.000000e+00 0.000000e+00 8.770931e-01 1.229069e-01 0.000000e+00
 0.000000e+00 0.000000e+00 0.000000e+00 8.322899e-01 1.677100e-01
 0.000000e+00 0.000000e+00 0.000000e+00 0.000000e+00 0.000000e+00
<ENDHMM>
~h "t"
<BEGINHMM>
<NUMSTATES> 5
<STATE> 2
<MEAN> 39
 -7.804881e+00 -7.035932e+00 2.770573e-03 -3.765966e+00 1.385078e+00 -7.411096e+00 -4.291721e+00 -9.190883e+00 -3.832131e+00 -8.761551e+00 -2.053143e+00 -5.304091e+00 6.745073e+01 -2.161432e+00 -1.877419e+00 1.650178e+00 -2.204792e+00 -5.929056e-01 -1.124842e+00 -2.779915e-01 -2.617814e-01 1.105355e+00 1.605609e-01 1.247676e-01 -8.229929e-01 2.472883e+00 1.770857e-02 -3.489991e-01 3.297083e-01 -4.197602e-02 1.730253e-01 8.171046e-02 8.205343e-02 -1.652448e-01 -3.474282e-01 2.185277e-02 3.550807e-02 4.303041e-02 4.177654e-01
<VARIANCE> 39
 8.852024e+01 4.561357e+01 7.427762e+01 9.374470e+01 7.715094e+01 8.195387e+01 5.177933e+01 7.855080e+01 7.044639e+01 4.190004e+01 4.431862e+01 3.203394e+01 5.907941e+01 8.134398e+00 5.314298e+00 7.781828e+00 8.975096e+00 5.565470e+00 7.223628e+00 4.553607e+00 6.469864e+00 6.987069e+00 4.221062e+00 4.336743e+00 3.402141e+00 5.802117e+00 1.097826e+00 8.575349e-01 8.300340e-01 1.593304e+00 8.787106e-01 1.290062e+00 8.223799e-01 9.802261e-01 1.276851e+00 6.835758e-01 6.607611e-01 5.696042e-01 1.259838e+00
<GCONST> 1.473894e+02
<STATE> 3
<MEAN> 39
 -1.500822e+01 -1.572091e+01 5.808868e+00 -9.151997e+00 2.357431e+00 -8.274819e+00 -3.641502e+00 -9.964729e+00 -4.238460e+00 -9.006642e+00 -5.630831e-01 -6.324095e+00 7.455726e+01 1.152250e+00 -5.000142e-01 1.028005e+00 7.246678e-01 6.903188e-01 9.564204e-01 1.264483e-01 -7.729325e-02 -1.303813e+00 1.238254e-01 -9.038042e-02 3.298437e-01 6.667331e-03 1.224063e+00 9.770081e-01 -2.253331e-01 7.295399e-01 3.971888e-02 3.045135e-01 -2.090093e-01 -3.497355e-02 -3.929125e-01 3.507687e-02 -2.280275e-01 1.719060e-01 -6.372284e-01
<VARIANCE> 39
 7.127390e+01 4.616681e+01 5.552471e+01 4.255291e+01 4.837149e+01 6.260651e+01 3.783220e+01 4.798155e+01 4.325694e+01 4.307710e+01 3.902866e+01 2.633719e+01 2.416912e+01 6.628793e+00 4.330488e+00 4.344244e+00 4.121641e+00 3.633668e+00 3.929279e+00 3.721682e+00 3.703511e+00 4.110115e+00 2.800118e+00 2.709633e+00 2.044765e+00 1.913769e+00 9.120114e-01 7.143325e-01 9.844106e-01 9.390658e-01 7.549531e-01 9.638272e-01 7.612000e-01 7.368504e-01 9.049309e-01 5.352662e-01 5.996745e-01 5.630469e-01 5.805507e-01
<GCONST> 1.332848e+02
<STATE> 4
<MEAN> 39
 -6.438688e+00 -1.083547e+01 6.140135e+00 -3.403826e+00 2.237908e+00 -4.499490e+00 -4.429160e+00 -9.806586e+00 -8.498251e+00 -8.401773e+00 -1.845832e+00 -4.662385e+00 6.952141e+01 2.058137e+00 1.454308e+00 -2.754766e-01 9.777100e-01 -3.713717e-01 1.832370e-01 -6.379874e-01 -2.050545e-01 -6.718534e-01 9.004378e-02 -4.482383e-01 -1.247533e-01 -4.390830e-01 -2.158251e-01 -5.989484e-03 -5.714844e-01 -1.828161e-01 -1.574956e-01 -2.518877e-01 -2.290677e-02 3.209056e-03 2.879740e-01 -4.033937e-02 6.616681e-02 -3.250485e-02 -6.922739e-03
<VARIANCE> 39
 5.055926e+01 3.293359e+01 1.031220e+02 5.551861e+01 6.191767e+01 5.760826e+01 4.988862e+01 6.048057e+01 5.380781e+01 4.056729e+01 3.178776e+01 3.466456e+01 6.796873e+01 5.784810e+00 3.211716e+00 4.136874e+00 3.741562e+00 4.135740e+00 3.040620e+00 3.805028e+00 3.894930e+00 4.438349e+00 2.406265e+00 2.328183e+00 2.339362e+00 1.282011e+00 4.046362e-01 4.382532e-01 7.715098e-01 4.509489e-01 6.581964e-01 5.544720e-01 5.455544e-01 5.330481e-01 5.516880e-01 4.284412e-01 3.510863e-01 4.359460e-01 1.678464e-01
<GCONST> 1.279196e+02
<TRANSP> 5
 0.000000e+00 1.000000e+00 0.000000e+00 0.000000e+00 0.000000e+00
 0.000000e+00 6.208798e-01 3.791202e-01 0.000000e+00 0.000000e+00
 0.000000e+00 0.000000e+00 5.662462e-01 4.337538e-01 0.000000e+00
 0.000000e+00 0.000000e+00 0.000000e+00 6.242439e-01 3.757562e-01
 0.000000e+00 0.000000e+00 0.000000e+00 0.000000e+00 0.000000e+00
<ENDHMM>
~h "v"
<BEGINHMM>
<NUMSTATES> 5
<STATE> 2
<MEAN> 39
 -8.591499e+00 5.592190e-01 -1.892333e+00 -3.707707e+00 3.914318e+00 -8.556475e+00 -1.631714e+00 -6.426206e+00 -4.112695e+00 -7.021109e+00 -1.612049e+00 -3.543151e+00 6.497685e+01 2.989479e-01 1.296671e+00 1.817465e-01 -1.159685e+00 -7.343908e-01 -1.747020e+00 -3.220588e-01 6.378610e-01 8.172673e-01 9.106729e-01 -7.149968e-02 -4.619386e-01 4.906411e-01 3.699059e-01 -1.247228e-01 -5.945201e-02 -1.371558e-01 -2.368364e-01 -3.873642e-01 -3.579974e-01 -2.799515e-02 -5.734736e-02 5.098486e-02 -3.605774e-02 -3.264455e-02 3.372117e-01
<VARIANCE> 39
 9.403165e+01 4.370258e+01 7.314775e+01 6.722761e+01 1.405079e+02 1.093022e+02 5.166005e+01 6.903391e+01 5.864978e+01 4.806723e+01 3.586185e+01 3.789132e+01 7.262814e+01 1.168750e+01 3.238199e+00 2.200286e+00 4.195813e+00 7.668618e+00 8.664941e+00 4.884357e+00 2.829955e+00 3.299842e+00 3.677773e+00 2.557967e+00 2.291569e+00 2.385237e+00 1.102497e+00 5.752841e-01 3.895401e-01 7.705756e-01 8.872984e-01 9.934551e-01 6.303459e-01 4.536218e-01 5.551080e-01 5.669734e-01 4.176151e-01 5.286464e-01 2.549588e-01
<GCONST> 1.365041e+02
<STATE> 3
<MEAN> 39
 3.723001e+00 7.717668e-01 -3.125777e+00 -8.806708e+00 -6.610847e+00 -2.653505e+01 -5.436238e+00 2.645008e-01 -3.399260e+00 1.990539e+00 -5.602309e+00 -7.066313e+00 7.105512e+01 -1.697884e-01 -6.468709e-02 -9.723236e-02 3.334343e-02 4.684750e-01 -6.241763e-01 -2.676811e-01 1.236287e-01 1.106246e-01 -8.894045e-02 9.712180e-02 -3.600750e-01 9.056387e-01 -5.202549e-01 -1.826062e-01 6.033736e-02 1.693147e-01 1.636844e-01 6.433696e-01 7.102667e-02 -1.749885e-01 7.098216e-02 -3.811174e-01 2.209839e-01 6.235747e-02 -1.421921e-01
<VARIANCE> 39
 3.318346e+01 2.773346e+01 2.741049e+01 2.930426e+01 1.131639e+02 1.121398e+02 4.632216e+01 5.017332e+01 5.620261e+01 7.540267e+01 3.636270e+01 2.949022e+01 1.282845e+01 7.654778e+00 3.184880e+00 2.460120e+00 3.250152e+00 3.828806e+00 5.371095e+00 4.845859e+00 2.049148e+00 4.495656e+00 3.089209e+00 2.743801e+00 2.730071e+00 1.543865e+00 6.759133e-01 5.924870e-01 4.348022e-01 6.427925e-01 8.326426e-01 8.769626e-01 8.372489e-01 4.095825e-01 8.349236e-01 4.967665e-01 4.110859e-01 4.726290e-01 2.218953e-01
<GCONST> 1.283435e+02
<STATE> 4
<MEAN> 39
 -1.091340e+01 1.801627e+00 -2.058748e+00 -9.628599e+00 -2.262599e+00 -1.936326e+01 -1.672242e+00 -1.475684e+00 9.905879e-01 -3.043683e+00 -2.140977e+00 -7.660057e+00 7.174786e+01 -7.373633e-01 -3.731922e-01 5.736552e-01 8.550008e-02 3.108573e-02 8.740816e-01 1.110773e-01 -4.741981e-01 -5.692755e-02 -3.181190e-01 1.561619e-01 -2.619381e-02 -4.551557e-01 5.391394e-01 -2.255840e-01 1.788907e-03 1.277107e-01 -6.787436e-02 4.441063e-02 -2.578020e-01 -1.733944e-01 -2.876108e-01 1.766414e-02 -1.363222e-01 6.262577e-02 -9.360722e-02
<VARIANCE> 39
 7.372218e+01 3.252642e+01 2.872457e+01 2.444955e+01 8.461259e+01 5.465821e+01 4.669534e+01 3.970828e+01 4.644607e+01 3.596699e+01 3.005402e+01 2.347285e+01 3.116268e+01 7.720814e+00 3.266655e+00 1.952631e+00 2.049213e+00 3.363265e+00 3.187224e+00 3.870482e+00 2.866234e+00 3.331217e+00 1.879584e+00 2.694622e+00 2.022125e+00 2.187650e+00 7.115141e-01 5.677720e-01 3.339248e-01 3.579617e-01 5.799517e-01 5.519990e-01 6.627704e-01 6.111829e-01 4.826407e-01 3.800947e-01 4.614778e-01 3.614253e-01 3.838951e-01
<GCONST> 1.235852e+02
<TRANSP> 5
 0.000000e+00 1.000000e+00 0.000000e+00 0.000000e+00 0.000000e+00
 0.000000e+00 6.926672e-01 3.073328e-01 0.000000e+00 0.000000e+00
 0.000000e+00 0.000000e+00 6.193884e-01 3.806116e-01 0.000000e+00
 0.000000e+00 0.000000e+00 0.000000e+00 8.183784e-01 1.816216e-01
 0.000000e+00 0.000000e+00 0.000000e+00 0.000000e+00 0.000000e+00
<ENDHMM>
~h "w"
<BEGINHMM>
<NUMSTATES> 5
<STATE> 2
<MEAN> 39
 2.252163e+00 4.365683e+00 -5.950368e-01 -5.208447e+00 -2.596318e+00 -9.202105e+00 -5.758015e+00 -6.124216e+00 -4.426654e+00 -8.572998e+00 -5.834992e+00 -8.635493e+00 6.482728e+01 1.026580e+00 6.682359e-01 -5.107853e-01 1.811758e-01 -8.593653e-02 -2.175721e-01 -5.304310e-01 -1.469497e-01 -3.149411e-01 -5.815353e-01 -2.277707e-01 -5.348552e-02 1.852689e-01 -1.819039e-01 -2.674311e-01 -2.389787e-02 1.333597e-01 3.363481e-01 5.617345e-03 -1.819246e-01 -1.860277e-01 -4.215948e-03 9.526357e-02 2.331683e-01 3.068215e-01 7.510135e-02
<VARIANCE> 39
 5.432495e+01 9.251547e+01 8.340890e+01 3.766304e+01 6.847207e+01 5.930111e+01 7.704710e+01 3.193129e+01 5.891086e+01 3.308606e+01 3.198515e+01 3.208887e+01 3.102564e+01 3.100092e+00 7.219144e+00 5.956910e+00 3.326487e+00 6.987671e+00 4.781047e+00 5.300776e+00 4.060376e+00 4.658786e+00 3.213293e+00 2.918736e+00 3.888769e+00 2.181462e+00 3.174464e-01 6.091563e-01 6.795660e-01 4.850497e-01 8.673815e-01 7.709153e-01 6.929454e-01 7.086048e-01 7.613313e-01 5.974635e-01 5.614905e-01 5.975943e-01 1.305023e-01
<GCONST> 1.331179e+02
<STATE> 3
<MEAN> 39
 3.995721e-01 2.117340e-01 -3.600163e+00 -1.812301e+00 9.997094e-02 -4.674254e+00 -2.897902e+00 -7.838216e+00 -7.917682e+00 -1.075095e+01 -3.109131e+00 -4.980270e+00 6.347697e+01 -9.483399e-02 1.210419e+00 2.966768e-01 3.217661e-01 -1.962021e-01 -2.081548e-01 -3.228839e-01 -3.270959e-01 4.010308e-01 5.115427e-01 4.397030e-01 4.603305e-01 -6.595380e-01 -5.954736e-02 -1.269516e-01 7.912566e-02 -1.457473e-01 -5.414287e-03 -3.116359e-01 -2.565694e-01 1.414492e-02 1.651035e-01 2.114707e-01 3.972981e-03 -4.382048e-03 1.372926e-01
<VARIANCE> 39
 5.947954e+01 7.461852e+01 7.504552e+01 3.672373e+01 5.668634e+01 3.741379e+01 5.460764e+01 3.322575e+01 3.332821e+01 2.526407e+01 2.712043e+01 3.173129e+01 2.381569e+01 1.281912e+00 2.585976e+00 1.410441e+00 2.102602e+00 2.876901e+00 2.055458e+00 2.724067e+00 2.266887e+00 1.859220e+00 1.644950e+00 1.530779e+00 1.930945e+00 7.550638e-01 8.429842e-02 2.681821e-01 3.868748e-01 2.705836e-01 4.325949e-01 5.148390e-01 4.881612e-01 4.212176e-01 3.260760e-01 3.518887e-01 3.083358e-01 2.928466e-01 4.605249e-02
<GCONST> 1.108499e+02
<STATE> 4
<MEAN> 39
 -4.348560e+00 5.638512e+00 1.414091e+00 -8.104095e-01 -3.016041e+00 -7.954948e+00 -5.091423e+00 -7.165195e+00 -3.746185e+00 -6.581839e+00 -1.772662e+00 -3.884071e+00 5.776520e+01 6.576639e-01 7.073609e-01 1.391080e-01 -2.874738e-01 -7.019392e-01 -1.319452e+00 -8.751458e-01 1.339992e-01 6.094914e-01 6.748077e-01 2.288669e-04 -4.014503e-01 2.626970e-01 1.491652e-01 -2.607974e-01 -3.158022e-01 -2.658966e-01 4.167328e-02 -1.129575e-01 9.758701e-04 1.671022e-01 1.274804e-02 -3.224418e-02 -2.032852e-01 -2.073261e-01 2.356228e-01
<VARIANCE> 39
 1.022478e+02 8.451113e+01 6.622103e+01 2.652278e+01 2.764406e+01 5.974802e+01 6.440416e+01 2.846849e+01 2.349694e+01 2.256719e+01 1.374955e+01 2.197101e+01 4.689682e+01 1.966172e+00 2.319049e+00 2.246484e+00 2.325333e+00 2.088618e+00 2.591227e+00 2.105644e+00 2.005144e+00 1.845503e+00 1.489756e+00 1.234659e+00 1.674294e+00 7.994387e-01 2.106536e-01 5.423102e-01 4.678243e-01 2.870620e-01 3.800831e-01 3.736015e-01 3.115944e-01 3.702406e-01 4.088795e-01 3.711513e-01 2.315532e-01 2.650027e-01 8.087657e-02
<GCONST> 1.113012e+02
<TRANSP> 5
 0.000000e+00 1.000000e+00 0.000000e+00 0.000000e+00 0.000000e+00
 0.000000e+00 5.475555e-01 4.524445e-01 0.000000e+00 0.000000e+00
 0.000000e+00 0.000000e+00 6.280674e-01 3.719326e-01 0.000000e+00
 0.000000e+00 0.000000e+00 0.000000e+00 7.716770e-01 2.283230e-01
 0.000000e+00 0.000000e+00 0.000000e+00 0.000000e+00 0.000000e+00
<ENDHMM>
~h "y"
<BEGINHMM>
<NUMSTATES> 5
<STATE> 2
<MEAN> 39
 1.007262e+00 -9.184319e+00 2.347875e+00 5.539474e+00 1.063088e+01 -9.282022e+00 -6.336068e+00 -6.325296e+00 -1.247779e+01 -7.293880e+00 -2.804657e+00 -6.755497e+00 7.165286e+01 6.512772e-01 7.225486e-01 8.698988e-02 5.045534e-01 5.903315e-01 -2.813947e-01 -4.389314e-01 1.596319e-01 -2.666143e-01 3.469212e-01 3.692259e-01 1.558806e-02 -8.707532e-02 -4.115403e-02 1.609071e-02 -3.315607e-01 -2.618805e-01 -1.402885e-02 -4.367325e-02 -6.825931e-02 -3.398803e-02 1.496776e-01 -7.936394e-02 2.278047e-02 1.238397e-01 2.294086e-02
<VARIANCE> 39
 6.299128e+01 1.695844e+01 1.859573e+02 1.102928e+02 4.042747e+01 1.122468e+02 4.296068e+01 6.034403e+01 6.720275e+01 2.666004e+01 2.410733e+01 3.011462e+01 2.499952e+01 3.510742e+00 2.113335e+00 2.979407e+00 3.169952e+00 3.173545e+00 3.900617e+00 3.447763e+00 3.789990e+00 2.638115e+00 1.536218e+00 3.800891e+00 2.139627e+00 7.616721e-01 3.420326e-01 1.572302e-01 3.727875e-01 6.584517e-01 4.063600e-01 7.110480e-01 5.810958e-01 5.760503e-01 5.483966e-01 3.140115e-01 3.920152e-01 2.468106e-01 1.261311e-01
<GCONST> 1.218876e+02
<STATE> 3
<MEAN> 39
 1.228982e+00 -6.858002e+00 4.919178e+00 1.198465e+01 2.152774e+01 -6.325438e+00 -1.336539e+01 -8.252295e+00 -1.085774e+01 -8.483729e+00 5.212206e-02 -3.072993e+00 7.025633e+01 1.358167e+00 7.687544e-01 -2.014945e+00 -1.756717e+00 -4.977728e-01 1.054908e+00 7.380403e-01 2.057929e-01 -1.936961e-01 -1.025562e+00 -6.244410e-01 1.316659e-01 2.253764e-01 -1.784214e-01 -1.696369e-02 -4.495198e-02 -4.065715e-01 -6.417426e-01 -2.383301e-02 4.433099e-01 2.887841e-01 4.256179e-01 -1.465090e-01 -4.038507e-01 -2.431632e-01 -4.462112e-02
<VARIANCE> 39
 2.841129e+01 1.350140e+01 5.238399e+01 6.818884e+01 6.861812e+01 6.040963e+01 5.496509e+01 3.258159e+01 4.556715e+01 2.756553e+01 4.444592e+01 4.637131e+01 1.773414e+01 7.346889e-01 1.222679e+00 2.265177e+00 4.051102e+00 6.842587e+00 3.334112e+00 5.332952e+00 3.779569e+00 3.715596e+00 3.483718e+00 4.397209e+00 3.040054e+00 6.074418e-01 2.471703e-01 2.110853e-01 3.093860e-01 6.718044e-01 8.512059e-01 5.876150e-01 8.430031e-01 6.896846e-01 6.115330e-01 8.406060e-01 6.819190e-01 5.577235e-01 1.078855e-01
<GCONST> 1.225472e+02
<STATE> 4
<MEAN> 39
 6.798001e+00 3.637892e+00 -2.049152e+00 -3.238678e-03 6.424785e+00 -4.448876e+00 -6.556554e+00 -3.908056e+00 -2.357949e+00 -8.361453e+00 -4.607074e+00 -7.666039e+00 6.783414e+01 7.481813e-03 9.526550e-01 -6.341092e-02 -4.910018e-01 -1.101991e+00 -4.746282e-01 1.326502e-01 3.735576e-01 1.488856e+00 6.356326e-01 -4.315246e-01 -4.584146e-01 -4.474516e-01 -1.614109e-01 -1.579940e-01 1.528161e-01 1.897575e-01 1.997508e-01 1.035739e-02 -1.112587e-01 -1.477295e-01 -1.666499e-01 4.924967e-02 1.955409e-01 9.337959e-02 -7.272318e-03
<VARIANCE> 39
 1.036129e+01 3.359742e+01 2.595749e+01 3.784500e+01 5.646830e+01 4.540241e+01 4.322493e+01 3.687411e+01 9.079546e+01 6.515375e+01 3.108608e+01 3.366684e+01 1.348253e+01 3.578561e-01 8.118113e-01 1.038450e+00 1.866510e+00 2.517510e+00 1.984368e+00 1.845454e+00 1.553938e+00 2.006513e+00 2.555708e+00 2.090228e+00 1.447268e+00 3.715571e-01 5.795524e-02 7.448360e-02 2.213681e-01 2.651625e-01 3.205886e-01 3.586843e-01 5.057504e-01 3.613369e-01 3.807246e-01 5.290735e-01 3.918496e-01 3.056892e-01 2.145404e-02
<GCONST> 1.020129e+02
<TRANSP> 5
 0.000000e+00 1.000000e+00 0.000000e+00 0.000000e+00 0.000000e+00
 0.000000e+00 7.974534e-01 2.025466e-01 0.000000e+00 0.000000e+00
 0.000000e+00 0.000000e+00 7.535880e-01 2.464121e-01 0.000000e+00
 0.000000e+00 0.000000e+00 0.000000e+00 8.068244e-01 1.931756e-01
 0.000000e+00 0.000000e+00 0.000000e+00 0.000000e+00 0.000000e+00
<ENDHMM>
~h "z"
<BEGINHMM>
<NUMSTATES> 5
<STATE> 2
<MEAN> 39
 -1.840679e+01 -1.192728e+00 1.309067e+01 -1.710922e+01 4.979956e+00 -8.903078e-01 -2.866801e+00 -1.336534e+01 -2.988908e+00 -6.929614e+00 -3.456182e+00 -6.814818e+00 7.781516e+01 -3.269377e+00 6.128547e-01 1.489589e+00 -1.013926e+00 -1.734975e-01 4.246041e-01 8.182892e-01 -5.134712e-01 5.957387e-01 -2.348390e-01 -6.604097e-02 -1.266893e-01 2.394480e-01 6.252503e-01 -2.231770e-01 -4.058451e-01 5.189626e-01 -1.433916e-01 -2.887374e-01 -4.177133e-02 1.007371e-01 -2.161588e-01 -1.344297e-02 -1.482852e-01 3.541139e-02 -2.793194e-01
<VARIANCE> 39
 1.089355e+02 2.621144e+01 5.954943e+01 8.129290e+01 5.936853e+01 8.958860e+01 5.053169e+01 7.722518e+01 4.245147e+01 3.725204e+01 3.599271e+01 2.634480e+01 1.583987e+01 5.452112e+00 2.592524e+00 4.068944e+00 5.110018e+00 1.950824e+00 2.857671e+00 2.911853e+00 3.037998e+00 2.879244e+00 2.442769e+00 2.142701e+00 1.761833e+00 1.152429e+00 6.186689e-01 4.099041e-01 6.117249e-01 6.147245e-01 3.626255e-01 4.894326e-01 4.873999e-01 5.647865e-01 4.662499e-01 4.998326e-01 3.952574e-01 3.518697e-01 1.277284e-01
<GCONST> 1.240969e+02
<STATE> 3
<MEAN> 39
 -2.231623e+01 -5.596459e+00 1.250310e+01 -1.220374e+01 2.723343e+00 -1.780925e+00 8.777414e-02 -1.213296e+01 -3.853108e+00 -6.804813e+00 -5.739029e+00 -5.102624e+00 6.653297e+01 5.512818e-01 -4.164718e-01 -3.525953e-01 4.175507e-01 -1.392593e-01 -1.308530e-01 3.524521e-03 2.491363e-01 -4.248813e-01 -2.197982e-02 -1.913091e-01 2.366360e-01 -1.291484e+00 1.756370e-01 7.003688e-02 -1.119707e-01 -5.908479e-03 -1.476323e-02 7.070217e-02 -1.603695e-01 9.523135e-02 -4.536142e-02 7.101799e-02 1.064277e-02 1.509531e-02 -4.733265e-02
<VARIANCE> 39
 4.157817e+01 2.192770e+01 1.188107e+02 7.861962e+01 5.690422e+01 3.887254e+01 4.028402e+01 5.381441e+01 2.831827e+01 3.232754e+01 3.105373e+01 3.189972e+01 9.093821e+01 1.158334e+00 1.061334e+00 2.447224e+00 2.104994e+00 1.573512e+00 2.068058e+00 2.006399e+00 1.839317e+00 2.173951e+00 1.414335e+00 1.797228e+00 1.141906e+00 5.618502e-01 1.668082e-01 1.218773e-01 2.396851e-01 3.407077e-01 2.809349e-01 3.928578e-01 3.734450e-01 3.531373e-01 3.667254e-01 2.472614e-01 2.670759e-01 2.510710e-01 5.639989e-02
<GCONST> 1.082342e+02
<STATE> 4
<MEAN> 39
 -1.601654e+01 -4.895926e+00 1.449308e+01 -1.253257e+01 1.746944e+00 -2.940341e+00 -1.976901e+00 -1.111521e+01 -7.684604e+00 -7.484475e+00 -7.101212e+00 -5.606653e+00 6.651131e+01 2.270830e+00 -6.955680e-02 -1.463691e+00 1.184011e+00 -7.658943e-01 -6.681162e-01 -1.033717e+00 9.043561e-01 -4.294623e-02 3.969842e-01 3.701794e-02 -2.222188e-01 -4.888526e-01 2.358568e-01 8.575629e-02 -5.026336e-01 2.039937e-01 -4.951516e-02 -2.848098e-01 -1.383077e-01 -1.447517e-01 2.549574e-01 4.112782e-02 3.228669e-01 -7.665455e-02 4.422894e-01
<VARIANCE> 39
 7.515485e+01 3.094582e+01 8.284399e+01 1.248716e+02 7.526498e+01 8.369859e+01 8.047545e+01 6.252121e+01 5.719561e+01 3.495362e+01 2.847310e+01 2.371083e+01 5.474446e+01 3.571049e+00 3.434013e+00 6.102475e+00 5.397532e+00 5.185698e+00 5.784575e+00 5.263702e+00 3.574424e+00 4.996777e+00 3.685487e+00 3.361421e+00 2.881083e+00 2.745433e+00 6.113113e-01 5.419694e-01 9.428874e-01 8.683191e-01 8.118333e-01 9.434884e-01 8.703024e-01 6.834213e-01 7.531747e-01 7.373178e-01 6.070790e-01 5.626304e-01 3.518147e-01
<GCONST> 1.377957e+02
<TRANSP> 5
 0.000000e+00 1.000000e+00 0.000000e+00 0.000000e+00 0.000000e+00
 0.000000e+00 8.558636e-01 1.441364e-01 0.000000e+00 0.000000e+00
 0.000000e+00 0.000000e+00 8.651940e-01 1.348060e-01 0.000000e+00
 0.000000e+00 0.000000e+00 0.000000e+00 7.623247e-01 2.376753e-01
 0.000000e+00 0.000000e+00 0.000000e+00 0.000000e+00 0.000000e+00
<ENDHMM>
~h "aa"
<BEGINHMM>
<NUMSTATES> 5
<STATE> 2
<MEAN> 39
 6.318190e+00 -9.270043e+00 -1.080978e+01 -1.328803e+01 -7.809600e+00 -1.974055e+01 1.630374e+00 -3.632256e+00 -1.773863e+00 3.314297e+00 -1.052093e+01 -3.415574e+00 7.818369e+01 2.170236e-01 -2.917456e-01 1.091869e-02 1.804120e-01 -2.615779e-01 3.098098e-01 3.365340e-01 -2.152605e-02 -1.896434e-01 1.434616e-02 -9.124456e-02 2.731619e-01 1.343984e-01 -1.199966e-01 1.205349e-01 9.815740e-02 6.785573e-02 8.063021e-02 2.563396e-01 -8.829624e-02 2.464628e-02 5.998658e-02 -2.027587e-01 1.838605e-01 -1.028748e-01 -1.703651e-01
<VARIANCE> 39
 1.094345e+01 2.497394e+01 1.558787e+01 3.161389e+01 3.776987e+01 6.399937e+01 3.541783e+01 3.172653e+01 3.269259e+01 3.770916e+01 4.061177e+01 2.725647e+01 1.798464e+01 4.407770e-01 1.058905e+00 1.323449e+00 1.601231e+00 1.518577e+00 3.162890e+00 2.028855e+00 1.723113e+00 2.123285e+00 2.522227e+00 2.720561e+00 1.701238e+00 9.512658e-01 1.242825e-01 1.580137e-01 2.422011e-01 2.680238e-01 2.598589e-01 3.888753e-01 3.531668e-01 3.678945e-01 3.777725e-01 3.461753e-01 5.111327e-01 3.118731e-01 6.527486e-02
<GCONST> 1.036913e+02
<STATE> 3
<MEAN> 39
 4.662703e+00 -7.081170e+00 -1.105087e+01 -1.048788e+01 -9.485541e+00 -1.135087e+01 2.269656e+00 -1.802898e+00 -3.227004e+00 -4.803102e+00 -3.757431e+00 -2.257637e+00 7.069994e+01 -1.385420e+00 8.451948e-01 1.098327e-01 -4.416844e-01 4.869847e-01 8.062034e-01 -3.124070e-01 8.979596e-01 4.120379e-01 -1.142424e+00 1.225306e+00 -5.310865e-01 -9.125832e-01 -4.734382e-01 1.040177e-01 2.889930e-01 -3.718345e-01 3.579063e-01 -3.238637e-01 -1.137029e-01 3.827350e-02 -9.746826e-02 8.442278e-02 -1.257069e-01 -1.685788e-01 2.991195e-01
<VARIANCE> 39
 1.967198e+01 2.960397e+01 1.480348e+01 2.236197e+01 3.073560e+01 3.707235e+01 3.170904e+01 4.221875e+01 3.109805e+01 3.209667e+01 3.641981e+01 2.080107e+01 4.421404e+01 1.232127e+00 8.439167e-01 1.913885e+00 1.798535e+00 2.009612e+00 1.928892e+00 2.487450e+00 2.165131e+00 1.650389e+00 1.976673e+00 3.501179e+00 1.760111e+00 4.579803e-01 3.807035e-01 1.940020e-01 4.054577e-01 2.933761e-01 3.081901e-01 3.411304e-01 4.187765e-01 4.791459e-01 4.539554e-01 3.068991e-01 4.396643e-01 2.811797e-01 1.195321e-01
<GCONST> 1.071641e+02
<STATE> 4
<MEAN> 39
 -8.650281e+00 -6.430051e+00 -1.654122e+00 -1.709712e+01 -4.162114e+00 -1.045986e+01 8.954937e-01 1.309221e-01 -8.829287e-01 -7.043100e+00 -3.334360e-01 -4.386977e+00 7.438379e+01 -1.915484e+00 4.255558e-01 9.926658e-01 -5.662959e-01 4.424122e-01 3.782325e-01 -3.036078e-01 -2.630820e-01 -1.630685e-01 -5.338982e-01 2.614543e-01 -5.432057e-01 -9.259310e-02 4.071885e-01 -1.825744e-01 -8.510204e-02 1.574111e-01 -1.905606e-01 1.325628e-02 2.521790e-02 -3.196041e-01 -8.641277e-02 3.120646e-01 -4.248704e-01 1.532821e-01 -7.105802e-02
<VARIANCE> 39
 7.514545e+01 7.883162e+01 8.003868e+01 3.537772e+01 4.564552e+01 4.575202e+01 3.974238e+01 4.733291e+01 2.876060e+01 2.311539e+01 2.445968e+01 2.079391e+01 5.166148e+01 6.957206e+00 2.872738e+00 4.556375e+00 4.375759e+00 2.838048e+00 3.586513e+00 2.652475e+00 3.146685e+00 2.365716e+00 2.099915e+00 3.715592e+00 2.036058e+00 1.872607e+00 7.474875e-01 4.678141e-01 7.329469e-01 2.855888e-01 3.494057e-01 5.872301e-01 4.748951e-01 5.437797e-01 3.043065e-01 4.322897e-01 7.097871e-01 3.137883e-01 2.929249e-01
<GCONST> 1.245455e+02
<TRANSP> 5
 0.000000e+00 1.000000e+00 0.000000e+00 0.000000e+00 0.000000e+00
 0.000000e+00 9.202421e-01 7.975791e-02 0.000000e+00 0.000000e+00
 0.000000e+00 0.000000e+00 7.428970e-01 2.571030e-01 0.000000e+00
 0.000000e+00 0.000000e+00 0.000000e+00 7.304915e-01 2.695085e-01
 0.000000e+00 0.000000e+00 0.000000e+00 0.000000e+00 0.000000e+00
<ENDHMM>
~h "ae"
<BEGINHMM>
<NUMSTATES> 5
<STATE> 2
<MEAN> 39
 -3.327445e+00 -6.508795e+00 -4.010286e+00 -3.269508e+00 2.423569e-01 -6.135138e+00 -1.236128e+01 -1.605791e+01 -2.156647e+00 -6.007508e+00 1.406267e+00 -7.820963e-01 6.652718e+01 2.176260e+00 -8.056645e-01 -6.001629e-01 3.190427e-02 -6.626987e-01 -9.346763e-01 -1.961783e+00 -2.068996e+00 4.165885e-01 6.502277e-02 1.171191e+00 1.068878e+00 2.910416e+00 -1.063186e-01 -1.672957e-01 1.273990e-01 1.091430e-01 1.471587e-01 -5.748340e-02 2.764859e-01 1.926224e-01 -3.041487e-01 -2.210884e-01 -1.346560e-01 -3.281974e-02 1.952951e-01
<VARIANCE> 39
 6.748302e+01 2.737678e+01 6.674264e+01 6.839989e+01 4.366153e+01 7.650746e+01 8.428777e+01 7.431976e+01 8.350786e+01 6.739334e+01 5.594875e+01 3.723121e+01 9.791998e+01 4.917901e+00 3.751129e+00 6.256621e+00 6.194362e+00 3.446343e+00 6.094217e+00 8.105609e+00 7.706159e+00 7.343793e+00 6.090415e+00 5.228619e+00 4.746562e+00 5.802010e+00 9.950302e-01 6.048199e-01 9.475976e-01 8.713995e-01 5.018380e-01 1.086602e+00 1.717232e+00 1.558844e+00 1.330918e+00 8.785143e-01 8.833067e-01 7.583992e-01 1.063896e+00
<GCONST> 1.473611e+02
<STATE> 3
<MEAN> 39
 3.031712e+00 -1.028823e+01 -5.518150e+00 -3.693394e+00 1.055441e+00 -9.919327e+00 -1.597706e+01 -2.009297e+01 -5.370188e+00 -7.938876e+00 3.204694e+00 1.518662e+00 7.758134e+01 6.720726e-02 -6.872894e-01 1.996993e-01 -1.768339e-01 4.604624e-01 -1.202450e-01 -6.725956e-02 -4.270599e-01 -2.892869e-01 -6.513793e-01 -4.555747e-02 4.073115e-01 8.721946e-01 -1.909020e-01 2.815534e-01 1.141818e-01 7.694401e-02 2.912887e-01 3.031582e-01 3.766226e-01 2.845769e-01 5.868011e-02 -6.789077e-02 -2.990662e-01 -3.010785e-01 -4.963617e-01
<VARIANCE> 39
 1.430192e+01 1.536933e+01 3.376815e+01 4.421903e+01 4.240876e+01 5.454194e+01 3.243459e+01 5.237435e+01 6.420178e+01 5.696696e+01 5.110984e+01 3.841805e+01 1.314040e+01 1.064212e+00 1.344846e+00 2.297536e+00 2.671541e+00 3.602577e+00 4.146551e+00 3.001984e+00 3.169760e+00 3.937344e+00 2.909631e+00 3.204363e+00 3.080509e+00 9.189993e-01 2.815286e-01 2.745417e-01 4.307142e-01 5.194922e-01 5.292744e-01 7.108989e-01 5.115531e-01 7.344903e-01 6.385181e-01 5.923483e-01 5.371140e-01 6.636713e-01 1.817218e-01
<GCONST> 1.199761e+02
<STATE> 4
<MEAN> 39
 3.025880e+00 -1.082348e+01 -6.667293e+00 -1.895375e+00 1.866763e+00 -7.640402e+00 -1.199326e+01 -2.017492e+01 -6.497990e+00 -9.056850e+00 1.792004e+00 1.346478e+00 7.695725e+01 -1.177844e-02 2.836873e-01 -7.414267e-03 3.374505e-01 5.272651e-01 5.837991e-01 6.819047e-01 3.133968e-01 -4.269409e-01 -1.870108e-02 -5.734137e-02 -1.644183e-01 -7.560460e-01 -7.559890e-02 9.821396e-02 4.694536e-02 1.312118e-02 2.846327e-02 4.518682e-02 1.695117e-02 1.844168e-01 -7.914935e-03 1.332486e-01 7.577954e-02 -1.062777e-01 -1.475558e-01
<VARIANCE> 39
 1.484193e+01 1.987139e+01 2.487097e+01 3.306394e+01 2.610558e+01 4.785735e+01 3.676707e+01 3.062074e+01 3.677023e+01 3.606050e+01 3.204691e+01 2.750045e+01 3.275334e+01 1.023108e+00 7.639498e-01 1.232533e+00 1.560240e+00 1.703698e+00 2.111725e+00 2.227188e+00 2.176261e+00 1.826242e+00 1.927661e+00 1.999095e+00 2.173036e+00 1.009954e+00 2.198517e-01 1.558317e-01 2.593206e-01 3.529645e-01 3.112855e-01 4.569449e-01 3.930209e-01 3.907250e-01 3.526658e-01 3.554423e-01 3.592490e-01 4.315385e-01 1.835599e-01
<GCONST> 1.064717e+02
<TRANSP> 5
 0.000000e+00 1.000000e+00 0.000000e+00 0.000000e+00 0.000000e+00
 0.000000e+00 6.346800e-01 3.653199e-01 0.000000e+00 0.000000e+00
 0.000000e+00 0.000000e+00 6.727151e-01 3.272849e-01 0.000000e+00
 0.000000e+00 0.000000e+00 0.000000e+00 8.324912e-01 1.675088e-01
 0.000000e+00 0.000000e+00 0.000000e+00 0.000000e+00 0.000000e+00
<ENDHMM>
~h "ah"
<BEGINHMM>
<NUMSTATES> 5
<STATE> 2
<MEAN> 39
 6.546733e+00 -1.463526e+00 -4.887048e+00 -1.068259e+01 -5.833090e+00 -1.930454e+01 -9.640068e+00 -5.469827e+00 -1.866020e+00 -7.757838e-01 -4.813968e+00 -5.114109e+00 7.315007e+01 1.073956e+00 -1.506263e+00 -1.820534e+00 -1.507860e+00 -1.005408e+00 -2.164098e+00 5.962204e-01 1.512529e+00 -8.751756e-01 1.325953e+00 -4.009040e-01 4.294542e-01 1.435913e+00 -3.854904e-01 -2.482905e-01 7.627782e-02 3.953913e-01 4.398674e-01 5.455095e-01 4.172687e-01 9.487199e-02 -3.253863e-01 -2.358004e-01 -8.449192e-02 -5.066509e-02 -1.525464e-01
<VARIANCE> 39
 1.510507e+01 6.812391e+01 4.757964e+01 8.197887e+01 6.527155e+01 1.106810e+02 7.200314e+01 4.952293e+01 6.493933e+01 6.098893e+01 4.228033e+01 3.858004e+01 2.904860e+01 1.632499e+00 4.013353e+00 2.330962e+00 5.411750e+00 4.879059e+00 5.828038e+00 5.318872e+00 4.862179e+00 4.463558e+00 3.803969e+00 3.643229e+00 3.226031e+00 1.296655e+00 2.585924e-01 5.008150e-01 4.432933e-01 8.760179e-01 6.677237e-01 6.180537e-01 7.113585e-01 7.125683e-01 6.166003e-01 6.766298e-01 5.193394e-01 4.702935e-01 1.734184e-01
<GCONST> 1.309776e+02
<STATE> 3
<MEAN> 39
 7.770916e+00 -9.356222e+00 -8.911640e+00 -1.136804e+01 -5.503613e+00 -2.097450e+01 -4.008964e+00 -2.347840e+00 -7.794851e+00 -2.497693e-01 -7.897827e+00 -3.367673e+00 7.793372e+01 2.218402e-01 -3.237632e-01 -1.832520e-01 2.630381e-01 3.052993e-01 4.463885e-01 2.523756e-01 6.633680e-02 -6.469460e-01 -4.931137e-01 -1.699885e-01 -9.447953e-02 1.470841e-01 -3.350194e-02 2.547969e-01 1.059884e-01 2.925665e-01 1.439054e-01 3.699679e-01 -1.608942e-01 -1.359602e-01 2.689751e-01 -3.288460e-01 1.340991e-01 -1.213262e-01 -2.527592e-01
<VARIANCE> 39
 8.654010e+00 1.844236e+01 2.064380e+01 3.401522e+01 3.238917e+01 1.010883e+02 4.786366e+01 4.628849e+01 7.035018e+01 6.105867e+01 4.409361e+01 3.334930e+01 1.068588e+01 5.944805e-01 1.173677e+00 1.336638e+00 2.594535e+00 2.031076e+00 3.138989e+00 2.458474e+00 2.957028e+00 2.637339e+00 3.668101e+00 2.415434e+00 2.127188e+00 8.969494e-01 1.107843e-01 1.913105e-01 2.046722e-01 3.432662e-01 4.082538e-01 5.208407e-01 4.339752e-01 5.932581e-01 5.373228e-01 4.740594e-01 5.007849e-01 3.713575e-01 1.025908e-01
<GCONST> 1.109045e+02
<STATE> 4
<MEAN> 39
 9.546641e+00 -6.644845e+00 -1.088420e+01 -6.410318e+00 -1.317619e+00 -1.392354e+01 -5.797503e+00 -1.316021e+00 -6.065866e+00 -8.831927e+00 -4.619047e+00 -4.297777e+00 7.377631e+01 -1.434910e-01 6.923608e-01 -6.292492e-02 9.082404e-01 5.555831e-01 1.276015e+00 -1.901706e-01 -8.538486e-02 9.771025e-01 -7.573413e-01 1.992624e-01 -2.201217e-01 -9.159940e-01 -1.775772e-01 6.071688e-02 1.502482e-01 -1.650657e-01 -6.871765e-03 -4.285556e-02 -4.978681e-02 -8.215550e-02 1.039438e-01 2.119721e-01 -5.956193e-02 1.395642e-02 -3.323885e-02
<VARIANCE> 39
 9.122049e+00 2.088241e+01 2.032618e+01 4.827679e+01 4.625915e+01 3.837189e+01 4.555804e+01 3.316904e+01 6.324158e+01 2.891188e+01 3.143683e+01 3.447705e+01 1.695145e+01 5.497389e-01 5.423477e-01 1.185269e+00 3.425086e+00 2.045678e+00 1.344369e+00 2.168015e+00 1.800985e+00 2.695315e+00 1.712066e+00 2.286281e+00 1.591678e+00 4.509719e-01 5.394674e-02 7.687640e-02 1.463931e-01 3.504435e-01 2.975134e-01 2.076563e-01 3.720475e-01 3.692184e-01 4.279398e-01 3.022109e-01 3.292066e-01 3.156653e-01 5.249297e-02
<GCONST> 1.000558e+02
<TRANSP> 5
 0.000000e+00 1.000000e+00 0.000000e+00 0.000000e+00 0.000000e+00
 0.000000e+00 6.322044e-01 3.677956e-01 0.000000e+00 0.000000e+00
 0.000000e+00 0.000000e+00 8.486752e-01 1.513248e-01 0.000000e+00
 0.000000e+00 0.000000e+00 0.000000e+00 7.997111e-01 2.002889e-01
 0.000000e+00 0.000000e+00 0.000000e+00 0.000000e+00 0.000000e+00
<ENDHMM>
~h "ao"
<BEGINHMM>
<NUMSTATES> 5
<STATE> 2
<MEAN> 39
 5.034572e+00 1.788342e+00 -5.589727e-01 -1.105250e+01 -1.008761e+01 -2.238237e+01 -1.171994e+01 -6.562928e+00 -2.845731e+00 -1.251636e+00 -3.488558e+00 -7.136028e+00 7.076221e+01 1.866194e+00 -7.290250e-02 -1.366051e+00 6.111601e-03 -1.368643e+00 -2.293546e+00 -1.367462e+00 8.567272e-01 2.823333e-01 1.818939e+00 -9.602584e-02 -2.982751e-02 2.995335e-01 -6.363775e-01 -4.373849e-01 -2.519979e-01 3.136113e-01 7.758888e-01 3.172712e-01 5.280070e-01 2.823401e-01 -6.584376e-02 -1.818527e-01 3.506776e-02 1.841648e-01 -3.824489e-02
<VARIANCE> 39
 2.282491e+01 4.923135e+01 2.842131e+01 3.766782e+01 4.858810e+01 7.713402e+01 4.032186e+01 3.578311e+01 4.537436e+01 5.942684e+01 2.376901e+01 2.285819e+01 2.829851e+01 3.243996e+00 3.423760e+00 4.006322e+00 2.875701e+00 4.837313e+00 5.661847e+00 4.185805e+00 3.800725e+00 2.621126e+00 3.954486e+00 3.044965e+00 2.184085e+00 1.184593e+00 6.556127e-01 4.816428e-01 5.055550e-01 5.343722e-01 5.918627e-01 8.619697e-01 5.343285e-01 4.209264e-01 4.577212e-01 7.903937e-01 3.411841e-01 2.573686e-01 2.047879e-01
<GCONST> 1.243907e+02
<STATE> 3
<MEAN> 39
 1.000756e+01 -4.693021e-02 -6.891279e+00 -8.832806e+00 -7.405573e+00 -2.992941e+01 -1.479505e+01 -8.171626e-01 -2.641270e+00 4.323151e+00 -4.332410e+00 -5.866500e+00 7.245616e+01 3.101748e-01 -5.233358e-01 -7.483909e-01 -8.882789e-02 5.455005e-01 -5.842321e-02 3.666906e-01 7.763912e-01 6.586476e-02 -1.188132e-01 -6.336235e-01 3.463496e-01 4.046232e-01 -1.392253e-01 -2.563894e-02 1.601893e-01 -1.045088e-01 9.464399e-02 5.145847e-01 2.001157e-01 -1.800034e-01 -1.266719e-02 -3.286727e-01 -1.365294e-01 -3.842311e-02 -1.825527e-04
<VARIANCE> 39
 4.224771e+00 2.438150e+01 2.084858e+01 2.704976e+01 2.975221e+01 5.386449e+01 4.646859e+01 4.394162e+01 5.417557e+01 5.231714e+01 3.969450e+01 2.194903e+01 7.479665e+00 2.315727e-01 1.057735e+00 1.205834e+00 1.711139e+00 1.813986e+00 3.232575e+00 1.859424e+00 1.918756e+00 1.941727e+00 3.411625e+00 1.610403e+00 1.393339e+00 2.890625e-01 5.476992e-02 9.606079e-02 1.785778e-01 2.293020e-01 3.343201e-01 2.765217e-01 2.693299e-01 3.486676e-01 2.972810e-01 3.728730e-01 2.707734e-01 2.195878e-01 2.539202e-02
<GCONST> 9.631104e+01
<STATE> 4
<MEAN> 39
 9.096601e+00 -4.804532e+00 -9.726949e+00 -1.098655e+01 -4.834240e+00 -1.847910e+01 -7.526424e+00 -7.102723e-01 -3.046296e+00 -3.471707e+00 -9.071260e+00 -3.344045e+00 7.379977e+01 -3.530354e-01 -1.531403e-01 -8.878465e-02 4.430903e-01 5.115406e-01 1.859994e+00 5.876006e-01 -3.801896e-01 -1.162020e-01 -1.159501e+00 3.987840e-02 -2.196444e-01 -3.610083e-01 -9.411392e-02 1.229428e-01 6.784435e-02 1.496799e-01 2.663540e-02 -9.258682e-02 -9.184682e-02 -9.535509e-02 1.709691e-02 7.684349e-02 1.538649e-01 -8.029499e-02 -1.142753e-01
<VARIANCE> 39
 1.449458e+01 2.528977e+01 3.875059e+01 2.755256e+01 4.602653e+01 8.372866e+01 4.860102e+01 3.636288e+01 5.871955e+01 7.528914e+01 5.285946e+01 3.244951e+01 2.249790e+01 5.103346e-01 9.245706e-01 9.077146e-01 1.519637e+00 2.466964e+00 2.805465e+00 2.137230e+00 2.295148e+00 3.153351e+00 3.828485e+00 2.389225e+00 1.904487e+00 6.187691e-01 5.033977e-02 9.462987e-02 1.437421e-01 2.285232e-01 3.042765e-01 4.055018e-01 3.141766e-01 3.494480e-01 5.722552e-01 6.370353e-01 3.990192e-01 3.608058e-01 5.323738e-02
<GCONST> 1.069205e+02
<TRANSP> 5
 0.000000e+00 1.000000e+00 0.000000e+00 0.000000e+00 0.000000e+00
 0.000000e+00 7.077802e-01 2.922198e-01 0.000000e+00 0.000000e+00
 0.000000e+00 0.000000e+00 8.503723e-01 1.496277e-01 0.000000e+00
 0.000000e+00 0.000000e+00 0.000000e+00 8.655806e-01 1.344194e-01
 0.000000e+00 0.000000e+00 0.000000e+00 0.000000e+00 0.000000e+00
<ENDHMM>
~h "aw"
<BEGINHMM>
<NUMSTATES> 5
<STATE> 2
<MEAN> 39
 2.257704e+00 -2.102340e+00 -5.097208e+00 -7.456393e+00 -5.245560e+00 -1.676827e+01 -5.279514e+00 -4.914249e+00 -1.626240e+00 -9.804527e-01 -7.573730e+00 -6.112203e+00 6.901275e+01 1.882232e+00 -7.643391e-01 -1.701637e+00 -1.800061e+00 -1.582285e+00 -3.279181e+00 -9.743026e-02 1.280051e+00 7.748188e-01 2.940934e+00 -1.409060e+00 2.991802e-01 2.087776e+00 -2.337160e-01 -2.003361e-01 8.918539e-03 2.509876e-01 4.662967e-01 2.972919e-01 2.617863e-01 1.195852e-01 -1.860443e-01 8.318155e-02 4.623482e-02 -3.056174e-02 7.285255e-02
<VARIANCE> 39
 5.540237e+01 3.417559e+01 3.858694e+01 1.090258e+02 9.038786e+01 1.266629e+02 6.262217e+01 5.146992e+01 6.894720e+01 8.016727e+01 4.647667e+01 2.890479e+01 5.384928e+01 4.041779e+00 2.589001e+00 3.274220e+00 5.909838e+00 8.136647e+00 7.366742e+00 6.272856e+00 4.842033e+00 8.184897e+00 5.543474e+00 4.140067e+00 3.561036e+00 3.129591e+00 8.329058e-01 4.985007e-01 6.041736e-01 1.119834e+00 1.745151e+00 1.492896e+00 1.251775e+00 6.163772e-01 1.145077e+00 1.192985e+00 7.353508e-01 7.401698e-01 6.979761e-01
<GCONST> 1.440349e+02
<STATE> 3
<MEAN> 39
 5.560543e+00 -5.523916e+00 -6.201078e+00 -1.483681e+01 -7.901162e+00 -2.595463e+01 -2.247348e+00 -3.746809e+00 -1.697036e+00 1.281536e+01 -1.441266e+01 -5.601452e+00 7.681698e+01 4.719320e-01 -1.035175e-01 1.369977e-01 2.622052e-02 -1.009266e-02 -5.257428e-01 -5.586945e-01 8.090479e-02 -3.492693e-01 6.139275e-01 -2.855580e-01 1.048952e-01 2.463260e-01 -4.305552e-02 1.317262e-01 1.537144e-01 1.897809e-01 3.512866e-02 3.284282e-01 -1.174271e-01 -6.867893e-02 -2.076781e-02 -5.726303e-01 1.924569e-01 3.340556e-02 -1.718322e-01
<VARIANCE> 39
 1.090794e+01 2.491643e+01 1.321208e+01 2.511725e+01 2.530716e+01 6.155119e+01 5.734883e+01 6.151587e+01 3.919917e+01 5.568818e+01 4.113114e+01 3.693206e+01 1.542813e+01 5.491763e-01 1.035358e+00 1.235054e+00 2.172567e+00 1.734588e+00 2.359624e+00 2.480077e+00 1.658041e+00 1.687859e+00 2.852862e+00 1.921886e+00 2.336504e+00 4.897099e-01 1.264592e-01 1.340004e-01 1.874778e-01 3.279935e-01 3.439289e-01 4.774492e-01 4.358073e-01 3.493300e-01 3.551479e-01 4.211697e-01 4.267474e-01 4.014407e-01 7.756540e-02
<GCONST> 1.051859e+02
<STATE> 4
<MEAN> 39
 8.913158e+00 -2.210475e+00 -7.514194e+00 -9.469286e+00 -5.791400e+00 -2.137496e+01 -9.544497e+00 5.784353e-01 -7.832784e-01 -8.531209e-01 -9.975549e+00 -6.157241e+00 7.309778e+01 -1.247691e-01 1.323665e-01 -1.730890e-01 4.841041e-01 2.485704e-01 1.043019e+00 7.121845e-02 3.159831e-01 3.401994e-01 -1.482045e+00 2.361636e-01 -1.276837e-01 -4.782385e-01 -1.085175e-01 -2.260193e-02 9.570763e-03 -4.574767e-02 -4.032981e-03 8.081917e-02 1.228018e-01 -4.683903e-02 6.654229e-03 6.363930e-02 2.167822e-02 -2.877516e-02 -4.063325e-02
<VARIANCE> 39
 1.004280e+01 2.800490e+01 2.104460e+01 3.041124e+01 3.027715e+01 8.675737e+01 4.955334e+01 3.461559e+01 4.099413e+01 6.517380e+01 2.777046e+01 2.817681e+01 1.604454e+01 4.188292e-01 1.263159e+00 1.010464e+00 1.544466e+00 1.701953e+00 2.987011e+00 2.129011e+00 2.065193e+00 2.372295e+00 3.069513e+00 1.792150e+00 1.721905e+00 5.530669e-01 5.412100e-02 1.921433e-01 1.976179e-01 2.935646e-01 2.857643e-01 5.413059e-01 3.099081e-01 3.297796e-01 4.230480e-01 5.854560e-01 3.405934e-01 3.154364e-01 6.463119e-02
<GCONST> 1.039365e+02
<TRANSP> 5
 0.000000e+00 1.000000e+00 0.000000e+00 0.000000e+00 0.000000e+00
 0.000000e+00 6.607475e-01 3.392525e-01 0.000000e+00 0.000000e+00
 0.000000e+00 0.000000e+00 8.304650e-01 1.695350e-01 0.000000e+00
 0.000000e+00 0.000000e+00 0.000000e+00 9.142275e-01 8.577249e-02
 0.000000e+00 0.000000e+00 0.000000e+00 0.000000e+00 0.000000e+00
<ENDHMM>
~h "ax"
<BEGINHMM>
<NUMSTATES> 5
<STATE> 2
<MEAN> 39
 -1.410487e+00 -2.945188e+00 1.847374e-01 -5.446589e+00 -6.882088e-01 -9.251263e+00 -8.236810e+00 -8.484509e+00 -5.650519e+00 -6.984770e+00 -3.699444e+00 -4.711664e+00 6.650575e+01 1.624204e+00 -5.311666e-02 -2.204495e-01 -2.062373e-01 6.337765e-02 -8.884514e-01 -9.632365e-01 -2.513070e-01 -4.168513e-01 1.033492e-01 -2.304113e-01 -1.911203e-01 1.386473e+00 -1.136296e-01 -1.607003e-01 -2.080702e-01 7.781824e-02 1.865763e-01 1.985654e-01 3.350682e-01 8.314697e-02 -7.517078e-02 -1.469789e-01 -3.707334e-02 -1.426631e-02 1.990076e-02
<VARIANCE> 39
 7.891029e+01 6.678339e+01 6.553810e+01 6.747777e+01 9.287641e+01 1.021915e+02 5.955109e+01 7.655391e+01 8.332078e+01 5.510497e+01 4.075222e+01 3.800267e+01 7.784869e+01 5.264487e+00 5.235342e+00 4.506139e+00 4.258149e+00 5.842858e+00 5.984335e+00 4.555457e+00 5.352642e+00 6.165279e+00 3.292514e+00 3.241589e+00 3.513800e+00 4.254123e+00 7.812385e-01 9.296415e-01 7.619663e-01 6.597157e-01 8.522890e-01 9.422078e-01 9.288812e-01 8.912183e-01 9.793407e-01 6.152831e-01 6.061543e-01 5.840505e-01 6.068947e-01
<GCONST> 1.428062e+02
<STATE> 3
<MEAN> 39
 6.262530e+00 -5.530424e+00 -4.739052e+00 -7.405070e+00 3.159292e-01 -1.301958e+01 -9.465132e+00 -6.717697e+00 -8.418736e+00 -7.619318e+00 -5.033675e+00 -3.749081e+00 7.391366e+01 2.137253e-01 -2.778848e-01 -5.925009e-01 1.770395e-01 1.209997e-01 6.751069e-01 5.101107e-01 2.471278e-01 -2.997007e-01 -5.034116e-01 -1.539945e-01 -8.274466e-02 3.036569e-02 -3.808937e-01 1.575617e-01 1.846392e-01 1.127716e-01 7.661207e-02 3.570867e-01 3.174499e-01 2.095904e-02 3.037099e-01 -3.138275e-02 1.148951e-01 -9.345782e-02 -2.729725e-01
<VARIANCE> 39
 2.377991e+01 3.670636e+01 4.510061e+01 5.853835e+01 7.758489e+01 1.238465e+02 4.318866e+01 6.851818e+01 7.928270e+01 7.270152e+01 4.105302e+01 4.982473e+01 2.266069e+01 1.114871e+00 1.589985e+00 2.638596e+00 2.987579e+00 2.749611e+00 3.726602e+00 3.513920e+00 3.127108e+00 3.919305e+00 3.724034e+00 2.398799e+00 2.712385e+00 8.754612e-01 2.765354e-01 2.645052e-01 3.308842e-01 5.415259e-01 4.370405e-01 6.171185e-01 6.570776e-01 5.379925e-01 8.360552e-01 7.044318e-01 5.166656e-01 5.006723e-01 1.447329e-01
<GCONST> 1.241761e+02
<STATE> 4
<MEAN> 39
 3.147755e+00 -3.964429e+00 -4.203299e+00 -3.809444e+00 1.898838e+00 -5.156151e+00 -4.497811e+00 -7.689057e+00 -9.571881e+00 -1.014070e+01 -3.734692e+00 -4.914393e+00 6.887061e+01 -6.596327e-01 6.967258e-01 -1.794204e-01 4.933656e-01 3.442154e-01 9.440396e-01 1.017435e+00 2.679807e-01 8.339937e-01 3.882543e-02 3.811513e-01 7.661484e-02 -9.363421e-01 -3.348511e-01 1.334875e-02 2.738419e-01 -1.333516e-01 1.167637e-01 -2.177672e-01 -1.175170e-01 -6.756847e-02 1.735102e-01 1.445988e-01 3.736371e-02 1.151566e-02 7.475670e-02
<VARIANCE> 39
 4.012676e+01 3.769418e+01 5.024883e+01 5.919664e+01 8.304604e+01 7.527995e+01 4.800395e+01 5.113320e+01 6.459576e+01 3.742722e+01 3.079643e+01 3.980059e+01 3.880220e+01 1.553391e+00 1.081441e+00 2.866356e+00 2.852832e+00 2.031360e+00 2.701218e+00 2.375510e+00 2.491314e+00 2.771014e+00 2.368182e+00 2.189010e+00 2.138978e+00 7.190424e-01 2.825288e-01 2.255113e-01 3.245733e-01 4.162365e-01 3.737669e-01 4.277790e-01 4.662718e-01 4.300566e-01 4.547074e-01 3.856688e-01 3.298111e-01 4.243314e-01 1.392248e-01
<GCONST> 1.174248e+02
<TRANSP> 5
 0.000000e+00 1.000000e+00 0.000000e+00 0.000000e+00 0.000000e+00
 0.000000e+00 5.232582e-01 4.767418e-01 0.000000e+00 0.000000e+00
 0.000000e+00 0.000000e+00 6.136086e-01 3.863914e-01 0.000000e+00
 0.000000e+00 0.000000e+00 0.000000e+00 5.516473e-01 4.483527e-01
 0.000000e+00 0.000000e+00 0.000000e+00 0.000000e+00 0.000000e+00
<ENDHMM>
~h "ay"
<BEGINHMM>
<NUMSTATES> 5
<STATE> 2
<MEAN> 39
 5.685351e+00 -4.252896e+00 -8.780884e+00 -1.235100e+01 -7.308393e+00 -1.922337e+01 -4.653096e+00 -5.568212e+00 -5.154090e-01 -1.107605e+00 -8.339948e+00 -4.443289e+00 7.380750e+01 5.126526e-01 -1.972522e+00 -1.296273e+00 -9.066718e-01 -7.000116e-01 -9.606932e-01 9.192789e-01 1.350654e-01 -3.915016e-01 8.732303e-01 -7.814724e-01 1.418154e+00 1.838660e+00 -4.518601e-01 -1.341136e-01 3.344701e-01 4.362576e-01 4.603371e-01 8.489465e-01 8.643784e-02 -2.653433e-01 -2.298411e-01 -2.579277e-01 1.403612e-01 1.682735e-01 -1.949601e-01
<VARIANCE> 39
 2.529470e+01 4.485382e+01 3.999250e+01 5.472768e+01 4.820779e+01 7.538884e+01 5.782434e+01 4.124644e+01 6.044575e+01 5.304713e+01 3.681562e+01 3.687395e+01 3.499473e+01 2.766466e+00 2.886625e+00 3.245216e+00 6.089351e+00 4.511925e+00 6.808533e+00 5.541011e+00 4.623528e+00 3.395803e+00 5.549821e+00 3.431023e+00 3.529272e+00 2.834234e+00 3.180028e-01 5.638536e-01 4.289286e-01 9.561858e-01 8.193642e-01 9.317826e-01 9.940500e-01 7.732189e-01 6.588905e-01 7.316837e-01 6.502340e-01 5.826875e-01 2.768616e-01
<GCONST> 1.332933e+02
<STATE> 3
<MEAN> 39
 6.119535e+00 -1.250356e+01 -9.841332e+00 -1.193208e+01 -6.210304e+00 -1.444955e+01 -3.330133e+00 -8.440493e+00 -4.874317e+00 -1.223631e+00 -8.790457e+00 2.384928e+00 7.974885e+01 -4.644195e-02 -8.500720e-01 3.037323e-01 6.607392e-01 6.429869e-01 1.905319e+00 -1.023164e+00 -1.270706e+00 -8.194098e-01 -1.253708e+00 1.082650e+00 9.616382e-01 4.657322e-01 1.572919e-02 3.376028e-01 1.446579e-01 2.718366e-01 2.247469e-01 1.900101e-02 -3.499546e-01 -2.500734e-01 4.114255e-02 -2.956657e-01 3.188132e-01 -3.598450e-01 -1.903325e-01
<VARIANCE> 39
 1.142701e+01 2.109612e+01 2.286749e+01 2.061323e+01 3.971859e+01 7.382171e+01 4.390775e+01 3.581413e+01 5.209210e+01 5.155616e+01 3.513013e+01 3.852625e+01 1.108433e+01 3.190382e-01 8.833383e-01 1.100739e+00 1.826447e+00 1.872150e+00 2.393789e+00 3.839346e+00 2.517231e+00 2.204611e+00 3.459400e+00 3.009911e+00 2.773817e+00 2.038331e-01 5.499628e-02 1.152224e-01 2.072122e-01 2.508924e-01 2.614520e-01 6.116341e-01 6.014785e-01 4.071601e-01 4.211202e-01 6.052574e-01 4.589636e-01 5.478703e-01 3.675354e-02
<GCONST> 1.046279e+02
<STATE> 4
<MEAN> 39
 6.213157e+00 -1.227333e+01 -8.150535e+00 -3.692737e+00 2.114673e+00 -8.572142e+00 -8.864509e+00 -1.631783e+01 -8.898156e+00 -8.820658e+00 -1.767198e+00 2.766856e+00 7.748845e+01 -2.331024e-01 5.467369e-01 -3.547094e-02 8.004251e-01 1.086762e+00 2.708520e-01 1.206503e-01 -1.490563e-01 -3.326775e-01 -1.657505e-01 4.446280e-01 -5.469058e-01 -8.212949e-01 -9.038910e-02 9.266700e-02 -4.027525e-02 -1.571293e-01 -7.087567e-02 -8.862602e-02 2.030079e-01 3.151694e-01 7.168083e-02 1.999511e-01 -1.584356e-01 -7.975006e-02 -1.096058e-01
<VARIANCE> 39
 1.079260e+01 1.569539e+01 2.392753e+01 2.899472e+01 4.643732e+01 3.326375e+01 2.890658e+01 4.410974e+01 3.443974e+01 3.187648e+01 2.483785e+01 2.776139e+01 1.873680e+01 4.307855e-01 4.809595e-01 1.425481e+00 1.403792e+00 2.324498e+00 1.728878e+00 2.420144e+00 3.151457e+00 2.434992e+00 2.419095e+00 2.070302e+00 1.701299e+00 5.476534e-01 8.093486e-02 1.034910e-01 2.474291e-01 2.145317e-01 3.978736e-01 4.178262e-01 5.203596e-01 4.993281e-01 4.846539e-01 4.933108e-01 5.153652e-01 3.015823e-01 7.978071e-02
<GCONST> 1.026037e+02
<TRANSP> 5
 0.000000e+00 1.000000e+00 0.000000e+00 0.000000e+00 0.000000e+00
 0.000000e+00 7.286519e-01 2.713481e-01 0.000000e+00 0.000000e+00
 0.000000e+00 0.000000e+00 8.070036e-01 1.929964e-01 0.000000e+00
 0.000000e+00 0.000000e+00 0.000000e+00 8.668372e-01 1.331628e-01
 0.000000e+00 0.000000e+00 0.000000e+00 0.000000e+00 0.000000e+00
<ENDHMM>
~h "ch"
<BEGINHMM>
<NUMSTATES> 5
<STATE> 2
<MEAN> 39
 1.025907e+00 -4.779885e+00 6.322682e-03 -4.534069e-01 1.027494e+00 -2.001662e+00 -4.471346e+00 -6.742424e+00 -7.613983e+00 -1.086319e+01 -2.149038e+00 -4.528877e+00 6.735061e+01 -1.678527e+00 -2.762489e+00 2.204090e+00 6.962179e-02 9.165284e-02 -2.257643e-01 -6.891169e-01 1.441583e+00 6.195407e-02 -7.448316e-01 -1.332492e-01 -1.076917e-01 9.440073e-01 -6.842525e-01 -7.116493e-01 6.682510e-01 -2.260324e-01 2.868206e-01 -1.672526e-01 -2.051207e-01 -6.739676e-03 1.281325e-01 1.394547e-01 -2.121596e-01 3.932700e-03 4.562114e-01
<VARIANCE> 39
 3.507844e+01 8.775892e+01 8.448367e+01 6.851051e+01 6.859007e+01 6.596493e+01 4.037165e+01 7.376283e+01 7.264831e+01 5.527737e+01 3.189013e+01 5.523042e+01 2.551583e+01 6.192959e+00 6.514007e+00 1.312016e+01 4.970828e+00 4.946723e+00 5.559387e+00 4.129030e+00 7.435455e+00 5.742644e+00 4.013241e+00 3.328999e+00 4.871283e+00 1.907205e+00 1.779797e-01 6.872796e-01 1.452688e+00 9.776893e-01 1.044915e+00 9.266909e-01 9.913394e-01 1.082956e+00 6.551902e-01 7.399492e-01 5.280730e-01 1.154552e+00 3.569730e-01
<GCONST> 1.410227e+02
<STATE> 3
<MEAN> 39
 -1.575142e+01 -2.381153e+01 1.659253e+01 -9.358595e-01 6.235539e+00 -7.267790e+00 -8.823561e+00 -8.372602e-01 -4.002912e+00 -1.161996e+01 -3.943587e+00 -2.786717e+00 7.569483e+01 -3.485534e+00 -2.045327e+00 1.561979e+00 -4.435780e-01 1.007384e+00 -1.319662e+00 9.011738e-03 -6.077036e-01 1.115998e+00 3.663048e-01 -1.569907e-01 -1.017136e-01 1.689296e+00 6.365128e-01 8.030409e-01 -1.196814e+00 3.015826e-01 -8.053263e-02 1.721287e-01 2.646717e-01 -6.642016e-01 -3.036222e-01 -1.203062e-01 4.000098e-01 1.011694e-01 -3.520560e-01
<VARIANCE> 39
 3.911637e+01 2.024875e+01 3.665649e+01 7.324379e+01 6.425483e+01 4.221835e+01 1.651699e+01 3.922406e+01 8.006059e+01 4.134218e+01 4.287292e+01 2.082287e+01 1.626495e+01 2.401757e+00 3.337597e+00 1.005050e+01 3.929853e+00 3.310913e+00 3.053347e+00 1.820530e+00 3.676244e+00 4.635594e+00 2.569599e+00 3.697639e+00 2.745101e+00 1.371783e+00 4.657498e-01 2.730464e-01 1.014158e+00 7.554036e-01 6.442427e-01 7.440559e-01 2.750571e-01 4.830150e-01 8.752152e-01 4.180143e-01 6.001955e-01 4.014428e-01 2.410757e-01
<GCONST> 1.244641e+02
<STATE> 4
<MEAN> 39
 -1.755413e+01 -2.378283e+01 1.488137e+01 1.218356e+00 4.781617e+00 -7.889319e+00 -8.610890e+00 -7.272977e+00 -7.170303e+00 -1.230959e+01 4.337306e-01 -2.562682e+00 7.554852e+01 1.889126e+00 8.979608e-01 -4.826790e-01 2.550464e-01 -9.187768e-01 3.061202e-01 -3.503175e-01 -6.830541e-01 -7.729374e-01 -2.581239e-02 2.870631e-01 7.449111e-02 -5.294713e-01 4.928129e-01 3.004312e-01 -1.936031e-01 -8.297829e-02 -1.829934e-01 -1.654314e-03 -4.128632e-02 1.578977e-03 -7.512641e-03 7.944907e-02 -1.154916e-01 -4.428168e-02 -3.650459e-02
<VARIANCE> 39
 6.493996e+01 3.154973e+01 2.746919e+01 5.303943e+01 4.889063e+01 4.615578e+01 2.016520e+01 4.735534e+01 4.239725e+01 2.919659e+01 2.569792e+01 1.757158e+01 3.981319e+01 5.516014e+00 3.615636e+00 3.218338e+00 2.524746e+00 3.910454e+00 3.360373e+00 2.515772e+00 2.873640e+00 3.887417e+00 1.721329e+00 1.801906e+00 9.633418e-01 1.227871e+00 7.329458e-01 5.358728e-01 6.136569e-01 4.834088e-01 5.652578e-01 6.420771e-01 4.655286e-01 5.225255e-01 8.293393e-01 2.761509e-01 3.592282e-01 2.335745e-01 2.160376e-01
<GCONST> 1.203258e+02
<TRANSP> 5
 0.000000e+00 1.000000e+00 0.000000e+00 0.000000e+00 0.000000e+00
 0.000000e+00 7.633801e-01 2.366200e-01 0.000000e+00 0.000000e+00
 0.000000e+00 0.000000e+00 7.442843e-01 2.557157e-01 0.000000e+00
 0.000000e+00 0.000000e+00 0.000000e+00 8.792112e-01 1.207888e-01
 0.000000e+00 0.000000e+00 0.000000e+00 0.000000e+00 0.000000e+00
<ENDHMM>
~h "dh"
<BEGINHMM>
<NUMSTATES> 5
<STATE> 2
<MEAN> 39
 -1.653589e+00 -7.820982e+00 4.353838e+00 -4.059424e+00 1.123525e+00 -3.312595e+00 -9.718143e+00 -1.499500e+01 -7.647627e+00 -7.080856e+00 -4.175813e+00 -6.935316e+00 7.081416e+01 1.805029e+00 -4.247877e-01 -1.112242e-01 -4.757967e-03 7.493180e-01 -2.270485e-01 -9.915591e-01 -1.901218e+00 -1.751962e+00 -3.959385e-01 -2.450705e-01 1.916913e-01 1.481076e+00 -7.519704e-02 2.277382e-01 -7.240335e-01 1.756656e-01 1.882003e-01 -2.321305e-01 3.543957e-01 4.777094e-01 -4.798643e-02 -6.639159e-02 1.879482e-01 2.131555e-01 -3.756630e-01
<VARIANCE> 39
 4.810182e+01 2.707496e+01 5.826797e+01 5.778266e+01 5.844693e+01 7.193182e+01 6.506450e+01 6.630367e+01 7.375730e+01 4.744076e+01 4.027922e+01 2.899821e+01 2.561471e+01 5.012332e+00 3.312307e+00 6.493968e+00 6.134189e+00 5.677419e+00 5.844480e+00 5.547713e+00 5.870882e+00 6.291372e+00 3.866801e+00 3.014682e+00 2.772253e+00 4.987501e+00 8.333744e-01 5.439132e-01 8.393052e-01 8.927641e-01 8.820946e-01 8.598713e-01 1.148593e+00 1.217336e+00 1.481172e+00 7.644260e-01 5.837811e-01 5.520880e-01 4.859658e-01
<GCONST> 1.398015e+02
<STATE> 3
<MEAN> 39
 2.968981e+00 -8.014308e+00 -2.743945e+00 -3.097296e+00 4.302125e+00 -5.824098e+00 -8.742112e+00 -1.360312e+01 -1.196399e+01 -8.948385e+00 -2.697079e+00 -4.573688e+00 7.217583e+01 1.529437e-01 1.692971e-01 -1.170768e+00 3.694541e-01 2.247416e-01 1.344420e-01 5.607093e-01 5.736629e-01 9.391360e-03 -3.552322e-02 3.782234e-01 4.748628e-01 -4.858366e-01 -3.190891e-01 1.087478e-01 1.158220e-01 2.258278e-02 -1.084912e-01 1.288309e-01 2.161590e-01 2.874311e-01 4.040627e-01 7.736603e-02 1.038528e-01 -8.242433e-04 -2.074189e-01
<VARIANCE> 39
 4.041736e+01 3.017992e+01 3.642572e+01 5.540922e+01 5.036076e+01 6.917568e+01 4.820769e+01 7.071905e+01 4.930678e+01 3.309595e+01 2.661637e+01 3.179776e+01 3.834383e+01 7.603529e-01 1.462965e+00 1.761455e+00 1.974369e+00 2.244421e+00 3.759594e+00 3.484504e+00 2.813994e+00 2.447594e+00 2.107195e+00 2.140387e+00 1.939686e+00 1.400174e+00 1.566260e-01 1.976434e-01 2.597209e-01 3.379110e-01 3.706295e-01 4.916883e-01 5.374412e-01 6.383901e-01 4.432777e-01 3.797942e-01 3.765589e-01 3.813450e-01 1.005107e-01
<GCONST> 1.149375e+02
<STATE> 4
<MEAN> 39
 -9.713263e+00 -6.965003e+00 -6.565803e+00 -2.171393e+00 1.329516e+00 -2.345676e+00 -2.770776e+00 -8.085531e+00 -5.491742e+00 -7.787893e+00 -7.947353e-01 -1.045821e+00 5.759763e+01 -3.522031e-01 2.659345e-01 -1.917238e-01 5.380744e-02 2.614466e-02 -8.653947e-02 2.285044e-01 3.807774e-01 3.416132e-01 1.163091e-01 -1.764086e-02 2.622840e-02 -5.071302e-01 -3.768970e-02 -3.684694e-03 1.475366e-01 -2.572136e-02 -2.523853e-02 -1.477277e-02 -7.513021e-02 -3.306109e-02 5.637551e-02 3.000842e-02 -3.460187e-02 -8.239046e-02 6.138374e-02
<VARIANCE> 39
 8.011118e+01 2.419621e+01 3.425544e+01 2.906790e+01 2.219545e+01 2.719496e+01 3.659405e+01 3.882259e+01 3.728809e+01 2.717291e+01 1.783596e+01 2.109246e+01 8.500881e+01 3.669923e-01 5.990293e-01 1.004295e+00 1.063404e+00 9.837731e-01 1.263327e+00 1.567690e+00 1.386267e+00 1.617147e+00 1.253120e+00 1.175411e+00 1.251121e+00 4.232441e-01 9.299017e-02 1.068082e-01 1.437118e-01 1.691635e-01 2.006502e-01 3.272040e-01 3.300644e-01 2.815474e-01 2.909403e-01 2.461860e-01 2.041430e-01 2.045449e-01 7.212952e-02
<GCONST> 9.501295e+01
<TRANSP> 5
 0.000000e+00 1.000000e+00 0.000000e+00 0.000000e+00 0.000000e+00
 0.000000e+00 6.426858e-01 3.573142e-01 0.000000e+00 0.000000e+00
 0.000000e+00 0.000000e+00 6.548079e-01 3.451921e-01 0.000000e+00
 0.000000e+00 0.000000e+00 0.000000e+00 7.546888e-01 2.453112e-01
 0.000000e+00 0.000000e+00 0.000000e+00 0.000000e+00 0.000000e+00
<ENDHMM>
~h "ea"
<BEGINHMM>
<NUMSTATES> 5
<STATE> 2
<MEAN> 39
 3.806772e+00 -9.800385e+00 -1.023280e+01 1.538589e+00 7.831172e+00 -1.797907e+01 -8.693045e+00 -2.297613e+01 -7.920789e+00 -7.967863e+00 -7.922928e-01 5.959291e-01 7.990769e+01 -1.038360e-01 -3.994817e-01 -6.464097e-01 7.708015e-02 -8.439348e-01 2.081281e-01 8.267776e-01 -7.271678e-01 5.328409e-01 -7.131577e-02 5.967703e-01 8.385609e-01 5.046983e-01 1.203763e-01 1.653643e-02 9.804077e-02 -2.666826e-01 -1.423863e-01 4.407451e-01 -1.046632e-01 4.586428e-01 -1.424741e-01 7.919020e-02 -1.933588e-01 -9.934056e-02 -2.386991e-01
<VARIANCE> 39
 5.980307e+00 1.122081e+01 3.564544e+01 3.361921e+01 1.280242e+01 3.072852e+01 2.616436e+01 3.342023e+01 2.811096e+01 2.238293e+01 2.970026e+01 5.792723e+01 1.369463e+01 9.148030e-01 7.105080e-01 1.030499e+00 2.777788e+00 2.278923e+00 1.982417e+00 2.081622e+00 4.308682e+00 1.787735e+00 2.675132e+00 2.052114e+00 2.630402e+00 5.633947e-01 1.085339e-01 1.581004e-01 9.986537e-02 2.030778e-01 2.458380e-01 1.970899e-01 4.249516e-01 8.946691e-01 3.658824e-01 3.399273e-01 5.117913e-01 5.782573e-01 3.035658e-02
<GCONST> 1.004779e+02
<STATE> 3
<MEAN> 39
 5.954959e+00 -1.244878e+01 -1.086213e+01 -1.767414e+00 3.821666e+00 -1.566541e+01 -7.379017e+00 -1.736882e+01 -1.231888e+01 -4.700124e+00 -2.714242e-01 4.108024e+00 7.934773e+01 4.346495e-01 -4.151797e-02 -1.728223e-01 -7.212821e-01 -1.304132e-01 2.583093e-01 4.383270e-01 1.376575e+00 -8.461306e-01 3.352470e-01 -6.902890e-01 3.510163e-02 -1.498534e-01 -2.057848e-02 1.688526e-01 8.577850e-02 -2.002868e-02 1.835205e-01 -4.085056e-02 -2.271915e-03 1.196084e-01 -9.218927e-02 3.013379e-02 -1.609273e-01 -2.684418e-01 -9.152675e-02
<VARIANCE> 39
 7.529306e+00 1.449608e+01 2.426433e+01 2.964549e+01 6.395996e+01 3.961889e+01 2.362218e+01 3.541536e+01 8.423941e+01 2.305964e+01 4.004319e+01 5.593830e+01 1.678113e+01 4.206791e-01 6.941107e-01 9.649397e-01 1.446919e+00 2.006130e+00 1.440758e+00 1.892907e+00 2.946140e+00 2.869628e+00 2.142081e+00 2.504800e+00 2.078726e+00 2.589146e-01 4.653228e-02 8.549219e-02 8.569796e-02 1.770662e-01 2.947648e-01 2.015592e-01 3.191496e-01 4.076907e-01 5.420520e-01 3.075108e-01 3.769208e-01 3.662075e-01 2.670944e-02
<GCONST> 9.764636e+01
<STATE> 4
<MEAN> 39
 8.259016e+00 -7.935343e+00 -1.328510e+01 -6.476230e+00 9.999666e-01 -1.167270e+01 -6.138685e+00 -9.196451e+00 -1.209986e+01 -4.850984e+00 -2.927922e+00 4.491112e-01 7.391218e+01 -1.028687e-01 1.010594e+00 -6.739394e-02 1.023360e-01 3.348300e-02 4.674546e-01 -6.913333e-02 9.917201e-02 3.376469e-01 -5.830714e-01 3.134801e-01 -6.102692e-01 -1.088707e+00 -1.411182e-01 1.627428e-02 1.199085e-01 1.112726e-01 -3.663405e-02 4.826411e-02 -4.060606e-02 -2.698884e-01 1.767179e-01 -1.056843e-01 1.698956e-01 6.934033e-02 -7.282512e-04
<VARIANCE> 39
 1.239823e+01 3.479788e+01 2.417278e+01 1.632030e+01 3.952154e+01 4.372159e+01 1.361460e+01 3.341248e+01 4.233305e+01 3.411848e+01 2.941228e+01 3.729647e+01 2.248037e+01 5.053568e-01 7.626408e-01 9.659269e-01 1.493276e+00 9.396321e-01 9.537883e-01 1.005216e+00 1.739856e+00 1.848401e+00 1.768682e+00 1.905357e+00 1.765237e+00 2.866517e-01 5.780502e-02 9.591254e-02 1.998957e-01 2.169131e-01 1.407794e-01 2.339065e-01 2.046933e-01 2.975353e-01 3.933765e-01 3.643349e-01 3.079820e-01 2.263077e-01 5.582937e-02
<GCONST> 9.365858e+01
<TRANSP> 5
 0.000000e+00 1.000000e+00 0.000000e+00 0.000000e+00 0.000000e+00
 0.000000e+00 7.376677e-01 2.623323e-01 0.000000e+00 0.000000e+00
 0.000000e+00 0.000000e+00 8.445531e-01 1.554470e-01 0.000000e+00
 0.000000e+00 0.000000e+00 0.000000e+00 8.340529e-01 1.659472e-01
 0.000000e+00 0.000000e+00 0.000000e+00 0.000000e+00 0.000000e+00
<ENDHMM>
~h "eh"
<BEGINHMM>
<NUMSTATES> 5
<STATE> 2
<MEAN> 39
 3.656501e-01 -2.246505e+00 -6.651354e-01 -6.370433e+00 6.136413e-01 -9.389927e+00 -8.269523e+00 -1.227562e+01 -6.155405e+00 -7.110768e+00 -4.456410e+00 -6.591992e+00 6.985215e+01 2.297010e+00 -1.152122e+00 -2.328527e+00 -1.102456e+00 9.939173e-02 -1.016028e+00 -1.743861e+00 -1.611586e+00 -1.205979e+00 -6.000159e-01 3.474078e-01 9.824771e-01 2.042879e+00 -2.939012e-01 -5.968463e-01 -2.321414e-01 3.610947e-01 2.656970e-01 6.188600e-02 1.082494e-01 -9.854922e-02 -1.459928e-01 2.371773e-02 3.477096e-01 5.324303e-01 1.489120e-01
<VARIANCE> 39
 7.821777e+01 8.257112e+01 9.683009e+01 6.222699e+01 7.405405e+01 3.757138e+01 6.104243e+01 8.383498e+01 6.624918e+01 4.835658e+01 3.361040e+01 4.643116e+01 7.359496e+01 6.231621e+00 6.599367e+00 6.758993e+00 4.774532e+00 7.740252e+00 4.818609e+00 3.968467e+00 5.723337e+00 7.472332e+00 4.781544e+00 4.564631e+00 5.680359e+00 2.819467e+00 1.111101e+00 9.503924e-01 1.142358e+00 8.523502e-01 1.007900e+00 5.131500e-01 8.554804e-01 1.391596e+00 1.213240e+00 8.146818e-01 6.679876e-01 7.607238e-01 4.784564e-01
<GCONST> 1.452665e+02
<STATE> 3
<MEAN> 39
 4.694630e+00 -9.874261e+00 -7.395928e+00 -6.190103e+00 3.161593e+00 -1.333816e+01 -1.251128e+01 -1.767716e+01 -1.090939e+01 -8.466076e+00 8.779538e-01 2.885075e-01 7.808881e+01 1.723884e-01 -1.471332e+00 -8.594224e-01 5.873284e-01 -4.870309e-01 -3.944418e-01 -3.903633e-01 -9.175122e-01 1.290314e-01 1.184582e-01 1.085588e+00 1.330621e+00 9.837561e-01 -3.518467e-01 3.604792e-01 5.065797e-01 2.756803e-01 3.353820e-02 4.362422e-01 3.875513e-01 2.683986e-01 3.559473e-01 3.370445e-02 -3.596216e-01 -4.962752e-01 -3.710731e-01
<VARIANCE> 39
 1.518847e+01 1.684677e+01 5.118944e+01 4.185038e+01 4.192949e+01 4.612813e+01 3.620906e+01 3.862763e+01 5.135131e+01 4.731909e+01 3.437724e+01 2.890880e+01 1.527112e+01 1.894192e+00 1.561108e+00 3.840502e+00 2.417338e+00 3.485206e+00 3.360106e+00 3.764834e+00 4.677992e+00 3.413998e+00 3.522580e+00 2.425783e+00 2.676766e+00 1.179472e+00 2.719343e-01 2.856021e-01 3.887802e-01 4.589768e-01 6.366078e-01 5.860780e-01 6.355692e-01 6.424155e-01 6.549821e-01 7.120341e-01 4.532983e-01 5.244904e-01 1.061810e-01
<GCONST> 1.196873e+02
<STATE> 4
<MEAN> 39
 4.193214e+00 -1.197674e+01 -6.797732e+00 -2.819181e+00 2.018534e+00 -9.431398e+00 -1.148250e+01 -2.002918e+01 -8.904043e+00 -7.815789e+00 1.315848e+00 1.379071e+00 7.862395e+01 2.061537e-01 2.437594e-01 4.642308e-02 5.198309e-01 7.050245e-01 6.924401e-01 4.455152e-01 4.608493e-01 -4.359467e-01 -1.243261e-01 -1.651176e-01 -2.580237e-01 -6.760646e-01 -1.853540e-02 2.006883e-01 6.607628e-02 2.876981e-02 1.783455e-01 8.701590e-02 5.254884e-02 2.562564e-01 -4.048580e-02 2.714035e-02 -1.971234e-02 -1.469521e-01 -2.276438e-01
<VARIANCE> 39
 1.488390e+01 1.365199e+01 3.072819e+01 3.536711e+01 4.018592e+01 4.878758e+01 2.457358e+01 3.991587e+01 5.553475e+01 3.643679e+01 3.013464e+01 2.270743e+01 2.243448e+01 8.568866e-01 7.754887e-01 1.588616e+00 1.977847e+00 2.158149e+00 2.131423e+00 2.053334e+00 2.501242e+00 2.026977e+00 2.097733e+00 1.926846e+00 1.661283e+00 8.153605e-01 1.854528e-01 1.172296e-01 2.875308e-01 3.278125e-01 3.532669e-01 3.946563e-01 4.518975e-01 5.090971e-01 4.381378e-01 3.607417e-01 3.857409e-01 3.118023e-01 9.220015e-02
<GCONST> 1.060320e+02
<TRANSP> 5
 0.000000e+00 1.000000e+00 0.000000e+00 0.000000e+00 0.000000e+00
 0.000000e+00 5.640092e-01 4.359908e-01 0.000000e+00 0.000000e+00
