~o
<STREAMINFO> 1 39
<VECSIZE> 39<NULLD><MFCC_D_A_0><DIAGC>
~s "silst"
<MEAN> 39
 -2.009322e+01 -5.217678e+00 -3.948289e+00 2.293506e-01 -9.885672e-02 -5.401731e-01 2.001535e+00 -9.074267e-01 -4.512892e-01 -5.530120e+00 -2.048979e+00 -3.435440e+00 4.533517e+01 6.310486e-01 -4.934136e-01 -3.286071e-01 -1.262152e-01 6.563978e-02 -6.587051e-01 -2.092391e-01 5.017520e-01 -1.510663e-01 -6.344305e-01 -2.775425e-01 4.481740e-02 8.175181e-01 4.166592e-01 -2.426107e-01 -1.370871e-01 -1.110907e-01 1.511295e-02 -2.726677e-01 -1.267792e-01 6.923889e-02 -1.225988e-01 -3.116162e-01 -1.745915e-01 -8.352123e-03 5.526729e-01
<VARIANCE> 39
 4.344705e+00 4.323563e+00 7.146432e+00 6.346195e+00 6.370587e+00 7.296854e+00 9.799962e+00 1.258233e+01 1.037704e+01 9.328855e+00 8.237037e+00 7.861038e+00 1.337826e+01 2.718383e+00 4.069704e+00 4.473186e+00 1.771927e+00 1.801056e+00 2.461980e+00 4.404215e+00 7.575408e+00 2.528275e+00 5.516270e+00 2.509041e+00 1.489869e+00 2.292403e+00 4.422398e-01 5.740504e-01 6.911315e-01 2.818155e-01 3.102518e-01 4.168112e-01 7.384299e-01 1.170138e+00 4.131100e-01 7.535831e-01 4.148176e-01 2.748267e-01 3.870452e-01
<GCONST> 1.031833e+02
~h "b"
<BEGINHMM>
<NUMSTATES> 5
<STATE> 2
<MEAN> 39
 -1.207646e+01 -3.488468e+00 -4.758436e+00 -1.953417e+00 7.951948e-02 -1.526280e+00 -7.778251e-02 -5.945398e+00 -5.290585e+00 -8.815873e+00 -1.237949e+00 -1.460891e+00 5.396091e+01 -4.020059e-01 9.096978e-03 -4.256877e-02 1.268711e-01 -4.620676e-02 -3.149657e-02 -2.786791e-02 3.074696e-01 5.240438e-01 9.182079e-02 -6.868390e-02 -1.744832e-02 -4.791363e-01 1.688648e-01 -1.148722e-01 1.667354e-02 -4.853640e-02 3.698988e-02 -1.948764e-01 -2.704902e-01 -1.391991e-02 3.598048e-02 8.868752e-03 -1.661884e-02 -4.633559e-02 2.599514e-01
<VARIANCE> 39
 5.336336e+01 2.274542e+01 3.640896e+01 3.026221e+01 2.423044e+01 2.087883e+01 1.972671e+01 2.692823e+01 2.749233e+01 1.933738e+01 1.782277e+01 2.357638e+01 3.235513e+01 7.576720e-01 8.232297e-01 1.602293e+00 1.187303e+00 1.062786e+00 1.264318e+00 1.358214e+00 1.358313e+00 1.547492e+00 1.365060e+00 1.182639e+00 1.268742e+00 4.458709e-01 2.042446e-01 1.656355e-01 1.495927e-01 2.295125e-01 3.197815e-01 4.462113e-01 3.736486e-01 2.648872e-01 2.828392e-01 2.764010e-01 2.759160e-01 2.479680e-01 1.945769e-01
<GCONST> 9.761734e+01
<STATE> 3
<MEAN> 39
 -6.050157e+00 -2.721016e+00 -2.846860e+00 -9.333544e-01 2.462266e+00 -2.627034e+00 -4.380492e+00 -5.148543e+00 -2.309484e+00 -8.810585e+00 -3.284765e+00 -4.902720e+00 5.947252e+01 3.224641e+00 -4.261897e-01 -1.288921e-01 8.832542e-02 3.210342e-01 -2.245865e+00 -3.075261e+00 -3.686505e-01 8.786552e-01 1.451265e-01 -9.117437e-02 -3.137332e-01 3.152469e+00 7.236434e-01 1.744260e-02 4.317256e-02 -5.290152e-02 -1.062078e-01 -6.395075e-01 -3.953835e-01 -2.834328e-01 -2.629671e-01 2.854282e-02 -1.759005e-01 1.225862e-01 6.911375e-01
<VARIANCE> 39
 7.863156e+01 3.759781e+01 3.139792e+01 5.969033e+01 6.980399e+01 3.970639e+01 5.986602e+01 5.049181e+01 3.652664e+01 2.587754e+01 2.744126e+01 1.793820e+01 5.988219e+01 1.017839e+01 4.259845e+00 5.748621e+00 8.226682e+00 1.127380e+01 8.066592e+00 5.283231e+00 4.714072e+00 4.764153e+00 3.184837e+00 4.132151e+00 2.399434e+00 4.376562e+00 1.368256e+00 8.355064e-01 6.073334e-01 1.003892e+00 1.266632e+00 1.129360e+00 1.143288e+00 7.754060e-01 8.548435e-01 6.869715e-01 5.722836e-01 5.184237e-01 8.018502e-01
<GCONST> 1.400381e+02
<STATE> 4
<MEAN> 39
 5.544871e+00 -1.527920e+00 -3.395120e+00 -1.455487e+00 -1.566815e+00 -1.356563e+01 -1.265480e+01 -5.604734e+00 9.885296e-01 -1.059110e+01 -6.060540e+00 -3.807946e+00 6.947969e+01 1.169621e+00 -6.132597e-01 -1.720283e-01 -2.303490e-01 -2.265531e-01 -1.470345e+00 -1.055694e+00 -4.212370e-01 -5.625632e-01 -4.151381e-01 -3.973888e-01 5.420293e-01 1.512059e+00 -5.166730e-01 -1.204958e-01 3.266844e-02 -1.052980e-01 -7.272467e-02 3.900941e-01 5.133502e-01 7.029653e-02 -2.933291e-01 8.998558e-02 1.051957e-01 1.504011e-01 -3.821699e-01
<VARIANCE> 39
 2.839263e+01 2.945218e+01 3.368215e+01 6.320596e+01 1.473409e+02 9.687016e+01 5.369156e+01 5.547852e+01 8.191694e+01 4.213274e+01 3.522804e+01 3.288353e+01 2.013586e+01 4.602532e+00 3.221554e+00 3.338084e+00 4.443172e+00 5.373418e+00 8.426221e+00 6.825104e+00 4.289985e+00 4.781532e+00 5.201900e+00 2.981308e+00 3.904205e+00 3.255007e+00 9.414271e-01 4.634508e-01 5.057994e-01 7.251276e-01 6.754480e-01 8.264253e-01 7.762508e-01 5.596969e-01 5.559934e-01 7.862651e-01 3.500410e-01 5.555198e-01 3.609988e-01
<GCONST> 1.345370e+02
<TRANSP> 5
 0.000000e+00 1.000000e+00 0.000000e+00 0.000000e+00 0.000000e+00
 0.000000e+00 8.340249e-01 1.659751e-01 0.000000e+00 0.000000e+00
 0.000000e+00 0.000000e+00 6.131846e-01 3.868154e-01 0.000000e+00
 0.000000e+00 0.000000e+00 0.000000e+00 5.638270e-01 4.361730e-01
 0.000000e+00 0.000000e+00 0.000000e+00 0.000000e+00 0.000000e+00
<ENDHMM>
~h "d"
<BEGINHMM>
<NUMSTATES> 5
<STATE> 2
<MEAN> 39
 -2.500512e+00 -5.022653e+00 -6.401556e+00 3.018862e-02 2.811113e+00 -2.095757e+00 -3.824539e+00 -1.016108e+01 -7.794232e+00 -9.197664e+00 -1.974174e-02 -1.154717e+00 6.246812e+01 -7.484923e-01 5.363926e-01 -1.123011e-01 1.434164e-01 6.013929e-02 3.533269e-01 4.079047e-01 1.969724e-01 3.052216e-01 7.436384e-02 2.413484e-01 4.343292e-01 -1.030661e+00 -1.342747e-01 -1.327285e-01 2.657410e-01 -1.868986e-01 1.570249e-02 -2.352744e-01 -2.308886e-01 -7.375863e-02 6.359023e-02 1.420286e-02 -1.278490e-01 -9.868421e-02 2.191246e-01
<VARIANCE> 39
 7.920499e+01 2.547067e+01 3.434184e+01 4.536647e+01 4.479119e+01 2.908702e+01 3.056871e+01 3.813272e+01 3.505165e+01 2.771363e+01 2.898438e+01 2.693748e+01 5.086897e+01 4.773940e-01 6.852780e-01 1.010266e+00 1.144051e+00 1.197775e+00 1.817773e+00 1.512556e+00 1.507612e+00 1.632253e+00 1.870777e+00 1.812933e+00 1.645662e+00 4.598521e-01 1.159992e-01 2.524227e-01 2.871432e-01 3.110244e-01 3.114394e-01 4.344729e-01 4.118446e-01 3.426863e-01 4.145816e-01 3.716679e-01 4.122139e-01 3.100447e-01 1.305708e-01
<GCONST> 1.045339e+02
<STATE> 3
<MEAN> 39
 -6.707156e-02 -1.922712e+00 -5.522633e+00 2.529277e+00 5.902820e+00 -2.187833e+00 -4.390130e+00 -1.012871e+01 -7.396581e+00 -9.834506e+00 -9.728625e-01 -1.829534e+00 6.339878e+01 -1.736584e+00 -1.088114e+00 1.625913e+00 -8.328733e-01 -5.168965e-02 -8.117727e-01 -4.475752e-01 4.824544e-01 1.079355e+00 2.166643e-01 -3.466900e-01 -3.615880e-01 5.593093e-01 -2.446864e-01 -7.345305e-01 7.427680e-01 -5.284622e-01 -6.750441e-03 -5.041400e-01 -3.255708e-01 7.709020e-02 8.194903e-02 1.102688e-01 -2.764855e-01 -4.227667e-01 9.178516e-01
<VARIANCE> 39
 4.067957e+01 2.423183e+01 4.270422e+01 6.094555e+01 4.937025e+01 4.418926e+01 3.851442e+01 4.788109e+01 5.214143e+01 3.943437e+01 3.923985e+01 2.914946e+01 2.992014e+01 2.293861e+00 4.273839e+00 4.732780e+00 5.311992e+00 4.287244e+00 4.855918e+00 5.093942e+00 5.230552e+00 6.128661e+00 4.462953e+00 4.086316e+00 2.631335e+00 1.970242e+00 5.090050e-01 5.337243e-01 7.498652e-01 7.690150e-01 6.357685e-01 8.083240e-01 6.509055e-01 7.355521e-01 8.011413e-01 6.629446e-01 6.783389e-01 4.177518e-01 2.407229e-01
<GCONST> 1.313256e+02
<STATE> 4
<MEAN> 39
 -7.856473e+00 -1.147053e+01 3.511239e+00 -6.550618e-01 2.765612e+00 -5.379516e+00 -4.646636e+00 -7.159921e+00 -4.564846e+00 -7.848233e+00 -1.529760e+00 -5.101623e+00 6.751804e+01 -6.526973e-01 -6.897601e-01 1.138232e+00 -2.150585e-01 -9.837106e-02 -2.284805e-01 -1.210717e-01 -1.666195e-01 -4.759767e-01 -1.231875e-01 -2.087648e-01 -4.526689e-01 4.775509e-01 4.642791e-01 4.552317e-01 -4.734403e-01 1.545944e-01 1.699045e-02 1.130377e-01 5.727363e-02 -1.576798e-01 -3.265371e-01 -1.157789e-01 -3.973139e-03 7.501715e-02 -2.015102e-01
<VARIANCE> 39
 4.509735e+01 5.527071e+01 6.452969e+01 6.282494e+01 5.778885e+01 5.893390e+01 6.869432e+01 5.750943e+01 6.546182e+01 6.036669e+01 4.892544e+01 2.875822e+01 5.371587e+01 5.464900e+00 5.872711e+00 6.721615e+00 6.203871e+00 3.857776e+00 4.132852e+00 4.763612e+00 3.756776e+00 5.001058e+00 2.997043e+00 3.663612e+00 2.653480e+00 4.344506e+00 6.603332e-01 6.131368e-01 8.243112e-01 1.004328e+00 6.759513e-01 7.982825e-01 8.157150e-01 6.730694e-01 1.036835e+00 6.502169e-01 6.315804e-01 4.409409e-01 5.201044e-01
<GCONST> 1.384028e+02
<TRANSP> 5
 0.000000e+00 1.000000e+00 0.000000e+00 0.000000e+00 0.000000e+00
 0.000000e+00 6.766093e-01 3.233907e-01 0.000000e+00 0.000000e+00
 0.000000e+00 0.000000e+00 4.267328e-01 5.732672e-01 0.000000e+00
 0.000000e+00 0.000000e+00 0.000000e+00 6.840239e-01 3.159761e-01
 0.000000e+00 0.000000e+00 0.000000e+00 0.000000e+00 0.000000e+00
<ENDHMM>
~h "f"
<BEGINHMM>
<NUMSTATES> 5
<STATE> 2
<MEAN> 39
 -1.741211e+01 -3.826230e-01 -2.834570e+00 -5.561419e+00 1.318858e+01 -9.999440e+00 7.794473e-01 -6.799174e+00 -6.239098e+00 -9.715582e+00 -2.800814e+00 -7.074506e+00 7.221788e+01 -2.163768e+00 2.522329e-01 1.863203e-01 -4.091465e-01 4.882828e-01 -2.129114e-01 3.653043e-01 3.999636e-01 1.541420e-01 -1.430022e-02 8.311494e-02 -5.677226e-01 -4.113527e-02 3.942267e-01 -2.008575e-01 -8.126537e-02 7.674046e-02 -3.109491e-01 3.260070e-02 -2.927877e-01 -5.645378e-02 7.893257e-02 4.743308e-02 -3.511996e-02 6.372155e-02 -3.613883e-02
<VARIANCE> 39
 7.674158e+01 2.745109e+01 3.888960e+01 6.589850e+01 8.143259e+01 4.752247e+01 3.831559e+01 6.056479e+01 4.628717e+01 4.309515e+01 3.023528e+01 3.996317e+01 3.175361e+01 4.056847e+00 2.029965e+00 1.564930e+00 1.839170e+00 2.876157e+00 2.816109e+00 4.142423e+00 2.545714e+00 2.821347e+00 2.485435e+00 2.148246e+00 2.148304e+00 1.258228e+00 4.655809e-01 2.527446e-01 2.792784e-01 3.479950e-01 4.991960e-01 5.470131e-01 6.279890e-01 5.117632e-01 5.052284e-01 4.971659e-01 3.937012e-01 4.379271e-01 2.243636e-01
<GCONST> 1.211244e+02
<STATE> 3
<MEAN> 39
 -2.328523e+01 -4.322599e+00 -5.155098e+00 -8.833815e+00 7.977216e+00 -1.129651e+01 -2.360633e+00 -5.519037e+00 -1.639982e+00 -8.726275e+00 -2.417888e+00 -9.004483e+00 7.244416e+01 2.954839e+00 -2.728400e-02 6.254238e-01 -3.869672e-01 -2.057927e+00 -1.025898e+00 -7.703400e-01 -6.513899e-01 4.415896e-01 5.350092e-01 3.374583e-01 3.523475e-01 2.463656e-01 1.338173e+00 7.492478e-01 5.468788e-01 -3.484927e-02 -1.023013e-01 -3.778051e-01 -1.270400e-01 -7.012938e-02 -2.611512e-01 1.992546e-01 -2.299046e-02 7.745390e-02 -6.478980e-02
<VARIANCE> 39
 3.929836e+01 2.739060e+01 2.869000e+01 4.415726e+01 8.465745e+01 4.058794e+01 3.414400e+01 4.325720e+01 4.463089e+01 4.144896e+01 2.203818e+01 3.294422e+01 2.068008e+01 5.683513e+00 4.749296e+00 5.032160e+00 3.947562e+00 5.418790e+00 4.116600e+00 3.185953e+00 3.529544e+00 3.739338e+00 3.584189e+00 1.545829e+00 2.569777e+00 1.722136e+00 3.413841e-01 5.518280e-01 6.054333e-01 6.640595e-01 9.175838e-01 5.931246e-01 7.538345e-01 5.137957e-01 5.772282e-01 6.406472e-01 3.402195e-01 5.283008e-01 1.828619e-01
<GCONST> 1.261627e+02
<STATE> 4
<MEAN> 39
 -3.022758e+00 3.633105e+00 2.135587e+00 -1.168419e+01 1.935459e-01 -1.844271e+01 -6.003724e+00 -7.409718e+00 -2.105143e+00 -5.054929e+00 -2.183423e+00 -8.334253e+00 7.293575e+01 5.188365e+00 1.160843e+00 2.245702e-03 -1.043355e+00 -1.707255e+00 -1.356220e+00 -2.015635e+00 -3.805512e-02 -1.469625e-02 1.543860e+00 -9.989851e-01 5.961978e-01 -6.137376e-02 -7.571786e-01 -8.242734e-01 -1.072295e+00 5.372237e-02 3.410753e-01 5.190041e-01 -2.208696e-01 2.489618e-01 -1.918683e-03 -1.382888e-01 -4.238400e-01 1.967294e-01 4.988312e-02
<VARIANCE> 39
 4.833041e+01 3.983921e+01 3.343179e+01 7.997735e+01 9.391354e+01 6.354885e+01 4.426955e+01 4.677939e+01 4.940297e+01 3.506124e+01 2.470015e+01 1.744874e+01 1.747270e+01 4.177285e+00 5.334998e+00 5.267534e+00 3.613089e+00 4.881860e+00 5.728627e+00 3.628308e+00 3.000720e+00 3.685994e+00 3.614092e+00 2.466600e+00 2.607558e+00 6.713703e-01 5.105157e-01 5.541681e-01 4.578182e-01 6.110482e-01 6.789956e-01 7.364917e-01 6.691090e-01 5.143461e-01 5.859009e-01 5.142373e-01 3.891155e-01 5.198253e-01 6.652931e-02
<GCONST> 1.258619e+02
<TRANSP> 5
 0.000000e+00 1.000000e+00 0.000000e+00 0.000000e+00 0.000000e+00
 0.000000e+00 8.831194e-01 1.168806e-01 0.000000e+00 0.000000e+00
 0.000000e+00 0.000000e+00 7.156352e-01 2.843648e-01 0.000000e+00
 0.000000e+00 0.000000e+00 0.000000e+00 5.946836e-01 4.053164e-01
 0.000000e+00 0.000000e+00 0.000000e+00 0.000000e+00 0.000000e+00
<ENDHMM>
~h "g"
<BEGINHMM>
<NUMSTATES> 5
<STATE> 2
<MEAN> 39
 -3.489095e+00 -4.982481e+00 -8.748847e+00 -5.227675e+00 6.070475e+00 -6.512353e+00 -2.988923e+00 -3.637829e+00 -2.627147e+00 -1.161453e+01 -2.630097e+00 -4.335223e+00 6.570287e+01 -5.831513e-01 -7.360877e-01 3.717665e-02 -1.848832e+00 -2.144437e-01 -1.839886e+00 6.703774e-01 1.233386e+00 3.029520e-01 -1.152015e+00 -7.263354e-01 -3.739309e-01 1.382594e+00 4.715143e-01 2.237902e-01 4.487136e-01 3.194777e-01 3.476739e-02 -8.207899e-02 -1.993223e-01 -5.023192e-01 -6.654041e-01 3.165118e-03 -2.707811e-02 -1.236001e-01 2.125028e-01
<VARIANCE> 39
 2.539171e+01 3.217731e+01 5.250439e+01 1.247920e+02 1.050871e+02 8.301910e+01 9.522447e+01 8.683872e+01 5.969569e+01 7.959287e+01 5.717024e+01 3.468893e+01 3.458969e+01 2.534739e+00 3.117599e+00 4.500253e+00 9.622873e+00 4.611560e+00 6.220080e+00 6.471592e+00 6.719584e+00 6.962802e+00 6.532514e+00 4.687792e+00 2.690649e+00 3.383502e+00 4.498987e-01 8.174891e-01 1.029355e+00 1.879395e+00 8.715594e-01 1.519621e+00 1.169085e+00 1.729101e+00 1.181288e+00 1.196529e+00 6.599482e-01 4.863845e-01 7.064084e-01
<GCONST> 1.449086e+02
<STATE> 3
<MEAN> 39
 -1.533193e+00 -4.346340e+00 -4.019535e+00 -6.678203e+00 7.290480e+00 -8.222154e+00 -8.116527e-01 -4.414205e+00 -7.571761e+00 -1.424243e+01 -4.306526e+00 -6.148007e+00 7.043044e+01 2.277554e+00 1.418774e+00 1.616943e+00 1.258275e+00 -1.383181e-01 5.240040e-01 -6.993203e-01 -1.758842e+00 -2.680897e+00 -2.367051e-01 -6.778508e-01 -1.131154e+00 4.183440e-01 4.866569e-01 2.989372e-01 -2.794001e-01 4.402829e-01 -1.687689e-01 1.818769e-01 -6.389487e-01 -7.708921e-01 6.891550e-02 8.435763e-01 3.270149e-03 -1.674655e-02 -3.067994e-01
<VARIANCE> 39
 3.004450e+01 3.078494e+01 6.321168e+01 9.259826e+01 6.993363e+01 2.426236e+01 9.404778e+01 5.396854e+01 9.208677e+01 5.896091e+01 7.747179e+01 3.645483e+01 1.901490e+01 2.635893e+00 2.444875e+00 3.805360e+00 4.676383e+00 3.046196e+00 5.196603e+00 5.545589e+00 6.870056e+00 2.405818e+00 4.890041e+00 3.279278e+00 3.910954e+00 6.119233e-01 4.398177e-01 4.837505e-01 1.076559e+00 9.791495e-01 5.498014e-01 9.586082e-01 9.640149e-01 7.424278e-01 1.282673e+00 7.804537e-01 1.072775e+00 7.446460e-01 3.529024e-01
<GCONST> 1.345758e+02
<STATE> 4
<MEAN> 39
 4.840130e+00 -1.153096e+00 -2.646830e+00 -4.758795e+00 4.531649e+00 -8.014825e+00 -5.611316e+00 -9.589105e+00 -1.185199e+01 -1.176717e+01 -5.075128e+00 -7.678859e+00 7.095646e+01 2.007296e+00 7.979003e-01 -3.087406e-01 2.252322e-01 -7.279244e-01 -9.488623e-01 -1.702756e+00 -1.518835e+00 -7.006188e-01 1.411242e+00 -6.578497e-01 -9.441244e-01 5.542802e-01 -4.850013e-01 -3.764694e-01 -7.041177e-01 -2.631792e-01 6.571741e-02 -4.638086e-01 -1.052047e-01 3.192744e-01 7.728592e-01 2.362769e-01 1.797725e-01 2.578965e-01 1.620237e-02
<VARIANCE> 39
 1.453978e+01 3.644139e+01 2.831833e+01 7.993146e+01 7.245621e+01 5.778962e+01 8.839284e+01 6.577168e+01 5.271262e+01 3.842411e+01 4.410710e+01 3.022344e+01 1.445139e+01 3.039032e+00 1.780195e+00 3.192759e+00 3.723668e+00 4.067217e+00 5.455525e+00 5.673288e+00 8.442038e+00 4.685117e+00 6.583531e+00 4.154515e+00 4.496741e+00 5.445464e-01 2.529806e-01 3.637935e-01 4.994839e-01 4.369316e-01 2.848999e-01 3.859698e-01 7.883824e-01 6.334881e-01 8.781587e-01 5.783693e-01 3.923901e-01 6.542752e-01 8.738019e-02
<GCONST> 1.257586e+02
<TRANSP> 5
 0.000000e+00 1.000000e+00 0.000000e+00 0.000000e+00 0.000000e+00
 0.000000e+00 7.139207e-01 2.860793e-01 0.000000e+00 0.000000e+00
 0.000000e+00 0.000000e+00 3.320988e-01 6.679012e-01 0.000000e+00
 0.000000e+00 0.000000e+00 0.000000e+00 2.739156e-01 7.260844e-01
 0.000000e+00 0.000000e+00 0.000000e+00 0.000000e+00 0.000000e+00
<ENDHMM>
~h "k"
<BEGINHMM>
<NUMSTATES> 5
<STATE> 2
<MEAN> 39
 -3.712226e+00 -2.571051e+00 -3.907436e+00 -3.548352e-01 5.687794e+00 -2.610843e+00 -4.237854e+00 -1.029062e+01 -6.842422e+00 -6.811900e+00 9.340944e-01 -4.119962e+00 6.275872e+01 -1.086944e+00 -2.573171e-01 -4.663492e-01 -3.223063e+00 1.733906e-02 -1.812558e+00 3.588581e-01 1.077665e+00 3.913371e-01 -4.073869e-01 -2.721391e-01 2.371363e-01 8.535921e-01 -1.426622e-01 -5.671895e-01 8.740641e-02 -8.677762e-01 -1.829507e-01 -8.045447e-01 1.148295e-01 3.100147e-01 1.508454e-01 -2.402098e-01 -2.176817e-01 -4.152770e-02 8.216020e-01
<VARIANCE> 39
 3.533492e+01 4.647705e+01 4.136907e+01 1.082138e+02 1.096112e+02 5.925003e+01 5.902148e+01 8.848413e+01 6.150213e+01 4.402675e+01 4.549949e+01 3.770096e+01 3.057902e+01 3.225177e+00 4.283620e+00 5.568104e+00 1.273866e+01 8.591203e+00 1.009788e+01 5.586948e+00 6.069983e+00 6.192107e+00 6.322534e+00 6.084379e+00 3.887952e+00 3.705050e+00 2.979933e-01 5.058117e-01 6.607774e-01 1.571636e+00 1.073247e+00 1.279066e+00 6.618298e-01 1.083065e+00 8.867172e-01 7.496675e-01 8.007082e-01 4.473074e-01 3.802054e-01
<GCONST> 1.423409e+02
<STATE> 3
<MEAN> 39
 -7.441236e+00 -7.074362e+00 -5.770345e+00 -1.623898e+01 3.405734e+00 -1.639460e+01 -1.635347e+00 -4.089303e+00 -3.693295e+00 -1.112769e+01 -1.534514e+00 -3.674202e+00 7.177315e+01 -1.062917e+00 -2.003788e+00 4.406195e-01 -2.354043e+00 -8.501533e-01 -1.645959e+00 6.960762e-01 9.123118e-01 9.005451e-02 -7.170276e-01 -3.015818e-01 -1.071704e-01 1.732267e+00 3.437901e-01 2.984073e-02 4.377150e-01 1.484532e+00 1.162574e-03 1.270663e+00 -1.660692e-01 -4.355439e-01 -3.678817e-01 4.211054e-01 7.571193e-02 -4.854586e-02 -6.906875e-01
<VARIANCE> 39
 2.456516e+01 5.784111e+01 5.361076e+01 1.071537e+02 1.162483e+02 1.123662e+02 8.656642e+01 7.822070e+01 6.623611e+01 1.033917e+02 8.212277e+01 5.405070e+01 2.393937e+01 2.846979e+00 3.943349e+00 5.390816e+00 1.120364e+01 6.604268e+00 1.062289e+01 4.397202e+00 5.953277e+00 6.403815e+00 4.751735e+00 4.482410e+00 3.458704e+00 3.715997e+00 5.265560e-01 8.275873e-01 7.473531e-01 1.444156e+00 1.657378e+00 1.493984e+00 9.987111e-01 1.154931e+00 1.193169e+00 1.195743e+00 1.056530e+00 7.251576e-01 4.820359e-01
<GCONST> 1.474539e+02
<STATE> 4
<MEAN> 39
 -6.711300e+00 -1.099012e+01 -2.792338e+00 -1.164903e+01 1.490180e+00 -9.740890e+00 -2.287862e+00 -4.300103e+00 -6.807578e+00 -9.557642e+00 -1.186900e+00 -4.187190e+00 6.949731e+01 1.271328e+00 8.550435e-01 9.524031e-01 1.892516e+00 -2.882377e-01 1.186044e+00 -5.152113e-01 -6.474897e-01 -4.793352e-01 7.568475e-01 -1.646859e-01 -2.387484e-01 -5.817533e-01 4.748411e-01 7.777215e-01 -8.578407e-02 2.040323e-01 -4.788669e-02 -2.050078e-01 -2.533143e-01 -3.864494e-01 6.038913e-02 2.981377e-02 -4.238104e-02 -6.731181e-02 2.263566e-02
<VARIANCE> 39
 3.317098e+01 5.289332e+01 6.564964e+01 8.318615e+01 7.814961e+01 9.556329e+01 6.595499e+01 8.266333e+01 5.971640e+01 6.641010e+01 5.725161e+01 3.598047e+01 2.845706e+01 3.868996e+00 5.477358e+00 3.328361e+00 3.480357e+00 3.975415e+00 4.055838e+00 4.033464e+00 4.152102e+00 3.586682e+00 3.803408e+00 2.293953e+00 2.149250e+00 1.022116e+00 4.828695e-01 8.666652e-01 7.659201e-01 9.069631e-01 6.085878e-01 8.152720e-01 7.199931e-01 6.972870e-01 5.255775e-01 6.087626e-01 4.311737e-01 3.902579e-01 2.483249e-01
<GCONST> 1.329310e+02
<TRANSP> 5
 0.000000e+00 1.000000e+00 0.000000e+00 0.000000e+00 0.000000e+00
 0.000000e+00 6.349294e-01 3.650706e-01 0.000000e+00 0.000000e+00
 0.000000e+00 0.000000e+00 5.938388e-01 4.061612e-01 0.000000e+00
 0.000000e+00 0.000000e+00 0.000000e+00 7.273803e-01 2.726197e-01
 0.000000e+00 0.000000e+00 0.000000e+00 0.000000e+00 0.000000e+00
<ENDHMM>
~h "l"
<BEGINHMM>
<NUMSTATES> 5
<STATE> 2
<MEAN> 39
 6.827438e+00 -5.209823e+00 -3.825228e+00 7.975194e-01 7.227338e+00 -5.203687e+00 -9.054585e+00 -9.433167e+00 -8.431828e+00 -1.197942e+01 -6.744170e+00 -5.737070e+00 7.199694e+01 5.093225e-01 2.354804e-01 -8.437428e-01 6.565104e-01 6.301619e-01 6.171694e-02 9.250429e-02 -4.194078e-02 -3.366714e-01 -7.443171e-01 -1.306954e-01 2.758378e-01 -5.975043e-02 -2.213406e-01 -4.529828e-03 1.709581e-01 -1.559888e-01 -1.394675e-02 -8.741561e-02 6.931609e-02 2.455088e-01 7.745782e-02 1.356688e-02 1.285546e-01 9.302840e-02 -6.869745e-02
<VARIANCE> 39
 1.454824e+01 3.695941e+01 4.780914e+01 3.930375e+01 3.953556e+01 4.620691e+01 2.830767e+01 6.704539e+01 5.033802e+01 3.968135e+01 3.629522e+01 2.997237e+01 1.771276e+01 7.611166e-01 1.824133e+00 2.699392e+00 2.939412e+00 2.044963e+00 4.200397e+00 2.635310e+00 3.787757e+00 3.382055e+00 2.742179e+00 2.214108e+00 2.199170e+00 8.076991e-01 1.053508e-01 2.157632e-01 3.509091e-01 3.894074e-01 3.642851e-01 5.400823e-01 4.801285e-01 5.938180e-01 5.244648e-01 4.867930e-01 3.457887e-01 3.477265e-01 9.018762e-02
<GCONST> 1.139305e+02
<STATE> 3
<MEAN> 39
 8.401260e+00 -6.931183e+00 -7.480656e+00 2.800110e+00 8.612934e+00 -5.164814e+00 -9.343117e+00 -9.874690e+00 -9.592211e+00 -1.561685e+01 -7.062242e+00 -2.666708e+00 7.231567e+01 -2.936577e-01 5.031453e-01 -1.285751e-01 2.945237e-01 4.489005e-01 6.653300e-01 3.357469e-01 1.663150e-01 4.405596e-02 -2.949015e-01 1.112668e-01 8.023196e-02 -6.107944e-01 -1.791755e-01 4.765141e-02 1.524775e-01 -2.048387e-01 -6.877126e-02 -1.050088e-01 1.383608e-02 8.610115e-03 2.722057e-02 1.962404e-01 4.653996e-02 -6.103361e-02 -2.721420e-02
<VARIANCE> 39
 9.419790e+00 2.012715e+01 2.606536e+01 3.388382e+01 2.978198e+01 3.366145e+01 2.038390e+01 3.219967e+01 3.726237e+01 3.268868e+01 4.082537e+01 2.817482e+01 1.302576e+01 4.481392e-01 7.106143e-01 1.098712e+00 1.400408e+00 1.478367e+00 2.239742e+00 1.674326e+00 2.041319e+00 1.877268e+00 1.592439e+00 1.730238e+00 1.248813e+00 3.554746e-01 4.705477e-02 1.008928e-01 1.709332e-01 2.319604e-01 2.353740e-01 4.495537e-01 2.979673e-01 3.756509e-01 3.344323e-01 3.447927e-01 2.840933e-01 2.363474e-01 4.723307e-02
<GCONST> 9.543896e+01
<STATE> 4
<MEAN> 39
 1.652812e+00 -1.036657e+00 -4.202313e+00 1.124376e+00 6.926087e+00 -2.773147e-01 -4.426067e+00 -9.856745e+00 -9.021677e+00 -1.369114e+01 -6.518231e+00 -4.317971e+00 6.488530e+01 -7.340043e-01 -9.229213e-03 3.866062e-01 -1.630216e-01 -2.204502e-01 -4.743377e-01 1.330430e-01 1.087174e-01 -4.143097e-02 2.474937e-01 1.988434e-01 -4.812768e-02 -3.113686e-01 -4.656224e-02 -2.658373e-01 6.675241e-02 -1.670669e-01 -1.299914e-01 -3.809004e-01 -2.531079e-01 -8.482147e-02 9.156501e-02 2.546464e-01 9.516228e-02 3.140168e-02 2.434504e-01
<VARIANCE> 39
 4.899535e+01 2.550052e+01 3.549923e+01 3.528592e+01 4.570211e+01 4.234756e+01 3.079953e+01 3.905888e+01 4.227388e+01 3.230471e+01 3.820205e+01 2.405803e+01 4.228976e+01 7.107638e-01 1.199088e+00 1.181453e+00 1.488491e+00 2.263906e+00 3.259875e+00 2.754163e+00 2.231191e+00 2.508951e+00 2.666206e+00 1.784259e+00 1.570976e+00 7.433431e-01 1.224518e-01 1.953109e-01 2.503398e-01 3.737473e-01 3.144320e-01 5.978964e-01 4.321340e-01 4.157315e-01 4.436995e-01 5.869794e-01 3.653769e-01 3.072507e-01 1.078826e-01
<GCONST> 1.099929e+02
<TRANSP> 5
 0.000000e+00 1.000000e+00 0.000000e+00 0.000000e+00 0.000000e+00
 0.000000e+00 4.380603e-01 5.619397e-01 0.000000e+00 0.000000e+00
 0.000000e+00 0.000000e+00 7.319376e-01 2.680624e-01 0.000000e+00
 0.000000e+00 0.000000e+00 0.000000e+00 6.744459e-01 3.255541e-01
 0.000000e+00 0.000000e+00 0.000000e+00 0.000000e+00 0.000000e+00
<ENDHMM>
~h "m"
<BEGINHMM>
<NUMSTATES> 5
<STATE> 2
<MEAN> 39
 9.287477e+00 -3.709427e+00 -1.053243e+01 1.809554e+00 7.739886e+00 -7.120643e+00 -1.056278e+01 -6.388385e+00 -3.622870e+00 -1.151451e+01 -4.778669e+00 -5.365294e+00 7.042252e+01 -1.406357e-02 7.458104e-01 -1.954671e-01 6.971563e-01 3.107190e-01 5.517922e-01 9.047177e-02 -9.494746e-02 1.144395e+00 4.672543e-01 -4.656126e-01 -8.109090e-01 -7.331201e-01 -1.513384e-01 -2.176043e-02 1.168115e-01 -2.972132e-01 -7.528546e-02 -1.461160e-01 -7.505798e-02 -1.871120e-01 -1.541371e-01 1.977853e-01 7.152149e-02 -1.333545e-02 9.559806e-02
<VARIANCE> 39
 1.334989e+01 1.781201e+01 3.132182e+01 4.426276e+01 2.530451e+01 2.224420e+01 2.933669e+01 2.916388e+01 3.737402e+01 2.622795e+01 1.959758e+01 3.069524e+01 1.139927e+01 5.735450e-01 5.857501e-01 9.830405e-01 2.015121e+00 1.332187e+00 1.492701e+00 1.635359e+00 1.414970e+00 1.830426e+00 1.615734e+00 9.151115e-01 1.322157e+00 3.002129e-01 5.057472e-02 9.386837e-02 1.132357e-01 2.214014e-01 2.130121e-01 2.695671e-01 3.000637e-01 2.602645e-01 2.570189e-01 2.847403e-01 1.944296e-01 2.189127e-01 2.769098e-02
<GCONST> 9.057796e+01
<STATE> 3
<MEAN> 39
 7.318303e+00 1.425781e+00 -7.043515e+00 3.065240e+00 7.802438e+00 -5.097813e+00 -1.016103e+01 -7.483479e+00 3.078005e+00 -3.865251e+00 -6.082209e+00 -1.278037e+01 6.707999e+01 -2.976872e-01 4.154100e-01 2.595395e-01 1.966405e-01 7.881297e-02 -4.740541e-02 -1.229746e-01 -3.460522e-01 2.944722e-01 6.958267e-01 2.298489e-01 -3.260367e-01 -3.451983e-01 -2.953992e-02 -8.884849e-02 6.201770e-02 -3.917244e-01 -2.824087e-01 -2.938885e-01 -3.060264e-02 3.937729e-02 -3.537478e-01 -2.604624e-01 6.214262e-02 3.101203e-01 1.594018e-01
<VARIANCE> 39
 1.083609e+01 1.513831e+01 2.572772e+01 2.402501e+01 2.047916e+01 4.236623e+01 3.675510e+01 3.266634e+01 3.524478e+01 2.588544e+01 2.101235e+01 2.569248e+01 7.326658e+00 4.921503e-01 5.527651e-01 1.182049e+00 1.560924e+00 1.357285e+00 1.498884e+00 2.344100e+00 1.451757e+00 1.743034e+00 1.377697e+00 9.806907e-01 1.344445e+00 2.756850e-01 5.259958e-02 1.031871e-01 1.449461e-01 3.004390e-01 2.357536e-01 3.484536e-01 3.768999e-01 2.616582e-01 3.100987e-01 2.858373e-01 1.991718e-01 2.551035e-01 4.526895e-02
<GCONST> 9.160496e+01
<STATE> 4
<MEAN> 39
 5.496198e+00 1.701295e+00 -5.712767e+00 2.237934e+00 6.622509e+00 -7.211165e+00 -1.120825e+01 -9.848763e+00 8.824212e-02 -5.297552e+00 -5.164407e+00 -1.060925e+01 6.667323e+01 -1.532156e-01 -4.142466e-01 -2.908145e-01 -2.073134e+00 -1.251726e+00 -1.552938e+00 -5.143006e-01 -4.676473e-02 -6.147046e-01 -5.105518e-01 1.884219e-01 1.320681e+00 8.668460e-01 -4.453374e-02 -4.410229e-01 -6.951142e-02 -4.482462e-01 -2.405369e-01 -4.900261e-01 3.126274e-02 3.037198e-01 -2.202749e-01 -1.657605e-01 1.388241e-01 5.355324e-01 4.141106e-01
<VARIANCE> 39
 2.035596e+01 1.951929e+01 3.515453e+01 3.566599e+01 2.647745e+01 3.978468e+01 4.777432e+01 3.574828e+01 4.243087e+01 4.604090e+01 2.191042e+01 3.235377e+01 1.553593e+01 2.306068e+00 2.246915e+00 4.529479e+00 4.582029e+00 4.690114e+00 5.266496e+00 3.831980e+00 3.445186e+00 3.187208e+00 5.039840e+00 2.654258e+00 3.909815e+00 1.170060e+00 2.654116e-01 2.167015e-01 4.189376e-01 6.253127e-01 5.287113e-01 6.765282e-01 7.285975e-01 4.104283e-01 5.096346e-01 7.998422e-01 4.731449e-01 7.569259e-01 1.376613e-01
<GCONST> 1.214835e+02
<TRANSP> 5
 0.000000e+00 1.000000e+00 0.000000e+00 0.000000e+00 0.000000e+00
 0.000000e+00 7.214552e-01 2.785448e-01 0.000000e+00 0.000000e+00
 0.000000e+00 0.000000e+00 7.135894e-01 2.864106e-01 0.000000e+00
 0.000000e+00 0.000000e+00 0.000000e+00 5.632343e-01 4.367657e-01
 0.000000e+00 0.000000e+00 0.000000e+00 0.000000e+00 0.000000e+00
<ENDHMM>
~h "n"
<BEGINHMM>
<NUMSTATES> 5
<STATE> 2
<MEAN> 39
 6.240017e+00 -7.400352e+00 -3.663765e+00 2.143313e+00 8.728493e+00 -6.013477e+00 -1.194556e+01 -1.294250e+01 -8.554783e+00 -9.185264e+00 -2.562284e-01 -3.436074e+00 7.284504e+01 7.545149e-01 8.724529e-01 -1.038817e+00 2.087193e+00 5.236899e-02 6.386062e-01 2.995334e-01 7.056704e-01 1.216549e+00 7.056959e-01 -3.232678e-02 -1.026982e+00 -1.232422e+00 -1.637429e-01 1.839151e-01 8.604799e-02 -1.285231e-01 -4.936254e-02 -3.779616e-01 -1.727230e-01 -3.261325e-02 1.696108e-01 1.544449e-01 -1.636015e-02 -1.049467e-01 -4.990332e-03
<VARIANCE> 39
 1.294140e+01 1.940404e+01 3.903065e+01 4.324118e+01 3.595737e+01 5.441163e+01 2.791074e+01 4.165714e+01 5.291992e+01 3.587646e+01 4.627971e+01 2.447572e+01 1.156578e+01 4.798775e-01 5.058014e-01 1.366263e+00 1.576282e+00 1.783745e+00 2.587449e+00 1.974122e+00 2.241379e+00 2.453274e+00 1.938190e+00 1.977111e+00 1.649984e+00 2.652123e-01 7.615838e-02 7.510573e-02 1.535522e-01 3.567383e-01 2.902978e-01 3.726859e-01 3.786916e-01 3.246139e-01 4.168208e-01 3.772085e-01 3.965099e-01 2.728967e-01 5.330855e-02
<GCONST> 1.006895e+02
<STATE> 3
<MEAN> 39
 7.284084e+00 -1.713087e+00 -6.150223e+00 6.023264e+00 9.189793e+00 -6.379057e+00 -1.296352e+01 -1.110475e+01 -1.801518e+00 -5.788373e+00 -2.983769e+00 -8.323569e+00 6.841087e+01 -3.882876e-01 9.423239e-01 1.811091e-01 3.216501e-01 6.514295e-02 1.238111e-01 9.999233e-02 3.792088e-02 6.607935e-01 4.502302e-01 -2.894603e-01 -5.788733e-01 -7.859890e-01 -2.710620e-01 -1.500139e-01 2.828299e-01 -3.088407e-01 -3.043376e-02 -4.572530e-02 1.221952e-01 2.930608e-03 -2.894205e-01 -2.055203e-01 5.524880e-02 2.914195e-01 1.122258e-01
<VARIANCE> 39
 9.766813e+00 1.748298e+01 1.743131e+01 2.970261e+01 1.923389e+01 3.189052e+01 2.536292e+01 2.781360e+01 4.830177e+01 2.608426e+01 5.107222e+01 2.322558e+01 7.555725e+00 4.631101e-01 4.400778e-01 1.050174e+00 1.210009e+00 1.033322e+00 1.432400e+00 1.757111e+00 1.593502e+00 1.762837e+00 1.340159e+00 1.312808e+00 1.348573e+00 1.550988e-01 5.945746e-02 9.254593e-02 1.596390e-01 2.737742e-01 2.175449e-01 3.063819e-01 3.594101e-01 3.330848e-01 3.203911e-01 2.920524e-01 3.104000e-01 2.679779e-01 3.937542e-02
<GCONST> 9.066816e+01
<STATE> 4
<MEAN> 39
 -5.550434e-01 8.961009e-01 -9.876239e-01 5.780941e+00 7.487936e+00 -3.824769e+00 -6.928544e+00 -8.225986e+00 -2.330613e+00 -6.870829e+00 -2.786992e+00 -6.223488e+00 6.266183e+01 -1.073633e+00 -1.946056e-01 5.664670e-01 -2.760346e-01 -2.832113e-01 4.102682e-02 6.376284e-01 4.375351e-01 -3.462491e-01 -4.633068e-01 2.437829e-02 4.209145e-01 -4.780111e-01 -1.117905e-01 -2.263312e-01 1.259125e-01 -4.362254e-01 -5.972623e-02 -4.228993e-02 -7.986926e-02 -9.626576e-03 -6.017635e-02 -1.044591e-01 -1.723951e-02 8.448133e-02 2.438262e-01
<VARIANCE> 39
 5.530077e+01 2.165166e+01 2.970122e+01 3.264059e+01 2.229594e+01 3.710045e+01 5.595588e+01 4.557023e+01 4.451624e+01 2.470632e+01 3.223480e+01 2.825277e+01 3.344029e+01 8.159164e-01 1.295029e+00 1.998042e+00 2.565269e+00 2.025542e+00 2.685820e+00 2.844031e+00 2.646031e+00 3.015465e+00 2.771859e+00 2.163453e+00 2.119821e+00 6.697482e-01 2.651514e-01 2.784864e-01 4.151700e-01 6.207110e-01 3.708642e-01 5.093639e-01 5.830317e-01 4.717952e-01 5.885427e-01 4.471674e-01 3.750548e-01 3.860217e-01 1.608973e-01
<GCONST> 1.141640e+02
<TRANSP> 5
 0.000000e+00 1.000000e+00 0.000000e+00 0.000000e+00 0.000000e+00
 0.000000e+00 5.978972e-01 4.021028e-01 0.000000e+00 0.000000e+00
 0.000000e+00 0.000000e+00 7.298467e-01 2.701534e-01 0.000000e+00
 0.000000e+00 0.000000e+00 0.000000e+00 6.981258e-01 3.018741e-01
 0.000000e+00 0.000000e+00 0.000000e+00 0.000000e+00 0.000000e+00
<ENDHMM>
~h "p"
<BEGINHMM>
<NUMSTATES> 5
<STATE> 2
<MEAN> 39
 -4.565283e+00 2.193839e+00 -1.151279e+00 -3.407252e-01 7.806800e-01 -3.494476e+00 -1.411443e+00 -5.296184e+00 -3.547929e+00 -9.062083e+00 -3.988784e+00 -5.470655e+00 5.923161e+01 -5.914344e-01 -1.860060e+00 -5.406860e-01 -4.173378e-01 4.754828e-01 -5.829611e-01 -1.306677e+00 -1.992342e-01 1.914064e-01 -4.840380e-01 -2.534313e-01 1.294450e-01 6.897495e-01 3.319664e-01 -8.249980e-01 -2.698593e-01 -1.987564e-01 2.858724e-01 -3.727633e-01 -4.162354e-01 -8.904173e-02 1.702296e-02 1.626978e-01 1.385548e-01 1.449713e-01 7.960504e-01
<VARIANCE> 39
 2.752522e+01 3.008311e+01 3.248877e+01 6.136034e+01 9.869940e+01 1.119895e+02 4.070174e+01 6.648799e+01 8.199407e+01 4.297824e+01 1.985860e+01 3.210070e+01 1.348597e+01 3.020337e+00 4.657689e+00 3.780379e+00 4.172845e+00 4.178279e+00 4.895928e+00 4.296648e+00 2.478834e+00 4.725218e+00 3.740866e+00 2.580261e+00 1.980166e+00 2.965159e+00 1.941919e-01 6.198883e-01 3.385927e-01 4.004224e-01 6.416689e-01 7.984878e-01 6.350362e-01 3.977202e-01 7.765789e-01 7.159874e-01 3.742867e-01 3.355545e-01 1.719530e-01
<GCONST> 1.262284e+02
<STATE> 3
<MEAN> 39
 -4.834426e+00 -1.210076e+01 -6.996953e+00 -4.297683e+00 3.340646e+00 -6.195429e+00 -6.218964e+00 -5.356854e+00 -1.977685e+00 -9.045497e+00 -4.251719e+00 -4.824378e+00 6.650941e+01 1.483122e+00 -6.801288e-01 -1.944338e-01 -4.008114e-01 4.805512e-01 -6.396290e-01 -4.526376e-01 1.971937e-01 7.151106e-02 3.601161e-01 9.616634e-02 3.140896e-01 1.822613e+00 5.085215e-01 1.532397e+00 7.702535e-01 1.997144e-01 -1.292080e-02 -3.357303e-01 8.667932e-02 1.579008e-02 -4.113409e-01 2.135570e-01 -5.066217e-02 7.073606e-04 -1.469643e-01
<VARIANCE> 39
 1.312157e+01 2.864570e+01 3.378283e+01 4.694796e+01 8.421110e+01 4.819054e+01 4.220131e+01 4.670741e+01 5.140245e+01 3.621931e+01 3.750862e+01 3.503222e+01 1.043376e+01 2.999837e+00 1.267254e+01 5.433444e+00 4.441782e+00 7.615044e+00 7.126662e+00 4.998368e+00 4.095034e+00 8.099302e+00 4.175402e+00 2.572897e+00 3.134052e+00 1.691688e+00 3.253090e-01 8.687219e-01 7.701149e-01 7.355286e-01 8.827357e-01 1.215139e+00 1.255912e+00 6.639371e-01 9.300410e-01 7.286459e-01 5.594300e-01 5.649836e-01 2.625881e-01
<GCONST> 1.330723e+02
<STATE> 4
<MEAN> 39
 2.675731e+00 -3.175470e+00 -1.596715e+00 -2.918316e+00 5.774893e+00 -1.100537e+01 -9.474882e+00 -6.120743e+00 -4.969676e+00 -6.486738e+00 -4.064486e+00 -4.208716e+00 7.081042e+01 2.219996e+00 1.995455e+00 7.092015e-01 -9.078820e-01 1.305555e-01 -2.658446e+00 -2.050399e+00 -3.909076e-01 -1.348018e+00 4.918020e-01 -4.260213e-01 5.663043e-01 1.745360e+00 -3.451861e-01 -5.403650e-01 -5.091645e-01 -3.570682e-01 -1.191338e-01 9.997682e-02 -7.482401e-02 -1.112906e-01 -2.256294e-01 -2.879284e-01 -5.565895e-02 1.066920e-01 -1.042386e-01
<VARIANCE> 39
 1.975340e+01 3.093910e+01 3.451191e+01 5.361447e+01 1.462106e+02 6.235995e+01 4.111774e+01 3.507359e+01 8.602775e+01 4.772522e+01 3.133980e+01 2.428103e+01 1.140952e+01 2.912366e+00 6.003610e+00 4.902220e+00 3.889260e+00 7.998648e+00 5.128943e+00 4.385694e+00 2.965765e+00 3.324576e+00 3.492478e+00 2.611797e+00 2.984980e+00 7.297817e-01 2.535128e-01 7.054343e-01 6.912812e-01 5.473625e-01 1.062788e+00 1.040091e+00 6.894768e-01 4.282444e-01 8.439443e-01 6.168700e-01 3.100828e-01 4.658762e-01 9.995345e-02
<GCONST> 1.269728e+02
<TRANSP> 5
 0.000000e+00 1.000000e+00 0.000000e+00 0.000000e+00 0.000000e+00
 0.000000e+00 6.247508e-01 3.752492e-01 0.000000e+00 0.000000e+00
 0.000000e+00 0.000000e+00 6.448900e-01 3.551100e-01 0.000000e+00
 0.000000e+00 0.000000e+00 0.000000e+00 4.839646e-01 5.160354e-01
 0.000000e+00 0.000000e+00 0.000000e+00 0.000000e+00 0.000000e+00
<ENDHMM>
~h "r"
<BEGINHMM>
<NUMSTATES> 5
<STATE> 2
<MEAN> 39
 5.353399e+00 4.238823e+00 -1.783980e+00 -4.574544e+00 2.782208e+00 -6.791317e+00 -5.130468e+00 -4.585724e+00 -6.566499e+00 -1.119076e+01 -7.932203e+00 -9.601555e+00 6.771859e+01 1.286869e+00 1.259318e+00 -1.186404e+00 -1.068239e+00 -1.518893e-01 -1.567268e-01 -7.457252e-01 -6.091336e-01 -1.573958e-01 3.677781e-01 -4.136549e-01 -5.229191e-01 1.215878e-01 -3.006915e-01 -6.726591e-01 -4.895486e-01 -1.825619e-02 5.679187e-01 -3.011366e-02 -3.155896e-01 -2.880959e-01 -1.518027e-02 1.233329e-01 1.988892e-01 3.401420e-01 1.425070e-01
<VARIANCE> 39
 1.449298e+01 5.222865e+01 5.090548e+01 6.527024e+01 7.453514e+01 4.572942e+01 4.507254e+01 2.482796e+01 4.712181e+01 4.031055e+01 2.653733e+01 3.300169e+01 1.916905e+01 1.237600e+00 3.152518e+00 3.613549e+00 2.593331e+00 5.035274e+00 3.401085e+00 3.115883e+00 3.880184e+00 4.530046e+00 3.667098e+00 2.227367e+00 2.464252e+00 6.725481e-01 2.434421e-01 4.711343e-01 4.947097e-01 4.481655e-01 6.865281e-01 4.815888e-01 4.742880e-01 5.126675e-01 7.401270e-01 5.711132e-01 4.210741e-01 4.579470e-01 6.845499e-02
<GCONST> 1.205138e+02
<STATE> 3
<MEAN> 39
 9.897994e+00 1.292740e+00 -1.099079e+01 -7.772780e+00 8.281162e+00 -8.080286e+00 -1.078236e+01 -6.777236e+00 -8.249782e+00 -1.147917e+01 -9.336284e+00 -7.279513e+00 7.121633e+01 1.695561e-01 1.162509e-02 -8.307115e-01 1.858818e-01 1.029214e+00 6.746787e-02 -5.999033e-01 -5.281170e-01 1.047627e-01 1.526584e-01 -4.305113e-03 2.257445e-01 3.133653e-02 -2.070593e-01 -4.031807e-01 2.285958e-01 3.353031e-01 3.359467e-02 -1.688598e-01 -8.720023e-03 1.264098e-02 5.222187e-02 2.000050e-02 2.123347e-01 2.185462e-01 1.165176e-01
<VARIANCE> 39
 5.621353e+00 3.562595e+01 2.738422e+01 5.223066e+01 7.699010e+01 4.896312e+01 2.712040e+01 3.441763e+01 4.470444e+01 4.065160e+01 2.538694e+01 4.753925e+01 9.338225e+00 3.335048e-01 1.865719e+00 2.199593e+00 1.695649e+00 3.368572e+00 2.697838e+00 2.829072e+00 2.784267e+00 3.164455e+00 2.750648e+00 1.775629e+00 2.412077e+00 7.021813e-01 8.309219e-02 1.999355e-01 1.883997e-01 2.286911e-01 3.799639e-01 4.136276e-01 3.338015e-01 3.505466e-01 4.479627e-01 3.208611e-01 2.946358e-01 3.578502e-01 5.100159e-02
<GCONST> 1.061253e+02
<STATE> 4
<MEAN> 39
 8.549179e+00 -1.489753e+00 -1.147380e+01 -3.405719e+00 1.455110e+01 -7.389216e+00 -1.320862e+01 -1.002718e+01 -1.016144e+01 -1.135178e+01 -6.707014e+00 -5.598364e+00 7.172792e+01 -3.989831e-01 -1.919616e+00 4.624494e-01 1.609076e+00 5.639970e-01 -7.893657e-01 -8.227798e-01 -4.063167e-01 -1.616838e-01 1.198855e-01 1.339746e+00 1.097208e+00 7.655659e-01 -2.903043e-01 8.825319e-03 7.440387e-01 1.647935e-01 -6.717221e-01 6.158592e-02 5.108282e-01 2.275423e-01 2.434779e-01 2.393763e-02 2.247014e-02 -1.569781e-01 -9.657314e-02
<VARIANCE> 39
 8.406720e+00 2.944428e+01 3.546009e+01 9.159950e+01 9.873169e+01 5.760802e+01 3.158749e+01 4.279015e+01 5.205438e+01 4.957647e+01 2.694826e+01 3.328096e+01 1.053691e+01 4.648125e-01 1.535756e+00 4.186400e+00 2.892950e+00 4.590853e+00 3.822569e+00 3.440649e+00 3.334044e+00 3.643609e+00 2.754524e+00 2.749375e+00 3.077729e+00 5.871535e-01 5.850130e-02 2.185692e-01 3.295195e-01 4.512312e-01 5.077310e-01 5.294665e-01 4.943585e-01 5.766877e-01 5.867074e-01 4.497789e-01 5.065383e-01 3.599331e-01 5.225377e-02
<GCONST> 1.146907e+02
<TRANSP> 5
 0.000000e+00 1.000000e+00 0.000000e+00 0.000000e+00 0.000000e+00
 0.000000e+00 5.952736e-01 4.047264e-01 0.000000e+00 0.000000e+00
 0.000000e+00 0.000000e+00 6.745083e-01 3.254918e-01 0.000000e+00
 0.000000e+00 0.000000e+00 0.000000e+00 5.377839e-01 4.622161e-01
 0.000000e+00 0.000000e+00 0.000000e+00 0.000000e+00 0.000000e+00
<ENDHMM>
~h "s"
<BEGINHMM>
<NUMSTATES> 5
<STATE> 2
<MEAN> 39
 -7.494143e+00 -5.915960e+00 9.253807e+00 -1.152666e+01 8.459179e+00 -3.075684e+00 -4.456481e+00 -1.136670e+01 -7.324116e+00 -8.067997e+00 -3.068485e+00 -5.861900e+00 7.471873e+01 -5.070171e+00 6.831821e-01 3.474603e+00 -2.937060e+00 6.383600e-01 8.250347e-01 1.833437e+00 -1.092163e+00 7.731366e-01 -1.408385e-01 3.791275e-01 -3.452204e-01 1.355558e+00 -3.240331e-01 3.399146e-01 -3.741898e-01 3.106406e-01 -3.835040e-01 -7.083061e-02 -1.132236e-01 -2.084237e-01 2.161286e-01 -9.426783e-02 4.560799e-03 1.091169e-01 8.175249e-02
<VARIANCE> 39
 1.102615e+02 3.204918e+01 9.754241e+01 8.689585e+01 5.531976e+01 6.550829e+01 7.764906e+01 8.122824e+01 7.679552e+01 5.364837e+01 4.046084e+01 3.835706e+01 2.887596e+01 3.175714e+00 2.135892e+00 3.761004e+00 3.799720e+00 3.150136e+00 3.168357e+00 4.132616e+00 3.224162e+00 4.371625e+00 3.700022e+00 2.956646e+00 2.889511e+00 7.223973e-01 1.154957e+00 2.907073e-01 1.105879e+00 1.326404e+00 5.273244e-01 5.620818e-01 8.019907e-01 7.051617e-01 7.415863e-01 6.369042e-01 5.049685e-01 4.362686e-01 2.483916e-01
<GCONST> 1.327888e+02
<STATE> 3
<MEAN> 39
 -2.759057e+01 -2.075293e+00 1.614787e+01 -1.573758e+01 5.959916e+00 4.022060e-02 1.675667e-01 -1.415105e+01 -4.214692e+00 -8.691274e+00 -2.318088e+00 -5.576317e+00 7.680025e+01 -1.025584e+00 -1.285866e-01 3.318473e-01 1.795637e-01 -4.035541e-01 -2.162495e-01 3.289276e-01 3.908148e-02 7.140730e-02 7.430775e-03 -2.164763e-01 7.073320e-02 -5.868431e-01 6.589400e-01 -2.832097e-01 -1.530520e-01 1.487623e-01 3.793612e-02 -2.231768e-01 -1.526177e-01 1.017344e-01 -1.670289e-01 5.804552e-02 -6.863657e-02 2.691377e-02 -2.314374e-01
<VARIANCE> 39
 3.600407e+01 2.440952e+01 3.793276e+01 4.306032e+01 4.086599e+01 4.084590e+01 5.894740e+01 4.875730e+01 4.321318e+01 3.117664e+01 3.060973e+01 2.775056e+01 1.711761e+01 2.417199e+00 1.615459e+00 1.303620e+00 1.444162e+00 1.526599e+00 2.245814e+00 1.790525e+00 1.936140e+00 2.155197e+00 1.642325e+00 1.509566e+00 1.262124e+00 8.185438e-01 2.627596e-01 1.766139e-01 2.880207e-01 3.383636e-01 2.870826e-01 3.525635e-01 3.465963e-01 4.161480e-01 3.950277e-01 3.263936e-01 2.944944e-01 2.692066e-01 1.078368e-01
<GCONST> 1.077711e+02
<STATE> 4
<MEAN> 39
 -2.044152e+01 -6.563052e+00 1.711809e+01 -1.341238e+01 4.478475e+00 -5.178209e+00 -9.450552e-01 -1.359537e+01 -6.355720e+00 -6.770781e+00 -4.827725e+00 -5.028284e+00 7.110947e+01 2.757651e+00 -2.818429e-01 -9.966833e-01 3.263411e-01 -3.996912e-01 -6.458889e-01 -1.125370e+00 3.866915e-01 -4.736018e-01 4.874915e-01 -2.804894e-01 9.733517e-02 -4.626011e-01 3.042795e-01 1.204362e-01 -5.084789e-01 1.005929e-01 -9.178635e-02 9.447125e-02 -2.023836e-01 1.100541e-01 9.027317e-02 1.897250e-02 9.131693e-02 -7.208513e-02 1.976540e-01
<VARIANCE> 39
 9.410728e+01 3.158163e+01 4.264322e+01 6.902784e+01 4.440953e+01 7.239671e+01 7.235698e+01 5.203296e+01 6.431239e+01 4.205289e+01 3.432345e+01 2.441204e+01 4.767817e+01 5.349924e+00 2.560337e+00 4.549166e+00 4.158163e+00 3.788654e+00 4.940144e+00 3.901592e+00 4.330757e+00 5.264211e+00 3.334200e+00 2.581295e+00 2.115724e+00 1.971730e+00 8.701466e-01 4.746311e-01 6.649054e-01 7.225464e-01 6.226814e-01 7.486157e-01 7.752274e-01 6.411688e-01 9.144424e-01 6.100466e-01 4.954644e-01 3.742895e-01 2.605317e-01
<GCONST> 1.323309e+02
<TRANSP> 5
 0.000000e+00 1.000000e+00 0.000000e+00 0.000000e+00 0.000000e+00
 0.000000e+00 7.272255e-01 2.727745e-01 0.000000e+00 0.000000e+00
 0.000000e+00 0.000000e+00 8.750792e-01 1.249208e-01 0.000000e+00
 0.000000e+00 0.000000e+00 0.000000e+00 8.285375e-01 1.714624e-01
 0.000000e+00 0.000000e+00 0.000000e+00 0.000000e+00 0.000000e+00
<ENDHMM>
~h "t"
<BEGINHMM>
<NUMSTATES> 5
<STATE> 2
<MEAN> 39
 -7.668573e+00 -6.581646e+00 3.018091e-02 -3.656920e+00 1.226717e+00 -7.571731e+00 -4.144092e+00 -8.989708e+00 -3.845993e+00 -8.553762e+00 -2.049552e+00 -5.320846e+00 6.695409e+01 -2.126091e+00 -1.801235e+00 1.603060e+00 -2.151585e+00 -6.031855e-01 -1.147307e+00 -2.743912e-01 -2.369765e-01 1.163814e+00 1.818285e-01 1.089116e-01 -8.360205e-01 2.398391e+00 -1.574101e-02 -3.829680e-01 3.484684e-01 -9.012842e-02 1.519591e-01 5.899032e-02 6.666040e-02 -1.789842e-01 -3.279901e-01 1.268383e-02 4.129208e-02 2.221929e-02 4.751404e-01
<VARIANCE> 39
 8.669499e+01 4.546386e+01 7.551443e+01 9.517851e+01 7.957186e+01 8.345244e+01 5.311411e+01 7.950407e+01 6.922280e+01 4.136554e+01 4.307841e+01 3.277246e+01 5.750679e+01 7.970397e+00 5.224047e+00 7.872460e+00 9.101116e+00 5.541731e+00 7.273606e+00 4.776503e+00 6.527274e+00 6.809461e+00 4.265487e+00 4.261805e+00 3.288746e+00 6.136256e+00 1.040366e+00 8.122707e-01 8.079250e-01 1.529541e+00 8.565143e-01 1.232491e+00 8.320583e-01 9.560683e-01 1.244981e+00 6.874987e-01 6.298361e-01 5.518667e-01 1.179553e+00
<GCONST> 1.470319e+02
<STATE> 3
<MEAN> 39
 -1.508969e+01 -1.566889e+01 5.880404e+00 -9.271972e+00 2.251523e+00 -8.423837e+00 -3.771718e+00 -9.936076e+00 -4.120721e+00 -9.025609e+00 -5.625983e-01 -6.412090e+00 7.463782e+01 1.024686e+00 -5.964949e-01 1.086442e+00 6.308287e-01 6.778489e-01 9.220168e-01 1.260658e-01 -1.062662e-01 -1.289698e+00 9.953462e-02 -6.417155e-02 3.125562e-01 1.139608e-01 1.227676e+00 9.650433e-01 -2.298545e-01 7.541324e-01 6.268533e-02 3.332644e-01 -1.875480e-01 -3.421778e-02 -4.162992e-01 3.267629e-02 -2.249005e-01 1.873758e-01 -6.573673e-01
<VARIANCE> 39
 6.911031e+01 4.586399e+01 5.524956e+01 4.267191e+01 4.865860e+01 6.404543e+01 3.819904e+01 4.769229e+01 4.404616e+01 4.366267e+01 3.940623e+01 2.612873e+01 2.340033e+01 7.137091e+00 4.546071e+00 4.457953e+00 4.426428e+00 3.609616e+00 3.925073e+00 3.734153e+00 3.725850e+00 4.095977e+00 2.813835e+00 2.770213e+00 2.128119e+00 2.167412e+00 8.999937e-01 7.160063e-01 9.791039e-01 9.512790e-01 7.645564e-01 9.755383e-01 7.688049e-01 7.664675e-01 9.060600e-01 5.469170e-01 6.186103e-01 5.618823e-01 5.901067e-01
<GCONST> 1.338264e+02
<STATE> 4
<MEAN> 39
 -6.308175e+00 -1.062048e+01 5.922536e+00 -3.289958e+00 2.180677e+00 -4.507093e+00 -4.366716e+00 -1.026911e+01 -9.017709e+00 -8.490022e+00 -1.445065e+00 -4.433492e+00 6.940457e+01 1.954432e+00 1.419974e+00 -3.416590e-01 8.991733e-01 -4.049190e-01 2.088714e-01 -5.723247e-01 -1.671278e-01 -6.059013e-01 7.116504e-02 -4.421247e-01 -1.359480e-01 -4.722866e-01 -2.278017e-01 -2.309657e-02 -5.592695e-01 -1.736844e-01 -1.512134e-01 -2.519963e-01 -2.265567e-02 2.109697e-02 3.125438e-01 -2.735295e-02 5.487316e-02 -4.081617e-02 -1.319882e-02
<VARIANCE> 39
 5.012775e+01 3.244694e+01 1.021338e+02 5.268257e+01 6.044755e+01 5.520858e+01 4.948752e+01 5.954343e+01 5.354764e+01 4.004827e+01 3.417555e+01 3.565026e+01 6.762120e+01 5.944739e+00 3.083299e+00 4.021246e+00 3.672305e+00 3.957370e+00 3.009407e+00 3.828671e+00 3.730615e+00 4.463218e+00 2.333754e+00 2.323130e+00 2.394161e+00 1.307113e+00 4.107729e-01 4.163124e-01 7.565128e-01 4.395389e-01 6.593903e-01 5.640817e-01 5.678458e-01 5.111925e-01 5.597580e-01 4.208431e-01 3.536561e-01 4.346168e-01 1.697876e-01
<GCONST> 1.276329e+02
<TRANSP> 5
 0.000000e+00 1.000000e+00 0.000000e+00 0.000000e+00 0.000000e+00
 0.000000e+00 6.192425e-01 3.807576e-01 0.000000e+00 0.000000e+00
 0.000000e+00 0.000000e+00 5.832158e-01 4.167842e-01 0.000000e+00
 0.000000e+00 0.000000e+00 0.000000e+00 6.442017e-01 3.557984e-01
 0.000000e+00 0.000000e+00 0.000000e+00 0.000000e+00 0.000000e+00
<ENDHMM>
~h "v"
<BEGINHMM>
<NUMSTATES> 5
<STATE> 2
<MEAN> 39
 -8.673561e+00 4.582393e-01 -1.702753e+00 -3.113386e+00 4.638383e+00 -7.262595e+00 -1.180004e+00 -6.527741e+00 -4.267889e+00 -7.472306e+00 -1.189458e+00 -3.146673e+00 6.472055e+01 -1.637816e-02 1.286793e+00 2.745267e-01 -1.074136e+00 -5.119118e-01 -1.491568e+00 -1.738638e-01 5.532430e-01 8.301973e-01 7.899992e-01 2.038389e-02 -4.651690e-01 3.916819e-01 3.635291e-01 -8.541679e-02 -5.500406e-02 -1.970111e-01 -2.851570e-01 -3.985559e-01 -3.670163e-01 -3.242807e-02 -5.359576e-02 5.425576e-02 -3.322754e-02 -6.131341e-02 3.346145e-01
<VARIANCE> 39
 9.037669e+01 4.507622e+01 7.325127e+01 6.575671e+01 1.294883e+02 1.125184e+02 5.139931e+01 6.662574e+01 5.493487e+01 4.548514e+01 3.813507e+01 3.670143e+01 7.105740e+01 1.073041e+01 3.030631e+00 2.206017e+00 4.169761e+00 7.057229e+00 7.710929e+00 4.669518e+00 2.607258e+00 3.220432e+00 3.698435e+00 2.415647e+00 2.330055e+00 2.084122e+00 1.076100e+00 5.241039e-01 3.860645e-01 6.947656e-01 7.990417e-01 8.854695e-01 6.031910e-01 4.321408e-01 5.333408e-01 5.385580e-01 4.272348e-01 5.306425e-01 2.372027e-01
<GCONST> 1.349128e+02
<STATE> 3
<MEAN> 39
 3.374894e+00 6.308894e-01 -2.674265e+00 -8.940153e+00 -7.014318e+00 -2.632156e+01 -5.641009e+00 2.176452e-01 -2.712667e+00 1.721626e+00 -5.404776e+00 -7.244332e+00 7.112117e+01 -4.658160e-01 1.148642e-01 -4.530018e-02 -1.327896e-01 4.675826e-01 -4.154563e-01 -1.817243e-01 1.614450e-01 2.918942e-01 -1.693048e-01 1.569847e-01 -3.508873e-01 8.575754e-01 -5.079037e-01 -1.379777e-01 6.533742e-03 1.844066e-01 1.684661e-01 5.909228e-01 4.957859e-02 -1.624203e-01 1.156104e-02 -3.336872e-01 1.884231e-01 1.030975e-01 -8.196639e-02
<VARIANCE> 39
 3.163633e+01 2.697428e+01 2.525653e+01 2.847797e+01 1.065404e+02 1.039722e+02 4.918582e+01 4.980492e+01 5.768979e+01 7.193002e+01 3.749083e+01 3.053728e+01 1.140156e+01 8.922642e+00 3.113519e+00 2.388888e+00 3.485108e+00 4.317595e+00 6.554327e+00 4.622696e+00 2.629510e+00 4.732015e+00 3.264066e+00 3.066320e+00 2.677118e+00 1.536394e+00 6.636850e-01 5.863930e-01 4.152837e-01 6.645521e-01 8.219886e-01 8.802211e-01 8.292654e-01 4.813164e-01 8.401480e-01 5.017878e-01 4.402662e-01 5.127376e-01 2.247287e-01
<GCONST> 1.291666e+02
<STATE> 4
<MEAN> 39
 -1.223170e+01 1.861511e+00 -1.889462e+00 -9.772696e+00 -1.539122e+00 -1.862605e+01 -9.912947e-01 -1.858534e+00 7.045647e-01 -3.367040e+00 -1.885572e+00 -7.574949e+00 7.172826e+01 -4.742302e-01 -4.892502e-01 5.555947e-01 1.324456e-01 -7.444290e-02 8.279353e-01 2.730597e-02 -5.400675e-01 -2.571259e-01 -2.433648e-01 3.446877e-02 -1.878203e-02 -5.792572e-01 6.489658e-01 -2.628104e-01 6.794289e-03 1.525392e-01 -8.022554e-02 3.724029e-02 -3.229496e-01 -1.934457e-01 -2.942126e-01 1.835479e-02 -1.592132e-01 6.435286e-02 -1.085989e-01
<VARIANCE> 39
 5.653468e+01 3.366825e+01 3.169889e+01 2.387501e+01 8.663309e+01 5.527105e+01 4.315813e+01 4.120723e+01 4.894209e+01 3.631656e+01 2.962514e+01 2.370854e+01 3.258995e+01 7.473804e+00 3.224205e+00 2.044949e+00 2.003003e+00 3.302893e+00 3.114478e+00 4.041535e+00 2.734413e+00 3.121535e+00 1.858424e+00 2.689528e+00 2.068454e+00 2.267591e+00 5.832084e-01 5.506563e-01 3.424433e-01 3.558185e-01 5.900583e-01 5.682896e-01 6.762325e-01 6.054978e-01 4.688446e-01 3.848886e-01 4.594424e-01 3.571081e-01 4.048825e-01
<GCONST> 1.233046e+02
<TRANSP> 5
 0.000000e+00 1.000000e+00 0.000000e+00 0.000000e+00 0.000000e+00
 0.000000e+00 7.100035e-01 2.899965e-01 0.000000e+00 0.000000e+00
 0.000000e+00 0.000000e+00 6.641443e-01 3.358557e-01 0.000000e+00
 0.000000e+00 0.000000e+00 0.000000e+00 8.090632e-01 1.909368e-01
 0.000000e+00 0.000000e+00 0.000000e+00 0.000000e+00 0.000000e+00
<ENDHMM>
~h "w"
<BEGINHMM>
<NUMSTATES> 5
<STATE> 2
<MEAN> 39
 2.293838e+00 5.024849e+00 -3.587157e-01 -4.862707e+00 -2.749240e+00 -9.366524e+00 -5.966833e+00 -6.068005e+00 -3.783339e+00 -8.399479e+00 -5.788174e+00 -8.623224e+00 6.448624e+01 1.088010e+00 7.835320e-01 -3.414027e-01 1.145300e-01 -1.902610e-01 -3.568378e-01 -5.176396e-01 -8.556722e-02 -3.267569e-01 -5.750254e-01 -2.568426e-01 -5.248046e-02 2.526027e-01 -1.700243e-01 -2.910892e-01 -8.188671e-02 8.477426e-02 3.208833e-01 1.605013e-02 -1.904052e-01 -1.978956e-01 -4.022505e-02 1.058958e-01 2.355561e-01 2.928461e-01 8.164016e-02
<VARIANCE> 39
 5.360361e+01 8.826849e+01 8.397319e+01 4.058867e+01 6.247188e+01 5.743911e+01 7.753262e+01 3.009542e+01 4.875043e+01 3.263190e+01 3.191241e+01 3.148293e+01 3.269103e+01 3.300728e+00 7.532115e+00 5.949849e+00 3.270266e+00 6.885886e+00 4.596909e+00 5.162297e+00 3.807188e+00 4.543837e+00 3.255317e+00 2.949117e+00 3.907848e+00 2.237660e+00 3.441513e-01 6.203938e-01 6.675097e-01 4.994434e-01 8.613690e-01 7.743864e-01 7.444777e-01 6.749405e-01 7.423171e-01 5.802041e-01 5.670467e-01 5.934566e-01 1.365939e-01
<GCONST> 1.328861e+02
<STATE> 3
<MEAN> 39
 -3.707958e-01 7.287071e-01 -3.094701e+00 -2.110271e+00 -5.017421e-01 -4.507292e+00 -2.400106e+00 -7.452302e+00 -7.477494e+00 -1.070618e+01 -3.281062e+00 -4.532000e+00 6.272960e+01 -4.790316e-02 1.167022e+00 2.915683e-01 3.152025e-01 -1.786811e-01 -2.394428e-01 -3.805432e-01 -3.422843e-01 3.161418e-01 5.226627e-01 4.784109e-01 4.431926e-01 -6.046151e-01 -5.112983e-02 -1.379705e-01 3.816546e-02 -1.446886e-01 9.464931e-03 -2.887383e-01 -2.300525e-01 3.870067e-03 1.574062e-01 1.847000e-01 -7.402823e-03 -3.380264e-02 1.375777e-01
<VARIANCE> 39
 6.141547e+01 7.304929e+01 7.809221e+01 3.686271e+01 5.445509e+01 4.112259e+01 5.646317e+01 3.443002e+01 3.220830e+01 2.399641e+01 2.261034e+01 3.280893e+01 2.779631e+01 1.331077e+00 2.557053e+00 1.445114e+00 2.035725e+00 2.913525e+00 2.043216e+00 2.706816e+00 2.329149e+00 1.872040e+00 1.528484e+00 1.479487e+00 1.906934e+00 7.527775e-01 9.085644e-02 2.748062e-01 4.091333e-01 2.771024e-01 4.423181e-01 5.291818e-01 4.792265e-01 4.289130e-01 3.220970e-01 3.656587e-01 3.028357e-01 2.990063e-01 4.634325e-02
<GCONST> 1.111413e+02
<STATE> 4
<MEAN> 39
 -2.396253e+00 7.363601e+00 2.824856e+00 -5.399375e-01 -3.511256e+00 -9.127075e+00 -5.949065e+00 -7.580383e+00 -3.721438e+00 -6.188784e+00 -1.859903e+00 -4.497632e+00 5.896450e+01 9.129932e-01 8.351450e-01 3.826415e-02 -4.654046e-01 -8.390259e-01 -1.506648e+00 -1.069857e+00 5.266355e-02 6.842847e-01 7.651368e-01 -4.715245e-02 -5.510019e-01 4.209930e-01 1.687291e-01 -3.443124e-01 -4.172333e-01 -3.183458e-01 7.751623e-02 -1.112405e-01 5.612034e-03 2.035251e-01 2.154208e-02 -5.609671e-02 -2.537075e-01 -2.465470e-01 2.834641e-01
<VARIANCE> 39
 8.611173e+01 7.675375e+01 6.249424e+01 2.615810e+01 3.015404e+01 5.670226e+01 5.935792e+01 2.731527e+01 2.560986e+01 2.480446e+01 1.467057e+01 2.116410e+01 4.070710e+01 2.118607e+00 2.622602e+00 2.736469e+00 2.509774e+00 2.302588e+00 2.761138e+00 2.277210e+00 2.215943e+00 2.087084e+00 1.686471e+00 1.394463e+00 1.868157e+00 8.489690e-01 2.515281e-01 6.413445e-01 5.221833e-01 3.030137e-01 4.513022e-01 4.203456e-01 3.292053e-01 4.145268e-01 4.760678e-01 4.190628e-01 2.527036e-01 2.932439e-01 9.130637e-02
<GCONST> 1.138388e+02
<TRANSP> 5
 0.000000e+00 1.000000e+00 0.000000e+00 0.000000e+00 0.000000e+00
 0.000000e+00 5.390915e-01 4.609085e-01 0.000000e+00 0.000000e+00
 0.000000e+00 0.000000e+00 6.457493e-01 3.542508e-01 0.000000e+00
 0.000000e+00 0.000000e+00 0.000000e+00 7.303285e-01 2.696714e-01
 0.000000e+00 0.000000e+00 0.000000e+00 0.000000e+00 0.000000e+00
<ENDHMM>
~h "y"
<BEGINHMM>
<NUMSTATES> 5
<STATE> 2
<MEAN> 39
 7.565355e-01 -9.085584e+00 2.738931e+00 5.762152e+00 1.058570e+01 -9.530046e+00 -6.175046e+00 -6.056264e+00 -1.247606e+01 -7.367105e+00 -2.976104e+00 -6.510465e+00 7.147040e+01 6.594853e-01 6.725990e-01 2.186943e-02 4.909063e-01 7.050716e-01 -2.441149e-01 -5.004090e-01 1.416184e-01 -2.306250e-01 3.818667e-01 3.170924e-01 -4.190784e-04 -5.267999e-02 -1.848985e-02 2.443134e-03 -3.406028e-01 -2.389482e-01 8.078559e-03 -2.477444e-02 -9.381337e-02 -6.378306e-02 1.450723e-01 -6.831060e-02 3.614442e-02 1.047071e-01 3.602493e-02
<VARIANCE> 39
 6.396700e+01 1.741658e+01 1.888103e+02 1.121375e+02 4.108549e+01 1.132792e+02 4.150365e+01 6.109855e+01 6.484789e+01 2.593680e+01 2.579744e+01 3.068136e+01 2.600344e+01 3.521152e+00 2.186390e+00 2.954906e+00 3.266527e+00 3.752109e+00 4.165864e+00 3.859672e+00 3.679898e+00 2.688492e+00 1.530386e+00 3.730089e+00 2.034882e+00 7.922915e-01 3.438538e-01 1.612470e-01 3.668286e-01 6.460046e-01 4.294637e-01 7.264884e-01 5.522821e-01 5.948035e-01 5.445626e-01 3.253966e-01 4.230307e-01 2.566335e-01 1.311815e-01
<GCONST> 1.226244e+02
<STATE> 3
<MEAN> 39
 1.494219e+00 -7.106030e+00 4.692067e+00 1.173737e+01 2.178359e+01 -6.010766e+00 -1.374486e+01 -8.758495e+00 -1.085899e+01 -8.306274e+00 3.485567e-01 -3.265625e+00 7.057572e+01 1.411994e+00 7.872870e-01 -2.033301e+00 -1.776199e+00 -7.222468e-01 1.119001e+00 8.401994e-01 2.063806e-01 -2.424303e-01 -1.115419e+00 -5.680077e-01 1.465392e-01 2.289855e-01 -2.147980e-01 3.227202e-03 -4.414833e-02 -4.474602e-01 -7.176251e-01 -3.825242e-02 5.205700e-01 3.403482e-01 4.506711e-01 -1.744123e-01 -4.151427e-01 -2.095665e-01 -6.688826e-02
<VARIANCE> 39
 2.546957e+01 1.352590e+01 4.966917e+01 6.665202e+01 6.726674e+01 5.581709e+01 5.060018e+01 3.199962e+01 4.899037e+01 2.885325e+01 4.022610e+01 4.762978e+01 1.647925e+01 8.395848e-01 1.231273e+00 2.279468e+00 4.197957e+00 6.175945e+00 3.326538e+00 4.778973e+00 3.776481e+00 3.777440e+00 3.329305e+00 4.513447e+00 3.085542e+00 6.331594e-01 2.311866e-01 2.107953e-01 3.022412e-01 6.729943e-01 8.184735e-01 5.740607e-01 8.020559e-01 6.243703e-01 6.108005e-01 8.304971e-01 6.718231e-01 5.769392e-01 9.918715e-02
<GCONST> 1.217763e+02
<STATE> 4
<MEAN> 39
 6.871822e+00 3.389597e+00 -2.135447e+00 -7.908619e-02 6.645535e+00 -4.182649e+00 -6.366483e+00 -4.044039e+00 -2.795506e+00 -8.681610e+00 -4.567242e+00 -7.467365e+00 6.803201e+01 3.384451e-02 9.750665e-01 -1.215991e-01 -5.400974e-01 -1.150323e+00 -4.909347e-01 1.570247e-01 3.911103e-01 1.521769e+00 6.030610e-01 -4.602099e-01 -4.383141e-01 -4.410630e-01 -1.648354e-01 -1.486422e-01 1.591988e-01 2.067689e-01 2.119333e-01 -1.561627e-03 -1.431173e-01 -1.420581e-01 -1.391414e-01 7.571040e-02 1.990191e-01 6.669340e-02 -1.562506e-02
<VARIANCE> 39
 1.025733e+01 3.487927e+01 2.550598e+01 3.643993e+01 5.514368e+01 4.687119e+01 4.232243e+01 3.866324e+01 8.743743e+01 6.206657e+01 3.273700e+01 3.312752e+01 1.385691e+01 3.424787e-01 8.010650e-01 1.121177e+00 1.957170e+00 2.749957e+00 1.972180e+00 1.907685e+00 1.631453e+00 1.993557e+00 2.548729e+00 2.183181e+00 1.496115e+00 3.621434e-01 5.847277e-02 7.407863e-02 2.195465e-01 2.607118e-01 3.060567e-01 3.709672e-01 4.933491e-01 3.757630e-01 3.746340e-01 5.355949e-01 3.917025e-01 3.004650e-01 2.071777e-02
<GCONST> 1.021921e+02
<TRANSP> 5
 0.000000e+00 1.000000e+00 0.000000e+00 0.000000e+00 0.000000e+00
 0.000000e+00 8.026309e-01 1.973691e-01 0.000000e+00 0.000000e+00
 0.000000e+00 0.000000e+00 7.456046e-01 2.543954e-01 0.000000e+00
 0.000000e+00 0.000000e+00 0.000000e+00 8.047001e-01 1.952998e-01
 0.000000e+00 0.000000e+00 0.000000e+00 0.000000e+00 0.000000e+00
<ENDHMM>
~h "z"
<BEGINHMM>
<NUMSTATES> 5
<STATE> 2
<MEAN> 39
 -1.740713e+01 -1.457077e+00 1.274358e+01 -1.670466e+01 5.029804e+00 -9.414259e-01 -3.078724e+00 -1.315782e+01 -3.290614e+00 -6.861850e+00 -3.289390e+00 -6.786209e+00 7.767281e+01 -3.502900e+00 6.808122e-01 1.617163e+00 -1.200446e+00 -1.180860e-01 4.786656e-01 8.296617e-01 -5.237781e-01 6.718922e-01 -1.953613e-01 -1.647347e-02 -1.310876e-01 3.425453e-01 5.689684e-01 -1.900251e-01 -4.241852e-01 5.245118e-01 -1.572435e-01 -2.908342e-01 -3.728682e-02 8.850743e-02 -1.850324e-01 -2.098227e-02 -1.549636e-01 4.118696e-02 -2.586637e-01
<VARIANCE> 39
 1.173710e+02 2.826308e+01 6.105679e+01 8.494575e+01 5.938195e+01 9.135922e+01 5.193996e+01 7.872844e+01 4.409627e+01 3.804089e+01 3.615202e+01 2.658305e+01 1.717127e+01 5.243481e+00 2.570226e+00 4.517966e+00 5.373456e+00 2.129769e+00 2.926748e+00 3.035424e+00 3.085766e+00 3.016698e+00 2.647720e+00 2.203740e+00 1.817885e+00 1.103571e+00 7.285643e-01 4.401889e-01 6.263408e-01 6.301892e-01 3.671596e-01 4.990991e-01 4.939245e-01 5.846205e-01 4.976616e-01 5.050946e-01 3.957281e-01 3.690799e-01 1.442219e-01
<GCONST> 1.255640e+02
<STATE> 3
<MEAN> 39
 -2.247991e+01 -5.329170e+00 1.305753e+01 -1.275419e+01 2.941925e+00 -1.712843e+00 -4.413575e-02 -1.249769e+01 -3.843888e+00 -6.860841e+00 -5.783966e+00 -5.261001e+00 6.743732e+01 5.196669e-01 -4.391339e-01 -2.805906e-01 4.158144e-01 -1.471261e-01 -1.277532e-01 4.436897e-02 2.285352e-01 -4.519391e-01 -3.538460e-02 -2.179379e-01 2.347528e-01 -1.299772e+00 1.976283e-01 5.417855e-02 -1.199033e-01 -7.537034e-03 -1.955508e-02 5.137823e-02 -1.548467e-01 9.185979e-02 -5.674747e-02 7.318394e-02 1.700213e-02 1.921679e-02 -5.797222e-02
<VARIANCE> 39
 4.166014e+01 2.310764e+01 1.120709e+02 7.899701e+01 5.817234e+01 4.035046e+01 4.144262e+01 5.456093e+01 2.933805e+01 3.224558e+01 3.122317e+01 3.195789e+01 8.837363e+01 1.225855e+00 1.083003e+00 2.466100e+00 2.119840e+00 1.576944e+00 2.078203e+00 2.036523e+00 1.904798e+00 2.160289e+00 1.433467e+00 1.788232e+00 1.159278e+00 5.480118e-01 1.731216e-01 1.333247e-01 2.421005e-01 3.416016e-01 2.840077e-01 4.042736e-01 3.768018e-01 3.606618e-01 3.700910e-01 2.500364e-01 2.645501e-01 2.514081e-01 5.850280e-02
<GCONST> 1.087467e+02
<STATE> 4
<MEAN> 39
 -1.586729e+01 -4.883451e+00 1.442663e+01 -1.254426e+01 1.611607e+00 -2.998551e+00 -1.979723e+00 -1.095983e+01 -7.671887e+00 -7.472248e+00 -7.186859e+00 -5.612388e+00 6.652563e+01 2.279601e+00 -4.065345e-02 -1.499744e+00 1.204337e+00 -8.077581e-01 -6.682553e-01 -1.018454e+00 8.904784e-01 -3.873950e-02 4.172567e-01 7.780074e-02 -2.289308e-01 -4.752852e-01 2.246878e-01 8.006748e-02 -4.937374e-01 2.090354e-01 -4.614293e-02 -2.924521e-01 -1.258548e-01 -1.578935e-01 2.554836e-01 3.615199e-02 3.293660e-01 -8.043335e-02 4.437912e-01
<VARIANCE> 39
 7.582207e+01 3.113998e+01 8.261130e+01 1.252759e+02 7.575829e+01 8.505414e+01 8.188291e+01 6.128878e+01 5.741643e+01 3.580261e+01 2.830520e+01 2.402327e+01 5.410159e+01 3.591662e+00 3.506660e+00 5.977742e+00 5.439677e+00 5.190848e+00 5.709994e+00 5.232819e+00 3.609576e+00 4.833411e+00 3.671095e+00 3.246529e+00 2.854351e+00 2.731785e+00 6.088941e-01 5.476811e-01 9.519834e-01 8.800526e-01 8.098677e-01 9.415358e-01 8.696631e-01 6.805876e-01 7.557109e-01 7.503121e-01 6.130667e-01 5.656916e-01 3.492103e-01
<GCONST> 1.378227e+02
<TRANSP> 5
 0.000000e+00 1.000000e+00 0.000000e+00 0.000000e+00 0.000000e+00
 0.000000e+00 8.526035e-01 1.473965e-01 0.000000e+00 0.000000e+00
 0.000000e+00 0.000000e+00 8.707249e-01 1.292751e-01 0.000000e+00
 0.000000e+00 0.000000e+00 0.000000e+00 7.577584e-01 2.422416e-01
 0.000000e+00 0.000000e+00 0.000000e+00 0.000000e+00 0.000000e+00
<ENDHMM>
~h "aa"
<BEGINHMM>
<NUMSTATES> 5
<STATE> 2
<MEAN> 39
 6.308506e+00 -9.453497e+00 -1.091945e+01 -1.337004e+01 -8.058219e+00 -2.021305e+01 1.734945e+00 -3.584859e+00 -1.575669e+00 3.462799e+00 -1.080586e+01 -3.415088e+00 7.846066e+01 2.358442e-01 -3.272896e-01 2.277321e-02 1.952650e-01 -2.586942e-01 3.136625e-01 3.507530e-01 -3.992971e-02 -2.014715e-01 3.879628e-02 -1.398223e-01 2.964399e-01 1.734996e-01 -1.212749e-01 1.305790e-01 1.107778e-01 7.640521e-02 8.612605e-02 2.789066e-01 -9.023801e-02 6.888809e-03 5.392845e-02 -2.202511e-01 2.022732e-01 -9.770902e-02 -1.766835e-01
<VARIANCE> 39
 1.113661e+01 2.287996e+01 1.540444e+01 3.187564e+01 3.363339e+01 5.814169e+01 3.538427e+01 3.251846e+01 3.146072e+01 3.801839e+01 3.899853e+01 2.797109e+01 1.644065e+01 4.361567e-01 1.062152e+00 1.314375e+00 1.623088e+00 1.458693e+00 3.048171e+00 1.934545e+00 1.729195e+00 2.096431e+00 2.508679e+00 2.646281e+00 1.723115e+00 8.913576e-01 1.265405e-01 1.584482e-01 2.370074e-01 2.698913e-01 2.538927e-01 3.658641e-01 3.220019e-01 3.698581e-01 3.745068e-01 3.401867e-01 5.017170e-01 3.162919e-01 6.117177e-02
<GCONST> 1.028137e+02
<STATE> 3
<MEAN> 39
 5.035941e+00 -7.558678e+00 -1.103239e+01 -1.020088e+01 -9.748481e+00 -1.151722e+01 2.470406e+00 -2.018904e+00 -3.367799e+00 -4.710032e+00 -3.672491e+00 -2.109159e+00 7.111865e+01 -1.273966e+00 8.163213e-01 4.513422e-02 -3.537166e-01 4.329851e-01 8.745304e-01 -3.033563e-01 9.029634e-01 4.334747e-01 -1.177450e+00 1.323183e+00 -5.214909e-01 -9.748324e-01 -4.467736e-01 9.626394e-02 2.718856e-01 -3.637580e-01 3.367172e-01 -3.403169e-01 -1.398373e-01 6.259377e-02 -7.956391e-02 1.063416e-01 -1.463964e-01 -2.022472e-01 2.726081e-01
<VARIANCE> 39
 1.901093e+01 2.941979e+01 1.510319e+01 2.109823e+01 2.677093e+01 4.185901e+01 2.862056e+01 4.149663e+01 3.503493e+01 3.125471e+01 3.867088e+01 1.909326e+01 4.295690e+01 1.151460e+00 7.932088e-01 1.975181e+00 1.809953e+00 2.065065e+00 1.917415e+00 2.392609e+00 2.112515e+00 1.687667e+00 1.887527e+00 3.320552e+00 1.547225e+00 4.661798e-01 3.636496e-01 1.801815e-01 4.101926e-01 2.914269e-01 3.050684e-01 3.416758e-01 4.362436e-01 4.805878e-01 4.743871e-01 3.006281e-01 4.546492e-01 2.412686e-01 1.281532e-01
<GCONST> 1.065592e+02
<STATE> 4
<MEAN> 39
 -7.829091e+00 -5.349470e+00 -2.614501e+00 -1.710099e+01 -3.147381e+00 -1.051009e+01 4.683885e-01 -2.224514e-02 -9.503003e-01 -6.272528e+00 -8.982079e-01 -4.892549e+00 7.425584e+01 -1.745170e+00 3.253548e-01 9.688427e-01 -5.771200e-01 4.257841e-01 3.393010e-01 -2.017609e-01 -2.386498e-01 -1.968468e-01 -4.653473e-01 1.929785e-01 -5.122793e-01 -1.063912e-01 3.914405e-01 -1.689105e-01 -7.418924e-02 1.627817e-01 -1.848572e-01 3.213309e-02 6.292191e-02 -2.669388e-01 -8.300364e-02 2.667459e-01 -3.761188e-01 1.657792e-01 -8.276591e-02
<VARIANCE> 39
 8.188171e+01 7.680587e+01 7.572916e+01 3.115419e+01 4.988744e+01 4.289166e+01 4.281483e+01 4.200354e+01 3.076102e+01 2.791933e+01 2.534279e+01 2.269690e+01 4.730610e+01 6.673965e+00 2.710855e+00 4.008053e+00 3.879054e+00 2.620865e+00 3.576041e+00 2.900462e+00 2.965138e+00 2.299904e+00 2.036288e+00 3.576409e+00 2.082883e+00 1.752462e+00 7.394782e-01 4.423986e-01 6.733786e-01 2.657773e-01 3.532467e-01 5.712339e-01 5.201127e-01 5.119914e-01 2.920151e-01 4.292388e-01 6.938649e-01 3.249885e-01 2.796710e-01
<GCONST> 1.238601e+02
<TRANSP> 5
 0.000000e+00 1.000000e+00 0.000000e+00 0.000000e+00 0.000000e+00
 0.000000e+00 9.164562e-01 8.354383e-02 0.000000e+00 0.000000e+00
 0.000000e+00 0.000000e+00 7.572494e-01 2.427507e-01 0.000000e+00
 0.000000e+00 0.000000e+00 0.000000e+00 7.612238e-01 2.387762e-01
 0.000000e+00 0.000000e+00 0.000000e+00 0.000000e+00 0.000000e+00
<ENDHMM>
~h "ae"
<BEGINHMM>
<NUMSTATES> 5
<STATE> 2
<MEAN> 39
 -2.727095e+00 -6.573680e+00 -4.486532e+00 -3.382943e+00 5.343492e-01 -6.207203e+00 -1.244425e+01 -1.621792e+01 -2.490136e+00 -5.941754e+00 1.775016e+00 -7.199475e-01 6.725677e+01 2.131406e+00 -8.388065e-01 -7.861372e-01 -4.114686e-02 -6.607312e-01 -9.967129e-01 -1.931036e+00 -2.014904e+00 3.569493e-01 4.247139e-02 1.238149e+00 1.090258e+00 2.879340e+00 -1.410283e-01 -1.638715e-01 1.478669e-01 9.073360e-02 1.241379e-01 -5.459191e-02 2.809239e-01 1.863964e-01 -2.949009e-01 -2.359388e-01 -1.619553e-01 -3.537458e-02 1.736912e-01
<VARIANCE> 39
 6.344607e+01 2.749513e+01 5.741282e+01 6.959947e+01 4.496192e+01 7.943646e+01 8.448393e+01 7.545150e+01 8.214108e+01 6.993531e+01 5.321717e+01 3.637696e+01 9.361942e+01 4.975716e+00 3.765832e+00 5.651506e+00 6.039819e+00 3.353498e+00 6.038343e+00 8.038634e+00 7.810748e+00 7.311147e+00 6.164481e+00 4.930752e+00 4.909689e+00 5.812250e+00 1.014265e+00 5.911000e-01 9.226775e-01 8.544533e-01 4.975123e-01 1.050973e+00 1.685804e+00 1.593306e+00 1.306561e+00 8.963840e-01 8.181400e-01 7.691965e-01 1.074612e+00
<GCONST> 1.468595e+02
<STATE> 3
<MEAN> 39
 2.989444e+00 -1.041691e+01 -5.620614e+00 -3.673389e+00 1.239833e+00 -1.035734e+01 -1.594482e+01 -2.023896e+01 -5.431307e+00 -7.925058e+00 3.314919e+00 1.289343e+00 7.776962e+01 6.927846e-02 -6.710857e-01 1.705770e-01 -1.903600e-01 2.839011e-01 -5.167717e-02 -7.383048e-02 -4.669701e-01 -1.888855e-01 -6.265764e-01 -9.122755e-02 4.521979e-01 8.253051e-01 -1.601156e-01 2.748543e-01 1.063541e-01 1.032410e-01 2.870319e-01 3.026045e-01 3.649059e-01 2.713974e-01 4.731497e-02 -4.368471e-02 -3.166556e-01 -2.688459e-01 -4.643788e-01
<VARIANCE> 39
 1.495700e+01 1.531734e+01 3.063350e+01 4.165102e+01 4.169091e+01 5.196339e+01 3.157466e+01 5.131312e+01 6.180883e+01 5.449131e+01 4.814238e+01 3.894236e+01 1.258387e+01 1.088802e+00 1.249086e+00 2.302898e+00 2.649363e+00 3.931576e+00 3.879149e+00 2.838552e+00 3.040493e+00 3.750136e+00 2.884013e+00 2.981744e+00 2.909402e+00 8.052728e-01 2.715502e-01 2.595682e-01 4.165949e-01 5.060180e-01 5.186172e-01 6.816315e-01 4.928688e-01 7.023763e-01 5.978522e-01 5.695741e-01 5.250183e-01 6.667785e-01 1.733921e-01
<GCONST> 1.186566e+02
<STATE> 4
<MEAN> 39
 3.125463e+00 -1.106114e+01 -6.682882e+00 -1.731329e+00 1.654122e+00 -7.610057e+00 -1.199660e+01 -2.013035e+01 -6.575985e+00 -9.084531e+00 1.770741e+00 1.521295e+00 7.692609e+01 7.679433e-03 2.936630e-01 -4.899861e-02 3.666488e-01 5.172712e-01 5.994076e-01 7.098021e-01 3.517323e-01 -4.732756e-01 -1.925377e-02 -6.530360e-02 -1.961976e-01 -8.074690e-01 -7.839819e-02 9.738654e-02 5.044727e-02 9.858675e-03 2.917533e-02 4.842157e-02 1.742415e-02 1.793647e-01 -3.714596e-03 1.343045e-01 9.451908e-02 -1.075591e-01 -1.515654e-01
<VARIANCE> 39
 1.487421e+01 2.042903e+01 2.286723e+01 3.193063e+01 2.644523e+01 4.728960e+01 3.666224e+01 2.985108e+01 3.688475e+01 3.596320e+01 3.159134e+01 2.790335e+01 3.175662e+01 9.457638e-01 7.269016e-01 1.147019e+00 1.487044e+00 1.602722e+00 2.068363e+00 2.172243e+00 2.124293e+00 1.721081e+00 1.970186e+00 1.951558e+00 2.111596e+00 9.541077e-01 2.139895e-01 1.524582e-01 2.613488e-01 3.576207e-01 3.042153e-01 4.510235e-01 3.879807e-01 3.831216e-01 3.395858e-01 3.626658e-01 3.550330e-01 4.298981e-01 1.796901e-01
<GCONST> 1.056476e+02
<TRANSP> 5
 0.000000e+00 1.000000e+00 0.000000e+00 0.000000e+00 0.000000e+00
 0.000000e+00 6.208969e-01 3.791031e-01 0.000000e+00 0.000000e+00
 0.000000e+00 0.000000e+00 6.898566e-01 3.101434e-01 0.000000e+00
 0.000000e+00 0.000000e+00 0.000000e+00 8.314765e-01 1.685235e-01
 0.000000e+00 0.000000e+00 0.000000e+00 0.000000e+00 0.000000e+00
<ENDHMM>
~h "ah"
<BEGINHMM>
<NUMSTATES> 5
<STATE> 2
<MEAN> 39
 6.799463e+00 -1.569540e+00 -5.347298e+00 -1.090308e+01 -5.914054e+00 -1.980992e+01 -9.736455e+00 -5.206436e+00 -2.027554e+00 -6.099392e-01 -5.033090e+00 -5.124755e+00 7.315836e+01 1.016236e+00 -1.593107e+00 -1.795932e+00 -1.498954e+00 -9.361488e-01 -2.172442e+00 6.483350e-01 1.570543e+00 -9.158340e-01 1.323295e+00 -4.198338e-01 4.699845e-01 1.434610e+00 -3.851094e-01 -2.270294e-01 1.129365e-01 4.192297e-01 4.638063e-01 5.642698e-01 3.963854e-01 6.594424e-02 -3.206434e-01 -2.595791e-01 -9.461991e-02 -4.626382e-02 -1.572818e-01
<VARIANCE> 39
 1.459458e+01 6.520606e+01 4.644356e+01 7.881839e+01 6.374413e+01 1.053918e+02 7.302792e+01 4.902864e+01 6.139239e+01 5.914207e+01 4.229994e+01 3.755209e+01 2.714873e+01 1.551237e+00 3.576389e+00 2.318262e+00 5.269986e+00 4.714602e+00 5.712122e+00 5.194346e+00 4.784020e+00 4.345534e+00 3.838831e+00 3.692862e+00 3.097443e+00 1.283055e+00 2.583468e-01 4.811874e-01 4.209071e-01 8.686477e-01 6.578927e-01 6.154978e-01 7.356118e-01 7.126653e-01 6.070139e-01 6.582537e-01 5.105033e-01 4.584307e-01 1.777147e-01
<GCONST> 1.300903e+02
<STATE> 3
<MEAN> 39
 7.698541e+00 -9.494839e+00 -8.784670e+00 -1.139350e+01 -5.575395e+00 -2.066888e+01 -3.932965e+00 -2.486604e+00 -7.615710e+00 -2.828178e-01 -7.971083e+00 -3.287501e+00 7.803064e+01 2.252546e-01 -3.012770e-01 -1.670564e-01 2.774649e-01 3.116703e-01 4.655434e-01 2.192673e-01 4.576326e-02 -6.454857e-01 -5.166126e-01 -1.692874e-01 -9.421767e-02 1.177001e-01 -2.928111e-02 2.556356e-01 9.333850e-02 2.804114e-01 1.396650e-01 3.508325e-01 -1.522178e-01 -1.180513e-01 2.566369e-01 -3.247412e-01 1.428092e-01 -1.251035e-01 -2.492702e-01
<VARIANCE> 39
 8.578535e+00 1.819405e+01 2.057906e+01 3.431698e+01 3.154756e+01 1.045516e+02 4.679182e+01 4.726174e+01 7.057574e+01 6.161517e+01 4.324538e+01 3.443887e+01 1.064615e+01 6.047595e-01 1.133709e+00 1.328403e+00 2.609308e+00 2.011723e+00 3.070694e+00 2.450363e+00 2.910841e+00 2.629830e+00 3.602070e+00 2.443418e+00 2.079684e+00 9.190527e-01 1.089292e-01 1.906108e-01 2.071017e-01 3.353543e-01 3.975889e-01 5.219534e-01 4.308168e-01 5.963559e-01 5.234044e-01 4.686911e-01 4.959083e-01 3.732108e-01 1.033650e-01
<GCONST> 1.107449e+02
<STATE> 4
<MEAN> 39
 9.697941e+00 -6.479577e+00 -1.118085e+01 -6.250016e+00 -7.745802e-01 -1.431469e+01 -5.969453e+00 -1.467045e+00 -6.685356e+00 -8.715438e+00 -4.862298e+00 -4.737503e+00 7.369119e+01 -1.480159e-01 7.454154e-01 -6.650846e-02 1.020428e+00 6.356149e-01 1.350760e+00 -1.727131e-01 -9.217555e-02 1.066038e+00 -8.050099e-01 2.016688e-01 -2.812205e-01 -9.348591e-01 -1.954722e-01 6.530241e-02 1.789947e-01 -1.699045e-01 -1.465245e-02 -2.196359e-02 -3.770342e-02 -8.937483e-02 1.215664e-01 2.283766e-01 -5.486502e-02 3.312700e-02 -3.707892e-02
<VARIANCE> 39
 8.443151e+00 1.928510e+01 2.044356e+01 4.801595e+01 4.558832e+01 3.971143e+01 4.270201e+01 3.149194e+01 6.186665e+01 2.697728e+01 3.058838e+01 3.120060e+01 1.539033e+01 5.510181e-01 4.920255e-01 1.225659e+00 3.374708e+00 1.962405e+00 1.293585e+00 2.005993e+00 1.735005e+00 2.707113e+00 1.686046e+00 2.291517e+00 1.396225e+00 3.951848e-01 5.199928e-02 7.117735e-02 1.375690e-01 3.459017e-01 2.906915e-01 1.964273e-01 3.460649e-01 3.583563e-01 4.694425e-01 2.953733e-01 3.294154e-01 2.925619e-01 4.650399e-02
<GCONST> 9.844721e+01
<TRANSP> 5
 0.000000e+00 1.000000e+00 0.000000e+00 0.000000e+00 0.000000e+00
 0.000000e+00 6.326309e-01 3.673691e-01 0.000000e+00 0.000000e+00
 0.000000e+00 0.000000e+00 8.490537e-01 1.509463e-01 0.000000e+00
 0.000000e+00 0.000000e+00 0.000000e+00 7.832851e-01 2.167148e-01
 0.000000e+00 0.000000e+00 0.000000e+00 0.000000e+00 0.000000e+00
<ENDHMM>
~h "ao"
<BEGINHMM>
<NUMSTATES> 5
<STATE> 2
<MEAN> 39
 5.175805e+00 1.500638e+00 -8.750424e-01 -1.095689e+01 -1.006067e+01 -2.223228e+01 -1.164603e+01 -6.456861e+00 -2.857260e+00 -1.248181e+00 -3.617248e+00 -7.108703e+00 7.082597e+01 1.756904e+00 -1.245691e-01 -1.360306e+00 3.561739e-02 -1.295815e+00 -2.262844e+00 -1.264669e+00 9.091100e-01 2.482980e-01 1.781735e+00 -7.414319e-02 -8.878279e-04 3.001967e-01 -6.166813e-01 -4.024674e-01 -1.970860e-01 3.124629e-01 7.598744e-01 3.000661e-01 5.218154e-01 2.678445e-01 -7.689688e-02 -1.746226e-01 5.435699e-02 1.770251e-01 -4.121087e-02
<VARIANCE> 39
 2.325943e+01 4.730512e+01 2.846786e+01 3.609987e+01 4.862979e+01 8.014769e+01 4.077359e+01 3.637354e+01 4.550283e+01 6.007153e+01 2.427593e+01 2.302718e+01 2.845524e+01 3.096447e+00 3.337496e+00 4.035066e+00 2.872397e+00 4.773474e+00 5.617644e+00 4.011270e+00 3.823769e+00 2.636335e+00 4.014133e+00 2.992794e+00 2.180238e+00 1.181904e+00 6.445320e-01 4.505828e-01 4.531811e-01 5.161696e-01 6.027501e-01 8.518832e-01 5.456749e-01 4.284659e-01 4.533014e-01 7.797425e-01 3.352467e-01 2.527267e-01 2.080378e-01
<GCONST> 1.240929e+02
<STATE> 3
<MEAN> 39
 1.005674e+01 -1.868144e-01 -7.084569e+00 -8.992364e+00 -7.162700e+00 -2.991531e+01 -1.465461e+01 -6.326143e-01 -2.886456e+00 4.208343e+00 -4.568257e+00 -5.751827e+00 7.256949e+01 2.953120e-01 -5.181299e-01 -7.100827e-01 -8.918533e-02 5.458790e-01 -1.388039e-03 3.734389e-01 7.212348e-01 5.653132e-02 -1.480497e-01 -6.644101e-01 2.964305e-01 4.018454e-01 -1.304503e-01 -2.463036e-02 1.577216e-01 -9.008655e-02 8.888473e-02 5.119719e-01 1.905045e-01 -1.859707e-01 -9.199095e-03 -3.276030e-01 -1.223178e-01 -4.209643e-02 -2.730710e-03
<VARIANCE> 39
 4.159417e+00 2.378588e+01 2.107360e+01 2.735708e+01 3.097086e+01 5.212308e+01 4.623599e+01 4.296259e+01 5.657472e+01 5.168970e+01 4.088161e+01 2.266969e+01 7.443597e+00 2.210063e-01 1.014094e+00 1.181470e+00 1.670234e+00 1.788287e+00 3.285891e+00 1.828500e+00 1.899334e+00 1.920560e+00 3.434615e+00 1.602581e+00 1.434948e+00 2.768472e-01 4.969511e-02 9.144901e-02 1.739116e-01 2.331630e-01 3.253458e-01 2.771268e-01 2.578480e-01 3.423716e-01 3.006865e-01 3.690198e-01 2.752357e-01 2.208810e-01 2.463334e-02
<GCONST> 9.592937e+01
<STATE> 4
<MEAN> 39
 9.004671e+00 -4.886579e+00 -9.564816e+00 -1.103540e+01 -5.073991e+00 -1.806148e+01 -7.385049e+00 -8.594256e-01 -2.757512e+00 -3.492117e+00 -9.084861e+00 -3.402362e+00 7.379465e+01 -3.725799e-01 -1.545477e-01 -1.015892e-01 4.735850e-01 4.984225e-01 1.921466e+00 6.160818e-01 -4.111567e-01 -1.198722e-01 -1.212209e+00 1.148912e-01 -2.028638e-01 -3.963117e-01 -9.501506e-02 1.341396e-01 6.095913e-02 1.450347e-01 2.227972e-02 -1.090469e-01 -9.935328e-02 -8.177127e-02 3.391935e-02 8.716068e-02 1.574410e-01 -7.427889e-02 -1.212050e-01
<VARIANCE> 39
 1.445825e+01 2.605905e+01 3.989356e+01 2.675878e+01 4.563074e+01 8.554647e+01 5.023852e+01 3.718653e+01 5.541908e+01 7.645412e+01 5.364687e+01 3.289851e+01 2.336113e+01 4.995277e-01 9.320244e-01 9.236444e-01 1.493986e+00 2.508073e+00 2.652038e+00 2.189846e+00 2.331334e+00 3.196002e+00 3.830216e+00 2.350559e+00 1.914967e+00 6.203870e-01 5.158893e-02 9.479814e-02 1.459091e-01 2.306719e-01 3.091184e-01 3.987922e-01 3.289541e-01 3.591689e-01 5.776665e-01 6.565114e-01 4.038195e-01 3.781774e-01 5.198697e-02
<GCONST> 1.072306e+02
<TRANSP> 5
 0.000000e+00 1.000000e+00 0.000000e+00 0.000000e+00 0.000000e+00
 0.000000e+00 7.102506e-01 2.897495e-01 0.000000e+00 0.000000e+00
 0.000000e+00 0.000000e+00 8.541271e-01 1.458729e-01 0.000000e+00
 0.000000e+00 0.000000e+00 0.000000e+00 8.580420e-01 1.419580e-01
 0.000000e+00 0.000000e+00 0.000000e+00 0.000000e+00 0.000000e+00
<ENDHMM>
~h "aw"
<BEGINHMM>
<NUMSTATES> 5
<STATE> 2
<MEAN> 39
 2.538896e+00 -2.338079e+00 -5.590111e+00 -7.945378e+00 -5.246129e+00 -1.723362e+01 -5.246938e+00 -4.877280e+00 -1.656989e+00 -4.501051e-01 -7.913279e+00 -6.200422e+00 6.953394e+01 1.726793e+00 -8.237388e-01 -1.657509e+00 -1.691023e+00 -1.456040e+00 -3.106346e+00 1.233880e-01 1.282394e+00 6.950817e-01 2.844401e+00 -1.389755e+00 2.853700e-01 2.029423e+00 -2.563351e-01 -1.830838e-01 1.001022e-01 2.988294e-01 4.469803e-01 3.452722e-01 2.700262e-01 7.782079e-02 -1.710024e-01 1.740728e-02 6.679808e-02 -2.328986e-02 3.396869e-02
<VARIANCE> 39
 5.080666e+01 3.462661e+01 3.541960e+01 1.092226e+02 8.707754e+01 1.276199e+02 6.156627e+01 5.467345e+01 6.948565e+01 7.922253e+01 4.863614e+01 2.952353e+01 5.431530e+01 4.205192e+00 2.546792e+00 3.291926e+00 6.170083e+00 8.219279e+00 6.821976e+00 5.431554e+00 4.743794e+00 8.378166e+00 5.535885e+00 4.261330e+00 3.529668e+00 3.028751e+00 7.686194e-01 4.953105e-01 5.547417e-01 1.107627e+00 1.695008e+00 1.525215e+00 1.197029e+00 6.442837e-01 1.134793e+00 1.188292e+00 8.099295e-01 7.136151e-01 6.775404e-01
<GCONST> 1.436382e+02
<STATE> 3
<MEAN> 39
 5.885717e+00 -5.371941e+00 -6.220489e+00 -1.454519e+01 -8.057364e+00 -2.624388e+01 -2.682860e+00 -3.340929e+00 -2.159925e+00 1.304050e+01 -1.422504e+01 -5.275210e+00 7.672611e+01 4.572150e-01 -3.693081e-03 2.344825e-01 6.428751e-02 1.480994e-02 -3.660657e-01 -6.792484e-01 6.679714e-03 -3.096437e-01 3.479221e-01 -2.089684e-01 1.553667e-01 1.688405e-01 -2.814132e-02 1.352920e-01 1.323913e-01 1.618797e-01 2.949776e-02 3.210458e-01 -1.578131e-01 -5.221175e-02 1.963800e-02 -5.809572e-01 2.011089e-01 -1.731865e-02 -1.614561e-01
<VARIANCE> 39
 1.064192e+01 2.486373e+01 1.270508e+01 2.517771e+01 2.629088e+01 6.681916e+01 5.711877e+01 6.040578e+01 3.944178e+01 4.895396e+01 3.878988e+01 3.607087e+01 1.441173e+01 4.312512e-01 9.435576e-01 1.071071e+00 1.950313e+00 1.727556e+00 2.158748e+00 2.384111e+00 1.617180e+00 1.377808e+00 2.958959e+00 1.802815e+00 2.272659e+00 4.558258e-01 1.113712e-01 1.158809e-01 1.782018e-01 3.052764e-01 3.252841e-01 4.288859e-01 3.626496e-01 3.240595e-01 3.262207e-01 3.763145e-01 3.652458e-01 3.937038e-01 6.782847e-02
<GCONST> 1.025516e+02
<STATE> 4
<MEAN> 39
 8.960689e+00 -2.086963e+00 -7.572738e+00 -9.192239e+00 -5.567688e+00 -2.095075e+01 -9.625002e+00 6.651289e-01 -5.214795e-01 -1.745369e+00 -9.850516e+00 -6.367496e+00 7.287806e+01 -1.588628e-01 1.221674e-01 -2.256151e-01 4.978801e-01 2.351395e-01 1.104883e+00 1.665581e-01 3.522593e-01 3.734313e-01 -1.510262e+00 2.466954e-01 -1.566655e-01 -5.064753e-01 -1.162286e-01 -3.509521e-02 5.078471e-03 -6.224017e-02 -5.263164e-03 5.836777e-02 1.378300e-01 -5.279267e-02 -9.608347e-03 1.125121e-01 7.130768e-03 -1.029101e-02 -3.293050e-02
<VARIANCE> 39
 1.045464e+01 2.819730e+01 2.158225e+01 3.018687e+01 2.995610e+01 8.184962e+01 5.040059e+01 3.368405e+01 3.945407e+01 5.626040e+01 2.773684e+01 2.777612e+01 1.633230e+01 4.212509e-01 1.318373e+00 1.011437e+00 1.566006e+00 1.708383e+00 3.039453e+00 2.042172e+00 2.043594e+00 2.443266e+00 3.158000e+00 1.810782e+00 1.689978e+00 5.712214e-01 5.326441e-02 2.023742e-01 2.000939e-01 2.937616e-01 2.903109e-01 5.487131e-01 3.219871e-01 3.327490e-01 4.382242e-01 5.765562e-01 3.435462e-01 3.151103e-01 6.821238e-02
<GCONST> 1.040603e+02
<TRANSP> 5
 0.000000e+00 1.000000e+00 0.000000e+00 0.000000e+00 0.000000e+00
 0.000000e+00 6.721585e-01 3.278415e-01 0.000000e+00 0.000000e+00
 0.000000e+00 0.000000e+00 8.443297e-01 1.556703e-01 0.000000e+00
 0.000000e+00 0.000000e+00 0.000000e+00 9.080254e-01 9.197455e-02
 0.000000e+00 0.000000e+00 0.000000e+00 0.000000e+00 0.000000e+00
<ENDHMM>
~h "ax"
<BEGINHMM>
<NUMSTATES> 5
<STATE> 2
<MEAN> 39
 -1.089566e+00 -2.826964e+00 3.163187e-02 -5.504261e+00 -8.234183e-01 -9.510384e+00 -8.348821e+00 -8.565191e+00 -5.686266e+00 -6.898731e+00 -3.660840e+00 -4.586307e+00 6.663981e+01 1.689921e+00 -7.230224e-02 -3.009287e-01 -2.085088e-01 7.511411e-02 -9.067647e-01 -9.410180e-01 -2.428354e-01 -4.174894e-01 6.679197e-02 -2.421671e-01 -1.524849e-01 1.437897e+00 -1.355814e-01 -1.807961e-01 -2.185036e-01 8.586401e-02 1.978936e-01 2.150514e-01 3.266038e-01 9.666533e-02 -6.762153e-02 -1.529739e-01 -2.322089e-02 -1.037685e-02 3.788492e-03
<VARIANCE> 39
 7.755080e+01 6.631428e+01 6.350529e+01 6.688787e+01 9.287334e+01 1.031593e+02 5.896215e+01 8.002829e+01 8.297966e+01 5.617788e+01 4.280639e+01 4.031100e+01 7.651735e+01 5.143386e+00 5.237731e+00 4.442544e+00 4.286280e+00 5.903778e+00 5.947065e+00 4.507415e+00 5.392989e+00 6.146760e+00 3.354213e+00 3.232991e+00 3.530489e+00 4.287760e+00 7.877944e-01 9.230011e-01 7.330437e-01 6.540430e-01 8.610906e-01 9.442155e-01 9.254983e-01 9.056561e-01 9.643891e-01 6.287876e-01 6.135788e-01 6.056513e-01 6.019450e-01
<GCONST> 1.429128e+02
<STATE> 3
<MEAN> 39
 6.432354e+00 -5.773654e+00 -4.961683e+00 -7.546728e+00 5.903837e-01 -1.276407e+01 -9.821889e+00 -6.814620e+00 -8.293527e+00 -8.088128e+00 -4.740476e+00 -3.469622e+00 7.432300e+01 2.055968e-01 -2.725826e-01 -6.000448e-01 1.971760e-01 1.243726e-01 7.156353e-01 5.003855e-01 2.699623e-01 -2.084278e-01 -5.127218e-01 -1.032774e-01 -4.373930e-02 -8.223835e-03 -3.420427e-01 1.654872e-01 1.804069e-01 1.473312e-01 6.098745e-02 3.357835e-01 3.177543e-01 1.904587e-02 2.699642e-01 5.627569e-03 9.796824e-02 -1.095822e-01 -2.820051e-01
<VARIANCE> 39
 2.110369e+01 3.717067e+01 4.211699e+01 5.816064e+01 8.096435e+01 1.163717e+02 4.302388e+01 6.793798e+01 8.067658e+01 7.378353e+01 4.145798e+01 5.013879e+01 2.042549e+01 8.515719e-01 1.445990e+00 2.330684e+00 2.810863e+00 2.680778e+00 3.550853e+00 3.426318e+00 3.009295e+00 3.781459e+00 3.654172e+00 2.366356e+00 2.633039e+00 8.260983e-01 2.476178e-01 2.319961e-01 3.013352e-01 5.161051e-01 4.254560e-01 6.052291e-01 6.517864e-01 5.061699e-01 7.962180e-01 6.655133e-01 4.915465e-01 4.963243e-01 1.282724e-01
<GCONST> 1.222806e+02
<STATE> 4
<MEAN> 39
 3.601192e+00 -3.870103e+00 -4.758451e+00 -3.390870e+00 2.228134e+00 -5.220861e+00 -4.537010e+00 -7.863110e+00 -9.584149e+00 -1.038865e+01 -3.712771e+00 -4.671879e+00 6.893693e+01 -6.438833e-01 7.349618e-01 -2.074194e-01 5.520331e-01 3.022695e-01 9.750334e-01 1.032924e+00 2.341226e-01 7.971601e-01 9.697160e-02 3.925356e-01 1.027095e-01 -1.003539e+00 -3.484375e-01 1.594347e-02 3.094710e-01 -1.562898e-01 1.167888e-01 -2.330665e-01 -1.370993e-01 -7.389662e-02 1.679170e-01 1.444239e-01 3.145862e-02 2.306718e-04 8.404066e-02
<VARIANCE> 39
 3.510922e+01 3.611384e+01 4.895211e+01 5.737393e+01 8.319304e+01 7.538223e+01 4.633665e+01 5.365968e+01 6.311977e+01 3.672658e+01 3.094431e+01 3.901790e+01 3.386863e+01 1.213740e+00 9.977202e-01 2.544527e+00 2.615937e+00 1.915340e+00 2.627174e+00 2.255889e+00 2.460912e+00 2.569322e+00 2.169960e+00 2.283260e+00 2.244667e+00 6.466613e-01 2.771347e-01 2.159722e-01 3.142300e-01 4.093792e-01 3.672669e-01 4.118283e-01 4.598954e-01 4.360883e-01 4.600279e-01 3.817021e-01 3.401236e-01 4.080243e-01 1.335841e-01
<GCONST> 1.159363e+02
<TRANSP> 5
 0.000000e+00 1.000000e+00 0.000000e+00 0.000000e+00 0.000000e+00
 0.000000e+00 5.408044e-01 4.591956e-01 0.000000e+00 0.000000e+00
 0.000000e+00 0.000000e+00 6.437408e-01 3.562593e-01 0.000000e+00
 0.000000e+00 0.000000e+00 0.000000e+00 5.468843e-01 4.531157e-01
 0.000000e+00 0.000000e+00 0.000000e+00 0.000000e+00 0.000000e+00
<ENDHMM>
~h "ay"
<BEGINHMM>
<NUMSTATES> 5
<STATE> 2
<MEAN> 39
 5.681909e+00 -4.484809e+00 -8.863536e+00 -1.239748e+01 -7.377632e+00 -1.921507e+01 -4.576843e+00 -5.521694e+00 -5.426993e-01 -1.091749e+00 -8.439905e+00 -4.314289e+00 7.392775e+01 5.008711e-01 -1.973914e+00 -1.273434e+00 -8.644316e-01 -7.008421e-01 -8.950492e-01 9.127071e-01 9.383475e-02 -3.833309e-01 8.472484e-01 -7.892624e-01 1.443766e+00 1.827470e+00 -4.500145e-01 -1.110184e-01 3.520612e-01 4.402228e-01 4.662980e-01 8.492717e-01 7.561503e-02 -2.848726e-01 -2.186451e-01 -2.636272e-01 1.545925e-01 1.611052e-01 -1.986579e-01
<VARIANCE> 39
 2.496747e+01 4.380061e+01 3.865976e+01 5.409760e+01 4.778640e+01 7.557899e+01 5.682796e+01 4.172693e+01 6.056802e+01 5.232319e+01 3.726324e+01 3.656153e+01 3.493755e+01 2.766992e+00 2.877649e+00 3.225378e+00 5.987914e+00 4.483866e+00 6.851498e+00 5.571763e+00 4.614431e+00 3.394951e+00 5.521657e+00 3.392997e+00 3.478497e+00 2.842354e+00 3.219030e-01 5.510579e-01 4.031148e-01 9.506000e-01 8.187380e-01 9.252839e-01 9.879219e-01 7.721272e-01 6.658287e-01 7.246054e-01 6.534480e-01 5.772780e-01 2.735635e-01
<GCONST> 1.330292e+02
<STATE> 3
<MEAN> 39
 6.142566e+00 -1.255323e+01 -9.863103e+00 -1.190335e+01 -6.240129e+00 -1.447814e+01 -3.244789e+00 -8.462862e+00 -4.891282e+00 -1.140508e+00 -8.817166e+00 2.453665e+00 7.976539e+01 -4.500268e-02 -8.554363e-01 3.118708e-01 6.586691e-01 6.518160e-01 1.922654e+00 -1.035005e+00 -1.270173e+00 -8.435583e-01 -1.262112e+00 1.102263e+00 9.567435e-01 4.673303e-01 1.901635e-02 3.363315e-01 1.416833e-01 2.731939e-01 2.222898e-01 2.456358e-02 -3.640575e-01 -2.470656e-01 3.940960e-02 -3.061244e-01 3.239025e-01 -3.660832e-01 -1.901438e-01
<VARIANCE> 39
 1.135328e+01 2.090058e+01 2.282513e+01 2.004419e+01 3.972845e+01 7.418524e+01 4.380593e+01 3.531699e+01 5.194289e+01 5.050018e+01 3.432196e+01 3.861251e+01 1.096526e+01 3.061951e-01 8.678923e-01 1.077006e+00 1.791013e+00 1.850725e+00 2.382001e+00 3.805082e+00 2.492272e+00 2.177171e+00 3.433198e+00 2.974451e+00 2.752937e+00 1.976555e-01 5.394949e-02 1.152611e-01 2.018096e-01 2.443277e-01 2.594723e-01 6.003278e-01 5.877576e-01 4.029388e-01 4.186391e-01 5.915189e-01 4.473186e-01 5.499802e-01 3.635326e-02
<GCONST> 1.041167e+02
<STATE> 4
<MEAN> 39
 6.193020e+00 -1.232034e+01 -8.146390e+00 -3.778933e+00 2.045464e+00 -8.557090e+00 -8.914033e+00 -1.626882e+01 -8.883713e+00 -8.850225e+00 -1.740665e+00 2.713765e+00 7.755250e+01 -2.299777e-01 5.431261e-01 -3.504013e-02 8.050709e-01 1.087487e+00 2.723279e-01 1.144583e-01 -1.690193e-01 -3.296170e-01 -1.671010e-01 4.464566e-01 -5.357197e-01 -8.200234e-01 -9.209886e-02 9.792970e-02 -4.059598e-02 -1.546612e-01 -6.824298e-02 -9.785612e-02 2.088766e-01 3.096075e-01 7.551606e-02 2.028478e-01 -1.607169e-01 -7.643338e-02 -1.090401e-01
<VARIANCE> 39
 1.086956e+01 1.561752e+01 2.401500e+01 2.874669e+01 4.550397e+01 3.285999e+01 2.854411e+01 4.447573e+01 3.474226e+01 3.185533e+01 2.505897e+01 2.783844e+01 1.877760e+01 4.398111e-01 4.947874e-01 1.454012e+00 1.424157e+00 2.304906e+00 1.735688e+00 2.437064e+00 3.152636e+00 2.450634e+00 2.437418e+00 2.106025e+00 1.702132e+00 5.487417e-01 8.222134e-02 1.054553e-01 2.483635e-01 2.179940e-01 3.979090e-01 4.276718e-01 5.194246e-01 4.973541e-01 4.867426e-01 4.961157e-01 5.185221e-01 3.031850e-01 8.004982e-02
<GCONST> 1.028022e+02
<TRANSP> 5
 0.000000e+00 1.000000e+00 0.000000e+00 0.000000e+00 0.000000e+00
 0.000000e+00 7.319605e-01 2.680396e-01 0.000000e+00 0.000000e+00
 0.000000e+00 0.000000e+00 8.016919e-01 1.983081e-01 0.000000e+00
 0.000000e+00 0.000000e+00 0.000000e+00 8.688133e-01 1.311867e-01
 0.000000e+00 0.000000e+00 0.000000e+00 0.000000e+00 0.000000e+00
<ENDHMM>
~h "ch"
<BEGINHMM>
<NUMSTATES> 5
<STATE> 2
<MEAN> 39
 -5.844665e-02 -6.717275e+00 1.230196e+00 -1.632536e-01 7.716041e-01 -9.273819e-01 -4.498796e+00 -6.299303e+00 -7.042321e+00 -1.052060e+01 -8.775784e-01 -3.404276e+00 6.768940e+01 -2.278782e+00 -2.833544e+00 2.963846e+00 1.101214e-01 -2.906122e-01 -4.635074e-01 -5.553609e-01 1.826498e+00 5.504003e-01 -6.442667e-01 -1.786010e-01 -6.344309e-02 8.135403e-01 -6.834861e-01 -7.048463e-01 6.501378e-01 -2.915084e-01 3.329614e-01 -2.626435e-01 -2.646473e-01 -1.085961e-01 1.630635e-01 1.674293e-01 -3.524632e-01 -5.403558e-02 5.681767e-01
<VARIANCE> 39
 3.061019e+01 7.607867e+01 8.009692e+01 8.530855e+01 6.002317e+01 6.248467e+01 4.214933e+01 8.150752e+01 6.643414e+01 5.901622e+01 2.962166e+01 5.417394e+01 2.733397e+01 4.903137e+00 6.411212e+00 1.075760e+01 5.203364e+00 3.425763e+00 5.757532e+00 3.919394e+00 6.244729e+00 4.470702e+00 3.956571e+00 3.087121e+00 4.519670e+00 2.026815e+00 1.480387e-01 6.904536e-01 1.299959e+00 9.951952e-01 7.682091e-01 9.313828e-01 9.440190e-01 9.310569e-01 5.192435e-01 7.916439e-01 4.323848e-01 1.143357e+00 3.069726e-01
<GCONST> 1.382002e+02
<STATE> 3
<MEAN> 39
 -1.584556e+01 -2.410230e+01 1.714861e+01 -5.630298e-01 6.304466e+00 -7.214699e+00 -8.695946e+00 -7.364097e-01 -3.799408e+00 -1.161713e+01 -4.471937e+00 -2.611319e+00 7.540364e+01 -3.544813e+00 -2.157152e+00 1.585204e+00 -4.453179e-01 1.113671e+00 -1.394527e+00 -1.945017e-02 -6.429226e-01 1.177001e+00 4.859645e-01 -1.787512e-01 -1.251578e-01 1.750678e+00 6.365097e-01 8.454537e-01 -1.299953e+00 2.785408e-01 -9.385680e-02 1.735918e-01 2.677752e-01 -6.948942e-01 -3.073505e-01 -1.351297e-01 4.627058e-01 8.100355e-02 -3.606064e-01
<VARIANCE> 39
 3.354844e+01 1.887799e+01 3.410292e+01 7.005650e+01 6.591991e+01 4.342043e+01 1.583017e+01 3.917936e+01 8.182552e+01 4.146504e+01 4.151305e+01 2.104181e+01 1.574429e+01 2.197566e+00 3.419539e+00 9.955667e+00 3.980153e+00 3.326954e+00 3.114103e+00 1.934046e+00 3.778745e+00 4.846759e+00 2.562705e+00 3.832103e+00 2.903615e+00 1.377341e+00 4.115735e-01 2.537538e-01 8.982720e-01 7.458424e-01 6.424285e-01 7.431014e-01 2.548086e-01 4.971776e-01 8.410416e-01 4.041484e-01 5.765758e-01 4.009444e-01 2.212587e-01
<GCONST> 1.237097e+02
<STATE> 4
<MEAN> 39
 -1.790044e+01 -2.374964e+01 1.469409e+01 1.573365e+00 4.778222e+00 -7.863871e+00 -8.283547e+00 -7.003947e+00 -7.137033e+00 -1.219263e+01 4.189339e-01 -2.747530e+00 7.520203e+01 1.748882e+00 9.069007e-01 -4.559436e-01 2.608763e-01 -9.145284e-01 2.689687e-01 -3.376944e-01 -6.692351e-01 -7.238621e-01 -6.299111e-02 2.831765e-01 5.907762e-02 -5.194454e-01 5.333623e-01 3.077599e-01 -1.723349e-01 -1.041038e-01 -1.770654e-01 3.792661e-02 -7.590951e-02 -4.053757e-02 -1.988369e-02 8.718255e-02 -1.059242e-01 -2.323473e-02 -2.934308e-02
<VARIANCE> 39
 5.918319e+01 3.088193e+01 2.936856e+01 5.700621e+01 4.861204e+01 4.546905e+01 2.491300e+01 4.701793e+01 4.255575e+01 2.976441e+01 2.541097e+01 1.773739e+01 4.665964e+01 5.702383e+00 3.575334e+00 3.078290e+00 2.477291e+00 3.791711e+00 3.375174e+00 2.504516e+00 2.902357e+00 3.876783e+00 1.690455e+00 1.801010e+00 9.667767e-01 1.225558e+00 7.126123e-01 5.202094e-01 6.402599e-01 4.992122e-01 5.498328e-01 6.858832e-01 4.991814e-01 5.988852e-01 8.127767e-01 2.885870e-01 3.533961e-01 2.403325e-01 2.528967e-01
<GCONST> 1.210868e+02
<TRANSP> 5
 0.000000e+00 1.000000e+00 0.000000e+00 0.000000e+00 0.000000e+00
 0.000000e+00 7.299486e-01 2.700514e-01 0.000000e+00 0.000000e+00
 0.000000e+00 0.000000e+00 7.215372e-01 2.784629e-01 0.000000e+00
 0.000000e+00 0.000000e+00 0.000000e+00 8.832912e-01 1.167088e-01
 0.000000e+00 0.000000e+00 0.000000e+00 0.000000e+00 0.000000e+00
<ENDHMM>
~h "dh"
<BEGINHMM>
<NUMSTATES> 5
<STATE> 2
<MEAN> 39
 -1.836155e+00 -7.835413e+00 4.421293e+00 -3.941952e+00 1.023361e+00 -3.188004e+00 -9.598521e+00 -1.488447e+01 -7.356813e+00 -7.077210e+00 -4.173885e+00 -6.890754e+00 7.056776e+01 1.833729e+00 -4.256461e-01 3.436245e-03 -7.576518e-03 7.033544e-01 -1.937731e-01 -9.984708e-01 -1.970158e+00 -1.751322e+00 -3.930996e-01 -2.431119e-01 1.941038e-01 1.555112e+00 -5.594880e-02 2.318616e-01 -7.284845e-01 1.715565e-01 2.098589e-01 -2.436545e-01 3.330544e-01 4.599298e-01 -9.821334e-02 -8.029112e-02 1.854083e-01 2.149349e-01 -3.630785e-01
<VARIANCE> 39
 4.713848e+01 2.792548e+01 5.917412e+01 5.943209e+01 5.867278e+01 7.187943e+01 6.700910e+01 6.465145e+01 7.342455e+01 4.789922e+01 4.029544e+01 2.953565e+01 2.656624e+01 5.310966e+00 3.399304e+00 6.605129e+00 6.173431e+00 5.748876e+00 5.879689e+00 5.717730e+00 5.859842e+00 6.520947e+00 4.001256e+00 2.981223e+00 2.771716e+00 5.226335e+00 8.379979e-01 5.619067e-01 8.749300e-01 9.158739e-01 9.082221e-01 8.712567e-01 1.184328e+00 1.210978e+00 1.472776e+00 7.599110e-01 5.786288e-01 5.593761e-01 5.059898e-01
<GCONST> 1.403888e+02
<STATE> 3
<MEAN> 39
 3.000286e+00 -7.878381e+00 -2.462752e+00 -2.701268e+00 4.594420e+00 -5.753056e+00 -9.064624e+00 -1.415757e+01 -1.230914e+01 -8.978382e+00 -2.644714e+00 -4.890559e+00 7.217299e+01 2.120431e-01 1.357912e-01 -1.236642e+00 3.425618e-01 2.800019e-01 2.037114e-02 4.641141e-01 5.735103e-01 -7.748166e-02 -4.332233e-02 3.914638e-01 4.688956e-01 -4.087726e-01 -3.466136e-01 1.019824e-01 1.071836e-01 3.690490e-03 -1.135069e-01 1.403119e-01 2.518205e-01 3.363756e-01 4.574120e-01 8.125955e-02 1.050685e-01 1.103814e-02 -2.213192e-01
<VARIANCE> 39
 3.904981e+01 2.871683e+01 3.662585e+01 5.176851e+01 5.011923e+01 6.968593e+01 4.869672e+01 7.128584e+01 4.643853e+01 3.271768e+01 2.704634e+01 3.118073e+01 3.694110e+01 8.196450e-01 1.512811e+00 1.878409e+00 2.075045e+00 2.314838e+00 3.926273e+00 3.786571e+00 2.896547e+00 2.540850e+00 2.059272e+00 2.053211e+00 1.991360e+00 1.436143e+00 1.670393e-01 2.026976e-01 2.669852e-01 3.418906e-01 3.854874e-01 5.053069e-01 5.335504e-01 6.709831e-01 4.787739e-01 3.943884e-01 3.813687e-01 3.841982e-01 1.079542e-01
<GCONST> 1.155770e+02
<STATE> 4
<MEAN> 39
 -9.542727e+00 -7.023270e+00 -6.549567e+00 -2.221437e+00 1.337375e+00 -2.338763e+00 -2.841502e+00 -8.110154e+00 -5.601752e+00 -7.814976e+00 -7.579573e-01 -1.007541e+00 5.778399e+01 -3.553254e-01 2.616859e-01 -2.034955e-01 3.992961e-02 3.410964e-02 -7.882422e-02 2.455737e-01 3.898753e-01 3.413919e-01 1.060172e-01 -1.329669e-02 5.268871e-02 -5.031794e-01 -4.111614e-02 1.918500e-03 1.488157e-01 -2.192715e-02 -2.492694e-02 -1.281648e-02 -7.138020e-02 -3.242342e-02 6.479263e-02 2.873589e-02 -3.874749e-02 -8.398211e-02 5.444366e-02
<VARIANCE> 39
 8.100978e+01 2.424488e+01 3.484863e+01 2.903385e+01 2.180010e+01 2.734686e+01 3.712632e+01 3.907267e+01 3.747896e+01 2.743432e+01 1.791221e+01 2.096161e+01 8.629732e+01 3.737042e-01 6.226550e-01 1.053962e+00 1.084062e+00 9.907466e-01 1.285815e+00 1.629811e+00 1.415048e+00 1.609066e+00 1.261700e+00 1.207189e+00 1.273772e+00 4.588869e-01 9.184426e-02 1.074252e-01 1.443281e-01 1.649385e-01 2.028985e-01 3.276059e-01 3.347955e-01 2.852600e-01 2.891124e-01 2.466159e-01 2.051162e-01 2.015022e-01 6.761923e-02
<GCONST> 9.534675e+01
<TRANSP> 5
 0.000000e+00 1.000000e+00 0.000000e+00 0.000000e+00 0.000000e+00
 0.000000e+00 6.315237e-01 3.684763e-01 0.000000e+00 0.000000e+00
 0.000000e+00 0.000000e+00 6.392403e-01 3.607597e-01 0.000000e+00
 0.000000e+00 0.000000e+00 0.000000e+00 7.543489e-01 2.456511e-01
 0.000000e+00 0.000000e+00 0.000000e+00 0.000000e+00 0.000000e+00
<ENDHMM>
~h "ea"
<BEGINHMM>
<NUMSTATES> 5
<STATE> 2
<MEAN> 39
 3.820000e+00 -9.820438e+00 -1.036761e+01 1.445231e+00 7.752626e+00 -1.804360e+01 -8.580826e+00 -2.297134e+01 -7.867545e+00 -7.955436e+00 -6.948458e-01 7.764959e-01 7.995776e+01 -8.834088e-02 -4.049964e-01 -6.345617e-01 4.500434e-02 -8.506231e-01 2.154637e-01 8.147765e-01 -7.012016e-01 4.953203e-01 -7.363617e-02 5.739344e-01 8.465953e-01 4.942822e-01 1.248010e-01 1.827998e-02 9.843815e-02 -2.603780e-01 -1.350350e-01 4.311321e-01 -1.103235e-01 4.710559e-01 -1.567774e-01 8.233962e-02 -2.060996e-01 -1.130891e-01 -2.395796e-01
<VARIANCE> 39
 5.944149e+00 1.113842e+01 3.540031e+01 3.382634e+01 1.302406e+01 3.015125e+01 2.530374e+01 3.334155e+01 2.811421e+01 2.279500e+01 3.005748e+01 5.630373e+01 1.367523e+01 9.196740e-01 7.051551e-01 1.035865e+00 2.824829e+00 2.284831e+00 1.984050e+00 2.047876e+00 4.286097e+00 1.860850e+00 2.691364e+00 2.052392e+00 2.606737e+00 5.470515e-01 1.079185e-01 1.570690e-01 9.979442e-02 2.021639e-01 2.445576e-01 1.947298e-01 4.118876e-01 8.824832e-01 3.617612e-01 3.472249e-01 5.171440e-01 5.666242e-01 3.029948e-02
<GCONST> 1.003543e+02
<STATE> 3
<MEAN> 39
 6.032861e+00 -1.247693e+01 -1.092288e+01 -1.841025e+00 3.715987e+00 -1.558357e+01 -7.346451e+00 -1.722335e+01 -1.235804e+01 -4.624209e+00 -3.805151e-01 4.161284e+00 7.933736e+01 4.352031e-01 -2.140792e-02 -1.725752e-01 -7.112314e-01 -1.118302e-01 2.469250e-01 4.385420e-01 1.394362e+00 -8.551157e-01 3.490418e-01 -7.007974e-01 8.439818e-03 -1.601256e-01 -2.614573e-02 1.689108e-01 8.600155e-02 -1.916848e-02 1.868033e-01 -4.725467e-02 -6.095052e-03 1.067050e-01 -8.264121e-02 2.938957e-02 -1.494020e-01 -2.672282e-01 -8.921815e-02
<VARIANCE> 39
 7.673813e+00 1.457684e+01 2.381645e+01 2.983101e+01 6.445778e+01 3.945903e+01 2.375942e+01 3.562902e+01 8.326273e+01 2.307793e+01 4.037798e+01 5.687683e+01 1.673463e+01 4.179738e-01 7.017477e-01 9.629539e-01 1.404319e+00 1.987977e+00 1.431559e+00 1.914647e+00 2.945900e+00 2.879464e+00 2.118440e+00 2.505762e+00 2.053124e+00 2.581235e-01 4.524813e-02 8.528941e-02 8.572869e-02 1.790795e-01 2.955298e-01 1.979961e-01 3.172692e-01 4.033373e-01 5.464643e-01 3.054017e-01 3.714047e-01 3.702864e-01 2.617280e-02
<GCONST> 9.755769e+01
<STATE> 4
<MEAN> 39
 8.253655e+00 -7.835290e+00 -1.324932e+01 -6.455653e+00 1.004499e+00 -1.162808e+01 -6.110027e+00 -9.183192e+00 -1.208041e+01 -4.894978e+00 -2.925221e+00 3.929453e-01 7.384299e+01 -1.085484e-01 1.018592e+00 -6.407541e-02 9.815923e-02 2.854077e-02 4.833435e-01 -7.105669e-02 7.276417e-02 3.475513e-01 -5.856532e-01 3.186032e-01 -6.007813e-01 -1.096197e+00 -1.385789e-01 1.481826e-02 1.181026e-01 1.081249e-01 -4.171761e-02 4.506659e-02 -4.315922e-02 -2.657005e-01 1.686971e-01 -1.026234e-01 1.715422e-01 6.951304e-02 1.090809e-03
<VARIANCE> 39
 1.243484e+01 3.531861e+01 2.428404e+01 1.654169e+01 3.958165e+01 4.394572e+01 1.340996e+01 3.327422e+01 4.274615e+01 3.401580e+01 2.922387e+01 3.682293e+01 2.234124e+01 5.041726e-01 7.595587e-01 9.613951e-01 1.473105e+00 9.403226e-01 9.363142e-01 1.000698e+00 1.733891e+00 1.830043e+00 1.749081e+00 1.903526e+00 1.778467e+00 2.857876e-01 5.818128e-02 9.567738e-02 2.007726e-01 2.171533e-01 1.400679e-01 2.330514e-01 2.024913e-01 2.915874e-01 3.941773e-01 3.647924e-01 3.068495e-01 2.256056e-01 5.579510e-02
<GCONST> 9.356071e+01
<TRANSP> 5
 0.000000e+00 1.000000e+00 0.000000e+00 0.000000e+00 0.000000e+00
 0.000000e+00 7.433893e-01 2.566107e-01 0.000000e+00 0.000000e+00
 0.000000e+00 0.000000e+00 8.421981e-01 1.578019e-01 0.000000e+00
 0.000000e+00 0.000000e+00 0.000000e+00 8.326539e-01 1.673461e-01
 0.000000e+00 0.000000e+00 0.000000e+00 0.000000e+00 0.000000e+00
<ENDHMM>
~h "eh"
<BEGINHMM>
<NUMSTATES> 5
<STATE> 2
<MEAN> 39
 4.514715e-01 -2.349729e+00 -7.855349e-01 -6.602543e+00 8.133769e-01 -9.325968e+00 -8.471036e+00 -1.257280e+01 -6.172224e+00 -7.156297e+00 -4.467890e+00 -6.479765e+00 7.004030e+01 2.343096e+00 -1.195769e+00 -2.322560e+00 -1.056025e+00 1.601558e-01 -1.012176e+00 -1.776820e+00 -1.643798e+00 -1.267645e+00 -6.272388e-01 3.696467e-01 1.029386e+00 2.049930e+00 -3.204260e-01 -6.055382e-01 -2.258456e-01 3.785660e-01 2.592164e-01 4.532368e-02 1.163839e-01 -6.222465e-02 -1.355973e-01 2.717318e-02 3.488807e-01 5.336277e-01 1.386076e-01
<VARIANCE> 39
 7.712630e+01 8.157478e+01 9.579667e+01 6.065120e+01 7.433511e+01 3.821977e+01 5.894150e+01 8.449566e+01 6.517343e+01 4.737933e+01 3.430537e+01 4.642353e+01 7.315044e+01 6.358632e+00 6.453197e+00 6.893773e+00 4.828786e+00 7.547118e+00 4.902229e+00 3.886058e+00 5.574349e+00 7.289742e+00 4.622536e+00 4.564742e+00 5.487860e+00 2.748609e+00 1.091225e+00 9.415501e-01 1.136331e+00 8.305279e-01 1.000819e+00 5.269361e-01 8.591263e-01 1.405571e+00 1.206757e+00 8.025774e-01 6.540009e-01 7.469571e-01 4.792823e-01
<GCONST> 1.449471e+02
<STATE> 3
<MEAN> 39
 4.710770e+00 -9.892700e+00 -7.374817e+00 -6.262931e+00 3.122255e+00 -1.322639e+01 -1.264543e+01 -1.766546e+01 -1.082477e+01 -8.516578e+00 7.726600e-01 3.352632e-01 7.809981e+01 1.768783e-01 -1.492585e+00 -8.644521e-01 5.987548e-01 -4.745651e-01 -4.194753e-01 -3.844026e-01 -9.079612e-01 1.153872e-01 1.194462e-01 1.083197e+00 1.316972e+00 9.920395e-01 -3.550178e-01 3.686532e-01 5.171973e-01 2.744357e-01 3.956079e-02 4.373584e-01 3.999459e-01 2.670488e-01 3.570730e-01 3.865711e-02 -3.588961e-01 -5.021875e-01 -3.711675e-01
<VARIANCE> 39
 1.511062e+01 1.674591e+01 5.184447e+01 4.219972e+01 4.199229e+01 4.613676e+01 3.636562e+01 3.671270e+01 5.039380e+01 4.751708e+01 3.418267e+01 2.873620e+01 1.495845e+01 1.887770e+00 1.547914e+00 3.852496e+00 2.426969e+00 3.463171e+00 3.371719e+00 3.760999e+00 4.625093e+00 3.400320e+00 3.547135e+00 2.336897e+00 2.631044e+00 1.190342e+00 2.663374e-01 2.821554e-01 3.902787e-01 4.625301e-01 6.389588e-01 5.886657e-01 6.359310e-01 6.398765e-01 6.529352e-01 7.207142e-01 4.500037e-01 5.265449e-01 1.043721e-01
<GCONST> 1.195146e+02
<STATE> 4
<MEAN> 39
 4.198227e+00 -1.204221e+01 -6.788946e+00 -2.779366e+00 2.054049e+00 -9.620335e+00 -1.148222e+01 -2.005707e+01 -8.926252e+00 -7.828556e+00 1.332395e+00 1.341883e+00 7.873875e+01 2.139691e-01 2.335544e-01 5.268356e-02 5.165656e-01 6.834242e-01 6.994745e-01 4.422057e-01 4.622159e-01 -4.318867e-01 -1.244335e-01 -1.675794e-01 -2.558599e-01 -6.645881e-01 -1.303198e-02 2.048879e-01 5.831594e-02 3.484701e-02 1.767769e-01 9.681884e-02 5.238677e-02 2.613611e-01 -4.329430e-02 2.692970e-02 -1.902610e-02 -1.439513e-01 -2.340721e-01
<VARIANCE> 39
 1.487709e+01 1.303235e+01 3.050044e+01 3.546524e+01 4.006005e+01 4.914637e+01 2.468851e+01 3.965092e+01 5.662939e+01 3.652722e+01 3.008581e+01 2.329049e+01 2.142429e+01 8.534284e-01 7.625314e-01 1.586758e+00 1.995077e+00 2.188457e+00 2.138085e+00 2.050407e+00 2.573910e+00 2.048112e+00 2.115121e+00 1.936487e+00 1.678586e+00 8.282701e-01 1.835211e-01 1.152955e-01 2.868312e-01 3.207687e-01 3.545840e-01 3.922698e-01 4.512977e-01 5.050472e-01 4.380021e-01 3.625135e-01 3.865127e-01 3.119078e-01 8.845259e-02
<GCONST> 1.059653e+02
<TRANSP> 5
 0.000000e+00 1.000000e+00 0.000000e+00 0.000000e+00 0.000000e+00
 0.000000e+00 5.617192e-01 4.382808e-01 0.000000e+00 0.000000e+00
