~o
<STREAMINFO> 1 39
<VECSIZE> 39<NULLD><MFCC_D_A_0><DIAGC>
~s "silst"
<MEAN> 39
 -2.111840e+01 -5.640080e+00 -5.003419e+00 7.545273e-01 -1.171476e-01 -2.593597e-01 2.495078e+00 1.562402e-01 1.331860e-01 -4.433225e+00 -2.105013e+00 -3.104243e+00 4.249363e+01 1.751196e+00 -2.160056e+00 -2.138686e+00 1.451143e-01 -8.250371e-02 -1.137528e+00 8.527279e-01 2.582027e+00 1.062813e-01 -2.434275e+00 -1.155084e+00 4.968382e-01 1.848242e+00 9.212774e-01 -9.832739e-01 -9.179758e-01 -4.059096e-02 -7.143173e-02 -5.398980e-01 1.739515e-01 8.959612e-01 7.317783e-03 -1.156386e+00 -6.366960e-01 -5.817413e-03 1.054283e+00
<VARIANCE> 39
 3.767148e+00 3.813045e+00 4.520433e+00 4.189118e+00 5.294802e+00 8.679318e+00 9.564496e+00 9.070501e+00 8.436662e+00 7.776239e+00 6.673546e+00 7.698120e+00 3.661095e+00 3.530181e+00 9.662856e+00 1.110411e+01 1.367727e+00 1.109168e+00 2.846743e+00 7.868581e+00 1.885459e+01 2.049320e+00 1.268114e+01 3.939264e+00 1.464448e+00 3.552039e+00 4.000476e-01 8.822706e-01 1.319337e+00 3.034852e-01 2.668169e-01 4.181447e-01 1.498513e+00 2.542769e+00 5.327393e-01 1.021490e+00 4.740120e-01 4.042529e-01 3.965865e-01
<GCONST> 1.076738e+02
~h "b"
<BEGINHMM>
<NUMSTATES> 5
<STATE> 2
<MEAN> 39
 -1.018323e+01 -2.145970e+00 -3.606875e+00 -1.265708e+00 1.873794e+00 -2.192664e+00 -1.335651e+00 -5.643217e+00 -5.354180e+00 -9.374303e+00 -2.689534e+00 -4.027957e+00 5.561377e+01 4.239028e-01 2.239641e-01 -1.120337e-01 1.092924e-03 -2.120119e-01 -3.810061e-01 -2.563168e-01 2.477862e-01 6.605984e-01 5.731499e-02 -1.391918e-01 -6.471276e-02 1.440844e-01 2.556642e-01 -1.140553e-01 1.333830e-02 -6.663638e-02 -6.122040e-02 -2.660409e-01 -3.000944e-01 -1.095475e-01 6.941706e-05 9.282257e-02 -7.730170e-02 -1.223097e-02 3.087606e-01
<VARIANCE> 39
 9.358380e+01 2.492035e+01 3.037234e+01 3.869337e+01 3.897305e+01 2.795372e+01 3.355056e+01 2.865719e+01 3.429553e+01 2.010656e+01 2.503359e+01 2.219835e+01 6.649860e+01 6.305802e+00 1.898041e+00 2.150597e+00 2.645765e+00 2.432645e+00 4.037076e+00 3.516433e+00 2.196797e+00 2.539990e+00 1.980575e+00 1.692345e+00 1.548758e+00 4.113097e+00 6.555324e-01 3.274106e-01 3.416190e-01 4.086218e-01 4.875304e-01 5.860971e-01 5.470853e-01 4.237406e-01 4.400370e-01 3.733188e-01 3.402111e-01 2.939821e-01 4.052404e-01
<GCONST> 1.187253e+02
<STATE> 3
<MEAN> 39
 3.766104e-01 -4.526551e-01 -3.845289e+00 -8.408639e-01 2.229495e+00 -6.180492e+00 -6.821753e+00 -6.290947e+00 -2.013987e+00 -8.457023e+00 -4.110885e+00 -6.060681e+00 6.410115e+01 2.000510e+00 -6.800816e-01 -4.410176e-01 -2.777997e-01 -3.150557e-01 -1.895999e+00 -1.659334e+00 -4.839848e-01 5.104035e-01 2.557023e-01 -4.663776e-01 3.562316e-02 2.347710e+00 -1.601568e-01 -3.495637e-01 6.315948e-02 -2.126374e-02 -2.800823e-02 -1.551239e-01 -3.795046e-02 -1.690682e-01 -3.816381e-01 -3.586193e-02 -1.225037e-01 2.197367e-01 1.125448e-01
<VARIANCE> 39
 7.440990e+01 3.914397e+01 3.143450e+01 7.096930e+01 8.973499e+01 8.842303e+01 7.881531e+01 5.506443e+01 4.830248e+01 3.937240e+01 3.289692e+01 3.249753e+01 5.446513e+01 7.890720e+00 3.648202e+00 3.137284e+00 7.309398e+00 7.509568e+00 7.262886e+00 7.139406e+00 3.961111e+00 4.858097e+00 3.402705e+00 3.394313e+00 2.415122e+00 5.756441e+00 1.676549e+00 6.889322e-01 5.432134e-01 9.594238e-01 9.913466e-01 1.382772e+00 1.719688e+00 7.752811e-01 7.467873e-01 6.956428e-01 5.612463e-01 5.915476e-01 8.217571e-01
<GCONST> 1.418760e+02
<STATE> 4
<MEAN> 39
 3.304333e+00 -1.645206e+00 -4.559985e+00 -3.707842e+00 -4.114755e+00 -1.273366e+01 -8.394833e+00 -3.501370e+00 1.154444e+00 -1.071072e+01 -6.277800e+00 -3.503270e+00 6.781598e+01 2.078373e-01 -7.028573e-01 8.929782e-02 8.092624e-02 1.586264e-01 -3.650834e-01 -5.520815e-01 -1.064633e-01 -2.731389e-01 -1.814632e-01 8.572990e-02 2.744780e-01 7.731395e-01 -1.119578e-01 1.486613e-02 8.801543e-02 8.651148e-02 1.826565e-01 1.147892e-01 2.662204e-03 -1.695137e-02 -2.001479e-01 7.212605e-02 1.176307e-01 1.166759e-02 -1.100753e-01
<VARIANCE> 39
 6.207003e+01 3.128969e+01 2.899045e+01 6.161463e+01 1.032794e+02 9.790424e+01 8.962970e+01 4.331924e+01 6.662958e+01 4.427571e+01 3.588851e+01 3.664662e+01 5.182307e+01 2.946267e+00 2.525839e+00 2.101493e+00 4.461794e+00 6.406314e+00 6.092568e+00 7.992871e+00 3.523627e+00 3.825695e+00 4.135453e+00 2.716507e+00 2.841605e+00 2.838297e+00 7.145498e-01 3.724785e-01 4.248555e-01 7.081071e-01 6.904141e-01 1.007765e+00 9.740131e-01 5.342656e-01 5.476722e-01 6.439041e-01 3.888805e-01 4.187992e-01 4.050539e-01
<GCONST> 1.331358e+02
<TRANSP> 5
 0.000000e+00 1.000000e+00 0.000000e+00 0.000000e+00 0.000000e+00
 0.000000e+00 7.558605e-01 2.441395e-01 0.000000e+00 0.000000e+00
 0.000000e+00 0.000000e+00 4.268299e-01 5.731701e-01 0.000000e+00
 0.000000e+00 0.000000e+00 0.000000e+00 6.350523e-01 3.649478e-01
 0.000000e+00 0.000000e+00 0.000000e+00 0.000000e+00 0.000000e+00
<ENDHMM>
~h "d"
<BEGINHMM>
<NUMSTATES> 5
<STATE> 2
<MEAN> 39
 3.104753e+00 -4.250947e+00 -5.762021e+00 2.851162e-01 6.780592e+00 -4.844978e+00 -7.118496e+00 -9.181369e+00 -8.588114e+00 -1.050090e+01 -2.473372e+00 -3.525042e+00 6.805760e+01 -5.684536e-01 1.285548e-01 -1.120267e-01 4.128481e-01 8.203111e-02 5.870488e-01 7.255654e-01 1.490490e-01 2.588149e-01 7.055004e-02 2.511129e-01 3.563957e-01 -7.423064e-01 -1.357739e-01 -9.209542e-02 2.453761e-01 -2.078103e-01 -9.245081e-02 -1.638967e-01 -7.299958e-02 -9.639622e-04 8.682746e-02 4.889443e-02 -6.384946e-02 -3.506910e-02 1.560982e-01
<VARIANCE> 39
 4.609286e+01 3.604443e+01 5.005756e+01 7.897020e+01 4.860380e+01 5.492673e+01 4.039789e+01 4.217750e+01 5.175900e+01 3.596197e+01 5.471907e+01 2.840509e+01 3.418734e+01 9.215114e-01 1.800747e+00 1.936614e+00 1.881268e+00 1.920619e+00 3.090374e+00 2.800291e+00 2.094139e+00 2.488200e+00 2.052268e+00 2.220903e+00 1.842422e+00 1.130033e+00 1.904852e-01 4.443462e-01 4.123594e-01 4.827614e-01 5.088934e-01 5.946759e-01 5.409595e-01 4.132792e-01 5.495859e-01 4.184434e-01 5.234631e-01 3.307701e-01 2.801614e-01
<GCONST> 1.183533e+02
<STATE> 3
<MEAN> 39
 6.037029e-01 -4.194297e+00 -4.753297e+00 2.413658e+00 6.098411e+00 -3.320791e+00 -5.282376e+00 -9.716340e+00 -7.536714e+00 -9.831776e+00 -8.468853e-01 -3.024605e+00 6.572526e+01 -8.904693e-01 -1.719218e-01 5.458822e-01 -1.983614e-01 -2.522826e-02 7.889760e-02 1.987064e-01 2.171226e-01 4.166557e-01 7.976547e-02 3.980468e-02 5.566513e-02 -2.828214e-01 -1.549947e-01 -2.969269e-01 4.424162e-01 -4.189549e-01 -9.984884e-03 -3.598447e-01 -2.782657e-01 3.253677e-02 1.096700e-01 3.202316e-02 -2.485974e-01 -2.263104e-01 4.846048e-01
<VARIANCE> 39
 4.058730e+01 3.904978e+01 4.363883e+01 6.283757e+01 5.448804e+01 5.023827e+01 4.334880e+01 4.635150e+01 4.787930e+01 3.788546e+01 4.167250e+01 2.839953e+01 3.474671e+01 2.047283e+00 3.752549e+00 2.818506e+00 3.731390e+00 3.389115e+00 3.346120e+00 3.769449e+00 3.304471e+00 4.183412e+00 2.627007e+00 3.043988e+00 2.333911e+00 2.034852e+00 3.521452e-01 6.627461e-01 6.446820e-01 6.644368e-01 6.429220e-01 7.925817e-01 6.251879e-01 5.934469e-01 6.641093e-01 6.570188e-01 5.668857e-01 4.057393e-01 3.474952e-01
<GCONST> 1.276959e+02
<STATE> 4
<MEAN> 39
 -5.825946e+00 -9.330120e+00 1.988078e+00 -1.242429e-01 4.478811e+00 -4.869235e+00 -4.431526e+00 -7.973909e+00 -5.861408e+00 -8.836803e+00 -1.275719e+00 -4.291942e+00 6.741081e+01 -5.486407e-01 -6.512752e-01 9.996186e-01 -5.922192e-01 -9.933621e-02 -4.564375e-01 -1.960409e-01 1.006130e-02 -2.013204e-01 -4.598508e-02 -3.779437e-01 -4.364367e-01 6.355413e-01 2.990761e-01 2.603397e-01 -2.198750e-01 4.473929e-02 -4.992663e-03 -3.844310e-03 -1.009537e-02 -7.926808e-02 -2.105645e-01 -5.765897e-02 -8.959371e-02 -3.795137e-02 -9.230138e-03
<VARIANCE> 39
 5.413689e+01 6.217029e+01 7.962956e+01 6.724165e+01 5.408379e+01 6.446291e+01 6.395369e+01 6.364334e+01 7.236424e+01 6.214668e+01 5.063972e+01 3.372395e+01 4.695348e+01 6.537591e+00 6.173776e+00 7.015557e+00 6.850155e+00 4.390014e+00 4.771228e+00 4.474950e+00 4.276414e+00 6.757517e+00 3.650549e+00 3.815734e+00 3.068279e+00 4.103013e+00 7.714484e-01 8.476038e-01 1.106364e+00 1.140942e+00 7.164169e-01 8.746315e-01 7.736806e-01 6.928387e-01 1.082724e+00 6.520121e-01 6.495897e-01 5.630403e-01 6.526580e-01
<GCONST> 1.421334e+02
<TRANSP> 5
 0.000000e+00 1.000000e+00 0.000000e+00 0.000000e+00 0.000000e+00
 0.000000e+00 4.460103e-01 5.539897e-01 0.000000e+00 0.000000e+00
 0.000000e+00 0.000000e+00 2.628207e-01 7.371793e-01 0.000000e+00
 0.000000e+00 0.000000e+00 0.000000e+00 6.987147e-01 3.012853e-01
 0.000000e+00 0.000000e+00 0.000000e+00 0.000000e+00 0.000000e+00
<ENDHMM>
~h "f"
<BEGINHMM>
<NUMSTATES> 5
<STATE> 2
<MEAN> 39
 -1.678567e+01 -1.085066e+00 -3.804401e+00 -6.764756e+00 1.222309e+01 -1.001365e+01 4.141726e-01 -5.872906e+00 -5.775346e+00 -1.085919e+01 -4.093205e+00 -7.441741e+00 7.174297e+01 -1.940839e+00 3.050308e-01 1.425659e-01 -7.078000e-01 1.249359e-01 -4.189827e-01 2.926520e-01 4.680945e-01 4.671960e-01 2.169919e-01 1.881481e-01 -5.566728e-01 2.668574e-01 4.177387e-01 -8.407854e-02 -5.646931e-02 1.125082e-03 -3.564951e-01 -6.972811e-02 -2.631690e-01 -9.024746e-02 6.712352e-02 1.186822e-01 4.306192e-02 5.512372e-02 6.026810e-02
<VARIANCE> 39
 1.113270e+02 2.868759e+01 3.827293e+01 4.702936e+01 7.883936e+01 3.896667e+01 3.651568e+01 5.036271e+01 4.527679e+01 3.901122e+01 3.291132e+01 4.636040e+01 3.592181e+01 6.509444e+00 2.164486e+00 2.018273e+00 2.218733e+00 5.307217e+00 3.086165e+00 4.087397e+00 3.154771e+00 3.875141e+00 2.734830e+00 2.650326e+00 2.393127e+00 1.329136e+00 8.228057e-01 3.478290e-01 3.728119e-01 4.120961e-01 6.392909e-01 6.108201e-01 6.216747e-01 5.541775e-01 5.839477e-01 5.446444e-01 4.518853e-01 4.872791e-01 2.651315e-01
<GCONST> 1.260504e+02
<STATE> 3
<MEAN> 39
 -1.936607e+01 -1.288721e+00 -4.147538e+00 -1.055927e+01 6.416597e+00 -1.391517e+01 -1.738336e+00 -4.311350e+00 -1.798397e+00 -7.331230e+00 -2.702530e+00 -9.452038e+00 7.306100e+01 2.172891e+00 2.489575e-01 2.708758e-01 -8.318124e-01 -2.023132e+00 -1.219610e+00 -8.631616e-01 -5.262815e-01 3.584626e-01 9.171257e-01 1.271803e-01 1.208416e-01 4.344279e-01 9.226114e-01 1.679928e-01 1.956092e-01 1.698537e-01 5.880733e-02 -2.113581e-02 -2.039429e-01 -1.827018e-01 -3.008106e-01 2.624498e-02 -1.264305e-01 1.653857e-01 -7.470408e-02
<VARIANCE> 39
 8.569235e+01 3.860019e+01 4.151183e+01 5.205702e+01 9.491342e+01 5.086499e+01 3.770115e+01 4.480872e+01 4.096806e+01 4.275666e+01 2.997496e+01 3.269788e+01 2.119508e+01 1.332220e+01 5.148104e+00 4.193750e+00 3.725027e+00 5.434445e+00 4.157489e+00 3.804311e+00 3.674825e+00 3.183199e+00 3.516272e+00 2.404652e+00 3.091094e+00 1.622658e+00 7.286022e-01 9.030785e-01 8.316079e-01 8.107787e-01 9.338448e-01 7.551017e-01 7.922906e-01 6.460091e-01 6.444366e-01 5.957572e-01 5.564439e-01 5.892605e-01 2.035882e-01
<GCONST> 1.329250e+02
<STATE> 4
<MEAN> 39
 -5.761988e+00 6.577837e-01 -3.089107e+00 -1.122850e+01 -1.039212e+00 -1.579107e+01 -4.449581e+00 -4.795985e+00 -4.752398e-01 -4.347625e+00 -3.463024e+00 -7.116111e+00 7.261407e+01 2.743399e+00 1.079060e-01 2.700931e-01 3.740127e-02 -4.231556e-01 -4.111083e-01 -9.560981e-01 -2.495007e-01 -3.356692e-01 3.968294e-01 -5.942585e-01 4.149644e-01 -8.969969e-02 -1.195287e-01 -1.832400e-01 -2.326059e-01 1.741419e-01 2.520894e-01 2.374399e-01 -2.941799e-02 1.188683e-01 -9.446735e-02 -8.514278e-02 -9.865148e-02 8.810646e-02 -3.509952e-02
<VARIANCE> 39
 1.428516e+02 5.218050e+01 4.960878e+01 5.275782e+01 6.775043e+01 6.678458e+01 6.489735e+01 4.347525e+01 4.303066e+01 4.443277e+01 3.352227e+01 2.611435e+01 2.642312e+01 8.638758e+00 5.031500e+00 5.057890e+00 3.162696e+00 4.518103e+00 4.935222e+00 4.755708e+00 2.766223e+00 3.190170e+00 3.985266e+00 2.299294e+00 2.168931e+00 9.875396e-01 9.861091e-01 9.358873e-01 9.525121e-01 5.076906e-01 6.758255e-01 6.665511e-01 6.704373e-01 4.585315e-01 5.138674e-01 5.290347e-01 4.601853e-01 4.165952e-01 1.272779e-01
<GCONST> 1.309939e+02
<TRANSP> 5
 0.000000e+00 1.000000e+00 0.000000e+00 0.000000e+00 0.000000e+00
 0.000000e+00 8.544791e-01 1.455209e-01 0.000000e+00 0.000000e+00
 0.000000e+00 0.000000e+00 6.737033e-01 3.262967e-01 0.000000e+00
 0.000000e+00 0.000000e+00 0.000000e+00 7.664977e-01 2.335023e-01
 0.000000e+00 0.000000e+00 0.000000e+00 0.000000e+00 0.000000e+00
<ENDHMM>
~h "g"
<BEGINHMM>
<NUMSTATES> 5
<STATE> 2
<MEAN> 39
 -3.758210e+00 -4.309696e+00 -1.263565e+00 -5.893662e+00 6.979951e+00 -8.400460e+00 -7.632691e+00 -9.407171e+00 -5.285988e+00 -9.480947e+00 -2.625541e+00 -8.178516e+00 6.924298e+01 2.949897e-01 -3.940641e-01 2.795889e-01 -6.236939e-01 3.994057e-01 -1.143570e+00 -1.221332e-02 -2.366761e-01 -4.059596e-01 -4.271681e-01 1.688365e-01 -3.454469e-01 1.322551e+00 3.275534e-01 9.357737e-02 2.038007e-02 1.683151e-01 -4.778325e-02 -3.808746e-02 -1.303506e-01 -1.834590e-01 -4.089900e-01 1.353183e-01 4.461858e-02 5.542137e-02 2.218372e-02
<VARIANCE> 39
 4.473270e+01 2.410459e+01 8.707570e+01 2.015514e+02 7.745879e+01 8.722437e+01 1.152797e+02 1.229055e+02 6.346795e+01 8.074119e+01 4.886259e+01 4.727772e+01 4.550752e+01 5.495352e+00 3.018042e+00 5.236328e+00 1.015890e+01 6.639960e+00 6.501904e+00 7.237059e+00 1.076618e+01 9.030448e+00 6.449306e+00 7.797256e+00 3.323836e+00 3.811195e+00 6.158705e-01 5.990201e-01 1.024046e+00 1.210786e+00 8.726307e-01 1.265676e+00 1.313639e+00 1.959757e+00 1.204162e+00 1.101575e+00 1.135808e+00 6.821066e-01 7.095649e-01
<GCONST> 1.504226e+02
<STATE> 3
<MEAN> 39
 2.354462e+00 -6.115735e+00 -3.492719e+00 -1.947052e+00 1.055490e+01 -8.357999e+00 -1.037523e+01 -1.346220e+01 -1.046473e+01 -9.751612e+00 8.434157e-01 -6.201280e+00 7.262406e+01 5.830632e-01 1.580629e-01 -2.449957e-01 2.518456e-01 -2.220937e-01 7.816877e-02 1.376652e-01 5.670402e-02 -6.089649e-01 2.525159e-01 7.375611e-02 3.565013e-03 9.893537e-03 -5.332483e-02 1.140364e-01 -2.964961e-02 2.683306e-03 -2.649647e-01 3.084014e-02 -6.729447e-02 7.893072e-02 2.382980e-01 2.832947e-01 -1.383533e-01 -8.549723e-02 -1.278576e-01
<VARIANCE> 39
 1.703795e+01 2.201036e+01 5.081112e+01 7.499873e+01 6.187199e+01 6.537225e+01 7.617020e+01 7.962857e+01 7.721377e+01 7.392492e+01 4.858334e+01 3.036303e+01 2.083212e+01 2.570392e+00 1.646068e+00 3.049112e+00 5.405568e+00 3.125628e+00 5.133887e+00 4.241713e+00 4.553718e+00 6.258811e+00 5.002659e+00 3.754317e+00 3.415977e+00 1.670850e+00 3.031093e-01 3.465661e-01 4.784014e-01 8.470458e-01 3.557642e-01 7.766001e-01 7.373449e-01 8.077093e-01 1.552618e+00 8.938909e-01 6.492247e-01 4.551507e-01 2.865617e-01
<GCONST> 1.312354e+02
<STATE> 4
<MEAN> 39
 2.905327e+00 -1.366797e+00 -2.074828e+00 3.191665e+00 1.160469e+01 -7.629511e+00 -1.212333e+01 -6.680185e+00 -4.186485e+00 -1.092638e+01 -2.271429e+00 -6.534351e+00 6.786671e+01 3.013689e-01 2.344971e-01 -1.689175e-01 -8.340747e-02 -4.519656e-01 -3.490991e-01 -7.094198e-02 1.715496e-01 2.663023e-01 2.036424e-01 -4.863104e-01 -1.562988e-01 9.601264e-02 -3.777995e-02 -3.930238e-02 1.126882e-02 -1.071920e-02 4.306147e-02 -1.023141e-02 -6.100336e-02 2.391900e-02 5.407862e-02 5.383654e-03 -5.083910e-02 -1.394565e-02 4.493386e-02
<VARIANCE> 39
 2.006024e+01 4.286239e+01 5.779363e+01 1.135306e+02 8.377394e+01 7.320811e+01 1.071682e+02 7.741856e+01 7.258625e+01 6.343556e+01 5.796962e+01 1.783443e+01 2.271780e+01 2.195921e+00 2.049982e+00 2.771667e+00 5.002227e+00 3.295718e+00 5.608363e+00 5.676915e+00 5.628603e+00 3.803164e+00 5.938520e+00 3.119698e+00 2.499519e+00 1.279271e+00 2.540590e-01 2.757824e-01 4.684338e-01 1.024328e+00 4.454966e-01 9.006116e-01 8.803430e-01 1.017631e+00 8.843905e-01 7.994772e-01 6.032689e-01 3.531021e-01 2.072007e-01
<GCONST> 1.315163e+02
<TRANSP> 5
 0.000000e+00 1.000000e+00 0.000000e+00 0.000000e+00 0.000000e+00
 0.000000e+00 7.090234e-01 2.909766e-01 0.000000e+00 0.000000e+00
 0.000000e+00 0.000000e+00 6.888609e-01 3.111391e-01 0.000000e+00
 0.000000e+00 0.000000e+00 0.000000e+00 7.637375e-01 2.362625e-01
 0.000000e+00 0.000000e+00 0.000000e+00 0.000000e+00 0.000000e+00
<ENDHMM>
~h "k"
<BEGINHMM>
<NUMSTATES> 5
<STATE> 2
<MEAN> 39
 -4.839020e+00 -3.214751e+00 -3.895667e+00 -4.196401e-01 5.537344e+00 -4.011183e+00 -3.526476e+00 -9.348240e+00 -5.777575e+00 -6.176289e+00 -2.883736e-01 -4.249506e+00 6.243319e+01 -9.266282e-01 -3.727587e-01 -3.550626e-01 -2.740768e+00 -2.638119e-01 -1.667217e+00 2.810960e-01 9.221267e-01 3.811279e-01 -5.497329e-01 -3.823774e-01 1.595026e-01 8.143264e-01 -6.032496e-02 -4.873701e-01 6.594163e-02 -7.809995e-01 -2.006417e-01 -6.350153e-01 3.920129e-02 1.820593e-01 5.933708e-02 -2.581998e-01 -9.306757e-02 1.489356e-03 7.765802e-01
<VARIANCE> 39
 4.484138e+01 4.981812e+01 3.652537e+01 1.083536e+02 1.144191e+02 7.239941e+01 4.984018e+01 8.484156e+01 6.233303e+01 5.248635e+01 4.462077e+01 3.863078e+01 4.323681e+01 2.949431e+00 4.182639e+00 5.197727e+00 1.317070e+01 8.433139e+00 1.010658e+01 4.862642e+00 6.325156e+00 6.569461e+00 6.106221e+00 5.576110e+00 3.795347e+00 4.000831e+00 3.799843e-01 6.291065e-01 6.832064e-01 1.755949e+00 1.275349e+00 1.692273e+00 5.876385e-01 1.124301e+00 8.893729e-01 9.291071e-01 8.670821e-01 4.950230e-01 5.427912e-01
<GCONST> 1.445547e+02
<STATE> 3
<MEAN> 39
 -6.907849e+00 -6.728322e+00 -5.423409e+00 -1.443295e+01 3.291763e+00 -1.448078e+01 -2.740123e+00 -5.224123e+00 -4.331923e+00 -1.062904e+01 -1.231981e+00 -3.451659e+00 7.037028e+01 -9.214920e-01 -1.864532e+00 4.719412e-01 -2.743176e+00 -7.493953e-01 -1.766392e+00 4.064335e-01 7.128203e-01 2.997071e-03 -9.272978e-01 -2.393212e-01 -1.014336e-01 2.181724e+00 2.586206e-01 -4.545903e-02 4.244545e-01 1.266608e+00 -3.988583e-02 1.005125e+00 -5.045735e-02 -3.827493e-01 -2.997407e-01 3.120989e-01 4.168621e-02 -9.741054e-02 -4.468551e-01
<VARIANCE> 39
 3.087521e+01 5.704423e+01 5.557426e+01 1.168946e+02 9.587973e+01 1.245553e+02 8.709348e+01 8.929045e+01 7.185596e+01 8.595427e+01 7.768652e+01 5.001224e+01 3.875606e+01 4.787462e+00 5.033278e+00 5.355540e+00 1.276572e+01 8.162490e+00 1.179070e+01 5.847778e+00 7.732458e+00 7.728408e+00 5.092353e+00 4.751354e+00 3.878475e+00 4.220809e+00 5.923187e-01 8.065082e-01 7.283068e-01 1.887617e+00 1.499942e+00 1.851134e+00 9.897913e-01 1.308176e+00 1.305364e+00 1.043995e+00 9.370778e-01 7.053153e-01 7.239103e-01
<GCONST> 1.511708e+02
<STATE> 4
<MEAN> 39
 -6.055232e+00 -1.009364e+01 -2.230757e+00 -1.200230e+01 1.307680e+00 -1.055421e+01 -2.646289e+00 -5.095398e+00 -6.593963e+00 -1.049770e+01 -2.112419e+00 -4.606133e+00 7.081722e+01 1.300427e+00 5.840614e-01 9.564497e-01 1.438664e+00 -1.370383e-01 9.253226e-01 -4.035199e-01 -7.007750e-01 -6.392820e-01 6.580159e-01 -2.188323e-01 -2.921599e-01 -9.132579e-02 4.232430e-01 6.027356e-01 -1.526044e-01 3.238767e-01 -1.096372e-04 -1.862273e-02 -2.046431e-01 -2.775145e-01 -1.405294e-02 1.410661e-01 1.147857e-02 -4.483733e-03 -1.554395e-01
<VARIANCE> 39
 4.387730e+01 6.215693e+01 6.711216e+01 8.990771e+01 7.131367e+01 1.112103e+02 7.096954e+01 9.856679e+01 6.707912e+01 7.500891e+01 5.930673e+01 3.849963e+01 2.704043e+01 4.772255e+00 6.819314e+00 4.062100e+00 4.901443e+00 4.029806e+00 4.942198e+00 4.288107e+00 5.070854e+00 4.007933e+00 3.842417e+00 2.526996e+00 2.542622e+00 1.667347e+00 7.018737e-01 1.189934e+00 8.777725e-01 1.189799e+00 6.810530e-01 1.234494e+00 8.742695e-01 9.256293e-01 7.216793e-01 7.705947e-01 5.184902e-01 5.110067e-01 4.161611e-01
<GCONST> 1.400162e+02
<TRANSP> 5
 0.000000e+00 1.000000e+00 0.000000e+00 0.000000e+00 0.000000e+00
 0.000000e+00 6.507142e-01 3.492859e-01 0.000000e+00 0.000000e+00
 0.000000e+00 0.000000e+00 5.148569e-01 4.851431e-01 0.000000e+00
 0.000000e+00 0.000000e+00 0.000000e+00 7.489116e-01 2.510885e-01
 0.000000e+00 0.000000e+00 0.000000e+00 0.000000e+00 0.000000e+00
<ENDHMM>
~h "l"
<BEGINHMM>
<NUMSTATES> 5
<STATE> 2
<MEAN> 39
 7.199834e+00 -6.578257e+00 -5.200216e+00 -3.014470e-01 7.544147e+00 -7.814456e+00 -9.548251e+00 -1.017221e+01 -1.122786e+01 -1.178474e+01 -6.943016e+00 -5.025432e+00 7.315864e+01 3.043640e-01 -5.346611e-02 -6.425531e-01 7.096465e-01 7.438303e-01 6.987961e-02 1.020008e-01 -2.168033e-01 -5.288100e-01 -7.015716e-01 6.209232e-03 3.883025e-01 1.459072e-02 -2.032261e-01 5.790849e-02 1.721618e-01 -9.438142e-02 -1.055189e-01 2.373099e-03 5.137766e-02 1.416695e-01 2.642958e-01 8.830082e-02 1.063669e-01 6.665793e-02 -9.640329e-02
<VARIANCE> 39
 1.508928e+01 2.844648e+01 4.513651e+01 4.379083e+01 4.662433e+01 7.006808e+01 2.682253e+01 6.311921e+01 6.002492e+01 3.760338e+01 4.400822e+01 3.384071e+01 1.632138e+01 8.841747e-01 1.784554e+00 2.486282e+00 2.688992e+00 2.516033e+00 4.981940e+00 2.954132e+00 3.178287e+00 3.280483e+00 2.780748e+00 2.480433e+00 2.567129e+00 8.659939e-01 1.236071e-01 1.953699e-01 3.149725e-01 4.343367e-01 4.097793e-01 7.863960e-01 5.361195e-01 6.097533e-01 5.186548e-01 5.376362e-01 4.561758e-01 4.268447e-01 9.870740e-02
<GCONST> 1.165246e+02
<STATE> 3
<MEAN> 39
 7.680295e+00 -6.897818e+00 -6.861455e+00 2.139286e+00 9.698208e+00 -6.763601e+00 -9.400812e+00 -1.062689e+01 -1.212540e+01 -1.426129e+01 -5.753242e+00 -2.872213e+00 7.285074e+01 -1.538224e-01 2.634560e-01 -9.768191e-02 2.411196e-01 1.793430e-01 3.686650e-01 1.979837e-01 1.237661e-01 1.577600e-01 -2.711534e-01 2.104514e-01 1.154517e-01 -3.060901e-01 -1.209951e-01 7.400886e-03 9.920800e-02 -1.497625e-01 -7.600109e-02 -6.853271e-02 -2.300773e-02 4.618985e-02 9.688801e-02 1.365810e-01 4.511210e-02 -3.699642e-02 -1.131864e-02
<VARIANCE> 39
 1.205615e+01 2.375484e+01 2.844846e+01 3.414541e+01 4.112799e+01 5.217882e+01 3.049841e+01 3.352068e+01 5.064651e+01 3.673077e+01 4.643375e+01 3.349012e+01 1.588828e+01 5.396130e-01 9.881043e-01 1.395646e+00 1.903408e+00 2.121355e+00 3.628657e+00 2.641633e+00 2.394801e+00 2.353076e+00 2.381080e+00 2.497382e+00 1.776506e+00 6.861193e-01 7.671509e-02 1.431672e-01 2.179619e-01 2.743480e-01 3.134884e-01 6.302483e-01 4.376645e-01 4.310009e-01 3.817971e-01 4.693460e-01 3.785366e-01 3.334582e-01 8.604392e-02
<GCONST> 1.066684e+02
<STATE> 4
<MEAN> 39
 3.457764e+00 -2.339413e+00 -5.518617e+00 6.259552e-01 7.247218e+00 -2.106679e+00 -5.878457e+00 -9.649537e+00 -9.267344e+00 -1.414734e+01 -5.891255e+00 -3.604029e+00 6.723966e+01 -6.785649e-01 1.330033e-01 2.522231e-01 -1.775319e-01 -1.370654e-01 -1.038672e-01 6.777272e-02 4.171585e-02 2.348245e-01 3.444508e-01 1.558197e-01 -9.774783e-02 -4.063510e-01 -5.990399e-02 -1.272615e-01 9.975763e-02 -1.242412e-01 -4.898166e-02 -1.744984e-01 -1.263997e-01 -4.113044e-02 1.287317e-02 1.550422e-01 1.156977e-02 -4.210327e-03 1.045356e-01
<VARIANCE> 39
 3.999015e+01 3.154243e+01 3.374035e+01 3.651337e+01 4.531028e+01 5.231744e+01 3.505703e+01 3.639678e+01 4.150378e+01 3.689358e+01 4.035046e+01 3.007196e+01 4.065681e+01 8.036160e-01 1.408869e+00 1.356286e+00 1.851658e+00 2.266478e+00 3.738280e+00 2.886679e+00 2.413418e+00 2.370410e+00 2.566151e+00 1.796882e+00 1.687403e+00 9.060714e-01 1.129614e-01 1.895561e-01 2.302964e-01 3.285784e-01 3.247619e-01 5.692518e-01 4.677134e-01 4.384992e-01 4.364636e-01 5.245587e-01 3.444236e-01 2.914962e-01 1.024905e-01
<GCONST> 1.111867e+02
<TRANSP> 5
 0.000000e+00 1.000000e+00 0.000000e+00 0.000000e+00 0.000000e+00
 0.000000e+00 6.336765e-01 3.663236e-01 0.000000e+00 0.000000e+00
 0.000000e+00 0.000000e+00 7.501623e-01 2.498377e-01 0.000000e+00
 0.000000e+00 0.000000e+00 0.000000e+00 7.622504e-01 2.377496e-01
 0.000000e+00 0.000000e+00 0.000000e+00 0.000000e+00 0.000000e+00
<ENDHMM>
~h "m"
<BEGINHMM>
<NUMSTATES> 5
<STATE> 2
<MEAN> 39
 7.841006e+00 -3.522461e+00 -8.703511e+00 4.409141e-01 6.377710e+00 -7.586793e+00 -1.020459e+01 -7.162684e+00 -4.357180e+00 -9.849607e+00 -4.074271e+00 -6.875268e+00 7.026974e+01 9.482901e-02 5.072051e-01 -3.071372e-01 8.103142e-01 3.370175e-01 4.309641e-01 1.078715e-01 1.153677e-01 8.496720e-01 2.866305e-01 -2.687094e-01 -6.692638e-01 -5.792723e-01 -1.089264e-01 9.955414e-03 1.001467e-01 -1.845645e-01 -1.835208e-02 -1.283445e-01 -6.809490e-02 -1.044684e-01 -2.659447e-02 9.207635e-02 -2.396480e-02 9.162845e-02 5.108077e-02
<VARIANCE> 39
 2.375716e+01 2.561494e+01 4.451011e+01 4.123284e+01 2.969242e+01 3.571799e+01 3.446362e+01 3.775023e+01 5.455550e+01 4.324202e+01 2.686450e+01 4.882547e+01 1.880471e+01 5.901370e-01 8.239905e-01 1.165195e+00 2.554030e+00 1.458559e+00 2.046436e+00 2.387247e+00 1.835922e+00 2.606578e+00 1.871838e+00 1.293710e+00 1.678876e+00 4.958833e-01 6.025957e-02 1.198565e-01 1.393213e-01 3.381434e-01 2.602139e-01 3.490911e-01 4.437546e-01 3.025964e-01 4.176650e-01 3.333752e-01 2.306252e-01 2.738573e-01 6.782054e-02
<GCONST> 1.024030e+02
<STATE> 3
<MEAN> 39
 6.662305e+00 -1.004287e+00 -8.292747e+00 2.514966e+00 7.534823e+00 -6.248353e+00 -1.006875e+01 -7.590160e+00 4.272723e-02 -6.894983e+00 -5.672051e+00 -9.956535e+00 6.764405e+01 -2.455549e-01 4.136048e-01 -2.060873e-02 -2.534208e-01 -1.274430e-01 -5.463119e-02 -1.239105e-01 -2.872052e-01 2.635571e-01 3.887209e-01 -6.001430e-02 -1.722018e-01 -2.701158e-01 -4.352406e-02 -7.908748e-02 6.377165e-02 -4.006433e-01 -2.578518e-01 -2.387595e-01 -3.362206e-02 -7.634632e-03 -2.667699e-01 -1.213935e-01 1.061939e-01 2.911754e-01 1.677216e-01
<VARIANCE> 39
 3.007748e+01 1.965207e+01 4.179946e+01 2.937692e+01 2.792664e+01 3.030728e+01 4.265846e+01 3.873226e+01 3.653610e+01 4.523373e+01 1.967508e+01 3.865045e+01 1.490530e+01 7.504774e-01 9.454149e-01 1.555836e+00 2.217363e+00 1.455044e+00 2.182320e+00 2.284460e+00 1.554167e+00 2.113498e+00 2.046945e+00 1.224635e+00 2.021673e+00 6.123251e-01 7.403279e-02 1.337053e-01 1.701961e-01 3.621356e-01 2.578874e-01 4.058921e-01 3.410940e-01 3.091168e-01 3.172054e-01 4.449463e-01 2.611931e-01 4.163874e-01 7.787188e-02
<GCONST> 1.026295e+02
<STATE> 4
<MEAN> 39
 3.264779e+00 -1.087925e-01 -7.603451e+00 3.492454e-01 5.704694e+00 -6.326771e+00 -9.132799e+00 -8.267520e+00 -7.386208e-02 -6.500269e+00 -5.258775e+00 -8.447455e+00 6.548022e+01 -2.979571e-01 5.253009e-02 9.613422e-02 -1.087380e+00 -8.365848e-01 -7.224898e-01 -1.622942e-01 -1.601220e-01 -4.172851e-01 -8.618983e-02 2.682732e-01 5.770822e-01 2.304440e-01 4.996275e-02 -2.221669e-01 -7.339433e-03 -2.523624e-01 -1.806028e-01 -3.046321e-01 -3.175600e-02 1.113820e-01 -2.140487e-01 -1.321907e-01 9.965925e-02 2.771900e-01 2.531051e-01
<VARIANCE> 39
 6.915483e+01 2.325568e+01 3.813636e+01 3.277732e+01 3.036457e+01 3.876705e+01 5.088235e+01 3.660535e+01 3.542178e+01 4.418964e+01 2.286175e+01 4.836914e+01 3.956813e+01 1.352251e+00 1.405904e+00 2.199895e+00 3.510952e+00 2.590464e+00 3.643886e+00 2.517282e+00 2.387840e+00 2.129491e+00 3.298040e+00 1.765795e+00 2.907201e+00 1.103881e+00 1.823887e-01 2.095304e-01 2.450128e-01 5.566210e-01 4.232543e-01 5.713619e-01 4.239255e-01 3.502849e-01 3.577969e-01 5.730291e-01 3.236285e-01 5.925903e-01 1.549928e-01
<GCONST> 1.155588e+02
<TRANSP> 5
 0.000000e+00 1.000000e+00 0.000000e+00 0.000000e+00 0.000000e+00
 0.000000e+00 7.514238e-01 2.485762e-01 0.000000e+00 0.000000e+00
 0.000000e+00 0.000000e+00 5.645584e-01 4.354416e-01 0.000000e+00
 0.000000e+00 0.000000e+00 0.000000e+00 6.181680e-01 3.818320e-01
 0.000000e+00 0.000000e+00 0.000000e+00 0.000000e+00 0.000000e+00
<ENDHMM>
~h "n"
<BEGINHMM>
<NUMSTATES> 5
<STATE> 2
<MEAN> 39
 4.817991e+00 -5.895564e+00 -2.979622e+00 1.799081e+00 8.218711e+00 -6.482523e+00 -1.173274e+01 -1.242384e+01 -7.779578e+00 -8.251165e+00 -4.853257e-01 -4.623326e+00 7.140379e+01 4.888179e-01 6.450387e-01 -6.605480e-01 1.438949e+00 1.766391e-01 3.690386e-01 5.536269e-02 5.397843e-01 9.191322e-01 4.659953e-01 -4.377783e-02 -6.835800e-01 -8.723935e-01 -1.857671e-01 8.717328e-02 5.408522e-02 -9.273436e-02 -5.319011e-02 -1.881508e-01 9.481654e-03 1.617438e-02 1.657885e-01 4.497855e-02 -5.236446e-02 -2.800498e-02 -2.723634e-02
<VARIANCE> 39
 3.517963e+01 2.906614e+01 4.544361e+01 5.076512e+01 3.178354e+01 5.910054e+01 3.557122e+01 4.921571e+01 6.021407e+01 3.672197e+01 4.418919e+01 2.886764e+01 3.352468e+01 1.018019e+00 1.007134e+00 1.988676e+00 2.550558e+00 1.808323e+00 2.858991e+00 2.460823e+00 2.423862e+00 3.376379e+00 2.434142e+00 2.316035e+00 2.192600e+00 6.656069e-01 1.482529e-01 1.490373e-01 2.160324e-01 5.017782e-01 3.302536e-01 5.077849e-01 4.971604e-01 4.446808e-01 5.583162e-01 4.925908e-01 4.733404e-01 3.773451e-01 1.445583e-01
<GCONST> 1.138467e+02
<STATE> 3
<MEAN> 39
 5.424300e+00 -3.026476e+00 -4.682616e+00 5.169262e+00 8.871095e+00 -6.212653e+00 -1.195656e+01 -1.156819e+01 -4.516764e+00 -6.593111e+00 -1.121806e+00 -6.985854e+00 6.851877e+01 -2.440999e-01 6.437913e-01 -2.425717e-02 4.611623e-01 3.321788e-02 1.768925e-02 1.016874e-01 2.436967e-01 5.866899e-01 2.479247e-01 -2.299040e-01 -2.648475e-01 -6.768048e-01 -2.115445e-01 -1.109322e-01 1.962226e-01 -3.320142e-01 -4.260226e-02 -8.835101e-02 5.931016e-02 8.806653e-03 -1.899400e-01 -1.637104e-01 -1.220607e-02 1.929411e-01 1.235381e-01
<VARIANCE> 39
 2.850649e+01 2.471181e+01 2.315480e+01 3.664666e+01 2.286773e+01 4.402532e+01 3.534367e+01 3.598673e+01 5.540695e+01 3.113714e+01 4.136777e+01 2.558435e+01 2.268013e+01 9.500407e-01 9.241902e-01 1.763833e+00 2.740456e+00 1.452541e+00 2.355682e+00 2.228431e+00 2.269725e+00 2.833202e+00 2.062554e+00 1.877021e+00 2.185409e+00 5.883147e-01 1.137324e-01 1.674112e-01 2.196426e-01 4.411426e-01 2.869293e-01 4.347582e-01 4.481574e-01 4.335899e-01 4.602067e-01 3.873108e-01 3.820253e-01 3.804570e-01 9.184246e-02
<GCONST> 1.074669e+02
<STATE> 4
<MEAN> 39
 2.174312e+00 -9.463372e-01 -2.530426e+00 4.528833e+00 7.719256e+00 -5.946589e+00 -9.833771e+00 -9.814942e+00 -3.499674e+00 -6.889567e+00 -2.101399e+00 -5.879371e+00 6.597275e+01 -7.979866e-01 -1.263311e-01 5.379590e-01 -6.043848e-01 -2.932354e-01 -1.396435e-01 4.522843e-01 5.531645e-01 -2.176438e-01 -4.507973e-01 -1.050374e-01 4.009357e-01 -1.810008e-01 -1.494510e-01 -2.129436e-01 1.529103e-01 -3.961362e-01 -7.677281e-02 -1.354087e-02 1.344755e-02 2.698857e-02 -6.997588e-02 -7.201013e-02 2.837650e-02 4.969351e-02 2.145855e-01
<VARIANCE> 39
 4.763091e+01 2.620585e+01 3.125387e+01 5.297939e+01 3.035631e+01 6.149503e+01 5.038004e+01 4.377876e+01 5.713723e+01 3.420245e+01 3.557551e+01 3.001867e+01 4.023359e+01 1.531436e+00 1.864975e+00 2.386728e+00 4.628458e+00 2.416874e+00 3.668689e+00 3.139349e+00 3.321421e+00 3.302993e+00 3.546706e+00 2.576626e+00 2.747539e+00 1.286481e+00 2.614798e-01 3.310695e-01 4.347828e-01 7.576321e-01 4.239505e-01 6.247193e-01 6.353639e-01 5.433182e-01 6.535792e-01 5.494185e-01 4.486785e-01 4.923434e-01 2.159873e-01
<GCONST> 1.223274e+02
<TRANSP> 5
 0.000000e+00 1.000000e+00 0.000000e+00 0.000000e+00 0.000000e+00
 0.000000e+00 4.761090e-01 5.238910e-01 0.000000e+00 0.000000e+00
 0.000000e+00 0.000000e+00 6.294838e-01 3.705163e-01 0.000000e+00
 0.000000e+00 0.000000e+00 0.000000e+00 5.857484e-01 4.142516e-01
 0.000000e+00 0.000000e+00 0.000000e+00 0.000000e+00 0.000000e+00
<ENDHMM>
~h "p"
<BEGINHMM>
<NUMSTATES> 5
<STATE> 2
<MEAN> 39
 -6.261401e+00 -3.000319e+00 -1.591431e+00 -8.352106e-01 2.911505e+00 -4.629080e+00 -4.359530e+00 -7.084593e+00 -3.834666e+00 -8.187003e+00 -4.009130e+00 -4.848464e+00 6.108097e+01 3.334762e-01 -2.553619e+00 -9.940409e-01 -1.046774e+00 7.086560e-01 -9.784288e-01 -1.638716e+00 -2.833467e-01 2.380860e-01 -8.372457e-02 -1.121223e-01 5.757678e-02 1.990907e+00 3.429301e-01 -1.940943e-01 -1.568622e-02 -2.545336e-01 1.012173e-01 -2.136542e-01 9.100475e-03 7.104130e-02 -1.366555e-01 -1.158491e-03 1.102983e-01 7.446881e-02 5.880755e-01
<VARIANCE> 39
 3.378682e+01 6.713950e+01 3.871077e+01 5.865932e+01 8.422208e+01 8.788972e+01 4.831513e+01 5.082718e+01 6.653316e+01 5.029085e+01 3.148119e+01 4.420309e+01 3.488516e+01 5.736417e+00 7.089650e+00 6.045138e+00 5.944324e+00 6.395234e+00 8.392799e+00 4.515505e+00 3.370677e+00 7.058961e+00 4.780150e+00 3.361499e+00 3.046219e+00 3.012881e+00 4.561609e-01 1.832882e+00 8.327935e-01 8.333564e-01 7.597389e-01 1.141755e+00 8.684936e-01 4.878097e-01 9.682884e-01 8.485948e-01 6.141734e-01 5.889934e-01 5.029760e-01
<GCONST> 1.402484e+02
<STATE> 3
<MEAN> 39
 -3.141847e+00 -1.026324e+01 -4.581693e+00 -5.232214e+00 5.177521e+00 -7.533090e+00 -7.570502e+00 -6.483139e+00 -4.455397e+00 -8.757035e+00 -4.803802e+00 -4.832233e+00 6.872264e+01 1.641574e+00 3.798209e-01 3.282008e-01 -4.724159e-01 7.421708e-01 -1.033673e+00 -5.743564e-01 3.891564e-01 -8.417150e-01 1.035811e-01 -2.584939e-02 1.003138e-01 1.756359e+00 2.707813e-01 9.716762e-01 3.395072e-01 2.254441e-01 -7.362998e-02 -1.031385e-01 7.963654e-03 -3.338151e-02 -2.871269e-01 5.332050e-02 3.531988e-02 1.363692e-01 -2.673565e-01
<VARIANCE> 39
 4.093846e+01 5.714778e+01 5.303280e+01 6.338809e+01 1.055347e+02 5.672018e+01 4.554815e+01 3.553296e+01 6.178699e+01 3.927475e+01 3.411194e+01 3.251556e+01 1.473716e+01 4.557902e+00 1.228498e+01 5.468003e+00 4.527363e+00 7.716828e+00 7.891809e+00 4.993269e+00 3.249034e+00 7.370600e+00 3.839130e+00 3.312089e+00 3.215581e+00 1.474305e+00 6.040893e-01 2.040034e+00 1.307368e+00 9.364340e-01 1.264462e+00 1.606146e+00 1.093413e+00 6.618079e-01 1.061867e+00 8.114386e-01 5.482968e-01 6.230512e-01 2.868498e-01
<GCONST> 1.396885e+02
<STATE> 4
<MEAN> 39
 1.487685e+00 -8.173139e+00 -7.464823e-01 -1.884734e+00 5.955018e+00 -8.927059e+00 -1.045874e+01 -7.081027e+00 -1.019854e+01 -1.109288e+01 -1.243994e+00 -4.077641e+00 7.170085e+01 8.561861e-01 2.809873e-01 2.577050e-02 -1.721922e-01 8.603401e-03 -6.437744e-01 -6.502951e-01 -1.472393e-01 -4.923733e-01 -1.301709e-01 9.545730e-02 4.943379e-01 7.844787e-01 -1.590858e-01 -1.147255e-01 -1.086984e-01 5.636464e-02 -1.617383e-01 2.130078e-01 1.072528e-01 -1.241643e-01 1.278572e-01 -6.010681e-02 -3.507334e-02 1.226090e-02 -1.933500e-01
<VARIANCE> 39
 6.478448e+01 7.330777e+01 8.054517e+01 9.793918e+01 8.264140e+01 6.389748e+01 5.728241e+01 5.259391e+01 6.538614e+01 5.309832e+01 4.782220e+01 2.739500e+01 1.568333e+01 3.931489e+00 5.825274e+00 4.446415e+00 2.661582e+00 4.322496e+00 3.944341e+00 4.283591e+00 3.487909e+00 3.226360e+00 3.030972e+00 2.517959e+00 2.543198e+00 1.082596e+00 3.968900e-01 9.602112e-01 8.184461e-01 4.553063e-01 7.133099e-01 7.920807e-01 7.965088e-01 4.763982e-01 6.805493e-01 5.374650e-01 5.090045e-01 4.158183e-01 1.818449e-01
<GCONST> 1.313854e+02
<TRANSP> 5
 0.000000e+00 1.000000e+00 0.000000e+00 0.000000e+00 0.000000e+00
 0.000000e+00 6.269274e-01 3.730725e-01 0.000000e+00 0.000000e+00
 0.000000e+00 0.000000e+00 5.999255e-01 4.000745e-01 0.000000e+00
 0.000000e+00 0.000000e+00 0.000000e+00 6.471204e-01 3.528796e-01
 0.000000e+00 0.000000e+00 0.000000e+00 0.000000e+00 0.000000e+00
<ENDHMM>
~h "r"
<BEGINHMM>
<NUMSTATES> 5
<STATE> 2
<MEAN> 39
 5.490863e+00 -2.146311e-01 -4.265651e+00 -5.596553e+00 4.878466e+00 -8.192813e+00 -7.715558e+00 -6.095623e+00 -8.144185e+00 -1.159945e+01 -7.437979e+00 -6.915268e+00 7.072063e+01 1.078685e+00 1.020794e+00 -9.162422e-01 -3.978496e-01 -1.527633e-02 1.798193e-01 -2.268114e-01 -1.857177e-01 -3.770959e-01 -3.047327e-01 -3.956783e-01 -3.324970e-01 -1.175611e-01 -2.217409e-01 -2.832671e-01 -2.581548e-01 5.902028e-02 2.896474e-01 -5.798951e-03 -1.078637e-01 -2.206874e-01 8.201010e-02 1.118664e-01 1.792472e-01 1.660265e-01 1.683663e-02
<VARIANCE> 39
 2.834001e+01 7.384863e+01 7.539635e+01 6.169807e+01 7.358798e+01 5.421211e+01 5.073538e+01 3.736564e+01 5.592184e+01 4.204172e+01 2.903805e+01 5.493367e+01 3.482608e+01 1.568435e+00 2.824176e+00 3.516709e+00 2.707494e+00 4.435795e+00 3.009062e+00 3.027175e+00 2.896924e+00 4.218925e+00 2.704729e+00 1.768215e+00 2.485605e+00 5.729192e-01 2.356696e-01 5.062552e-01 4.821516e-01 4.080546e-01 5.833923e-01 4.523026e-01 4.293078e-01 4.207489e-01 7.113526e-01 4.314903e-01 3.311305e-01 5.229049e-01 7.807176e-02
<GCONST> 1.218772e+02
<STATE> 3
<MEAN> 39
 8.419247e+00 6.726441e-01 -9.574873e+00 -5.241722e+00 9.514122e+00 -6.705980e+00 -9.844373e+00 -7.178106e+00 -8.676069e+00 -1.284886e+01 -8.656387e+00 -6.028946e+00 7.040596e+01 1.984893e-01 6.678967e-02 -6.228401e-01 2.470705e-01 6.526934e-01 2.490508e-01 -3.900276e-01 -5.646893e-01 6.932293e-02 1.491800e-01 1.391805e-01 1.963175e-01 -7.745506e-02 -2.077942e-01 -3.036169e-01 1.466106e-01 2.004150e-01 6.550232e-02 -7.283752e-02 -6.254736e-02 -6.207757e-02 9.407168e-02 7.301629e-02 1.823807e-01 1.215712e-01 7.818585e-02
<VARIANCE> 39
 1.670398e+01 3.937569e+01 4.965166e+01 6.022815e+01 6.488888e+01 3.412670e+01 4.255498e+01 2.980420e+01 4.768945e+01 3.301115e+01 2.412498e+01 4.433453e+01 1.877395e+01 7.445726e-01 2.372537e+00 2.559091e+00 2.110875e+00 3.473518e+00 2.113755e+00 2.870033e+00 2.659168e+00 3.224569e+00 2.127800e+00 1.891818e+00 2.957457e+00 7.889690e-01 1.013957e-01 2.714776e-01 3.951472e-01 3.262015e-01 4.776438e-01 3.743216e-01 4.058978e-01 3.815775e-01 5.144212e-01 3.290154e-01 3.089291e-01 3.864981e-01 6.256000e-02
<GCONST> 1.120776e+02
<STATE> 4
<MEAN> 39
 6.239325e+00 -1.065527e+00 -6.884754e+00 -1.115222e+00 1.278625e+01 -5.626815e+00 -1.151079e+01 -9.887711e+00 -8.696497e+00 -1.134976e+01 -5.839553e+00 -5.861259e+00 7.008964e+01 -2.984889e-01 -9.696433e-01 3.025304e-01 9.615749e-01 3.822803e-01 -7.884184e-02 -4.436363e-01 -3.782104e-01 7.811984e-02 3.097295e-01 8.713957e-01 4.183702e-01 2.730465e-01 -1.853217e-01 -4.655883e-02 2.757254e-01 4.992722e-02 -2.827358e-01 -1.590444e-02 2.696291e-01 1.956682e-01 6.740852e-02 3.882816e-02 3.688222e-02 -8.822162e-02 -6.083368e-02
<VARIANCE> 39
 2.483834e+01 4.472314e+01 9.221677e+01 8.331888e+01 9.353281e+01 5.585075e+01 4.846062e+01 3.773351e+01 4.868301e+01 4.143052e+01 3.285636e+01 4.542051e+01 1.914639e+01 9.048412e-01 2.228011e+00 3.796875e+00 2.780626e+00 4.843632e+00 3.807816e+00 3.942324e+00 3.120000e+00 2.873972e+00 2.861999e+00 2.752938e+00 2.719064e+00 1.169027e+00 8.700585e-02 3.043138e-01 5.551552e-01 3.475028e-01 7.830713e-01 6.250019e-01 6.428239e-01 5.019060e-01 5.093088e-01 4.961773e-01 4.498895e-01 4.657817e-01 1.234469e-01
<GCONST> 1.221844e+02
<TRANSP> 5
 0.000000e+00 1.000000e+00 0.000000e+00 0.000000e+00 0.000000e+00
 0.000000e+00 5.847945e-01 4.152055e-01 0.000000e+00 0.000000e+00
 0.000000e+00 0.000000e+00 6.883768e-01 3.116232e-01 0.000000e+00
 0.000000e+00 0.000000e+00 0.000000e+00 6.878048e-01 3.121952e-01
 0.000000e+00 0.000000e+00 0.000000e+00 0.000000e+00 0.000000e+00
<ENDHMM>
~h "s"
<BEGINHMM>
<NUMSTATES> 5
<STATE> 2
<MEAN> 39
 -3.912275e+00 -6.235390e+00 6.039621e+00 -8.811385e+00 6.457069e+00 -2.870375e+00 -6.412264e+00 -1.115403e+01 -7.942586e+00 -7.477172e+00 -3.110373e+00 -5.856773e+00 7.295287e+01 -3.968104e+00 2.404656e-01 3.454628e+00 -2.891263e+00 9.304442e-01 8.937522e-01 1.503484e+00 -8.630978e-01 3.946419e-01 -8.949282e-03 2.182389e-01 -3.369609e-01 1.304897e+00 -6.825600e-01 3.092967e-01 1.849874e-02 -5.544771e-02 -1.777257e-01 -1.156153e-01 1.563125e-01 -2.868445e-01 2.804690e-01 -9.495251e-02 2.228225e-02 8.780715e-02 2.227208e-01
<VARIANCE> 39
 8.388976e+01 3.030252e+01 9.185538e+01 8.528585e+01 8.494000e+01 7.392803e+01 7.730779e+01 7.841322e+01 7.626624e+01 5.784710e+01 4.210123e+01 3.755322e+01 4.274681e+01 8.294599e+00 2.339968e+00 5.222989e+00 5.501967e+00 3.282501e+00 4.016568e+00 5.697054e+00 3.729058e+00 4.898952e+00 4.122622e+00 3.089435e+00 2.730899e+00 1.357212e+00 9.162598e-01 3.252615e-01 1.240248e+00 1.345252e+00 6.994941e-01 5.960940e-01 7.950992e-01 6.786638e-01 7.565671e-01 7.339242e-01 5.433633e-01 4.365164e-01 2.509894e-01
<GCONST> 1.372549e+02
<STATE> 3
<MEAN> 39
 -2.467555e+01 -2.171233e+00 1.563078e+01 -1.618570e+01 6.719754e+00 -3.521338e-01 -7.896411e-02 -1.452076e+01 -4.780389e+00 -9.055210e+00 -2.324949e+00 -5.759906e+00 7.742570e+01 -1.885536e+00 3.471681e-01 7.576705e-01 -1.742606e-01 -3.894029e-01 1.366298e-01 5.623857e-01 -2.287376e-01 1.840352e-01 -8.971962e-02 -1.948419e-01 2.726690e-02 -2.787282e-01 7.122103e-01 -2.296235e-01 -3.315421e-01 3.326095e-01 -7.232935e-02 -1.946421e-01 -2.248551e-01 1.773038e-01 -1.770182e-01 5.544597e-02 -8.072343e-02 4.517503e-02 -2.885867e-01
<VARIANCE> 39
 4.600369e+01 2.561713e+01 4.384159e+01 4.942694e+01 4.588448e+01 4.597592e+01 6.158449e+01 5.475196e+01 4.318354e+01 3.452877e+01 3.302202e+01 2.816999e+01 1.904478e+01 4.648699e+00 1.660272e+00 1.811352e+00 1.975987e+00 1.671561e+00 2.125725e+00 2.050410e+00 2.425733e+00 2.490705e+00 1.936051e+00 1.606633e+00 1.394001e+00 1.199029e+00 3.217444e-01 2.285256e-01 4.336936e-01 5.140290e-01 3.477711e-01 3.708473e-01 4.217886e-01 4.671020e-01 4.255948e-01 3.784192e-01 3.155957e-01 3.029304e-01 1.204830e-01
<GCONST> 1.139756e+02
<STATE> 4
<MEAN> 39
 -2.197892e+01 -5.779553e+00 1.642536e+01 -1.373395e+01 4.289174e+00 -4.345785e+00 -1.232701e+00 -1.389829e+01 -5.431652e+00 -6.936385e+00 -4.377879e+00 -5.133168e+00 7.200537e+01 2.149204e+00 -4.577587e-01 -1.021856e+00 4.199281e-01 -4.234246e-01 -7.640948e-01 -9.295473e-01 2.739576e-01 -3.227819e-01 3.310899e-01 -1.790877e-01 8.549816e-02 -3.348248e-01 3.146258e-01 -1.329735e-03 -3.466850e-01 1.021164e-01 -3.772931e-02 4.954355e-02 -1.356885e-01 9.164218e-02 2.468331e-03 8.135084e-03 7.869871e-02 -1.997231e-03 9.972367e-02
<VARIANCE> 39
 1.142632e+02 3.114304e+01 4.565130e+01 5.965416e+01 4.397676e+01 7.358852e+01 6.855099e+01 5.114738e+01 6.655445e+01 3.841139e+01 3.580683e+01 2.522209e+01 4.283670e+01 6.144673e+00 2.523458e+00 4.274490e+00 3.859221e+00 3.536620e+00 4.585701e+00 4.182776e+00 3.847287e+00 5.001447e+00 2.865681e+00 2.669500e+00 2.055727e+00 2.226912e+00 7.856392e-01 4.424184e-01 6.198248e-01 6.572013e-01 5.772877e-01 7.522842e-01 7.437202e-01 6.299992e-01 8.597919e-01 5.355854e-01 4.935471e-01 3.527705e-01 2.692678e-01
<GCONST> 1.313098e+02
<TRANSP> 5
 0.000000e+00 1.000000e+00 0.000000e+00 0.000000e+00 0.000000e+00
 0.000000e+00 7.184331e-01 2.815669e-01 0.000000e+00 0.000000e+00
 0.000000e+00 0.000000e+00 8.547530e-01 1.452470e-01 0.000000e+00
 0.000000e+00 0.000000e+00 0.000000e+00 8.830857e-01 1.169143e-01
 0.000000e+00 0.000000e+00 0.000000e+00 0.000000e+00 0.000000e+00
<ENDHMM>
~h "t"
<BEGINHMM>
<NUMSTATES> 5
<STATE> 2
<MEAN> 39
 -8.459890e+00 -9.253731e+00 8.475400e-01 -4.389386e+00 2.226890e+00 -7.638106e+00 -4.645567e+00 -1.021134e+01 -4.960697e+00 -9.060873e+00 -1.793728e+00 -5.410828e+00 6.960307e+01 -1.311713e+00 -1.257643e+00 1.231518e+00 -1.295747e+00 -9.283042e-02 -3.130186e-01 1.617264e-01 -1.669397e-01 2.846892e-01 4.437285e-02 1.023364e-01 -3.214486e-01 1.528270e+00 2.680019e-01 4.830796e-02 1.458517e-01 1.969021e-01 1.363851e-01 1.636336e-01 6.156754e-02 -3.842435e-02 -2.506923e-01 1.967016e-02 -4.369091e-02 8.177108e-02 -1.610154e-02
<VARIANCE> 39
 1.103911e+02 4.805011e+01 7.712848e+01 8.105747e+01 7.295908e+01 8.374487e+01 5.253403e+01 7.310523e+01 6.065922e+01 4.241650e+01 4.175082e+01 3.114987e+01 6.915025e+01 9.553904e+00 4.589005e+00 7.112309e+00 8.980054e+00 5.297727e+00 6.826135e+00 4.197559e+00 5.738397e+00 6.045539e+00 3.347550e+00 3.253356e+00 2.983463e+00 6.465155e+00 1.443510e+00 9.007390e-01 9.558752e-01 1.501647e+00 8.948005e-01 1.276621e+00 9.095194e-01 9.778628e-01 1.074004e+00 5.533972e-01 5.879597e-01 5.679604e-01 1.331820e+00
<GCONST> 1.463879e+02
<STATE> 3
<MEAN> 39
 -8.830578e+00 -1.206023e+01 3.305908e+00 -6.616860e+00 2.443834e+00 -7.196025e+00 -3.934106e+00 -9.654119e+00 -5.907076e+00 -8.822584e+00 -1.848673e+00 -5.022499e+00 7.237156e+01 1.007988e+00 1.410501e-02 6.180371e-01 7.337332e-01 2.836406e-01 6.662842e-01 8.859305e-02 8.382551e-02 -7.550370e-01 1.519352e-01 -7.890662e-02 2.275317e-01 -2.130457e-01 6.027182e-01 5.381262e-01 -2.115418e-01 3.596707e-01 -3.286734e-02 -1.655856e-02 -1.862509e-01 -1.248936e-01 -1.421312e-01 4.043499e-02 -1.255753e-01 3.306935e-02 -2.972386e-01
<VARIANCE> 39
 1.053760e+02 5.175050e+01 8.640841e+01 5.854853e+01 6.292557e+01 6.186768e+01 4.304934e+01 5.873271e+01 5.154600e+01 3.645389e+01 3.377151e+01 2.782739e+01 4.901864e+01 6.654397e+00 3.811725e+00 4.973036e+00 3.930655e+00 3.647796e+00 4.222383e+00 3.487544e+00 3.736529e+00 4.481132e+00 2.236356e+00 2.508077e+00 2.082237e+00 2.023688e+00 1.346211e+00 7.923135e-01 9.246504e-01 9.534801e-01 7.494524e-01 7.703611e-01 6.738352e-01 6.612695e-01 8.156251e-01 4.512295e-01 5.001454e-01 4.895014e-01 5.331184e-01
<GCONST> 1.349045e+02
<STATE> 4
<MEAN> 39
 -7.466298e+00 -1.048971e+01 3.865078e+00 -3.861456e+00 1.752169e+00 -5.350110e+00 -4.109660e+00 -8.943460e+00 -6.211154e+00 -7.954037e+00 -2.091758e+00 -4.271179e+00 6.877435e+01 1.542315e+00 8.387420e-01 -3.083439e-02 7.361801e-01 -4.655613e-02 2.421629e-01 -5.101355e-01 -2.364065e-01 -5.566581e-01 8.026629e-02 -2.726070e-01 9.832706e-02 -2.552821e-01 1.380119e-02 1.344329e-01 -3.049988e-01 -8.759620e-02 -1.072026e-01 -1.491100e-01 -1.142452e-01 -6.793424e-02 1.083553e-01 -6.349042e-02 -4.420232e-02 -7.893371e-02 3.233301e-02
<VARIANCE> 39
 8.477216e+01 4.800195e+01 9.653513e+01 6.993897e+01 6.112371e+01 5.266273e+01 4.516521e+01 5.434140e+01 5.119078e+01 3.057312e+01 2.676634e+01 2.703513e+01 9.987534e+01 5.334495e+00 4.044688e+00 4.124831e+00 3.341666e+00 3.652095e+00 3.415477e+00 3.552632e+00 3.423574e+00 4.019306e+00 2.373500e+00 2.135483e+00 2.169544e+00 1.958098e+00 6.388779e-01 6.722457e-01 7.334264e-01 5.787186e-01 6.434446e-01 5.895926e-01 5.233415e-01 5.706474e-01 5.076407e-01 4.026446e-01 3.489313e-01 4.072090e-01 3.432623e-01
<GCONST> 1.299219e+02
<TRANSP> 5
 0.000000e+00 1.000000e+00 0.000000e+00 0.000000e+00 0.000000e+00
 0.000000e+00 5.979619e-01 4.020381e-01 0.000000e+00 0.000000e+00
 0.000000e+00 0.000000e+00 3.142668e-01 6.857331e-01 0.000000e+00
 0.000000e+00 0.000000e+00 0.000000e+00 5.951978e-01 4.048022e-01
 0.000000e+00 0.000000e+00 0.000000e+00 0.000000e+00 0.000000e+00
<ENDHMM>
~h "v"
<BEGINHMM>
<NUMSTATES> 5
<STATE> 2
<MEAN> 39
 -3.419438e+00 -4.518855e-01 -2.872998e+00 -6.210730e+00 -7.281399e-01 -1.437156e+01 -3.772297e+00 -4.750920e+00 -3.907913e+00 -3.858298e+00 -3.905967e+00 -4.579964e+00 6.605860e+01 1.649713e+00 1.123858e+00 -8.924220e-02 -1.374020e+00 -1.409341e+00 -3.055241e+00 -5.520965e-01 8.650260e-01 5.518199e-01 1.553682e+00 -3.887845e-01 -5.116444e-01 1.256976e+00 2.555798e-01 -2.338920e-01 -3.411280e-03 2.059148e-01 5.332745e-02 -1.029973e-01 -2.343645e-01 -1.117375e-01 -2.382688e-01 -1.226168e-01 -1.136489e-02 -4.633988e-03 2.874715e-01
<VARIANCE> 39
 8.572690e+01 5.114497e+01 5.491888e+01 6.642775e+01 1.804896e+02 1.328376e+02 4.521428e+01 6.008273e+01 7.281393e+01 5.504745e+01 3.406065e+01 3.471849e+01 5.618439e+01 9.952886e+00 3.851612e+00 2.671424e+00 5.217725e+00 1.046313e+01 9.036112e+00 5.471578e+00 3.215266e+00 4.766136e+00 4.658521e+00 2.746993e+00 2.496047e+00 2.467285e+00 1.295455e+00 7.487898e-01 4.121401e-01 9.956146e-01 1.597875e+00 1.430315e+00 8.989171e-01 4.345252e-01 9.215022e-01 7.386948e-01 4.804734e-01 5.346922e-01 3.218925e-01
<GCONST> 1.413713e+02
<STATE> 3
<MEAN> 39
 3.172944e+00 -5.474746e-01 -4.540216e+00 -9.213770e+00 -4.218232e+00 -2.311077e+01 -5.696017e+00 -2.019140e+00 -5.336255e+00 -9.350450e-01 -5.360034e+00 -5.850735e+00 7.157834e+01 2.225847e-01 -2.376520e-01 -3.299260e-01 3.775491e-01 1.751031e-01 -8.231671e-01 -1.822009e-01 2.472146e-01 1.897217e-02 1.628704e-01 -8.680281e-02 -1.561367e-01 8.035944e-01 -4.238857e-01 -1.428471e-01 8.581321e-02 2.161360e-01 2.340837e-01 7.865074e-01 6.474420e-02 -2.191003e-01 1.422079e-01 -4.103260e-01 1.112611e-01 3.338880e-02 -2.104831e-01
<VARIANCE> 39
 5.440445e+01 4.348815e+01 2.979647e+01 3.490479e+01 1.449407e+02 1.386935e+02 5.446355e+01 5.732942e+01 7.253168e+01 7.357355e+01 4.043800e+01 3.656004e+01 1.651325e+01 5.342203e+00 3.563845e+00 3.507485e+00 3.195888e+00 3.853345e+00 4.284201e+00 4.444017e+00 2.126368e+00 4.879128e+00 3.093017e+00 2.663381e+00 2.774199e+00 1.275123e+00 7.655626e-01 5.989602e-01 3.512473e-01 6.151349e-01 8.298859e-01 8.050952e-01 8.640582e-01 3.569673e-01 9.099946e-01 5.796164e-01 4.436398e-01 5.064876e-01 1.833168e-01
<GCONST> 1.306829e+02
<STATE> 4
<MEAN> 39
 -3.295793e+00 4.554939e-01 -2.923769e+00 -8.989236e+00 -5.373351e+00 -1.880542e+01 -3.208473e+00 -1.363235e+00 1.987305e+00 -1.006820e+00 -4.213506e+00 -7.579768e+00 7.224679e+01 -9.407039e-01 -3.076084e-03 2.776433e-01 1.831875e-01 3.864240e-01 6.339290e-01 2.057012e-01 -2.511645e-01 2.038738e-01 -3.883100e-01 1.506290e-01 -1.337723e-01 -1.604362e-01 9.146468e-02 -9.787668e-02 8.916746e-02 -5.661455e-03 -4.320631e-02 9.987620e-02 -2.677038e-02 -8.801568e-02 -1.285807e-01 -4.534886e-02 -1.193650e-02 2.896984e-02 -8.705027e-02
<VARIANCE> 39
 1.151572e+02 3.866839e+01 2.427318e+01 2.702966e+01 8.368429e+01 1.658452e+02 4.590054e+01 4.623806e+01 6.064725e+01 5.406199e+01 3.511297e+01 3.051825e+01 2.254638e+01 6.061157e+00 3.218856e+00 1.821337e+00 2.202025e+00 3.118361e+00 2.879630e+00 3.410565e+00 2.863054e+00 3.725278e+00 2.065583e+00 2.884685e+00 2.048279e+00 1.481395e+00 8.383148e-01 5.454942e-01 3.314881e-01 3.987337e-01 5.132497e-01 5.046852e-01 5.316755e-01 5.029066e-01 5.402912e-01 3.661375e-01 4.698985e-01 3.656904e-01 2.446146e-01
<GCONST> 1.247289e+02
<TRANSP> 5
 0.000000e+00 1.000000e+00 0.000000e+00 0.000000e+00 0.000000e+00
 0.000000e+00 5.883672e-01 4.116328e-01 0.000000e+00 0.000000e+00
 0.000000e+00 0.000000e+00 4.340003e-01 5.659997e-01 0.000000e+00
 0.000000e+00 0.000000e+00 0.000000e+00 8.579484e-01 1.420516e-01
 0.000000e+00 0.000000e+00 0.000000e+00 0.000000e+00 0.000000e+00
<ENDHMM>
~h "w"
<BEGINHMM>
<NUMSTATES> 5
<STATE> 2
<MEAN> 39
 3.177063e+00 -1.288140e+00 -3.309948e+00 -2.971552e+00 1.299589e+00 -7.287516e+00 -6.778744e+00 -8.589516e+00 -6.894777e+00 -9.283680e+00 -5.585526e+00 -7.780759e+00 6.729539e+01 4.577512e-01 7.556823e-01 -4.133883e-01 3.537660e-01 -2.620533e-01 2.676947e-01 5.901829e-02 -1.627915e-01 -9.366319e-03 5.724224e-02 2.056561e-01 1.853730e-01 -3.629377e-01 -2.127574e-01 -1.626202e-02 9.544984e-02 1.082798e-02 9.958466e-02 -4.402746e-02 1.238681e-03 -6.604899e-03 2.075690e-01 1.867629e-01 1.796476e-01 2.541158e-01 -2.581551e-02
<VARIANCE> 39
 5.713050e+01 8.443419e+01 8.107429e+01 4.759295e+01 8.772275e+01 4.342595e+01 7.646180e+01 4.589974e+01 6.020630e+01 3.091274e+01 2.901090e+01 3.747220e+01 3.377636e+01 2.072752e+00 4.093963e+00 3.337704e+00 2.754654e+00 3.939071e+00 3.046477e+00 4.372439e+00 3.223828e+00 3.361459e+00 2.711050e+00 2.041896e+00 3.040564e+00 1.586249e+00 1.816852e-01 4.117254e-01 4.231578e-01 3.180666e-01 5.187043e-01 5.461154e-01 7.271479e-01 6.650503e-01 5.423142e-01 5.207275e-01 3.908231e-01 4.907278e-01 9.640734e-02
<GCONST> 1.250086e+02
<STATE> 3
<MEAN> 39
 3.461249e+00 2.135816e-01 -4.462772e+00 -1.159991e+00 2.116979e+00 -6.090511e+00 -4.905348e+00 -8.298869e+00 -8.111232e+00 -9.600900e+00 -3.071287e+00 -5.624557e+00 6.592467e+01 -3.410463e-02 1.086937e+00 1.880975e-01 2.126408e-01 -3.177449e-01 -1.292939e-02 9.788963e-02 -6.466688e-02 4.833492e-01 5.133163e-01 4.267644e-01 5.028656e-01 -6.003734e-01 -1.022627e-01 -1.074116e-01 9.286699e-02 -9.049454e-02 5.565174e-04 -2.029194e-01 -1.545138e-01 -2.180542e-02 9.915294e-02 1.100275e-01 -4.346980e-03 2.963655e-02 8.527313e-02
<VARIANCE> 39
 4.853826e+01 6.159413e+01 7.286244e+01 4.201905e+01 6.750939e+01 4.613403e+01 6.280313e+01 3.336024e+01 3.985679e+01 3.078771e+01 2.498118e+01 3.242709e+01 2.744279e+01 1.203232e+00 2.863024e+00 1.403650e+00 1.891744e+00 2.550655e+00 2.885052e+00 2.677804e+00 2.273570e+00 2.364932e+00 2.067046e+00 1.755151e+00 2.463015e+00 9.903712e-01 8.148371e-02 2.856296e-01 3.404762e-01 3.317789e-01 4.219047e-01 5.062760e-01 5.014135e-01 5.531321e-01 4.489220e-01 3.537866e-01 3.568778e-01 4.180585e-01 6.540906e-02
<GCONST> 1.143397e+02
<STATE> 4
<MEAN> 39
 -2.642233e+00 3.819863e+00 -9.955838e-01 -9.792910e-01 -1.287881e+00 -7.192497e+00 -4.965469e+00 -6.997405e+00 -4.036891e+00 -7.139426e+00 -1.912531e+00 -3.471903e+00 5.955238e+01 2.357841e-01 6.035899e-01 1.684435e-01 -2.432042e-01 -5.683351e-01 -9.393339e-01 -5.208389e-01 1.658954e-01 4.843175e-01 4.962987e-01 -1.742312e-02 -1.610343e-01 -3.279865e-02 9.440742e-02 -1.790332e-01 -1.518563e-01 -1.794533e-01 1.448226e-02 -1.042114e-01 -3.902616e-02 7.963517e-02 -1.099752e-02 -2.275846e-02 -1.378913e-01 -1.601304e-01 1.834659e-01
<VARIANCE> 39
 9.046484e+01 8.472151e+01 8.264415e+01 3.442543e+01 3.809435e+01 8.551067e+01 6.693582e+01 3.055761e+01 2.539768e+01 2.707097e+01 1.733299e+01 2.733082e+01 4.453857e+01 1.463719e+00 2.072831e+00 1.659052e+00 1.874824e+00 2.100423e+00 2.498287e+00 2.068947e+00 1.843572e+00 1.808264e+00 1.502006e+00 1.360454e+00 1.740336e+00 7.919020e-01 1.425459e-01 3.700807e-01 3.645057e-01 3.109325e-01 3.435634e-01 4.024444e-01 3.287116e-01 3.306195e-01 3.747510e-01 2.933594e-01 2.722569e-01 2.774118e-01 6.927787e-02
<GCONST> 1.108677e+02
<TRANSP> 5
 0.000000e+00 1.000000e+00 0.000000e+00 0.000000e+00 0.000000e+00
 0.000000e+00 5.096250e-01 4.903751e-01 0.000000e+00 0.000000e+00
 0.000000e+00 0.000000e+00 5.658439e-01 4.341561e-01 0.000000e+00
 0.000000e+00 0.000000e+00 0.000000e+00 8.255442e-01 1.744558e-01
 0.000000e+00 0.000000e+00 0.000000e+00 0.000000e+00 0.000000e+00
<ENDHMM>
~h "y"
<BEGINHMM>
<NUMSTATES> 5
<STATE> 2
<MEAN> 39
 -6.119276e-01 -8.337874e+00 3.498400e-01 4.630519e+00 1.286004e+01 -1.105944e+01 -9.338218e+00 -1.082965e+01 -1.361609e+01 -6.329566e+00 -1.784821e+00 -7.563985e+00 7.216885e+01 8.059648e-01 1.801315e-01 -1.813784e-01 6.664492e-01 6.479757e-01 -3.351721e-01 -3.132074e-01 7.681627e-02 -5.435991e-01 2.937219e-01 4.177900e-01 3.684089e-01 9.185612e-03 -2.044846e-02 5.281623e-02 -1.826226e-01 -2.245662e-01 -1.723960e-01 9.633537e-03 1.914442e-01 6.936944e-02 1.694659e-01 -1.380844e-01 1.794698e-02 1.362646e-01 -5.326565e-02
<VARIANCE> 39
 8.072101e+01 1.671198e+01 1.286865e+02 1.064039e+02 5.434405e+01 8.375214e+01 4.422407e+01 6.197868e+01 8.271127e+01 3.726798e+01 3.144595e+01 2.268663e+01 2.659524e+01 2.681350e+00 1.813762e+00 3.655351e+00 4.587486e+00 3.544939e+00 4.350243e+00 2.868912e+00 4.275108e+00 3.925720e+00 1.959947e+00 4.393713e+00 1.910704e+00 1.156911e+00 2.863263e-01 1.659840e-01 4.087191e-01 7.384014e-01 3.320738e-01 6.661885e-01 5.277955e-01 5.275528e-01 5.885810e-01 3.575180e-01 6.129125e-01 2.632238e-01 1.192038e-01
<GCONST> 1.240486e+02
<STATE> 3
<MEAN> 39
 1.631042e+00 -5.904814e+00 3.597735e+00 1.056778e+01 1.723870e+01 -9.055366e+00 -1.090388e+01 -7.203063e+00 -1.006050e+01 -7.207522e+00 -8.954939e-01 -3.096729e+00 6.973364e+01 7.665385e-01 6.981907e-01 -1.020531e+00 -6.633993e-01 -1.010331e-01 6.980510e-01 1.000087e-01 1.295196e-01 3.943681e-01 -5.091470e-01 -2.401297e-01 7.135844e-02 -7.725546e-02 -7.992930e-02 -2.132021e-02 -2.733580e-02 -2.860389e-01 -2.452195e-01 3.547820e-02 1.755239e-01 9.067183e-02 1.511230e-01 -4.011535e-02 -2.263043e-01 -1.385913e-01 4.508498e-02
<VARIANCE> 39
 4.265823e+01 1.759787e+01 9.066267e+01 1.003526e+02 9.141293e+01 6.474465e+01 4.944212e+01 4.332065e+01 3.335592e+01 2.884663e+01 5.991214e+01 4.051494e+01 2.030490e+01 9.099818e-01 8.607960e-01 2.839108e+00 4.109653e+00 4.185046e+00 2.942033e+00 3.223586e+00 2.693696e+00 2.930060e+00 2.764103e+00 2.801795e+00 2.600678e+00 7.224497e-01 1.363983e-01 1.491011e-01 3.059015e-01 5.049684e-01 8.376598e-01 4.400118e-01 6.025220e-01 5.681117e-01 4.627655e-01 5.342302e-01 5.602508e-01 4.330454e-01 9.528282e-02
<GCONST> 1.190834e+02
<STATE> 4
<MEAN> 39
 4.504374e+00 4.197208e+00 -5.707407e-02 2.783024e+00 6.911529e+00 -3.260072e+00 -6.719855e+00 -4.593334e+00 4.689536e-01 -5.443284e+00 -2.716675e+00 -8.154320e+00 6.580162e+01 -3.108572e-01 5.381526e-01 -1.035928e-01 -4.996285e-01 -9.173828e-01 -1.933598e-01 5.075792e-01 3.411616e-01 9.231726e-01 2.233728e-01 -4.946235e-01 -2.021544e-01 -4.845731e-01 -1.038500e-01 -1.468055e-01 7.893679e-02 1.085023e-01 5.679049e-02 -5.946682e-02 -5.276018e-02 -1.058291e-01 -1.154647e-01 -5.421896e-03 6.972595e-02 7.615068e-02 6.068261e-03
<VARIANCE> 39
 2.712888e+01 3.322955e+01 3.185683e+01 4.880425e+01 5.354237e+01 4.217489e+01 3.988402e+01 3.700182e+01 8.477003e+01 6.471006e+01 2.254049e+01 2.871911e+01 2.148351e+01 6.710417e-01 1.046964e+00 1.173119e+00 2.415153e+00 2.840815e+00 1.891443e+00 1.994247e+00 1.732708e+00 3.052974e+00 3.502348e+00 2.056805e+00 1.551784e+00 4.145789e-01 6.946327e-02 1.072159e-01 2.057036e-01 2.687759e-01 3.290953e-01 3.379101e-01 3.750901e-01 3.177423e-01 5.252352e-01 5.122240e-01 3.379323e-01 3.108075e-01 3.471395e-02
<GCONST> 1.062134e+02
<TRANSP> 5
 0.000000e+00 1.000000e+00 0.000000e+00 0.000000e+00 0.000000e+00
 0.000000e+00 8.250142e-01 1.749858e-01 0.000000e+00 0.000000e+00
 0.000000e+00 0.000000e+00 8.224014e-01 1.775986e-01 0.000000e+00
 0.000000e+00 0.000000e+00 0.000000e+00 8.241047e-01 1.758953e-01
 0.000000e+00 0.000000e+00 0.000000e+00 0.000000e+00 0.000000e+00
<ENDHMM>
~h "z"
<BEGINHMM>
<NUMSTATES> 5
<STATE> 2
<MEAN> 39
 -2.033333e+01 -1.322689e+00 1.359114e+01 -1.749801e+01 5.492966e+00 -1.342194e+00 -1.687983e+00 -1.422151e+01 -1.808893e+00 -6.781457e+00 -4.077639e+00 -6.397977e+00 7.721764e+01 -2.620852e+00 6.537970e-01 8.193409e-01 -4.842328e-01 -2.719211e-01 4.613290e-01 4.987284e-01 -2.502362e-01 4.719042e-01 -2.011845e-01 -1.398409e-01 4.849384e-03 -4.633048e-02 7.282913e-01 -2.672111e-01 -3.593665e-01 4.964408e-01 -1.282890e-01 -2.200957e-01 -1.075485e-01 1.623898e-01 -3.091845e-01 3.424353e-03 -1.336619e-01 3.450466e-02 -3.149543e-01
<VARIANCE> 39
 7.911406e+01 2.615556e+01 6.036370e+01 8.216194e+01 5.193171e+01 4.321820e+01 5.855616e+01 6.027625e+01 3.993314e+01 3.623634e+01 3.531115e+01 2.304974e+01 3.315902e+01 4.922540e+00 2.214936e+00 2.368055e+00 2.855269e+00 1.328460e+00 1.716044e+00 2.057739e+00 2.418823e+00 1.980760e+00 1.724853e+00 1.577338e+00 1.359089e+00 1.007240e+00 3.829549e-01 2.706770e-01 4.887646e-01 5.125366e-01 2.675006e-01 3.310347e-01 4.033689e-01 4.354826e-01 3.226324e-01 3.653389e-01 3.456027e-01 2.805216e-01 9.859384e-02
<GCONST> 1.153116e+02
<STATE> 3
<MEAN> 39
 -2.123195e+01 -4.716145e+00 6.629199e+00 -9.366527e+00 1.791556e+00 -1.037066e+00 -1.304140e-01 -8.660847e+00 -2.774988e+00 -7.021238e+00 -4.537904e+00 -4.469084e+00 6.115999e+01 2.605371e-01 -2.595811e-01 -1.414036e-01 3.056364e-01 -7.121077e-02 -2.113992e-01 3.669819e-03 1.605218e-01 -2.700452e-01 -1.488013e-02 -1.116491e-01 1.459409e-01 -8.809338e-01 1.609080e-01 -1.088854e-02 -3.710027e-02 1.468777e-02 9.288911e-03 -1.035613e-02 -8.989705e-02 2.750610e-02 -4.663163e-02 4.714884e-02 2.690203e-02 -8.125599e-03 -2.351782e-02
<VARIANCE> 39
 4.712111e+01 2.568659e+01 1.180586e+02 1.042140e+02 4.495246e+01 3.223304e+01 3.055430e+01 6.995782e+01 2.586524e+01 2.439134e+01 2.675297e+01 2.623598e+01 1.747248e+02 1.130971e+00 9.614943e-01 1.825133e+00 1.523180e+00 1.365254e+00 1.719586e+00 1.723476e+00 1.593715e+00 1.798979e+00 1.210336e+00 1.450983e+00 1.087095e+00 7.015777e-01 1.797732e-01 1.536254e-01 2.065322e-01 2.922709e-01 2.452699e-01 3.434554e-01 3.294518e-01 3.298144e-01 3.150714e-01 2.432082e-01 2.553907e-01 2.344312e-01 6.777759e-02
<GCONST> 1.059870e+02
<STATE> 4
<MEAN> 39
 -1.813489e+01 -4.529086e+00 1.383439e+01 -9.235553e+00 3.465412e+00 1.254818e-01 -1.854319e+00 -1.207762e+01 -6.990076e+00 -7.371582e+00 -5.422829e+00 -5.721937e+00 6.666285e+01 1.091147e+00 -1.835032e-01 -5.804764e-01 5.753713e-01 -5.501177e-01 -4.098408e-01 -3.209027e-01 5.388885e-01 -2.384554e-01 8.895500e-02 9.642787e-03 -1.196927e-01 -3.613579e-01 2.500049e-01 2.858225e-02 -3.365098e-01 1.115907e-01 -5.762384e-02 -1.645603e-01 -1.144518e-01 -1.473125e-03 1.456526e-01 3.699499e-03 1.136578e-01 -6.054010e-03 2.195507e-01
<VARIANCE> 39
 9.522430e+01 3.952906e+01 1.189637e+02 8.563530e+01 5.742821e+01 1.094367e+02 7.879622e+01 9.740890e+01 4.520483e+01 4.542173e+01 3.329806e+01 2.312536e+01 8.430080e+01 7.346939e+00 3.774511e+00 7.828871e+00 5.221982e+00 3.835075e+00 5.334263e+00 5.611499e+00 5.029212e+00 4.050308e+00 3.938088e+00 3.116733e+00 2.436733e+00 3.118403e+00 7.343609e-01 6.198409e-01 9.756223e-01 7.636729e-01 6.496287e-01 1.012076e+00 8.027245e-01 9.207648e-01 7.179642e-01 7.328345e-01 5.667396e-01 4.841450e-01 4.613239e-01
<GCONST> 1.403530e+02
<TRANSP> 5
 0.000000e+00 1.000000e+00 0.000000e+00 0.000000e+00 0.000000e+00
 0.000000e+00 7.993409e-01 2.006591e-01 0.000000e+00 0.000000e+00
 0.000000e+00 0.000000e+00 8.850604e-01 1.149396e-01 0.000000e+00
 0.000000e+00 0.000000e+00 0.000000e+00 8.509231e-01 1.490769e-01
 0.000000e+00 0.000000e+00 0.000000e+00 0.000000e+00 0.000000e+00
<ENDHMM>
~h "aa"
<BEGINHMM>
<NUMSTATES> 5
<STATE> 2
<MEAN> 39
 5.522841e+00 -8.840473e+00 -1.081097e+01 -1.298398e+01 -7.796163e+00 -1.790384e+01 2.070239e+00 -3.164400e+00 -2.345575e+00 1.892152e+00 -9.191708e+00 -3.344102e+00 7.662436e+01 2.974012e-02 -7.639715e-02 9.144589e-03 8.267533e-02 -2.468042e-01 2.508465e-01 2.504834e-01 1.009488e-01 -1.158937e-01 -9.631870e-02 -2.404530e-02 1.764927e-01 -3.948870e-02 -1.242087e-01 1.018500e-01 1.141411e-01 4.107450e-02 9.204448e-02 1.603279e-01 -1.049407e-01 -7.861529e-03 4.773609e-02 -1.409319e-01 1.018368e-01 -8.207357e-02 -1.322352e-01
<VARIANCE> 39
 1.404202e+01 2.820640e+01 1.554245e+01 3.110090e+01 3.524626e+01 7.418621e+01 3.399632e+01 3.543853e+01 3.487486e+01 4.982580e+01 4.713852e+01 2.379966e+01 3.599236e+01 7.875458e-01 1.038217e+00 1.303812e+00 1.552021e+00 1.428430e+00 3.473662e+00 2.014788e+00 1.760873e+00 2.114092e+00 2.468549e+00 2.496554e+00 1.568008e+00 1.310459e+00 1.455241e-01 1.477719e-01 2.424241e-01 2.958031e-01 2.597026e-01 4.070645e-01 3.672532e-01 3.634083e-01 4.019811e-01 3.512130e-01 4.744763e-01 2.963274e-01 8.211289e-02
<GCONST> 1.063732e+02
<STATE> 3
<MEAN> 39
 3.333701e+00 -7.685944e+00 -8.936922e+00 -1.257741e+01 -7.275740e+00 -1.128843e+01 -1.040832e+00 -2.226216e+00 -1.409595e+00 -3.686481e+00 -6.287242e+00 -1.295868e+00 7.322338e+01 -1.059019e+00 4.300898e-01 4.626096e-01 -2.708341e-01 4.093133e-01 5.938034e-01 -6.132020e-01 6.139835e-01 2.776629e-01 -9.197012e-01 8.258774e-01 -2.386468e-01 -4.331224e-01 -2.794365e-01 1.271499e-03 3.887912e-01 -2.653290e-01 3.975606e-01 -1.757167e-01 -1.748878e-01 -8.965246e-03 -1.731571e-01 -5.095082e-02 1.117596e-01 -2.082970e-01 3.391217e-01
<VARIANCE> 39
 4.214041e+01 4.498779e+01 1.971776e+01 2.845539e+01 4.670582e+01 3.179607e+01 4.331602e+01 4.738571e+01 2.719340e+01 2.894422e+01 4.067204e+01 2.567908e+01 4.576328e+01 2.252228e+00 1.294768e+00 2.195193e+00 2.541322e+00 2.265595e+00 1.910606e+00 3.092280e+00 3.451336e+00 1.749147e+00 2.139977e+00 4.443150e+00 2.520628e+00 7.862625e-01 5.985740e-01 4.034100e-01 5.704482e-01 4.213816e-01 4.887214e-01 3.484868e-01 5.834244e-01 5.275776e-01 4.964456e-01 3.858998e-01 7.060866e-01 4.408049e-01 2.548209e-01
<GCONST> 1.180632e+02
<STATE> 4
<MEAN> 39
 -6.210580e+00 -1.033948e+01 -6.785512e-02 -1.321220e+01 -6.952566e+00 -9.067091e+00 -1.720683e+00 -4.618565e+00 -1.787382e+00 -5.325790e+00 -3.133368e+00 -1.959238e+00 7.135555e+01 -1.222137e+00 -9.320162e-02 1.154866e+00 -2.938760e-01 9.127653e-01 2.589544e-01 -5.743237e-01 -4.035369e-01 -1.797078e-01 -4.262494e-01 7.573706e-01 -3.857060e-01 5.650042e-01 5.784979e-03 6.438677e-02 -1.640282e-01 2.807770e-04 1.819886e-02 1.027172e-02 1.545361e-01 -1.344761e-01 -1.060820e-01 1.286669e-01 -3.582177e-02 -6.488375e-04 5.242400e-02
<VARIANCE> 39
 1.270066e+02 4.738134e+01 6.835975e+01 4.945289e+01 3.063671e+01 5.169887e+01 5.144869e+01 7.036837e+01 2.675606e+01 2.259940e+01 4.398678e+01 3.233315e+01 7.830208e+01 4.946880e+00 3.789397e+00 5.631751e+00 4.270199e+00 2.886147e+00 4.330152e+00 3.916994e+00 4.751207e+00 2.920292e+00 3.040219e+00 4.118754e+00 3.220405e+00 4.735489e+00 7.801945e-01 4.232785e-01 8.947861e-01 4.949287e-01 4.284506e-01 7.336939e-01 5.513573e-01 9.557910e-01 4.164701e-01 5.688986e-01 6.936970e-01 6.331566e-01 6.771290e-01
<GCONST> 1.336038e+02
<TRANSP> 5
 0.000000e+00 1.000000e+00 0.000000e+00 0.000000e+00 0.000000e+00
 0.000000e+00 9.267546e-01 7.324541e-02 0.000000e+00 0.000000e+00
 0.000000e+00 0.000000e+00 5.376922e-01 4.623078e-01 0.000000e+00
 0.000000e+00 0.000000e+00 0.000000e+00 7.363265e-01 2.636735e-01
 0.000000e+00 0.000000e+00 0.000000e+00 0.000000e+00 0.000000e+00
<ENDHMM>
~h "ae"
<BEGINHMM>
<NUMSTATES> 5
<STATE> 2
<MEAN> 39
 -3.422356e+00 -6.121313e+00 -4.690835e+00 -3.444374e+00 3.504455e-01 -6.759946e+00 -9.203730e+00 -1.411621e+01 -3.572199e+00 -5.748984e+00 -5.961704e-02 -1.939581e+00 6.661763e+01 1.443410e+00 -8.385839e-01 -2.641222e-01 -3.049271e-02 -4.095298e-01 -7.911325e-01 -1.505701e+00 -1.761067e+00 1.654512e-01 1.248703e-01 7.066166e-01 8.488709e-01 2.417711e+00 -6.899714e-02 -1.107688e-01 1.404938e-01 4.956235e-02 1.447122e-01 -7.041001e-02 1.515829e-01 1.127232e-01 -2.401640e-01 -1.751979e-01 -2.094981e-02 2.857604e-02 1.298331e-01
<VARIANCE> 39
 7.297351e+01 3.642947e+01 5.755856e+01 6.371317e+01 6.080072e+01 7.315438e+01 1.063517e+02 8.657854e+01 8.773686e+01 6.374294e+01 6.294752e+01 4.583663e+01 1.070789e+02 5.487309e+00 3.269274e+00 5.589796e+00 6.168953e+00 4.624443e+00 6.040858e+00 7.220231e+00 7.305685e+00 6.509079e+00 5.678187e+00 5.899789e+00 4.443123e+00 5.843087e+00 9.273552e-01 5.544909e-01 8.676659e-01 9.256274e-01 6.986496e-01 1.095508e+00 1.542124e+00 1.387130e+00 1.147181e+00 9.419749e-01 9.874473e-01 7.382817e-01 9.553589e-01
<GCONST> 1.482567e+02
<STATE> 3
<MEAN> 39
 2.505512e+00 -9.739292e+00 -5.454233e+00 -3.944583e+00 4.154764e-01 -9.576178e+00 -1.415064e+01 -1.973555e+01 -5.447136e+00 -7.054587e+00 1.600818e+00 1.158504e+00 7.750703e+01 2.177865e-01 -6.548427e-01 1.675014e-01 -1.286247e-02 4.745260e-01 -1.011763e-01 -2.416335e-01 -4.949185e-01 -3.928736e-01 -7.538741e-01 2.774240e-01 5.387287e-01 9.297013e-01 -2.065880e-01 2.445215e-01 9.718219e-02 3.007153e-02 2.932227e-01 2.619474e-01 3.693818e-01 4.212486e-01 4.646583e-02 -3.826503e-02 -2.277773e-01 -3.457714e-01 -4.751726e-01
<VARIANCE> 39
 1.500935e+01 1.735479e+01 4.156868e+01 4.660979e+01 4.738162e+01 6.170844e+01 3.972641e+01 6.043966e+01 6.402888e+01 5.941952e+01 5.525063e+01 4.155312e+01 2.181971e+01 1.622665e+00 1.711601e+00 2.743378e+00 2.901356e+00 3.383649e+00 4.214960e+00 4.059885e+00 3.626200e+00 4.003833e+00 3.518461e+00 3.812399e+00 3.024776e+00 1.114249e+00 3.015306e-01 2.898220e-01 4.939326e-01 5.584401e-01 5.060278e-01 7.441926e-01 5.632123e-01 7.519864e-01 6.579595e-01 6.829847e-01 6.318708e-01 6.320288e-01 1.932045e-01
<GCONST> 1.243573e+02
<STATE> 4
<MEAN> 39
 2.061209e+00 -1.011179e+01 -5.940284e+00 -2.083794e+00 2.902547e+00 -7.812474e+00 -1.187982e+01 -1.952564e+01 -6.852919e+00 -8.439844e+00 1.843340e+00 8.806558e-01 7.602599e+01 -1.798592e-02 2.582348e-01 3.143159e-02 3.667704e-01 4.580163e-01 5.050527e-01 4.541445e-01 3.378938e-01 -2.877442e-01 -4.835527e-03 1.483868e-02 -2.358176e-01 -6.408858e-01 -4.224614e-02 1.062662e-01 2.014666e-02 5.923674e-02 7.675250e-03 3.533813e-02 2.898001e-02 1.313777e-01 3.487290e-02 1.101119e-01 -4.897077e-03 -1.078942e-01 -1.445510e-01
<VARIANCE> 39
 3.287283e+01 2.384367e+01 2.789762e+01 3.556947e+01 3.073064e+01 4.010907e+01 3.839909e+01 3.434483e+01 3.891586e+01 3.371407e+01 3.278407e+01 2.779973e+01 4.006224e+01 1.683036e+00 9.559518e-01 1.525933e+00 2.063342e+00 1.925927e+00 2.343044e+00 2.283368e+00 2.374108e+00 1.926490e+00 2.057636e+00 2.187219e+00 2.535616e+00 1.224216e+00 2.441173e-01 1.736168e-01 2.707493e-01 3.613819e-01 3.413385e-01 4.865236e-01 4.249242e-01 4.562492e-01 3.573562e-01 3.930126e-01 4.053469e-01 4.642200e-01 1.802629e-01
<GCONST> 1.110717e+02
<TRANSP> 5
 0.000000e+00 1.000000e+00 0.000000e+00 0.000000e+00 0.000000e+00
 0.000000e+00 7.241208e-01 2.758792e-01 0.000000e+00 0.000000e+00
 0.000000e+00 0.000000e+00 5.204430e-01 4.795571e-01 0.000000e+00
 0.000000e+00 0.000000e+00 0.000000e+00 8.841337e-01 1.158663e-01
 0.000000e+00 0.000000e+00 0.000000e+00 0.000000e+00 0.000000e+00
<ENDHMM>
~h "ah"
<BEGINHMM>
<NUMSTATES> 5
<STATE> 2
<MEAN> 39
 6.178764e+00 -1.143644e+00 -4.941078e+00 -9.969281e+00 -5.024267e+00 -2.049877e+01 -1.010408e+01 -5.066653e+00 -3.466554e+00 -1.539115e+00 -4.296515e+00 -4.457279e+00 7.182322e+01 1.010311e+00 -1.249760e+00 -1.250076e+00 -1.130780e+00 -7.218027e-01 -1.975513e+00 1.807121e-01 1.256439e+00 -6.557974e-01 1.110564e+00 -4.150909e-01 3.721299e-01 1.415354e+00 -3.083216e-01 -1.565664e-01 1.404000e-02 3.235228e-01 3.626772e-01 5.035812e-01 3.692351e-01 4.870291e-02 -2.065151e-01 -2.489968e-01 -5.968496e-02 -9.138720e-02 -1.463299e-01
<VARIANCE> 39
 2.242333e+01 6.695655e+01 4.323320e+01 7.516505e+01 5.762584e+01 9.147675e+01 6.810833e+01 5.058619e+01 6.628436e+01 6.139621e+01 4.719006e+01 3.205801e+01 3.367860e+01 2.100668e+00 3.874230e+00 3.090763e+00 6.033182e+00 4.559673e+00 6.689939e+00 5.534420e+00 5.290478e+00 4.286535e+00 4.399575e+00 3.576147e+00 3.141326e+00 1.402483e+00 2.662489e-01 6.259757e-01 4.856293e-01 8.297367e-01 5.985658e-01 7.826115e-01 8.561037e-01 7.723860e-01 6.391038e-01 7.256879e-01 5.491624e-01 4.326392e-01 1.888550e-01
<GCONST> 1.327086e+02
<STATE> 3
<MEAN> 39
 7.895841e+00 -7.725866e+00 -8.705143e+00 -1.087576e+01 -5.315385e+00 -2.361099e+01 -5.326735e+00 -1.544111e+00 -7.962910e+00 -1.277831e-01 -7.257456e+00 -3.692865e+00 7.690583e+01 2.372769e-01 -4.529635e-01 -4.259725e-01 2.523207e-01 2.621248e-01 5.265223e-01 5.354176e-01 1.443833e-01 -5.804133e-01 -4.340283e-01 -4.041183e-01 -1.100061e-02 2.651697e-01 -4.792541e-02 2.502262e-01 1.222391e-01 3.219856e-01 1.570844e-01 4.257546e-01 -1.064071e-01 -2.292622e-01 3.122148e-01 -3.581097e-01 8.398073e-02 -1.008971e-01 -2.531092e-01
<VARIANCE> 39
 7.745402e+00 2.835130e+01 2.180575e+01 3.357418e+01 3.396919e+01 1.008186e+02 5.493672e+01 4.638676e+01 7.521791e+01 7.387534e+01 4.928583e+01 2.866737e+01 1.349620e+01 5.537342e-01 1.143966e+00 1.429711e+00 2.611960e+00 2.357178e+00 3.240065e+00 2.824490e+00 2.951770e+00 3.238996e+00 3.763460e+00 2.304476e+00 2.146379e+00 8.173626e-01 1.054259e-01 1.747570e-01 2.075727e-01 3.391924e-01 4.109339e-01 4.890114e-01 4.893511e-01 5.708345e-01 6.214287e-01 5.268341e-01 4.819780e-01 4.091890e-01 8.579873e-02
<GCONST> 1.123144e+02
<STATE> 4
<MEAN> 39
 8.320288e+00 -6.351164e+00 -9.254808e+00 -6.944752e+00 -1.340133e+00 -1.384234e+01 -5.889562e+00 -2.477400e+00 -3.905450e+00 -7.241834e+00 -6.785622e+00 -4.701805e+00 7.435836e+01 -2.129395e-01 4.659389e-01 7.701211e-02 6.725084e-01 5.039074e-01 1.098849e+00 -2.023067e-02 -1.715535e-01 5.985494e-01 -6.590678e-01 1.983852e-01 -2.524663e-01 -6.774769e-01 -1.574858e-01 7.085013e-02 1.247905e-01 -1.070896e-01 -1.892268e-02 -4.762682e-02 -1.626351e-02 -2.042279e-03 3.087857e-02 1.123650e-01 7.522187e-02 -2.660255e-02 -4.805936e-02
<VARIANCE> 39
 2.716608e+01 3.284202e+01 3.227475e+01 5.415525e+01 4.158680e+01 5.916302e+01 4.863076e+01 3.466958e+01 6.723311e+01 4.128653e+01 3.321682e+01 4.128633e+01 2.631447e+01 8.989307e-01 6.620851e-01 1.145282e+00 3.025959e+00 1.724454e+00 1.873559e+00 2.247969e+00 1.991520e+00 2.852558e+00 2.323235e+00 2.310583e+00 1.738590e+00 6.046957e-01 1.290136e-01 1.019114e-01 1.839787e-01 3.754460e-01 2.672377e-01 2.897907e-01 4.102498e-01 3.871841e-01 4.505721e-01 3.650692e-01 3.763286e-01 3.098262e-01 8.181334e-02
<GCONST> 1.079126e+02
<TRANSP> 5
 0.000000e+00 1.000000e+00 0.000000e+00 0.000000e+00 0.000000e+00
 0.000000e+00 6.770251e-01 3.229748e-01 0.000000e+00 0.000000e+00
 0.000000e+00 0.000000e+00 7.579416e-01 2.420584e-01 0.000000e+00
 0.000000e+00 0.000000e+00 0.000000e+00 8.600850e-01 1.399150e-01
 0.000000e+00 0.000000e+00 0.000000e+00 0.000000e+00 0.000000e+00
<ENDHMM>
~h "ao"
<BEGINHMM>
<NUMSTATES> 5
<STATE> 2
<MEAN> 39
 5.295345e+00 2.649074e+00 -5.082960e-01 -1.089345e+01 -9.843287e+00 -2.307009e+01 -1.211016e+01 -6.343027e+00 -2.654903e+00 -9.702294e-01 -3.293708e+00 -7.117343e+00 7.006599e+01 2.127198e+00 2.177565e-01 -1.229630e+00 -1.539711e-01 -1.620232e+00 -2.517731e+00 -1.590582e+00 7.264003e-01 1.711425e-01 1.919411e+00 -2.090260e-03 -1.312442e-01 3.121330e-01 -6.638935e-01 -4.903899e-01 -3.132520e-01 3.074659e-01 7.610548e-01 3.989408e-01 5.318707e-01 2.946747e-01 -2.553507e-02 -2.011296e-01 -4.057765e-02 1.428494e-01 -1.388964e-02
<VARIANCE> 39
 1.710039e+01 4.854490e+01 3.162411e+01 3.549775e+01 5.916412e+01 6.926232e+01 3.932943e+01 3.730587e+01 4.741992e+01 5.474819e+01 2.020661e+01 2.370312e+01 2.437853e+01 2.621611e+00 3.854525e+00 3.359836e+00 3.021488e+00 5.366076e+00 5.426445e+00 4.036732e+00 3.878589e+00 2.732697e+00 4.604952e+00 2.653600e+00 2.395205e+00 1.066572e+00 4.494634e-01 4.669634e-01 4.934305e-01 4.988740e-01 7.256612e-01 8.637222e-01 5.182308e-01 4.334316e-01 4.805792e-01 7.541878e-01 3.468565e-01 3.050860e-01 1.508756e-01
<GCONST> 1.233822e+02
<STATE> 3
<MEAN> 39
 9.387490e+00 9.295120e-01 -6.125029e+00 -9.246892e+00 -8.580515e+00 -2.761962e+01 -1.401062e+01 -1.524108e+00 -2.058867e+00 2.597942e+00 -3.349953e+00 -5.997362e+00 7.149173e+01 2.948180e-01 -4.392112e-01 -7.757168e-01 4.928081e-02 5.291909e-01 -3.982333e-01 1.902371e-01 8.883166e-01 1.015893e-01 2.312992e-01 -4.472072e-01 2.446401e-01 2.862304e-01 -1.839205e-01 -7.993680e-02 1.467351e-01 -6.620546e-02 2.078364e-01 4.462817e-01 2.190192e-01 -1.077773e-01 -2.692100e-02 -3.152431e-01 -1.691956e-01 -1.708526e-02 2.703018e-02
<VARIANCE> 39
 6.573192e+00 3.355039e+01 2.262690e+01 2.825472e+01 3.026847e+01 6.251710e+01 5.002010e+01 3.860494e+01 5.669212e+01 4.530975e+01 2.735840e+01 2.327255e+01 1.219781e+01 3.874427e-01 1.190813e+00 1.496551e+00 1.600802e+00 2.023301e+00 3.385286e+00 2.107040e+00 1.963191e+00 1.885619e+00 3.486892e+00 1.614923e+00 1.326728e+00 3.915398e-01 8.104014e-02 1.240347e-01 1.930511e-01 2.269179e-01 3.372799e-01 3.329527e-01 3.246798e-01 3.500727e-01 2.951663e-01 4.145406e-01 2.501101e-01 2.198375e-01 3.190560e-02
<GCONST> 1.000698e+02
<STATE> 4
<MEAN> 39
 9.200405e+00 -4.078229e+00 -9.750728e+00 -1.002690e+01 -3.274412e+00 -2.008411e+01 -9.397942e+00 -5.243379e-01 -3.685358e+00 -2.862433e+00 -8.727610e+00 -4.254655e+00 7.347163e+01 -2.347361e-01 -2.109216e-01 -1.590720e-01 3.701122e-01 6.738852e-01 1.460447e+00 4.737872e-01 -3.401667e-01 -1.909125e-01 -1.033833e+00 -1.714093e-01 -8.119647e-02 -1.579851e-01 -7.994644e-02 5.933005e-02 7.951634e-02 1.059725e-01 -2.717463e-02 1.012543e-02 -2.379930e-02 -1.267621e-01 -5.130676e-03 6.360263e-03 1.094855e-01 -2.151832e-02 -6.236751e-02
<VARIANCE> 39
 1.582377e+01 2.251952e+01 3.342921e+01 3.291159e+01 5.632871e+01 1.001267e+02 4.970898e+01 4.227690e+01 5.837343e+01 9.669639e+01 4.857566e+01 3.088746e+01 1.779312e+01 5.379884e-01 8.946787e-01 1.088009e+00 1.768376e+00 2.745367e+00 3.376106e+00 1.935581e+00 2.298028e+00 3.665181e+00 3.725048e+00 2.477357e+00 1.816173e+00 6.722590e-01 6.941311e-02 1.245312e-01 1.671086e-01 2.625684e-01 3.493202e-01 4.973696e-01 3.341703e-01 3.595434e-01 6.272039e-01 6.172212e-01 3.869821e-01 3.084004e-01 7.616803e-02
<GCONST> 1.096422e+02
<TRANSP> 5
 0.000000e+00 1.000000e+00 0.000000e+00 0.000000e+00 0.000000e+00
 0.000000e+00 6.389458e-01 3.610542e-01 0.000000e+00 0.000000e+00
 0.000000e+00 0.000000e+00 8.254220e-01 1.745780e-01 0.000000e+00
 0.000000e+00 0.000000e+00 0.000000e+00 9.020296e-01 9.797037e-02
 0.000000e+00 0.000000e+00 0.000000e+00 0.000000e+00 0.000000e+00
<ENDHMM>
~h "aw"
<BEGINHMM>
<NUMSTATES> 5
<STATE> 2
<MEAN> 39
 1.282739e+00 -1.069682e+00 -3.507821e+00 -8.344420e+00 -5.428307e+00 -1.685192e+01 -5.680757e+00 -4.798283e+00 -9.945366e-01 -1.442648e+00 -6.943069e+00 -6.742974e+00 6.952417e+01 1.860655e+00 -7.046326e-01 -1.370210e+00 -2.028492e+00 -1.619035e+00 -2.995614e+00 -5.410663e-01 7.568283e-01 5.846611e-01 2.484216e+00 -1.369677e+00 2.839980e-01 1.878074e+00 -1.429098e-01 -1.864102e-01 -1.752764e-01 1.201906e-01 4.510927e-01 1.982730e-01 1.281793e-01 2.863756e-02 -2.452770e-01 9.961993e-02 1.758082e-02 6.638920e-02 1.145958e-01
<VARIANCE> 39
 5.301951e+01 4.132174e+01 4.824875e+01 8.584627e+01 7.214270e+01 9.204833e+01 6.908920e+01 5.062286e+01 6.538078e+01 8.746043e+01 5.083416e+01 3.309715e+01 4.040354e+01 4.328326e+00 2.505908e+00 3.655082e+00 4.567306e+00 7.846806e+00 8.954786e+00 8.158096e+00 5.560503e+00 7.725541e+00 7.110182e+00 3.774178e+00 4.002893e+00 3.385073e+00 7.164870e-01 4.213475e-01 6.319680e-01 9.658374e-01 1.364723e+00 1.286649e+00 1.220397e+00 6.054630e-01 1.165177e+00 1.207133e+00 7.460722e-01 7.742632e-01 5.687559e-01
<GCONST> 1.434409e+02
<STATE> 3
<MEAN> 39
 4.185215e+00 -4.608422e+00 -5.946231e+00 -1.576163e+01 -4.910782e+00 -2.294308e+01 -4.153834e+00 -5.449694e+00 -8.344082e-01 6.047357e+00 -1.279222e+01 -5.376277e+00 7.711253e+01 3.365252e-01 -2.804346e-01 -8.842307e-02 -1.760491e-01 1.944510e-01 -4.513305e-01 -2.766997e-01 2.554276e-01 -3.295860e-01 7.936257e-01 -8.521219e-02 5.034348e-02 2.804090e-01 -8.831085e-02 5.041353e-02 1.260891e-01 2.212245e-01 3.960221e-02 2.486362e-01 9.411068e-02 -1.057223e-02 -2.691356e-02 -2.544987e-01 1.252015e-01 1.090343e-02 -1.491756e-01
<VARIANCE> 39
 4.491534e+01 2.464868e+01 3.186177e+01 2.972932e+01 3.997605e+01 8.555494e+01 8.108217e+01 4.631124e+01 2.970585e+01 1.511955e+02 5.719372e+01 3.668787e+01 1.745242e+01 2.159459e+00 1.498293e+00 2.464616e+00 2.815935e+00 2.336785e+00 4.746405e+00 5.142412e+00 2.286257e+00 2.263019e+00 5.124155e+00 2.433918e+00 2.882074e+00 9.171063e-01 2.880429e-01 1.892159e-01 3.269484e-01 5.054173e-01 4.779195e-01 7.820865e-01 1.142293e+00 4.274025e-01 3.974969e-01 8.668168e-01 4.748217e-01 5.393795e-01 1.297219e-01
<GCONST> 1.222402e+02
<STATE> 4
<MEAN> 39
 8.259561e+00 -3.920514e+00 -7.199903e+00 -1.023159e+01 -6.007285e+00 -2.057401e+01 -8.755534e+00 -1.816746e-01 -2.181793e+00 6.953909e-01 -9.736143e+00 -5.818632e+00 7.399152e+01 -7.605775e-02 2.016400e-02 -7.306560e-02 4.698477e-01 1.374152e-01 5.743059e-01 1.347282e-01 1.111255e-01 1.059260e-01 -8.646501e-01 1.156762e-01 -1.468285e-01 -3.086424e-01 -9.110839e-02 2.312572e-02 5.278913e-02 -8.408673e-03 1.206400e-02 9.686850e-02 5.724074e-02 -4.968647e-02 8.548256e-04 -4.824365e-02 5.763615e-02 -1.649282e-02 -5.179726e-02
<VARIANCE> 39
 1.064323e+01 3.776987e+01 1.799305e+01 3.740144e+01 3.092294e+01 1.068555e+02 5.753797e+01 3.786853e+01 5.906796e+01 8.231613e+01 2.754155e+01 3.255648e+01 1.625190e+01 4.403051e-01 1.301772e+00 1.035625e+00 1.787704e+00 1.639161e+00 2.943898e+00 2.377933e+00 2.031783e+00 2.813152e+00 3.846478e+00 1.791992e+00 1.999983e+00 5.722076e-01 6.395017e-02 1.925649e-01 1.984429e-01 2.930795e-01 2.761640e-01 5.026345e-01 3.152031e-01 3.185218e-01 4.493889e-01 6.246585e-01 3.073639e-01 3.385736e-01 6.738477e-02
<GCONST> 1.066139e+02
<TRANSP> 5
 0.000000e+00 1.000000e+00 0.000000e+00 0.000000e+00 0.000000e+00
 0.000000e+00 7.256121e-01 2.743879e-01 0.000000e+00 0.000000e+00
 0.000000e+00 0.000000e+00 8.188309e-01 1.811691e-01 0.000000e+00
 0.000000e+00 0.000000e+00 0.000000e+00 9.402860e-01 5.971401e-02
 0.000000e+00 0.000000e+00 0.000000e+00 0.000000e+00 0.000000e+00
<ENDHMM>
~h "ax"
<BEGINHMM>
<NUMSTATES> 5
<STATE> 2
<MEAN> 39
 -1.542761e+00 -2.850922e+00 -1.204009e-01 -4.680877e+00 -1.471649e+00 -8.611730e+00 -6.464116e+00 -6.850257e+00 -4.529331e+00 -6.437178e+00 -3.594318e+00 -4.977415e+00 6.649968e+01 1.134946e+00 2.644825e-02 1.640751e-01 -1.188441e-01 -1.956377e-01 -6.190507e-01 -8.521322e-01 -1.899948e-01 -3.021078e-01 -8.598334e-02 -2.607991e-01 -3.589517e-01 1.011406e+00 -1.425872e-02 -9.822287e-02 -1.304489e-01 4.810330e-03 1.788820e-01 5.551227e-02 3.760429e-02 -8.995932e-02 -1.448693e-01 -1.268899e-01 -1.749402e-02 -5.056250e-02 9.754646e-02
<VARIANCE> 39
 9.221558e+01 7.498095e+01 7.900637e+01 6.345269e+01 9.068204e+01 1.236929e+02 6.423296e+01 6.627838e+01 7.825616e+01 4.214128e+01 3.317207e+01 3.707202e+01 7.942548e+01 6.244040e+00 5.848749e+00 4.818044e+00 4.194315e+00 5.472556e+00 5.944825e+00 5.584883e+00 5.058825e+00 6.013580e+00 2.699390e+00 2.867688e+00 3.010282e+00 4.176364e+00 8.446617e-01 9.004116e-01 8.558311e-01 6.247464e-01 8.123913e-01 1.009378e+00 9.541197e-01 8.229766e-01 9.554837e-01 4.562925e-01 4.669103e-01 5.009363e-01 5.433476e-01
<GCONST> 1.418767e+02
<STATE> 3
<MEAN> 39
 3.439501e+00 -4.534983e+00 -1.867869e+00 -5.709170e+00 3.717196e-02 -1.059543e+01 -7.465193e+00 -7.304604e+00 -8.558449e+00 -7.811517e+00 -4.800182e+00 -5.472690e+00 7.134084e+01 2.988595e-01 7.253571e-02 -4.362294e-01 -6.341401e-02 2.942779e-01 3.869703e-01 9.255832e-02 -8.611696e-02 -4.045776e-01 -4.317021e-01 -7.099797e-02 -3.066134e-01 1.434997e-01 -3.875799e-01 3.694192e-02 5.827570e-03 -6.183171e-02 9.056951e-02 1.241175e-01 1.897564e-01 9.256232e-03 2.871398e-01 2.226708e-02 1.340275e-01 1.314525e-02 -1.360948e-01
<VARIANCE> 39
 5.434032e+01 4.651552e+01 7.196388e+01 5.608557e+01 8.234576e+01 1.383366e+02 5.337021e+01 6.938842e+01 7.422246e+01 5.173078e+01 4.090971e+01 4.627536e+01 3.905575e+01 4.068064e+00 2.562239e+00 4.439087e+00 3.608943e+00 3.799717e+00 4.462445e+00 4.464097e+00 3.859001e+00 5.160987e+00 3.024863e+00 2.456491e+00 2.826011e+00 1.572472e+00 4.266602e-01 4.486440e-01 6.566105e-01 5.306058e-01 5.985332e-01 7.203203e-01 6.959383e-01 6.866337e-01 9.934450e-01 5.656340e-01 4.735651e-01 5.367293e-01 2.430622e-01
<GCONST> 1.331222e+02
<STATE> 4
<MEAN> 39
 8.650625e-01 -2.922380e+00 -1.859144e+00 -4.754219e+00 1.046163e+00 -7.355511e+00 -5.057538e+00 -7.000411e+00 -7.560420e+00 -8.900896e+00 -3.981206e+00 -6.231550e+00 6.859547e+01 -5.962387e-01 3.489381e-01 -1.262738e-01 -5.208842e-02 3.504267e-01 4.628351e-01 3.894742e-01 1.252108e-01 5.021139e-01 -3.784937e-02 1.663258e-01 -4.660103e-02 -3.840915e-01 -2.584216e-01 -2.163727e-02 1.548267e-01 -8.263876e-02 8.760259e-03 -9.193393e-02 6.043521e-02 3.940278e-02 2.072037e-01 1.283227e-01 3.275623e-02 9.238141e-02 2.268612e-02
<VARIANCE> 39
 7.774099e+01 4.939478e+01 6.306573e+01 7.144288e+01 7.949290e+01 7.528799e+01 5.718530e+01 5.277811e+01 6.937968e+01 4.682886e+01 3.887247e+01 3.776707e+01 6.105279e+01 3.441162e+00 1.770267e+00 3.927644e+00 3.376591e+00 2.546373e+00 3.523734e+00 3.199065e+00 2.608498e+00 3.338623e+00 2.851419e+00 1.937128e+00 2.144694e+00 1.118876e+00 4.224100e-01 2.901768e-01 4.463030e-01 4.595094e-01 4.739538e-01 5.658640e-01 5.597662e-01 4.410802e-01 5.733820e-01 4.874271e-01 3.832958e-01 4.193798e-01 1.971428e-01
<GCONST> 1.259152e+02
<TRANSP> 5
 0.000000e+00 1.000000e+00 0.000000e+00 0.000000e+00 0.000000e+00
 0.000000e+00 5.226435e-01 4.773565e-01 0.000000e+00 0.000000e+00
 0.000000e+00 0.000000e+00 3.738703e-01 6.261297e-01 0.000000e+00
 0.000000e+00 0.000000e+00 0.000000e+00 5.519496e-01 4.480504e-01
 0.000000e+00 0.000000e+00 0.000000e+00 0.000000e+00 0.000000e+00
<ENDHMM>
~h "ay"
<BEGINHMM>
<NUMSTATES> 5
<STATE> 2
<MEAN> 39
 4.292148e+00 -4.438497e+00 -8.255701e+00 -1.078521e+01 -4.666541e+00 -1.891764e+01 -5.351102e+00 -5.782808e+00 -1.892711e+00 -1.519142e+00 -6.793890e+00 -3.379311e+00 7.221487e+01 4.231251e-01 -1.793923e+00 -1.065916e+00 -1.143636e+00 -7.724392e-01 -8.606503e-01 7.994906e-01 3.018143e-01 -4.978027e-01 6.467683e-01 -4.473707e-01 1.290951e+00 1.446298e+00 -2.586012e-01 -5.188027e-02 1.869213e-01 3.048221e-01 3.475867e-01 7.483397e-01 1.243117e-01 -2.367115e-01 -2.304460e-01 -3.323528e-01 1.108327e-01 4.376633e-02 -1.313305e-01
<VARIANCE> 39
 6.309573e+01 7.893699e+01 4.861961e+01 8.219112e+01 4.341906e+01 9.294585e+01 6.359867e+01 4.336825e+01 6.087457e+01 5.286452e+01 4.082254e+01 4.248552e+01 5.722889e+01 2.097334e+00 3.755059e+00 4.138113e+00 5.870621e+00 4.573030e+00 9.007806e+00 5.408237e+00 4.645012e+00 3.703119e+00 5.801246e+00 3.696805e+00 4.027234e+00 1.707174e+00 2.622957e-01 7.625686e-01 6.383562e-01 8.983862e-01 8.206457e-01 1.146938e+00 9.883554e-01 7.590004e-01 6.242969e-01 6.759479e-01 6.039150e-01 6.404697e-01 2.179602e-01
<GCONST> 1.369400e+02
<STATE> 3
<MEAN> 39
 5.438288e+00 -1.192893e+01 -9.837826e+00 -1.086168e+01 -4.595410e+00 -1.490608e+01 -3.664576e+00 -8.909392e+00 -5.145779e+00 -2.896804e+00 -7.238030e+00 1.721600e+00 7.827661e+01 -2.429821e-02 -7.508337e-01 1.682943e-01 6.593891e-01 6.000324e-01 1.558157e+00 -5.955983e-01 -1.191071e+00 -7.952815e-01 -8.851681e-01 6.268488e-01 7.874662e-01 3.260437e-01 -2.981402e-02 3.067232e-01 1.813027e-01 2.597986e-01 2.319361e-01 7.552393e-03 -2.648090e-01 -1.863338e-01 -1.086148e-02 -1.173574e-01 1.340993e-01 -2.733422e-01 -1.786182e-01
<VARIANCE> 39
 3.086674e+01 2.875018e+01 2.512482e+01 4.077362e+01 5.333006e+01 7.028213e+01 6.028903e+01 5.457993e+01 5.350452e+01 6.057639e+01 4.697409e+01 3.661826e+01 3.730569e+01 4.506345e-01 1.115750e+00 1.649842e+00 2.090452e+00 2.422619e+00 3.689924e+00 4.203548e+00 3.482867e+00 2.569516e+00 4.033615e+00 3.348819e+00 2.718249e+00 3.244281e-01 8.001112e-02 1.409931e-01 2.436022e-01 2.978084e-01 3.443348e-01 6.250671e-01 7.513568e-01 5.783436e-01 4.836704e-01 7.284147e-01 6.381447e-01 5.367965e-01 3.574285e-02
<GCONST> 1.148006e+02
<STATE> 4
<MEAN> 39
 3.521599e+00 -1.119872e+01 -7.938574e+00 -4.716141e+00 3.238690e-01 -7.676531e+00 -6.111361e+00 -1.376607e+01 -7.832906e+00 -6.757853e+00 -2.701748e+00 3.011394e+00 7.358253e+01 -2.532696e-01 3.267414e-01 -2.921900e-02 6.446574e-01 7.241533e-01 4.983102e-01 -7.178686e-03 -2.880298e-01 -2.648011e-01 -3.455347e-01 4.738963e-01 -2.397702e-01 -6.571624e-01 -7.906714e-02 9.854736e-02 -6.022938e-03 -8.172134e-02 -1.581132e-03 -1.033269e-01 7.238804e-02 1.770544e-01 8.004447e-02 5.956540e-02 -1.984701e-02 -1.127920e-01 -7.819393e-02
<VARIANCE> 39
 6.668564e+01 2.929098e+01 1.972902e+01 3.103332e+01 4.736422e+01 4.358392e+01 3.709350e+01 5.274523e+01 3.935305e+01 3.483936e+01 3.585764e+01 2.579766e+01 1.007179e+02 4.654813e-01 6.210724e-01 1.178922e+00 1.455087e+00 2.021010e+00 1.583588e+00 2.538757e+00 2.605537e+00 2.050488e+00 2.171056e+00 2.028970e+00 1.778038e+00 5.914310e-01 7.680295e-02 1.079605e-01 2.064463e-01 2.093782e-01 3.263763e-01 3.117009e-01 5.138313e-01 3.863054e-01 3.816691e-01 3.804485e-01 4.363607e-01 3.086527e-01 6.777547e-02
<GCONST> 1.056888e+02
<TRANSP> 5
 0.000000e+00 1.000000e+00 0.000000e+00 0.000000e+00 0.000000e+00
 0.000000e+00 7.248761e-01 2.751239e-01 0.000000e+00 0.000000e+00
 0.000000e+00 0.000000e+00 7.151051e-01 2.848950e-01 0.000000e+00
 0.000000e+00 0.000000e+00 0.000000e+00 8.782283e-01 1.217717e-01
 0.000000e+00 0.000000e+00 0.000000e+00 0.000000e+00 0.000000e+00
<ENDHMM>
~h "ch"
<BEGINHMM>
<NUMSTATES> 5
<STATE> 2
<MEAN> 39
 -7.593098e-01 -3.921334e+00 2.272567e+00 -7.502899e-01 -8.358417e-01 -4.622362e+00 -5.173543e+00 -5.621688e+00 -5.636948e+00 -9.450555e+00 -2.742993e+00 -5.403389e+00 6.597515e+01 -7.953649e-01 -2.522209e+00 1.427093e+00 -1.492812e-01 4.390601e-01 -9.076630e-01 -9.359213e-01 9.560133e-01 -1.055701e-01 -3.771806e-01 -3.033394e-01 -2.057561e-01 1.636166e+00 -5.587955e-01 -5.944369e-01 2.806653e-01 -1.393830e-01 4.327764e-01 -6.997043e-02 -2.903396e-02 -1.029069e-01 1.973676e-02 1.379837e-01 -3.654557e-02 8.105333e-02 3.606355e-01
<VARIANCE> 39
 6.806091e+01 1.222834e+02 1.283628e+02 6.711331e+01 9.762513e+01 1.068616e+02 3.979511e+01 7.521097e+01 7.188473e+01 5.121616e+01 3.565931e+01 5.246412e+01 4.153438e+01 1.074182e+01 8.840606e+00 1.524008e+01 5.729072e+00 7.860575e+00 7.277842e+00 3.682458e+00 7.523484e+00 6.529346e+00 4.805600e+00 3.549388e+00 5.225560e+00 2.579155e+00 3.393728e-01 9.549574e-01 1.953997e+00 1.146339e+00 1.267691e+00 1.041408e+00 9.333152e-01 1.095681e+00 7.145396e-01 6.538172e-01 6.147391e-01 1.166986e+00 3.859293e-01
<GCONST> 1.481334e+02
<STATE> 3
<MEAN> 39
 -1.275567e+01 -2.072977e+01 1.146583e+01 -2.728860e+00 5.923835e+00 -8.654323e+00 -9.034267e+00 -1.723445e+00 -6.054400e+00 -1.299262e+01 -2.316229e+00 -3.008763e+00 7.650816e+01 -2.715174e+00 -1.766150e+00 1.558468e+00 3.921211e-02 5.617696e-01 -7.270741e-01 2.351454e-01 -6.435944e-02 6.338573e-01 4.262391e-02 -8.706604e-02 1.473412e-02 1.062664e+00 4.523688e-01 5.340167e-01 -6.626123e-01 1.046307e-01 -1.411097e-01 1.251328e-01 1.635977e-01 -3.929409e-01 -1.414891e-01 -3.167377e-02 1.593183e-01 6.096618e-02 -2.970808e-01
<VARIANCE> 39
 1.028108e+02 4.303816e+01 9.528223e+01 6.879244e+01 7.147385e+01 4.428115e+01 1.778046e+01 4.432344e+01 8.590373e+01 4.380004e+01 4.023947e+01 1.911686e+01 1.884375e+01 4.217188e+00 2.823471e+00 8.182456e+00 3.926823e+00 3.654681e+00 3.599984e+00 1.673871e+00 3.541741e+00 3.897008e+00 2.410499e+00 2.866946e+00 2.091981e+00 2.112042e+00 6.800368e-01 3.791566e-01 1.605794e+00 7.776631e-01 6.022468e-01 6.627035e-01 3.422703e-01 5.817589e-01 8.638009e-01 4.603122e-01 6.448062e-01 3.362816e-01 2.960442e-01
<GCONST> 1.291530e+02
<STATE> 4
<MEAN> 39
 -1.450163e+01 -2.101870e+01 1.387835e+01 2.756773e+00 5.724140e+00 -7.599931e+00 -9.603543e+00 -8.591837e+00 -6.719666e+00 -1.095176e+01 -4.389346e-01 -2.673883e+00 7.400090e+01 1.741808e+00 9.855604e-01 -6.668101e-01 -4.998399e-02 -7.050790e-01 3.798406e-01 -3.645678e-01 -8.263617e-01 -6.893376e-01 5.652003e-02 2.151635e-01 5.284620e-02 -2.604553e-01 3.135439e-01 2.269853e-01 -1.876789e-01 -5.941983e-02 -1.282302e-01 5.953445e-02 1.693707e-02 1.227738e-02 -4.233365e-02 2.670287e-02 -1.214562e-01 -4.681297e-02 -3.873651e-02
<VARIANCE> 39
 9.533993e+01 6.620992e+01 4.796057e+01 4.839955e+01 7.185588e+01 4.899495e+01 4.177139e+01 6.181491e+01 4.395185e+01 3.062775e+01 3.185811e+01 1.595017e+01 4.463375e+01 5.856577e+00 3.784064e+00 4.205465e+00 2.945428e+00 4.825250e+00 3.638631e+00 3.495760e+00 4.349190e+00 4.400280e+00 2.115001e+00 2.346128e+00 1.251438e+00 1.619814e+00 8.089045e-01 5.901971e-01 6.660461e-01 5.352618e-01 6.784053e-01 7.160527e-01 6.924407e-01 7.662443e-01 8.532563e-01 3.524277e-01 4.784864e-01 2.696702e-01 2.413762e-01
<GCONST> 1.286292e+02
<TRANSP> 5
 0.000000e+00 1.000000e+00 0.000000e+00 0.000000e+00 0.000000e+00
 0.000000e+00 7.781169e-01 2.218831e-01 0.000000e+00 0.000000e+00
 0.000000e+00 0.000000e+00 7.761816e-01 2.238184e-01 0.000000e+00
 0.000000e+00 0.000000e+00 0.000000e+00 8.991125e-01 1.008875e-01
 0.000000e+00 0.000000e+00 0.000000e+00 0.000000e+00 0.000000e+00
<ENDHMM>
~h "dh"
<BEGINHMM>
<NUMSTATES> 5
<STATE> 2
<MEAN> 39
 -2.786386e+00 -7.231798e+00 5.595226e-01 -4.228083e+00 8.527238e-01 -5.222524e+00 -8.201472e+00 -1.348966e+01 -7.687267e+00 -7.223741e+00 -2.887866e+00 -6.094574e+00 6.851405e+01 1.365688e+00 -2.264860e-01 -3.128899e-01 3.368062e-01 5.873215e-01 -1.154303e-01 -4.259620e-01 -1.054851e+00 -1.145684e+00 -2.359394e-01 1.474973e-01 1.736475e-01 1.007715e+00 -1.620777e-01 1.153380e-01 -4.070505e-01 1.324688e-01 1.161856e-01 -3.555446e-02 3.198870e-01 4.240709e-01 1.216713e-01 -9.008422e-04 6.047952e-02 1.872942e-01 -3.653527e-01
<VARIANCE> 39
 8.931872e+01 3.381223e+01 5.897159e+01 4.817790e+01 5.480029e+01 6.164668e+01 6.710168e+01 9.522316e+01 7.234064e+01 4.939461e+01 3.675303e+01 3.896743e+01 8.519476e+01 5.508564e+00 2.991364e+00 6.081470e+00 3.469178e+00 4.993042e+00 5.170614e+00 5.248677e+00 7.390574e+00 5.848191e+00 3.280350e+00 2.718009e+00 3.380842e+00 5.946329e+00 8.079002e-01 4.469455e-01 8.368289e-01 6.518995e-01 8.207855e-01 6.501663e-01 8.597100e-01 1.249646e+00 1.159186e+00 6.501988e-01 5.624111e-01 5.577567e-01 4.354790e-01
<GCONST> 1.396837e+02
<STATE> 3
<MEAN> 39
 6.651731e-01 -7.283261e+00 -3.674625e+00 -3.404850e+00 2.399902e+00 -5.578310e+00 -6.531141e+00 -1.100873e+01 -8.553193e+00 -8.634803e+00 -3.434927e+00 -4.252609e+00 7.040746e+01 -7.869808e-02 1.246404e-01 -6.730611e-01 4.068788e-01 1.615101e-01 3.645193e-01 6.585002e-01 3.910916e-01 5.534430e-02 4.203415e-02 2.685353e-01 2.871750e-01 -6.601930e-01 -1.930209e-01 8.361726e-02 7.077432e-02 4.988350e-04 1.142432e-02 2.139115e-02 2.773885e-02 7.787751e-02 2.558720e-01 6.023826e-02 1.214350e-02 -4.232230e-03 -1.114444e-01
<VARIANCE> 39
 7.682045e+01 4.735002e+01 3.764226e+01 6.519650e+01 5.689478e+01 5.681323e+01 5.247001e+01 5.909114e+01 8.286536e+01 3.859455e+01 3.694116e+01 4.253844e+01 5.172604e+01 1.253505e+00 1.949330e+00 2.134435e+00 2.306529e+00 2.339213e+00 3.044201e+00 2.620430e+00 2.496601e+00 2.489660e+00 2.060619e+00 1.716404e+00 1.788053e+00 1.672306e+00 1.925748e-01 2.773375e-01 2.802593e-01 3.512094e-01 3.635755e-01 4.218667e-01 4.484572e-01 5.002491e-01 4.967649e-01 3.233559e-01 3.015325e-01 3.429723e-01 1.916699e-01
<GCONST> 1.184103e+02
<STATE> 4
<MEAN> 39
 -1.109501e+01 -6.560051e+00 -6.523558e+00 -2.157706e+00 1.021679e+00 -2.261714e+00 -1.949008e+00 -6.860871e+00 -5.054521e+00 -7.868636e+00 -4.109320e-01 -1.288570e+00 5.648294e+01 -3.482283e-01 3.067219e-01 -6.711741e-02 7.912838e-02 6.812619e-02 8.060767e-02 2.429349e-01 2.870564e-01 3.684979e-01 1.253275e-01 -6.895550e-02 -1.684628e-02 -5.760400e-01 8.928919e-03 -7.636600e-03 1.176765e-01 -5.341718e-02 -3.727417e-02 -6.361680e-02 -1.205817e-01 -6.262399e-02 3.214154e-02 1.896422e-02 -3.890618e-02 -5.300990e-02 1.005846e-01
<VARIANCE> 39
 8.400783e+01 2.346362e+01 2.771157e+01 2.804143e+01 2.514976e+01 2.915467e+01 3.188131e+01 3.826024e+01 3.400509e+01 2.574769e+01 1.716795e+01 2.251190e+01 9.049886e+01 4.627853e-01 6.654636e-01 9.774512e-01 9.923696e-01 1.030606e+00 1.469220e+00 1.371851e+00 1.373319e+00 1.446275e+00 1.186238e+00 1.107228e+00 1.254254e+00 4.919130e-01 1.261748e-01 1.287988e-01 1.510718e-01 1.681720e-01 2.137136e-01 3.188712e-01 3.391981e-01 3.013322e-01 2.632723e-01 2.471590e-01 2.078489e-01 2.044024e-01 1.035463e-01
<GCONST> 9.594125e+01
<TRANSP> 5
 0.000000e+00 1.000000e+00 0.000000e+00 0.000000e+00 0.000000e+00
 0.000000e+00 5.721283e-01 4.278717e-01 0.000000e+00 0.000000e+00
 0.000000e+00 0.000000e+00 5.729527e-01 4.270473e-01 0.000000e+00
 0.000000e+00 0.000000e+00 0.000000e+00 8.212615e-01 1.787385e-01
 0.000000e+00 0.000000e+00 0.000000e+00 0.000000e+00 0.000000e+00
<ENDHMM>
~h "ea"
<BEGINHMM>
<NUMSTATES> 5
<STATE> 2
<MEAN> 39
 4.087626e+00 -9.742547e+00 -9.453962e+00 1.620429e+00 8.693911e+00 -1.803991e+01 -9.516225e+00 -2.235730e+01 -8.961060e+00 -7.646407e+00 -1.154512e+00 2.573457e-01 7.926556e+01 -1.580146e-01 -4.593699e-01 -7.104592e-01 2.312827e-01 -8.158983e-01 1.743568e-01 8.977220e-01 -8.946104e-01 7.446591e-01 -1.910825e-02 6.488660e-01 7.916439e-01 5.784510e-01 6.926223e-02 3.809046e-02 9.820781e-02 -2.924108e-01 -1.624833e-01 4.454149e-01 1.796075e-02 3.876514e-01 -6.486943e-02 1.362682e-01 -1.875146e-01 -7.467110e-02 -2.311022e-01
<VARIANCE> 39
 6.786919e+00 1.256864e+01 3.989426e+01 3.880375e+01 1.220269e+01 3.173109e+01 3.220485e+01 3.810797e+01 3.113676e+01 2.517806e+01 3.326161e+01 7.130901e+01 1.217225e+01 9.887739e-01 8.127488e-01 1.192629e+00 2.436805e+00 2.269477e+00 2.058691e+00 2.164685e+00 4.485418e+00 1.771240e+00 2.307049e+00 2.148276e+00 2.806233e+00 6.529032e-01 1.090690e-01 1.571250e-01 1.171407e-01 2.286366e-01 2.676242e-01 2.454472e-01 5.078729e-01 9.329959e-01 3.984129e-01 3.497434e-01 4.769816e-01 6.498898e-01 2.990857e-02
<GCONST> 1.031075e+02
<STATE> 3
<MEAN> 39
 5.570555e+00 -1.217406e+01 -1.075789e+01 -1.758816e+00 4.100125e+00 -1.603107e+01 -7.473509e+00 -1.807592e+01 -1.167861e+01 -5.214840e+00 -4.399890e-02 3.704844e+00 7.952097e+01 4.381738e-01 -1.052312e-01 -1.833285e-01 -6.366291e-01 -5.422726e-01 2.738352e-01 4.705559e-01 1.188701e+00 -5.530702e-01 3.590403e-01 -5.061191e-01 2.570238e-01 -1.020405e-01 2.127090e-02 1.377906e-01 9.421429e-02 -1.505253e-02 1.677422e-01 -3.809204e-02 -3.292282e-02 1.523897e-01 -1.439296e-01 1.972149e-02 -1.643991e-01 -2.100161e-01 -1.041541e-01
<VARIANCE> 39
 7.890319e+00 1.372027e+01 2.351447e+01 3.071248e+01 5.411581e+01 3.858403e+01 2.272083e+01 4.567162e+01 8.372523e+01 2.580922e+01 3.539188e+01 5.379703e+01 1.628431e+01 4.059763e-01 7.752713e-01 9.474451e-01 1.546800e+00 2.100394e+00 1.553554e+00 1.815789e+00 3.105989e+00 2.980212e+00 2.081093e+00 2.615646e+00 2.376032e+00 3.020749e-01 5.441909e-02 9.382781e-02 9.600058e-02 1.754404e-01 2.773697e-01 2.150924e-01 2.917924e-01 5.093586e-01 5.475962e-01 3.060537e-01 4.185514e-01 3.709932e-01 2.967671e-02
<GCONST> 9.889365e+01
<STATE> 4
<MEAN> 39
 8.035373e+00 -8.561440e+00 -1.311188e+01 -6.423820e+00 3.392358e-01 -1.223530e+01 -5.879643e+00 -9.714814e+00 -1.177863e+01 -4.048325e+00 -2.322352e+00 1.869096e+00 7.437422e+01 -8.643561e-02 8.205895e-01 -4.959932e-02 5.072489e-02 1.998887e-01 3.047363e-01 -1.043517e-01 2.176895e-01 1.469213e-01 -4.207096e-01 1.576070e-01 -6.290661e-01 -9.175286e-01 -9.725091e-02 5.362507e-02 3.612789e-02 5.523574e-02 1.444339e-02 5.220513e-02 -6.106646e-02 -2.069832e-01 1.253177e-01 -9.159289e-02 8.570903e-02 -3.989841e-02 -3.003727e-02
<VARIANCE> 39
 1.131966e+01 3.039884e+01 2.170122e+01 2.840561e+01 3.484035e+01 3.162457e+01 2.078608e+01 3.141008e+01 3.674549e+01 3.479406e+01 3.164676e+01 4.081353e+01 2.337617e+01 4.196777e-01 7.567841e-01 9.800394e-01 1.527256e+00 9.299040e-01 9.106276e-01 1.621635e+00 1.885588e+00 2.033121e+00 1.720356e+00 2.122779e+00 1.588306e+00 4.053705e-01 4.345812e-02 9.813784e-02 1.470465e-01 1.837857e-01 1.572888e-01 2.032693e-01 2.538604e-01 2.645140e-01 3.352584e-01 3.183859e-01 3.214788e-01 2.385668e-01 5.061810e-02
<GCONST> 9.366856e+01
<TRANSP> 5
 0.000000e+00 1.000000e+00 0.000000e+00 0.000000e+00 0.000000e+00
 0.000000e+00 7.021217e-01 2.978783e-01 0.000000e+00 0.000000e+00
 0.000000e+00 0.000000e+00 8.527503e-01 1.472497e-01 0.000000e+00
 0.000000e+00 0.000000e+00 0.000000e+00 8.525796e-01 1.474204e-01
 0.000000e+00 0.000000e+00 0.000000e+00 0.000000e+00 0.000000e+00
<ENDHMM>
~h "eh"
<BEGINHMM>
<NUMSTATES> 5
<STATE> 2
<MEAN> 39
 -4.987328e-01 -3.571505e+00 -1.229834e+00 -5.634489e+00 1.752881e+00 -8.456621e+00 -7.665256e+00 -1.149639e+01 -6.517773e+00 -7.954150e+00 -3.649886e+00 -5.941430e+00 6.962685e+01 1.226808e+00 -1.392790e+00 -1.379214e+00 -1.000658e+00 3.541538e-02 -1.064959e+00 -1.435594e+00 -1.348406e+00 -7.523541e-01 -2.743195e-01 2.985171e-01 7.861183e-01 2.020597e+00 -8.552922e-02 -3.400977e-01 -1.038724e-01 2.805237e-01 1.624447e-01 2.867808e-02 1.266130e-02 -2.008616e-01 -1.101140e-01 7.508334e-02 2.316369e-01 3.182276e-01 1.383589e-01
<VARIANCE> 39
 8.359648e+01 9.227831e+01 8.517001e+01 7.204369e+01 8.128128e+01 5.326531e+01 5.498277e+01 7.410020e+01 6.700064e+01 5.939469e+01 3.296215e+01 4.502736e+01 6.347317e+01 6.922201e+00 6.930966e+00 8.054321e+00 5.409251e+00 7.587992e+00 5.015873e+00 4.741618e+00 6.669224e+00 7.818910e+00 5.805259e+00 4.300075e+00 5.505343e+00 3.593914e+00 1.089615e+00 1.201008e+00 1.139616e+00 1.085187e+00 1.055857e+00 7.418665e-01 8.495337e-01 1.197520e+00 1.384617e+00 9.415944e-01 7.163952e-01 8.567289e-01 6.519217e-01
<GCONST> 1.483784e+02
<STATE> 3
<MEAN> 39
 3.745813e+00 -1.011353e+01 -6.424512e+00 -5.525714e+00 2.766284e+00 -1.291532e+01 -1.143122e+01 -1.855022e+01 -1.079514e+01 -7.267317e+00 8.458719e-01 3.217883e-01 7.762239e+01 2.667737e-01 -9.570652e-01 -5.973095e-01 5.736775e-01 -2.060414e-01 -1.507128e-01 -3.677952e-01 -7.260112e-01 3.439961e-02 -4.604582e-02 7.599904e-01 9.582813e-01 7.461767e-01 -2.140074e-01 2.958744e-01 2.846494e-01 2.520537e-01 8.818142e-02 3.506701e-01 2.827569e-01 3.748817e-01 2.839612e-01 -9.720847e-02 -2.334239e-01 -4.147379e-01 -3.749660e-01
<VARIANCE> 39
 2.265642e+01 2.338697e+01 5.530680e+01 4.035522e+01 4.280659e+01 5.262092e+01 3.632847e+01 4.624849e+01 5.049411e+01 4.784598e+01 3.363251e+01 3.252582e+01 2.123134e+01 2.164072e+00 2.104663e+00 3.643246e+00 2.510344e+00 3.742335e+00 3.349068e+00 3.437054e+00 4.430155e+00 3.624185e+00 3.119985e+00 2.957133e+00 3.157256e+00 1.276436e+00 3.263026e-01 3.497125e-01 5.037520e-01 4.390182e-01 6.082832e-01 5.819457e-01 6.466027e-01 7.310657e-01 7.215515e-01 5.917566e-01 5.297748e-01 5.233700e-01 1.350505e-01
<GCONST> 1.229309e+02
<STATE> 4
<MEAN> 39
 3.629822e+00 -1.131501e+01 -5.780202e+00 -3.410594e+00 2.180115e+00 -7.941756e+00 -1.151472e+01 -1.965880e+01 -8.537759e+00 -7.118111e+00 1.300546e+00 1.295356e+00 7.714827e+01 5.148967e-02 1.715260e-01 -5.716502e-02 4.668172e-01 6.976813e-01 6.425720e-01 2.621428e-01 4.015908e-01 -3.181506e-01 -2.000700e-01 7.675785e-02 -1.589180e-01 -5.853687e-01 -1.292138e-01 1.891075e-01 1.531395e-01 -2.923284e-02 1.743034e-01 4.643362e-02 8.880087e-02 2.409311e-01 -1.341427e-02 2.067171e-02 -6.956956e-02 -2.082774e-01 -1.798099e-01
<VARIANCE> 39
 1.780385e+01 2.245622e+01 4.155706e+01 3.778026e+01 4.308945e+01 5.493201e+01 3.315560e+01 3.988474e+01 4.599020e+01 4.092595e+01 3.084948e+01 2.688325e+01 3.203496e+01 1.383588e+00 1.192899e+00 2.319826e+00 2.319151e+00 2.572038e+00 2.471337e+00 2.387291e+00 2.711712e+00 2.503346e+00 2.089427e+00 2.114315e+00 1.961021e+00 9.964061e-01 2.741114e-01 2.211573e-01 3.827887e-01 3.978215e-01 4.555867e-01 4.670645e-01 5.377436e-01 5.245395e-01 5.847113e-01 4.058198e-01 4.075565e-01 3.991098e-01 1.505698e-01
<GCONST> 1.140392e+02
<TRANSP> 5
 0.000000e+00 1.000000e+00 0.000000e+00 0.000000e+00 0.000000e+00
 0.000000e+00 6.835965e-01 3.164035e-01 0.000000e+00 0.000000e+00
