~o
<STREAMINFO> 1 39
<VECSIZE> 39<NULLD><MFCC_D_A_0><DIAGC>
~s "silst"
<MEAN> 39
 -2.063231e+01 -5.295713e+00 -4.329609e+00 4.162677e-01 -1.530225e-01 -3.952528e-01 2.159863e+00 -4.941591e-01 -3.502469e-03 -4.994619e+00 -2.076560e+00 -3.427486e+00 4.405917e+01 1.042228e+00 -7.990150e-01 -5.269685e-01 -1.496704e-01 -5.816679e-02 -9.004829e-01 -2.659009e-01 5.776291e-01 -2.928495e-01 -1.007334e+00 -4.378868e-01 1.379514e-01 1.212362e+00 6.030785e-01 -3.657345e-01 -2.240408e-01 -1.293969e-01 1.837380e-02 -3.553684e-01 -1.454024e-01 1.377065e-01 -1.414131e-01 -4.925134e-01 -2.557999e-01 6.085522e-03 7.576264e-01
<VARIANCE> 39
 2.629172e+00 3.115628e+00 4.695396e+00 4.797481e+00 4.880867e+00 6.856459e+00 9.802978e+00 1.034708e+01 8.864026e+00 7.619079e+00 7.059712e+00 7.264103e+00 8.486325e+00 3.137022e+00 5.356579e+00 5.920045e+00 2.057631e+00 2.077456e+00 2.970085e+00 5.963779e+00 1.081152e+01 2.966429e+00 7.202875e+00 3.036267e+00 1.724638e+00 2.844343e+00 4.581141e-01 7.217368e-01 9.002330e-01 3.370196e-01 3.621987e-01 4.919653e-01 9.567419e-01 1.595891e+00 4.727690e-01 8.963438e-01 4.793798e-01 3.330275e-01 3.841167e-01
<GCONST> 1.051324e+02
~h "b"
<BEGINHMM>
<NUMSTATES> 5
<STATE> 2
<MEAN> 39
 -1.067725e+01 -2.234236e+00 -3.729342e+00 -1.077004e+00 1.192107e+00 -1.684998e+00 -5.733635e-01 -6.363772e+00 -5.741156e+00 -9.100775e+00 -1.940401e+00 -2.929178e+00 5.523261e+01 -2.670784e-01 -4.164057e-02 -9.399980e-02 1.677832e-01 -2.476054e-02 -1.550769e-01 -1.879850e-01 2.247982e-01 5.407404e-01 8.190522e-02 -8.481036e-02 4.724053e-02 -4.090357e-01 2.801664e-01 -1.611441e-01 1.377981e-02 -7.546058e-02 4.256613e-02 -2.659422e-01 -4.017478e-01 -4.385507e-02 4.148491e-02 2.773810e-02 -3.138952e-02 -5.295882e-02 3.950113e-01
<VARIANCE> 39
 6.474362e+01 2.507294e+01 3.341869e+01 3.591431e+01 3.362424e+01 2.326746e+01 2.234704e+01 2.587574e+01 2.835247e+01 1.898466e+01 2.220315e+01 2.163701e+01 4.302037e+01 1.816285e+00 1.361605e+00 2.013409e+00 1.523225e+00 1.644359e+00 2.101060e+00 2.135787e+00 1.754669e+00 1.977381e+00 1.502938e+00 1.568579e+00 1.315171e+00 1.212610e+00 3.976121e-01 2.113149e-01 1.636056e-01 2.962195e-01 4.809283e-01 5.818796e-01 4.535339e-01 3.524083e-01 3.049218e-01 3.257826e-01 3.001487e-01 2.381758e-01 2.994486e-01
<GCONST> 1.072357e+02
<STATE> 3
<MEAN> 39
 -2.983048e+00 -2.781630e+00 -3.620642e+00 -7.643741e-01 3.160611e+00 -4.201308e+00 -6.406252e+00 -5.601287e+00 -2.201082e+00 -8.963298e+00 -3.179832e+00 -5.412922e+00 6.219923e+01 3.316102e+00 -5.356360e-01 -1.064498e-01 3.364079e-01 5.367793e-01 -2.375119e+00 -2.948507e+00 -5.381169e-01 6.042323e-01 1.470871e-01 -2.401716e-01 -2.760346e-01 3.374363e+00 2.132042e-01 -5.627361e-02 1.125555e-01 -1.779701e-02 -1.340514e-01 -4.188768e-01 -1.295781e-01 -2.490915e-01 -3.210228e-01 -6.874357e-03 -2.260029e-01 2.031502e-01 3.086257e-01
<VARIANCE> 39
 7.525546e+01 3.712649e+01 2.709806e+01 6.997881e+01 8.742986e+01 6.015186e+01 7.550817e+01 5.770323e+01 3.629079e+01 2.764119e+01 2.866087e+01 1.882409e+01 5.852275e+01 1.057840e+01 4.111376e+00 5.390657e+00 9.156569e+00 1.224881e+01 8.746721e+00 6.259249e+00 4.722221e+00 5.536615e+00 3.690598e+00 4.133327e+00 2.242945e+00 4.641004e+00 1.767318e+00 8.575071e-01 6.790711e-01 1.111254e+00 1.299811e+00 1.190226e+00 1.362296e+00 8.560767e-01 9.157668e-01 7.457442e-01 5.819188e-01 5.777223e-01 9.567561e-01
<GCONST> 1.430981e+02
<STATE> 4
<MEAN> 39
 5.023613e+00 -1.740953e+00 -3.127171e+00 -1.392892e+00 -2.105589e+00 -1.421285e+01 -1.204568e+01 -4.556414e+00 1.637310e+00 -1.089126e+01 -6.211627e+00 -3.306748e+00 6.927598e+01 6.906594e-01 -6.309896e-01 -9.507805e-03 -2.842876e-01 -3.290817e-01 -1.123456e+00 -8.669665e-01 -2.601791e-01 -5.036801e-01 -5.019597e-01 -2.841403e-01 5.882660e-01 1.123535e+00 -3.767461e-01 -2.470336e-02 2.898615e-02 -1.428912e-01 -7.275985e-02 3.686372e-01 3.897869e-01 1.247854e-02 -3.017446e-01 1.084229e-01 1.315112e-01 7.090957e-02 -3.137279e-01
<VARIANCE> 39
 3.875747e+01 3.007895e+01 3.541037e+01 5.665979e+01 1.424232e+02 9.762229e+01 6.566266e+01 4.828053e+01 7.795498e+01 4.406937e+01 3.558788e+01 3.481557e+01 2.605656e+01 3.342056e+00 3.118542e+00 2.533295e+00 3.971520e+00 4.728915e+00 6.984057e+00 6.981573e+00 4.092300e+00 4.472836e+00 5.000519e+00 2.689174e+00 3.619277e+00 2.509114e+00 8.150863e-01 3.467152e-01 5.532120e-01 6.264763e-01 5.852047e-01 1.054327e+00 6.991987e-01 5.570030e-01 5.271384e-01 8.154534e-01 3.329487e-01 5.379814e-01 3.123763e-01
<GCONST> 1.327966e+02
<TRANSP> 5
 0.000000e+00 1.000000e+00 0.000000e+00 0.000000e+00 0.000000e+00
 0.000000e+00 7.912115e-01 2.087886e-01 0.000000e+00 0.000000e+00
 0.000000e+00 0.000000e+00 5.734397e-01 4.265604e-01 0.000000e+00
 0.000000e+00 0.000000e+00 0.000000e+00 5.133925e-01 4.866075e-01
 0.000000e+00 0.000000e+00 0.000000e+00 0.000000e+00 0.000000e+00
<ENDHMM>
~h "d"
<BEGINHMM>
<NUMSTATES> 5
<STATE> 2
<MEAN> 39
 -2.987404e-01 -4.603549e+00 -6.662185e+00 6.351319e-02 4.219992e+00 -2.666951e+00 -4.398546e+00 -9.526620e+00 -7.769274e+00 -9.962049e+00 -9.037743e-01 -2.007145e+00 6.436854e+01 -7.243632e-01 4.854448e-01 -1.310026e-01 1.977122e-01 -6.509331e-02 5.606430e-01 6.642605e-01 1.815002e-01 2.247373e-01 5.456975e-03 2.710913e-01 4.376742e-01 -1.029594e+00 -1.581665e-01 -1.153005e-01 2.832478e-01 -1.917307e-01 2.789423e-03 -2.455340e-01 -2.172974e-01 -7.877710e-02 5.665259e-02 4.318780e-02 -1.170205e-01 -8.161516e-02 2.082455e-01
<VARIANCE> 39
 7.034161e+01 2.226422e+01 3.456893e+01 5.169304e+01 4.153900e+01 3.374284e+01 2.975004e+01 3.819418e+01 3.940339e+01 2.992298e+01 3.653228e+01 2.982992e+01 5.193454e+01 5.387779e-01 7.111800e-01 1.249383e+00 1.370981e+00 1.340368e+00 2.019540e+00 1.768010e+00 1.518167e+00 1.687821e+00 1.862653e+00 1.844148e+00 1.613092e+00 4.993116e-01 1.223955e-01 2.918409e-01 3.114874e-01 3.350503e-01 3.640090e-01 4.532893e-01 4.319048e-01 3.557577e-01 4.440822e-01 3.619565e-01 4.391865e-01 3.089486e-01 1.508159e-01
<GCONST> 1.069382e+02
<STATE> 3
<MEAN> 39
 6.575283e-01 -2.283911e+00 -5.624156e+00 2.451601e+00 5.902072e+00 -2.209167e+00 -4.405112e+00 -1.030071e+01 -7.942839e+00 -1.023647e+01 -7.508669e-01 -1.837359e+00 6.420246e+01 -1.596251e+00 -7.388120e-01 1.347002e+00 -6.616040e-01 3.679590e-02 -5.333999e-01 -2.853765e-01 3.645822e-01 9.679525e-01 2.319989e-01 -3.188538e-01 -3.329523e-01 2.552220e-01 -2.746136e-01 -6.913987e-01 7.039706e-01 -5.359328e-01 1.661311e-02 -5.220357e-01 -3.374118e-01 8.059396e-02 1.333068e-01 1.525490e-01 -2.969884e-01 -4.113114e-01 8.673268e-01
<VARIANCE> 39
 3.622179e+01 2.470265e+01 4.267041e+01 6.164799e+01 4.879446e+01 4.542180e+01 4.282634e+01 4.441621e+01 4.879713e+01 3.565943e+01 3.639800e+01 2.827654e+01 3.051814e+01 2.001162e+00 3.424876e+00 4.256330e+00 4.355093e+00 3.696486e+00 4.093101e+00 4.315320e+00 4.849382e+00 5.640469e+00 3.886225e+00 3.382732e+00 2.619076e+00 1.387925e+00 4.741374e-01 5.541736e-01 8.150468e-01 7.275559e-01 6.182551e-01 8.894051e-01 6.647804e-01 7.196754e-01 7.667779e-01 6.638030e-01 6.619452e-01 4.214622e-01 2.832661e-01
<GCONST> 1.292109e+02
<STATE> 4
<MEAN> 39
 -7.341169e+00 -1.053396e+01 2.931657e+00 -2.535208e-01 3.251512e+00 -5.097445e+00 -4.422048e+00 -7.264659e+00 -4.668976e+00 -7.784235e+00 -1.385321e+00 -5.026083e+00 6.714202e+01 -7.633905e-01 -8.409714e-01 1.103429e+00 -4.477279e-01 -1.633709e-01 -3.661584e-01 -1.644086e-01 -9.376914e-02 -3.670777e-01 -7.343442e-02 -2.104370e-01 -4.755864e-01 6.129521e-01 4.293985e-01 3.608132e-01 -4.040416e-01 9.842538e-02 4.207706e-03 6.894861e-02 3.097742e-02 -1.497542e-01 -3.209268e-01 -1.376780e-01 -3.716005e-02 4.985780e-02 -1.081894e-01
<VARIANCE> 39
 4.636494e+01 6.040043e+01 6.324242e+01 6.655287e+01 5.892075e+01 5.915752e+01 6.638663e+01 5.870110e+01 6.312973e+01 6.014056e+01 4.812492e+01 2.969221e+01 5.436948e+01 5.741241e+00 6.207953e+00 7.149977e+00 6.569673e+00 4.142955e+00 4.639984e+00 4.922152e+00 4.175597e+00 5.479787e+00 3.257906e+00 3.845195e+00 2.730493e+00 4.367605e+00 6.562070e-01 6.977329e-01 8.503753e-01 1.022203e+00 6.615310e-01 8.025676e-01 7.926669e-01 6.650716e-01 9.883554e-01 6.380997e-01 6.033324e-01 4.522747e-01 5.839475e-01
<GCONST> 1.395040e+02
<TRANSP> 5
 0.000000e+00 1.000000e+00 0.000000e+00 0.000000e+00 0.000000e+00
 0.000000e+00 6.414002e-01 3.585998e-01 0.000000e+00 0.000000e+00
 0.000000e+00 0.000000e+00 3.361343e-01 6.638656e-01 0.000000e+00
 0.000000e+00 0.000000e+00 0.000000e+00 6.844700e-01 3.155300e-01
 0.000000e+00 0.000000e+00 0.000000e+00 0.000000e+00 0.000000e+00
<ENDHMM>
~h "f"
<BEGINHMM>
<NUMSTATES> 5
<STATE> 2
<MEAN> 39
 -1.730874e+01 -5.017845e-01 -3.139503e+00 -5.662179e+00 1.303200e+01 -9.936976e+00 6.877627e-01 -6.857370e+00 -6.549104e+00 -1.013202e+01 -2.885627e+00 -7.155707e+00 7.225973e+01 -2.159236e+00 2.814027e-01 1.739317e-01 -4.105505e-01 4.765068e-01 -1.828255e-01 3.298015e-01 4.270295e-01 1.855118e-01 -1.306003e-02 7.836355e-02 -5.909129e-01 -3.036470e-02 3.931469e-01 -1.968144e-01 -6.967479e-02 5.952442e-02 -3.233246e-01 1.893112e-02 -2.895161e-01 -6.555492e-02 1.000152e-01 6.685443e-02 -3.354078e-02 5.860250e-02 -2.304856e-02
<VARIANCE> 39
 8.198718e+01 2.764625e+01 3.963714e+01 6.193639e+01 8.251319e+01 4.645741e+01 3.630683e+01 5.825564e+01 4.412667e+01 3.899704e+01 3.085110e+01 4.054855e+01 3.401129e+01 4.109051e+00 1.994916e+00 1.591084e+00 1.825384e+00 3.004089e+00 2.826834e+00 3.838841e+00 2.543231e+00 2.849284e+00 2.436491e+00 2.168014e+00 2.140093e+00 1.253292e+00 5.240260e-01 2.600474e-01 2.870116e-01 3.469359e-01 5.150800e-01 5.570512e-01 6.199447e-01 5.042520e-01 5.068709e-01 4.985390e-01 4.133665e-01 4.438712e-01 2.383429e-01
<GCONST> 1.212957e+02
<STATE> 3
<MEAN> 39
 -2.307630e+01 -3.942367e+00 -5.061740e+00 -8.936324e+00 7.804593e+00 -1.139562e+01 -2.525756e+00 -5.554744e+00 -1.783582e+00 -8.732689e+00 -2.319816e+00 -9.083017e+00 7.290787e+01 2.905945e+00 -7.637665e-03 5.703217e-01 -4.921492e-01 -2.139077e+00 -1.099089e+00 -7.374655e-01 -7.045858e-01 5.081421e-01 6.485324e-01 3.678549e-01 3.586926e-01 2.905621e-01 1.374424e+00 6.787768e-01 5.031836e-01 -4.176635e-02 -7.276995e-02 -3.784520e-01 -1.242604e-01 -7.191411e-02 -2.668732e-01 1.971105e-01 -2.475855e-02 8.490910e-02 -9.574251e-02
<VARIANCE> 39
 4.030257e+01 2.842813e+01 3.005103e+01 4.511938e+01 8.509821e+01 4.277543e+01 3.282281e+01 4.418775e+01 4.383665e+01 4.218584e+01 2.237644e+01 3.199892e+01 2.230765e+01 6.387574e+00 4.693198e+00 5.074361e+00 3.978041e+00 5.250148e+00 4.189534e+00 2.993814e+00 3.530768e+00 3.566863e+00 3.489671e+00 1.687983e+00 2.657968e+00 1.777622e+00 3.517829e-01 6.263707e-01 6.755621e-01 6.785848e-01 9.169587e-01 6.137227e-01 7.211308e-01 5.390047e-01 5.640692e-01 6.101007e-01 3.626959e-01 5.281279e-01 2.234986e-01
<GCONST> 1.270359e+02
<STATE> 4
<MEAN> 39
 -3.269121e+00 2.661514e+00 2.183362e-01 -1.122357e+01 -7.595782e-01 -1.741902e+01 -3.957168e+00 -5.899077e+00 -7.081476e-01 -4.149035e+00 -2.182564e+00 -7.497664e+00 7.174521e+01 4.034372e+00 8.715313e-01 1.399392e-01 -6.899570e-01 -1.176972e+00 -1.029275e+00 -1.433055e+00 -2.948214e-02 -9.211059e-02 1.158956e+00 -9.019974e-01 4.878503e-01 -1.983357e-01 -5.603374e-01 -5.989708e-01 -7.769665e-01 1.028076e-01 2.828388e-01 3.984918e-01 -1.909496e-01 1.490429e-01 -7.005824e-02 -1.358259e-01 -3.266544e-01 1.785318e-01 6.521243e-02
<VARIANCE> 39
 6.343889e+01 3.966233e+01 3.944923e+01 6.489654e+01 7.925469e+01 5.817456e+01 5.645664e+01 5.181417e+01 4.618616e+01 3.821188e+01 2.634217e+01 2.038214e+01 2.535489e+01 8.659956e+00 5.002567e+00 4.884893e+00 3.661743e+00 4.847710e+00 5.327843e+00 4.660686e+00 2.841762e+00 3.572265e+00 3.862653e+00 2.299401e+00 2.204445e+00 9.295987e-01 5.196379e-01 6.658444e-01 6.676764e-01 5.450315e-01 6.165849e-01 6.927725e-01 6.891790e-01 5.012811e-01 5.116602e-01 5.000448e-01 4.214610e-01 4.584992e-01 8.403322e-02
<GCONST> 1.279607e+02
<TRANSP> 5
 0.000000e+00 1.000000e+00 0.000000e+00 0.000000e+00 0.000000e+00
 0.000000e+00 8.823811e-01 1.176189e-01 0.000000e+00 0.000000e+00
 0.000000e+00 0.000000e+00 7.168661e-01 2.831338e-01 0.000000e+00
 0.000000e+00 0.000000e+00 0.000000e+00 6.614819e-01 3.385182e-01
 0.000000e+00 0.000000e+00 0.000000e+00 0.000000e+00 0.000000e+00
<ENDHMM>
~h "g"
<BEGINHMM>
<NUMSTATES> 5
<STATE> 2
<MEAN> 39
 -3.753886e+00 -4.952259e+00 -8.366138e+00 -5.911384e+00 6.112042e+00 -6.539869e+00 -2.396580e+00 -3.902287e+00 -3.341328e+00 -1.233709e+01 -2.586337e+00 -4.470836e+00 6.617334e+01 -2.218933e-01 -5.729594e-01 1.129961e-01 -1.248631e+00 -1.460546e-02 -1.655454e+00 3.418402e-01 6.899115e-01 -2.154665e-01 -9.002871e-01 -6.006107e-01 -2.913106e-01 1.180594e+00 5.266320e-01 2.730307e-01 3.618315e-01 3.701252e-01 4.637923e-03 -2.649572e-02 -2.704315e-01 -4.745116e-01 -5.788986e-01 1.632616e-01 -2.692497e-02 -9.410638e-02 8.980912e-02
<VARIANCE> 39
 2.460032e+01 2.852581e+01 5.884126e+01 1.174204e+02 1.078913e+02 8.957719e+01 1.050627e+02 8.801306e+01 5.857045e+01 7.967752e+01 5.970528e+01 3.918357e+01 3.514114e+01 2.913677e+00 3.164167e+00 4.480896e+00 1.060684e+01 4.731138e+00 6.545594e+00 6.681988e+00 8.787372e+00 8.001303e+00 7.043376e+00 4.656013e+00 2.663183e+00 3.245964e+00 4.019894e-01 7.787936e-01 1.082848e+00 1.821421e+00 9.324865e-01 1.618088e+00 1.153276e+00 1.598899e+00 1.076409e+00 1.214045e+00 7.304130e-01 6.461400e-01 6.952166e-01
<GCONST> 1.461543e+02
<STATE> 3
<MEAN> 39
 6.090386e-01 -4.998153e+00 -3.093666e+00 -3.285141e+00 8.879918e+00 -9.119242e+00 -5.679156e+00 -8.128872e+00 -9.316159e+00 -1.205070e+01 -3.392329e+00 -5.881169e+00 7.102718e+01 2.039754e+00 9.632320e-01 5.154248e-01 1.231922e+00 -1.977553e-01 3.054880e-01 -4.623613e-01 -9.240934e-01 -2.030201e+00 1.126101e-01 -1.907501e-01 -6.779320e-01 1.846923e-01 1.149103e-01 2.107730e-01 -3.272297e-01 3.608629e-02 -3.407727e-01 1.449876e-02 -2.828699e-01 -2.873522e-01 3.783714e-01 6.626302e-01 -2.675114e-02 -1.152917e-02 -1.471693e-01
<VARIANCE> 39
 2.013980e+01 2.595517e+01 4.738928e+01 1.070668e+02 8.300678e+01 3.175952e+01 1.033346e+02 7.894939e+01 8.563317e+01 6.853214e+01 6.837038e+01 3.498239e+01 1.651497e+01 2.990691e+00 2.637671e+00 5.949517e+00 5.797036e+00 3.259015e+00 7.605916e+00 4.782195e+00 7.554249e+00 3.427832e+00 5.049641e+00 5.815294e+00 4.501367e+00 1.123796e+00 3.967490e-01 3.462502e-01 7.091013e-01 6.122807e-01 3.605977e-01 6.540928e-01 8.009453e-01 1.109760e+00 1.305523e+00 8.791522e-01 7.670443e-01 7.270638e-01 2.160723e-01
<GCONST> 1.348897e+02
<STATE> 4
<MEAN> 39
 4.241858e+00 -2.604014e+00 -4.732066e+00 -5.261723e-01 9.120905e+00 -6.878717e+00 -7.022150e+00 -9.911083e+00 -1.034931e+01 -1.158327e+01 -3.999589e+00 -6.104764e+00 6.942397e+01 1.222461e+00 6.855446e-01 -3.167737e-02 -2.373154e-01 -7.115096e-01 -2.867204e-01 -8.420740e-01 -6.001770e-01 -2.253179e-01 6.244326e-01 -7.283682e-01 -5.472338e-01 4.700408e-01 -4.224734e-01 -2.531632e-01 -1.563753e-01 -4.406154e-01 -7.891050e-02 -3.131437e-01 2.839227e-02 4.203556e-01 5.211906e-01 1.278751e-01 -6.708410e-02 9.314347e-03 1.704060e-01
<VARIANCE> 39
 1.422562e+01 2.703659e+01 2.770078e+01 1.023096e+02 9.060802e+01 6.426561e+01 9.152328e+01 6.120178e+01 5.618693e+01 5.345476e+01 5.590589e+01 1.724147e+01 1.735847e+01 3.938602e+00 2.300216e+00 3.630178e+00 4.603019e+00 3.284467e+00 4.938380e+00 4.644783e+00 8.213224e+00 4.019264e+00 5.860446e+00 3.503930e+00 4.205785e+00 1.076776e+00 2.844064e-01 3.165231e-01 8.236699e-01 8.360197e-01 3.346488e-01 6.736560e-01 7.864130e-01 1.157735e+00 1.054353e+00 7.738613e-01 6.843358e-01 3.990861e-01 2.584282e-01
<GCONST> 1.307643e+02
<TRANSP> 5
 0.000000e+00 1.000000e+00 0.000000e+00 0.000000e+00 0.000000e+00
 0.000000e+00 7.300958e-01 2.699042e-01 0.000000e+00 0.000000e+00
 0.000000e+00 0.000000e+00 2.485672e-01 7.514328e-01 0.000000e+00
 0.000000e+00 0.000000e+00 0.000000e+00 3.883271e-01 6.116729e-01
 0.000000e+00 0.000000e+00 0.000000e+00 0.000000e+00 0.000000e+00
<ENDHMM>
~h "k"
<BEGINHMM>
<NUMSTATES> 5
<STATE> 2
<MEAN> 39
 -3.811262e+00 -2.502616e+00 -3.941593e+00 -2.608322e-01 5.613874e+00 -2.597546e+00 -3.808347e+00 -1.033132e+01 -6.688657e+00 -6.719345e+00 8.089243e-01 -3.958879e+00 6.263035e+01 -1.103158e+00 -2.368512e-01 -4.582245e-01 -3.214305e+00 -3.730506e-02 -1.907749e+00 3.614605e-01 1.075735e+00 4.297520e-01 -3.630795e-01 -3.061896e-01 1.929365e-01 8.298814e-01 -1.344488e-01 -5.659776e-01 7.943475e-02 -9.020837e-01 -1.988388e-01 -8.273718e-01 8.656377e-02 3.372261e-01 1.440547e-01 -2.403074e-01 -1.881986e-01 -4.859322e-02 8.388395e-01
<VARIANCE> 39
 3.688470e+01 4.676181e+01 4.079971e+01 1.067825e+02 1.092443e+02 5.911487e+01 5.505971e+01 8.877176e+01 6.020852e+01 4.411699e+01 4.599868e+01 3.941816e+01 3.169527e+01 3.086184e+00 4.243000e+00 5.504332e+00 1.260812e+01 8.560851e+00 9.857656e+00 5.623902e+00 6.012848e+00 6.251930e+00 6.420964e+00 6.014742e+00 3.768321e+00 3.539598e+00 3.046724e-01 5.232306e-01 6.680825e-01 1.552191e+00 1.118010e+00 1.255679e+00 6.142884e-01 1.035734e+00 8.835867e-01 7.620966e-01 7.986891e-01 4.389373e-01 3.777756e-01
<GCONST> 1.421366e+02
<STATE> 3
<MEAN> 39
 -7.180998e+00 -6.738725e+00 -6.003486e+00 -1.598019e+01 3.183454e+00 -1.631690e+01 -1.845994e+00 -4.130840e+00 -3.552059e+00 -1.129550e+01 -1.392041e+00 -3.666663e+00 7.149075e+01 -1.075764e+00 -2.005035e+00 3.921476e-01 -2.575577e+00 -8.341954e-01 -1.878338e+00 6.679431e-01 9.890414e-01 1.708070e-01 -8.123009e-01 -3.196364e-01 -1.363076e-01 1.908751e+00 2.881077e-01 -3.704682e-02 4.634613e-01 1.456412e+00 1.392205e-02 1.257633e+00 -1.301749e-01 -4.390837e-01 -3.777301e-01 4.206840e-01 6.466016e-02 -5.699866e-02 -6.583986e-01
<VARIANCE> 39
 2.528396e+01 5.651907e+01 5.175882e+01 1.097211e+02 1.142217e+02 1.137314e+02 9.126639e+01 7.997348e+01 6.785692e+01 1.029022e+02 8.146008e+01 5.264640e+01 2.663632e+01 3.097084e+00 4.027845e+00 5.714991e+00 1.153140e+01 6.914906e+00 1.027062e+01 4.619555e+00 5.898753e+00 6.633478e+00 4.814989e+00 4.620378e+00 3.591808e+00 3.606640e+00 5.156069e-01 7.876230e-01 7.389948e-01 1.510379e+00 1.610343e+00 1.560747e+00 1.032556e+00 1.167331e+00 1.181074e+00 1.200664e+00 1.059008e+00 7.068681e-01 5.102699e-01
<GCONST> 1.479908e+02
<STATE> 4
<MEAN> 39
 -6.560428e+00 -1.087119e+01 -2.596883e+00 -1.166055e+01 1.744590e+00 -9.754499e+00 -2.400711e+00 -4.760474e+00 -6.745848e+00 -9.691813e+00 -1.503366e+00 -4.414899e+00 6.986716e+01 1.255938e+00 7.964787e-01 9.893616e-01 1.788353e+00 -2.822708e-01 1.200381e+00 -5.391393e-01 -6.681931e-01 -5.356752e-01 7.486307e-01 -1.851555e-01 -2.330968e-01 -5.420567e-01 4.687716e-01 7.497335e-01 -1.162442e-01 2.379766e-01 -3.356999e-02 -1.518219e-01 -2.386913e-01 -3.555369e-01 2.299310e-02 4.878224e-02 -8.090658e-03 -4.341929e-02 -2.761775e-02
<VARIANCE> 39
 3.524044e+01 5.442204e+01 6.489238e+01 8.461295e+01 7.755871e+01 9.755126e+01 6.880277e+01 9.788110e+01 5.819708e+01 6.712378e+01 5.706570e+01 3.695296e+01 2.801640e+01 3.847491e+00 5.734304e+00 3.360886e+00 3.693208e+00 3.954967e+00 4.115778e+00 3.919113e+00 4.348679e+00 3.632375e+00 3.820438e+00 2.316744e+00 2.106069e+00 1.039166e+00 5.024744e-01 8.814178e-01 7.618726e-01 9.666987e-01 6.245889e-01 8.475373e-01 7.594893e-01 8.000726e-01 5.583144e-01 6.235768e-01 4.632861e-01 4.147715e-01 2.737586e-01
<GCONST> 1.340876e+02
<TRANSP> 5
 0.000000e+00 1.000000e+00 0.000000e+00 0.000000e+00 0.000000e+00
 0.000000e+00 6.224142e-01 3.775858e-01 0.000000e+00 0.000000e+00
 0.000000e+00 0.000000e+00 5.786810e-01 4.213190e-01 0.000000e+00
 0.000000e+00 0.000000e+00 0.000000e+00 7.414792e-01 2.585208e-01
 0.000000e+00 0.000000e+00 0.000000e+00 0.000000e+00 0.000000e+00
<ENDHMM>
~h "l"
<BEGINHMM>
<NUMSTATES> 5
<STATE> 2
<MEAN> 39
 7.035877e+00 -5.220796e+00 -3.994862e+00 1.573063e-01 7.187256e+00 -5.724213e+00 -8.769987e+00 -9.122543e+00 -9.162120e+00 -1.171870e+01 -6.879478e+00 -5.862695e+00 7.231894e+01 4.512779e-01 1.579031e-01 -8.564154e-01 6.811092e-01 7.289887e-01 2.761213e-02 8.756208e-02 -1.241102e-01 -4.329565e-01 -7.121003e-01 -1.193327e-01 3.132390e-01 -9.329773e-03 -2.112569e-01 3.915660e-03 1.728779e-01 -1.035943e-01 -4.368706e-02 -2.931933e-02 1.635351e-02 1.847426e-01 1.579608e-01 3.170196e-02 1.103476e-01 1.078431e-01 -7.820745e-02
<VARIANCE> 39
 1.415556e+01 3.560532e+01 4.735110e+01 4.263923e+01 3.656438e+01 5.266192e+01 2.646413e+01 7.191473e+01 5.257315e+01 4.212944e+01 3.739762e+01 2.994897e+01 1.613769e+01 8.304668e-01 1.840332e+00 2.812027e+00 2.796242e+00 2.340442e+00 4.375836e+00 2.528256e+00 3.519716e+00 3.606564e+00 2.573168e+00 2.193016e+00 2.227221e+00 7.863697e-01 1.008669e-01 2.125916e-01 3.167969e-01 3.980217e-01 3.752495e-01 6.214771e-01 5.568872e-01 6.050282e-01 5.783660e-01 4.887581e-01 3.553070e-01 3.702325e-01 9.624267e-02
<GCONST> 1.146124e+02
<STATE> 3
<MEAN> 39
 8.366003e+00 -7.484224e+00 -7.297581e+00 2.961039e+00 8.876183e+00 -5.794556e+00 -9.404113e+00 -9.849823e+00 -1.023086e+01 -1.543183e+01 -6.522544e+00 -2.478441e+00 7.277734e+01 -2.602616e-01 4.332361e-01 -9.845372e-02 3.032424e-01 4.343680e-01 6.267611e-01 2.842030e-01 1.980240e-01 9.767272e-02 -3.075815e-01 1.254420e-01 1.202640e-01 -5.423939e-01 -1.667608e-01 4.692291e-02 1.383480e-01 -2.066005e-01 -6.919253e-02 -6.783678e-02 6.014587e-03 2.305822e-03 5.371110e-02 1.922149e-01 4.754077e-02 -6.036481e-02 -3.166052e-02
<VARIANCE> 39
 9.475764e+00 1.825942e+01 2.643645e+01 3.438591e+01 3.373641e+01 3.605642e+01 2.152060e+01 2.990331e+01 3.912651e+01 3.223032e+01 4.315348e+01 2.846075e+01 1.234736e+01 4.665989e-01 7.176408e-01 1.139169e+00 1.449291e+00 1.589442e+00 2.557709e+00 1.847201e+00 2.074322e+00 1.869511e+00 1.771668e+00 1.861431e+00 1.341626e+00 3.999205e-01 4.550733e-02 1.052393e-01 1.747002e-01 2.383287e-01 2.602263e-01 4.877676e-01 3.311187e-01 3.968569e-01 3.515783e-01 3.615423e-01 3.101108e-01 2.590265e-01 5.240647e-02
<GCONST> 9.718271e+01
<STATE> 4
<MEAN> 39
 1.475310e+00 -1.146184e+00 -4.229419e+00 8.313632e-01 6.895852e+00 2.527711e-02 -4.429789e+00 -9.966029e+00 -8.910089e+00 -1.367001e+01 -6.474057e+00 -4.318682e+00 6.486075e+01 -7.628030e-01 9.673531e-02 4.074526e-01 -1.632717e-01 -1.759506e-01 -3.025896e-01 1.440549e-01 1.135079e-01 4.993337e-02 2.470675e-01 1.893317e-01 -7.531106e-02 -3.904845e-01 -4.101596e-02 -2.259092e-01 7.845215e-02 -1.225827e-01 -1.322919e-01 -3.405950e-01 -2.303706e-01 -6.398225e-02 7.000017e-02 2.053501e-01 8.045332e-02 3.616816e-02 1.934895e-01
<VARIANCE> 39
 5.007261e+01 2.495773e+01 3.714398e+01 3.545372e+01 4.649450e+01 4.361691e+01 2.973109e+01 3.807585e+01 4.148367e+01 3.105954e+01 3.601922e+01 2.373711e+01 4.367671e+01 6.608588e-01 1.198481e+00 1.173416e+00 1.584867e+00 2.144590e+00 3.254789e+00 2.719962e+00 2.392114e+00 2.317399e+00 2.600880e+00 1.745482e+00 1.672022e+00 7.149947e-01 1.058130e-01 1.838845e-01 2.472267e-01 3.618266e-01 3.036025e-01 5.673229e-01 4.078472e-01 4.395902e-01 4.162442e-01 5.508016e-01 3.342082e-01 2.990341e-01 9.787531e-02
<GCONST> 1.091302e+02
<TRANSP> 5
 0.000000e+00 1.000000e+00 0.000000e+00 0.000000e+00 0.000000e+00
 0.000000e+00 4.482835e-01 5.517165e-01 0.000000e+00 0.000000e+00
 0.000000e+00 0.000000e+00 7.353482e-01 2.646518e-01 0.000000e+00
 0.000000e+00 0.000000e+00 0.000000e+00 6.981878e-01 3.018123e-01
 0.000000e+00 0.000000e+00 0.000000e+00 0.000000e+00 0.000000e+00
<ENDHMM>
~h "m"
<BEGINHMM>
<NUMSTATES> 5
<STATE> 2
<MEAN> 39
 9.237414e+00 -3.818655e+00 -1.053733e+01 1.237492e+00 6.978866e+00 -7.469630e+00 -1.037412e+01 -6.156696e+00 -3.543470e+00 -1.143425e+01 -4.865035e+00 -5.404255e+00 7.053607e+01 -1.120822e-02 7.241471e-01 -2.041599e-01 7.632586e-01 3.397429e-01 5.511080e-01 4.301372e-02 -1.149330e-01 1.161171e+00 4.380002e-01 -4.279617e-01 -8.092660e-01 -7.238303e-01 -1.507895e-01 -1.227654e-02 1.209511e-01 -2.768132e-01 -3.809904e-02 -1.424447e-01 -7.583221e-02 -1.666104e-01 -1.473930e-01 2.035749e-01 4.122285e-02 -1.111629e-02 8.561793e-02
<VARIANCE> 39
 1.373855e+01 1.876696e+01 3.290710e+01 4.676731e+01 2.720801e+01 2.355150e+01 3.071576e+01 3.154913e+01 3.906935e+01 2.886843e+01 2.125856e+01 3.429670e+01 1.207772e+01 5.832513e-01 6.117259e-01 1.021356e+00 2.085216e+00 1.404013e+00 1.568573e+00 1.687048e+00 1.505594e+00 1.963673e+00 1.656134e+00 9.369889e-01 1.304808e+00 3.238211e-01 4.832336e-02 1.019742e-01 1.182812e-01 2.324136e-01 2.152174e-01 2.791527e-01 3.319718e-01 2.763594e-01 2.736214e-01 2.689957e-01 2.082497e-01 2.226123e-01 3.056389e-02
<GCONST> 9.244242e+01
<STATE> 3
<MEAN> 39
 7.338647e+00 1.205865e+00 -7.164618e+00 3.155223e+00 7.876404e+00 -5.188545e+00 -1.023428e+01 -7.556741e+00 2.918910e+00 -4.185870e+00 -6.134459e+00 -1.252365e+01 6.720428e+01 -2.853091e-01 4.177749e-01 2.705640e-01 1.878587e-01 8.361493e-02 -2.254648e-02 -1.329115e-01 -3.488760e-01 2.759223e-01 7.122477e-01 2.081544e-01 -3.415921e-01 -3.268352e-01 -2.451759e-02 -9.968510e-02 5.215695e-02 -3.982433e-01 -2.953809e-01 -2.927897e-01 -1.762643e-02 4.613927e-02 -3.542675e-01 -2.524348e-01 6.990445e-02 3.192483e-01 1.645288e-01
<VARIANCE> 39
 1.109084e+01 1.547189e+01 2.617797e+01 2.465369e+01 2.229610e+01 4.103614e+01 3.706871e+01 3.406039e+01 3.615329e+01 2.881394e+01 2.160461e+01 2.681142e+01 7.784208e+00 4.915328e-01 5.748927e-01 1.155009e+00 1.539402e+00 1.367044e+00 1.531135e+00 2.398468e+00 1.480428e+00 1.639630e+00 1.322975e+00 1.025024e+00 1.375665e+00 2.890234e-01 5.355226e-02 1.081850e-01 1.475811e-01 2.993621e-01 2.398808e-01 3.456252e-01 3.843575e-01 2.656558e-01 2.925729e-01 2.893449e-01 2.024308e-01 2.514014e-01 4.833600e-02
<GCONST> 9.228966e+01
<STATE> 4
<MEAN> 39
 5.327106e+00 1.730605e+00 -5.768114e+00 2.184312e+00 6.166561e+00 -7.128775e+00 -1.061072e+01 -9.731888e+00 3.509604e-01 -5.348937e+00 -5.320446e+00 -1.037685e+01 6.667858e+01 -1.553347e-01 -4.105198e-01 -2.662391e-01 -1.955403e+00 -1.225581e+00 -1.478583e+00 -4.655205e-01 -6.237123e-02 -6.368660e-01 -5.096316e-01 1.197291e-01 1.270308e+00 8.422120e-01 -3.463636e-02 -4.459900e-01 -6.523806e-02 -4.255257e-01 -1.943830e-01 -4.870091e-01 4.057053e-03 2.856112e-01 -2.424950e-01 -1.912724e-01 1.279798e-01 5.153452e-01 4.119068e-01
<VARIANCE> 39
 2.306852e+01 2.079937e+01 3.674725e+01 3.479866e+01 2.760626e+01 4.072366e+01 4.854061e+01 3.729616e+01 3.895906e+01 4.632447e+01 2.269372e+01 3.271933e+01 1.720400e+01 2.345543e+00 2.236258e+00 4.543370e+00 4.357517e+00 4.543887e+00 5.130420e+00 3.777051e+00 3.310183e+00 3.045761e+00 4.615620e+00 2.514397e+00 3.761696e+00 1.189129e+00 2.828811e-01 2.130637e-01 4.069190e-01 6.423678e-01 5.020639e-01 6.672402e-01 7.069799e-01 4.019479e-01 4.663905e-01 7.972499e-01 4.518332e-01 7.477227e-01 1.516182e-01
<GCONST> 1.214016e+02
<TRANSP> 5
 0.000000e+00 1.000000e+00 0.000000e+00 0.000000e+00 0.000000e+00
 0.000000e+00 7.228948e-01 2.771052e-01 0.000000e+00 0.000000e+00
 0.000000e+00 0.000000e+00 7.130337e-01 2.869663e-01 0.000000e+00
 0.000000e+00 0.000000e+00 0.000000e+00 5.552400e-01 4.447600e-01
 0.000000e+00 0.000000e+00 0.000000e+00 0.000000e+00 0.000000e+00
<ENDHMM>
~h "n"
<BEGINHMM>
<NUMSTATES> 5
<STATE> 2
<MEAN> 39
 5.917810e+00 -7.532709e+00 -3.038824e+00 1.479890e+00 8.790025e+00 -5.817836e+00 -1.206397e+01 -1.308504e+01 -8.964162e+00 -9.156177e+00 -3.163902e-01 -3.378501e+00 7.309446e+01 7.709979e-01 8.173757e-01 -1.071744e+00 2.048572e+00 3.198186e-02 7.010940e-01 2.864040e-01 6.795056e-01 1.179321e+00 6.993212e-01 -7.238956e-03 -9.459813e-01 -1.216731e+00 -1.530323e-01 1.890472e-01 5.201852e-02 -4.286269e-02 -5.712005e-02 -3.706682e-01 -1.112209e-01 -6.150420e-03 2.164883e-01 1.519827e-01 -9.110730e-03 -1.335500e-01 -3.308859e-02
<VARIANCE> 39
 1.505507e+01 2.048282e+01 4.311667e+01 4.552489e+01 3.539695e+01 5.931547e+01 2.857408e+01 4.097652e+01 5.715976e+01 3.606579e+01 4.442838e+01 2.404520e+01 1.408537e+01 5.066502e-01 5.361264e-01 1.406446e+00 1.690182e+00 1.831891e+00 2.562508e+00 1.965700e+00 2.278273e+00 2.414428e+00 1.992419e+00 2.056927e+00 1.778122e+00 2.924862e-01 8.217002e-02 7.777912e-02 1.644938e-01 3.941270e-01 2.963324e-01 4.017510e-01 4.135523e-01 3.191283e-01 4.378577e-01 3.920535e-01 3.994505e-01 2.820045e-01 6.119081e-02
<GCONST> 1.025206e+02
<STATE> 3
<MEAN> 39
 6.892497e+00 -1.748126e+00 -5.804766e+00 6.277920e+00 9.395706e+00 -5.985304e+00 -1.277617e+01 -1.140702e+01 -2.113660e+00 -5.631714e+00 -2.491296e+00 -8.021452e+00 6.818970e+01 -4.116086e-01 8.990817e-01 1.729251e-01 3.610927e-01 5.369589e-02 1.170313e-01 1.480806e-01 8.108864e-02 5.948055e-01 3.777902e-01 -2.676753e-01 -5.181865e-01 -8.006076e-01 -2.662954e-01 -1.449699e-01 2.704391e-01 -3.170294e-01 -2.378942e-02 -5.387483e-02 1.086292e-01 -1.725157e-03 -2.822065e-01 -2.147255e-01 3.731273e-02 2.796063e-01 1.163513e-01
<VARIANCE> 39
 1.227909e+01 1.861928e+01 1.713544e+01 2.810867e+01 1.877904e+01 3.259409e+01 2.655404e+01 2.512389e+01 4.708017e+01 2.545967e+01 4.596659e+01 2.245534e+01 9.467250e+00 5.363310e-01 4.710254e-01 1.077556e+00 1.227867e+00 1.002139e+00 1.500634e+00 1.797876e+00 1.621202e+00 2.022476e+00 1.400937e+00 1.308243e+00 1.402441e+00 1.668438e-01 6.361515e-02 1.008190e-01 1.678869e-01 2.649679e-01 2.161798e-01 3.107161e-01 3.616344e-01 3.321760e-01 3.330659e-01 2.924755e-01 3.142546e-01 2.715566e-01 4.246815e-02
<GCONST> 9.179160e+01
<STATE> 4
<MEAN> 39
 -1.592405e-01 3.863810e-01 -1.473277e+00 5.622869e+00 7.568062e+00 -4.449798e+00 -7.722538e+00 -8.710061e+00 -2.547806e+00 -6.742885e+00 -2.886587e+00 -6.172141e+00 6.307121e+01 -1.048114e+00 -2.138728e-01 6.503806e-01 -4.505832e-01 -2.780079e-01 -1.088193e-02 5.609468e-01 4.397653e-01 -3.467242e-01 -4.680809e-01 2.584938e-02 4.870298e-01 -3.488943e-01 -1.248317e-01 -2.369950e-01 1.507644e-01 -4.754545e-01 -6.816033e-02 -3.599603e-02 -7.153854e-02 1.288312e-03 -4.568176e-02 -1.045979e-01 -2.194339e-02 7.216904e-02 2.715007e-01
<VARIANCE> 39
 5.546916e+01 2.413667e+01 2.884279e+01 3.482457e+01 2.334183e+01 3.816055e+01 5.396771e+01 4.185522e+01 4.178212e+01 2.356393e+01 3.199080e+01 2.953360e+01 3.688406e+01 1.002533e+00 1.229991e+00 2.236730e+00 3.205468e+00 2.155378e+00 2.994921e+00 3.077100e+00 2.763462e+00 3.204450e+00 2.944177e+00 2.234962e+00 2.383364e+00 7.777458e-01 2.820581e-01 2.705428e-01 4.356948e-01 6.594411e-01 3.927293e-01 5.345996e-01 6.003577e-01 4.894612e-01 5.685781e-01 4.384790e-01 3.597672e-01 4.081279e-01 1.731586e-01
<GCONST> 1.158383e+02
<TRANSP> 5
 0.000000e+00 1.000000e+00 0.000000e+00 0.000000e+00 0.000000e+00
 0.000000e+00 5.980214e-01 4.019786e-01 0.000000e+00 0.000000e+00
 0.000000e+00 0.000000e+00 7.483045e-01 2.516955e-01 0.000000e+00
 0.000000e+00 0.000000e+00 0.000000e+00 6.690249e-01 3.309751e-01
 0.000000e+00 0.000000e+00 0.000000e+00 0.000000e+00 0.000000e+00
<ENDHMM>
~h "p"
<BEGINHMM>
<NUMSTATES> 5
<STATE> 2
<MEAN> 39
 -5.557907e+00 9.780691e-01 -6.825551e-01 1.143440e-01 1.600751e+00 -3.436595e+00 -2.161622e+00 -5.866321e+00 -3.931384e+00 -9.091838e+00 -4.343406e+00 -5.679585e+00 5.923122e+01 -3.611079e-01 -2.203223e+00 -7.551305e-01 -5.223975e-01 5.564247e-01 -7.437649e-01 -1.438985e+00 -1.939487e-01 2.536864e-01 -3.315560e-01 -1.717598e-01 1.524914e-01 1.052623e+00 3.893577e-01 -6.221396e-01 -2.396019e-01 -2.430071e-01 2.555103e-01 -2.716993e-01 -2.699020e-01 -6.543088e-02 -5.734463e-02 1.387274e-01 1.542654e-01 1.320309e-01 7.508679e-01
<VARIANCE> 39
 2.653937e+01 3.943928e+01 2.735142e+01 5.647776e+01 9.551597e+01 1.064596e+02 4.261153e+01 6.147082e+01 7.999155e+01 4.765772e+01 2.240443e+01 3.232416e+01 1.411393e+01 3.411573e+00 5.297175e+00 4.044480e+00 4.669485e+00 5.208219e+00 5.729164e+00 4.381280e+00 2.734219e+00 5.885908e+00 4.102682e+00 2.553200e+00 2.111694e+00 3.444327e+00 2.142382e-01 8.864582e-01 3.799146e-01 4.198101e-01 7.200209e-01 8.180991e-01 7.116411e-01 3.934664e-01 8.201955e-01 7.489262e-01 3.878014e-01 3.994016e-01 1.932421e-01
<GCONST> 1.290714e+02
<STATE> 3
<MEAN> 39
 -4.174446e+00 -1.187319e+01 -6.730521e+00 -4.707830e+00 3.723053e+00 -6.300103e+00 -6.520308e+00 -5.319727e+00 -2.526121e+00 -9.026653e+00 -4.746526e+00 -4.871943e+00 6.712565e+01 1.797756e+00 1.980165e-02 1.352656e-01 -3.378376e-01 6.259796e-01 -7.831744e-01 -4.979394e-01 3.006596e-01 -2.437674e-01 3.842798e-01 -1.929397e-02 3.051209e-01 1.837301e+00 4.244610e-01 1.428866e+00 6.563824e-01 1.886830e-01 -7.828571e-03 -3.313888e-01 2.678883e-02 -2.230133e-02 -4.257830e-01 1.409408e-01 -4.372592e-02 4.004062e-02 -1.859966e-01
<VARIANCE> 39
 1.427854e+01 3.220945e+01 3.470251e+01 4.863176e+01 1.022253e+02 5.302082e+01 4.365314e+01 4.749978e+01 6.186270e+01 4.020572e+01 3.421289e+01 3.633431e+01 8.690865e+00 3.149330e+00 1.254274e+01 5.532099e+00 4.254934e+00 7.851464e+00 7.182709e+00 5.228505e+00 3.656666e+00 7.761332e+00 4.050526e+00 2.634871e+00 3.020784e+00 1.633919e+00 3.487980e-01 1.083840e+00 1.005949e+00 8.113266e-01 9.755492e-01 1.378229e+00 1.318431e+00 7.109213e-01 9.459487e-01 7.703855e-01 5.764274e-01 6.116905e-01 2.447858e-01
<GCONST> 1.347013e+02
<STATE> 4
<MEAN> 39
 2.852999e+00 -3.136338e+00 -1.759479e+00 -3.110156e+00 6.917309e+00 -1.113468e+01 -1.061213e+01 -6.720203e+00 -6.904351e+00 -7.692692e+00 -3.889078e+00 -4.010496e+00 7.127172e+01 1.989254e+00 1.451745e+00 3.490645e-01 -8.199428e-01 2.293231e-01 -2.130420e+00 -1.836241e+00 -4.427121e-01 -1.323827e+00 1.332103e-01 -1.641644e-01 7.161095e-01 1.759639e+00 -4.060661e-01 -5.434936e-01 -4.302078e-01 -1.887036e-01 -1.457232e-01 3.163518e-01 1.181773e-01 -1.695244e-01 6.056093e-03 -2.618681e-01 -5.991351e-02 1.193810e-01 -2.015726e-01
<VARIANCE> 39
 2.376579e+01 3.167682e+01 4.330905e+01 5.246139e+01 1.316331e+02 4.805714e+01 4.782141e+01 3.388568e+01 7.339254e+01 4.036676e+01 3.376152e+01 2.548282e+01 1.358025e+01 3.325874e+00 6.602714e+00 5.244939e+00 3.962375e+00 6.642933e+00 5.421526e+00 4.591777e+00 3.383199e+00 2.796775e+00 3.787350e+00 2.751106e+00 3.258612e+00 6.117409e-01 3.188941e-01 8.032764e-01 7.983897e-01 6.540716e-01 1.204033e+00 8.914396e-01 6.742583e-01 4.080224e-01 9.159397e-01 6.243847e-01 2.708834e-01 4.715787e-01 1.490183e-01
<GCONST> 1.282928e+02
<TRANSP> 5
 0.000000e+00 1.000000e+00 0.000000e+00 0.000000e+00 0.000000e+00
 0.000000e+00 6.150474e-01 3.849526e-01 0.000000e+00 0.000000e+00
 0.000000e+00 0.000000e+00 6.396148e-01 3.603853e-01 0.000000e+00
 0.000000e+00 0.000000e+00 0.000000e+00 3.861027e-01 6.138973e-01
 0.000000e+00 0.000000e+00 0.000000e+00 0.000000e+00 0.000000e+00
<ENDHMM>
~h "r"
<BEGINHMM>
<NUMSTATES> 5
<STATE> 2
<MEAN> 39
 5.233495e+00 3.669403e+00 -1.436575e+00 -4.449441e+00 2.726682e+00 -6.944329e+00 -5.088494e+00 -4.381858e+00 -6.596605e+00 -1.107344e+01 -7.883265e+00 -9.594577e+00 6.801444e+01 1.257459e+00 1.300325e+00 -1.157562e+00 -9.918584e-01 -2.378991e-01 -7.430179e-02 -5.384542e-01 -4.352798e-01 -8.968865e-02 2.809501e-01 -4.506767e-01 -5.501207e-01 3.218612e-02 -2.925554e-01 -6.095349e-01 -4.688895e-01 -1.617411e-03 5.505454e-01 1.480037e-02 -3.018258e-01 -3.252962e-01 -3.325876e-02 1.106759e-01 2.157295e-01 3.101641e-01 1.075748e-01
<VARIANCE> 39
 1.434819e+01 5.910846e+01 5.271542e+01 6.364672e+01 7.581310e+01 5.079321e+01 4.640874e+01 2.679659e+01 5.096231e+01 4.199886e+01 2.536374e+01 3.965993e+01 2.106813e+01 1.302823e+00 2.903013e+00 3.427749e+00 2.439277e+00 4.754712e+00 3.234436e+00 3.046790e+00 3.697252e+00 4.350537e+00 3.547663e+00 2.028777e+00 2.382517e+00 6.496448e-01 2.429230e-01 4.981769e-01 5.183347e-01 4.130476e-01 6.631963e-01 4.539020e-01 4.675732e-01 4.907017e-01 7.714761e-01 5.458582e-01 4.085090e-01 4.696185e-01 7.120793e-02
<GCONST> 1.205560e+02
<STATE> 3
<MEAN> 39
 9.788323e+00 1.087558e+00 -1.114578e+01 -7.375907e+00 9.022825e+00 -7.726747e+00 -1.038069e+01 -6.492955e+00 -8.795134e+00 -1.225349e+01 -9.556503e+00 -7.270553e+00 7.118467e+01 1.805062e-01 9.312104e-03 -8.276096e-01 2.097046e-01 1.013882e+00 1.574333e-01 -5.955651e-01 -6.415969e-01 -1.435605e-02 1.161773e-01 9.967725e-02 2.138940e-01 5.196914e-03 -2.096477e-01 -4.088526e-01 2.161848e-01 3.142569e-01 4.536114e-02 -1.601653e-01 -5.284048e-02 -2.534029e-02 7.632928e-02 6.446821e-02 2.272431e-01 2.429540e-01 1.186336e-01
<VARIANCE> 39
 5.662366e+00 3.548069e+01 2.839098e+01 5.245723e+01 7.347770e+01 4.444950e+01 2.739931e+01 2.899924e+01 4.347287e+01 3.709254e+01 2.480074e+01 4.374158e+01 1.001131e+01 3.771420e-01 1.929569e+00 2.367694e+00 1.703985e+00 3.403084e+00 2.388559e+00 2.984862e+00 2.717049e+00 3.454808e+00 2.758266e+00 1.752802e+00 2.310960e+00 6.981239e-01 8.132520e-02 2.072905e-01 2.140642e-01 2.517111e-01 3.882234e-01 3.960317e-01 3.533415e-01 3.217297e-01 4.513876e-01 3.265297e-01 2.939067e-01 3.312382e-01 4.846090e-02
<GCONST> 1.059713e+02
<STATE> 4
<MEAN> 39
 7.408515e+00 -2.142443e+00 -8.536724e+00 -1.714917e+00 1.422869e+01 -6.435268e+00 -1.369619e+01 -1.035330e+01 -9.669344e+00 -1.120147e+01 -5.841422e+00 -5.714723e+00 7.137769e+01 -4.213544e-01 -1.691481e+00 4.926886e-01 1.464417e+00 5.477948e-01 -6.606238e-01 -8.231754e-01 -3.998782e-01 -9.914327e-02 1.985448e-01 1.219210e+00 9.186284e-01 6.428317e-01 -2.598629e-01 3.397129e-02 6.101844e-01 1.498998e-01 -5.700601e-01 -2.032444e-03 5.025977e-01 2.699935e-01 2.070953e-01 1.869694e-02 -1.453545e-02 -1.585210e-01 -9.938031e-02
<VARIANCE> 39
 1.710118e+01 3.722433e+01 1.004102e+02 1.169047e+02 9.845717e+01 5.665389e+01 3.774327e+01 3.740403e+01 5.097895e+01 4.557060e+01 3.054703e+01 3.417220e+01 1.068275e+01 5.058824e-01 1.884916e+00 4.594800e+00 3.056659e+00 4.762406e+00 3.756068e+00 3.506021e+00 3.241918e+00 3.520027e+00 2.701630e+00 2.809591e+00 2.852571e+00 7.194335e-01 7.119069e-02 2.384646e-01 4.564349e-01 4.616904e-01 6.613690e-01 5.350554e-01 4.876256e-01 5.292478e-01 5.336922e-01 4.312389e-01 4.904069e-01 3.932965e-01 5.926887e-02
<GCONST> 1.184000e+02
<TRANSP> 5
 0.000000e+00 1.000000e+00 0.000000e+00 0.000000e+00 0.000000e+00
 0.000000e+00 6.063601e-01 3.936399e-01 0.000000e+00 0.000000e+00
 0.000000e+00 0.000000e+00 6.793125e-01 3.206874e-01 0.000000e+00
 0.000000e+00 0.000000e+00 0.000000e+00 5.671415e-01 4.328586e-01
 0.000000e+00 0.000000e+00 0.000000e+00 0.000000e+00 0.000000e+00
<ENDHMM>
~h "s"
<BEGINHMM>
<NUMSTATES> 5
<STATE> 2
<MEAN> 39
 -5.682507e+00 -6.149465e+00 8.110200e+00 -1.067151e+01 8.207296e+00 -3.076164e+00 -5.170314e+00 -1.074308e+01 -7.862749e+00 -8.009563e+00 -3.201975e+00 -5.753235e+00 7.399144e+01 -4.978949e+00 5.213118e-01 3.733065e+00 -3.215301e+00 9.015158e-01 8.919374e-01 1.852367e+00 -9.871718e-01 7.571728e-01 -8.743788e-02 3.783651e-01 -3.348793e-01 1.331724e+00 -5.480365e-01 3.821616e-01 -2.130283e-01 1.657198e-01 -3.387077e-01 -9.173159e-02 -6.240815e-03 -3.188519e-01 2.954077e-01 -1.080284e-01 2.234757e-02 1.021496e-01 1.794435e-01
<VARIANCE> 39
 9.797641e+01 3.133433e+01 9.752863e+01 8.803959e+01 5.869213e+01 6.443430e+01 7.541270e+01 7.637645e+01 7.884841e+01 5.669395e+01 4.305658e+01 3.863957e+01 3.034754e+01 3.677573e+00 2.086640e+00 3.465538e+00 3.679245e+00 2.822684e+00 3.171950e+00 4.347904e+00 3.338244e+00 4.577865e+00 3.927531e+00 3.031599e+00 2.916718e+00 8.413841e-01 9.724831e-01 2.647704e-01 1.164464e+00 1.344193e+00 5.656787e-01 5.567893e-01 7.780201e-01 6.141282e-01 7.503094e-01 6.743596e-01 5.170865e-01 4.235083e-01 2.154354e-01
<GCONST> 1.327048e+02
<STATE> 3
<MEAN> 39
 -2.698087e+01 -2.098024e+00 1.615077e+01 -1.580560e+01 6.327872e+00 5.965765e-02 3.054228e-02 -1.446334e+01 -4.252727e+00 -8.768719e+00 -2.205132e+00 -5.511862e+00 7.695238e+01 -1.275366e+00 1.538178e-02 4.355783e-01 9.530100e-02 -4.349295e-01 -1.359052e-01 3.946210e-01 -6.424440e-02 1.018784e-01 -3.180166e-02 -1.995837e-01 4.316108e-02 -4.892408e-01 6.773527e-01 -2.750525e-01 -2.123117e-01 2.076323e-01 -7.442385e-03 -2.106071e-01 -1.822311e-01 1.404247e-01 -1.791898e-01 5.532921e-02 -7.868626e-02 3.247522e-02 -2.536643e-01
<VARIANCE> 39
 3.938701e+01 2.456637e+01 3.941755e+01 4.469204e+01 4.071496e+01 4.123545e+01 5.792652e+01 4.961474e+01 4.353748e+01 3.171920e+01 3.085445e+01 2.722648e+01 1.805692e+01 3.243921e+00 1.714436e+00 1.348183e+00 1.491821e+00 1.537035e+00 2.216762e+00 1.825366e+00 2.123025e+00 2.255017e+00 1.704055e+00 1.551033e+00 1.294578e+00 9.538860e-01 2.718482e-01 1.843281e-01 3.440998e-01 4.090111e-01 3.061926e-01 3.599067e-01 3.642849e-01 4.320687e-01 4.008766e-01 3.380888e-01 2.963521e-01 2.804319e-01 1.077122e-01
<GCONST> 1.095408e+02
<STATE> 4
<MEAN> 39
 -2.071231e+01 -6.471734e+00 1.700358e+01 -1.332422e+01 4.265022e+00 -5.031367e+00 -1.004773e+00 -1.360765e+01 -6.172135e+00 -6.839781e+00 -4.796040e+00 -4.998950e+00 7.094515e+01 2.652133e+00 -3.202856e-01 -1.043218e+00 3.679318e-01 -3.971666e-01 -6.854939e-01 -1.104579e+00 3.873338e-01 -4.225620e-01 4.606527e-01 -2.499751e-01 9.125590e-02 -4.363248e-01 3.166514e-01 9.739269e-02 -4.830139e-01 9.385904e-02 -7.870918e-02 7.431888e-02 -1.973000e-01 1.021513e-01 7.843797e-02 2.455352e-02 9.656361e-02 -6.696288e-02 1.958837e-01
<VARIANCE> 39
 9.546503e+01 3.080286e+01 4.426947e+01 6.885523e+01 4.528006e+01 7.255988e+01 6.961537e+01 5.138552e+01 6.420468e+01 4.032387e+01 3.552215e+01 2.420745e+01 5.103628e+01 5.513456e+00 2.595005e+00 4.434797e+00 4.153514e+00 3.740665e+00 4.836379e+00 3.857394e+00 4.258724e+00 5.217885e+00 3.188180e+00 2.623501e+00 2.092859e+00 1.961330e+00 8.627561e-01 4.704056e-01 6.520002e-01 7.120765e-01 6.103259e-01 7.526914e-01 7.589839e-01 6.505032e-01 9.066573e-01 5.870147e-01 4.928702e-01 3.655344e-01 2.639322e-01
<GCONST> 1.321413e+02
<TRANSP> 5
 0.000000e+00 1.000000e+00 0.000000e+00 0.000000e+00 0.000000e+00
 0.000000e+00 7.029797e-01 2.970203e-01 0.000000e+00 0.000000e+00
 0.000000e+00 0.000000e+00 8.774298e-01 1.225702e-01 0.000000e+00
 0.000000e+00 0.000000e+00 0.000000e+00 8.376449e-01 1.623552e-01
 0.000000e+00 0.000000e+00 0.000000e+00 0.000000e+00 0.000000e+00
<ENDHMM>
~h "t"
<BEGINHMM>
<NUMSTATES> 5
<STATE> 2
<MEAN> 39
 -7.897763e+00 -7.333385e+00 2.691998e-01 -3.905558e+00 1.744240e+00 -7.501751e+00 -4.741016e+00 -9.669151e+00 -4.121737e+00 -8.714881e+00 -2.050864e+00 -5.384271e+00 6.794968e+01 -2.037051e+00 -1.836311e+00 1.650181e+00 -2.058211e+00 -5.086534e-01 -9.916211e-01 -1.972775e-01 -2.310957e-01 9.100826e-01 1.599175e-01 1.386221e-01 -7.338698e-01 2.375980e+00 7.438508e-02 -2.812849e-01 2.811169e-01 2.345414e-02 1.685634e-01 1.081000e-01 9.284405e-02 -1.336372e-01 -3.370292e-01 1.006242e-02 1.746067e-02 5.623076e-02 3.172615e-01
<VARIANCE> 39
 9.173034e+01 4.506057e+01 7.354462e+01 9.231031e+01 7.556329e+01 8.121038e+01 5.325253e+01 7.642836e+01 6.986591e+01 4.502527e+01 4.557241e+01 3.215425e+01 6.149831e+01 8.490205e+00 5.133147e+00 7.713216e+00 8.909254e+00 5.802022e+00 6.935946e+00 4.438187e+00 6.179583e+00 7.145182e+00 4.301874e+00 4.369990e+00 3.446562e+00 5.859222e+00 1.188103e+00 8.583991e-01 8.639737e-01 1.598396e+00 9.355043e-01 1.265368e+00 8.499082e-01 1.003542e+00 1.291162e+00 7.106318e-01 7.049888e-01 5.834137e-01 1.319934e+00
<GCONST> 1.478951e+02
<STATE> 3
<MEAN> 39
 -1.449943e+01 -1.558005e+01 5.771912e+00 -8.644581e+00 2.599376e+00 -7.881246e+00 -3.544046e+00 -1.015277e+01 -4.431414e+00 -8.992797e+00 -5.858886e-01 -6.087730e+00 7.434512e+01 1.251375e+00 -4.084906e-01 9.480236e-01 8.403052e-01 7.172031e-01 9.586156e-01 1.581984e-01 -3.659725e-02 -1.305605e+00 1.371782e-01 -1.123647e-01 3.450916e-01 -1.381194e-01 1.174940e+00 9.701454e-01 -2.276066e-01 6.730435e-01 1.115115e-02 2.584302e-01 -2.415405e-01 -5.182575e-02 -3.664486e-01 3.176826e-02 -2.309361e-01 1.444274e-01 -5.945321e-01
<VARIANCE> 39
 7.726530e+01 4.690652e+01 5.658755e+01 4.425690e+01 4.895139e+01 6.147435e+01 3.808029e+01 4.869331e+01 4.492158e+01 4.278676e+01 3.861830e+01 2.768771e+01 2.614055e+01 5.915130e+00 4.091156e+00 4.092764e+00 3.683103e+00 3.633117e+00 3.780341e+00 3.674000e+00 3.565761e+00 4.229496e+00 2.700229e+00 2.676844e+00 1.995669e+00 1.685228e+00 9.603479e-01 7.173073e-01 9.814798e-01 9.254066e-01 7.258044e-01 9.017383e-01 7.425892e-01 6.954130e-01 9.164252e-01 5.271739e-01 5.725882e-01 5.725095e-01 5.655562e-01
<GCONST> 1.327908e+02
<STATE> 4
<MEAN> 39
 -7.219059e+00 -1.095637e+01 5.954776e+00 -3.099818e+00 2.143649e+00 -4.632923e+00 -4.401641e+00 -9.491848e+00 -7.780087e+00 -8.068064e+00 -2.110837e+00 -4.479505e+00 6.877433e+01 1.988908e+00 1.346106e+00 -1.777080e-01 1.005387e+00 -3.285666e-01 2.170035e-01 -6.712559e-01 -2.221933e-01 -6.791830e-01 3.961439e-02 -4.235799e-01 -5.112180e-02 -4.219033e-01 -1.599272e-01 3.402738e-02 -5.277634e-01 -1.855824e-01 -1.776105e-01 -2.377150e-01 -4.577462e-02 -1.913520e-02 2.595928e-01 -5.857430e-02 4.716984e-02 -5.620172e-02 2.310336e-02
<VARIANCE> 39
 5.227853e+01 3.649552e+01 1.038055e+02 6.279196e+01 6.311090e+01 5.713617e+01 4.962822e+01 5.590388e+01 5.519461e+01 3.783959e+01 3.182590e+01 3.311361e+01 7.692768e+01 5.710546e+00 3.552597e+00 3.911013e+00 3.606769e+00 3.998878e+00 3.104896e+00 3.789743e+00 3.837555e+00 4.358563e+00 2.315510e+00 2.346207e+00 2.232729e+00 1.308542e+00 3.939098e-01 4.671458e-01 7.727519e-01 4.661495e-01 6.599489e-01 5.674781e-01 5.353341e-01 5.347871e-01 5.138001e-01 4.410873e-01 3.450428e-01 4.182763e-01 1.834726e-01
<GCONST> 1.281061e+02
<TRANSP> 5
 0.000000e+00 1.000000e+00 0.000000e+00 0.000000e+00 0.000000e+00
 0.000000e+00 6.373346e-01 3.626654e-01 0.000000e+00 0.000000e+00
 0.000000e+00 0.000000e+00 5.378820e-01 4.621181e-01 0.000000e+00
 0.000000e+00 0.000000e+00 0.000000e+00 6.100801e-01 3.899200e-01
 0.000000e+00 0.000000e+00 0.000000e+00 0.000000e+00 0.000000e+00
<ENDHMM>
~h "v"
<BEGINHMM>
<NUMSTATES> 5
<STATE> 2
<MEAN> 39
 -7.524306e+00 9.520251e-02 -2.156403e+00 -4.338340e+00 1.825726e+00 -1.036426e+01 -1.860026e+00 -6.118693e+00 -4.420158e+00 -6.080165e+00 -3.145560e+00 -3.842923e+00 6.447964e+01 8.192223e-01 1.389256e+00 8.617878e-02 -1.337346e+00 -1.100135e+00 -2.338027e+00 -4.854193e-01 8.741772e-01 9.248701e-01 1.235689e+00 -2.077792e-01 -4.023828e-01 7.224478e-01 3.984197e-01 -1.735740e-01 -5.241112e-02 -4.508153e-02 -1.614628e-01 -3.947681e-01 -3.503287e-01 -6.191676e-02 -8.658800e-02 3.449038e-03 -5.345986e-02 -1.019328e-02 3.735670e-01
<VARIANCE> 39
 9.781934e+01 4.530252e+01 6.343302e+01 6.354453e+01 1.592176e+02 1.123997e+02 4.062906e+01 6.572133e+01 6.034039e+01 5.190997e+01 2.842198e+01 3.409756e+01 6.324308e+01 1.223653e+01 3.418212e+00 2.241071e+00 3.888712e+00 8.301890e+00 9.171853e+00 5.407914e+00 2.590002e+00 3.555925e+00 3.822858e+00 2.519189e+00 2.166760e+00 2.463061e+00 1.144812e+00 6.698777e-01 3.913338e-01 8.921921e-01 1.079553e+00 1.161928e+00 7.303986e-01 4.189988e-01 5.900564e-01 6.051338e-01 4.126334e-01 5.072817e-01 2.575824e-01
<GCONST> 1.369842e+02
<STATE> 3
<MEAN> 39
 4.065279e+00 1.034607e+00 -4.088449e+00 -9.310274e+00 -5.981291e+00 -2.594379e+01 -5.628840e+00 -2.457402e-01 -3.497915e+00 1.460065e+00 -6.276152e+00 -6.121093e+00 7.077733e+01 1.464277e-01 -2.288547e-01 -1.708724e-01 3.587592e-01 4.144071e-01 -9.575167e-01 -1.593612e-01 1.607199e-01 3.796257e-03 5.955241e-02 -5.372702e-02 -2.140957e-01 1.026888e+00 -5.280898e-01 -2.356696e-01 7.538807e-02 1.897142e-01 1.748852e-01 7.929746e-01 9.339947e-02 -2.630758e-01 5.388189e-02 -4.187879e-01 2.002206e-01 -1.615047e-02 -2.085145e-01
<VARIANCE> 39
 3.651352e+01 3.127947e+01 2.826035e+01 3.090219e+01 1.205884e+02 1.171749e+02 4.898984e+01 5.064456e+01 6.262724e+01 7.312151e+01 3.951036e+01 2.891414e+01 1.291643e+01 6.298298e+00 3.360175e+00 2.489407e+00 2.896872e+00 3.229399e+00 5.257033e+00 4.827721e+00 1.813320e+00 4.045656e+00 2.926930e+00 2.561695e+00 2.567073e+00 1.421335e+00 7.047572e-01 5.560729e-01 4.011028e-01 6.139574e-01 8.022348e-01 8.712861e-01 8.682953e-01 3.278276e-01 8.889083e-01 5.454967e-01 4.216489e-01 4.408168e-01 1.990312e-01
<GCONST> 1.276537e+02
<STATE> 4
<MEAN> 39
 -8.788152e+00 1.519715e+00 -2.317154e+00 -9.388126e+00 -3.082534e+00 -2.088757e+01 -2.240985e+00 -1.017665e+00 6.684072e-01 -1.974945e+00 -2.528095e+00 -7.778526e+00 7.207433e+01 -9.344403e-01 -2.392720e-01 5.234680e-01 1.363283e-02 1.641394e-01 8.171210e-01 1.677254e-01 -3.762478e-01 7.941989e-02 -3.830232e-01 1.993052e-01 -1.272734e-01 -3.799104e-01 3.670156e-01 -1.695919e-01 3.437884e-02 5.983884e-02 -6.325074e-02 6.967777e-02 -1.952866e-01 -1.284347e-01 -2.142352e-01 -8.895233e-03 -7.942911e-02 6.362307e-02 -1.003945e-01
<VARIANCE> 39
 9.577845e+01 3.340348e+01 2.602840e+01 2.358861e+01 8.272125e+01 6.175112e+01 4.471921e+01 3.942654e+01 4.566359e+01 4.135675e+01 3.073711e+01 2.494164e+01 2.428196e+01 7.463651e+00 3.081003e+00 1.822784e+00 2.028560e+00 3.234517e+00 2.853301e+00 3.716541e+00 2.822965e+00 3.422949e+00 1.821854e+00 2.758954e+00 2.045363e+00 1.963117e+00 9.118165e-01 5.607868e-01 3.261300e-01 3.688000e-01 5.583768e-01 5.320772e-01 6.273057e-01 5.657089e-01 5.104985e-01 3.624269e-01 4.744036e-01 3.724972e-01 3.459415e-01
<GCONST> 1.232874e+02
<TRANSP> 5
 0.000000e+00 1.000000e+00 0.000000e+00 0.000000e+00 0.000000e+00
 0.000000e+00 6.384970e-01 3.615029e-01 0.000000e+00 0.000000e+00
 0.000000e+00 0.000000e+00 5.707774e-01 4.292226e-01 0.000000e+00
 0.000000e+00 0.000000e+00 0.000000e+00 8.335158e-01 1.664842e-01
 0.000000e+00 0.000000e+00 0.000000e+00 0.000000e+00 0.000000e+00
<ENDHMM>
~h "w"
<BEGINHMM>
<NUMSTATES> 5
<STATE> 2
<MEAN> 39
 2.223285e+00 3.499975e+00 -5.602248e-01 -5.187366e+00 -2.406098e+00 -8.903434e+00 -5.290224e+00 -6.213088e+00 -5.599309e+00 -8.807876e+00 -5.923529e+00 -8.502630e+00 6.498540e+01 1.052469e+00 6.613857e-01 -6.400926e-01 2.662221e-01 -6.676254e-02 -9.604883e-02 -6.144127e-01 -2.690523e-01 -3.027246e-01 -4.153556e-01 -1.263018e-01 8.497027e-02 8.256821e-02 -2.428532e-01 -2.447417e-01 2.590200e-02 1.675300e-01 3.576586e-01 -2.845830e-02 -1.625610e-01 -1.538623e-01 8.471403e-02 1.261956e-01 2.601151e-01 3.187674e-01 7.661576e-02
<VARIANCE> 39
 5.351122e+01 9.861421e+01 8.071724e+01 3.673250e+01 8.109156e+01 6.312648e+01 7.192014e+01 3.543010e+01 6.000122e+01 3.181397e+01 2.856339e+01 3.147328e+01 2.931043e+01 2.651726e+00 6.967216e+00 5.701817e+00 3.590261e+00 7.038681e+00 5.156223e+00 5.118679e+00 4.150149e+00 4.640224e+00 3.302446e+00 2.597216e+00 3.627705e+00 2.176677e+00 2.429955e-01 5.965537e-01 6.800668e-01 4.933521e-01 8.517069e-01 7.646177e-01 6.615445e-01 7.682731e-01 7.272326e-01 6.163929e-01 4.699307e-01 5.888243e-01 1.109998e-01
<GCONST> 1.322791e+02
<STATE> 3
<MEAN> 39
 1.442555e+00 -4.035316e-02 -4.236296e+00 -1.335458e+00 1.325304e+00 -4.847281e+00 -3.312584e+00 -7.925225e+00 -8.122397e+00 -1.042032e+01 -3.010844e+00 -5.154607e+00 6.422055e+01 -1.123311e-01 1.245903e+00 2.960032e-01 2.222857e-01 -3.423955e-01 -1.636752e-01 -2.390855e-01 -2.792128e-01 4.899645e-01 5.313053e-01 4.424532e-01 4.387039e-01 -6.901889e-01 -7.501563e-02 -1.134163e-01 1.143708e-01 -1.335566e-01 -3.111348e-02 -3.068524e-01 -2.646450e-01 -1.203848e-03 1.405666e-01 1.735672e-01 -5.366458e-03 4.910380e-03 1.222534e-01
<VARIANCE> 39
 5.375302e+01 6.487908e+01 6.975798e+01 3.976957e+01 6.321548e+01 3.510125e+01 5.442582e+01 3.401026e+01 3.234523e+01 2.566150e+01 2.558122e+01 3.140613e+01 2.152218e+01 1.194622e+00 2.574755e+00 1.313917e+00 2.125348e+00 2.612413e+00 2.110131e+00 2.628959e+00 2.255698e+00 1.712990e+00 1.709181e+00 1.566816e+00 1.997796e+00 7.142361e-01 7.686500e-02 2.485529e-01 3.234802e-01 3.094291e-01 4.012777e-01 5.080593e-01 4.770474e-01 4.351952e-01 3.257860e-01 3.264064e-01 3.229644e-01 2.911467e-01 4.930596e-02
<GCONST> 1.099496e+02
<STATE> 4
<MEAN> 39
 -4.374947e+00 5.080426e+00 8.066769e-01 -8.105192e-01 -2.652052e+00 -7.821215e+00 -5.241876e+00 -7.164489e+00 -3.844313e+00 -6.637617e+00 -1.501959e+00 -3.481518e+00 5.782255e+01 5.261097e-01 6.793201e-01 2.253570e-01 -1.735657e-01 -6.488149e-01 -1.231609e+00 -7.925098e-01 1.592469e-01 5.669441e-01 5.960481e-01 1.842224e-02 -3.069868e-01 1.738821e-01 1.404698e-01 -2.180934e-01 -2.655385e-01 -2.330167e-01 3.009459e-02 -1.008043e-01 4.836971e-03 1.400299e-01 9.169599e-03 -2.792902e-02 -1.773611e-01 -1.885536e-01 2.107670e-01
<VARIANCE> 39
 1.026391e+02 8.687329e+01 7.198711e+01 2.745882e+01 2.790182e+01 6.850079e+01 6.670353e+01 2.738867e+01 2.276277e+01 2.138928e+01 1.406260e+01 2.299636e+01 4.696618e+01 1.881402e+00 2.207870e+00 2.040459e+00 2.131635e+00 1.938756e+00 2.485023e+00 1.978681e+00 1.908158e+00 1.692716e+00 1.322889e+00 1.193915e+00 1.624159e+00 7.922888e-01 1.878781e-01 4.866431e-01 4.425383e-01 2.840172e-01 3.362869e-01 3.691037e-01 3.058830e-01 3.329438e-01 3.862306e-01 3.406781e-01 2.282883e-01 2.593195e-01 7.647654e-02
<GCONST> 1.100121e+02
<TRANSP> 5
 0.000000e+00 1.000000e+00 0.000000e+00 0.000000e+00 0.000000e+00
 0.000000e+00 5.359572e-01 4.640428e-01 0.000000e+00 0.000000e+00
 0.000000e+00 0.000000e+00 6.368759e-01 3.631241e-01 0.000000e+00
 0.000000e+00 0.000000e+00 0.000000e+00 8.086235e-01 1.913765e-01
 0.000000e+00 0.000000e+00 0.000000e+00 0.000000e+00 0.000000e+00
<ENDHMM>
~h "y"
<BEGINHMM>
<NUMSTATES> 5
<STATE> 2
<MEAN> 39
 1.800027e+00 -9.126802e+00 4.993891e-01 5.264960e+00 1.156633e+01 -9.572979e+00 -7.594631e+00 -7.718081e+00 -1.223076e+01 -7.174218e+00 -2.317017e+00 -7.415672e+00 7.223536e+01 6.075106e-01 6.306362e-01 1.228616e-01 5.412977e-01 6.841392e-01 -2.767645e-01 -4.181755e-01 2.221075e-01 -3.175015e-01 3.538380e-01 4.363810e-01 2.157315e-01 -1.211256e-01 -5.564361e-02 2.636458e-02 -2.554765e-01 -2.853227e-01 -9.819017e-02 -7.519970e-03 -4.727826e-03 -4.102513e-03 9.271507e-02 -1.070146e-01 5.979887e-02 1.683768e-01 3.263671e-03
<VARIANCE> 39
 5.967185e+01 1.724513e+01 1.627466e+02 1.003441e+02 4.023261e+01 9.866445e+01 4.234765e+01 6.032089e+01 6.692832e+01 2.683119e+01 2.175440e+01 2.709325e+01 2.034397e+01 3.587441e+00 2.101110e+00 2.880670e+00 3.210415e+00 2.796179e+00 3.865148e+00 3.141529e+00 3.820596e+00 2.895382e+00 1.508317e+00 3.872230e+00 2.146746e+00 7.912808e-01 3.147680e-01 1.512236e-01 3.979258e-01 6.028312e-01 3.070339e-01 6.578504e-01 5.594407e-01 5.707422e-01 5.269342e-01 2.741654e-01 3.870021e-01 2.462348e-01 1.147201e-01
<GCONST> 1.201345e+02
<STATE> 3
<MEAN> 39
 6.417920e-01 -6.720451e+00 5.410868e+00 1.225905e+01 2.020807e+01 -7.608668e+00 -1.233674e+01 -7.527328e+00 -1.111749e+01 -8.591423e+00 -7.998419e-01 -2.797173e+00 6.978277e+01 1.210845e+00 7.617372e-01 -1.734981e+00 -1.524296e+00 -3.996185e-01 9.513203e-01 6.113358e-01 2.887655e-01 -6.518437e-02 -9.610386e-01 -6.277291e-01 4.346064e-02 1.732818e-01 -1.276152e-01 -1.958473e-02 -6.844768e-02 -4.046270e-01 -5.091305e-01 -1.766289e-02 3.372638e-01 2.284735e-01 3.671954e-01 -6.617519e-02 -3.661890e-01 -2.652579e-01 -5.039600e-03
<VARIANCE> 39
 3.610747e+01 1.319439e+01 6.260349e+01 6.857674e+01 8.359435e+01 6.524947e+01 6.025123e+01 3.419360e+01 4.290377e+01 2.572077e+01 4.777098e+01 4.287431e+01 1.932532e+01 7.482080e-01 1.101932e+00 2.676436e+00 4.141208e+00 6.347742e+00 3.053235e+00 4.892667e+00 3.450894e+00 3.375966e+00 3.230191e+00 3.906215e+00 2.870149e+00 5.560545e-01 2.291730e-01 2.038305e-01 3.124268e-01 6.148317e-01 9.568277e-01 5.392166e-01 8.413923e-01 6.392200e-01 5.469079e-01 8.098316e-01 6.405178e-01 4.801851e-01 1.192487e-01
<GCONST> 1.221423e+02
<STATE> 4
<MEAN> 39
 6.865225e+00 4.097842e+00 -2.054829e+00 -5.134189e-01 6.016339e+00 -4.239183e+00 -6.377543e+00 -3.486755e+00 -1.657115e+00 -8.123351e+00 -4.501619e+00 -7.935238e+00 6.772193e+01 -3.459673e-02 9.516411e-01 -8.790866e-03 -5.266989e-01 -1.142968e+00 -4.347422e-01 2.089856e-01 3.407407e-01 1.389282e+00 6.581382e-01 -3.416378e-01 -4.591269e-01 -4.647335e-01 -1.562315e-01 -1.637398e-01 1.509902e-01 2.084718e-01 1.929136e-01 -5.800635e-03 -1.213885e-01 -1.719075e-01 -1.749003e-01 6.270991e-02 1.863827e-01 9.180580e-02 -7.537785e-03
<VARIANCE> 39
 1.016180e+01 3.220121e+01 2.472425e+01 3.701741e+01 5.677573e+01 4.461320e+01 3.950550e+01 3.193686e+01 9.213262e+01 7.104752e+01 2.903543e+01 3.430700e+01 1.263302e+01 3.635529e-01 8.218890e-01 9.275925e-01 1.696076e+00 2.413977e+00 1.921557e+00 1.707996e+00 1.499418e+00 2.060885e+00 2.623710e+00 2.040980e+00 1.383820e+00 3.540960e-01 5.568179e-02 7.450911e-02 2.144616e-01 2.764559e-01 3.231960e-01 3.462518e-01 4.971598e-01 3.426336e-01 3.910615e-01 5.376820e-01 3.941397e-01 2.780793e-01 2.209494e-02
<GCONST> 1.010460e+02
<TRANSP> 5
 0.000000e+00 1.000000e+00 0.000000e+00 0.000000e+00 0.000000e+00
 0.000000e+00 8.027014e-01 1.972986e-01 0.000000e+00 0.000000e+00
 0.000000e+00 0.000000e+00 7.929441e-01 2.070559e-01 0.000000e+00
 0.000000e+00 0.000000e+00 0.000000e+00 8.115477e-01 1.884524e-01
 0.000000e+00 0.000000e+00 0.000000e+00 0.000000e+00 0.000000e+00
<ENDHMM>
~h "z"
<BEGINHMM>
<NUMSTATES> 5
<STATE> 2
<MEAN> 39
 -1.969606e+01 -9.371079e-01 1.366111e+01 -1.734302e+01 5.273554e+00 -4.430280e-01 -2.737373e+00 -1.397514e+01 -2.706063e+00 -7.173255e+00 -3.356905e+00 -6.662884e+00 7.791600e+01 -3.075245e+00 5.941799e-01 1.270124e+00 -8.058168e-01 -2.393068e-01 2.870857e-01 7.784184e-01 -4.514357e-01 4.946358e-01 -2.111238e-01 -1.373905e-01 -8.568734e-02 1.348164e-01 7.077506e-01 -2.652902e-01 -4.204828e-01 5.397313e-01 -1.360475e-01 -2.746255e-01 -4.202763e-02 1.155152e-01 -2.654974e-01 -1.011816e-02 -1.494447e-01 1.671183e-02 -3.070608e-01
<VARIANCE> 39
 8.279757e+01 2.559073e+01 5.203781e+01 8.247501e+01 5.856469e+01 8.140633e+01 5.132900e+01 6.931139e+01 4.209760e+01 3.556597e+01 3.571725e+01 2.638027e+01 1.594088e+01 5.438957e+00 2.616287e+00 3.338981e+00 4.417793e+00 1.722650e+00 2.456370e+00 2.666033e+00 2.949071e+00 2.561565e+00 2.273454e+00 1.945066e+00 1.646495e+00 1.167914e+00 4.628974e-01 3.807393e-01 5.816982e-01 5.692515e-01 3.480783e-01 4.873660e-01 4.815200e-01 5.362049e-01 4.114875e-01 4.655446e-01 3.985640e-01 3.292169e-01 1.103380e-01
<GCONST> 1.213507e+02
<STATE> 3
<MEAN> 39
 -2.241415e+01 -5.833469e+00 1.165580e+01 -1.169302e+01 2.659736e+00 -1.572354e+00 4.380745e-02 -1.170033e+01 -3.715652e+00 -6.677078e+00 -5.430462e+00 -4.729917e+00 6.585563e+01 5.317295e-01 -3.909519e-01 -3.914415e-01 4.093060e-01 -1.555234e-01 -1.547194e-01 -1.962637e-02 2.348309e-01 -3.908289e-01 -2.489197e-02 -1.778447e-01 1.854052e-01 -1.249029e+00 1.705587e-01 7.274470e-02 -9.437419e-02 2.514748e-03 -5.318814e-03 6.775539e-02 -1.511494e-01 8.865802e-02 -3.417808e-02 6.053675e-02 3.898349e-03 2.573240e-04 -3.889334e-02
<VARIANCE> 39
 4.246484e+01 2.192649e+01 1.241764e+02 8.047073e+01 5.416864e+01 3.779777e+01 3.901021e+01 5.351731e+01 2.690554e+01 3.272019e+01 3.043265e+01 3.093646e+01 9.486604e+01 1.101311e+00 1.060850e+00 2.389682e+00 2.036850e+00 1.542809e+00 1.999754e+00 1.941128e+00 1.765454e+00 2.055360e+00 1.425671e+00 1.719616e+00 1.164511e+00 5.776733e-01 1.614953e-01 1.206812e-01 2.283324e-01 3.372521e-01 2.734306e-01 3.928621e-01 3.633781e-01 3.469743e-01 3.475147e-01 2.489118e-01 2.672653e-01 2.470462e-01 5.436228e-02
<GCONST> 1.076078e+02
<STATE> 4
<MEAN> 39
 -1.664943e+01 -4.944617e+00 1.491319e+01 -1.253747e+01 2.258539e+00 -2.499481e+00 -1.848959e+00 -1.155059e+01 -7.659029e+00 -7.607429e+00 -6.922710e+00 -5.762994e+00 6.681469e+01 2.253649e+00 -1.294006e-01 -1.335958e+00 1.094619e+00 -6.830625e-01 -6.460880e-01 -9.407905e-01 9.075704e-01 -1.226780e-01 3.446264e-01 -5.198516e-02 -1.663776e-01 -5.557727e-01 2.533371e-01 8.315961e-02 -5.053203e-01 2.037722e-01 -5.799972e-02 -2.718788e-01 -1.708724e-01 -1.151034e-01 2.260412e-01 4.688518e-02 3.145454e-01 -4.085163e-02 4.165080e-01
<VARIANCE> 39
 7.626508e+01 3.029162e+01 8.036393e+01 1.206600e+02 7.538530e+01 8.459602e+01 8.096393e+01 6.637540e+01 5.585818e+01 3.413155e+01 2.825856e+01 2.342747e+01 5.435358e+01 3.503887e+00 3.323307e+00 6.454316e+00 5.370789e+00 5.134066e+00 5.769476e+00 5.479283e+00 3.530164e+00 5.037745e+00 3.675489e+00 3.309933e+00 2.891734e+00 2.767950e+00 6.192867e-01 5.345561e-01 9.409745e-01 8.484085e-01 8.056298e-01 9.627075e-01 8.816751e-01 7.099988e-01 7.543608e-01 7.091675e-01 6.028526e-01 5.750590e-01 3.694817e-01
<GCONST> 1.378085e+02
<TRANSP> 5
 0.000000e+00 1.000000e+00 0.000000e+00 0.000000e+00 0.000000e+00
 0.000000e+00 8.529606e-01 1.470394e-01 0.000000e+00 0.000000e+00
 0.000000e+00 0.000000e+00 8.578479e-01 1.421521e-01 0.000000e+00
 0.000000e+00 0.000000e+00 0.000000e+00 7.742327e-01 2.257673e-01
 0.000000e+00 0.000000e+00 0.000000e+00 0.000000e+00 0.000000e+00
<ENDHMM>
~h "aa"
<BEGINHMM>
<NUMSTATES> 5
<STATE> 2
<MEAN> 39
 6.305181e+00 -9.335145e+00 -1.079696e+01 -1.308846e+01 -7.887988e+00 -1.958180e+01 1.756432e+00 -3.552945e+00 -1.918301e+00 3.165820e+00 -1.026649e+01 -3.416661e+00 7.801598e+01 2.024649e-01 -2.575893e-01 -3.153302e-03 1.605935e-01 -2.647839e-01 3.094859e-01 3.205083e-01 -1.273712e-02 -1.719621e-01 3.860939e-03 -6.006749e-02 2.583570e-01 1.096059e-01 -1.199196e-01 1.193279e-01 9.129206e-02 5.459150e-02 8.164885e-02 2.435113e-01 -9.383877e-02 2.812586e-02 6.508210e-02 -2.011199e-01 1.692338e-01 -1.042732e-01 -1.671465e-01
<VARIANCE> 39
 1.099651e+01 2.484004e+01 1.590355e+01 3.208099e+01 3.760323e+01 6.454829e+01 3.424920e+01 3.219944e+01 3.286312e+01 3.791475e+01 4.228206e+01 2.692945e+01 1.857052e+01 4.704092e-01 1.073305e+00 1.317627e+00 1.599927e+00 1.551786e+00 3.268490e+00 1.989140e+00 1.745750e+00 2.174829e+00 2.640506e+00 2.665993e+00 1.682482e+00 1.089778e+00 1.198264e-01 1.559934e-01 2.392752e-01 2.637860e-01 2.568674e-01 3.886683e-01 3.437494e-01 3.719675e-01 3.877009e-01 3.464573e-01 5.070020e-01 3.142362e-01 6.561960e-02
<GCONST> 1.040031e+02
<STATE> 3
<MEAN> 39
 3.624595e+00 -6.088692e+00 -1.092252e+01 -1.123839e+01 -8.764631e+00 -1.077505e+01 2.190084e+00 -1.418563e+00 -3.044043e+00 -4.904392e+00 -3.950275e+00 -1.996343e+00 7.028780e+01 -1.531261e+00 9.208328e-01 1.751061e-01 -4.629089e-01 4.689696e-01 6.729379e-01 -2.827588e-01 8.992094e-01 3.839661e-01 -1.091134e+00 1.221601e+00 -4.308411e-01 -8.156729e-01 -4.292040e-01 7.405668e-02 3.115569e-01 -3.327227e-01 3.562536e-01 -3.075214e-01 -1.272585e-01 1.915046e-02 -9.475694e-02 8.022824e-02 -8.500668e-02 -2.002118e-01 3.056716e-01
<VARIANCE> 39
 3.131532e+01 3.640205e+01 1.434962e+01 2.385225e+01 3.875486e+01 3.670640e+01 3.196904e+01 4.336267e+01 2.873859e+01 3.190294e+01 3.495532e+01 2.079000e+01 4.487146e+01 1.398788e+00 9.181817e-01 1.877146e+00 1.798508e+00 2.167488e+00 1.939306e+00 2.710338e+00 2.209287e+00 1.557716e+00 1.966450e+00 3.544708e+00 2.115046e+00 4.532120e-01 4.562739e-01 2.369452e-01 4.132124e-01 3.320280e-01 3.455684e-01 3.689486e-01 4.456120e-01 4.649858e-01 4.289336e-01 3.041744e-01 4.777074e-01 2.968000e-01 1.328022e-01
<GCONST> 1.094410e+02
<STATE> 4
<MEAN> 39
 -8.645299e+00 -8.052025e+00 -3.862421e-01 -1.648306e+01 -5.078856e+00 -9.700071e+00 5.856912e-01 -7.641824e-01 -1.298076e+00 -7.044764e+00 -2.201152e-01 -3.977361e+00 7.350256e+01 -1.773333e+00 4.622160e-01 9.547468e-01 -5.113475e-01 5.764466e-01 3.380907e-01 -3.986635e-01 -1.629749e-01 -1.298638e-01 -5.286498e-01 3.271987e-01 -5.913376e-01 -1.381078e-01 3.015593e-01 -1.074663e-01 -1.258323e-01 1.004390e-01 -1.755836e-01 -1.436955e-02 5.270277e-02 -3.260714e-01 -9.646950e-02 2.840296e-01 -4.236764e-01 1.499546e-01 -1.438496e-02
<VARIANCE> 39
 7.982550e+01 6.523840e+01 7.563574e+01 4.308298e+01 4.362896e+01 4.920142e+01 3.564481e+01 5.648857e+01 2.690453e+01 2.422738e+01 2.452235e+01 1.804707e+01 6.864575e+01 7.238611e+00 2.978863e+00 5.107456e+00 4.528539e+00 2.769520e+00 4.017502e+00 2.597652e+00 3.298841e+00 2.715440e+00 2.500621e+00 3.793587e+00 1.800544e+00 2.041878e+00 7.526767e-01 4.199939e-01 7.512110e-01 3.261608e-01 3.345438e-01 6.152870e-01 4.522368e-01 6.025478e-01 3.391949e-01 4.855739e-01 6.599208e-01 2.694985e-01 2.946116e-01
<GCONST> 1.255337e+02
<TRANSP> 5
 0.000000e+00 1.000000e+00 0.000000e+00 0.000000e+00 0.000000e+00
 0.000000e+00 9.226978e-01 7.730212e-02 0.000000e+00 0.000000e+00
 0.000000e+00 0.000000e+00 7.307516e-01 2.692484e-01 0.000000e+00
 0.000000e+00 0.000000e+00 0.000000e+00 7.069836e-01 2.930163e-01
 0.000000e+00 0.000000e+00 0.000000e+00 0.000000e+00 0.000000e+00
<ENDHMM>
~h "ae"
<BEGINHMM>
<NUMSTATES> 5
<STATE> 2
<MEAN> 39
 -3.060210e+00 -6.170733e+00 -4.040518e+00 -3.317642e+00 4.349844e-01 -6.195485e+00 -1.135225e+01 -1.563889e+01 -2.710169e+00 -5.903527e+00 8.744963e-01 -1.271112e+00 6.659389e+01 2.039047e+00 -7.906731e-01 -4.353878e-01 5.677622e-02 -6.503089e-01 -9.143944e-01 -1.930157e+00 -2.092751e+00 4.431360e-01 1.533666e-01 1.084780e+00 1.083076e+00 2.764257e+00 -7.244187e-02 -1.748913e-01 1.198964e-01 6.888367e-02 1.517607e-01 -7.741729e-02 2.073320e-01 1.615141e-01 -3.230133e-01 -2.465856e-01 -1.094543e-01 2.817165e-02 2.225564e-01
<VARIANCE> 39
 6.621799e+01 2.870779e+01 6.492124e+01 6.364172e+01 4.755244e+01 7.516786e+01 9.148644e+01 7.180322e+01 8.376511e+01 6.552666e+01 5.598829e+01 3.711185e+01 9.362763e+01 5.295577e+00 3.779988e+00 6.238305e+00 5.779717e+00 3.568575e+00 5.984867e+00 7.852332e+00 7.555638e+00 7.069893e+00 6.097502e+00 5.132929e+00 4.348072e+00 5.650777e+00 9.833111e-01 6.157507e-01 9.382508e-01 8.469658e-01 5.245550e-01 1.071664e+00 1.701344e+00 1.522080e+00 1.245040e+00 8.681756e-01 8.474043e-01 7.260618e-01 9.861627e-01
<GCONST> 1.468635e+02
<STATE> 3
<MEAN> 39
 3.083233e+00 -9.989071e+00 -5.368535e+00 -3.921833e+00 9.861162e-01 -9.771573e+00 -1.551164e+01 -2.005488e+01 -5.546269e+00 -7.543444e+00 2.404561e+00 1.580827e+00 7.737817e+01 9.879921e-02 -7.189292e-01 1.980920e-01 -1.593153e-01 4.866400e-01 -1.297391e-01 -1.914718e-01 -4.637561e-01 -3.579144e-01 -6.767074e-01 4.948156e-02 4.977558e-01 9.076280e-01 -2.115302e-01 2.696074e-01 1.260392e-01 6.373697e-02 2.860624e-01 2.983936e-01 3.992085e-01 3.246555e-01 6.719499e-02 -8.584755e-02 -2.771682e-01 -3.503042e-01 -4.979640e-01
<VARIANCE> 39
 1.405612e+01 1.632073e+01 3.491811e+01 4.551934e+01 4.517060e+01 5.782504e+01 3.321909e+01 5.420012e+01 6.562626e+01 5.924397e+01 5.449733e+01 3.588633e+01 1.420001e+01 1.138477e+00 1.411632e+00 2.292913e+00 2.797799e+00 3.486781e+00 4.164937e+00 3.235809e+00 3.323768e+00 3.895853e+00 2.984272e+00 3.407933e+00 3.057585e+00 9.490602e-01 2.929356e-01 2.809170e-01 4.349563e-01 5.551134e-01 5.179182e-01 7.260309e-01 5.109357e-01 7.635711e-01 6.325153e-01 6.458760e-01 5.533690e-01 6.296206e-01 1.840705e-01
<GCONST> 1.209938e+02
<STATE> 4
<MEAN> 39
 2.547148e+00 -1.059418e+01 -6.482670e+00 -2.263586e+00 1.950655e+00 -7.664471e+00 -1.189998e+01 -2.003450e+01 -6.705440e+00 -8.926284e+00 1.851952e+00 1.333686e+00 7.672007e+01 -4.617349e-03 2.614205e-01 5.190324e-03 2.949308e-01 4.879997e-01 5.708386e-01 6.061493e-01 2.842501e-01 -3.727034e-01 -3.747889e-02 -3.215164e-02 -1.722796e-01 -7.249906e-01 -5.460909e-02 9.782436e-02 3.329191e-02 3.788034e-02 1.970695e-02 4.396980e-02 2.251689e-02 1.695783e-01 -6.447067e-03 1.318939e-01 5.060969e-02 -1.111032e-01 -1.488802e-01
<VARIANCE> 39
 2.048353e+01 2.310615e+01 2.564808e+01 3.376176e+01 2.947626e+01 4.433198e+01 3.496684e+01 3.008935e+01 3.907481e+01 3.342080e+01 3.235311e+01 2.670288e+01 3.618325e+01 1.217560e+00 8.521609e-01 1.310844e+00 1.660842e+00 1.802071e+00 2.132087e+00 2.147853e+00 2.194626e+00 1.872459e+00 1.963202e+00 2.024058e+00 2.257432e+00 1.145653e+00 2.332367e-01 1.605674e-01 2.619298e-01 3.601428e-01 3.194411e-01 4.417692e-01 3.819878e-01 4.131047e-01 3.675798e-01 3.637875e-01 3.667163e-01 4.504188e-01 1.838271e-01
<GCONST> 1.079711e+02
<TRANSP> 5
 0.000000e+00 1.000000e+00 0.000000e+00 0.000000e+00 0.000000e+00
 0.000000e+00 6.300638e-01 3.699362e-01 0.000000e+00 0.000000e+00
 0.000000e+00 0.000000e+00 6.597711e-01 3.402289e-01 0.000000e+00
 0.000000e+00 0.000000e+00 0.000000e+00 8.419564e-01 1.580437e-01
 0.000000e+00 0.000000e+00 0.000000e+00 0.000000e+00 0.000000e+00
<ENDHMM>
~h "ah"
<BEGINHMM>
<NUMSTATES> 5
<STATE> 2
<MEAN> 39
 5.999779e+00 -1.233995e+00 -3.987663e+00 -1.044640e+01 -4.392682e+00 -1.713768e+01 -1.037970e+01 -7.082997e+00 -3.261022e+00 -2.136456e+00 -4.025767e+00 -4.400683e+00 7.198164e+01 1.288711e+00 -1.274549e+00 -1.621944e+00 -1.242366e+00 -7.226351e-01 -1.911501e+00 3.678820e-01 1.382756e+00 -7.836187e-01 9.261053e-01 -2.028916e-01 3.543261e-01 1.534000e+00 -4.044128e-01 -2.267409e-01 8.262001e-03 4.104831e-01 3.668965e-01 4.898344e-01 4.807195e-01 1.755061e-01 -2.198563e-01 -2.522185e-01 -6.972493e-02 -9.709197e-02 -1.838481e-01
<VARIANCE> 39
 1.871914e+01 6.777610e+01 4.669607e+01 7.956369e+01 7.249509e+01 1.532665e+02 6.055159e+01 6.839687e+01 6.203193e+01 7.169796e+01 5.076612e+01 3.828956e+01 3.382853e+01 2.269636e+00 3.814225e+00 2.640155e+00 6.621259e+00 4.834994e+00 6.516237e+00 5.489774e+00 5.375739e+00 4.326759e+00 4.742782e+00 3.854796e+00 3.559993e+00 1.884691e+00 2.677498e-01 5.292770e-01 4.471757e-01 8.880093e-01 7.029272e-01 6.591113e-01 6.964080e-01 7.814407e-01 6.382880e-01 8.025663e-01 5.319677e-01 5.527324e-01 1.945952e-01
<GCONST> 1.345251e+02
<STATE> 3
<MEAN> 39
 7.830153e+00 -8.891897e+00 -9.047213e+00 -1.105911e+01 -5.063253e+00 -2.154238e+01 -4.462821e+00 -2.193995e+00 -8.366916e+00 -9.416047e-01 -7.542456e+00 -3.407659e+00 7.737263e+01 2.180160e-01 -3.561188e-01 -2.574346e-01 3.201301e-01 2.900275e-01 4.688417e-01 3.429802e-01 1.304667e-01 -6.525075e-01 -5.509482e-01 -1.972044e-01 -1.170350e-01 1.881664e-01 -4.899830e-02 2.646466e-01 1.235192e-01 3.056168e-01 1.408340e-01 4.207318e-01 -1.470919e-01 -1.760449e-01 3.106257e-01 -3.207008e-01 1.206567e-01 -1.320763e-01 -2.636356e-01
<VARIANCE> 39
 7.863740e+00 2.080699e+01 2.122866e+01 3.627494e+01 3.611397e+01 9.275932e+01 5.083833e+01 4.816785e+01 6.937430e+01 6.555795e+01 4.746385e+01 3.137406e+01 1.156116e+01 5.322959e-01 1.249575e+00 1.345222e+00 2.630499e+00 2.087482e+00 3.268844e+00 2.534888e+00 3.008307e+00 2.821434e+00 3.940404e+00 2.369741e+00 2.221478e+00 8.675581e-01 1.027019e-01 1.902831e-01 2.004251e-01 3.566065e-01 4.043840e-01 5.235369e-01 4.667517e-01 5.899719e-01 5.750356e-01 5.053422e-01 5.130944e-01 4.005487e-01 1.007714e-01
<GCONST> 1.117239e+02
<STATE> 4
<MEAN> 39
 9.146985e+00 -6.518560e+00 -1.030149e+01 -6.348973e+00 -1.041833e+00 -1.330870e+01 -6.085443e+00 -1.782152e+00 -5.728358e+00 -8.877366e+00 -4.768918e+00 -4.332538e+00 7.369907e+01 -1.463588e-01 6.324071e-01 -8.999681e-02 9.185733e-01 5.365102e-01 1.215583e+00 -1.090218e-01 -9.831877e-02 8.777469e-01 -7.019788e-01 2.103427e-01 -2.176929e-01 -8.849062e-01 -1.825308e-01 6.830959e-02 1.654143e-01 -1.647788e-01 2.402328e-02 -5.233584e-02 -4.797117e-02 -7.554643e-02 7.001995e-02 2.196571e-01 -4.208924e-02 -1.169455e-02 -3.613036e-02
<VARIANCE> 39
 1.045727e+01 2.438254e+01 2.190480e+01 4.858331e+01 5.125152e+01 4.315544e+01 4.569264e+01 3.809360e+01 6.457361e+01 3.013269e+01 3.786889e+01 3.792111e+01 1.915954e+01 5.616697e-01 5.837622e-01 1.139430e+00 3.398316e+00 2.129504e+00 1.452171e+00 2.321737e+00 1.906744e+00 2.691922e+00 1.832144e+00 2.259648e+00 1.651804e+00 4.795020e-01 6.288483e-02 8.838832e-02 1.684740e-01 3.610825e-01 3.062795e-01 2.323977e-01 3.848192e-01 4.016697e-01 4.191158e-01 3.102133e-01 3.490714e-01 3.341721e-01 6.075001e-02
<GCONST> 1.026895e+02
<TRANSP> 5
 0.000000e+00 1.000000e+00 0.000000e+00 0.000000e+00 0.000000e+00
 0.000000e+00 6.281455e-01 3.718546e-01 0.000000e+00 0.000000e+00
 0.000000e+00 0.000000e+00 8.077397e-01 1.922603e-01 0.000000e+00
 0.000000e+00 0.000000e+00 0.000000e+00 7.882671e-01 2.117328e-01
 0.000000e+00 0.000000e+00 0.000000e+00 0.000000e+00 0.000000e+00
<ENDHMM>
~h "ao"
<BEGINHMM>
<NUMSTATES> 5
<STATE> 2
<MEAN> 39
 5.349477e+00 2.475769e+00 -5.016071e-02 -1.146837e+01 -1.056651e+01 -2.346618e+01 -1.229877e+01 -6.447848e+00 -2.600792e+00 -6.502364e-01 -3.510480e+00 -7.296134e+00 7.027071e+01 2.120508e+00 -1.680969e-02 -1.422853e+00 -2.572736e-02 -1.448697e+00 -2.503955e+00 -1.657310e+00 8.405649e-01 2.456061e-01 1.905389e+00 -1.194300e-01 -9.307314e-02 3.618321e-01 -7.249520e-01 -5.060669e-01 -3.060013e-01 3.432040e-01 8.265955e-01 3.947783e-01 5.864053e-01 3.238363e-01 -5.260399e-02 -2.061709e-01 1.274499e-02 1.939901e-01 -3.684971e-02
<VARIANCE> 39
 1.365549e+01 4.919257e+01 2.841869e+01 3.679071e+01 4.638633e+01 6.324482e+01 3.685925e+01 3.530271e+01 4.530925e+01 5.290194e+01 2.322667e+01 2.342664e+01 2.556783e+01 2.464257e+00 3.825473e+00 3.823495e+00 2.795523e+00 5.098315e+00 5.448321e+00 4.075103e+00 3.789914e+00 2.629384e+00 4.188844e+00 3.011139e+00 2.300341e+00 9.306681e-01 4.522602e-01 4.823083e-01 5.164179e-01 5.214639e-01 5.860258e-01 8.525289e-01 5.084487e-01 4.206958e-01 4.714808e-01 8.135588e-01 3.130931e-01 2.668222e-01 1.640398e-01
<GCONST> 1.222348e+02
<STATE> 3
<MEAN> 39
 9.903725e+00 1.593630e-01 -6.566233e+00 -8.821965e+00 -7.559629e+00 -2.990779e+01 -1.503722e+01 -1.037075e+00 -2.503099e+00 4.402417e+00 -4.173662e+00 -6.070162e+00 7.236416e+01 3.214012e-01 -5.327760e-01 -7.773846e-01 -5.981057e-02 5.582137e-01 -1.241534e-01 3.512150e-01 8.121483e-01 5.527128e-02 -6.718077e-02 -5.990830e-01 3.607057e-01 4.019685e-01 -1.462927e-01 -3.166600e-02 1.580385e-01 -1.098022e-01 1.076734e-01 5.076932e-01 2.145313e-01 -1.662662e-01 -2.192771e-02 -3.314055e-01 -1.574396e-01 -2.950787e-02 2.082198e-03
<VARIANCE> 39
 4.460458e+00 2.644660e+01 2.061748e+01 2.768242e+01 3.062237e+01 5.512421e+01 4.475643e+01 4.577260e+01 5.378446e+01 5.292896e+01 3.783164e+01 2.164737e+01 7.932460e+00 2.518857e-01 1.074801e+00 1.292378e+00 1.755533e+00 1.867923e+00 3.206958e+00 1.884719e+00 1.981443e+00 1.949474e+00 3.413404e+00 1.612865e+00 1.426827e+00 3.063830e-01 6.358989e-02 1.060740e-01 1.822826e-01 2.274043e-01 3.439834e-01 2.800861e-01 2.782301e-01 3.561215e-01 2.886543e-01 3.780377e-01 2.666266e-01 2.187566e-01 2.638174e-02
<GCONST> 9.722404e+01
<STATE> 4
<MEAN> 39
 9.197892e+00 -4.825638e+00 -9.900547e+00 -1.092686e+01 -4.583157e+00 -1.891611e+01 -7.803086e+00 -6.961006e-01 -3.237236e+00 -3.508217e+00 -9.171103e+00 -3.345121e+00 7.387360e+01 -3.131948e-01 -1.690353e-01 -1.142129e-01 3.992044e-01 5.333572e-01 1.823600e+00 5.614876e-01 -3.255586e-01 -1.381863e-01 -1.161539e+00 -3.799511e-02 -2.281798e-01 -3.268161e-01 -9.182695e-02 1.105092e-01 7.489267e-02 1.579636e-01 2.082289e-02 -7.482199e-02 -8.490131e-02 -1.081242e-01 -4.666167e-03 6.418952e-02 1.556529e-01 -7.969216e-02 -1.066251e-01
<VARIANCE> 39
 1.441644e+01 2.407109e+01 3.792590e+01 2.800395e+01 4.736983e+01 8.309287e+01 4.789075e+01 3.636391e+01 6.084583e+01 7.632992e+01 5.232335e+01 3.167704e+01 2.168222e+01 5.007374e-01 9.157271e-01 8.867167e-01 1.565246e+00 2.507596e+00 2.880397e+00 2.105949e+00 2.234337e+00 3.185663e+00 3.745533e+00 2.447079e+00 1.861857e+00 6.263850e-01 5.004082e-02 9.612108e-02 1.445265e-01 2.211794e-01 3.077811e-01 4.199176e-01 3.074241e-01 3.424913e-01 5.728757e-01 6.325805e-01 3.956024e-01 3.441425e-01 5.646093e-02
<GCONST> 1.068094e+02
<TRANSP> 5
 0.000000e+00 1.000000e+00 0.000000e+00 0.000000e+00 0.000000e+00
 0.000000e+00 6.765290e-01 3.234710e-01 0.000000e+00 0.000000e+00
 0.000000e+00 0.000000e+00 8.464698e-01 1.535301e-01 0.000000e+00
 0.000000e+00 0.000000e+00 0.000000e+00 8.708801e-01 1.291198e-01
 0.000000e+00 0.000000e+00 0.000000e+00 0.000000e+00 0.000000e+00
<ENDHMM>
~h "aw"
<BEGINHMM>
<NUMSTATES> 5
<STATE> 2
<MEAN> 39
 1.914625e+00 -1.867988e+00 -4.583832e+00 -7.196364e+00 -5.429971e+00 -1.640984e+01 -5.099879e+00 -4.980848e+00 -1.490718e+00 -1.343311e+00 -7.464943e+00 -6.166282e+00 6.871185e+01 2.016690e+00 -6.959728e-01 -1.697167e+00 -1.909981e+00 -1.745266e+00 -3.413973e+00 -2.905393e-01 1.255219e+00 8.478296e-01 3.031031e+00 -1.449302e+00 2.656950e-01 2.112647e+00 -2.091713e-01 -2.206773e-01 -8.949886e-02 2.085769e-01 5.009020e-01 2.544736e-01 2.161401e-01 1.433222e-01 -1.986635e-01 1.367774e-01 3.709175e-02 -3.614205e-02 1.091861e-01
<VARIANCE> 39
 5.707840e+01 3.377593e+01 4.112852e+01 1.073608e+02 9.121056e+01 1.210560e+02 6.008041e+01 5.083382e+01 7.039233e+01 8.270348e+01 4.679232e+01 2.870741e+01 5.332367e+01 3.962527e+00 2.621212e+00 3.297050e+00 5.736091e+00 7.911772e+00 7.916698e+00 6.928087e+00 4.964252e+00 8.174248e+00 5.417247e+00 4.105621e+00 3.651827e+00 3.242129e+00 8.787904e-01 4.989022e-01 6.417377e-01 1.094861e+00 1.702484e+00 1.420418e+00 1.218562e+00 6.135224e-01 1.163640e+00 1.207991e+00 7.129383e-01 7.597806e-01 6.849749e-01
<GCONST> 1.442101e+02
<STATE> 3
<MEAN> 39
 5.227463e+00 -5.446219e+00 -6.176965e+00 -1.519636e+01 -7.696926e+00 -2.490067e+01 -2.073929e+00 -4.932901e+00 -9.113814e-01 1.260977e+01 -1.467285e+01 -5.634779e+00 7.690989e+01 5.185065e-01 -2.035339e-01 1.853064e-02 -2.284029e-02 -2.068826e-02 -7.220862e-01 -5.228364e-01 1.744992e-01 -3.769681e-01 8.729507e-01 -2.855971e-01 7.386266e-02 3.247792e-01 -6.128330e-02 1.222437e-01 1.568556e-01 2.386638e-01 5.140378e-02 3.159365e-01 -2.611873e-02 -4.112688e-02 -8.420255e-02 -5.605535e-01 1.857601e-01 6.853846e-02 -1.954175e-01
<VARIANCE> 39
 1.206260e+01 2.588934e+01 1.556725e+01 2.386534e+01 2.662765e+01 5.054356e+01 6.416278e+01 5.458669e+01 3.699956e+01 6.586782e+01 4.370643e+01 3.660278e+01 1.689372e+01 6.674843e-01 1.124123e+00 1.521266e+00 2.449611e+00 1.901783e+00 2.479465e+00 2.522382e+00 1.856593e+00 1.956583e+00 3.017301e+00 1.950512e+00 2.347082e+00 5.565552e-01 1.528345e-01 1.524992e-01 2.092943e-01 3.636924e-01 3.804255e-01 5.379927e-01 5.567359e-01 3.723177e-01 3.540858e-01 4.684949e-01 4.749614e-01 3.920055e-01 9.042550e-02
<GCONST> 1.081665e+02
<STATE> 4
<MEAN> 39
 8.816607e+00 -2.470471e+00 -7.410093e+00 -9.733289e+00 -5.979527e+00 -2.203109e+01 -9.325347e+00 7.538792e-01 -1.050008e+00 -1.946568e-03 -1.006656e+01 -6.132073e+00 7.331849e+01 -9.545358e-02 1.232211e-01 -1.442743e-01 4.730164e-01 2.541491e-01 9.477196e-01 3.371870e-02 2.746589e-01 2.800711e-01 -1.371994e+00 1.704360e-01 -1.241312e-01 -4.399765e-01 -1.063707e-01 -6.044416e-03 2.302172e-02 -3.570195e-02 5.987207e-04 1.115680e-01 9.837945e-02 -5.931403e-02 1.391737e-02 1.444443e-02 3.361587e-02 -3.601748e-02 -4.631146e-02
<VARIANCE> 39
 9.605417e+00 2.843854e+01 1.992340e+01 3.182059e+01 3.006419e+01 9.468382e+01 5.058807e+01 3.533433e+01 4.259492e+01 7.290643e+01 2.759967e+01 2.869065e+01 1.577583e+01 4.129620e-01 1.230168e+00 1.003358e+00 1.510815e+00 1.620791e+00 2.961975e+00 2.188526e+00 2.016600e+00 2.358719e+00 3.093488e+00 1.840621e+00 1.780147e+00 5.400663e-01 5.390009e-02 1.857532e-01 1.945418e-01 2.857893e-01 2.779031e-01 5.362114e-01 3.140663e-01 3.157361e-01 4.310780e-01 5.952912e-01 3.360141e-01 3.250303e-01 6.195541e-02
<GCONST> 1.039416e+02
<TRANSP> 5
 0.000000e+00 1.000000e+00 0.000000e+00 0.000000e+00 0.000000e+00
 0.000000e+00 6.543543e-01 3.456457e-01 0.000000e+00 0.000000e+00
 0.000000e+00 0.000000e+00 8.065954e-01 1.934046e-01 0.000000e+00
 0.000000e+00 0.000000e+00 0.000000e+00 9.215663e-01 7.843365e-02
 0.000000e+00 0.000000e+00 0.000000e+00 0.000000e+00 0.000000e+00
<ENDHMM>
~h "ax"
<BEGINHMM>
<NUMSTATES> 5
<STATE> 2
<MEAN> 39
 -1.290244e+00 -3.033226e+00 2.270002e-01 -5.187181e+00 -1.297657e+00 -9.315809e+00 -7.735689e+00 -7.644555e+00 -4.499251e+00 -6.740887e+00 -3.723736e+00 -4.919998e+00 6.686634e+01 1.394550e+00 -1.647280e-01 -2.121048e-01 -1.721049e-01 -1.102982e-01 -8.060222e-01 -8.374752e-01 -1.736862e-01 -2.562699e-01 1.429916e-01 -3.731393e-01 -2.098747e-01 1.200382e+00 -8.604319e-02 -1.538338e-01 -1.986442e-01 5.876588e-02 1.997064e-01 1.732384e-01 2.921275e-01 2.229089e-02 -1.433383e-01 -1.242788e-01 -3.924338e-02 -2.648613e-02 5.610406e-02
<VARIANCE> 39
 8.244868e+01 7.148997e+01 7.016051e+01 6.698158e+01 9.954450e+01 1.090172e+02 6.988013e+01 7.099885e+01 9.186539e+01 5.040978e+01 3.907390e+01 3.338133e+01 7.585081e+01 5.390278e+00 5.657264e+00 4.334620e+00 4.057745e+00 6.106936e+00 5.573626e+00 4.696187e+00 5.344926e+00 6.291592e+00 2.901484e+00 3.060418e+00 3.407870e+00 4.113070e+00 7.500098e-01 9.487004e-01 7.422606e-01 6.112204e-01 8.202891e-01 8.913496e-01 9.090207e-01 8.254907e-01 1.005340e+00 5.270285e-01 5.399531e-01 5.161163e-01 5.514278e-01
<GCONST> 1.420178e+02
<STATE> 3
<MEAN> 39
 6.380103e+00 -5.312573e+00 -4.453505e+00 -7.377972e+00 -1.136247e+00 -1.454102e+01 -8.857936e+00 -5.960827e+00 -8.001226e+00 -5.983114e+00 -5.529475e+00 -3.963441e+00 7.374277e+01 1.795940e-01 -3.259136e-01 -5.376973e-01 3.338919e-02 1.483177e-01 5.696222e-01 5.966326e-01 1.882488e-01 -4.265792e-01 -3.882020e-01 -1.866339e-01 -2.133058e-01 1.506195e-01 -4.122012e-01 1.539033e-01 1.943574e-01 4.421465e-02 1.102866e-01 3.641931e-01 2.519744e-01 -1.639059e-03 3.096502e-01 -8.891195e-02 1.727557e-01 -7.485072e-02 -2.263075e-01
<VARIANCE> 39
 2.956599e+01 3.280892e+01 5.103554e+01 5.280542e+01 7.779848e+01 1.680033e+02 4.780969e+01 6.971388e+01 7.788907e+01 7.127660e+01 4.238277e+01 5.142136e+01 2.623510e+01 1.606157e+00 1.957586e+00 3.133419e+00 2.966626e+00 2.971564e+00 4.211962e+00 3.589836e+00 3.394341e+00 4.083417e+00 3.434987e+00 2.569903e+00 2.837139e+00 9.645637e-01 2.976179e-01 3.120430e-01 3.900144e-01 5.347871e-01 4.651439e-01 6.047960e-01 6.356079e-01 6.111147e-01 9.090403e-01 6.159045e-01 5.267678e-01 5.236816e-01 1.594474e-01
<GCONST> 1.267512e+02
<STATE> 4
<MEAN> 39
 2.493685e+00 -3.535416e+00 -3.038738e+00 -3.921576e+00 9.923415e-01 -5.744011e+00 -4.384404e+00 -7.127833e+00 -8.479057e+00 -9.222686e+00 -3.894048e+00 -5.834340e+00 6.877005e+01 -7.132694e-01 6.235501e-01 -8.116786e-02 2.951382e-01 4.029026e-01 8.244656e-01 8.160475e-01 2.223017e-01 7.424717e-01 -4.056244e-02 3.707228e-01 2.967108e-03 -7.778958e-01 -2.916405e-01 -3.538905e-03 2.224250e-01 -1.174420e-01 9.181627e-02 -1.747663e-01 -8.748689e-02 -4.308572e-03 1.904440e-01 1.206465e-01 2.653039e-02 5.653024e-02 6.261048e-02
<VARIANCE> 39
 5.246079e+01 4.359048e+01 5.858286e+01 6.286406e+01 8.569475e+01 7.786685e+01 5.156829e+01 4.858253e+01 6.801266e+01 4.585498e+01 3.330840e+01 3.961055e+01 4.938340e+01 2.105719e+00 1.315568e+00 3.221480e+00 3.089826e+00 2.030632e+00 2.862837e+00 2.574080e+00 2.318153e+00 3.061695e+00 2.356111e+00 2.086892e+00 2.097323e+00 8.133140e-01 3.104628e-01 2.423976e-01 2.956001e-01 3.917195e-01 3.864938e-01 4.671327e-01 4.977225e-01 3.790546e-01 4.489394e-01 4.093902e-01 3.389833e-01 4.129030e-01 1.391167e-01
<GCONST> 1.197390e+02
<TRANSP> 5
 0.000000e+00 1.000000e+00 0.000000e+00 0.000000e+00 0.000000e+00
 0.000000e+00 4.828846e-01 5.171155e-01 0.000000e+00 0.000000e+00
 0.000000e+00 0.000000e+00 6.071312e-01 3.928688e-01 0.000000e+00
 0.000000e+00 0.000000e+00 0.000000e+00 5.895619e-01 4.104381e-01
 0.000000e+00 0.000000e+00 0.000000e+00 0.000000e+00 0.000000e+00
<ENDHMM>
~h "ay"
<BEGINHMM>
<NUMSTATES> 5
<STATE> 2
<MEAN> 39
 5.595840e+00 -3.753587e+00 -8.660843e+00 -1.210346e+01 -6.992279e+00 -1.955569e+01 -4.960431e+00 -5.562973e+00 -6.814629e-01 -1.440976e+00 -7.716889e+00 -4.646441e+00 7.359599e+01 5.267814e-01 -2.008133e+00 -1.352535e+00 -1.056740e+00 -7.555329e-01 -1.138971e+00 9.463325e-01 2.214460e-01 -4.296673e-01 8.835667e-01 -7.781906e-01 1.380338e+00 1.893798e+00 -4.420099e-01 -1.608042e-01 3.054793e-01 4.442704e-01 4.561036e-01 8.678364e-01 1.237663e-01 -2.455425e-01 -2.302474e-01 -2.371617e-01 9.271645e-02 1.697275e-01 -1.950171e-01
<VARIANCE> 39
 2.757448e+01 5.040174e+01 4.453975e+01 5.790606e+01 5.226572e+01 7.255619e+01 6.045374e+01 3.951085e+01 6.154655e+01 5.615705e+01 3.483927e+01 3.664277e+01 3.895833e+01 2.776603e+00 2.816188e+00 3.354482e+00 6.362801e+00 4.703292e+00 6.926792e+00 5.560150e+00 4.771311e+00 3.644162e+00 5.938495e+00 3.518437e+00 3.675637e+00 2.757503e+00 3.084595e-01 6.020303e-01 4.824629e-01 9.833571e-01 8.441707e-01 8.991891e-01 1.015117e+00 7.683992e-01 6.552837e-01 7.577866e-01 6.531743e-01 5.828234e-01 2.764238e-01
<GCONST> 1.343738e+02
<STATE> 3
<MEAN> 39
 5.984954e+00 -1.245848e+01 -9.903211e+00 -1.192797e+01 -6.003762e+00 -1.475989e+01 -3.342146e+00 -8.362398e+00 -5.002817e+00 -1.528339e+00 -8.730178e+00 2.166936e+00 7.970625e+01 -3.756506e-02 -8.269899e-01 2.740771e-01 6.510195e-01 6.043518e-01 1.871253e+00 -1.010038e+00 -1.268749e+00 -7.798914e-01 -1.253922e+00 1.028986e+00 1.002100e+00 4.387517e-01 1.302368e-02 3.325864e-01 1.423928e-01 2.722680e-01 2.258845e-01 1.463111e-02 -3.403998e-01 -2.457428e-01 4.540854e-02 -2.638933e-01 3.126955e-01 -3.340002e-01 -1.851606e-01
<VARIANCE> 39
 1.269530e+01 2.193250e+01 2.217566e+01 2.185347e+01 4.205608e+01 6.498508e+01 4.468773e+01 3.682488e+01 5.272276e+01 5.666817e+01 3.671595e+01 3.778245e+01 1.343857e+01 3.416533e-01 8.973595e-01 1.183720e+00 1.906364e+00 1.957103e+00 2.476232e+00 3.899859e+00 2.520121e+00 2.265742e+00 3.471748e+00 3.048228e+00 2.714496e+00 2.065519e-01 5.702681e-02 1.149835e-01 2.157971e-01 2.601738e-01 2.699718e-01 6.298594e-01 6.269749e-01 4.266669e-01 4.423662e-01 6.428003e-01 4.783041e-01 5.454971e-01 3.659552e-02
<GCONST> 1.058316e+02
<STATE> 4
<MEAN> 39
 6.123021e+00 -1.220966e+01 -8.121684e+00 -3.650967e+00 2.218968e+00 -8.573363e+00 -8.693643e+00 -1.626358e+01 -8.927999e+00 -8.979856e+00 -1.786817e+00 2.866760e+00 7.735114e+01 -2.258757e-01 5.259569e-01 -9.426718e-02 7.783163e-01 9.920993e-01 2.788601e-01 1.628863e-01 -1.277809e-01 -3.408312e-01 -1.269495e-01 4.202009e-01 -5.552362e-01 -8.425063e-01 -9.757887e-02 8.636572e-02 -2.531077e-02 -1.502480e-01 -7.290422e-02 -7.896344e-02 1.900524e-01 2.986811e-01 6.944666e-02 1.904657e-01 -1.441511e-01 -8.856025e-02 -1.023513e-01
<VARIANCE> 39
 1.154585e+01 1.604691e+01 2.335549e+01 2.957101e+01 4.794795e+01 2.984216e+01 2.980883e+01 4.408118e+01 3.437716e+01 3.401506e+01 2.642932e+01 2.731655e+01 2.076603e+01 4.024472e-01 4.892787e-01 1.399075e+00 1.392426e+00 2.374079e+00 1.772841e+00 2.391324e+00 3.080929e+00 2.428176e+00 2.353330e+00 2.041711e+00 1.650433e+00 5.452499e-01 7.887733e-02 1.035874e-01 2.437704e-01 2.127286e-01 3.945418e-01 4.088760e-01 5.310401e-01 5.030997e-01 4.998314e-01 4.715929e-01 5.174477e-01 2.935232e-01 8.039640e-02
<GCONST> 1.026292e+02
<TRANSP> 5
 0.000000e+00 1.000000e+00 0.000000e+00 0.000000e+00 0.000000e+00
 0.000000e+00 7.108425e-01 2.891575e-01 0.000000e+00 0.000000e+00
 0.000000e+00 0.000000e+00 8.048788e-01 1.951212e-01 0.000000e+00
 0.000000e+00 0.000000e+00 0.000000e+00 8.616775e-01 1.383225e-01
 0.000000e+00 0.000000e+00 0.000000e+00 0.000000e+00 0.000000e+00
<ENDHMM>
~h "ch"
<BEGINHMM>
<NUMSTATES> 5
<STATE> 2
<MEAN> 39
 9.255632e-01 -4.219004e+00 1.378457e-01 -3.814603e-01 5.519680e-01 -2.341353e+00 -4.225370e+00 -6.733302e+00 -7.253328e+00 -1.064258e+01 -2.765428e+00 -4.942576e+00 6.698009e+01 -1.496938e+00 -2.795424e+00 2.043167e+00 5.840151e-02 2.079069e-01 -2.553439e-01 -7.832160e-01 1.295936e+00 -7.336661e-03 -6.583059e-01 -1.846097e-01 -1.687673e-01 1.060770e+00 -6.769791e-01 -7.159967e-01 6.482278e-01 -2.300286e-01 3.087546e-01 -1.322540e-01 -1.844545e-01 -1.298722e-02 9.974068e-02 1.418908e-01 -1.434199e-01 2.051478e-02 4.393325e-01
<VARIANCE> 39
 3.960981e+01 9.191312e+01 9.119701e+01 6.408961e+01 7.374143e+01 7.040574e+01 3.924224e+01 7.243929e+01 7.611777e+01 5.459166e+01 3.278586e+01 5.628476e+01 2.461942e+01 6.728756e+00 7.151529e+00 1.411454e+01 4.943120e+00 5.418285e+00 5.938187e+00 4.137888e+00 8.001700e+00 6.224997e+00 4.339736e+00 3.406100e+00 5.160102e+00 1.982045e+00 1.851589e-01 7.012572e-01 1.530895e+00 9.899560e-01 1.161063e+00 9.680088e-01 1.017745e+00 1.139661e+00 7.103587e-01 7.216056e-01 5.507764e-01 1.204058e+00 3.749430e-01
<GCONST> 1.426304e+02
<STATE> 3
<MEAN> 39
 -1.563913e+01 -2.343153e+01 1.590628e+01 -1.079079e+00 6.315675e+00 -7.116158e+00 -8.905671e+00 -9.783995e-01 -4.427203e+00 -1.180993e+01 -3.308513e+00 -2.870230e+00 7.604935e+01 -3.407104e+00 -1.953578e+00 1.543281e+00 -3.791462e-01 8.828851e-01 -1.174803e+00 5.495287e-02 -5.037082e-01 1.039685e+00 2.217294e-01 -1.342548e-01 -6.691061e-02 1.567106e+00 6.461877e-01 7.472544e-01 -1.085628e+00 2.877136e-01 -7.114617e-02 1.555217e-01 2.500845e-01 -6.263738e-01 -3.011676e-01 -8.957516e-02 3.064642e-01 1.084444e-01 -3.548006e-01
<VARIANCE> 39
 4.713130e+01 2.173254e+01 4.055610e+01 7.480270e+01 5.791618e+01 4.205301e+01 1.681607e+01 3.920725e+01 7.938972e+01 4.254705e+01 4.200817e+01 2.021565e+01 1.672163e+01 2.524739e+00 3.180439e+00 9.614244e+00 4.006824e+00 3.263607e+00 3.005751e+00 1.717447e+00 3.672978e+00 4.254126e+00 2.450504e+00 3.498283e+00 2.561756e+00 1.356352e+00 5.041916e-01 2.947360e-01 1.108594e+00 7.435412e-01 6.169961e-01 7.326764e-01 2.817459e-01 4.605502e-01 8.797732e-01 4.357934e-01 6.436360e-01 4.002646e-01 2.463827e-01
<GCONST> 1.246516e+02
<STATE> 4
<MEAN> 39
 -1.694073e+01 -2.361665e+01 1.485841e+01 1.182539e+00 4.596876e+00 -7.878778e+00 -8.682898e+00 -7.499771e+00 -7.283655e+00 -1.227516e+01 4.879457e-01 -2.510494e+00 7.543003e+01 2.020392e+00 9.608891e-01 -5.287293e-01 2.115628e-01 -9.455930e-01 3.050219e-01 -3.636399e-01 -6.863639e-01 -7.772693e-01 1.691932e-02 2.738770e-01 7.125150e-02 -5.374143e-01 4.365527e-01 2.847357e-01 -2.116334e-01 -7.390027e-02 -1.756482e-01 -1.058573e-02 -2.670993e-02 7.381843e-03 1.231479e-02 7.962428e-02 -1.328660e-01 -4.705766e-02 -2.223801e-02
<VARIANCE> 39
 7.263508e+01 3.316697e+01 2.802395e+01 5.264379e+01 5.008622e+01 4.583575e+01 1.972070e+01 4.704922e+01 4.170555e+01 2.820326e+01 2.611555e+01 1.787961e+01 3.925743e+01 5.196236e+00 3.670093e+00 3.361924e+00 2.675406e+00 3.996871e+00 3.395561e+00 2.562674e+00 2.986610e+00 3.919244e+00 1.736051e+00 1.801534e+00 9.872772e-01 1.238209e+00 7.519888e-01 5.511302e-01 5.911362e-01 4.849530e-01 5.792266e-01 6.371090e-01 4.786361e-01 5.310571e-01 8.220599e-01 2.785465e-01 3.678992e-01 2.341293e-01 2.035614e-01
<GCONST> 1.206993e+02
<TRANSP> 5
 0.000000e+00 1.000000e+00 0.000000e+00 0.000000e+00 0.000000e+00
 0.000000e+00 7.514910e-01 2.485091e-01 0.000000e+00 0.000000e+00
 0.000000e+00 0.000000e+00 7.654367e-01 2.345633e-01 0.000000e+00
 0.000000e+00 0.000000e+00 0.000000e+00 8.785459e-01 1.214540e-01
 0.000000e+00 0.000000e+00 0.000000e+00 0.000000e+00 0.000000e+00
<ENDHMM>
~h "dh"
<BEGINHMM>
<NUMSTATES> 5
<STATE> 2
<MEAN> 39
 -1.575824e+00 -7.706820e+00 4.068560e+00 -4.415145e+00 1.238854e+00 -3.684297e+00 -9.989928e+00 -1.476066e+01 -7.843381e+00 -7.044137e+00 -3.949955e+00 -7.141327e+00 7.102180e+01 1.742375e+00 -4.320538e-01 -1.712782e-01 3.251709e-02 8.058653e-01 -2.214925e-01 -8.531123e-01 -1.762420e+00 -1.714757e+00 -3.819224e-01 -1.880283e-01 1.733167e-01 1.399902e+00 -8.544840e-02 1.971638e-01 -6.956751e-01 2.050590e-01 1.546150e-01 -2.100931e-01 3.809987e-01 4.684711e-01 7.618964e-04 -4.384443e-02 1.541322e-01 2.170457e-01 -3.856476e-01
<VARIANCE> 39
 4.955635e+01 2.599468e+01 5.986805e+01 5.674393e+01 5.707344e+01 7.567639e+01 6.049899e+01 6.965652e+01 7.555605e+01 4.734884e+01 3.977761e+01 2.861659e+01 2.769750e+01 4.715693e+00 3.251821e+00 6.476641e+00 5.904733e+00 5.738348e+00 6.293251e+00 5.342320e+00 5.683448e+00 5.980175e+00 3.755764e+00 3.029091e+00 2.671694e+00 4.885734e+00 8.400851e-01 5.335239e-01 8.391496e-01 8.664752e-01 8.915126e-01 8.690302e-01 1.094609e+00 1.182986e+00 1.396517e+00 7.579527e-01 5.774949e-01 5.393393e-01 4.830700e-01
<GCONST> 1.394347e+02
<STATE> 3
<MEAN> 39
 2.935704e+00 -7.840772e+00 -3.529060e+00 -3.820757e+00 3.613641e+00 -6.136495e+00 -8.124826e+00 -1.230096e+01 -1.173826e+01 -8.768728e+00 -2.646896e+00 -4.449061e+00 7.205544e+01 9.646136e-02 1.951147e-01 -1.081438e+00 3.750187e-01 1.378956e-01 2.786695e-01 6.286587e-01 5.379266e-01 7.501136e-02 -9.661857e-03 3.556965e-01 5.054660e-01 -5.729676e-01 -2.891997e-01 1.086560e-01 1.193703e-01 6.944178e-03 -7.197867e-02 1.008884e-01 1.430517e-01 2.304259e-01 3.530129e-01 7.721750e-02 8.453860e-02 2.413283e-03 -1.757279e-01
<VARIANCE> 39
 4.410069e+01 3.121642e+01 4.061790e+01 6.201739e+01 4.913374e+01 8.083879e+01 5.061609e+01 7.095018e+01 5.187868e+01 3.757341e+01 2.609340e+01 3.110499e+01 4.157977e+01 7.348047e-01 1.444885e+00 1.752065e+00 1.831198e+00 2.209025e+00 3.658249e+00 3.186227e+00 2.818733e+00 2.292902e+00 2.204484e+00 2.114142e+00 1.827136e+00 1.252663e+00 1.429729e-01 2.006181e-01 2.483220e-01 3.370626e-01 3.484740e-01 4.843261e-01 5.055660e-01 5.984751e-01 4.083649e-01 3.601246e-01 3.742251e-01 3.589080e-01 9.313225e-02
<GCONST> 1.146138e+02
<STATE> 4
<MEAN> 39
 -1.005009e+01 -6.949994e+00 -6.502313e+00 -2.177326e+00 1.223774e+00 -2.240572e+00 -2.447190e+00 -7.614975e+00 -5.375049e+00 -7.932923e+00 -6.893537e-01 -1.002195e+00 5.731886e+01 -3.547662e-01 2.516524e-01 -1.495670e-01 5.135320e-02 3.241248e-02 -6.955824e-02 2.160112e-01 3.559453e-01 3.621579e-01 1.350982e-01 -4.466712e-02 2.463367e-02 -4.980668e-01 -2.806797e-02 -1.271103e-02 1.399840e-01 -3.293094e-02 -3.116783e-02 -1.063434e-02 -8.145918e-02 -4.874162e-02 5.118518e-02 2.124718e-02 -4.201791e-02 -6.665534e-02 6.866435e-02
<VARIANCE> 39
 7.797832e+01 2.409027e+01 3.355942e+01 2.985157e+01 2.388426e+01 2.773792e+01 3.624987e+01 4.004203e+01 3.732010e+01 2.783100e+01 1.741043e+01 2.193651e+01 8.121058e+01 3.568196e-01 5.858252e-01 9.800468e-01 1.015928e+00 9.901938e-01 1.269749e+00 1.470174e+00 1.347127e+00 1.591329e+00 1.268211e+00 1.111294e+00 1.271137e+00 3.968495e-01 9.093604e-02 1.088909e-01 1.438586e-01 1.777560e-01 2.077425e-01 3.181361e-01 3.299948e-01 2.873047e-01 2.856426e-01 2.526747e-01 2.039402e-01 2.015155e-01 7.782742e-02
<GCONST> 9.492780e+01
<TRANSP> 5
 0.000000e+00 1.000000e+00 0.000000e+00 0.000000e+00 0.000000e+00
 0.000000e+00 6.409972e-01 3.590028e-01 0.000000e+00 0.000000e+00
 0.000000e+00 0.000000e+00 6.733852e-01 3.266148e-01 0.000000e+00
 0.000000e+00 0.000000e+00 0.000000e+00 7.678494e-01 2.321506e-01
 0.000000e+00 0.000000e+00 0.000000e+00 0.000000e+00 0.000000e+00
<ENDHMM>
~h "ea"
<BEGINHMM>
<NUMSTATES> 5
<STATE> 2
<MEAN> 39
 3.780266e+00 -9.770134e+00 -9.998239e+00 1.641109e+00 7.976235e+00 -1.786333e+01 -8.925823e+00 -2.290117e+01 -8.032426e+00 -7.963383e+00 -9.373174e-01 3.249101e-01 7.982655e+01 -1.209408e-01 -3.869018e-01 -6.726854e-01 1.334926e-01 -8.175595e-01 1.867507e-01 8.520523e-01 -7.572786e-01 5.688605e-01 -6.202053e-02 6.172368e-01 8.420061e-01 5.162060e-01 1.126976e-01 1.703159e-02 1.001484e-01 -2.768086e-01 -1.584407e-01 4.531277e-01 -8.761641e-02 4.306827e-01 -1.184228e-01 7.484094e-02 -1.793334e-01 -7.786596e-02 -2.370866e-01
<VARIANCE> 39
 6.040020e+00 1.139395e+01 3.653913e+01 3.307684e+01 1.263943e+01 3.156794e+01 2.822311e+01 3.373597e+01 2.813562e+01 2.246545e+01 2.952185e+01 6.010147e+01 1.377426e+01 9.073163e-01 7.139930e-01 1.027599e+00 2.689070e+00 2.250352e+00 2.004760e+00 2.112713e+00 4.353885e+00 1.674788e+00 2.644285e+00 2.125648e+00 2.676118e+00 5.883952e-01 1.101208e-01 1.605999e-01 1.014456e-01 2.054511e-01 2.459493e-01 2.031161e-01 4.506031e-01 9.081486e-01 3.684016e-01 3.378692e-01 5.055739e-01 5.943488e-01 3.037857e-02
<GCONST> 1.008347e+02
<STATE> 3
<MEAN> 39
 5.867947e+00 -1.242435e+01 -1.079231e+01 -1.679833e+00 3.922009e+00 -1.575527e+01 -7.422113e+00 -1.756104e+01 -1.221883e+01 -4.776148e+00 -1.284589e-01 3.989946e+00 7.935720e+01 4.351566e-01 -6.674880e-02 -1.815871e-01 -7.257966e-01 -1.701533e-01 2.688312e-01 4.403200e-01 1.338008e+00 -8.204349e-01 3.133371e-01 -6.625104e-01 7.681088e-02 -1.383732e-01 -1.361445e-02 1.694278e-01 8.525229e-02 -2.123780e-02 1.798993e-01 -3.440354e-02 1.037050e-03 1.343992e-01 -1.057373e-01 2.857830e-02 -1.745420e-01 -2.650552e-01 -9.599857e-02
<VARIANCE> 39
 7.387936e+00 1.439790e+01 2.467866e+01 2.941977e+01 6.269385e+01 3.993799e+01 2.330739e+01 3.568117e+01 8.451219e+01 2.302427e+01 3.944693e+01 5.470407e+01 1.671061e+01 4.207379e-01 6.920281e-01 9.713475e-01 1.498497e+00 2.053232e+00 1.443770e+00 1.864148e+00 2.949228e+00 2.888758e+00 2.193974e+00 2.536815e+00 2.110602e+00 2.580819e-01 4.813964e-02 8.586040e-02 8.551517e-02 1.730173e-01 2.908580e-01 2.017059e-01 3.176588e-01 4.204149e-01 5.356565e-01 3.064158e-01 3.834260e-01 3.594516e-01 2.758779e-02
<GCONST> 9.771909e+01
<STATE> 4
<MEAN> 39
 8.275388e+00 -8.118386e+00 -1.331301e+01 -6.495865e+00 8.858333e-01 -1.175310e+01 -6.154871e+00 -9.184634e+00 -1.209438e+01 -4.738647e+00 -2.898709e+00 5.538967e-01 7.402218e+01 -9.680232e-02 9.968429e-01 -7.670186e-02 9.692881e-02 4.690399e-02 4.454676e-01 -7.256006e-02 1.266338e-01 3.152145e-01 -5.708818e-01 3.022328e-01 -6.118360e-01 -1.083233e+00 -1.444502e-01 1.913527e-02 1.213261e-01 1.088699e-01 -2.892704e-02 5.329357e-02 -3.966552e-02 -2.714266e-01 1.779893e-01 -1.128358e-01 1.717742e-01 6.779940e-02 -3.704368e-03
<VARIANCE> 39
 1.242779e+01 3.360336e+01 2.411667e+01 1.625061e+01 3.796575e+01 4.345573e+01 1.384318e+01 3.346777e+01 4.215338e+01 3.376955e+01 2.930415e+01 3.794890e+01 2.257734e+01 5.082626e-01 7.590705e-01 9.714121e-01 1.516623e+00 9.328656e-01 9.481720e-01 1.014581e+00 1.762142e+00 1.866142e+00 1.767856e+00 1.898551e+00 1.721994e+00 2.896790e-01 5.778186e-02 9.700463e-02 2.001075e-01 2.153381e-01 1.406552e-01 2.318168e-01 2.079631e-01 3.007628e-01 3.911597e-01 3.658608e-01 3.172989e-01 2.293380e-01 5.610444e-02
<GCONST> 9.368523e+01
<TRANSP> 5
 0.000000e+00 1.000000e+00 0.000000e+00 0.000000e+00 0.000000e+00
 0.000000e+00 7.313768e-01 2.686233e-01 0.000000e+00 0.000000e+00
 0.000000e+00 0.000000e+00 8.485274e-01 1.514726e-01 0.000000e+00
 0.000000e+00 0.000000e+00 0.000000e+00 8.343951e-01 1.656050e-01
 0.000000e+00 0.000000e+00 0.000000e+00 0.000000e+00 0.000000e+00
<ENDHMM>
~h "eh"
<BEGINHMM>
<NUMSTATES> 5
<STATE> 2
<MEAN> 39
 2.260555e-01 -2.560698e+00 -4.496957e-01 -5.358982e+00 1.005020e+00 -9.238068e+00 -8.086335e+00 -1.177370e+01 -5.915810e+00 -7.082247e+00 -4.352907e+00 -6.918500e+00 6.961355e+01 2.012020e+00 -1.092810e+00 -2.102195e+00 -1.084421e+00 1.342680e-02 -9.960878e-01 -1.521639e+00 -1.541884e+00 -1.099742e+00 -5.773221e-01 3.090113e-01 7.954020e-01 2.004688e+00 -2.271928e-01 -5.327570e-01 -2.166483e-01 3.547390e-01 2.856673e-01 8.531494e-02 5.195503e-02 -1.871680e-01 -1.607048e-01 1.778900e-02 3.367988e-01 5.088472e-01 1.345674e-01
<VARIANCE> 39
 7.794872e+01 8.420844e+01 9.991616e+01 7.109559e+01 7.878590e+01 3.992698e+01 5.854439e+01 7.841473e+01 6.905083e+01 4.922122e+01 3.414363e+01 4.666150e+01 6.858466e+01 6.378131e+00 6.536960e+00 7.365276e+00 4.913725e+00 8.032652e+00 4.823165e+00 4.465452e+00 5.922357e+00 7.634524e+00 4.814249e+00 4.492080e+00 5.982542e+00 2.950689e+00 1.093506e+00 9.881614e-01 1.209435e+00 9.131787e-01 1.070852e+00 5.251127e-01 8.639099e-01 1.346460e+00 1.273754e+00 8.036956e-01 7.002314e-01 7.734848e-01 5.014279e-01
<GCONST> 1.462542e+02
<STATE> 3
<MEAN> 39
 4.783486e+00 -9.761584e+00 -7.486323e+00 -5.942024e+00 3.336336e+00 -1.332394e+01 -1.211837e+01 -1.767481e+01 -1.133683e+01 -8.325389e+00 8.810894e-01 2.692634e-01 7.777170e+01 1.421442e-01 -1.414888e+00 -7.996783e-01 5.558189e-01 -4.730713e-01 -3.209665e-01 -4.210907e-01 -9.572926e-01 1.620785e-01 1.108610e-01 1.048221e+00 1.345020e+00 9.474649e-01 -3.235347e-01 3.494223e-01 4.740684e-01 2.628560e-01 4.506427e-02 4.277810e-01 3.531694e-01 2.898462e-01 3.615111e-01 2.537258e-04 -3.656093e-01 -4.895443e-01 -3.779907e-01
<VARIANCE> 39
 1.550782e+01 1.762976e+01 5.234227e+01 4.259851e+01 4.306435e+01 4.972458e+01 3.564604e+01 3.964731e+01 5.141209e+01 4.733934e+01 3.476384e+01 3.014355e+01 1.538333e+01 1.862328e+00 1.594910e+00 3.881274e+00 2.378971e+00 3.561009e+00 3.367585e+00 3.701799e+00 4.609373e+00 3.396453e+00 3.540987e+00 2.620764e+00 2.699446e+00 1.215400e+00 2.777374e-01 2.907128e-01 4.059579e-01 4.535180e-01 6.172886e-01 5.899360e-01 6.322927e-01 6.355746e-01 6.693823e-01 7.012774e-01 4.565301e-01 5.319195e-01 1.081103e-01
<GCONST> 1.201503e+02
<STATE> 4
<MEAN> 39
 4.483207e+00 -1.167414e+01 -6.874430e+00 -2.822575e+00 2.223391e+00 -8.897137e+00 -1.130051e+01 -2.005124e+01 -9.167359e+00 -7.808990e+00 9.727639e-01 1.478481e+00 7.796858e+01 1.726623e-01 2.750715e-01 3.059590e-02 5.553455e-01 7.655996e-01 6.792333e-01 4.573492e-01 4.582759e-01 -4.128119e-01 -1.363284e-01 -1.516025e-01 -2.501782e-01 -6.953887e-01 -3.559390e-02 2.086840e-01 8.180330e-02 5.916410e-03 1.948783e-01 5.452789e-02 5.793029e-02 2.774087e-01 -5.571319e-02 5.290829e-02 -1.897255e-02 -1.723512e-01 -2.163819e-01
<VARIANCE> 39
 1.378016e+01 1.569736e+01 3.176349e+01 3.386580e+01 3.990500e+01 5.055399e+01 2.543787e+01 3.882232e+01 4.932317e+01 3.795929e+01 3.098911e+01 2.184285e+01 2.292337e+01 8.218098e-01 8.063276e-01 1.626699e+00 1.801486e+00 2.089617e+00 2.144149e+00 2.090716e+00 2.465686e+00 2.034501e+00 2.110043e+00 1.964862e+00 1.587816e+00 7.827588e-01 1.858137e-01 1.224246e-01 3.071240e-01 3.244554e-01 3.717344e-01 4.142007e-01 4.665810e-01 4.973074e-01 4.466729e-01 3.750670e-01 3.879980e-01 3.001463e-01 1.016049e-01
<GCONST> 1.062325e+02
<TRANSP> 5
 0.000000e+00 1.000000e+00 0.000000e+00 0.000000e+00 0.000000e+00
 0.000000e+00 5.781641e-01 4.218359e-01 0.000000e+00 0.000000e+00
