~o
<STREAMINFO> 1 39
<VECSIZE> 39<NULLD><MFCC_D_A_0><DIAGC>
~h "b"
<BEGINHMM>
<NUMSTATES> 5
<STATE> 2
<MEAN> 39
 -6.204148e+00 -4.149225e+00 -2.001514e+00 -3.143599e+00 2.472450e+00 -6.216979e+00 -5.523757e+00 -6.461668e+00 -3.585362e+00 -7.192576e+00 -3.209675e+00 -5.025315e+00 6.370834e+01 1.003583e-03 6.926714e-03 -1.702082e-02 -2.854534e-02 -3.315876e-02 -2.811098e-02 1.353445e-02 1.621526e-02 2.552794e-03 1.090374e-04 -6.933968e-03 1.068007e-03 1.173347e-02 -1.854208e-03 -5.741289e-04 1.076422e-03 -4.490516e-04 2.409964e-04 1.425455e-03 5.916741e-04 -1.532719e-03 4.745526e-04 -2.938714e-04 5.074848e-05 1.822536e-03 -1.107804e-03
<VARIANCE> 39
 1.717644e+02 4.390673e+01 8.399173e+01 8.355285e+01 7.146165e+01 9.407893e+01 7.786591e+01 6.760200e+01 5.713927e+01 4.666419e+01 3.418684e+01 3.279976e+01 1.646661e+02 3.798370e+00 2.182421e+00 2.691655e+00 3.160530e+00 2.856137e+00 3.545509e+00 3.376483e+00 2.759314e+00 3.179637e+00 2.842005e+00 2.029352e+00 2.012009e+00 1.891906e+00 4.338411e-01 3.461083e-01 4.034361e-01 4.878183e-01 4.598058e-01 5.536873e-01 5.460429e-01 4.815460e-01 5.418617e-01 4.974837e-01 3.723343e-01 3.598093e-01 2.446747e-01
<GCONST> 1.289523e+02
<STATE> 3
<MEAN> 39
 -6.217268e+00 -4.129462e+00 -2.049616e+00 -3.247543e+00 2.353183e+00 -6.311167e+00 -5.464206e+00 -6.421946e+00 -3.577178e+00 -7.194860e+00 -3.235381e+00 -5.009202e+00 6.373682e+01 -3.614417e-03 2.653062e-03 -1.216630e-02 -2.927951e-02 -3.263794e-02 -2.515062e-02 1.433539e-02 8.938441e-03 1.561815e-03 -1.044188e-03 -5.431021e-03 8.188241e-03 8.439772e-03 -8.175410e-04 -1.174310e-03 1.326754e-03 1.112116e-04 5.420129e-04 8.483966e-04 3.370747e-04 -1.877835e-03 -5.776873e-04 -3.753888e-04 6.208143e-04 1.889916e-03 -5.988412e-04
<VARIANCE> 39
 1.723535e+02 4.404803e+01 8.406452e+01 8.253268e+01 7.110083e+01 9.525992e+01 7.701478e+01 6.730098e+01 5.725404e+01 4.660905e+01 3.455019e+01 3.280203e+01 1.652785e+02 3.786461e+00 2.186616e+00 2.718296e+00 3.143119e+00 2.834882e+00 3.571380e+00 3.375654e+00 2.756059e+00 3.172747e+00 2.817973e+00 2.038040e+00 2.000566e+00 1.864979e+00 4.281914e-01 3.461166e-01 4.082552e-01 4.845270e-01 4.570383e-01 5.554753e-01 5.473486e-01 4.818842e-01 5.416840e-01 4.906443e-01 3.731065e-01 3.586499e-01 2.402884e-01
<GCONST> 1.288886e+02
<STATE> 4
<MEAN> 39
 -6.207668e+00 -4.078565e+00 -2.020608e+00 -3.353593e+00 2.267000e+00 -6.258972e+00 -5.419311e+00 -6.430725e+00 -3.547462e+00 -7.152906e+00 -3.227956e+00 -4.942298e+00 6.387034e+01 -6.214107e-03 -3.085342e-03 -7.614564e-03 -2.657173e-02 -2.808420e-02 -2.345224e-02 1.760520e-02 5.530292e-03 -3.446448e-03 -2.350705e-04 -4.005706e-03 1.130936e-02 7.126538e-03 -1.778638e-04 -1.114381e-03 7.540981e-04 7.522936e-04 1.124304e-03 5.779036e-04 3.335437e-04 -7.611596e-04 -1.063599e-03 2.029001e-04 7.061702e-04 8.228915e-04 -3.529782e-05
<VARIANCE> 39
 1.731313e+02 4.405705e+01 8.300068e+01 8.072606e+01 6.992527e+01 9.713735e+01 7.597523e+01 6.646889e+01 5.752590e+01 4.719470e+01 3.525938e+01 3.273477e+01 1.653536e+02 3.806726e+00 2.176789e+00 2.740977e+00 3.119658e+00 2.788039e+00 3.597361e+00 3.343852e+00 2.769951e+00 3.178565e+00 2.801119e+00 2.045792e+00 1.986708e+00 1.839952e+00 4.241232e-01 3.453794e-01 4.123771e-01 4.811264e-01 4.516268e-01 5.582954e-01 5.450667e-01 4.881898e-01 5.432755e-01 4.838238e-01 3.737796e-01 3.573127e-01 2.357004e-01
<GCONST> 1.287992e+02
<TRANSP> 5
 0.000000e+00 1.000000e+00 0.000000e+00 0.000000e+00 0.000000e+00
 0.000000e+00 7.228940e-01 2.771060e-01 0.000000e+00 0.000000e+00
 0.000000e+00 0.000000e+00 7.228934e-01 2.771066e-01 0.000000e+00
 0.000000e+00 0.000000e+00 0.000000e+00 8.460599e-01 1.539401e-01
 0.000000e+00 0.000000e+00 0.000000e+00 0.000000e+00 0.000000e+00
<ENDHMM>
~h "d"
<BEGINHMM>
<NUMSTATES> 5
<STATE> 2
<MEAN> 39
 -5.420097e+00 -5.487119e+00 -1.582472e+00 -2.870433e+00 2.828330e+00 -6.940507e+00 -5.554283e+00 -7.796922e+00 -4.629013e+00 -6.952113e+00 -3.108513e+00 -4.041611e+00 6.523621e+01 -2.418966e-03 -1.004678e-02 -7.050519e-03 4.499503e-03 7.977551e-03 1.272290e-03 2.270273e-03 6.840737e-03 2.778936e-04 -3.233195e-03 -9.205099e-04 -8.701676e-04 -3.964638e-03 1.013447e-03 7.438892e-05 -1.693048e-03 3.994319e-04 -1.980090e-04 6.082002e-05 5.159742e-04 9.466226e-04 2.478537e-04 -1.014330e-03 -2.025766e-04 -4.052955e-04 2.548534e-04
<VARIANCE> 39
 1.619095e+02 4.902003e+01 9.278703e+01 8.879247e+01 7.407340e+01 8.821983e+01 7.298829e+01 7.261568e+01 5.509116e+01 4.851168e+01 3.866502e+01 3.429692e+01 1.544119e+02 3.465658e+00 2.350888e+00 3.083599e+00 3.294411e+00 2.780850e+00 3.490954e+00 3.138234e+00 2.894813e+00 3.175031e+00 2.644047e+00 2.255675e+00 2.089984e+00 1.834492e+00 3.783426e-01 3.597288e-01 4.466185e-01 5.220569e-01 4.460331e-01 5.631385e-01 5.181749e-01 4.864130e-01 5.443103e-01 4.538043e-01 4.046037e-01 3.702183e-01 2.347937e-01
<GCONST> 1.293784e+02
<STATE> 3
<MEAN> 39
 -5.424541e+00 -5.518943e+00 -1.612860e+00 -2.853404e+00 2.854716e+00 -6.934488e+00 -5.543034e+00 -7.771205e+00 -4.628354e+00 -6.966220e+00 -3.110596e+00 -4.045287e+00 6.522080e+01 1.220090e-03 -1.030864e-02 -1.349035e-02 5.385350e-03 6.724205e-03 1.460204e-03 4.732464e-03 1.109917e-02 1.628862e-03 -7.379557e-03 -2.262633e-03 -2.115046e-03 -2.839660e-03 1.801054e-03 -8.457245e-04 -2.799509e-03 1.829513e-04 -3.137431e-04 -3.154512e-04 1.450493e-03 2.707410e-03 4.708747e-04 -2.496648e-03 -1.035406e-03 -1.905584e-04 1.162699e-03
<VARIANCE> 39
 1.619470e+02 4.879537e+01 9.261880e+01 8.852473e+01 7.395933e+01 8.851148e+01 7.303558e+01 7.303336e+01 5.513346e+01 4.839364e+01 3.875586e+01 3.415332e+01 1.549732e+02 3.454227e+00 2.366826e+00 3.101776e+00 3.318303e+00 2.773029e+00 3.506266e+00 3.141154e+00 2.918019e+00 3.167149e+00 2.668955e+00 2.256629e+00 2.088050e+00 1.840452e+00 3.784166e-01 3.637767e-01 4.508359e-01 5.256020e-01 4.443337e-01 5.666320e-01 5.187759e-01 4.900050e-01 5.429497e-01 4.592388e-01 4.046431e-01 3.698406e-01 2.363934e-01
<GCONST> 1.294679e+02
<STATE> 4
<MEAN> 39
 -5.499977e+00 -5.563516e+00 -1.514693e+00 -2.810385e+00 2.871145e+00 -6.666155e+00 -5.533537e+00 -7.764913e+00 -4.587520e+00 -7.023331e+00 -3.052858e+00 -4.056645e+00 6.522344e+01 8.379340e-03 -1.392074e-02 -2.492703e-02 4.441575e-03 4.261924e-03 5.093291e-04 1.260601e-02 2.367334e-02 4.003252e-03 -1.814173e-02 -7.623889e-03 -2.064300e-03 1.937051e-03 2.876129e-03 -2.505084e-03 -4.491326e-03 -4.075626e-04 -1.709822e-04 -9.115788e-04 2.951445e-03 5.608193e-03 6.359021e-04 -4.987885e-03 -2.845450e-03 2.334726e-04 2.682207e-03
<VARIANCE> 39
 1.616717e+02 4.883141e+01 9.324980e+01 8.722176e+01 7.346806e+01 8.974318e+01 7.346683e+01 7.405760e+01 5.499686e+01 4.888896e+01 3.893873e+01 3.396158e+01 1.551031e+02 3.465161e+00 2.412593e+00 3.181429e+00 3.346823e+00 2.760918e+00 3.512797e+00 3.137492e+00 3.007591e+00 3.148330e+00 2.717577e+00 2.268267e+00 2.090377e+00 1.889677e+00 3.828923e-01 3.739631e-01 4.670285e-01 5.316936e-01 4.448979e-01 5.689412e-01 5.182552e-01 5.044528e-01 5.410255e-01 4.678952e-01 4.070870e-01 3.697377e-01 2.449658e-01
<GCONST> 1.297970e+02
<TRANSP> 5
 0.000000e+00 1.000000e+00 0.000000e+00 0.000000e+00 0.000000e+00
 0.000000e+00 7.230436e-01 2.769564e-01 0.000000e+00 0.000000e+00
 0.000000e+00 0.000000e+00 7.230458e-01 2.769541e-01 0.000000e+00
 0.000000e+00 0.000000e+00 0.000000e+00 8.465127e-01 1.534873e-01
 0.000000e+00 0.000000e+00 0.000000e+00 0.000000e+00 0.000000e+00
<ENDHMM>
~h "f"
<BEGINHMM>
<NUMSTATES> 5
<STATE> 2
<MEAN> 39
 -6.131299e+00 -5.343309e+00 -2.597496e+00 -3.783122e+00 2.456535e+00 -8.063184e+00 -4.983341e+00 -7.010608e+00 -4.568066e+00 -7.101478e+00 -3.537475e+00 -4.143604e+00 6.537943e+01 1.392900e-03 -1.542252e-03 -1.131477e-02 1.068496e-02 -6.715185e-03 -1.749214e-02 -8.211212e-03 7.858128e-03 1.133255e-02 2.220075e-03 4.303434e-03 2.631757e-03 -4.402944e-03 5.931786e-05 -5.090133e-04 5.501605e-04 9.915195e-04 5.170788e-04 1.388549e-03 -3.066791e-04 -3.971820e-04 9.043876e-04 3.953371e-05 -1.014206e-04 7.448677e-04 3.177808e-04
<VARIANCE> 39
 1.737598e+02 5.193073e+01 8.296621e+01 7.524107e+01 7.977324e+01 9.162314e+01 7.276569e+01 7.067388e+01 5.851967e+01 4.657166e+01 4.269221e+01 3.476118e+01 1.597327e+02 4.206126e+00 2.437546e+00 2.924257e+00 3.004343e+00 3.167112e+00 3.496698e+00 3.376229e+00 2.935451e+00 3.163244e+00 2.632969e+00 2.327525e+00 2.165735e+00 1.709614e+00 4.510620e-01 3.855554e-01 4.569532e-01 4.776890e-01 4.918480e-01 5.667538e-01 5.501606e-01 5.072371e-01 5.373718e-01 4.466040e-01 4.190029e-01 3.788356e-01 2.107197e-01
<GCONST> 1.300751e+02
<STATE> 3
<MEAN> 39
 -6.130177e+00 -5.351365e+00 -2.628239e+00 -3.732695e+00 2.433966e+00 -8.122799e+00 -5.024987e+00 -6.993768e+00 -4.519836e+00 -7.082778e+00 -3.514139e+00 -4.128433e+00 6.536337e+01 1.255074e-03 -2.472554e-03 -8.991396e-03 1.500878e-02 -4.320370e-03 -1.307315e-02 -1.052558e-02 5.256471e-03 1.292091e-02 3.530486e-03 6.086207e-03 5.357189e-03 -5.125029e-03 6.706467e-04 -8.786973e-04 -4.608278e-04 1.005690e-03 6.182810e-04 9.615560e-04 7.079232e-05 3.461398e-04 3.064094e-04 -6.836670e-04 -2.178758e-05 6.730398e-04 4.415113e-04
<VARIANCE> 39
 1.741656e+02 5.198269e+01 8.232557e+01 7.518108e+01 7.997398e+01 9.191502e+01 7.251185e+01 7.099619e+01 5.844336e+01 4.649414e+01 4.249399e+01 3.465987e+01 1.599471e+02 4.195256e+00 2.417819e+00 2.914758e+00 2.985335e+00 3.159190e+00 3.482408e+00 3.373505e+00 2.934592e+00 3.159281e+00 2.619756e+00 2.310881e+00 2.157040e+00 1.709213e+00 4.479032e-01 3.808277e-01 4.567615e-01 4.741612e-01 4.899224e-01 5.622451e-01 5.519264e-01 5.060057e-01 5.378707e-01 4.436626e-01 4.152504e-01 3.782381e-01 2.099878e-01
<GCONST> 1.299636e+02
<STATE> 4
<MEAN> 39
 -6.153499e+00 -5.344002e+00 -2.683568e+00 -3.639016e+00 2.291705e+00 -8.129727e+00 -5.134431e+00 -6.933922e+00 -4.334360e+00 -7.007264e+00 -3.514301e+00 -4.082978e+00 6.534742e+01 2.727153e-03 -4.481592e-03 -7.471685e-03 1.901994e-02 -3.409146e-03 -9.453321e-03 -9.692347e-03 8.021952e-03 1.444031e-02 1.161621e-03 6.202917e-03 6.664969e-03 -5.434551e-03 1.640075e-03 -1.529216e-03 -2.038274e-03 1.232892e-04 3.082676e-04 4.931369e-04 1.525601e-03 2.706909e-03 1.747398e-04 -2.642047e-03 -1.324397e-03 1.388501e-04 1.243755e-03
<VARIANCE> 39
 1.750195e+02 5.204828e+01 8.108743e+01 7.373935e+01 7.943031e+01 9.389126e+01 7.127422e+01 7.152483e+01 5.864022e+01 4.624105e+01 4.271375e+01 3.419804e+01 1.598607e+02 4.182889e+00 2.415522e+00 2.901057e+00 2.930785e+00 3.132308e+00 3.484999e+00 3.359612e+00 2.945760e+00 3.139969e+00 2.610649e+00 2.289434e+00 2.146825e+00 1.717633e+00 4.420120e-01 3.784196e-01 4.566282e-01 4.655962e-01 4.859042e-01 5.579782e-01 5.555716e-01 5.044568e-01 5.347939e-01 4.406623e-01 4.087422e-01 3.777272e-01 2.098400e-01
<GCONST> 1.297943e+02
<TRANSP> 5
 0.000000e+00 1.000000e+00 0.000000e+00 0.000000e+00 0.000000e+00
 0.000000e+00 7.267044e-01 2.732956e-01 0.000000e+00 0.000000e+00
 0.000000e+00 0.000000e+00 7.267043e-01 2.732957e-01 0.000000e+00
 0.000000e+00 0.000000e+00 0.000000e+00 8.501289e-01 1.498711e-01
 0.000000e+00 0.000000e+00 0.000000e+00 0.000000e+00 0.000000e+00
<ENDHMM>
~h "g"
<BEGINHMM>
<NUMSTATES> 5
<STATE> 2
<MEAN> 39
 -2.782575e+00 -4.700841e+00 -1.522471e+00 -2.037473e+00 4.950326e+00 -8.114182e+00 -7.898907e+00 -9.538828e+00 -4.977900e+00 -6.250021e+00 -2.791181e+00 -5.715748e+00 6.807315e+01 2.552318e-02 -8.156691e-03 -4.430420e-03 1.285343e-02 2.514666e-02 -1.116551e-04 -2.709172e-02 5.164253e-03 -1.310452e-03 -3.063777e-03 -2.066644e-03 -2.522835e-03 1.553460e-02 -1.832119e-03 -1.804680e-03 -2.981924e-04 -4.530449e-04 -1.709174e-03 3.146309e-03 3.494800e-04 -7.687474e-05 -1.757957e-04 -9.868279e-04 -1.146192e-04 1.583544e-03 -2.647995e-03
<VARIANCE> 39
 1.496529e+02 4.965064e+01 8.245412e+01 9.279613e+01 7.398763e+01 1.049040e+02 7.060397e+01 9.280750e+01 5.314675e+01 5.095878e+01 4.178812e+01 3.250563e+01 1.243124e+02 3.565433e+00 2.348618e+00 2.994879e+00 3.678554e+00 3.196980e+00 4.119194e+00 3.201179e+00 3.747379e+00 3.486084e+00 3.287318e+00 2.471870e+00 2.107939e+00 2.022624e+00 4.163216e-01 3.523597e-01 4.580046e-01 5.601812e-01 5.025505e-01 6.318634e-01 5.407649e-01 6.328179e-01 6.016531e-01 5.606489e-01 4.428713e-01 3.653559e-01 2.445726e-01
<GCONST> 1.317839e+02
<STATE> 3
<MEAN> 39
 -2.698390e+00 -4.747445e+00 -1.537725e+00 -1.990848e+00 5.035958e+00 -8.088386e+00 -7.987283e+00 -9.505433e+00 -4.982627e+00 -6.272650e+00 -2.802504e+00 -5.715849e+00 6.811335e+01 1.745785e-02 -1.260048e-02 -3.381249e-03 9.376041e-03 2.196717e-02 1.014033e-02 -2.325265e-02 7.231329e-03 -3.541618e-03 -7.651707e-03 -2.494298e-03 1.915467e-03 8.317273e-03 -2.225671e-03 -7.580689e-04 4.054122e-04 -6.248534e-04 -7.290466e-04 2.609870e-03 1.241252e-03 5.991998e-04 -4.350615e-04 -1.124683e-03 3.959326e-05 9.508064e-04 -2.095529e-03
<VARIANCE> 39
 1.491945e+02 5.022497e+01 8.317767e+01 9.298615e+01 7.343292e+01 1.045441e+02 7.084885e+01 9.039397e+01 5.344469e+01 5.127697e+01 4.240693e+01 3.226172e+01 1.221384e+02 3.526460e+00 2.367063e+00 3.005544e+00 3.687639e+00 3.118858e+00 4.106942e+00 3.196206e+00 3.701993e+00 3.469281e+00 3.284738e+00 2.445418e+00 2.084300e+00 1.973069e+00 4.061404e-01 3.526455e-01 4.581703e-01 5.619969e-01 4.893681e-01 6.309259e-01 5.377528e-01 6.280700e-01 5.958107e-01 5.570179e-01 4.349714e-01 3.607759e-01 2.401780e-01
<GCONST> 1.315530e+02
<STATE> 4
<MEAN> 39
 -2.901149e+00 -4.812444e+00 -1.264098e+00 -1.835341e+00 5.108379e+00 -7.606472e+00 -7.957105e+00 -9.394794e+00 -4.996562e+00 -6.265505e+00 -2.695412e+00 -5.778492e+00 6.795869e+01 2.067649e-03 -1.520249e-02 2.189358e-03 2.303172e-03 2.057105e-02 1.842517e-02 -1.127819e-02 1.654997e-02 -7.672677e-03 -1.504147e-02 -1.333583e-03 4.536773e-03 1.750661e-03 -2.753153e-03 1.131654e-04 6.274243e-04 -9.399326e-04 -7.479765e-04 1.235260e-03 2.038857e-03 1.076386e-03 -4.659606e-04 -9.566500e-04 4.026460e-04 3.762615e-04 -1.627526e-03
<VARIANCE> 39
 1.494224e+02 5.205003e+01 8.553318e+01 9.298901e+01 7.253137e+01 1.043914e+02 7.217589e+01 8.646648e+01 5.388419e+01 5.199513e+01 4.308187e+01 3.157077e+01 1.195240e+02 3.490614e+00 2.445748e+00 3.064802e+00 3.702068e+00 3.026282e+00 4.040048e+00 3.181495e+00 3.665021e+00 3.431859e+00 3.247556e+00 2.400520e+00 2.059713e+00 1.936888e+00 3.947074e-01 3.622490e-01 4.689891e-01 5.699652e-01 4.787031e-01 6.286708e-01 5.306100e-01 6.247993e-01 5.870782e-01 5.476618e-01 4.247392e-01 3.573170e-01 2.387640e-01
<GCONST> 1.314072e+02
<TRANSP> 5
 0.000000e+00 1.000000e+00 0.000000e+00 0.000000e+00 0.000000e+00
 0.000000e+00 7.245796e-01 2.754204e-01 0.000000e+00 0.000000e+00
 0.000000e+00 0.000000e+00 7.245793e-01 2.754208e-01 0.000000e+00
 0.000000e+00 0.000000e+00 0.000000e+00 8.478028e-01 1.521972e-01
 0.000000e+00 0.000000e+00 0.000000e+00 0.000000e+00 0.000000e+00
<ENDHMM>
~h "k"
<BEGINHMM>
<NUMSTATES> 5
<STATE> 2
<MEAN> 39
 -5.194823e+00 -5.185498e+00 -2.272206e+00 -3.562908e+00 3.186135e+00 -6.938931e+00 -5.209529e+00 -8.057745e+00 -5.122839e+00 -7.086735e+00 -3.092920e+00 -4.410987e+00 6.603988e+01 6.635485e-03 -5.695283e-03 1.860073e-03 3.105439e-04 -1.081129e-02 8.393587e-03 1.010030e-02 3.607618e-03 -1.038221e-03 -4.498443e-03 2.826229e-04 8.520937e-03 5.205802e-03 -4.976889e-04 -6.034120e-04 3.818448e-04 3.471468e-04 3.938357e-04 -1.039307e-04 -1.888896e-04 7.686506e-04 6.481038e-04 -7.544133e-04 -2.694420e-04 5.887327e-06 -8.143910e-05
<VARIANCE> 39
 1.621127e+02 5.078360e+01 8.937466e+01 8.852498e+01 7.775270e+01 8.622378e+01 7.193484e+01 7.271133e+01 5.687070e+01 5.417477e+01 4.340624e+01 3.578721e+01 1.490078e+02 3.549328e+00 2.401070e+00 3.029744e+00 3.436576e+00 2.989555e+00 3.686332e+00 3.272168e+00 3.128970e+00 3.362550e+00 2.779152e+00 2.342220e+00 2.171618e+00 1.863529e+00 3.843151e-01 3.743347e-01 4.443111e-01 5.275392e-01 4.918600e-01 6.032279e-01 5.346546e-01 5.290478e-01 5.713617e-01 4.636387e-01 4.286194e-01 3.794387e-01 2.430795e-01
<GCONST> 1.306960e+02
<STATE> 3
<MEAN> 39
 -5.167073e+00 -5.210452e+00 -2.271201e+00 -3.563062e+00 3.149862e+00 -6.908978e+00 -5.172504e+00 -8.045804e+00 -5.128102e+00 -7.108585e+00 -3.093941e+00 -4.377186e+00 6.606366e+01 4.549645e-03 -8.054445e-03 3.636372e-03 1.927129e-03 -9.126618e-03 7.959786e-03 9.328734e-03 6.208641e-03 8.673603e-04 -7.485065e-03 -4.443638e-04 8.240725e-03 4.916810e-03 -5.627622e-04 -9.094314e-04 4.354455e-04 6.275897e-04 4.727230e-04 -5.895435e-04 -6.455674e-04 7.073195e-04 6.050027e-04 -7.659175e-04 -1.516402e-04 -1.959202e-04 -3.298334e-05
<VARIANCE> 39
 1.619670e+02 5.085101e+01 9.033884e+01 8.842639e+01 7.775206e+01 8.716953e+01 7.306847e+01 7.284882e+01 5.720588e+01 5.407758e+01 4.343703e+01 3.581564e+01 1.484199e+02 3.529504e+00 2.403367e+00 3.032513e+00 3.443429e+00 2.987326e+00 3.691800e+00 3.282989e+00 3.127964e+00 3.360038e+00 2.763944e+00 2.344103e+00 2.167541e+00 1.861508e+00 3.811661e-01 3.754002e-01 4.447165e-01 5.299022e-01 4.921291e-01 6.044143e-01 5.363073e-01 5.284561e-01 5.693960e-01 4.623322e-01 4.286926e-01 3.782224e-01 2.422332e-01
<GCONST> 1.307214e+02
<STATE> 4
<MEAN> 39
 -5.197701e+00 -5.232297e+00 -2.239326e+00 -3.657755e+00 2.995421e+00 -6.664618e+00 -5.091312e+00 -7.952629e+00 -5.035236e+00 -7.147118e+00 -3.047123e+00 -4.301276e+00 6.607565e+01 3.102568e-03 -1.270563e-02 4.414333e-03 5.017938e-03 -6.241594e-03 5.660947e-03 7.289021e-03 8.054595e-03 5.054821e-04 -1.273853e-02 -9.937389e-04 7.162018e-03 5.973442e-03 -3.752801e-04 -1.289343e-03 2.989744e-04 1.148450e-03 6.670698e-04 -1.096242e-03 -1.221258e-03 6.873352e-04 2.987020e-04 -1.009112e-03 -1.555364e-04 -4.636871e-04 6.376309e-05
<VARIANCE> 39
 1.610555e+02 5.139525e+01 8.989719e+01 8.757173e+01 7.749504e+01 8.946297e+01 7.521330e+01 7.314660e+01 5.827155e+01 5.508129e+01 4.400549e+01 3.618083e+01 1.476087e+02 3.497712e+00 2.412842e+00 3.006422e+00 3.429619e+00 2.966110e+00 3.675895e+00 3.294069e+00 3.131908e+00 3.400004e+00 2.772099e+00 2.345655e+00 2.167258e+00 1.891906e+00 3.760723e-01 3.773613e-01 4.427073e-01 5.320023e-01 4.889698e-01 6.038380e-01 5.393223e-01 5.294005e-01 5.735965e-01 4.650576e-01 4.278836e-01 3.774375e-01 2.452401e-01
<GCONST> 1.308417e+02
<TRANSP> 5
 0.000000e+00 1.000000e+00 0.000000e+00 0.000000e+00 0.000000e+00
 0.000000e+00 7.192719e-01 2.807281e-01 0.000000e+00 0.000000e+00
 0.000000e+00 0.000000e+00 7.192710e-01 2.807290e-01 0.000000e+00
 0.000000e+00 0.000000e+00 0.000000e+00 8.417813e-01 1.582187e-01
 0.000000e+00 0.000000e+00 0.000000e+00 0.000000e+00 0.000000e+00
<ENDHMM>
~h "l"
<BEGINHMM>
<NUMSTATES> 5
<STATE> 2
<MEAN> 39
 -4.796620e+00 -5.248940e+00 -1.937747e+00 -2.510195e+00 3.658245e+00 -7.428215e+00 -5.687559e+00 -7.572054e+00 -5.262807e+00 -7.353491e+00 -3.508893e+00 -4.545535e+00 6.583644e+01 -3.723718e-03 1.701526e-04 -1.163570e-02 -8.463633e-03 -9.990402e-03 2.391228e-04 -1.019876e-03 3.109468e-03 -1.514514e-03 -8.164836e-03 -7.981104e-03 4.315048e-03 -1.320251e-02 2.053012e-04 1.991750e-06 -4.167791e-04 -1.361675e-05 2.003681e-04 -2.117420e-04 3.365005e-04 1.598381e-03 3.796392e-04 -1.452511e-04 -8.945076e-04 -4.050269e-04 -4.960292e-04
<VARIANCE> 39
 1.650453e+02 5.066471e+01 8.554157e+01 7.548163e+01 7.721107e+01 9.464200e+01 7.398817e+01 7.458569e+01 6.119325e+01 5.282870e+01 3.950695e+01 3.306411e+01 1.478329e+02 3.516255e+00 2.229121e+00 3.000833e+00 3.114951e+00 2.776749e+00 3.732372e+00 3.156595e+00 3.084589e+00 3.151013e+00 2.790834e+00 2.149147e+00 2.081649e+00 1.757824e+00 3.831592e-01 3.301188e-01 4.223768e-01 4.868961e-01 4.470133e-01 5.851080e-01 5.264426e-01 5.206314e-01 5.352885e-01 4.760219e-01 3.860375e-01 3.790793e-01 2.279003e-01
<GCONST> 1.293383e+02
<STATE> 3
<MEAN> 39
 -4.817537e+00 -5.247638e+00 -1.985354e+00 -2.541169e+00 3.623071e+00 -7.427272e+00 -5.686387e+00 -7.551227e+00 -5.268150e+00 -7.381206e+00 -3.539727e+00 -4.531403e+00 6.577284e+01 -2.751248e-03 -3.059516e-04 -1.352169e-02 -8.660487e-03 -9.388513e-03 -4.541861e-04 3.662296e-04 8.659979e-03 -2.782699e-05 -8.651841e-03 -1.110624e-02 3.127367e-03 -1.445871e-02 4.359204e-04 -4.671337e-04 -9.012365e-04 -4.965573e-05 3.028125e-04 -1.468233e-04 7.306282e-04 2.091552e-03 4.340568e-04 -6.303398e-04 -1.106853e-03 -3.013326e-04 -1.410485e-04
<VARIANCE> 39
 1.658416e+02 5.074249e+01 8.538133e+01 7.444269e+01 7.717058e+01 9.462926e+01 7.392567e+01 7.437821e+01 6.097899e+01 5.290151e+01 3.925951e+01 3.294494e+01 1.487030e+02 3.501116e+00 2.231580e+00 3.009123e+00 3.090144e+00 2.775537e+00 3.723128e+00 3.153533e+00 3.097245e+00 3.132760e+00 2.802413e+00 2.139793e+00 2.078440e+00 1.744223e+00 3.811152e-01 3.308089e-01 4.238233e-01 4.837939e-01 4.466850e-01 5.832280e-01 5.259883e-01 5.230481e-01 5.326999e-01 4.777857e-01 3.839448e-01 3.786334e-01 2.266655e-01
<GCONST> 1.292753e+02
<STATE> 4
<MEAN> 39
 -4.975430e+00 -5.206120e+00 -1.893280e+00 -2.549935e+00 3.539117e+00 -7.215596e+00 -5.643334e+00 -7.432241e+00 -5.174313e+00 -7.409574e+00 -3.575936e+00 -4.544386e+00 6.559567e+01 -2.766035e-03 -2.966598e-03 -1.807606e-02 -8.885948e-03 -8.974361e-03 -1.906238e-04 3.996278e-03 1.606650e-02 1.262062e-03 -1.039548e-02 -1.480831e-02 2.661680e-03 -1.742625e-02 6.313292e-04 -8.308401e-04 -1.245996e-03 -3.047823e-04 1.797829e-04 7.804879e-05 9.455582e-04 2.046960e-03 3.586534e-04 -1.037514e-03 -1.200927e-03 -7.437554e-05 3.152452e-04
<VARIANCE> 39
 1.673094e+02 5.179776e+01 8.572158e+01 7.277341e+01 7.651698e+01 9.516808e+01 7.434821e+01 7.407449e+01 6.064170e+01 5.321860e+01 3.954246e+01 3.280403e+01 1.486227e+02 3.470171e+00 2.259556e+00 3.029167e+00 3.053454e+00 2.764929e+00 3.693470e+00 3.157079e+00 3.108224e+00 3.100507e+00 2.808703e+00 2.139358e+00 2.075419e+00 1.735298e+00 3.759058e-01 3.346550e-01 4.280183e-01 4.795197e-01 4.449326e-01 5.774557e-01 5.273646e-01 5.257002e-01 5.283572e-01 4.783087e-01 3.827316e-01 3.777796e-01 2.262393e-01
<GCONST> 1.292419e+02
<TRANSP> 5
 0.000000e+00 1.000000e+00 0.000000e+00 0.000000e+00 0.000000e+00
 0.000000e+00 7.245966e-01 2.754034e-01 0.000000e+00 0.000000e+00
 0.000000e+00 0.000000e+00 7.245972e-01 2.754028e-01 0.000000e+00
 0.000000e+00 0.000000e+00 0.000000e+00 8.480924e-01 1.519077e-01
 0.000000e+00 0.000000e+00 0.000000e+00 0.000000e+00 0.000000e+00
<ENDHMM>
~h "m"
<BEGINHMM>
<NUMSTATES> 5
<STATE> 2
<MEAN> 39
 -5.877001e+00 -5.192923e+00 -2.310263e+00 -2.815857e+00 3.066853e+00 -7.280346e+00 -5.510158e+00 -6.992995e+00 -4.449282e+00 -6.885864e+00 -3.083911e+00 -4.546114e+00 6.463091e+01 -1.079677e-03 3.002300e-03 1.647757e-02 -6.965897e-03 3.944413e-03 1.733969e-04 -2.720052e-02 -2.206374e-02 -9.250145e-03 -8.856921e-03 1.575436e-02 3.253119e-03 2.872969e-02 -8.792343e-04 5.467499e-04 9.596747e-04 -2.580462e-04 1.568605e-04 3.341923e-05 -3.030704e-04 -8.298324e-04 3.637302e-04 7.511675e-04 8.115378e-04 -4.890130e-04 -3.622690e-04
<VARIANCE> 39
 1.762398e+02 4.311718e+01 8.629722e+01 8.150502e+01 7.266514e+01 8.899589e+01 8.423461e+01 7.957288e+01 5.592501e+01 4.532019e+01 3.408267e+01 3.373584e+01 1.794631e+02 3.560656e+00 2.255064e+00 2.781613e+00 3.164409e+00 2.637326e+00 3.505291e+00 3.151626e+00 3.056149e+00 3.057847e+00 2.737400e+00 2.185237e+00 2.194602e+00 1.855560e+00 4.010572e-01 3.517708e-01 4.033116e-01 5.028553e-01 4.155677e-01 5.615686e-01 5.214466e-01 5.172741e-01 5.175956e-01 4.780167e-01 4.002707e-01 3.903607e-01 2.405872e-01
<GCONST> 1.291920e+02
<STATE> 3
<MEAN> 39
 -5.889201e+00 -5.179588e+00 -2.242408e+00 -2.840763e+00 3.071278e+00 -7.281284e+00 -5.611042e+00 -7.078192e+00 -4.471224e+00 -6.905945e+00 -3.028465e+00 -4.534774e+00 6.472621e+01 -3.138908e-03 4.644694e-03 1.935805e-02 -6.818017e-03 2.103076e-03 -2.431140e-04 -2.778202e-02 -2.510238e-02 -6.101097e-03 -4.511470e-03 1.644379e-02 2.499875e-03 2.542128e-02 -5.237340e-04 2.057540e-04 6.782055e-04 1.347450e-04 -5.861719e-04 -1.476088e-06 6.777505e-05 -8.717222e-04 9.669799e-04 1.153678e-03 -6.380069e-05 -1.225391e-04 -9.037892e-04
<VARIANCE> 39
 1.759667e+02 4.320834e+01 8.718985e+01 8.181593e+01 7.334081e+01 8.877438e+01 8.398805e+01 7.969665e+01 5.576217e+01 4.515615e+01 3.431167e+01 3.375712e+01 1.790221e+02 3.574189e+00 2.255073e+00 2.782875e+00 3.167704e+00 2.659044e+00 3.507537e+00 3.153030e+00 3.071551e+00 3.053916e+00 2.729414e+00 2.184464e+00 2.195077e+00 1.849084e+00 4.006537e-01 3.510632e-01 4.022605e-01 5.029445e-01 4.186044e-01 5.615091e-01 5.197716e-01 5.196274e-01 5.173711e-01 4.755507e-01 3.983454e-01 3.898101e-01 2.393731e-01
<GCONST> 1.292083e+02
<STATE> 4
<MEAN> 39
 -6.127813e+00 -5.161232e+00 -2.012142e+00 -2.774941e+00 2.972994e+00 -7.040804e+00 -5.677799e+00 -7.188317e+00 -4.382098e+00 -6.871246e+00 -2.948569e+00 -4.499860e+00 6.468668e+01 -2.207001e-03 7.185177e-03 2.313950e-02 -3.995639e-03 -7.591771e-05 -2.599634e-04 -2.784062e-02 -2.739775e-02 -6.757546e-04 3.009988e-04 1.184329e-02 3.374956e-03 2.034315e-02 3.695342e-04 -2.425781e-05 2.289710e-04 5.527121e-04 -1.251185e-04 2.011592e-04 3.989130e-04 -3.519484e-04 7.281169e-04 3.748623e-04 -8.932942e-04 2.615218e-04 -7.393331e-04
<VARIANCE> 39
 1.746944e+02 4.371656e+01 8.888074e+01 8.178112e+01 7.366033e+01 8.918127e+01 8.415955e+01 7.981707e+01 5.520707e+01 4.529164e+01 3.486760e+01 3.348445e+01 1.807250e+02 3.564921e+00 2.257055e+00 2.787567e+00 3.142301e+00 2.672365e+00 3.473719e+00 3.155998e+00 3.073480e+00 3.002109e+00 2.710601e+00 2.152407e+00 2.199642e+00 1.863867e+00 3.953668e-01 3.501727e-01 4.036443e-01 4.992830e-01 4.224522e-01 5.574405e-01 5.178025e-01 5.204092e-01 5.098196e-01 4.727345e-01 3.902673e-01 3.920234e-01 2.414246e-01
<GCONST> 1.291675e+02
<TRANSP> 5
 0.000000e+00 1.000000e+00 0.000000e+00 0.000000e+00 0.000000e+00
 0.000000e+00 7.181687e-01 2.818314e-01 0.000000e+00 0.000000e+00
 0.000000e+00 0.000000e+00 7.181685e-01 2.818315e-01 0.000000e+00
 0.000000e+00 0.000000e+00 0.000000e+00 8.405378e-01 1.594622e-01
 0.000000e+00 0.000000e+00 0.000000e+00 0.000000e+00 0.000000e+00
<ENDHMM>
~h "n"
<BEGINHMM>
<NUMSTATES> 5
<STATE> 2
<MEAN> 39
 -5.144431e+00 -4.877609e+00 -1.688118e+00 -2.922208e+00 3.341931e+00 -6.803597e+00 -6.012635e+00 -7.532815e+00 -4.406936e+00 -7.230283e+00 -3.095088e+00 -4.491932e+00 6.544785e+01 -2.538297e-03 -6.530914e-03 9.404896e-04 5.809542e-03 1.737195e-03 9.739640e-03 8.091569e-03 -5.694035e-03 -2.747655e-03 4.167956e-03 4.743951e-03 2.823369e-03 -4.075558e-03 -1.968846e-04 -5.380061e-04 2.511425e-04 4.261830e-04 3.738709e-04 -1.080038e-04 2.405534e-04 8.777126e-04 2.033880e-04 8.723282e-05 -1.208425e-04 -7.281601e-05 -1.794399e-04
<VARIANCE> 39
 1.614140e+02 4.685584e+01 8.619320e+01 8.842249e+01 7.607819e+01 9.235403e+01 7.536517e+01 7.383468e+01 5.791837e+01 4.777126e+01 4.011312e+01 3.458251e+01 1.528252e+02 3.538962e+00 2.277684e+00 2.928444e+00 3.286640e+00 2.723382e+00 3.397533e+00 3.417589e+00 3.097092e+00 3.286809e+00 2.741812e+00 2.294894e+00 2.137642e+00 1.815865e+00 3.901352e-01 3.568536e-01 4.192818e-01 5.176617e-01 4.307014e-01 5.471017e-01 5.800101e-01 5.283762e-01 5.601706e-01 4.756859e-01 4.118783e-01 3.797229e-01 2.293478e-01
<GCONST> 1.297617e+02
<STATE> 3
<MEAN> 39
 -5.155292e+00 -4.903017e+00 -1.681468e+00 -2.898663e+00 3.350235e+00 -6.771267e+00 -5.979530e+00 -7.543680e+00 -4.414432e+00 -7.214904e+00 -3.079004e+00 -4.484294e+00 6.543208e+01 -3.197820e-03 -8.238835e-03 1.340172e-03 7.332508e-03 3.196717e-03 8.978204e-03 9.211094e-03 -2.119955e-03 -1.983762e-03 4.203019e-03 4.512572e-03 2.437955e-03 -4.516068e-03 2.543847e-04 -9.648288e-04 -4.875675e-04 4.270267e-04 3.798226e-04 -5.202034e-04 4.914841e-04 1.669695e-03 1.592255e-04 -7.170521e-04 -4.019200e-04 4.469103e-05 2.971553e-04
<VARIANCE> 39
 1.611084e+02 4.683975e+01 8.607665e+01 8.831956e+01 7.554831e+01 9.189352e+01 7.539508e+01 7.411353e+01 5.779728e+01 4.779004e+01 4.029945e+01 3.444159e+01 1.531237e+02 3.520468e+00 2.282410e+00 2.932271e+00 3.286860e+00 2.709729e+00 3.384890e+00 3.404254e+00 3.092039e+00 3.285394e+00 2.749286e+00 2.300846e+00 2.130051e+00 1.813689e+00 3.884829e-01 3.583320e-01 4.205240e-01 5.178195e-01 4.287919e-01 5.452392e-01 5.783951e-01 5.279676e-01 5.595058e-01 4.770642e-01 4.127229e-01 3.786941e-01 2.293608e-01
<GCONST> 1.297267e+02
<STATE> 4
<MEAN> 39
 -5.295757e+00 -4.921940e+00 -1.573723e+00 -2.829473e+00 3.335260e+00 -6.475601e+00 -5.878986e+00 -7.475109e+00 -4.310351e+00 -7.179549e+00 -3.035056e+00 -4.459220e+00 6.529720e+01 -1.092761e-03 -1.233837e-02 -2.240876e-03 8.965855e-03 4.004794e-03 5.441839e-03 1.256101e-02 7.657956e-03 -7.273809e-04 -4.633954e-04 2.142648e-03 1.795180e-03 -2.819662e-03 1.223802e-03 -1.967853e-03 -2.072962e-03 3.476276e-04 1.956408e-04 -1.114019e-03 1.138280e-03 3.181686e-03 1.060813e-04 -2.545781e-03 -1.311388e-03 3.248519e-04 1.131597e-03
<VARIANCE> 39
 1.608019e+02 4.726817e+01 8.603133e+01 8.670151e+01 7.398453e+01 9.249247e+01 7.578198e+01 7.476385e+01 5.771930e+01 4.856607e+01 4.086687e+01 3.438359e+01 1.546362e+02 3.470217e+00 2.320054e+00 2.951170e+00 3.256528e+00 2.672381e+00 3.347064e+00 3.378096e+00 3.106232e+00 3.268866e+00 2.803775e+00 2.317456e+00 2.121739e+00 1.821632e+00 3.839859e-01 3.648640e-01 4.251294e-01 5.132848e-01 4.245362e-01 5.405111e-01 5.748399e-01 5.308400e-01 5.566823e-01 4.857376e-01 4.155170e-01 3.770294e-01 2.307363e-01
<GCONST> 1.297547e+02
<TRANSP> 5
 0.000000e+00 1.000000e+00 0.000000e+00 0.000000e+00 0.000000e+00
 0.000000e+00 7.256286e-01 2.743714e-01 0.000000e+00 0.000000e+00
 0.000000e+00 0.000000e+00 7.256306e-01 2.743693e-01 0.000000e+00
 0.000000e+00 0.000000e+00 0.000000e+00 8.492311e-01 1.507689e-01
 0.000000e+00 0.000000e+00 0.000000e+00 0.000000e+00 0.000000e+00
<ENDHMM>
~h "p"
<BEGINHMM>
<NUMSTATES> 5
<STATE> 2
<MEAN> 39
 -3.560576e+00 -5.293920e+00 -1.452603e+00 -4.034867e+00 3.220613e+00 -8.020457e+00 -6.049148e+00 -7.909495e+00 -5.548815e+00 -8.289389e+00 -3.503504e+00 -4.177835e+00 6.818728e+01 -1.305490e-03 1.860894e-03 1.562386e-02 1.116941e-02 -3.041488e-03 2.985134e-04 1.103229e-03 1.195146e-02 1.295345e-03 -2.251444e-02 -6.809268e-03 3.819420e-03 -2.282577e-03 5.586293e-04 2.464029e-04 -1.103592e-03 6.813087e-04 -2.878929e-04 -3.544218e-04 2.147225e-04 1.810954e-04 6.075757e-04 3.331331e-04 -1.008505e-04 -1.376534e-04 -5.916976e-04
<VARIANCE> 39
 1.495743e+02 4.933290e+01 9.436748e+01 9.189007e+01 8.511677e+01 8.611176e+01 7.554594e+01 6.801483e+01 5.133768e+01 4.641514e+01 3.679123e+01 3.399604e+01 1.228334e+02 4.188729e+00 2.597073e+00 3.634023e+00 3.531075e+00 2.910061e+00 3.672309e+00 3.557532e+00 3.052758e+00 3.062713e+00 2.683206e+00 2.333638e+00 2.124756e+00 1.924231e+00 4.573742e-01 4.287671e-01 5.210618e-01 5.417506e-01 4.588842e-01 5.977814e-01 5.727579e-01 5.273662e-01 5.474044e-01 4.710687e-01 4.207046e-01 3.865633e-01 2.433914e-01
<GCONST> 1.308994e+02
<STATE> 3
<MEAN> 39
 -3.563848e+00 -5.290143e+00 -1.403238e+00 -3.989498e+00 3.210112e+00 -8.020137e+00 -6.044663e+00 -7.866601e+00 -5.540120e+00 -8.362772e+00 -3.527989e+00 -4.166337e+00 6.817636e+01 6.033971e-04 2.461685e-03 1.184792e-02 1.327070e-02 -4.080860e-03 -1.135773e-03 1.826706e-03 1.269766e-02 3.424625e-03 -2.075720e-02 -7.017770e-03 3.372901e-03 -4.082307e-03 3.097419e-04 1.196378e-04 -9.725728e-04 3.395187e-04 -2.403016e-04 -5.315723e-04 2.999464e-04 1.520630e-04 6.534464e-04 8.005873e-04 -1.074142e-04 -1.054522e-04 -4.837903e-04
<VARIANCE> 39
 1.496568e+02 4.990909e+01 9.453688e+01 9.186224e+01 8.638430e+01 8.684866e+01 7.535163e+01 6.802402e+01 5.133879e+01 4.631631e+01 3.639869e+01 3.425362e+01 1.216239e+02 4.219500e+00 2.611672e+00 3.655215e+00 3.527439e+00 2.933241e+00 3.674356e+00 3.551630e+00 3.073802e+00 3.073959e+00 2.672527e+00 2.318366e+00 2.130408e+00 1.913199e+00 4.612301e-01 4.300656e-01 5.240481e-01 5.405559e-01 4.608595e-01 5.976433e-01 5.723843e-01 5.298511e-01 5.488961e-01 4.699825e-01 4.186714e-01 3.863498e-01 2.425397e-01
<GCONST> 1.309547e+02
<STATE> 4
<MEAN> 39
 -3.627618e+00 -5.265676e+00 -1.422241e+00 -3.836738e+00 3.144063e+00 -7.986606e+00 -6.025252e+00 -7.726784e+00 -5.432734e+00 -8.475293e+00 -3.539925e+00 -4.137347e+00 6.797008e+01 1.739388e-03 1.163601e-03 7.503562e-03 1.517846e-02 -4.805046e-03 -3.267946e-03 2.941911e-03 1.366017e-02 6.294940e-03 -1.522973e-02 -6.778262e-03 2.608509e-03 -5.082384e-03 -4.362490e-06 -8.223590e-05 -7.789191e-04 -3.872265e-05 -1.946915e-04 -7.210233e-04 3.167689e-04 1.239880e-04 5.955316e-04 1.271018e-03 -3.218706e-05 -6.651384e-05 -2.895821e-04
<VARIANCE> 39
 1.497577e+02 5.064513e+01 9.394047e+01 9.136869e+01 8.803838e+01 8.751183e+01 7.577740e+01 6.789880e+01 5.166774e+01 4.611257e+01 3.610511e+01 3.426856e+01 1.228379e+02 4.186180e+00 2.632128e+00 3.647464e+00 3.509322e+00 2.941612e+00 3.647139e+00 3.528326e+00 3.076895e+00 3.088162e+00 2.656601e+00 2.302104e+00 2.120771e+00 1.899004e+00 4.575851e-01 4.310459e-01 5.234491e-01 5.374998e-01 4.594388e-01 5.903479e-01 5.693254e-01 5.277058e-01 5.478322e-01 4.688374e-01 4.154733e-01 3.820956e-01 2.404260e-01
<GCONST> 1.308858e+02
<TRANSP> 5
 0.000000e+00 1.000000e+00 0.000000e+00 0.000000e+00 0.000000e+00
 0.000000e+00 7.145423e-01 2.854577e-01 0.000000e+00 0.000000e+00
 0.000000e+00 0.000000e+00 7.145431e-01 2.854569e-01 0.000000e+00
 0.000000e+00 0.000000e+00 0.000000e+00 8.350737e-01 1.649263e-01
 0.000000e+00 0.000000e+00 0.000000e+00 0.000000e+00 0.000000e+00
<ENDHMM>
~h "r"
<BEGINHMM>
<NUMSTATES> 5
<STATE> 2
<MEAN> 39
 -4.941368e+00 -4.922729e+00 -1.753665e+00 -2.936565e+00 3.451375e+00 -6.639530e+00 -5.630013e+00 -7.731638e+00 -5.424082e+00 -7.401265e+00 -2.918362e+00 -4.210323e+00 6.561253e+01 -1.256497e-02 -2.237676e-03 -1.163962e-02 9.131578e-03 -1.296943e-03 -6.525582e-03 2.880184e-03 3.225566e-03 2.787302e-03 1.045518e-02 -1.719892e-03 -8.688786e-05 -2.876062e-02 -6.744712e-04 -5.039359e-04 6.228631e-04 1.149672e-04 -1.627787e-04 6.525695e-04 6.184690e-04 -1.281447e-04 1.171986e-04 -3.266000e-04 3.479559e-04 -1.935532e-04 1.201828e-04
<VARIANCE> 39
 1.641358e+02 5.162979e+01 9.497990e+01 9.071294e+01 7.758487e+01 8.345734e+01 7.266749e+01 6.562223e+01 5.258053e+01 4.813816e+01 3.800101e+01 3.606976e+01 1.457072e+02 3.465993e+00 2.424344e+00 3.067293e+00 3.170331e+00 2.970299e+00 3.568401e+00 3.176700e+00 2.904425e+00 3.159652e+00 2.569162e+00 2.272012e+00 2.098210e+00 1.615406e+00 3.721182e-01 3.644925e-01 4.502980e-01 4.900127e-01 4.769893e-01 5.796491e-01 5.177487e-01 4.926088e-01 5.454736e-01 4.383396e-01 4.033716e-01 3.653784e-01 2.091646e-01
<GCONST> 1.291203e+02
<STATE> 3
<MEAN> 39
 -4.991145e+00 -4.935321e+00 -1.796703e+00 -2.907128e+00 3.444821e+00 -6.660819e+00 -5.619018e+00 -7.721721e+00 -5.415644e+00 -7.365618e+00 -2.925308e+00 -4.209250e+00 6.551218e+01 -1.514171e-02 -3.977160e-03 -9.703773e-03 9.180105e-03 -1.370395e-03 -4.400668e-03 5.240610e-03 3.388940e-03 3.251484e-03 8.855105e-03 -1.009057e-03 -1.245082e-03 -2.803456e-02 -5.680252e-04 -3.044957e-04 4.784503e-04 -9.290874e-05 -1.742412e-04 5.999134e-04 7.895899e-04 1.606222e-04 2.665393e-04 -2.315865e-04 2.193735e-04 -2.499684e-04 2.044729e-04
<VARIANCE> 39
 1.636351e+02 5.143541e+01 9.377707e+01 9.044165e+01 7.762527e+01 8.300123e+01 7.260715e+01 6.542867e+01 5.270988e+01 4.797237e+01 3.804933e+01 3.623727e+01 1.468901e+02 3.448721e+00 2.422266e+00 3.042950e+00 3.141741e+00 2.971744e+00 3.568419e+00 3.196215e+00 2.897399e+00 3.155590e+00 2.563723e+00 2.254595e+00 2.102611e+00 1.614335e+00 3.704950e-01 3.647035e-01 4.471258e-01 4.853090e-01 4.790332e-01 5.820501e-01 5.220098e-01 4.920906e-01 5.444511e-01 4.375501e-01 4.000794e-01 3.663371e-01 2.095111e-01
<GCONST> 1.290611e+02
<STATE> 4
<MEAN> 39
 -5.174468e+00 -4.962837e+00 -1.657965e+00 -2.899180e+00 3.299293e+00 -6.475422e+00 -5.541516e+00 -7.690649e+00 -5.291613e+00 -7.241385e+00 -2.868800e+00 -4.196887e+00 6.537223e+01 -1.825696e-02 -5.872509e-03 -8.986894e-03 8.363410e-03 -5.161057e-04 -2.418680e-03 7.410657e-03 4.483826e-03 3.242155e-03 7.156554e-03 -1.082023e-03 -2.455495e-03 -2.624723e-02 -4.030531e-04 -2.404104e-05 3.700969e-04 -1.609023e-04 -8.521136e-06 5.025440e-04 7.646485e-04 4.079104e-04 4.270338e-04 -3.926540e-05 9.287264e-05 -2.799019e-04 2.176131e-04
<VARIANCE> 39
 1.626435e+02 5.220614e+01 9.305116e+01 8.983716e+01 7.749087e+01 8.306602e+01 7.261597e+01 6.572365e+01 5.306873e+01 4.884385e+01 3.900291e+01 3.650795e+01 1.475439e+02 3.436552e+00 2.456848e+00 3.020365e+00 3.093751e+00 2.982424e+00 3.552872e+00 3.208882e+00 2.923765e+00 3.144898e+00 2.575050e+00 2.243974e+00 2.124076e+00 1.660117e+00 3.710402e-01 3.693297e-01 4.450696e-01 4.793263e-01 4.857947e-01 5.832976e-01 5.267845e-01 4.978067e-01 5.402859e-01 4.380538e-01 3.976063e-01 3.697664e-01 2.158824e-01
<GCONST> 1.292154e+02
<TRANSP> 5
 0.000000e+00 1.000000e+00 0.000000e+00 0.000000e+00 0.000000e+00
 0.000000e+00 7.218999e-01 2.781002e-01 0.000000e+00 0.000000e+00
 0.000000e+00 0.000000e+00 7.218991e-01 2.781009e-01 0.000000e+00
 0.000000e+00 0.000000e+00 0.000000e+00 8.449709e-01 1.550291e-01
 0.000000e+00 0.000000e+00 0.000000e+00 0.000000e+00 0.000000e+00
<ENDHMM>
~h "s"
<BEGINHMM>
<NUMSTATES> 5
<STATE> 2
<MEAN> 39
 -6.459509e+00 -5.457920e+00 -2.887168e-01 -3.618459e+00 3.180645e+00 -6.775817e+00 -5.333058e+00 -7.814347e+00 -5.113399e+00 -7.166536e+00 -3.211008e+00 -4.650212e+00 6.581582e+01 -4.961872e-03 5.106914e-03 2.203865e-03 -2.015798e-02 -4.529699e-03 -4.520217e-03 6.527298e-03 -3.721621e-03 4.058564e-05 2.151961e-03 -2.557891e-03 -4.443967e-03 1.180332e-02 6.701417e-04 3.335514e-04 -1.049344e-03 -4.802810e-04 -1.090001e-04 -5.164645e-04 -7.420557e-04 -9.328080e-05 2.087825e-04 -1.206642e-05 6.400690e-04 4.298979e-04 6.642067e-04
<VARIANCE> 39
 1.810109e+02 4.356226e+01 1.073962e+02 9.057008e+01 7.527444e+01 9.516093e+01 8.170096e+01 7.751167e+01 5.607254e+01 4.894926e+01 3.802742e+01 3.169532e+01 1.593618e+02 4.387507e+00 2.161489e+00 3.432431e+00 3.287862e+00 2.792590e+00 3.549995e+00 3.518376e+00 3.077227e+00 3.203972e+00 2.660618e+00 2.204637e+00 1.982988e+00 1.878608e+00 4.641837e-01 3.380023e-01 4.723424e-01 5.164606e-01 4.466833e-01 5.576383e-01 5.791134e-01 5.263543e-01 5.658892e-01 4.653558e-01 4.039472e-01 3.491786e-01 2.404555e-01
<GCONST> 1.305844e+02
<STATE> 3
<MEAN> 39
 -6.475644e+00 -5.439286e+00 -2.910608e-01 -3.700670e+00 3.158441e+00 -6.794319e+00 -5.315226e+00 -7.830907e+00 -5.112073e+00 -7.156111e+00 -3.216576e+00 -4.661370e+00 6.586027e+01 -1.809990e-03 5.330171e-03 -1.701133e-03 -2.238460e-02 -5.607831e-03 -6.007920e-03 3.123465e-03 -4.366035e-03 5.774503e-05 1.894237e-03 -6.912202e-04 -2.810481e-03 1.447566e-02 1.131547e-03 -2.169049e-04 -1.305395e-03 -4.934060e-04 -2.415858e-04 -4.117364e-04 -5.778673e-04 4.175749e-04 1.928931e-04 -4.166350e-04 3.147583e-04 5.740023e-04 9.254451e-04
<VARIANCE> 39
 1.814703e+02 4.324237e+01 1.074251e+02 9.113818e+01 7.569785e+01 9.547053e+01 8.153990e+01 7.770486e+01 5.623620e+01 4.889030e+01 3.786969e+01 3.179920e+01 1.591243e+02 4.417112e+00 2.164439e+00 3.444744e+00 3.291921e+00 2.803339e+00 3.563249e+00 3.532036e+00 3.093152e+00 3.216415e+00 2.665751e+00 2.204834e+00 1.987009e+00 1.889079e+00 4.661910e-01 3.392429e-01 4.740748e-01 5.165405e-01 4.472904e-01 5.599055e-01 5.812958e-01 5.292050e-01 5.689330e-01 4.663765e-01 4.031809e-01 3.497216e-01 2.413053e-01
<GCONST> 1.306749e+02
<STATE> 4
<MEAN> 39
 -6.631824e+00 -5.390411e+00 -1.785134e-01 -3.780140e+00 3.099049e+00 -6.584825e+00 -5.285665e+00 -7.867717e+00 -4.974141e+00 -7.107077e+00 -3.206552e+00 -4.653002e+00 6.584992e+01 3.123841e-03 4.581615e-03 -6.330600e-03 -2.799370e-02 -8.957638e-03 -7.486569e-03 1.328959e-03 -3.766373e-03 1.812749e-03 5.010823e-04 -7.138196e-04 -2.707666e-04 1.933165e-02 1.526806e-03 -6.874228e-04 -1.355938e-03 -4.342633e-04 -2.604233e-04 -4.329470e-04 2.014980e-04 1.323885e-03 4.918408e-04 -1.118320e-03 -3.407802e-04 5.304969e-04 1.347846e-03
<VARIANCE> 39
 1.818214e+02 4.331700e+01 1.075139e+02 9.099673e+01 7.565838e+01 9.691931e+01 8.078112e+01 7.845083e+01 5.660673e+01 4.899768e+01 3.797931e+01 3.218896e+01 1.587798e+02 4.423052e+00 2.185336e+00 3.454431e+00 3.291287e+00 2.810986e+00 3.562723e+00 3.521062e+00 3.130418e+00 3.235841e+00 2.683144e+00 2.205876e+00 2.008405e+00 1.930598e+00 4.646015e-01 3.432516e-01 4.773370e-01 5.159537e-01 4.501760e-01 5.597635e-01 5.799537e-01 5.329205e-01 5.725821e-01 4.701687e-01 4.022897e-01 3.534981e-01 2.456234e-01
<GCONST> 1.308504e+02
<TRANSP> 5
 0.000000e+00 1.000000e+00 0.000000e+00 0.000000e+00 0.000000e+00
 0.000000e+00 7.219794e-01 2.780206e-01 0.000000e+00 0.000000e+00
 0.000000e+00 0.000000e+00 7.219803e-01 2.780197e-01 0.000000e+00
 0.000000e+00 0.000000e+00 0.000000e+00 8.452884e-01 1.547116e-01
 0.000000e+00 0.000000e+00 0.000000e+00 0.000000e+00 0.000000e+00
<ENDHMM>
~h "t"
<BEGINHMM>
<NUMSTATES> 5
<STATE> 2
<MEAN> 39
 -6.161454e+00 -5.534657e+00 -1.290947e+00 -3.094330e+00 2.787186e+00 -6.657589e+00 -5.296208e+00 -7.412434e+00 -4.905956e+00 -7.468439e+00 -3.034118e+00 -4.418735e+00 6.486317e+01 -2.662889e-03 6.571109e-03 -5.760161e-03 -1.047591e-02 -1.039125e-02 6.999715e-03 3.333230e-03 6.924365e-04 3.196992e-03 3.783544e-03 -5.431566e-04 3.298844e-03 -1.207080e-02 6.259586e-04 -5.133795e-04 -4.009166e-04 3.776795e-04 5.330194e-04 4.116521e-04 6.278915e-04 4.547990e-04 -8.118650e-04 -5.656829e-04 2.188009e-05 -4.502365e-05 7.362103e-04
<VARIANCE> 39
 1.670418e+02 4.818330e+01 8.961485e+01 8.368184e+01 7.600762e+01 8.813768e+01 7.680919e+01 7.204734e+01 5.686220e+01 4.671215e+01 3.641742e+01 3.284571e+01 1.640112e+02 3.650384e+00 2.266001e+00 3.009300e+00 3.285146e+00 2.814704e+00 3.546503e+00 3.296008e+00 2.849690e+00 3.223086e+00 2.570098e+00 2.097965e+00 1.958207e+00 1.791737e+00 4.011427e-01 3.526986e-01 4.351929e-01 5.163610e-01 4.483437e-01 5.678560e-01 5.472993e-01 4.920724e-01 5.585910e-01 4.413585e-01 3.751121e-01 3.489568e-01 2.303989e-01
<GCONST> 1.291180e+02
<STATE> 3
<MEAN> 39
 -6.172443e+00 -5.509723e+00 -1.310149e+00 -3.133067e+00 2.756849e+00 -6.625862e+00 -5.279947e+00 -7.408422e+00 -4.898996e+00 -7.459079e+00 -3.036254e+00 -4.410432e+00 6.482349e+01 -9.500920e-04 4.679523e-03 -7.128220e-03 -9.437209e-03 -8.509457e-03 6.951233e-03 4.804221e-03 2.092211e-03 8.647650e-04 2.189289e-03 -6.295368e-05 2.940495e-03 -9.332027e-03 7.154588e-04 -1.107448e-03 -1.002456e-03 3.918647e-04 5.886678e-04 -2.272718e-04 9.145995e-04 1.327132e-03 -4.391802e-04 -1.147396e-03 -2.868001e-04 -1.543355e-04 1.082597e-03
<VARIANCE> 39
 1.672850e+02 4.789042e+01 8.962744e+01 8.371713e+01 7.574445e+01 8.804139e+01 7.690230e+01 7.197665e+01 5.693675e+01 4.687418e+01 3.636172e+01 3.281504e+01 1.649476e+02 3.657732e+00 2.267325e+00 3.009760e+00 3.276526e+00 2.805866e+00 3.528634e+00 3.291637e+00 2.860611e+00 3.219525e+00 2.573459e+00 2.098511e+00 1.951961e+00 1.795548e+00 4.018200e-01 3.535126e-01 4.353700e-01 5.149104e-01 4.470073e-01 5.642839e-01 5.463257e-01 4.939371e-01 5.568919e-01 4.415836e-01 3.752960e-01 3.483132e-01 2.314766e-01
<GCONST> 1.291065e+02
<STATE> 4
<MEAN> 39
 -6.273391e+00 -5.467770e+00 -1.248829e+00 -3.137838e+00 2.712521e+00 -6.376126e+00 -5.237342e+00 -7.378511e+00 -4.780926e+00 -7.485390e+00 -3.006159e+00 -4.382586e+00 6.471946e+01 1.965427e-03 8.267127e-04 -1.102191e-02 -7.443676e-03 -6.884976e-03 3.987213e-03 7.400224e-03 7.063673e-03 1.081542e-03 -2.284183e-03 -1.022018e-03 2.710824e-03 -5.147590e-03 1.407937e-03 -2.141835e-03 -2.299131e-03 6.412040e-04 3.410240e-04 -1.123744e-03 1.526457e-03 3.100636e-03 2.850619e-04 -2.535652e-03 -1.299128e-03 -1.078090e-05 1.573346e-03
<VARIANCE> 39
 1.669769e+02 4.824999e+01 8.992731e+01 8.320619e+01 7.478870e+01 8.851631e+01 7.737169e+01 7.197684e+01 5.709727e+01 4.720859e+01 3.655412e+01 3.294122e+01 1.652039e+02 3.639799e+00 2.312240e+00 3.027543e+00 3.250962e+00 2.779258e+00 3.477107e+00 3.292517e+00 2.917048e+00 3.209562e+00 2.598645e+00 2.104431e+00 1.950018e+00 1.833661e+00 3.996750e-01 3.600922e-01 4.384010e-01 5.122427e-01 4.440622e-01 5.549803e-01 5.456227e-01 5.020225e-01 5.529417e-01 4.447080e-01 3.762310e-01 3.487970e-01 2.368474e-01
<GCONST> 1.291998e+02
<TRANSP> 5
 0.000000e+00 1.000000e+00 0.000000e+00 0.000000e+00 0.000000e+00
 0.000000e+00 7.235671e-01 2.764329e-01 0.000000e+00 0.000000e+00
 0.000000e+00 0.000000e+00 7.235656e-01 2.764344e-01 0.000000e+00
 0.000000e+00 0.000000e+00 0.000000e+00 8.470256e-01 1.529744e-01
 0.000000e+00 0.000000e+00 0.000000e+00 0.000000e+00 0.000000e+00
<ENDHMM>
~h "v"
<BEGINHMM>
<NUMSTATES> 5
<STATE> 2
<MEAN> 39
 -5.188217e+00 -5.017137e+00 -1.990519e+00 -2.695662e+00 2.760664e+00 -7.770000e+00 -5.502889e+00 -6.786410e+00 -4.377140e+00 -6.753000e+00 -3.082847e+00 -4.177924e+00 6.486026e+01 1.349252e-02 -4.343877e-03 -1.397499e-02 -3.112728e-03 -2.709476e-02 -1.206761e-02 7.696195e-03 1.808182e-02 1.586146e-02 5.901965e-03 -5.182410e-03 1.588218e-03 -1.569683e-03 -1.485632e-04 -5.002558e-04 -1.605480e-04 -1.786409e-04 -1.207539e-04 2.710411e-04 3.364437e-04 -3.360723e-04 -1.202312e-03 -1.201697e-03 -1.105490e-04 -2.394922e-04 6.044949e-04
<VARIANCE> 39
 1.650672e+02 5.235696e+01 8.259839e+01 7.967292e+01 8.001779e+01 1.106363e+02 7.162572e+01 7.247670e+01 6.573042e+01 5.268335e+01 3.857183e+01 3.421762e+01 1.562112e+02 3.629701e+00 2.335417e+00 2.875778e+00 3.162567e+00 3.040880e+00 3.784344e+00 3.170531e+00 2.953980e+00 3.347591e+00 2.582997e+00 2.161435e+00 1.996737e+00 1.639324e+00 4.125399e-01 3.545025e-01 4.145499e-01 4.861701e-01 4.654039e-01 5.783831e-01 5.217087e-01 4.938488e-01 5.673400e-01 4.345720e-01 3.833345e-01 3.543024e-01 2.067756e-01
<GCONST> 1.295365e+02
<STATE> 3
<MEAN> 39
 -5.133046e+00 -5.032473e+00 -2.043630e+00 -2.707455e+00 2.671053e+00 -7.808265e+00 -5.475865e+00 -6.725976e+00 -4.329031e+00 -6.737826e+00 -3.099846e+00 -4.175945e+00 6.486165e+01 1.309379e-02 -6.115991e-03 -1.417525e-02 -3.520302e-03 -2.687285e-02 -1.134378e-02 8.216623e-03 1.609021e-02 1.083162e-02 1.797416e-03 -5.391420e-03 7.000677e-04 8.141536e-04 -2.931402e-05 -4.158277e-04 -6.404228e-05 -2.423280e-04 1.078304e-04 2.076163e-04 2.485453e-05 -7.629361e-04 -1.514585e-03 -1.122755e-03 1.147857e-05 -2.516939e-04 7.542988e-04
<VARIANCE> 39
 1.644108e+02 5.271293e+01 8.214551e+01 7.997237e+01 7.967937e+01 1.106450e+02 7.169771e+01 7.219841e+01 6.578870e+01 5.313219e+01 3.862054e+01 3.414472e+01 1.567625e+02 3.599249e+00 2.342109e+00 2.880293e+00 3.148125e+00 3.028466e+00 3.741807e+00 3.153845e+00 2.954785e+00 3.338764e+00 2.579485e+00 2.165209e+00 1.984160e+00 1.646873e+00 4.094116e-01 3.551454e-01 4.155611e-01 4.823683e-01 4.627006e-01 5.710475e-01 5.188649e-01 4.937798e-01 5.650496e-01 4.329497e-01 3.843212e-01 3.521267e-01 2.070708e-01
<GCONST> 1.294642e+02
<STATE> 4
<MEAN> 39
 -5.147728e+00 -4.983265e+00 -2.067528e+00 -2.727416e+00 2.499922e+00 -7.523621e+00 -5.384501e+00 -6.614494e+00 -4.115153e+00 -6.734559e+00 -3.084698e+00 -4.206816e+00 6.476318e+01 1.400522e-02 -7.141689e-03 -1.402524e-02 -3.384461e-03 -2.182697e-02 -9.918831e-03 6.680136e-03 1.043630e-02 1.451345e-03 -3.049507e-03 -3.465128e-03 -6.832505e-04 4.827918e-03 -9.606761e-05 -3.079009e-04 2.027379e-04 -1.810408e-04 5.736301e-04 1.358470e-04 -3.055491e-04 -1.284736e-03 -1.808420e-03 -9.170573e-04 3.210271e-04 -1.610408e-04 8.831337e-04
<VARIANCE> 39
 1.630689e+02 5.313031e+01 8.082730e+01 7.969786e+01 7.875797e+01 1.113847e+02 7.268216e+01 7.130424e+01 6.596801e+01 5.391391e+01 3.854944e+01 3.402240e+01 1.588051e+02 3.514924e+00 2.342088e+00 2.855573e+00 3.096367e+00 2.979359e+00 3.625799e+00 3.117484e+00 2.926777e+00 3.317572e+00 2.552154e+00 2.162068e+00 1.964166e+00 1.658327e+00 4.014314e-01 3.540737e-01 4.138746e-01 4.736605e-01 4.569334e-01 5.539539e-01 5.112783e-01 4.898510e-01 5.600403e-01 4.262392e-01 3.842136e-01 3.490313e-01 2.069216e-01
<GCONST> 1.291808e+02
<TRANSP> 5
 0.000000e+00 1.000000e+00 0.000000e+00 0.000000e+00 0.000000e+00
 0.000000e+00 7.208847e-01 2.791152e-01 0.000000e+00 0.000000e+00
 0.000000e+00 0.000000e+00 7.208849e-01 2.791151e-01 0.000000e+00
 0.000000e+00 0.000000e+00 0.000000e+00 8.437443e-01 1.562557e-01
 0.000000e+00 0.000000e+00 0.000000e+00 0.000000e+00 0.000000e+00
<ENDHMM>
~h "w"
<BEGINHMM>
<NUMSTATES> 5
<STATE> 2
<MEAN> 39
 -5.841248e+00 -5.207656e+00 -1.957357e+00 -1.730242e+00 3.827481e+00 -6.712173e+00 -5.738472e+00 -7.711141e+00 -5.117899e+00 -7.265883e+00 -3.064250e+00 -4.322946e+00 6.417673e+01 -5.039242e-03 1.892475e-04 1.421588e-03 1.982413e-04 -9.607933e-03 7.916357e-04 -4.712027e-04 1.653392e-03 8.938229e-03 9.501043e-03 1.334307e-02 8.222685e-03 -9.418381e-04 -6.231905e-04 -7.592812e-04 -3.721663e-04 -4.316719e-04 -1.130686e-03 -6.047987e-04 7.079556e-05 1.037586e-05 1.744064e-03 9.628661e-04 5.658491e-04 8.665116e-04 -6.242282e-04
<VARIANCE> 39
 1.646466e+02 5.246698e+01 8.707507e+01 8.098660e+01 7.497923e+01 8.137020e+01 7.975631e+01 7.265311e+01 5.863609e+01 4.453821e+01 3.801746e+01 3.389626e+01 1.689427e+02 3.206475e+00 2.325691e+00 2.977260e+00 3.075334e+00 2.739735e+00 3.181505e+00 3.440656e+00 2.988495e+00 3.082329e+00 2.541282e+00 2.202323e+00 2.111924e+00 1.542824e+00 3.589858e-01 3.396179e-01 4.276739e-01 4.716625e-01 4.350313e-01 5.148233e-01 5.667731e-01 5.077050e-01 5.232972e-01 4.471208e-01 3.879698e-01 3.760891e-01 1.892738e-01
<GCONST> 1.284010e+02
<STATE> 3
<MEAN> 39
 -5.859610e+00 -5.221986e+00 -1.951019e+00 -1.725016e+00 3.777781e+00 -6.708252e+00 -5.746818e+00 -7.720839e+00 -5.078618e+00 -7.224597e+00 -3.009354e+00 -4.281603e+00 6.416454e+01 -5.568525e-03 -3.552425e-03 -2.612201e-04 6.816613e-04 -1.640999e-02 -6.975270e-04 9.499118e-05 9.220839e-05 1.403234e-02 1.197939e-02 1.455570e-02 1.092365e-02 -5.530504e-03 -1.384401e-04 -1.019490e-03 -4.122428e-04 4.568975e-05 -1.653622e-03 -3.436754e-04 2.168216e-04 -4.076015e-04 1.226387e-03 4.637563e-04 6.521044e-05 5.611012e-04 -1.174201e-03
<VARIANCE> 39
 1.642270e+02 5.288838e+01 8.749966e+01 8.151952e+01 7.471369e+01 8.187261e+01 7.958950e+01 7.218764e+01 5.836458e+01 4.436833e+01 3.837322e+01 3.383104e+01 1.680257e+02 3.201842e+00 2.341377e+00 2.972682e+00 3.092247e+00 2.726880e+00 3.189776e+00 3.469015e+00 2.987935e+00 3.069359e+00 2.515262e+00 2.201926e+00 2.116839e+00 1.544931e+00 3.569925e-01 3.421439e-01 4.265364e-01 4.748780e-01 4.331484e-01 5.154303e-01 5.719012e-01 5.079968e-01 5.207878e-01 4.419897e-01 3.869935e-01 3.773911e-01 1.895601e-01
<GCONST> 1.284081e+02
<STATE> 4
<MEAN> 39
 -6.088288e+00 -5.255006e+00 -1.844374e+00 -1.682521e+00 3.610199e+00 -6.504274e+00 -5.698971e+00 -7.683887e+00 -4.916929e+00 -7.159430e+00 -2.955098e+00 -4.248107e+00 6.395597e+01 -5.594684e-03 -6.982177e-03 2.773428e-03 4.619742e-03 -2.163095e-02 -1.626124e-03 3.328789e-03 8.566566e-04 1.456695e-02 1.124814e-02 1.193682e-02 8.557183e-03 -1.106514e-02 -8.982205e-05 -3.825175e-04 8.361309e-05 5.121931e-05 -4.778876e-04 -3.413195e-04 6.871352e-04 4.939848e-04 2.140052e-04 -2.594282e-04 -7.146779e-04 -5.172123e-04 -6.134706e-04
<VARIANCE> 39
 1.640132e+02 5.378941e+01 8.823164e+01 8.098241e+01 7.345293e+01 8.374326e+01 7.929824e+01 7.119631e+01 5.756512e+01 4.430843e+01 3.895421e+01 3.373277e+01 1.698375e+02 3.144304e+00 2.353381e+00 2.945408e+00 3.071065e+00 2.672253e+00 3.176830e+00 3.493105e+00 2.970370e+00 3.031190e+00 2.479253e+00 2.188078e+00 2.109774e+00 1.552670e+00 3.458748e-01 3.416652e-01 4.210435e-01 4.729546e-01 4.251304e-01 5.111831e-01 5.776284e-01 5.056940e-01 5.148655e-01 4.344881e-01 3.844423e-01 3.774802e-01 1.903478e-01
<GCONST> 1.282348e+02
<TRANSP> 5
 0.000000e+00 1.000000e+00 0.000000e+00 0.000000e+00 0.000000e+00
 0.000000e+00 7.219591e-01 2.780408e-01 0.000000e+00 0.000000e+00
 0.000000e+00 0.000000e+00 7.219585e-01 2.780416e-01 0.000000e+00
 0.000000e+00 0.000000e+00 0.000000e+00 8.450873e-01 1.549127e-01
 0.000000e+00 0.000000e+00 0.000000e+00 0.000000e+00 0.000000e+00
<ENDHMM>
~h "y"
<BEGINHMM>
<NUMSTATES> 5
<STATE> 2
<MEAN> 39
 -5.436336e+00 -5.489346e+00 -8.936594e-01 -1.217947e+00 4.921682e+00 -6.616513e+00 -5.692677e+00 -7.946856e+00 -4.594454e+00 -6.224726e+00 -2.977747e+00 -4.603735e+00 6.522259e+01 1.852187e-02 6.909085e-03 -1.103279e-02 2.046709e-02 -1.132097e-03 3.241697e-02 5.539333e-03 -7.769242e-03 -1.080672e-02 -2.792315e-02 5.364706e-03 -1.274156e-02 -6.406355e-03 -8.964704e-04 7.083142e-04 1.923298e-04 -1.571402e-03 2.081596e-04 -2.392172e-04 1.083372e-03 1.766981e-03 -4.891056e-04 -9.056244e-04 -3.237424e-04 4.284005e-04 3.733455e-04
<VARIANCE> 39
 1.624213e+02 4.270028e+01 8.498981e+01 9.616515e+01 8.831315e+01 1.101922e+02 9.359630e+01 7.517843e+01 7.058564e+01 5.224574e+01 3.898986e+01 3.412755e+01 1.620524e+02 3.078691e+00 2.032435e+00 2.993767e+00 3.264593e+00 2.737735e+00 3.652251e+00 3.077599e+00 2.880722e+00 3.450898e+00 2.731629e+00 2.349113e+00 2.112035e+00 1.546064e+00 3.159132e-01 3.002454e-01 4.282207e-01 4.947158e-01 4.186106e-01 5.736122e-01 5.245168e-01 4.751917e-01 5.647537e-01 4.672603e-01 4.283821e-01 3.923893e-01 1.877904e-01
<GCONST> 1.294341e+02
<STATE> 3
<MEAN> 39
 -5.382083e+00 -5.464889e+00 -9.299667e-01 -1.159148e+00 4.919049e+00 -6.494051e+00 -5.664680e+00 -7.969088e+00 -4.645383e+00 -6.331624e+00 -2.957102e+00 -4.641765e+00 6.520318e+01 1.613451e-02 7.972551e-03 -1.131063e-02 1.652988e-02 -9.585461e-04 3.185054e-02 8.564648e-03 -2.064664e-03 -1.130245e-02 -3.057785e-02 4.207897e-03 -9.363286e-03 -5.260934e-03 -7.988763e-04 3.135536e-04 1.539735e-04 -1.236349e-03 1.340540e-04 -1.558868e-04 7.329973e-04 1.584601e-03 6.757036e-06 -6.232447e-04 -3.961097e-04 8.972097e-04 3.102032e-04
<VARIANCE> 39
 1.614077e+02 4.327893e+01 8.465926e+01 9.547992e+01 8.817116e+01 1.091301e+02 9.476076e+01 7.530425e+01 6.993190e+01 5.225880e+01 3.803826e+01 3.422813e+01 1.609491e+02 3.079984e+00 2.080222e+00 3.016058e+00 3.282759e+00 2.747823e+00 3.645667e+00 3.087562e+00 2.880551e+00 3.434693e+00 2.743579e+00 2.329936e+00 2.117235e+00 1.559281e+00 3.172126e-01 3.070711e-01 4.352330e-01 4.970619e-01 4.207466e-01 5.746913e-01 5.247658e-01 4.746144e-01 5.649868e-01 4.694725e-01 4.265287e-01 3.916738e-01 1.911276e-01
<GCONST> 1.295098e+02
<STATE> 4
<MEAN> 39
 -5.626759e+00 -5.406511e+00 -7.334287e-01 -1.163442e+00 4.614858e+00 -5.827908e+00 -5.362840e+00 -7.715001e+00 -4.471550e+00 -6.518947e+00 -2.810740e+00 -4.683270e+00 6.491160e+01 1.252560e-02 4.214266e-03 -1.258058e-02 1.300476e-02 -9.841730e-04 3.265856e-02 1.071618e-02 2.119707e-03 -1.218336e-02 -3.347270e-02 1.235612e-03 -2.543085e-03 -2.616422e-03 -4.602227e-04 -1.027860e-04 -3.039301e-05 -6.335592e-04 9.782836e-05 -6.456015e-05 2.844741e-04 1.130562e-03 5.044065e-04 -4.011838e-04 -7.167975e-04 8.638983e-04 2.415762e-04
<VARIANCE> 39
 1.598353e+02 4.618159e+01 8.574821e+01 9.316242e+01 8.727686e+01 1.108089e+02 9.760596e+01 7.570114e+01 6.893233e+01 5.214484e+01 3.729440e+01 3.475118e+01 1.602234e+02 3.142102e+00 2.194248e+00 3.106416e+00 3.293742e+00 2.710092e+00 3.644260e+00 3.175052e+00 2.906123e+00 3.407313e+00 2.735949e+00 2.299489e+00 2.145291e+00 1.618061e+00 3.275532e-01 3.219197e-01 4.564383e-01 5.035850e-01 4.188575e-01 5.769063e-01 5.393661e-01 4.798944e-01 5.617664e-01 4.689615e-01 4.197586e-01 3.956682e-01 2.008791e-01
<GCONST> 1.299373e+02
<TRANSP> 5
 0.000000e+00 1.000000e+00 0.000000e+00 0.000000e+00 0.000000e+00
 0.000000e+00 7.260087e-01 2.739913e-01 0.000000e+00 0.000000e+00
 0.000000e+00 0.000000e+00 7.260087e-01 2.739913e-01 0.000000e+00
 0.000000e+00 0.000000e+00 0.000000e+00 8.510197e-01 1.489803e-01
 0.000000e+00 0.000000e+00 0.000000e+00 0.000000e+00 0.000000e+00
<ENDHMM>
~h "z"
<BEGINHMM>
<NUMSTATES> 5
<STATE> 2
<MEAN> 39
 -7.536699e+00 -4.927499e+00 -7.031513e-01 -2.562043e+00 3.109956e+00 -5.294617e+00 -4.951756e+00 -7.354979e+00 -4.447276e+00 -6.429446e+00 -2.750799e+00 -4.767437e+00 6.362716e+01 8.999439e-03 2.265479e-03 5.251646e-03 3.108424e-02 2.402277e-02 5.485242e-03 -1.861494e-02 -1.204660e-02 -3.144685e-03 -4.582481e-03 -3.985072e-03 -6.051762e-03 1.793784e-03 1.180413e-03 -2.461642e-03 -3.144510e-03 -1.153259e-03 -5.508035e-04 -8.345518e-04 2.383878e-03 3.572251e-03 3.765851e-04 -3.399934e-03 -1.302585e-03 8.042287e-04 2.543856e-03
<VARIANCE> 39
 1.792389e+02 4.524154e+01 9.577203e+01 8.577451e+01 6.465240e+01 8.536717e+01 7.500787e+01 7.126225e+01 5.859282e+01 4.360729e+01 3.645528e+01 3.146941e+01 1.855167e+02 3.715012e+00 2.184809e+00 3.021915e+00 2.793815e+00 2.580780e+00 3.165442e+00 3.059300e+00 2.860559e+00 3.019204e+00 2.456166e+00 2.204966e+00 1.966119e+00 1.750587e+00 4.261473e-01 3.417125e-01 4.497075e-01 4.149364e-01 4.193637e-01 5.155843e-01 5.213272e-01 4.969468e-01 5.015701e-01 4.260748e-01 3.993305e-01 3.536837e-01 2.198344e-01
<GCONST> 1.280297e+02
<STATE> 3
<MEAN> 39
 -7.505164e+00 -4.926804e+00 -6.805611e-01 -2.459033e+00 3.190929e+00 -5.281201e+00 -5.024447e+00 -7.399937e+00 -4.455709e+00 -6.448405e+00 -2.765463e+00 -4.785635e+00 6.364701e+01 1.356507e-02 -8.116314e-03 -7.425589e-03 2.732917e-02 2.155730e-02 2.367074e-03 -9.024402e-03 2.817200e-03 -1.245513e-03 -1.793647e-02 -9.595775e-03 -2.578672e-03 1.069299e-02 2.547995e-03 -5.628930e-03 -6.274479e-03 -1.614614e-03 -5.366351e-04 -1.740827e-03 4.815015e-03 8.059472e-03 1.079974e-03 -6.973007e-03 -3.687406e-03 1.522349e-03 4.278106e-03
<VARIANCE> 39
 1.785380e+02 4.539049e+01 9.582776e+01 8.604092e+01 6.487466e+01 8.475835e+01 7.527505e+01 7.238181e+01 5.823682e+01 4.408988e+01 3.615909e+01 3.148769e+01 1.859984e+02 3.734610e+00 2.216062e+00 3.070065e+00 2.775807e+00 2.563297e+00 3.181624e+00 3.081585e+00 2.967384e+00 3.017970e+00 2.510160e+00 2.212983e+00 1.971893e+00 1.763863e+00 4.290255e-01 3.487461e-01 4.584805e-01 4.107947e-01 4.167049e-01 5.178550e-01 5.259700e-01 5.139926e-01 5.006314e-01 4.344690e-01 4.019209e-01 3.535930e-01 2.219900e-01
<GCONST> 1.282653e+02
<STATE> 4
<MEAN> 39
 -7.465575e+00 -4.935331e+00 -4.961556e-01 -2.398631e+00 3.248800e+00 -4.973167e+00 -5.173167e+00 -7.518231e+00 -4.390552e+00 -6.466402e+00 -2.827038e+00 -4.832819e+00 6.392105e+01 2.030467e-02 -2.780480e-02 -2.777375e-02 1.976948e-02 1.739991e-02 -4.218990e-03 6.593209e-03 3.012534e-02 4.225274e-03 -4.021776e-02 -2.260023e-02 2.987561e-03 2.522467e-02 2.485464e-03 -6.246818e-03 -7.823355e-03 -2.268448e-03 -4.189135e-04 -1.294669e-03 6.487281e-03 1.007204e-02 1.731169e-03 -8.914548e-03 -5.814146e-03 1.502994e-03 3.999204e-03
<VARIANCE> 39
 1.773566e+02 4.654456e+01 9.871111e+01 8.483246e+01 6.473371e+01 8.654639e+01 7.585159e+01 7.644897e+01 5.759097e+01 4.640872e+01 3.639518e+01 3.157932e+01 1.826486e+02 3.854293e+00 2.311853e+00 3.227407e+00 2.737860e+00 2.526860e+00 3.208330e+00 3.119162e+00 3.220991e+00 3.023374e+00 2.649931e+00 2.241428e+00 1.982420e+00 1.865368e+00 4.421025e-01 3.664345e-01 4.854959e-01 4.049916e-01 4.136870e-01 5.227537e-01 5.335297e-01 5.529576e-01 5.018646e-01 4.562355e-01 4.074289e-01 3.538858e-01 2.354790e-01
<GCONST> 1.290766e+02
<TRANSP> 5
 0.000000e+00 1.000000e+00 0.000000e+00 0.000000e+00 0.000000e+00
 0.000000e+00 7.254033e-01 2.745966e-01 0.000000e+00 0.000000e+00
 0.000000e+00 0.000000e+00 7.254038e-01 2.745961e-01 0.000000e+00
 0.000000e+00 0.000000e+00 0.000000e+00 8.506835e-01 1.493164e-01
 0.000000e+00 0.000000e+00 0.000000e+00 0.000000e+00 0.000000e+00
<ENDHMM>
~h "aa"
<BEGINHMM>
<NUMSTATES> 5
<STATE> 2
<MEAN> 39
 -6.570000e+00 -5.797896e+00 -2.800231e+00 -2.776940e+00 1.454328e+00 -7.415239e+00 -4.697877e+00 -6.729364e+00 -4.109754e+00 -6.951156e+00 -2.871079e+00 -3.809720e+00 6.303806e+01 5.195427e-02 -1.812185e-02 2.218832e-02 2.842311e-02 5.042725e-02 -4.235440e-03 -6.671491e-02 -6.207379e-02 -2.143701e-02 1.200410e-04 1.562676e-02 5.307576e-03 8.419202e-02 8.932787e-04 -6.008609e-04 1.881737e-04 -8.311035e-05 3.503171e-04 -1.774082e-04 2.103913e-04 5.928398e-04 7.926284e-04 -6.034041e-04 8.322306e-05 2.262127e-04 2.421125e-03
<VARIANCE> 39
 1.574917e+02 4.695192e+01 8.475256e+01 9.169956e+01 8.670514e+01 7.410887e+01 8.105600e+01 6.702130e+01 4.882474e+01 4.231847e+01 3.204301e+01 3.264209e+01 1.904502e+02 3.323102e+00 2.417366e+00 2.939154e+00 2.971653e+00 2.944209e+00 3.311041e+00 3.341261e+00 2.948053e+00 3.052496e+00 2.436618e+00 2.256357e+00 2.355815e+00 2.010027e+00 3.908346e-01 3.574814e-01 4.415749e-01 4.440665e-01 4.570573e-01 5.392934e-01 5.702050e-01 5.183982e-01 5.247957e-01 4.108148e-01 4.281578e-01 4.168488e-01 2.463606e-01
<GCONST> 1.290633e+02
<STATE> 3
<MEAN> 39
 -6.367186e+00 -5.865849e+00 -2.717076e+00 -2.672017e+00 1.639663e+00 -7.438658e+00 -4.945741e+00 -6.953090e+00 -4.180294e+00 -6.952473e+00 -2.816103e+00 -3.790357e+00 6.336856e+01 5.483040e-02 -2.044215e-02 2.260400e-02 2.754074e-02 5.107320e-02 -5.123566e-03 -6.529901e-02 -5.933765e-02 -1.873930e-02 -1.812622e-03 1.576572e-02 5.860623e-03 9.255041e-02 4.623306e-04 -6.135992e-04 5.640020e-05 -4.525797e-04 -7.954036e-05 -2.559191e-04 6.409518e-04 9.024977e-04 7.593255e-04 -7.506717e-04 -5.160624e-05 1.904316e-04 2.085450e-03
<VARIANCE> 39
 1.573815e+02 4.757081e+01 8.642829e+01 9.244804e+01 8.706234e+01 7.437402e+01 8.117560e+01 6.857031e+01 4.964070e+01 4.255714e+01 3.226205e+01 3.289000e+01 1.887295e+02 3.389755e+00 2.426400e+00 2.971133e+00 2.996114e+00 2.983191e+00 3.358499e+00 3.361590e+00 3.007491e+00 3.069933e+00 2.445931e+00 2.274252e+00 2.378620e+00 2.049717e+00 3.979132e-01 3.564298e-01 4.454010e-01 4.474289e-01 4.617666e-01 5.456526e-01 5.730053e-01 5.242907e-01 5.269001e-01 4.118333e-01 4.312866e-01 4.200394e-01 2.491793e-01
<GCONST> 1.294076e+02
<STATE> 4
<MEAN> 39
 -6.082088e+00 -5.997569e+00 -2.576225e+00 -2.455656e+00 1.782152e+00 -7.508054e+00 -5.278989e+00 -7.222039e+00 -4.117916e+00 -6.956281e+00 -2.758423e+00 -3.725800e+00 6.387677e+01 5.802673e-02 -2.295630e-02 2.311179e-02 2.443510e-02 4.876832e-02 -8.754841e-03 -6.305824e-02 -5.459691e-02 -1.486110e-02 -3.258020e-03 1.474054e-02 5.423656e-03 1.030018e-01 -2.737958e-04 -5.240681e-04 -2.572546e-05 -9.139736e-04 -7.205954e-04 -3.118276e-04 1.104597e-03 1.142454e-03 5.702767e-04 -7.327464e-04 -1.833291e-04 1.828669e-05 1.215934e-03
<VARIANCE> 39
 1.564493e+02 4.806559e+01 8.886360e+01 9.294465e+01 8.695882e+01 7.644870e+01 8.071641e+01 7.054261e+01 5.063574e+01 4.318982e+01 3.265927e+01 3.407677e+01 1.851864e+02 3.466122e+00 2.422518e+00 2.990804e+00 2.994501e+00 3.028248e+00 3.393095e+00 3.330606e+00 3.101571e+00 3.057157e+00 2.444744e+00 2.300703e+00 2.420474e+00 2.123494e+00 4.070546e-01 3.533124e-01 4.473476e-01 4.478736e-01 4.691827e-01 5.491749e-01 5.696049e-01 5.357452e-01 5.249232e-01 4.125988e-01 4.363123e-01 4.228133e-01 2.548779e-01
<GCONST> 1.297870e+02
<TRANSP> 5
 0.000000e+00 1.000000e+00 0.000000e+00 0.000000e+00 0.000000e+00
 0.000000e+00 7.224626e-01 2.775374e-01 0.000000e+00 0.000000e+00
 0.000000e+00 0.000000e+00 7.224630e-01 2.775370e-01 0.000000e+00
 0.000000e+00 0.000000e+00 0.000000e+00 8.446823e-01 1.553178e-01
 0.000000e+00 0.000000e+00 0.000000e+00 0.000000e+00 0.000000e+00
<ENDHMM>
~h "ae"
<BEGINHMM>
<NUMSTATES> 5
<STATE> 2
<MEAN> 39
 -5.222379e+00 -5.198476e+00 -2.048590e+00 -3.186219e+00 3.044803e+00 -7.319759e+00 -6.001622e+00 -7.907463e+00 -4.783643e+00 -7.037918e+00 -3.081569e+00 -4.186720e+00 6.540440e+01 -1.421589e-02 -8.042273e-04 1.787844e-02 -3.747466e-03 1.314807e-03 -8.576243e-04 6.038763e-03 -1.189053e-02 -9.386316e-03 2.199757e-03 6.845492e-03 6.620700e-03 9.557312e-03 -1.282044e-03 7.726892e-05 -1.191413e-03 8.158101e-05 -4.457081e-04 1.343533e-03 7.891575e-04 3.926556e-04 2.052618e-03 -1.057171e-04 -1.122395e-04 2.170362e-03 -2.328770e-03
<VARIANCE> 39
 1.586020e+02 4.739318e+01 7.870892e+01 8.660866e+01 7.315196e+01 8.938258e+01 7.375977e+01 8.103322e+01 5.710283e+01 4.573273e+01 4.142489e+01 3.402665e+01 1.609873e+02 3.526784e+00 2.212408e+00 2.835352e+00 3.130366e+00 2.873868e+00 3.697939e+00 3.396722e+00 3.234661e+00 3.096108e+00 2.684832e+00 2.388363e+00 2.202740e+00 1.861203e+00 4.144864e-01 3.449144e-01 4.258104e-01 4.892021e-01 4.528380e-01 6.039452e-01 5.694053e-01 5.564822e-01 5.308412e-01 4.648488e-01 4.317654e-01 3.971205e-01 2.350982e-01
<GCONST> 1.299375e+02
<STATE> 3
<MEAN> 39
 -5.281891e+00 -5.216646e+00 -1.995110e+00 -3.184146e+00 3.043039e+00 -7.305764e+00 -5.981792e+00 -7.955845e+00 -4.800219e+00 -7.032634e+00 -3.054835e+00 -4.146214e+00 6.542176e+01 -1.650556e-02 -2.966530e-03 1.286243e-02 -2.032288e-04 -1.708955e-03 4.657272e-03 6.702533e-03 -1.312989e-02 -2.783687e-03 3.390911e-03 6.822892e-03 1.110897e-02 1.801769e-03 -5.505083e-04 -7.745116e-04 -1.597434e-03 1.286703e-03 -1.057143e-03 1.754794e-03 2.047483e-04 -4.288846e-04 1.919180e-03 5.082922e-04 -1.473191e-05 1.145455e-03 -2.443262e-03
<VARIANCE> 39
 1.588334e+02 4.788069e+01 7.876193e+01 8.673816e+01 7.265665e+01 8.836360e+01 7.359621e+01 8.089395e+01 5.736199e+01 4.560141e+01 4.129412e+01 3.381500e+01 1.611607e+02 3.526957e+00 2.219771e+00 2.835656e+00 3.147411e+00 2.851638e+00 3.661476e+00 3.373621e+00 3.206268e+00 3.089705e+00 2.668925e+00 2.368787e+00 2.186916e+00 1.848347e+00 4.110152e-01 3.453170e-01 4.264533e-01 4.919808e-01 4.497371e-01 5.990161e-01 5.645999e-01 5.519871e-01 5.301194e-01 4.618742e-01 4.274281e-01 3.939712e-01 2.338580e-01
<GCONST> 1.298048e+02
<STATE> 4
<MEAN> 39
 -5.484693e+00 -5.285625e+00 -1.858286e+00 -3.192808e+00 3.008136e+00 -7.028128e+00 -5.965718e+00 -8.083974e+00 -4.748075e+00 -6.996958e+00 -2.976492e+00 -4.070842e+00 6.540929e+01 -1.535358e-02 -1.079603e-02 9.142725e-03 7.862771e-03 -1.886156e-03 1.231746e-02 8.013302e-03 -1.444714e-02 -2.725661e-03 3.119866e-03 6.825999e-03 9.314241e-03 1.837844e-04 2.137882e-04 -9.681089e-04 -8.530811e-04 1.286058e-03 -1.834617e-04 1.405029e-03 4.807546e-04 1.025937e-04 1.567651e-04 2.504729e-04 -1.548709e-04 -5.192545e-04 -8.176427e-04
<VARIANCE> 39
 1.597863e+02 4.860154e+01 7.983264e+01 8.644255e+01 7.135734e+01 8.766164e+01 7.347833e+01 8.066718e+01 5.767340e+01 4.599668e+01 4.135720e+01 3.340684e+01 1.626369e+02 3.525677e+00 2.242399e+00 2.843382e+00 3.140446e+00 2.797543e+00 3.581695e+00 3.322478e+00 3.162417e+00 3.092347e+00 2.641193e+00 2.322817e+00 2.156752e+00 1.858384e+00 4.023768e-01 3.482564e-01 4.271044e-01 4.912012e-01 4.429162e-01 5.877510e-01 5.550957e-01 5.430942e-01 5.306845e-01 4.554678e-01 4.179043e-01 3.870589e-01 2.340907e-01
<GCONST> 1.295879e+02
<TRANSP> 5
 0.000000e+00 1.000000e+00 0.000000e+00 0.000000e+00 0.000000e+00
 0.000000e+00 7.204841e-01 2.795159e-01 0.000000e+00 0.000000e+00
 0.000000e+00 0.000000e+00 7.204847e-01 2.795153e-01 0.000000e+00
 0.000000e+00 0.000000e+00 0.000000e+00 8.428168e-01 1.571832e-01
 0.000000e+00 0.000000e+00 0.000000e+00 0.000000e+00 0.000000e+00
<ENDHMM>
~h "ah"
<BEGINHMM>
<NUMSTATES> 5
<STATE> 2
<MEAN> 39
 -5.095986e+00 -4.991224e+00 -1.770373e+00 -3.692283e+00 2.882709e+00 -8.280344e+00 -5.907102e+00 -6.887949e+00 -4.428441e+00 -6.494692e+00 -3.277625e+00 -4.583202e+00 6.609819e+01 1.408939e-02 -2.386085e-03 -1.046353e-02 1.704369e-03 -1.539357e-02 2.085281e-03 -1.139368e-02 -1.282612e-02 -5.469678e-04 -1.332666e-02 4.116096e-03 1.328412e-02 1.066365e-03 8.697827e-04 2.841643e-04 -7.317525e-04 4.059423e-04 2.668872e-04 4.940975e-05 6.046270e-04 1.112936e-03 5.272452e-04 -3.686677e-04 -4.488868e-04 -9.770436e-04 1.041111e-04
<VARIANCE> 39
 1.718813e+02 4.365284e+01 8.537007e+01 9.034967e+01 8.401528e+01 1.049463e+02 7.866737e+01 7.116564e+01 5.740358e+01 4.750962e+01 3.846867e+01 3.354295e+01 1.566590e+02 3.647880e+00 2.134459e+00 2.933538e+00 3.419984e+00 2.773910e+00 3.619984e+00 3.442932e+00 3.126660e+00 3.138827e+00 2.694171e+00 2.173403e+00 2.017886e+00 1.676870e+00 3.814246e-01 3.324357e-01 4.233553e-01 5.353293e-01 4.198324e-01 5.601003e-01 5.592744e-01 5.434067e-01 5.297765e-01 4.771660e-01 3.847461e-01 3.508820e-01 2.048244e-01
<GCONST> 1.294135e+02
<STATE> 3
<MEAN> 39
 -5.037322e+00 -5.002083e+00 -1.812703e+00 -3.693541e+00 2.828598e+00 -8.270824e+00 -5.939860e+00 -6.925485e+00 -4.424274e+00 -6.542618e+00 -3.268221e+00 -4.543285e+00 6.611523e+01 1.595125e-02 -6.986335e-04 -1.275883e-02 2.381493e-03 -1.394293e-02 2.540448e-03 -8.981498e-03 -8.137904e-03 1.447412e-03 -1.403613e-02 2.714894e-03 8.938305e-03 1.227649e-03 4.953727e-04 6.314983e-04 -4.019900e-04 1.632230e-04 4.654840e-04 9.528711e-06 6.677887e-04 1.333957e-03 6.598047e-04 -7.125727e-05 -4.605880e-04 -1.183175e-03 6.012732e-05
<VARIANCE> 39
 1.714728e+02 4.341508e+01 8.443667e+01 9.030364e+01 8.426840e+01 1.046614e+02 7.898247e+01 7.080229e+01 5.752349e+01 4.762422e+01 3.839753e+01 3.365273e+01 1.562653e+02 3.617990e+00 2.134063e+00 2.900158e+00 3.414274e+00 2.763470e+00 3.618799e+00 3.425644e+00 3.115423e+00 3.141653e+00 2.689827e+00 2.165982e+00 2.017677e+00 1.670356e+00 3.764454e-01 3.316395e-01 4.180470e-01 5.344576e-01 4.176112e-01 5.597810e-01 5.562041e-01 5.421436e-01 5.298733e-01 4.756603e-01 3.836575e-01 3.505189e-01 2.039766e-01
<GCONST> 1.292998e+02
<STATE> 4
<MEAN> 39
 -5.108768e+00 -4.993988e+00 -1.819463e+00 -3.706419e+00 2.622816e+00 -8.050724e+00 -5.873360e+00 -6.891701e+00 -4.272539e+00 -6.609727e+00 -3.233509e+00 -4.440865e+00 6.598808e+01 1.698746e-02 1.102122e-03 -1.278957e-02 7.601059e-05 -1.173665e-02 4.122028e-03 -4.935347e-03 -2.759958e-03 5.285361e-03 -1.360492e-02 2.548173e-04 2.242337e-03 3.416786e-03 1.726972e-04 8.313053e-04 1.313010e-04 1.066444e-04 5.301957e-04 -3.949180e-05 5.519569e-04 1.135037e-03 6.567896e-04 1.281529e-06 -3.945174e-04 -1.113559e-03 -1.565244e-04
<VARIANCE> 39
 1.711223e+02 4.342674e+01 8.319585e+01 8.936645e+01 8.446438e+01 1.058167e+02 7.932069e+01 7.039018e+01 5.772985e+01 4.814807e+01 3.857231e+01 3.422305e+01 1.583760e+02 3.561618e+00 2.139947e+00 2.849815e+00 3.395942e+00 2.738917e+00 3.590708e+00 3.376970e+00 3.083320e+00 3.131660e+00 2.682775e+00 2.161066e+00 2.022329e+00 1.670407e+00 3.685878e-01 3.302067e-01 4.101385e-01 5.332154e-01 4.133267e-01 5.544870e-01 5.482832e-01 5.367696e-01 5.291750e-01 4.731096e-01 3.836786e-01 3.509050e-01 2.036753e-01
<GCONST> 1.291528e+02
<TRANSP> 5
 0.000000e+00 1.000000e+00 0.000000e+00 0.000000e+00 0.000000e+00
 0.000000e+00 7.255135e-01 2.744865e-01 0.000000e+00 0.000000e+00
 0.000000e+00 0.000000e+00 7.255123e-01 2.744877e-01 0.000000e+00
 0.000000e+00 0.000000e+00 0.000000e+00 8.489180e-01 1.510821e-01
 0.000000e+00 0.000000e+00 0.000000e+00 0.000000e+00 0.000000e+00
<ENDHMM>
~h "ao"
<BEGINHMM>
<NUMSTATES> 5
<STATE> 2
<MEAN> 39
 -3.856734e+00 -4.895564e+00 -2.854202e+00 -4.115914e+00 2.708087e+00 -8.801552e+00 -5.746302e+00 -6.823600e+00 -5.310069e+00 -6.885643e+00 -3.548290e+00 -4.139713e+00 6.679709e+01 7.170690e-03 -8.473677e-03 1.639221e-02 1.364785e-02 1.534719e-03 -6.018733e-03 -3.781679e-03 1.201163e-02 1.312742e-02 -2.594671e-03 -4.593048e-03 -7.102912e-03 6.251602e-03 -6.743500e-04 1.100604e-04 6.756906e-04 9.206712e-05 1.357286e-03 -2.080734e-04 -1.285251e-03 5.082600e-05 -1.542910e-05 5.799585e-04 -1.601462e-04 -2.974724e-04 -5.418762e-04
<VARIANCE> 39
 1.850304e+02 4.770378e+01 9.818235e+01 6.949641e+01 7.623894e+01 1.087463e+02 6.862350e+01 6.801419e+01 5.800074e+01 5.552092e+01 3.885050e+01 3.342426e+01 1.529053e+02 4.001328e+00 2.191349e+00 3.015709e+00 3.011489e+00 3.000233e+00 4.056042e+00 3.294080e+00 2.996240e+00 3.150515e+00 2.934613e+00 2.335852e+00 2.089433e+00 1.567356e+00 4.082989e-01 3.224701e-01 4.181610e-01 4.870231e-01 4.503018e-01 6.185272e-01 5.347313e-01 5.010448e-01 5.187760e-01 4.770494e-01 4.176086e-01 3.602104e-01 1.999168e-01
<GCONST> 1.296480e+02
<STATE> 3
<MEAN> 39
 -3.821548e+00 -4.918988e+00 -2.799267e+00 -4.063622e+00 2.716891e+00 -8.831392e+00 -5.771727e+00 -6.786574e+00 -5.265390e+00 -6.890167e+00 -3.562983e+00 -4.165524e+00 6.681668e+01 4.688443e-03 -7.696293e-03 1.884641e-02 1.411127e-02 6.259051e-03 -6.126322e-03 -7.975996e-03 1.251093e-02 1.313594e-02 -3.296789e-04 -5.227967e-03 -8.228462e-03 3.618698e-03 -1.355058e-04 4.149455e-04 -2.236548e-05 3.567817e-04 1.067104e-03 -1.977099e-05 -1.307213e-03 1.262133e-04 -1.581809e-04 7.498377e-04 3.209441e-05 -3.523902e-04 -8.908168e-04
<VARIANCE> 39
 1.860064e+02 4.787975e+01 9.959498e+01 6.948407e+01 7.595709e+01 1.098377e+02 6.865015e+01 6.824005e+01 5.789728e+01 5.590612e+01 3.897807e+01 3.311117e+01 1.520172e+02 3.979220e+00 2.182964e+00 3.043966e+00 2.999650e+00 2.982617e+00 4.087862e+00 3.282134e+00 2.994229e+00 3.131627e+00 2.951311e+00 2.328901e+00 2.088273e+00 1.565524e+00 4.054156e-01 3.200010e-01 4.208102e-01 4.845458e-01 4.461104e-01 6.224163e-01 5.335881e-01 5.001838e-01 5.168316e-01 4.779233e-01 4.149711e-01 3.602024e-01 1.985621e-01
<GCONST> 1.296272e+02
<STATE> 4
<MEAN> 39
 -3.543745e+00 -4.908393e+00 -2.718486e+00 -3.947677e+00 2.683225e+00 -8.878680e+00 -5.972712e+00 -6.791011e+00 -5.185957e+00 -6.854832e+00 -3.570822e+00 -4.300382e+00 6.704603e+01 5.277852e-03 -3.979956e-03 1.897939e-02 1.636718e-02 1.059757e-02 -5.914792e-03 -1.343704e-02 1.200080e-02 1.224793e-02 3.056861e-03 -5.086130e-03 -9.262611e-03 -1.602458e-03 5.543750e-05 5.019783e-04 -5.820623e-04 6.037532e-04 7.511568e-04 4.218680e-04 -7.161075e-04 3.324648e-04 -1.260458e-04 5.625398e-04 1.837525e-04 -3.793377e-04 -1.111176e-03
<VARIANCE> 39
 1.842972e+02 4.895058e+01 9.923640e+01 6.972739e+01 7.609811e+01 1.125746e+02 6.900644e+01 6.885904e+01 5.771968e+01 5.831448e+01 3.976318e+01 3.301207e+01 1.470889e+02 3.901636e+00 2.203949e+00 3.043371e+00 2.997440e+00 2.973616e+00 4.142836e+00 3.266178e+00 3.018220e+00 3.111984e+00 3.014874e+00 2.318685e+00 2.097890e+00 1.571827e+00 3.969980e-01 3.217068e-01 4.210148e-01 4.817611e-01 4.436730e-01 6.261845e-01 5.306551e-01 5.047878e-01 5.144605e-01 4.841394e-01 4.102612e-01 3.622070e-01 1.976625e-01
<GCONST> 1.297066e+02
<TRANSP> 5
 0.000000e+00 1.000000e+00 0.000000e+00 0.000000e+00 0.000000e+00
 0.000000e+00 7.193456e-01 2.806545e-01 0.000000e+00 0.000000e+00
 0.000000e+00 0.000000e+00 7.193463e-01 2.806536e-01 0.000000e+00
 0.000000e+00 0.000000e+00 0.000000e+00 8.415723e-01 1.584277e-01
 0.000000e+00 0.000000e+00 0.000000e+00 0.000000e+00 0.000000e+00
<ENDHMM>
~h "aw"
<BEGINHMM>
<NUMSTATES> 5
<STATE> 2
<MEAN> 39
 -3.474572e+00 -5.852076e+00 -8.769283e-01 -3.022720e+00 2.154597e+00 -9.673979e+00 -5.644165e+00 -6.991724e+00 -4.555382e+00 -6.106369e+00 -4.140593e+00 -4.979679e+00 6.817516e+01 3.019587e-02 -9.462038e-03 -1.195221e-02 -5.474825e-03 -1.402576e-02 -1.678798e-02 -2.232631e-02 7.860731e-03 -1.780622e-02 -1.410775e-02 1.360671e-02 1.958389e-02 1.677998e-03 7.027172e-04 2.290516e-03 -3.079372e-03 -5.367826e-04 7.926351e-04 1.356600e-03 -9.675804e-04 -9.922436e-04 -2.842293e-04 -1.507615e-03 5.793315e-04 4.765585e-04 -2.199962e-03
<VARIANCE> 39
 1.584153e+02 6.129024e+01 9.484119e+01 9.886452e+01 8.081467e+01 9.954108e+01 8.782038e+01 6.849632e+01 5.650520e+01 5.839403e+01 3.918559e+01 3.912223e+01 1.169593e+02 3.505023e+00 2.649659e+00 3.184267e+00 3.466806e+00 3.311621e+00 3.583106e+00 3.718172e+00 3.074461e+00 3.328271e+00 3.122010e+00 2.211442e+00 2.208255e+00 1.799699e+00 3.911277e-01 4.026408e-01 4.723701e-01 5.260477e-01 5.368446e-01 5.618877e-01 5.875278e-01 4.958072e-01 5.551835e-01 4.991681e-01 4.084314e-01 3.967544e-01 2.351340e-01
<GCONST> 1.317283e+02
<STATE> 3
<MEAN> 39
 -3.383267e+00 -5.869552e+00 -9.428387e-01 -3.044271e+00 2.103459e+00 -9.719029e+00 -5.721570e+00 -6.964543e+00 -4.613596e+00 -6.167009e+00 -4.089863e+00 -4.906411e+00 6.814201e+01 3.174719e-02 -1.713879e-03 -2.263039e-02 -6.931524e-03 -1.147243e-02 -1.206420e-02 -2.504685e-02 4.374934e-03 -1.858390e-02 -1.897945e-02 1.565440e-02 2.102393e-02 -6.495342e-03 1.277049e-04 2.195534e-03 -2.984066e-03 -6.635563e-04 6.917113e-04 1.498821e-03 -7.504792e-04 -1.059032e-03 1.842492e-04 -1.072627e-03 5.269397e-04 4.750579e-04 -2.392271e-03
<VARIANCE> 39
 1.572939e+02 5.995266e+01 9.447125e+01 9.874939e+01 7.955381e+01 1.005167e+02 8.834584e+01 6.824005e+01 5.666881e+01 5.757976e+01 3.951595e+01 3.922803e+01 1.180490e+02 3.463329e+00 2.594525e+00 3.158686e+00 3.466697e+00 3.297969e+00 3.592273e+00 3.687337e+00 3.080194e+00 3.314937e+00 3.099783e+00 2.234819e+00 2.190289e+00 1.785384e+00 3.871241e-01 3.920159e-01 4.652274e-01 5.269591e-01 5.335321e-01 5.637021e-01 5.847442e-01 4.990354e-01 5.516999e-01 4.954088e-01 4.154571e-01 3.922651e-01 2.336171e-01
<GCONST> 1.315671e+02
<STATE> 4
<MEAN> 39
 -3.673711e+00 -5.751631e+00 -1.042870e+00 -2.907703e+00 1.992894e+00 -9.381257e+00 -5.699028e+00 -6.768888e+00 -4.551959e+00 -6.279314e+00 -3.917456e+00 -4.763307e+00 6.739983e+01 2.501763e-02 7.837343e-03 -3.564285e-02 -7.553872e-03 -9.893850e-03 -4.544508e-03 -2.334275e-02 8.424763e-04 -1.681388e-02 -2.169296e-02 1.804069e-02 2.237507e-02 -2.333455e-02 -4.776566e-04 1.792453e-03 -2.520465e-03 -6.071124e-04 5.816949e-04 1.326597e-03 -2.931148e-04 -1.054381e-03 4.569742e-04 -2.551193e-04 5.374857e-04 4.085547e-04 -2.214944e-03
<VARIANCE> 39
 1.579300e+02 5.644670e+01 9.172121e+01 9.737749e+01 7.637680e+01 1.014121e+02 8.934666e+01 6.609464e+01 5.517570e+01 5.533284e+01 3.901584e+01 3.859967e+01 1.283423e+02 3.275323e+00 2.501228e+00 3.039138e+00 3.370712e+00 3.192859e+00 3.490463e+00 3.557369e+00 2.998433e+00 3.202976e+00 2.995224e+00 2.228773e+00 2.144541e+00 1.719296e+00 3.662916e-01 3.767296e-01 4.423929e-01 5.127290e-01 5.134517e-01 5.505992e-01 5.635571e-01 4.895903e-01 5.316929e-01 4.802969e-01 4.181902e-01 3.832544e-01 2.255176e-01
<GCONST> 1.305792e+02
<TRANSP> 5
 0.000000e+00 1.000000e+00 0.000000e+00 0.000000e+00 0.000000e+00
 0.000000e+00 7.238553e-01 2.761447e-01 0.000000e+00 0.000000e+00
 0.000000e+00 0.000000e+00 7.238559e-01 2.761442e-01 0.000000e+00
 0.000000e+00 0.000000e+00 0.000000e+00 8.470041e-01 1.529958e-01
 0.000000e+00 0.000000e+00 0.000000e+00 0.000000e+00 0.000000e+00
<ENDHMM>
~h "ax"
<BEGINHMM>
<NUMSTATES> 5
<STATE> 2
<MEAN> 39
 -5.865094e+00 -5.387525e+00 -1.485891e+00 -2.904062e+00 2.881725e+00 -7.025224e+00 -5.586702e+00 -7.332431e+00 -4.833601e+00 -7.350115e+00 -2.762460e+00 -4.420169e+00 6.505701e+01 2.769242e-03 -4.334479e-03 3.324364e-03 3.107015e-03 -3.566416e-03 -6.116589e-03 -2.612616e-03 -3.033657e-03 -4.807871e-03 1.571846e-03 4.378925e-03 1.594573e-03 4.031551e-03 2.186726e-04 3.107183e-05 -3.260812e-04 -2.246852e-04 -4.523552e-04 4.272396e-04 2.942485e-04 -5.816470e-05 -1.951673e-04 -2.458380e-04 -6.692269e-04 4.104670e-04 -3.556682e-04
<VARIANCE> 39
 1.698185e+02 4.793856e+01 9.050363e+01 7.835954e+01 7.407152e+01 9.351136e+01 7.689694e+01 7.441109e+01 5.993334e+01 4.732583e+01 3.704446e+01 3.319167e+01 1.661258e+02 3.636172e+00 2.283916e+00 3.005760e+00 3.008337e+00 2.858743e+00 3.546356e+00 3.276744e+00 2.957880e+00 3.272124e+00 2.593349e+00 2.218930e+00 2.078150e+00 1.779297e+00 4.161806e-01 3.572337e-01 4.360382e-01 4.704294e-01 4.534982e-01 5.617497e-01 5.506306e-01 4.979456e-01 5.566442e-01 4.465657e-01 4.031784e-01 3.700441e-01 2.289427e-01
<GCONST> 1.294503e+02
<STATE> 3
<MEAN> 39
 -5.850361e+00 -5.400917e+00 -1.477807e+00 -2.889744e+00 2.867227e+00 -7.042524e+00 -5.595315e+00 -7.345617e+00 -4.850969e+00 -7.344108e+00 -2.748340e+00 -4.411898e+00 6.506686e+01 3.549300e-03 -4.728324e-03 1.660116e-03 3.017843e-03 -5.457716e-03 -4.593491e-03 -2.196820e-03 -3.314024e-03 -4.469635e-03 1.765152e-03 2.637954e-03 3.066665e-03 1.919885e-03 2.850078e-04 -2.278526e-04 -5.605919e-04 -6.967690e-05 -4.729673e-04 4.615796e-04 2.319464e-04 1.546370e-04 1.556117e-04 -1.914381e-04 -6.836543e-04 3.236494e-04 -4.403246e-04
<VARIANCE> 39
 1.695949e+02 4.783252e+01 9.049956e+01 7.871334e+01 7.401823e+01 9.341068e+01 7.652914e+01 7.419093e+01 5.960625e+01 4.726764e+01 3.691934e+01 3.322227e+01 1.659505e+02 3.631884e+00 2.278532e+00 3.005215e+00 3.010269e+00 2.860222e+00 3.534751e+00 3.276046e+00 2.965562e+00 3.255238e+00 2.586817e+00 2.215011e+00 2.077332e+00 1.781293e+00 4.159450e-01 3.559759e-01 4.359574e-01 4.697588e-01 4.525701e-01 5.598606e-01 5.511513e-01 4.998856e-01 5.544532e-01 4.452361e-01 4.022061e-01 3.697403e-01 2.294948e-01
<GCONST> 1.294052e+02
<STATE> 4
<MEAN> 39
 -5.953097e+00 -5.384231e+00 -1.396294e+00 -2.863857e+00 2.775798e+00 -6.824219e+00 -5.567457e+00 -7.323744e+00 -4.779778e+00 -7.341410e+00 -2.703426e+00 -4.398124e+00 6.497126e+01 6.878876e-03 -5.494334e-03 -2.837544e-03 3.617998e-03 -8.401705e-03 -2.477111e-03 -1.037857e-03 -2.077410e-03 -3.125920e-03 4.746737e-04 -1.003900e-03 4.753685e-03 -5.176296e-04 3.418042e-04 -2.397217e-04 -7.478106e-04 -1.806355e-04 -4.369744e-04 4.403157e-04 4.158902e-04 5.552410e-04 3.134915e-04 -5.006958e-04 -9.499814e-04 1.859282e-04 -2.894008e-04
<VARIANCE> 39
 1.689413e+02 4.798632e+01 9.016351e+01 7.829184e+01 7.351965e+01 9.389039e+01 7.576546e+01 7.322570e+01 5.915343e+01 4.739738e+01 3.685216e+01 3.341165e+01 1.663667e+02 3.607586e+00 2.279711e+00 2.989488e+00 2.993915e+00 2.838832e+00 3.489211e+00 3.261170e+00 2.961212e+00 3.225389e+00 2.572028e+00 2.190022e+00 2.081877e+00 1.811713e+00 4.114015e-01 3.550847e-01 4.346616e-01 4.675467e-01 4.494704e-01 5.539315e-01 5.500739e-01 5.001946e-01 5.491263e-01 4.418964e-01 3.964580e-01 3.706841e-01 2.340524e-01
<GCONST> 1.292723e+02
<TRANSP> 5
 0.000000e+00 1.000000e+00 0.000000e+00 0.000000e+00 0.000000e+00
 0.000000e+00 7.199741e-01 2.800259e-01 0.000000e+00 0.000000e+00
 0.000000e+00 0.000000e+00 7.199749e-01 2.800252e-01 0.000000e+00
 0.000000e+00 0.000000e+00 0.000000e+00 8.426875e-01 1.573125e-01
 0.000000e+00 0.000000e+00 0.000000e+00 0.000000e+00 0.000000e+00
<ENDHMM>
~h "ay"
<BEGINHMM>
<NUMSTATES> 5
<STATE> 2
<MEAN> 39
 -5.763044e+00 -5.171100e+00 -2.494259e+00 -3.532512e+00 2.052601e+00 -7.849423e+00 -5.144507e+00 -6.686460e+00 -4.646317e+00 -6.794294e+00 -3.048962e+00 -4.425776e+00 6.450784e+01 -1.363336e-02 1.663520e-02 -1.577105e-02 -8.667904e-03 -2.543505e-02 -1.061878e-02 -1.265993e-04 1.377613e-02 1.081877e-02 1.047322e-02 -1.167865e-02 -7.897363e-03 -4.649213e-02 -6.092014e-04 -1.209415e-03 -7.054147e-04 1.807005e-03 -2.794043e-03 -6.645448e-04 7.260503e-04 -3.029785e-03 7.210901e-04 2.338677e-03 -2.597900e-03 2.125778e-03 -3.500689e-03
<VARIANCE> 39
 1.698423e+02 4.959456e+01 7.494257e+01 7.936824e+01 7.155010e+01 8.531818e+01 7.477650e+01 7.322274e+01 5.394926e+01 4.262933e+01 3.747774e+01 3.343802e+01 1.780309e+02 3.492096e+00 2.354092e+00 2.763779e+00 3.226256e+00 2.971437e+00 3.454358e+00 3.107034e+00 2.860538e+00 2.913853e+00 2.652673e+00 2.267302e+00 2.175669e+00 1.584185e+00 4.239315e-01 3.588461e-01 4.203260e-01 5.020741e-01 4.771629e-01 5.705616e-01 5.226066e-01 4.939114e-01 4.938350e-01 4.599304e-01 4.122758e-01 3.910978e-01 2.077032e-01
<GCONST> 1.287237e+02
<STATE> 3
<MEAN> 39
 -5.813371e+00 -5.123653e+00 -2.558496e+00 -3.547855e+00 1.929125e+00 -7.886786e+00 -5.140509e+00 -6.665843e+00 -4.614666e+00 -6.750157e+00 -3.117235e+00 -4.429764e+00 6.430134e+01 -1.422503e-02 1.173188e-02 -1.778752e-02 -4.408827e-03 -3.204746e-02 -8.001478e-03 2.891692e-03 4.166527e-03 1.010584e-02 1.468566e-02 -1.952834e-02 1.243610e-03 -5.665994e-02 -2.628100e-04 -1.418027e-03 -4.483254e-04 1.236874e-03 -1.092754e-03 8.709497e-04 9.538907e-04 -2.594499e-03 -4.711848e-04 8.684506e-04 -1.782203e-03 2.370857e-03 -2.206586e-03
<VARIANCE> 39
 1.705988e+02 5.005762e+01 7.406892e+01 7.934208e+01 7.120978e+01 8.420621e+01 7.400893e+01 7.239015e+01 5.399747e+01 4.190815e+01 3.714867e+01 3.354559e+01 1.808681e+02 3.374732e+00 2.325041e+00 2.742013e+00 3.206536e+00 2.913918e+00 3.387083e+00 3.077739e+00 2.846011e+00 2.884237e+00 2.600186e+00 2.223040e+00 2.160006e+00 1.516431e+00 4.038770e-01 3.514771e-01 4.166488e-01 4.971037e-01 4.679936e-01 5.570604e-01 5.154090e-01 4.903177e-01 4.887416e-01 4.497262e-01 4.027334e-01 3.893281e-01 1.966522e-01
<GCONST> 1.281966e+02
<STATE> 4
<MEAN> 39
 -5.911763e+00 -5.055883e+00 -2.626603e+00 -3.559112e+00 1.709966e+00 -7.818948e+00 -5.132969e+00 -6.727823e+00 -4.544171e+00 -6.668586e+00 -3.197875e+00 -4.380148e+00 6.400356e+01 -1.300833e-02 8.743039e-03 -1.861803e-02 -1.539641e-03 -2.728964e-02 -2.227577e-03 1.009675e-02 -7.842816e-04 4.680851e-03 1.346706e-02 -1.994278e-02 6.951281e-03 -5.712904e-02 -2.013859e-04 -6.165570e-04 3.546977e-05 4.373022e-04 1.462058e-03 1.170719e-03 1.290218e-03 -9.852396e-04 -7.127585e-04 -6.347295e-05 2.796997e-04 8.243106e-04 6.244385e-04
<VARIANCE> 39
 1.703929e+02 5.046917e+01 7.203361e+01 7.894754e+01 6.979150e+01 8.370821e+01 7.344166e+01 7.095584e+01 5.361188e+01 4.148700e+01 3.687313e+01 3.353090e+01 1.847688e+02 3.174913e+00 2.270375e+00 2.701326e+00 3.145548e+00 2.848996e+00 3.297920e+00 3.005747e+00 2.798897e+00 2.832053e+00 2.540493e+00 2.171628e+00 2.132046e+00 1.469211e+00 3.681145e-01 3.395722e-01 4.116282e-01 4.868287e-01 4.626827e-01 5.378475e-01 5.005820e-01 4.793012e-01 4.794779e-01 4.378719e-01 3.931642e-01 3.857486e-01 1.872134e-01
<GCONST> 1.274081e+02
<TRANSP> 5
 0.000000e+00 1.000000e+00 0.000000e+00 0.000000e+00 0.000000e+00
 0.000000e+00 7.185192e-01 2.814808e-01 0.000000e+00 0.000000e+00
 0.000000e+00 0.000000e+00 7.185192e-01 2.814808e-01 0.000000e+00
 0.000000e+00 0.000000e+00 0.000000e+00 8.406050e-01 1.593950e-01
 0.000000e+00 0.000000e+00 0.000000e+00 0.000000e+00 0.000000e+00
<ENDHMM>
~h "ch"
<BEGINHMM>
<NUMSTATES> 5
<STATE> 2
<MEAN> 39
 -6.285563e+00 -5.381730e+00 -1.268423e-02 -1.518436e+00 3.529933e+00 -5.745641e+00 -6.170004e+00 -8.644411e+00 -4.973567e+00 -8.558717e+00 -2.052813e+00 -3.789917e+00 6.734512e+01 1.749305e-03 -4.998419e-03 -9.947259e-03 -4.252780e-03 -2.209818e-02 4.989777e-03 1.027890e-02 1.538970e-02 2.610974e-02 1.590908e-02 1.451811e-02 5.280711e-03 -2.293020e-02 -4.601054e-05 -2.093113e-03 6.581267e-04 4.689436e-04 7.730993e-04 -6.423276e-04 4.204421e-04 1.018808e-03 -1.918924e-03 -1.326027e-04 -6.829975e-04 5.304703e-04 -1.331403e-03
<VARIANCE> 39
 1.606951e+02 7.669108e+01 9.468799e+01 7.380216e+01 7.336830e+01 9.264416e+01 7.558862e+01 7.749299e+01 6.133334e+01 5.272110e+01 4.599463e+01 2.936799e+01 1.329934e+02 4.233916e+00 2.561961e+00 3.301466e+00 3.286775e+00 3.130187e+00 3.691258e+00 3.367878e+00 3.251756e+00 3.079255e+00 2.827308e+00 2.502281e+00 2.091634e+00 1.867835e+00 4.136122e-01 3.580560e-01 4.797862e-01 5.073310e-01 4.825940e-01 5.774060e-01 5.695384e-01 5.388512e-01 5.410083e-01 4.901314e-01 4.447344e-01 3.850143e-01 2.401509e-01
<GCONST> 1.313804e+02
<STATE> 3
<MEAN> 39
 -6.266828e+00 -5.408992e+00 -4.262054e-02 -1.522619e+00 3.459062e+00 -5.730141e+00 -6.133133e+00 -8.573725e+00 -4.888191e+00 -8.500499e+00 -1.998252e+00 -3.771539e+00 6.724898e+01 1.966189e-03 -1.242446e-02 -8.366723e-03 -2.551925e-03 -1.930796e-02 3.065061e-03 1.187013e-02 1.920030e-02 1.883962e-02 1.448821e-02 1.169540e-02 7.114977e-03 -2.748504e-02 4.094672e-04 -1.852495e-03 8.987845e-05 2.619608e-04 5.305008e-04 -9.818744e-04 3.195072e-04 1.034016e-03 -2.031832e-03 -3.935045e-04 -8.068358e-04 5.902025e-04 -8.924230e-04
<VARIANCE> 39
 1.598883e+02 7.708688e+01 9.395799e+01 7.277659e+01 7.313293e+01 9.290898e+01 7.460567e+01 7.756595e+01 6.079948e+01 5.199277e+01 4.650431e+01 2.914676e+01 1.350850e+02 4.190713e+00 2.564929e+00 3.283143e+00 3.269930e+00 3.115081e+00 3.694159e+00 3.304994e+00 3.228550e+00 3.063595e+00 2.813334e+00 2.511850e+00 2.080143e+00 1.842016e+00 4.091397e-01 3.578609e-01 4.779328e-01 5.067732e-01 4.818723e-01 5.769569e-01 5.574858e-01 5.345274e-01 5.368363e-01 4.870799e-01 4.436388e-01 3.811399e-01 2.359259e-01
<GCONST> 1.311747e+02
<STATE> 4
<MEAN> 39
 -6.024347e+00 -5.416990e+00 2.056940e-01 -1.486693e+00 3.393842e+00 -5.531010e+00 -6.168910e+00 -8.449244e+00 -4.760454e+00 -8.387791e+00 -1.967040e+00 -3.822533e+00 6.738573e+01 7.749755e-03 -1.928038e-02 -8.090114e-03 8.619505e-04 -1.389234e-02 1.008889e-03 1.255973e-02 2.537647e-02 8.723991e-03 1.045596e-02 8.373876e-03 7.898708e-03 -3.142879e-02 7.607950e-04 -1.401848e-03 -4.845187e-04 -6.349786e-05 3.083229e-04 -1.059527e-03 2.307709e-04 8.182136e-04 -2.014749e-03 -7.839809e-04 -1.062624e-03 3.816657e-04 -2.336630e-04
<VARIANCE> 39
 1.584122e+02 7.859308e+01 9.584766e+01 7.327254e+01 7.297697e+01 9.684918e+01 7.415786e+01 7.625163e+01 6.005535e+01 5.208884e+01 4.805620e+01 2.931382e+01 1.303226e+02 4.161120e+00 2.646856e+00 3.343466e+00 3.270487e+00 3.123275e+00 3.765035e+00 3.281910e+00 3.210634e+00 3.073370e+00 2.828206e+00 2.563109e+00 2.082645e+00 1.825085e+00 4.056194e-01 3.668030e-01 4.877542e-01 5.120764e-01 4.835025e-01 5.867454e-01 5.514119e-01 5.294335e-01 5.360007e-01 4.869745e-01 4.482135e-01 3.785193e-01 2.320334e-01
<GCONST> 1.313238e+02
<TRANSP> 5
 0.000000e+00 1.000000e+00 0.000000e+00 0.000000e+00 0.000000e+00
 0.000000e+00 7.288275e-01 2.711725e-01 0.000000e+00 0.000000e+00
 0.000000e+00 0.000000e+00 7.288277e-01 2.711723e-01 0.000000e+00
 0.000000e+00 0.000000e+00 0.000000e+00 8.525465e-01 1.474535e-01
 0.000000e+00 0.000000e+00 0.000000e+00 0.000000e+00 0.000000e+00
<ENDHMM>
~h "dh"
<BEGINHMM>
<NUMSTATES> 5
<STATE> 2
<MEAN> 39
 -7.591418e+00 -5.352031e+00 -2.031828e+00 -3.100766e+00 2.207776e+00 -6.520710e+00 -4.627549e+00 -6.185516e+00 -4.549931e+00 -7.278319e+00 -2.444462e+00 -4.176324e+00 6.250906e+01 -8.016968e-03 1.672158e-03 1.376612e-02 -4.627563e-03 2.359694e-02 -1.202821e-02 1.194506e-02 2.755472e-03 -5.167921e-03 6.777902e-03 8.623897e-03 -7.122558e-03 2.076395e-02 -2.756992e-03 -1.700034e-03 -2.551021e-03 -3.983790e-04 -1.634010e-03 -1.260336e-03 -2.164213e-03 -3.780369e-03 4.839385e-06 2.381796e-03 -1.759085e-04 -1.000317e-03 -2.331454e-03
<VARIANCE> 39
 1.732808e+02 4.190988e+01 7.817207e+01 6.891720e+01 6.648022e+01 9.350185e+01 7.560655e+01 7.663304e+01 5.673892e+01 4.325798e+01 3.443039e+01 2.920653e+01 1.940883e+02 3.399898e+00 2.126357e+00 2.694855e+00 2.838491e+00 2.724070e+00 3.508538e+00 3.113312e+00 2.847124e+00 3.022077e+00 2.538130e+00 2.133403e+00 1.969844e+00 1.716679e+00 4.185050e-01 3.434115e-01 4.019534e-01 4.619415e-01 4.318128e-01 5.731192e-01 5.204974e-01 4.867905e-01 5.222803e-01 4.468640e-01 3.873596e-01 3.594000e-01 2.183628e-01
<GCONST> 1.276704e+02
<STATE> 3
<MEAN> 39
 -7.631581e+00 -5.372612e+00 -2.012872e+00 -3.116718e+00 2.245638e+00 -6.575525e+00 -4.619035e+00 -6.219808e+00 -4.566506e+00 -7.242618e+00 -2.422173e+00 -4.203387e+00 6.255267e+01 -1.272746e-02 -8.203331e-03 3.954139e-03 -3.520680e-03 8.302569e-03 -1.457311e-02 -2.355268e-04 -1.332285e-02 -4.739208e-03 1.122711e-02 5.768911e-03 -7.510455e-03 9.874398e-03 -7.809051e-04 -2.841888e-03 -2.646628e-03 5.019842e-04 -4.928857e-03 -6.830845e-04 -3.653101e-03 -4.674201e-03 5.362532e-05 9.710827e-04 -9.472176e-04 1.254916e-04 -3.009439e-03
<VARIANCE> 39
 1.739547e+02 4.200153e+01 7.825845e+01 6.903127e+01 6.604141e+01 9.313734e+01 7.516809e+01 7.671314e+01 5.671283e+01 4.292139e+01 3.419166e+01 2.927101e+01 1.940098e+02 3.376003e+00 2.113949e+00 2.681572e+00 2.824777e+00 2.712313e+00 3.488754e+00 3.101114e+00 2.847917e+00 2.986240e+00 2.478678e+00 2.120155e+00 1.968905e+00 1.701508e+00 4.130521e-01 3.410666e-01 3.987524e-01 4.575858e-01 4.298832e-01 5.676097e-01 5.174085e-01 4.864799e-01 5.146957e-01 4.347251e-01 3.850368e-01 3.582551e-01 2.145452e-01
<GCONST> 1.274358e+02
<STATE> 4
<MEAN> 39
 -7.865199e+00 -5.419700e+00 -1.973494e+00 -3.096140e+00 2.147245e+00 -6.416819e+00 -4.591330e+00 -6.279634e+00 -4.499076e+00 -7.201306e+00 -2.373379e+00 -4.219587e+00 6.238143e+01 6.259484e-04 -1.372648e-02 -1.679088e-03 5.000032e-03 -9.278252e-03 -1.083307e-02 -7.777758e-03 -2.236788e-02 -5.728757e-03 7.187086e-03 -6.570350e-04 -2.896551e-03 5.064734e-03 2.215513e-03 -7.964363e-04 -6.413424e-04 1.405316e-03 -2.795586e-03 7.669653e-04 -1.002926e-03 -1.341907e-03 -2.543488e-04 -7.176180e-04 -1.123210e-03 7.838209e-04 -5.953379e-04
<VARIANCE> 39
 1.742920e+02 4.198497e+01 7.777287e+01 6.799166e+01 6.421323e+01 9.285642e+01 7.267664e+01 7.501386e+01 5.678235e+01 4.254818e+01 3.347194e+01 2.928563e+01 1.973677e+02 3.269366e+00 2.084973e+00 2.631519e+00 2.736715e+00 2.625489e+00 3.393449e+00 3.050727e+00 2.817531e+00 2.926027e+00 2.372177e+00 2.073448e+00 1.953667e+00 1.691176e+00 3.904110e-01 3.351983e-01 3.901983e-01 4.377985e-01 4.190987e-01 5.478635e-01 5.102295e-01 4.819441e-01 5.009577e-01 4.124349e-01 3.761234e-01 3.533052e-01 2.107389e-01
<GCONST> 1.266747e+02
<TRANSP> 5
 0.000000e+00 1.000000e+00 0.000000e+00 0.000000e+00 0.000000e+00
 0.000000e+00 7.178427e-01 2.821573e-01 0.000000e+00 0.000000e+00
 0.000000e+00 0.000000e+00 7.178428e-01 2.821572e-01 0.000000e+00
 0.000000e+00 0.000000e+00 0.000000e+00 8.399232e-01 1.600768e-01
 0.000000e+00 0.000000e+00 0.000000e+00 0.000000e+00 0.000000e+00
<ENDHMM>
~h "ea"
<BEGINHMM>
<NUMSTATES> 5
<STATE> 2
<MEAN> 39
 -7.464156e+00 -5.639678e+00 -4.108846e+00 -2.677665e+00 2.768758e+00 -7.076900e+00 -3.767467e+00 -6.090600e+00 -5.228512e+00 -5.975187e+00 -2.748519e+00 -3.112864e+00 6.152263e+01 -1.496267e-02 -2.727794e-02 -2.584730e-02 3.273693e-02 -5.311141e-02 -8.127247e-03 -2.472471e-02 -5.512467e-02 1.017047e-02 1.985586e-02 8.301160e-03 1.621083e-02 -2.554104e-02 4.607726e-03 6.250865e-04 1.244424e-03 3.362711e-03 1.418448e-04 7.284992e-04 2.657865e-03 8.693552e-04 -1.434820e-03 -3.785549e-03 3.158840e-04 1.399272e-03 1.882224e-03
<VARIANCE> 39
 1.808585e+02 4.118515e+01 6.913261e+01 5.632801e+01 6.098941e+01 9.336925e+01 5.628744e+01 8.100231e+01 5.591133e+01 3.560854e+01 2.867186e+01 3.777449e+01 1.955031e+02 2.869652e+00 1.965596e+00 2.397693e+00 2.195299e+00 2.615417e+00 3.004196e+00 2.977627e+00 2.696087e+00 2.440926e+00 2.240790e+00 1.918811e+00 2.079578e+00 1.596543e+00 3.741913e-01 2.993572e-01 3.546980e-01 3.268275e-01 4.150919e-01 4.758761e-01 5.218002e-01 4.290635e-01 4.134907e-01 4.012876e-01 3.432131e-01 3.534923e-01 1.911085e-01
<GCONST> 1.238552e+02
<STATE> 3
<MEAN> 39
 -7.491621e+00 -5.710676e+00 -4.179933e+00 -2.542553e+00 2.588499e+00 -7.106030e+00 -3.814074e+00 -6.241303e+00 -5.185385e+00 -5.920638e+00 -2.728012e+00 -3.055438e+00 6.144472e+01 -7.639359e-03 -2.037256e-02 -1.832249e-02 3.508847e-02 -4.006879e-02 -7.386174e-03 -1.282328e-02 -4.614294e-02 6.018648e-03 1.287694e-02 8.754685e-03 1.703781e-02 -1.615749e-02 1.955261e-03 1.833545e-03 1.733575e-03 -3.391411e-04 3.809755e-03 9.244517e-05 3.278330e-03 2.560737e-03 -1.334080e-03 -1.748519e-03 5.112223e-05 3.143700e-04 2.748909e-03
<VARIANCE> 39
 1.790519e+02 4.018579e+01 6.802918e+01 5.598043e+01 6.000642e+01 9.064228e+01 5.385667e+01 7.846596e+01 5.613970e+01 3.429417e+01 2.842680e+01 3.726959e+01 2.025660e+02 2.724128e+00 1.900940e+00 2.337222e+00 2.113358e+00 2.481456e+00 2.789046e+00 2.815979e+00 2.634901e+00 2.368505e+00 2.124902e+00 1.871418e+00 2.015684e+00 1.535999e+00 3.421497e-01 2.876168e-01 3.468072e-01 3.134773e-01 3.953035e-01 4.333635e-01 4.921625e-01 4.216484e-01 3.966805e-01 3.752792e-01 3.321671e-01 3.410609e-01 1.791796e-01
<GCONST> 1.224700e+02
<STATE> 4
<MEAN> 39
 -7.822115e+00 -5.738588e+00 -4.276500e+00 -2.371746e+00 2.381450e+00 -7.026265e+00 -3.818781e+00 -6.327752e+00 -5.015065e+00 -5.844149e+00 -2.656826e+00 -2.997690e+00 6.097412e+01 -1.020960e-02 -6.330101e-03 -9.097146e-03 2.393808e-02 -1.424738e-02 -1.138288e-02 -5.440097e-03 -3.403728e-02 4.243939e-03 1.212926e-02 8.158737e-03 1.090363e-02 -4.997637e-03 -2.793581e-04 1.531258e-03 1.038186e-03 -2.456166e-03 4.297101e-03 -4.481341e-04 9.049761e-04 8.251867e-04 -1.365924e-03 -4.854789e-04 2.127888e-04 -6.027190e-04 1.959968e-03
<VARIANCE> 39
 1.785542e+02 3.859333e+01 6.591735e+01 5.534236e+01 5.890088e+01 8.562259e+01 5.162710e+01 7.472667e+01 5.507140e+01 3.203222e+01 2.785425e+01 3.609437e+01 2.136639e+02 2.556959e+00 1.810031e+00 2.234679e+00 2.012385e+00 2.304516e+00 2.544476e+00 2.619388e+00 2.537282e+00 2.252707e+00 2.020286e+00 1.826509e+00 1.950528e+00 1.415818e+00 3.094900e-01 2.709951e-01 3.319219e-01 2.959920e-01 3.671807e-01 3.902304e-01 4.566063e-01 4.115018e-01 3.740020e-01 3.538753e-01 3.226135e-01 3.298257e-01 1.623574e-01
<GCONST> 1.205914e+02
<TRANSP> 5
 0.000000e+00 1.000000e+00 0.000000e+00 0.000000e+00 0.000000e+00
 0.000000e+00 7.237922e-01 2.762078e-01 0.000000e+00 0.000000e+00
 0.000000e+00 0.000000e+00 7.237925e-01 2.762076e-01 0.000000e+00
 0.000000e+00 0.000000e+00 0.000000e+00 8.470486e-01 1.529514e-01
 0.000000e+00 0.000000e+00 0.000000e+00 0.000000e+00 0.000000e+00
<ENDHMM>
~h "eh"
<BEGINHMM>
<NUMSTATES> 5
<STATE> 2
<MEAN> 39
 -3.923057e+00 -5.293985e+00 -1.411476e+00 -3.151323e+00 3.573521e+00 -7.664210e+00 -6.257273e+00 -9.222176e+00 -5.778850e+00 -7.105597e+00 -3.199784e+00 -4.421424e+00 6.734505e+01 -1.012049e-02 -3.664534e-03 3.884920e-03 4.214923e-03 -2.562330e-02 -2.964813e-03 1.423463e-02 1.261005e-02 1.839500e-02 5.959774e-03 3.581386e-03 6.943398e-03 -1.330972e-02 -6.898444e-04 -5.379654e-04 2.638731e-04 -4.811539e-04 -1.025458e-04 8.988514e-05 5.586481e-04 1.063170e-03 -1.555927e-04 -5.449905e-04 -1.967530e-04 -3.170265e-04 2.998925e-04
<VARIANCE> 39
 1.505021e+02 5.077151e+01 1.002669e+02 8.636029e+01 8.435453e+01 8.660888e+01 7.033298e+01 7.884956e+01 5.976442e+01 5.108103e+01 3.932948e+01 3.429741e+01 1.197298e+02 3.787189e+00 2.355507e+00 3.210705e+00 3.452393e+00 2.978860e+00 3.738215e+00 3.299916e+00 3.097766e+00 3.475918e+00 2.808393e+00 2.263036e+00 2.112117e+00 1.945801e+00 4.111398e-01 3.619433e-01 4.487935e-01 5.404605e-01 4.759928e-01 5.753511e-01 5.469896e-01 5.215507e-01 5.944471e-01 4.892201e-01 4.039466e-01 3.762076e-01 2.530312e-01
<GCONST> 1.306910e+02
<STATE> 3
<MEAN> 39
 -3.958492e+00 -5.303170e+00 -1.393790e+00 -3.139156e+00 3.486324e+00 -7.677080e+00 -6.206546e+00 -9.167747e+00 -5.717496e+00 -7.085526e+00 -3.191350e+00 -4.399902e+00 6.730098e+01 -1.311831e-02 -4.675311e-03 4.959477e-03 2.152059e-03 -2.536224e-02 -3.150854e-03 1.570590e-02 1.651135e-02 1.729167e-02 4.150019e-03 2.839197e-03 5.446787e-03 -1.229363e-02 -9.170464e-04 -3.288877e-04 4.686734e-04 -7.955129e-04 1.724484e-04 1.783017e-05 2.254931e-04 7.665807e-04 -4.065497e-04 -4.323290e-04 -2.992100e-04 -4.598738e-04 4.257015e-04
<VARIANCE> 39
 1.502986e+02 5.073868e+01 9.984966e+01 8.664569e+01 8.450843e+01 8.682141e+01 7.030777e+01 7.900319e+01 5.987093e+01 5.105250e+01 3.938389e+01 3.418256e+01 1.210889e+02 3.782934e+00 2.351258e+00 3.191047e+00 3.429030e+00 2.980161e+00 3.741686e+00 3.300108e+00 3.083797e+00 3.463952e+00 2.784723e+00 2.259459e+00 2.115978e+00 1.937006e+00 4.088793e-01 3.618014e-01 4.447167e-01 5.373091e-01 4.764644e-01 5.758200e-01 5.468088e-01 5.188676e-01 5.910649e-01 4.842616e-01 4.031274e-01 3.772747e-01 2.512839e-01
<GCONST> 1.306228e+02
<STATE> 4
<MEAN> 39
 -4.185709e+00 -5.327572e+00 -1.260441e+00 -3.152593e+00 3.277511e+00 -7.505164e+00 -6.089441e+00 -9.115446e+00 -5.546531e+00 -6.979839e+00 -3.225388e+00 -4.361694e+00 6.715910e+01 -1.496174e-02 -3.822481e-03 6.181091e-03 -9.341746e-04 -2.363879e-02 -4.351592e-03 1.381996e-02 1.981675e-02 1.481147e-02 2.955369e-03 4.092054e-04 3.742151e-03 -1.127778e-02 -7.973359e-04 -2.838201e-04 4.261247e-04 -8.810108e-04 2.749630e-04 -8.174218e-06 -2.804080e-04 1.550930e-04 -4.709784e-04 -2.958729e-04 -3.428529e-04 -3.437326e-04 3.582514e-04
<VARIANCE> 39
 1.504760e+02 5.050689e+01 9.820004e+01 8.636977e+01 8.463200e+01 8.636855e+01 7.061087e+01 8.011965e+01 5.964071e+01 5.170155e+01 3.969477e+01 3.395921e+01 1.252195e+02 3.769186e+00 2.344982e+00 3.173303e+00 3.369058e+00 3.010510e+00 3.715956e+00 3.270667e+00 3.050260e+00 3.435591e+00 2.769926e+00 2.247933e+00 2.138048e+00 1.964579e+00 4.062547e-01 3.620786e-01 4.422229e-01 5.311534e-01 4.850079e-01 5.729257e-01 5.417235e-01 5.124559e-01 5.862930e-01 4.816093e-01 4.012398e-01 3.822213e-01 2.536359e-01
<GCONST> 1.305896e+02
<TRANSP> 5
 0.000000e+00 1.000000e+00 0.000000e+00 0.000000e+00 0.000000e+00
 0.000000e+00 7.170986e-01 2.829014e-01 0.000000e+00 0.000000e+00
 0.000000e+00 0.000000e+00 7.170983e-01 2.829017e-01 0.000000e+00
 0.000000e+00 0.000000e+00 0.000000e+00 8.397579e-01 1.602421e-01
 0.000000e+00 0.000000e+00 0.000000e+00 0.000000e+00 0.000000e+00
<ENDHMM>
~h "er"
<BEGINHMM>
<NUMSTATES> 5
<STATE> 2
<MEAN> 39
 -4.603832e+00 -5.000412e+00 -1.199109e+00 -2.958370e+00 3.059831e+00 -6.001697e+00 -5.355548e+00 -8.547578e+00 -4.033836e+00 -7.314384e+00 -2.848735e+00 -4.161505e+00 6.711692e+01 -4.997236e-03 9.554147e-03 3.777135e-03 1.053908e-02 3.487202e-02 4.606511e-03 8.779950e-03 1.143031e-02 -2.350769e-02 -2.141470e-02 1.699721e-03 -1.863613e-02 -4.105376e-03 -3.239315e-04 -3.153739e-04 -1.037767e-03 -1.190332e-04 1.371901e-03 -7.200137e-04 -1.015738e-03 1.226191e-03 -1.045008e-04 -9.880589e-04 -6.719977e-04 1.221264e-03 -1.130061e-03
<VARIANCE> 39
