~o
<STREAMINFO> 1 39
<VECSIZE> 39<NULLD><MFCC_D_A_0><DIAGC>
~h "proto"
<BEGINHMM>
<NUMSTATES> 5
<STATE> 2
<MEAN> 39
 -6.138707e+00 -5.315149e+00 -1.825891e+00 -2.784037e+00 3.033488e+00 -6.627469e+00 -5.225070e+00 -7.083831e+00 -4.607016e+00 -7.244500e+00 -3.057055e+00 -4.355749e+00 6.446392e+01 4.015531e-03 -8.308374e-03 -1.141217e-02 -2.197437e-03 -1.717569e-04 -1.206254e-03 8.865984e-03 1.805022e-02 2.779514e-03 -1.478085e-02 -1.052219e-02 1.586072e-03 3.904913e-03 -6.237280e-04 1.253895e-03 1.099330e-03 -8.035412e-04 -3.359038e-04 7.294469e-04 1.758443e-04 -1.087639e-03 -5.085391e-04 2.785630e-04 -1.887566e-04 3.291359e-04 -3.532672e-04
<VARIANCE> 39
 1.676247e+02 4.911881e+01 8.968417e+01 8.131289e+01 7.401874e+01 9.050771e+01 7.887085e+01 7.952890e+01 5.703981e+01 4.942400e+01 3.835851e+01 3.293996e+01 1.686094e+02 3.570288e+00 2.363629e+00 3.056653e+00 3.102967e+00 2.747908e+00 3.446313e+00 3.267489e+00 3.134288e+00 3.114806e+00 2.769715e+00 2.222335e+00 2.051050e+00 1.812410e+00 4.033132e-01 3.697187e-01 4.497845e-01 4.852680e-01 4.369562e-01 5.519159e-01 5.430962e-01 5.345318e-01 5.341243e-01 4.793689e-01 3.986484e-01 3.662083e-01 2.346084e-01
<GCONST> 1.297578e+02
<STATE> 3
<MEAN> 39
 -6.138707e+00 -5.315149e+00 -1.825891e+00 -2.784037e+00 3.033488e+00 -6.627469e+00 -5.225070e+00 -7.083831e+00 -4.607016e+00 -7.244500e+00 -3.057055e+00 -4.355749e+00 6.446392e+01 4.015531e-03 -8.308374e-03 -1.141217e-02 -2.197437e-03 -1.717569e-04 -1.206254e-03 8.865984e-03 1.805022e-02 2.779514e-03 -1.478085e-02 -1.052219e-02 1.586072e-03 3.904913e-03 -6.237280e-04 1.253895e-03 1.099330e-03 -8.035412e-04 -3.359038e-04 7.294469e-04 1.758443e-04 -1.087639e-03 -5.085391e-04 2.785630e-04 -1.887566e-04 3.291359e-04 -3.532672e-04
<VARIANCE> 39
 1.676247e+02 4.911881e+01 8.968417e+01 8.131289e+01 7.401874e+01 9.050771e+01 7.887085e+01 7.952890e+01 5.703981e+01 4.942400e+01 3.835851e+01 3.293996e+01 1.686094e+02 3.570288e+00 2.363629e+00 3.056653e+00 3.102967e+00 2.747908e+00 3.446313e+00 3.267489e+00 3.134288e+00 3.114806e+00 2.769715e+00 2.222335e+00 2.051050e+00 1.812410e+00 4.033132e-01 3.697187e-01 4.497845e-01 4.852680e-01 4.369562e-01 5.519159e-01 5.430962e-01 5.345318e-01 5.341243e-01 4.793689e-01 3.986484e-01 3.662083e-01 2.346084e-01
<GCONST> 1.297578e+02
<STATE> 4
<MEAN> 39
 -6.138707e+00 -5.315149e+00 -1.825891e+00 -2.784037e+00 3.033488e+00 -6.627469e+00 -5.225070e+00 -7.083831e+00 -4.607016e+00 -7.244500e+00 -3.057055e+00 -4.355749e+00 6.446392e+01 4.015531e-03 -8.308374e-03 -1.141217e-02 -2.197437e-03 -1.717569e-04 -1.206254e-03 8.865984e-03 1.805022e-02 2.779514e-03 -1.478085e-02 -1.052219e-02 1.586072e-03 3.904913e-03 -6.237280e-04 1.253895e-03 1.099330e-03 -8.035412e-04 -3.359038e-04 7.294469e-04 1.758443e-04 -1.087639e-03 -5.085391e-04 2.785630e-04 -1.887566e-04 3.291359e-04 -3.532672e-04
<VARIANCE> 39
 1.676247e+02 4.911881e+01 8.968417e+01 8.131289e+01 7.401874e+01 9.050771e+01 7.887085e+01 7.952890e+01 5.703981e+01 4.942400e+01 3.835851e+01 3.293996e+01 1.686094e+02 3.570288e+00 2.363629e+00 3.056653e+00 3.102967e+00 2.747908e+00 3.446313e+00 3.267489e+00 3.134288e+00 3.114806e+00 2.769715e+00 2.222335e+00 2.051050e+00 1.812410e+00 4.033132e-01 3.697187e-01 4.497845e-01 4.852680e-01 4.369562e-01 5.519159e-01 5.430962e-01 5.345318e-01 5.341243e-01 4.793689e-01 3.986484e-01 3.662083e-01 2.346084e-01
<GCONST> 1.297578e+02
<TRANSP> 5
 0.000000e+00 1.000000e+00 0.000000e+00 0.000000e+00 0.000000e+00
 0.000000e+00 6.000000e-01 4.000000e-01 0.000000e+00 0.000000e+00
 0.000000e+00 0.000000e+00 6.000000e-01 4.000000e-01 0.000000e+00
 0.000000e+00 0.000000e+00 0.000000e+00 7.000000e-01 3.000000e-01
 0.000000e+00 0.000000e+00 0.000000e+00 0.000000e+00 0.000000e+00
<ENDHMM>
