~o
<STREAMINFO> 1 39
<VECSIZE> 39<NULLD><MFCC_D_A_0><DIAGC>
~h "b"
<BEGINHMM>
<NUMSTATES> 5
<STATE> 2
<MEAN> 39
 -1.780714e+00 -5.244367e-01 -3.822297e+00 -2.607684e+00 2.471524e+00 -5.592350e+00 -5.123560e+00 -6.129428e+00 -3.442248e+00 -9.768879e+00 -4.617752e+00 -5.441442e+00 6.411198e+01 3.086928e-01 2.924893e-01 -8.065666e-02 -3.022266e-02 -1.892255e-01 -4.389798e-01 -1.568986e-01 9.714105e-02 5.558150e-01 -1.217719e-03 -1.412894e-01 -7.017637e-02 2.293284e-01 -1.174605e-02 -1.512627e-01 6.019785e-02 -9.520623e-02 -3.911434e-02 -9.050298e-02 -6.133921e-02 -7.548515e-02 -6.268962e-02 7.591973e-02 -4.799347e-03 5.347636e-02 1.314498e-01
<VARIANCE> 39
 1.441883e+02 3.055347e+01 5.208652e+01 7.096601e+01 7.095692e+01 7.057827e+01 6.108207e+01 4.234861e+01 5.689216e+01 3.541251e+01 2.609863e+01 3.044374e+01 7.739564e+01 5.887600e+00 2.097144e+00 2.449664e+00 3.313691e+00 3.689955e+00 4.565737e+00 4.478316e+00 2.681072e+00 3.050447e+00 2.702541e+00 1.964967e+00 2.064848e+00 3.931010e+00 7.676294e-01 3.590505e-01 3.849244e-01 4.909937e-01 5.879827e-01 6.712996e-01 6.949261e-01 5.182815e-01 5.165812e-01 4.701462e-01 3.691566e-01 3.854277e-01 3.843601e-01
<GCONST> 1.288639e+02
<STATE> 3
<MEAN> 39
 -4.122815e-01 -3.402431e-01 -4.207722e+00 -3.357571e+00 1.111323e+00 -7.304290e+00 -5.672476e+00 -5.730271e+00 -2.281081e+00 -9.570164e+00 -5.076326e+00 -5.250546e+00 6.536452e+01 2.847036e-01 -1.413899e-01 -7.623236e-02 -1.900416e-01 -2.586722e-01 -5.057297e-01 -2.457264e-01 -6.797254e-02 2.404862e-01 1.533476e-01 -6.671903e-02 5.058185e-02 4.556947e-01 -8.915837e-03 -1.611386e-01 1.661293e-02 -2.597616e-02 3.003827e-02 -6.349231e-02 -8.952879e-02 -5.844439e-02 -1.139687e-01 4.835453e-02 1.903692e-02 4.407631e-02 9.174490e-02
<VARIANCE> 39
 1.341224e+02 3.149072e+01 5.402636e+01 7.444588e+01 8.736297e+01 9.012447e+01 6.641376e+01 4.230194e+01 5.812991e+01 3.936478e+01 3.091282e+01 3.361684e+01 7.026196e+01 5.108349e+00 2.245882e+00 2.208217e+00 3.562409e+00 3.973497e+00 4.714715e+00 4.997777e+00 2.799997e+00 3.074592e+00 3.138789e+00 2.084663e+00 2.184817e+00 3.658428e+00 7.636593e-01 3.649156e-01 3.789222e-01 5.872818e-01 6.874421e-01 7.814361e-01 7.780905e-01 5.070103e-01 5.321938e-01 5.283494e-01 3.708337e-01 3.718566e-01 4.256183e-01
<GCONST> 1.308867e+02
<STATE> 4
<MEAN> 39
 -5.995369e-02 -8.302364e-01 -5.395130e+00 -4.887722e+00 -1.850294e+00 -9.234587e+00 -6.024389e+00 -4.863956e+00 -1.100379e+00 -9.646528e+00 -5.176709e+00 -4.316082e+00 6.528594e+01 9.586553e-02 -3.408198e-01 -1.446862e-02 -3.047731e-02 5.278609e-02 -2.710319e-01 -2.959215e-01 -1.200685e-01 -1.305463e-01 4.608814e-02 1.143924e-01 8.046927e-02 3.581136e-01 3.535936e-02 -6.886816e-02 1.843003e-02 6.596449e-02 9.969891e-02 -4.411408e-02 -1.114575e-01 -2.419628e-02 -6.795105e-02 1.468413e-02 2.086039e-02 2.478807e-02 5.373675e-02
<VARIANCE> 39
 1.088860e+02 2.855718e+01 4.791469e+01 6.274736e+01 8.577200e+01 1.003974e+02 6.967280e+01 4.094022e+01 5.482722e+01 4.294131e+01 3.080451e+01 3.278168e+01 7.318948e+01 4.194857e+00 2.072029e+00 1.799902e+00 3.410020e+00 4.045855e+00 4.707799e+00 4.860798e+00 2.663974e+00 3.092189e+00 3.121928e+00 1.922165e+00 1.869813e+00 2.911665e+00 5.085035e-01 3.506560e-01 3.379407e-01 5.451210e-01 6.028575e-01 7.656959e-01 7.210264e-01 4.801916e-01 5.011035e-01 5.543832e-01 3.509505e-01 3.084647e-01 3.565030e-01
<GCONST> 1.280344e+02
<TRANSP> 5
 0.000000e+00 1.000000e+00 0.000000e+00 0.000000e+00 0.000000e+00
 0.000000e+00 5.887572e-01 4.112428e-01 0.000000e+00 0.000000e+00
 0.000000e+00 0.000000e+00 5.846232e-01 4.153768e-01 0.000000e+00
 0.000000e+00 0.000000e+00 0.000000e+00 7.670417e-01 2.329583e-01
 0.000000e+00 0.000000e+00 0.000000e+00 0.000000e+00 0.000000e+00
<ENDHMM>
~h "d"
<BEGINHMM>
<NUMSTATES> 5
<STATE> 2
<MEAN> 39
 5.081401e-01 -5.617772e+00 -3.411016e+00 -5.184577e-01 5.089919e+00 -6.048645e+00 -7.705284e+00 -1.014526e+01 -6.013178e+00 -9.328134e+00 -2.016008e+00 -3.264217e+00 6.906150e+01 -2.082381e-01 -1.412634e-01 1.723013e-02 1.987610e-01 1.047776e-01 1.442017e-01 2.380103e-01 7.282540e-02 -2.458140e-03 -1.666817e-02 9.599502e-02 1.215710e-01 -2.320752e-01 -1.929101e-02 -2.209743e-03 6.748433e-02 -7.436384e-02 -2.286047e-02 -3.699188e-02 -7.083490e-03 6.069208e-03 -3.805968e-02 -2.167441e-04 -1.579376e-02 -6.475347e-03 4.641272e-02
<VARIANCE> 39
 8.691306e+01 5.264857e+01 6.619027e+01 8.154922e+01 5.957446e+01 5.363980e+01 5.309656e+01 5.948922e+01 5.998537e+01 4.167016e+01 4.615329e+01 3.789559e+01 5.584381e+01 2.348581e+00 3.063955e+00 2.968686e+00 3.821918e+00 2.858112e+00 3.928997e+00 3.186876e+00 2.610388e+00 3.431523e+00 2.411941e+00 2.735789e+00 2.526678e+00 2.302315e+00 3.183282e-01 4.823180e-01 4.805461e-01 6.247571e-01 4.883197e-01 6.791384e-01 5.723017e-01 4.447230e-01 5.997732e-01 4.414715e-01 5.198289e-01 4.444131e-01 3.423558e-01
<GCONST> 1.285452e+02
<STATE> 3
<MEAN> 39
 -1.700244e-01 -6.109674e+00 -3.142627e+00 -1.453571e-01 5.274408e+00 -5.831708e+00 -7.136174e+00 -9.973137e+00 -6.146117e+00 -9.405319e+00 -1.710828e+00 -3.048576e+00 6.860355e+01 -2.796387e-01 -1.110408e-01 1.991142e-01 4.101565e-02 5.591030e-02 8.969787e-02 2.095362e-01 7.777670e-02 -9.516345e-02 -4.091772e-02 2.880828e-02 5.912058e-02 -1.440933e-01 -2.148802e-02 2.665094e-02 7.653230e-02 -1.088654e-01 -1.747010e-02 -5.526401e-02 -3.148473e-02 9.097155e-03 -2.287875e-02 -5.627909e-04 -6.383170e-02 -5.350532e-02 7.334846e-02
<VARIANCE> 39
 8.353023e+01 5.104367e+01 6.920412e+01 7.783873e+01 5.875883e+01 5.556893e+01 5.426112e+01 5.935920e+01 5.852638e+01 4.366735e+01 4.357597e+01 3.477364e+01 5.233008e+01 3.039726e+00 3.427082e+00 3.609912e+00 4.409781e+00 3.061828e+00 3.935345e+00 3.309018e+00 2.818488e+00 3.640951e+00 2.575212e+00 2.928208e+00 2.571743e+00 2.626478e+00 3.704089e-01 5.256277e-01 5.738519e-01 7.037834e-01 5.178067e-01 7.269410e-01 5.755154e-01 4.693375e-01 6.358115e-01 4.804983e-01 5.345857e-01 4.560637e-01 3.712214e-01
<GCONST> 1.305608e+02
<STATE> 4
<MEAN> 39
 -2.302843e+00 -7.447125e+00 -1.169605e+00 -6.461642e-01 4.755276e+00 -5.482468e+00 -6.347540e+00 -9.691550e+00 -6.203370e+00 -9.469324e+00 -1.511737e+00 -3.145582e+00 6.857442e+01 -3.647475e-01 -1.181158e-01 4.361480e-01 -2.309977e-01 3.783531e-04 -6.602915e-02 9.172582e-02 2.726530e-02 -2.311565e-01 -6.507616e-02 -2.007905e-01 -1.202327e-01 7.024200e-02 4.874894e-02 9.785899e-02 -7.002554e-02 -3.762244e-02 -1.295794e-02 -3.781702e-02 -1.960469e-02 -2.260645e-03 -1.307069e-02 2.793895e-02 -6.002489e-02 -4.502850e-02 9.048918e-04
<VARIANCE> 39
 8.304736e+01 5.242258e+01 8.292509e+01 7.799440e+01 5.813460e+01 5.703139e+01 5.966798e+01 6.620602e+01 5.641275e+01 4.459361e+01 4.454621e+01 3.438253e+01 5.269181e+01 4.382405e+00 3.961786e+00 5.288020e+00 5.274666e+00 3.390826e+00 4.098581e+00 3.515316e+00 3.405462e+00 3.946107e+00 2.756039e+00 3.270526e+00 2.850983e+00 3.083298e+00 5.320307e-01 5.806246e-01 8.122413e-01 8.521050e-01 5.668394e-01 7.664344e-01 5.856417e-01 5.475338e-01 6.971033e-01 5.272773e-01 5.757884e-01 4.983009e-01 4.471324e-01
<GCONST> 1.348212e+02
<TRANSP> 5
 0.000000e+00 1.000000e+00 0.000000e+00 0.000000e+00 0.000000e+00
 0.000000e+00 4.917334e-01 5.082666e-01 0.000000e+00 0.000000e+00
 0.000000e+00 0.000000e+00 4.944143e-01 5.055857e-01 0.000000e+00
 0.000000e+00 0.000000e+00 0.000000e+00 6.447889e-01 3.552112e-01
 0.000000e+00 0.000000e+00 0.000000e+00 0.000000e+00 0.000000e+00
<ENDHMM>
~h "f"
<BEGINHMM>
<NUMSTATES> 5
<STATE> 2
<MEAN> 39
 -1.069231e+01 -2.189052e+00 -4.437247e+00 -7.519110e+00 5.083332e+00 -1.156281e+01 -2.054024e+00 -5.870204e+00 -3.402358e+00 -7.920522e+00 -4.783716e+00 -6.044782e+00 7.072165e+01 -4.478257e-01 2.568158e-01 -6.015906e-03 -6.273111e-01 -4.242497e-01 -6.020378e-01 8.443266e-02 3.169692e-01 3.511463e-01 3.880743e-01 8.791824e-02 -1.982687e-01 3.365491e-01 2.045954e-01 1.457873e-02 2.776754e-02 3.621567e-02 -9.022320e-02 -7.078176e-02 -1.301760e-01 -4.713992e-02 -3.150801e-02 6.443600e-02 6.999423e-02 3.158893e-02 6.152532e-02
<VARIANCE> 39
 1.734223e+02 4.360596e+01 4.638760e+01 5.736196e+01 1.121613e+02 5.282858e+01 4.923066e+01 4.901559e+01 5.258133e+01 4.678390e+01 4.431868e+01 4.899855e+01 5.874679e+01 1.153479e+01 3.063680e+00 2.810448e+00 2.838460e+00 6.781584e+00 4.135355e+00 4.287126e+00 3.263668e+00 3.899447e+00 2.847926e+00 3.214041e+00 2.964952e+00 1.592977e+00 1.219104e+00 5.227699e-01 5.261012e-01 5.308662e-01 8.590711e-01 7.189372e-01 6.680477e-01 5.618504e-01 6.228691e-01 4.985327e-01 5.830993e-01 5.295152e-01 2.629993e-01
<GCONST> 1.344077e+02
<STATE> 3
<MEAN> 39
 -1.115680e+01 -1.845149e+00 -4.500450e+00 -8.867725e+00 3.523307e+00 -1.357031e+01 -2.480031e+00 -5.323235e+00 -2.495262e+00 -6.405035e+00 -4.373148e+00 -6.505788e+00 7.198937e+01 4.831981e-01 1.014474e-01 3.807589e-02 -3.252957e-01 -5.904094e-01 -6.106283e-01 -4.194773e-01 3.888340e-02 1.538808e-01 4.040642e-01 9.991429e-02 2.283922e-02 3.218089e-01 2.428120e-01 -2.260716e-02 7.300951e-03 1.009740e-01 2.610962e-02 2.328699e-02 -1.300603e-01 -7.865387e-02 -7.366806e-02 -5.496731e-03 -3.750138e-03 4.576094e-02 -1.198710e-02
<VARIANCE> 39
 1.822284e+02 5.290234e+01 4.624251e+01 5.890591e+01 1.158586e+02 6.267253e+01 5.633551e+01 5.063577e+01 4.322498e+01 4.987706e+01 4.772074e+01 4.663558e+01 4.761444e+01 1.226391e+01 3.991191e+00 3.472278e+00 2.981763e+00 6.058704e+00 4.414497e+00 4.506298e+00 3.177862e+00 3.337964e+00 3.034473e+00 3.015805e+00 2.941067e+00 1.569497e+00 1.101150e+00 6.701237e-01 6.449233e-01 5.623572e-01 8.733650e-01 7.595409e-01 7.488400e-01 5.721244e-01 5.620651e-01 4.899565e-01 5.683662e-01 5.265058e-01 2.158992e-01
<GCONST> 1.353736e+02
<STATE> 4
<MEAN> 39
 -6.022692e+00 -2.432229e+00 -4.859722e+00 -9.009416e+00 3.126974e-01 -1.564381e+01 -4.476257e+00 -4.669081e+00 -1.563987e+00 -4.527927e+00 -4.803130e+00 -5.473351e+00 7.310852e+01 1.141139e+00 -2.445482e-03 1.004476e-01 5.891017e-02 -3.359336e-01 -1.965836e-01 -5.807523e-01 -1.453441e-01 -1.139638e-01 9.891596e-02 -5.116200e-02 1.080981e-01 1.073693e-01 4.933669e-02 -8.154035e-03 -5.182143e-02 6.263645e-02 7.891664e-02 9.024219e-02 -7.070664e-03 2.678018e-03 -4.953120e-02 -4.741510e-02 -1.899349e-02 -6.041062e-03 -4.765371e-02
<VARIANCE> 39
 2.012304e+02 6.285754e+01 4.595585e+01 5.488570e+01 1.007976e+02 7.409271e+01 6.435853e+01 5.230443e+01 4.507690e+01 5.029066e+01 4.492651e+01 4.109874e+01 3.688030e+01 9.269659e+00 3.797929e+00 3.757543e+00 2.862834e+00 4.557570e+00 4.832364e+00 4.198627e+00 2.889841e+00 2.934559e+00 3.199155e+00 2.628149e+00 2.362933e+00 1.251966e+00 8.895172e-01 7.032558e-01 7.191426e-01 4.649804e-01 6.367777e-01 7.307582e-01 6.951142e-01 4.892045e-01 4.955804e-01 4.856822e-01 4.683693e-01 4.516041e-01 1.633133e-01
<GCONST> 1.324675e+02
<TRANSP> 5
 0.000000e+00 1.000000e+00 0.000000e+00 0.000000e+00 0.000000e+00
 0.000000e+00 7.211573e-01 2.788427e-01 0.000000e+00 0.000000e+00
 0.000000e+00 0.000000e+00 7.019007e-01 2.980993e-01 0.000000e+00
 0.000000e+00 0.000000e+00 0.000000e+00 8.262678e-01 1.737322e-01
 0.000000e+00 0.000000e+00 0.000000e+00 0.000000e+00 0.000000e+00
<ENDHMM>
~h "g"
<BEGINHMM>
<NUMSTATES> 5
<STATE> 2
<MEAN> 39
 1.939652e-01 -4.377323e+00 -2.121744e+00 -2.122954e+00 7.876363e+00 -9.138094e+00 -1.176626e+01 -1.312441e+01 -6.543474e+00 -5.877445e+00 -2.845861e+00 -7.303683e+00 7.036414e+01 4.417697e-01 -2.569578e-01 -2.712583e-01 1.356651e-01 5.463845e-01 -4.729144e-02 -2.331430e-01 -4.655745e-01 -2.041795e-01 1.152776e-01 3.204323e-01 1.310453e-01 7.258993e-01 -4.367128e-02 -2.411712e-02 8.727369e-03 3.926000e-02 -4.378382e-02 -3.489777e-02 1.049263e-01 1.066569e-01 -1.379707e-02 -9.184388e-02 1.766672e-02 3.384128e-02 -1.027516e-02
<VARIANCE> 39
 5.175242e+01 4.446989e+01 6.617287e+01 1.274655e+02 8.362959e+01 9.795402e+01 6.304142e+01 1.169362e+02 6.855832e+01 8.230925e+01 5.284470e+01 3.911386e+01 4.605191e+01 3.983757e+00 3.129109e+00 3.823703e+00 6.455951e+00 5.054489e+00 6.805543e+00 5.596323e+00 8.051967e+00 6.331274e+00 5.902120e+00 4.702317e+00 3.541577e+00 3.870186e+00 4.903045e-01 5.033917e-01 5.841263e-01 8.097089e-01 6.536372e-01 1.100608e+00 1.036107e+00 1.361635e+00 1.028350e+00 9.034694e-01 8.264973e-01 6.393641e-01 5.159877e-01
<GCONST> 1.438326e+02
<STATE> 3
<MEAN> 39
 2.051945e+00 -5.648437e+00 -3.598228e+00 -2.835075e-01 8.678850e+00 -9.104049e+00 -1.116119e+01 -1.455378e+01 -7.878579e+00 -6.465661e+00 -1.301913e+00 -6.197898e+00 7.268533e+01 2.896499e-01 1.772880e-02 -1.874217e-01 3.424551e-01 1.125723e-01 -1.233339e-02 6.275604e-02 -5.636917e-03 -9.729750e-02 1.906351e-03 2.300967e-01 1.970276e-02 1.052330e-01 -3.191338e-02 3.627474e-02 2.346019e-02 2.173706e-02 -6.101102e-02 -6.006421e-03 2.415569e-02 1.021785e-01 5.672529e-02 1.561079e-02 -4.643985e-02 -4.004487e-02 -8.851793e-02
<VARIANCE> 39
 3.713752e+01 4.150880e+01 6.152541e+01 1.134098e+02 6.750562e+01 6.672478e+01 5.905976e+01 8.472983e+01 6.937423e+01 7.984933e+01 5.483028e+01 4.013478e+01 3.327647e+01 2.299647e+00 2.090075e+00 2.576041e+00 5.606578e+00 3.864675e+00 4.706748e+00 4.092517e+00 5.576438e+00 5.783003e+00 4.197464e+00 4.026787e+00 2.842781e+00 1.971095e+00 3.288273e-01 3.349260e-01 4.777204e-01 8.038627e-01 5.530884e-01 7.825940e-01 7.594221e-01 9.740005e-01 1.044074e+00 7.472462e-01 6.914594e-01 5.152819e-01 2.819297e-01
<GCONST> 1.343462e+02
<STATE> 4
<MEAN> 39
 2.398272e+00 -3.480661e+00 -2.583553e+00 6.431243e-01 8.605841e+00 -8.980897e+00 -1.053454e+01 -1.089151e+01 -6.620485e+00 -5.938845e+00 -2.031791e+00 -7.336861e+00 7.042902e+01 6.051045e-03 -1.246792e-02 -2.241797e-02 -1.040850e-01 -8.588602e-02 -1.855184e-01 9.342366e-02 3.350192e-01 3.264049e-02 -2.604599e-02 -8.762209e-02 4.968625e-02 8.933545e-03 -2.982205e-02 -3.061906e-02 1.248137e-02 -1.109169e-02 -4.735325e-03 -8.980190e-03 1.143574e-02 7.054347e-03 -5.625532e-03 -1.063514e-02 -1.535373e-02 1.704955e-02 9.200338e-03
<VARIANCE> 39
 4.719164e+01 6.263279e+01 7.030697e+01 1.000804e+02 6.875058e+01 8.597349e+01 5.964090e+01 7.439116e+01 7.287762e+01 6.994776e+01 5.613713e+01 2.969153e+01 3.586108e+01 2.333207e+00 3.139416e+00 3.311598e+00 5.599478e+00 3.302230e+00 5.252548e+00 3.638377e+00 4.763833e+00 4.647027e+00 4.122480e+00 3.064055e+00 2.242270e+00 1.801254e+00 2.914450e-01 4.371199e-01 4.902134e-01 8.960125e-01 5.157309e-01 8.037955e-01 6.211649e-01 8.518463e-01 8.093628e-01 6.806108e-01 5.294507e-01 3.904451e-01 2.403269e-01
<GCONST> 1.332316e+02
<TRANSP> 5
 0.000000e+00 1.000000e+00 0.000000e+00 0.000000e+00 0.000000e+00
 0.000000e+00 8.650628e-01 1.349372e-01 0.000000e+00 0.000000e+00
 0.000000e+00 0.000000e+00 8.273032e-01 1.726967e-01 0.000000e+00
 0.000000e+00 0.000000e+00 0.000000e+00 9.554567e-01 4.454335e-02
 0.000000e+00 0.000000e+00 0.000000e+00 0.000000e+00 0.000000e+00
<ENDHMM>
~h "k"
<BEGINHMM>
<NUMSTATES> 5
<STATE> 2
<MEAN> 39
 -2.707371e+00 -4.534924e+00 -3.870286e+00 -4.606674e+00 4.478921e+00 -8.170334e+00 -4.813162e+00 -8.924757e+00 -5.832686e+00 -7.540632e+00 -1.875825e+00 -4.565419e+00 6.777702e+01 -4.332239e-01 -4.430037e-01 -1.095221e-01 -1.306597e+00 1.850860e-01 -6.674966e-01 1.758014e-01 1.612827e-01 -2.117132e-01 -3.617274e-01 -1.147512e-01 -1.038984e-02 5.617812e-01 5.385014e-02 -1.513656e-01 4.006580e-02 -1.283672e-01 -5.482481e-02 -1.093021e-01 -1.152098e-02 1.209114e-02 -5.899274e-02 -8.701107e-02 1.010531e-02 3.266142e-02 2.342280e-01
<VARIANCE> 39
 6.647928e+01 6.308357e+01 5.633760e+01 1.256342e+02 9.607028e+01 9.441425e+01 5.794882e+01 8.727708e+01 6.113167e+01 6.826768e+01 5.848272e+01 4.939567e+01 5.618171e+01 3.407682e+00 3.876741e+00 4.345146e+00 1.083794e+01 7.068541e+00 7.941390e+00 4.189072e+00 5.340883e+00 5.250755e+00 4.773644e+00 4.502602e+00 3.439569e+00 3.770601e+00 4.044863e-01 6.889319e-01 5.962208e-01 1.705856e+00 1.227955e+00 1.582681e+00 5.952414e-01 9.428803e-01 8.609166e-01 8.227675e-01 7.826914e-01 5.782325e-01 6.305046e-01
<GCONST> 1.449430e+02
<STATE> 3
<MEAN> 39
 -3.579494e+00 -6.258870e+00 -3.875760e+00 -7.822508e+00 4.319917e+00 -9.830040e+00 -4.446447e+00 -8.397142e+00 -6.464732e+00 -8.677399e+00 -2.061631e+00 -4.497016e+00 6.963993e+01 -1.155053e-01 -5.175521e-01 9.926823e-02 -8.469116e-01 -2.130277e-01 -3.658377e-01 9.841071e-02 9.132129e-02 -2.996893e-01 -3.006398e-01 -5.082609e-02 -5.814995e-03 6.367208e-01 1.077112e-01 3.033195e-02 9.158084e-02 2.536331e-01 -9.885088e-02 1.385241e-01 -1.775290e-02 -3.271915e-02 -2.594491e-02 6.458689e-02 2.331763e-02 -1.765215e-02 -2.587158e-02
<VARIANCE> 39
 6.523783e+01 6.302093e+01 6.587959e+01 1.228233e+02 9.003479e+01 1.013636e+02 6.977724e+01 8.485537e+01 6.624694e+01 7.585542e+01 6.601810e+01 4.647791e+01 4.682150e+01 4.257444e+00 5.006455e+00 4.627870e+00 1.211456e+01 7.148420e+00 8.683191e+00 4.581206e+00 5.918268e+00 5.613650e+00 4.636662e+00 4.260849e+00 3.350514e+00 3.788599e+00 5.034106e-01 8.780115e-01 6.985914e-01 1.665309e+00 1.134701e+00 1.514431e+00 7.133983e-01 1.016309e+00 8.940278e-01 7.883758e-01 7.408230e-01 5.777559e-01 6.129221e-01
<GCONST> 1.468307e+02
<STATE> 4
<MEAN> 39
 -3.349414e+00 -7.511561e+00 -3.323520e+00 -8.397694e+00 2.390591e+00 -9.545824e+00 -4.102404e+00 -7.916043e+00 -7.511503e+00 -8.959003e+00 -2.263222e+00 -4.685278e+00 7.047436e+01 3.634351e-01 -8.754468e-02 2.371496e-01 2.590303e-01 -2.553780e-01 1.568445e-01 -3.852626e-02 -1.419569e-01 -2.800193e-01 9.891699e-02 -1.071476e-01 -5.144768e-02 2.543373e-01 8.239288e-02 1.535383e-01 3.492542e-03 2.370198e-01 1.515039e-02 8.306881e-02 -3.121578e-02 -7.014237e-02 3.080040e-02 9.033763e-02 1.863743e-02 3.247147e-03 -1.035554e-01
<VARIANCE> 39
 7.559000e+01 6.509251e+01 7.176103e+01 1.043151e+02 7.633446e+01 1.081306e+02 6.986030e+01 8.248582e+01 7.139423e+01 8.126858e+01 6.538682e+01 4.190014e+01 4.258136e+01 4.620634e+00 5.518584e+00 4.363636e+00 7.950578e+00 4.840763e+00 6.664964e+00 4.690298e+00 5.665907e+00 4.965775e+00 4.094718e+00 3.422688e+00 3.002332e+00 3.066979e+00 5.453826e-01 9.465815e-01 7.594562e-01 1.324048e+00 8.100212e-01 1.280087e+00 7.816028e-01 9.717619e-01 8.357599e-01 7.303817e-01 5.991094e-01 5.446079e-01 5.110412e-01
<GCONST> 1.439322e+02
<TRANSP> 5
 0.000000e+00 1.000000e+00 0.000000e+00 0.000000e+00 0.000000e+00
 0.000000e+00 6.304216e-01 3.695783e-01 0.000000e+00 0.000000e+00
 0.000000e+00 0.000000e+00 6.342910e-01 3.657090e-01 0.000000e+00
 0.000000e+00 0.000000e+00 0.000000e+00 7.868215e-01 2.131784e-01
 0.000000e+00 0.000000e+00 0.000000e+00 0.000000e+00 0.000000e+00
<ENDHMM>
~h "l"
<BEGINHMM>
<NUMSTATES> 5
<STATE> 2
<MEAN> 39
 5.329918e+00 -5.410895e+00 -4.911447e+00 -6.161144e-01 6.917106e+00 -7.366368e+00 -8.565305e+00 -9.423701e+00 -1.029679e+01 -1.171862e+01 -6.026205e+00 -4.544853e+00 7.137271e+01 5.245647e-02 1.871257e-02 -1.765385e-01 2.999899e-01 3.078809e-01 8.572380e-02 9.408766e-03 -9.754430e-02 -2.493451e-01 -2.914249e-01 9.236014e-02 1.397008e-01 -1.498960e-02 -1.073027e-01 9.087448e-03 6.596097e-02 -5.693137e-02 -8.933622e-02 -4.044211e-02 2.868866e-02 6.795748e-02 1.402080e-01 7.473586e-02 4.046864e-02 2.148284e-02 -3.177694e-02
<VARIANCE> 39
 4.189097e+01 4.021850e+01 5.277602e+01 4.858151e+01 5.989447e+01 7.816100e+01 4.038926e+01 5.146843e+01 6.775186e+01 4.986613e+01 4.747340e+01 3.771024e+01 3.664504e+01 1.648158e+00 2.136038e+00 2.458139e+00 2.794954e+00 2.834575e+00 5.095863e+00 3.200975e+00 3.082439e+00 3.197436e+00 3.085850e+00 2.281075e+00 2.329571e+00 1.165315e+00 1.960008e-01 2.645598e-01 3.528507e-01 4.195709e-01 4.025638e-01 7.983999e-01 5.374600e-01 5.281371e-01 5.323126e-01 5.683253e-01 4.042995e-01 3.819681e-01 1.507973e-01
<GCONST> 1.223018e+02
<STATE> 3
<MEAN> 39
 5.187793e+00 -5.174681e+00 -5.291892e+00 -1.625419e-01 7.098547e+00 -7.081928e+00 -8.334711e+00 -9.399518e+00 -1.041810e+01 -1.233326e+01 -5.583657e+00 -3.958382e+00 7.104407e+01 -1.954951e-01 7.759462e-02 2.737831e-03 1.321980e-01 8.889744e-02 1.959764e-02 8.105452e-02 7.185868e-02 8.486912e-02 -7.013816e-02 1.562793e-01 1.105339e-01 -1.168443e-01 -8.208153e-02 -1.193932e-02 6.622583e-02 -7.469104e-02 -6.270686e-02 -5.782032e-02 7.568196e-03 5.027639e-02 8.648863e-02 8.518989e-02 2.322365e-02 -6.795008e-03 -3.644083e-03
<VARIANCE> 39
 4.284575e+01 4.236190e+01 4.737115e+01 4.640921e+01 5.897362e+01 7.821361e+01 4.231566e+01 4.755318e+01 6.497314e+01 5.055974e+01 4.564992e+01 3.720011e+01 3.733577e+01 1.461722e+00 1.851167e+00 2.169071e+00 2.637094e+00 2.518371e+00 4.777699e+00 3.185650e+00 3.029068e+00 2.764120e+00 3.300072e+00 2.274274e+00 2.266461e+00 1.157284e+00 1.713344e-01 2.436746e-01 3.189382e-01 3.821942e-01 3.764615e-01 7.364888e-01 5.364659e-01 5.204425e-01 4.626750e-01 5.605655e-01 3.868650e-01 3.753592e-01 1.453952e-01
<GCONST> 1.205183e+02
<STATE> 4
<MEAN> 39
 4.159760e+00 -3.976499e+00 -5.077907e+00 -2.881463e-01 6.471967e+00 -6.593645e+00 -7.574503e+00 -8.740778e+00 -9.574126e+00 -1.255967e+01 -5.320459e+00 -3.896259e+00 6.968281e+01 -4.091548e-01 4.060426e-02 1.581041e-01 -7.206272e-02 -1.267706e-02 -9.922347e-02 6.547140e-02 1.003002e-01 1.914603e-01 2.140168e-01 1.835389e-01 2.292357e-02 -1.772257e-01 -4.827349e-02 -3.178035e-02 3.543349e-02 -7.070234e-02 -1.544172e-02 -4.883288e-02 -2.001273e-02 -1.839303e-02 1.038645e-02 7.139783e-02 1.417750e-02 -1.545719e-02 2.527194e-02
<VARIANCE> 39
 4.813010e+01 4.888224e+01 4.731952e+01 4.341853e+01 6.369848e+01 8.844758e+01 4.644318e+01 4.648447e+01 6.020100e+01 4.976636e+01 4.392324e+01 3.487077e+01 4.354079e+01 1.474696e+00 1.865311e+00 2.169015e+00 2.448883e+00 2.542533e+00 4.493111e+00 3.245724e+00 2.803869e+00 2.713033e+00 3.017283e+00 2.094524e+00 2.043418e+00 1.212843e+00 1.729721e-01 2.454411e-01 3.226531e-01 3.743584e-01 3.818766e-01 6.553746e-01 5.309759e-01 4.711464e-01 4.696152e-01 5.250965e-01 3.617035e-01 3.462651e-01 1.421167e-01
<GCONST> 1.200978e+02
<TRANSP> 5
 0.000000e+00 1.000000e+00 0.000000e+00 0.000000e+00 0.000000e+00
 0.000000e+00 6.205985e-01 3.794015e-01 0.000000e+00 0.000000e+00
 0.000000e+00 0.000000e+00 6.234846e-01 3.765154e-01 0.000000e+00
 0.000000e+00 0.000000e+00 0.000000e+00 7.426180e-01 2.573820e-01
 0.000000e+00 0.000000e+00 0.000000e+00 0.000000e+00 0.000000e+00
<ENDHMM>
~h "m"
<BEGINHMM>
<NUMSTATES> 5
<STATE> 2
<MEAN> 39
 3.662361e+00 -3.597299e+00 -6.654683e+00 -7.715445e-01 4.513860e+00 -8.295710e+00 -8.388103e+00 -7.531041e+00 -3.794724e+00 -7.884977e+00 -3.570367e+00 -6.366698e+00 6.923795e+01 2.600778e-02 2.225405e-01 -3.540741e-01 1.893955e-01 1.591424e-01 7.962348e-02 4.084545e-02 9.375890e-02 3.859338e-01 -1.226522e-01 -7.637633e-02 -9.647965e-02 -2.306826e-01 -7.781787e-02 -3.760862e-02 1.020220e-01 -1.513692e-01 -3.050690e-02 -8.954636e-02 -3.279582e-02 -5.138402e-02 -2.167509e-02 2.666010e-02 -2.018974e-02 6.108961e-02 7.516363e-02
<VARIANCE> 39
 9.449346e+01 3.280914e+01 6.059095e+01 5.834751e+01 4.366051e+01 6.291471e+01 6.241291e+01 5.770331e+01 5.649430e+01 5.192167e+01 2.501433e+01 4.654273e+01 5.048088e+01 1.836343e+00 1.564256e+00 2.211802e+00 3.673054e+00 2.168037e+00 3.235994e+00 2.972089e+00 2.636862e+00 3.276135e+00 3.026934e+00 1.864181e+00 2.964574e+00 1.280293e+00 2.175308e-01 2.268288e-01 2.386790e-01 4.925604e-01 3.196946e-01 5.211146e-01 5.460093e-01 4.559548e-01 4.750502e-01 5.101165e-01 3.318090e-01 4.517574e-01 1.782707e-01
<GCONST> 1.209953e+02
<STATE> 3
<MEAN> 39
 3.517489e+00 -3.279225e+00 -7.094427e+00 -6.513796e-01 4.875819e+00 -8.320534e+00 -8.470687e+00 -7.476735e+00 -3.103518e+00 -8.082546e+00 -3.786779e+00 -6.384522e+00 6.898019e+01 -1.080371e-01 1.509259e-01 -1.302442e-01 -9.798307e-02 6.614166e-02 -3.966681e-02 -5.549642e-02 -3.281702e-02 2.983061e-01 -5.984214e-02 -8.211298e-02 -7.167204e-03 -7.293667e-02 -4.041463e-02 -4.369541e-02 1.092613e-01 -1.267614e-01 -4.628224e-02 -5.511073e-02 -3.638635e-02 -4.861027e-02 -7.818203e-02 2.446663e-02 1.078847e-02 4.894100e-02 7.612500e-02
<VARIANCE> 39
 9.442664e+01 3.232397e+01 5.417205e+01 5.575482e+01 4.317552e+01 6.250950e+01 6.591391e+01 5.444163e+01 5.865874e+01 5.045389e+01 2.666206e+01 4.502150e+01 4.841961e+01 2.199120e+00 1.712727e+00 2.059981e+00 3.676172e+00 2.014158e+00 3.084543e+00 3.059815e+00 2.771478e+00 2.976006e+00 3.139168e+00 1.862038e+00 3.163380e+00 1.589340e+00 2.442593e-01 2.472015e-01 2.445633e-01 5.013101e-01 3.383758e-01 5.566315e-01 5.114822e-01 5.002683e-01 4.881429e-01 5.460604e-01 3.478808e-01 4.760172e-01 1.977429e-01
<GCONST> 1.218698e+02
<STATE> 4
<MEAN> 39
 2.754945e+00 -3.001714e+00 -7.047130e+00 -9.482347e-01 4.846427e+00 -8.060410e+00 -8.510867e+00 -7.566327e+00 -2.388791e+00 -8.224463e+00 -3.942086e+00 -6.190171e+00 6.845673e+01 -1.181767e-01 8.211000e-02 8.389010e-02 -3.114448e-01 -7.732812e-02 -1.099273e-01 -1.296202e-01 -1.244610e-01 9.613831e-02 -7.350509e-03 -5.609608e-02 4.226460e-02 4.932266e-02 1.648930e-02 -6.862438e-02 7.853725e-02 -8.702206e-02 -6.121912e-02 -6.773502e-02 -1.979238e-02 -7.741975e-03 -1.205844e-01 2.924844e-02 2.491239e-02 5.274442e-02 7.375897e-02
<VARIANCE> 39
 1.006990e+02 3.371178e+01 5.370370e+01 5.612080e+01 4.322900e+01 6.221009e+01 7.608788e+01 5.188836e+01 5.811861e+01 4.697068e+01 2.847381e+01 4.438052e+01 5.571246e+01 2.506036e+00 1.809884e+00 2.001621e+00 3.445596e+00 2.127550e+00 3.196899e+00 3.051187e+00 3.120015e+00 2.802240e+00 3.166727e+00 1.854965e+00 3.141247e+00 1.808624e+00 2.744220e-01 2.838427e-01 2.705522e-01 5.005205e-01 3.666000e-01 5.616339e-01 4.746753e-01 5.086957e-01 4.440193e-01 5.304364e-01 3.618450e-01 4.799623e-01 2.046862e-01
<GCONST> 1.228858e+02
<TRANSP> 5
 0.000000e+00 1.000000e+00 0.000000e+00 0.000000e+00 0.000000e+00
 0.000000e+00 5.047337e-01 4.952663e-01 0.000000e+00 0.000000e+00
 0.000000e+00 0.000000e+00 5.013169e-01 4.986831e-01 0.000000e+00
 0.000000e+00 0.000000e+00 0.000000e+00 5.727564e-01 4.272436e-01
 0.000000e+00 0.000000e+00 0.000000e+00 0.000000e+00 0.000000e+00
<ENDHMM>
~h "n"
<BEGINHMM>
<NUMSTATES> 5
<STATE> 2
<MEAN> 39
 2.001559e+00 -3.894147e+00 -2.504396e+00 -4.021416e-01 6.164148e+00 -7.615153e+00 -1.067389e+01 -1.044267e+01 -5.218361e+00 -7.911223e+00 -2.028874e+00 -4.919870e+00 6.945930e+01 1.979048e-01 2.571660e-01 -5.320826e-02 3.396350e-01 1.268999e-01 1.927709e-01 -1.041123e-01 7.761052e-02 2.238213e-01 -3.072614e-03 -3.084586e-02 -2.078890e-01 -1.882377e-01 -9.154098e-02 -2.398617e-02 1.505506e-02 -5.219970e-02 -2.871026e-02 -4.926725e-02 4.055394e-02 3.217198e-02 -1.576892e-05 8.784834e-03 3.185320e-03 1.841318e-02 1.076444e-02
<VARIANCE> 39
 7.857209e+01 4.381487e+01 6.305389e+01 7.808289e+01 5.215826e+01 6.914806e+01 5.605025e+01 6.974253e+01 7.123345e+01 3.608683e+01 4.978946e+01 4.019707e+01 5.584731e+01 3.011329e+00 1.770080e+00 2.665895e+00 3.963919e+00 2.395014e+00 3.598634e+00 3.653627e+00 3.606931e+00 4.065675e+00 2.985636e+00 2.578868e+00 2.841437e+00 1.999519e+00 3.296237e-01 3.129205e-01 3.685985e-01 6.016154e-01 4.028174e-01 5.779534e-01 6.366907e-01 6.024293e-01 6.396253e-01 5.234184e-01 4.868023e-01 4.957083e-01 2.403908e-01
<GCONST> 1.280703e+02
<STATE> 3
<MEAN> 39
 2.184875e+00 -3.392823e+00 -2.675628e+00 2.583563e-01 6.348705e+00 -7.380520e+00 -1.073746e+01 -1.028368e+01 -4.751541e+00 -7.865126e+00 -2.083464e+00 -5.248820e+00 6.904535e+01 -7.436623e-02 1.637618e-01 1.034160e-02 1.561360e-01 2.166389e-02 8.797345e-02 4.409870e-02 1.902762e-01 1.943599e-01 -3.283729e-02 -3.277802e-02 -9.968854e-02 -1.826289e-01 -1.052250e-01 -5.667930e-02 3.716050e-02 -9.917923e-02 -3.406071e-02 -4.730687e-02 6.583504e-02 5.073511e-02 -3.908970e-02 -1.240947e-02 1.469573e-03 4.122317e-02 2.986321e-02
<VARIANCE> 39
 7.536355e+01 4.079364e+01 5.736558e+01 8.141781e+01 5.015647e+01 7.067799e+01 5.521571e+01 6.362908e+01 6.893298e+01 3.544609e+01 5.043330e+01 4.004749e+01 4.884441e+01 2.675815e+00 1.943823e+00 2.716583e+00 4.256788e+00 2.441526e+00 3.545176e+00 3.357622e+00 3.469226e+00 3.955658e+00 3.028787e+00 2.613235e+00 2.926622e+00 1.840212e+00 2.866046e-01 3.179824e-01 3.763267e-01 6.274402e-01 3.942983e-01 5.810863e-01 6.056489e-01 5.712841e-01 6.383067e-01 5.222573e-01 4.772306e-01 5.140083e-01 2.220827e-01
<GCONST> 1.272509e+02
<STATE> 4
<MEAN> 39
 1.494854e+00 -2.938359e+00 -2.270687e+00 2.913535e-01 6.053062e+00 -6.739967e+00 -1.015218e+01 -9.529455e+00 -4.159068e+00 -7.982755e+00 -2.116999e+00 -5.215591e+00 6.836827e+01 -3.496775e-01 -6.883392e-02 1.207873e-01 -1.162010e-01 -5.181636e-02 9.748956e-03 2.487090e-01 3.259757e-01 -6.903009e-03 -1.362060e-01 -9.536362e-03 5.077660e-02 -8.678994e-02 -1.032960e-01 -6.332871e-02 5.553544e-02 -1.156566e-01 -2.576726e-02 -1.913327e-02 8.768998e-02 2.436294e-02 -5.276651e-02 1.949098e-02 -2.983119e-03 2.341666e-02 3.638101e-02
<VARIANCE> 39
 7.678345e+01 4.084005e+01 5.668760e+01 8.414518e+01 4.921149e+01 8.193673e+01 5.881915e+01 6.297777e+01 6.582855e+01 3.957967e+01 5.012392e+01 3.933099e+01 4.776175e+01 2.621330e+00 2.708298e+00 2.800609e+00 4.356060e+00 2.425133e+00 3.549835e+00 3.383786e+00 3.612751e+00 3.948937e+00 3.213089e+00 2.731807e+00 2.835199e+00 2.001779e+00 3.029009e-01 4.127165e-01 4.418667e-01 6.810662e-01 3.966729e-01 5.756516e-01 6.180344e-01 5.974237e-01 6.410749e-01 5.647978e-01 4.934085e-01 4.984318e-01 2.597305e-01
<GCONST> 1.289147e+02
<TRANSP> 5
 0.000000e+00 1.000000e+00 0.000000e+00 0.000000e+00 0.000000e+00
 0.000000e+00 5.392268e-01 4.607733e-01 0.000000e+00 0.000000e+00
 0.000000e+00 0.000000e+00 5.374385e-01 4.625616e-01 0.000000e+00
 0.000000e+00 0.000000e+00 0.000000e+00 6.366988e-01 3.633012e-01
 0.000000e+00 0.000000e+00 0.000000e+00 0.000000e+00 0.000000e+00
<ENDHMM>
~h "p"
<BEGINHMM>
<NUMSTATES> 5
<STATE> 2
<MEAN> 39
 -3.102640e+00 -5.682096e+00 -1.068644e+00 -4.702764e+00 3.434882e+00 -7.684518e+00 -6.254211e+00 -8.194737e+00 -6.231466e+00 -8.917004e+00 -3.986658e+00 -3.671261e+00 6.864218e+01 3.012459e-01 -7.461688e-01 -1.127525e-01 -4.824872e-01 6.104542e-02 -3.185986e-01 -5.974236e-01 8.353912e-02 4.251812e-02 -2.202871e-01 -1.683891e-01 1.068739e-01 7.400453e-01 6.522003e-02 3.859412e-02 9.067319e-02 -8.222690e-02 2.376052e-02 -3.827238e-02 1.090367e-02 4.022767e-02 -3.329640e-02 -4.611583e-03 1.202112e-03 -3.622427e-02 1.767093e-01
<VARIANCE> 39
 9.019518e+01 5.120889e+01 7.407114e+01 1.182307e+02 9.457011e+01 7.221071e+01 5.071482e+01 5.048345e+01 5.159158e+01 3.543055e+01 3.865099e+01 3.887055e+01 4.926101e+01 7.447149e+00 6.727154e+00 6.534134e+00 5.756903e+00 4.776450e+00 6.543536e+00 4.311816e+00 4.309472e+00 4.504470e+00 2.986086e+00 3.059251e+00 2.703712e+00 2.770853e+00 6.719664e-01 1.251583e+00 9.588719e-01 9.099274e-01 6.164051e-01 1.033114e+00 7.023689e-01 6.492082e-01 7.177743e-01 5.884733e-01 5.506458e-01 4.919659e-01 4.438459e-01
<GCONST> 1.397029e+02
<STATE> 3
<MEAN> 39
 -2.313612e+00 -7.075178e+00 -3.340461e-01 -6.021447e+00 3.905136e+00 -8.660972e+00 -7.427793e+00 -7.938981e+00 -6.884523e+00 -9.392588e+00 -4.378765e+00 -4.192732e+00 7.085559e+01 4.335180e-01 -1.961609e-01 8.429874e-02 -3.349593e-01 6.470077e-02 -3.650646e-01 -3.374220e-01 4.954743e-02 -1.707868e-01 -1.200403e-01 -1.150650e-01 -5.452439e-02 7.018710e-01 4.099650e-02 1.758646e-01 5.083143e-02 4.254790e-02 -2.339535e-02 -4.164747e-04 6.119414e-02 -2.032279e-02 -4.539952e-02 4.599645e-02 2.983193e-02 -1.329308e-02 -5.073753e-02
<VARIANCE> 39
 9.889168e+01 5.662842e+01 9.813100e+01 1.147762e+02 1.064748e+02 6.708459e+01 5.678691e+01 4.824900e+01 5.411420e+01 3.511895e+01 3.823502e+01 3.653821e+01 3.357771e+01 7.439728e+00 7.128878e+00 6.490333e+00 5.422627e+00 4.644855e+00 6.187746e+00 4.429317e+00 3.818253e+00 4.560120e+00 2.799682e+00 2.869169e+00 2.887918e+00 2.564558e+00 7.795430e-01 1.248559e+00 1.028343e+00 8.760028e-01 7.297872e-01 1.065416e+00 7.397109e-01 6.527303e-01 7.803934e-01 5.205802e-01 5.184277e-01 5.144729e-01 3.647013e-01
<GCONST> 1.397116e+02
<STATE> 4
<MEAN> 39
 -5.884318e-01 -6.328185e+00 4.248543e-01 -5.637845e+00 3.213738e+00 -8.905321e+00 -8.228186e+00 -7.552790e+00 -7.860575e+00 -1.037581e+01 -3.715147e+00 -4.991293e+00 7.180556e+01 1.679429e-01 9.979703e-03 9.014136e-02 -7.146244e-02 -7.278831e-02 -2.089527e-01 -9.060445e-02 -1.953197e-02 -1.673874e-02 4.022624e-02 7.166453e-02 2.069767e-02 3.056209e-01 -5.366535e-02 6.215378e-03 -8.744416e-03 4.332929e-02 -2.502043e-02 3.305255e-02 5.833521e-02 -1.179197e-02 4.174456e-02 2.274822e-02 1.740281e-02 1.201058e-02 -5.344395e-02
<VARIANCE> 39
 1.012601e+02 6.101031e+01 1.138885e+02 9.981112e+01 1.169180e+02 7.271869e+01 6.020253e+01 5.775786e+01 5.444477e+01 4.211086e+01 3.988869e+01 3.299566e+01 2.852668e+01 5.914456e+00 4.635465e+00 6.269942e+00 4.403961e+00 4.256088e+00 4.540312e+00 4.290890e+00 3.703754e+00 4.213618e+00 2.733429e+00 2.823842e+00 2.439215e+00 1.761641e+00 5.867981e-01 8.443380e-01 9.150169e-01 6.392359e-01 6.457148e-01 7.964361e-01 7.427567e-01 6.298409e-01 7.063699e-01 4.861135e-01 5.147052e-01 4.360552e-01 2.484500e-01
<GCONST> 1.358949e+02
<TRANSP> 5
 0.000000e+00 1.000000e+00 0.000000e+00 0.000000e+00 0.000000e+00
 0.000000e+00 7.254434e-01 2.745565e-01 0.000000e+00 0.000000e+00
 0.000000e+00 0.000000e+00 7.434672e-01 2.565328e-01 0.000000e+00
 0.000000e+00 0.000000e+00 0.000000e+00 8.914699e-01 1.085301e-01
 0.000000e+00 0.000000e+00 0.000000e+00 0.000000e+00 0.000000e+00
<ENDHMM>
~h "r"
<BEGINHMM>
<NUMSTATES> 5
<STATE> 2
<MEAN> 39
 3.544932e+00 -3.139186e+00 -5.533339e+00 -3.911176e+00 7.654533e+00 -7.251550e+00 -8.684980e+00 -8.249123e+00 -7.798451e+00 -1.071767e+01 -5.503848e+00 -5.004933e+00 7.107027e+01 4.996007e-01 3.748777e-01 -3.461601e-01 1.485110e-01 2.195619e-01 1.962972e-01 -1.511220e-01 -1.346656e-01 -2.636321e-01 -7.337758e-02 -1.241254e-01 5.535051e-02 -1.570982e-01 -7.559533e-02 -4.533161e-02 2.216371e-02 5.968287e-02 2.729041e-02 -6.162595e-02 -1.097387e-02 -2.646659e-02 6.950542e-02 2.556174e-02 6.981140e-02 -1.995531e-02 9.563671e-04
<VARIANCE> 39
 7.464266e+01 7.163599e+01 1.002933e+02 9.730627e+01 8.746525e+01 5.321725e+01 5.430317e+01 4.635836e+01 4.696394e+01 4.221000e+01 3.315335e+01 4.729240e+01 3.626038e+01 2.446956e+00 3.266618e+00 3.362016e+00 3.314634e+00 4.203557e+00 2.977013e+00 3.281408e+00 2.780379e+00 3.231061e+00 2.374146e+00 2.077278e+00 2.657615e+00 9.074088e-01 2.453430e-01 4.618554e-01 5.056702e-01 4.011516e-01 5.907482e-01 4.962185e-01 4.718282e-01 4.255925e-01 5.550616e-01 3.391532e-01 3.503762e-01 4.247366e-01 1.012888e-01
<GCONST> 1.246701e+02
<STATE> 3
<MEAN> 39
 4.375059e+00 -2.510900e+00 -6.446948e+00 -3.325864e+00 8.471657e+00 -6.803866e+00 -8.977596e+00 -8.740616e+00 -8.197783e+00 -1.084429e+01 -5.604434e+00 -4.988951e+00 7.067254e+01 1.960094e-01 1.190215e-01 -1.656533e-01 2.917469e-01 2.866302e-01 7.873554e-02 -1.691966e-01 -2.173725e-01 -4.038380e-02 2.656576e-02 6.001318e-02 5.230432e-02 -1.185600e-01 -1.293774e-01 -1.154177e-01 8.615453e-02 2.596656e-02 -1.845808e-02 -2.887446e-02 -5.571128e-03 -1.055300e-02 9.901522e-02 2.540649e-02 5.144903e-02 -9.815045e-03 2.072731e-02
<VARIANCE> 39
 6.233664e+01 6.051379e+01 9.676229e+01 9.432204e+01 9.006342e+01 4.838686e+01 5.453963e+01 4.344207e+01 4.480633e+01 4.232010e+01 3.382167e+01 4.602135e+01 3.096504e+01 2.018546e+00 3.122763e+00 3.448557e+00 2.961191e+00 4.206606e+00 3.075609e+00 3.225119e+00 2.864182e+00 2.986435e+00 2.235756e+00 2.327104e+00 2.633735e+00 1.068340e+00 1.964486e-01 3.950732e-01 5.007523e-01 3.894405e-01 6.306277e-01 4.955934e-01 5.145758e-01 4.308749e-01 5.272139e-01 3.633865e-01 3.795633e-01 3.982395e-01 9.535820e-02
<GCONST> 1.234861e+02
<STATE> 4
<MEAN> 39
 3.939123e+00 -2.573100e+00 -5.985193e+00 -2.301642e+00 9.017849e+00 -6.512005e+00 -9.282715e+00 -9.547264e+00 -7.833990e+00 -1.059754e+01 -5.042379e+00 -4.904654e+00 7.023454e+01 -1.278691e-01 -2.277779e-01 6.513254e-02 3.189966e-01 1.691331e-01 -4.139798e-02 -1.780735e-01 -2.401461e-01 1.399643e-01 9.804611e-02 1.729738e-01 4.821429e-02 4.455276e-03 -1.110231e-01 -9.299934e-02 9.201900e-02 -2.333302e-04 -6.669514e-02 1.914424e-04 4.225306e-02 2.766622e-02 3.429994e-02 3.479257e-02 9.309349e-03 -2.895526e-02 8.598152e-03
<VARIANCE> 39
 5.658934e+01 5.467938e+01 9.793553e+01 9.538689e+01 9.272017e+01 5.902654e+01 5.795629e+01 4.528415e+01 4.563852e+01 4.304476e+01 3.647441e+01 4.727656e+01 3.047051e+01 1.696509e+00 2.902676e+00 3.701313e+00 2.878509e+00 4.355412e+00 3.782896e+00 3.528294e+00 3.110491e+00 3.001482e+00 2.510379e+00 2.537760e+00 2.510485e+00 1.174172e+00 1.773508e-01 3.950904e-01 5.180256e-01 3.806022e-01 7.289037e-01 5.841258e-01 6.073552e-01 4.667689e-01 5.218664e-01 4.222506e-01 4.186026e-01 4.133975e-01 1.334262e-01
<GCONST> 1.253016e+02
<TRANSP> 5
 0.000000e+00 1.000000e+00 0.000000e+00 0.000000e+00 0.000000e+00
 0.000000e+00 5.940169e-01 4.059831e-01 0.000000e+00 0.000000e+00
 0.000000e+00 0.000000e+00 5.883710e-01 4.116290e-01 0.000000e+00
 0.000000e+00 0.000000e+00 0.000000e+00 6.611351e-01 3.388649e-01
 0.000000e+00 0.000000e+00 0.000000e+00 0.000000e+00 0.000000e+00
<ENDHMM>
~h "s"
<BEGINHMM>
<NUMSTATES> 5
<STATE> 2
<MEAN> 39
 -1.029763e+01 -5.411899e+00 7.902496e+00 -9.723429e+00 5.686394e+00 -3.731117e+00 -4.058887e+00 -1.112286e+01 -6.585752e+00 -7.924400e+00 -2.822446e+00 -5.810100e+00 7.315411e+01 -2.370220e+00 1.667832e-01 1.933242e+00 -1.319650e+00 2.450997e-01 4.890303e-01 7.450926e-01 -4.811556e-01 2.118798e-01 2.111710e-03 4.498894e-02 -2.060744e-01 6.467185e-01 -8.486658e-02 7.693622e-02 -4.530286e-02 1.310699e-02 -6.850559e-02 -1.010081e-01 -8.939990e-03 -8.454483e-02 8.258833e-02 -2.111757e-02 -3.490060e-02 2.697961e-02 5.275910e-02
<VARIANCE> 39
 1.815291e+02 3.587226e+01 1.227041e+02 9.838615e+01 6.873296e+01 7.755295e+01 8.451073e+01 7.938202e+01 6.479799e+01 4.414483e+01 3.766601e+01 3.172554e+01 5.669994e+01 9.160158e+00 2.340492e+00 6.195641e+00 5.694949e+00 3.062562e+00 3.920536e+00 5.138618e+00 3.819762e+00 4.401894e+00 3.196149e+00 2.311614e+00 2.089791e+00 2.336168e+00 1.161994e+00 3.806830e-01 1.048940e+00 1.024588e+00 5.282906e-01 5.480156e-01 7.399254e-01 7.136882e-01 7.634897e-01 5.625365e-01 4.506172e-01 3.719051e-01 3.707884e-01
<GCONST> 1.372454e+02
<STATE> 3
<MEAN> 39
 -1.736285e+01 -4.590060e+00 1.259427e+01 -1.276909e+01 5.622891e+00 -3.132439e+00 -1.873521e+00 -1.268092e+01 -5.729538e+00 -7.976032e+00 -3.133109e+00 -6.141485e+00 7.449376e+01 -1.332805e+00 1.485575e-01 9.437115e-01 -5.545634e-01 -7.127234e-02 7.159396e-02 3.604711e-01 -3.526109e-01 1.506221e-01 9.082725e-03 -8.771762e-02 -5.965835e-02 2.187936e-01 3.144392e-01 -2.723666e-02 -2.562535e-01 1.869474e-01 -7.712602e-02 -9.687682e-02 -1.181252e-01 4.158419e-02 -3.063589e-02 1.323704e-02 -2.869715e-02 3.934256e-02 -1.005058e-01
<VARIANCE> 39
 1.631167e+02 3.579638e+01 9.844930e+01 8.301965e+01 6.129288e+01 7.523227e+01 8.232399e+01 7.076684e+01 6.008705e+01 4.328213e+01 3.585017e+01 3.055172e+01 4.301894e+01 1.029878e+01 2.288274e+00 5.537896e+00 4.914798e+00 2.806064e+00 3.797991e+00 4.198778e+00 3.520663e+00 3.986566e+00 2.867181e+00 2.150968e+00 1.925918e+00 2.381985e+00 8.897579e-01 3.704206e-01 7.604429e-01 7.725174e-01 4.988370e-01 5.611116e-01 6.437446e-01 6.326750e-01 7.014986e-01 5.303652e-01 4.059310e-01 3.440782e-01 2.802090e-01
<GCONST> 1.332944e+02
<STATE> 4
<MEAN> 39
 -1.757485e+01 -5.390368e+00 1.266621e+01 -1.167101e+01 4.569083e+00 -3.870352e+00 -2.552482e+00 -1.339732e+01 -5.538104e+00 -7.508953e+00 -3.618987e+00 -5.384579e+00 7.327979e+01 8.113339e-01 -1.580772e-01 -4.204223e-01 1.412866e-01 -2.487543e-01 -3.503614e-01 -3.516039e-01 5.442881e-02 -8.253942e-02 1.064176e-01 -6.192751e-02 7.473247e-02 -3.360646e-02 2.074791e-01 -3.109687e-02 -1.863522e-01 9.072266e-02 -3.021417e-02 -1.968274e-02 -6.919885e-02 5.675932e-02 -2.810885e-02 1.260985e-03 1.408000e-02 2.663501e-02 -7.869619e-03
<VARIANCE> 39
 1.755490e+02 3.833396e+01 9.610553e+01 8.102436e+01 6.080436e+01 8.221067e+01 7.769260e+01 5.906986e+01 6.235031e+01 4.103494e+01 3.719238e+01 2.970564e+01 4.544529e+01 9.880870e+00 2.479944e+00 5.403110e+00 4.386721e+00 3.540058e+00 4.485066e+00 4.710495e+00 3.895780e+00 4.660066e+00 2.828264e+00 2.490928e+00 2.120509e+00 2.492536e+00 8.943376e-01 4.074189e-01 6.763501e-01 7.354317e-01 5.778971e-01 6.986082e-01 7.671538e-01 6.687104e-01 7.943045e-01 5.325404e-01 4.469292e-01 3.805945e-01 3.211507e-01
<GCONST> 1.352165e+02
<TRANSP> 5
 0.000000e+00 1.000000e+00 0.000000e+00 0.000000e+00 0.000000e+00
 0.000000e+00 7.342702e-01 2.657298e-01 0.000000e+00 0.000000e+00
 0.000000e+00 0.000000e+00 7.566814e-01 2.433186e-01 0.000000e+00
 0.000000e+00 0.000000e+00 0.000000e+00 9.267045e-01 7.329550e-02
 0.000000e+00 0.000000e+00 0.000000e+00 0.000000e+00 0.000000e+00
<ENDHMM>
~h "t"
<BEGINHMM>
<NUMSTATES> 5
<STATE> 2
<MEAN> 39
 -3.882107e+00 -8.535343e+00 -2.839481e-01 -4.026840e+00 2.153453e+00 -7.692074e+00 -5.336543e+00 -9.842536e+00 -6.651372e+00 -8.808902e+00 -2.724836e+00 -4.683953e+00 7.069891e+01 1.799724e-02 -8.080700e-02 -7.663728e-02 -4.484474e-02 -1.256124e-01 9.451501e-02 1.306827e-01 1.636416e-01 7.946325e-03 5.912692e-02 4.115924e-02 6.338111e-02 1.161969e-02 1.708515e-02 7.073578e-02 4.036506e-02 4.187727e-02 1.835296e-02 -1.286074e-02 -9.216950e-04 -3.388368e-03 4.745468e-03 3.719847e-02 -1.890322e-02 2.171254e-02 -5.631373e-02
<VARIANCE> 39
 1.288374e+02 4.986508e+01 9.212874e+01 8.457522e+01 7.731367e+01 7.874618e+01 6.088289e+01 6.641675e+01 5.592744e+01 3.757230e+01 3.358621e+01 3.192622e+01 7.395000e+01 5.586902e+00 3.224906e+00 4.306046e+00 5.339508e+00 3.375147e+00 5.030597e+00 3.538885e+00 3.261080e+00 4.111794e+00 2.641653e+00 2.434468e+00 2.229477e+00 3.395243e+00 7.927718e-01 5.184390e-01 5.971915e-01 8.318415e-01 5.642195e-01 8.503783e-01 6.515565e-01 5.580965e-01 7.328375e-01 4.438207e-01 4.062511e-01 4.241013e-01 4.764484e-01
<GCONST> 1.350017e+02
<STATE> 3
<MEAN> 39
 -3.838284e+00 -8.455612e+00 -2.783526e-01 -4.117529e+00 1.957386e+00 -7.440592e+00 -5.100033e+00 -9.524275e+00 -6.596539e+00 -8.555924e+00 -2.761024e+00 -4.518059e+00 7.054513e+01 1.480601e-01 1.001895e-01 -3.228107e-02 1.227934e-01 -6.089817e-02 1.659878e-01 6.873930e-02 1.050955e-01 -3.217029e-02 6.060294e-02 9.704880e-03 8.814898e-02 -1.329428e-01 3.780986e-02 8.733168e-02 1.994437e-02 5.878379e-02 3.848693e-02 -8.231343e-03 -2.098810e-02 -3.414849e-02 -1.151583e-02 -2.833669e-03 -2.058908e-02 -4.899029e-04 -6.257293e-02
<VARIANCE> 39
 1.288120e+02 5.159229e+01 9.229308e+01 7.794465e+01 7.763728e+01 7.439686e+01 5.887484e+01 6.377576e+01 5.290184e+01 3.710854e+01 3.223575e+01 3.161788e+01 7.394486e+01 5.271037e+00 3.162483e+00 4.157598e+00 4.328204e+00 3.155753e+00 4.314363e+00 3.259654e+00 2.981504e+00 3.791338e+00 2.392705e+00 2.199370e+00 2.085936e+00 2.729239e+00 7.389491e-01 5.250600e-01 6.071793e-01 7.325170e-01 5.662833e-01 7.607552e-01 6.005335e-01 5.239158e-01 6.820199e-01 4.286669e-01 3.992593e-01 3.888803e-01 4.076005e-01
<GCONST> 1.326407e+02
<STATE> 4
<MEAN> 39
 -4.334507e+00 -7.858306e+00 3.939908e-01 -3.992277e+00 1.612122e+00 -6.819417e+00 -4.854277e+00 -9.461971e+00 -6.404933e+00 -8.254409e+00 -2.740570e+00 -4.545387e+00 6.974068e+01 3.454171e-01 2.659392e-01 -4.463877e-02 2.427202e-01 1.313164e-02 1.277883e-01 -7.247111e-02 -3.732988e-02 -7.965998e-02 8.256538e-03 -1.657003e-02 6.061293e-02 -1.611807e-01 4.265787e-02 7.012268e-02 -3.354769e-02 2.535794e-02 4.473959e-02 -3.307043e-02 -3.073007e-02 -3.050109e-02 6.116381e-04 -1.690289e-02 -2.369218e-02 -1.250331e-02 -3.260722e-02
<VARIANCE> 39
 1.276990e+02 5.859663e+01 9.212177e+01 7.673331e+01 7.276000e+01 7.023332e+01 5.800562e+01 6.143547e+01 5.148222e+01 3.675537e+01 3.041315e+01 3.208365e+01 8.071282e+01 4.955464e+00 3.368818e+00 4.045215e+00 3.741944e+00 2.966861e+00 3.810884e+00 3.292353e+00 3.065169e+00 3.711521e+00 2.435376e+00 2.071416e+00 2.106029e+00 2.594679e+00 6.733660e-01 5.711916e-01 5.968370e-01 6.376699e-01 5.399154e-01 6.511515e-01 5.467044e-01 5.233911e-01 6.203845e-01 4.345100e-01 3.832664e-01 3.843329e-01 3.886225e-01
<GCONST> 1.315059e+02
<TRANSP> 5
 0.000000e+00 1.000000e+00 0.000000e+00 0.000000e+00 0.000000e+00
 0.000000e+00 4.870380e-01 5.129620e-01 0.000000e+00 0.000000e+00
 0.000000e+00 0.000000e+00 4.837922e-01 5.162078e-01 0.000000e+00
 0.000000e+00 0.000000e+00 0.000000e+00 5.995367e-01 4.004633e-01
 0.000000e+00 0.000000e+00 0.000000e+00 0.000000e+00 0.000000e+00
<ENDHMM>
~h "v"
<BEGINHMM>
<NUMSTATES> 5
<STATE> 2
<MEAN> 39
 -2.872376e-01 -1.694722e+00 -3.691281e+00 -5.449835e+00 -5.919311e-01 -1.523363e+01 -5.229935e+00 -4.740427e+00 -5.094076e+00 -4.456764e+00 -3.950337e+00 -4.998161e+00 6.840475e+01 6.427853e-01 4.153306e-01 -7.351876e-02 -4.225224e-01 -5.821093e-01 -1.419932e+00 -6.850905e-02 5.638055e-01 2.201261e-01 6.984227e-01 -1.135673e-01 -2.383750e-01 5.133493e-01 -7.165776e-02 -1.391600e-01 1.035029e-02 4.157683e-02 3.871318e-02 9.438105e-02 -2.675531e-02 -4.557069e-02 -5.230382e-02 -8.812244e-02 1.008766e-02 1.089064e-02 5.703358e-02
<VARIANCE> 39
 9.054400e+01 5.403985e+01 4.508624e+01 6.501608e+01 1.525190e+02 1.687724e+02 5.108670e+01 6.426747e+01 7.803250e+01 6.425180e+01 3.391685e+01 4.161059e+01 5.702805e+01 7.148208e+00 3.446806e+00 2.182964e+00 4.251848e+00 6.417105e+00 8.975225e+00 4.062142e+00 2.834410e+00 4.373910e+00 3.954217e+00 2.316815e+00 2.345294e+00 2.491164e+00 8.619346e-01 5.715744e-01 3.638781e-01 6.823266e-01 9.356312e-01 1.113961e+00 6.817564e-01 4.414097e-01 7.628621e-01 5.579861e-01 4.117171e-01 4.198619e-01 2.678775e-01
<GCONST> 1.364221e+02
<STATE> 3
<MEAN> 39
 1.260448e+00 -1.369020e+00 -3.869516e+00 -6.304183e+00 -2.068734e+00 -1.876164e+01 -5.639764e+00 -3.445947e+00 -4.635240e+00 -2.867001e+00 -4.129745e+00 -5.560550e+00 7.053764e+01 3.464351e-02 -4.001597e-02 -5.289301e-02 -7.402325e-02 -1.225303e-01 -3.575510e-01 -8.326349e-02 1.775810e-01 1.724793e-01 1.526794e-01 -4.873000e-02 -1.283797e-01 3.572525e-01 -1.764654e-01 -1.010516e-01 2.859010e-02 4.977558e-02 1.007291e-01 2.929996e-01 -1.503568e-02 -1.043999e-01 3.160612e-02 -1.147918e-01 3.674701e-02 2.096634e-02 -4.887158e-02
<VARIANCE> 39
 7.757533e+01 5.328261e+01 4.043739e+01 5.332256e+01 1.346941e+02 1.788031e+02 5.797280e+01 6.788573e+01 7.908379e+01 7.248538e+01 3.665234e+01 4.532528e+01 3.953153e+01 5.850746e+00 3.159316e+00 2.351744e+00 3.073627e+00 4.425493e+00 6.334318e+00 3.483662e+00 2.466701e+00 4.008425e+00 3.082518e+00 2.437662e+00 2.244758e+00 1.827309e+00 7.222956e-01 5.294993e-01 3.709691e-01 5.761608e-01 6.619008e-01 8.578038e-01 6.081277e-01 4.523030e-01 7.533836e-01 4.735921e-01 4.180097e-01 4.320678e-01 2.114123e-01
<GCONST> 1.323326e+02
<STATE> 4
<MEAN> 39
 -3.492494e-01 -1.398508e+00 -3.378718e+00 -6.900297e+00 -3.082459e+00 -1.753450e+01 -5.334465e+00 -3.223868e+00 -1.921216e+00 -2.162683e+00 -4.359361e+00 -6.500134e+00 7.142330e+01 -4.859163e-01 -9.540398e-02 5.429037e-02 4.192585e-02 2.675424e-01 5.568206e-01 -1.641542e-02 -2.102008e-01 2.040108e-01 -1.916667e-01 7.085725e-02 -4.183234e-02 5.711058e-02 -5.029425e-02 -3.018940e-02 4.120728e-02 3.615253e-04 2.706437e-02 1.159227e-01 1.651114e-02 -7.297099e-02 -2.607997e-02 -5.063450e-02 3.935381e-02 3.719448e-02 -2.926001e-02
<VARIANCE> 39
 9.594831e+01 5.273219e+01 3.560921e+01 4.420764e+01 1.045483e+02 1.764241e+02 5.894130e+01 6.006374e+01 7.969865e+01 6.836041e+01 3.703869e+01 4.454892e+01 4.030970e+01 5.054200e+00 2.648359e+00 2.121441e+00 2.462653e+00 3.159207e+00 4.032511e+00 3.128679e+00 2.694057e+00 3.792373e+00 2.566021e+00 2.552598e+00 2.101149e+00 1.388959e+00 6.406683e-01 4.596057e-01 3.434197e-01 4.153699e-01 4.877042e-01 5.736952e-01 4.980891e-01 4.929708e-01 6.289052e-01 4.112746e-01 4.137543e-01 3.910084e-01 1.826926e-01
<GCONST> 1.277560e+02
<TRANSP> 5
 0.000000e+00 1.000000e+00 0.000000e+00 0.000000e+00 0.000000e+00
 0.000000e+00 6.164048e-01 3.835952e-01 0.000000e+00 0.000000e+00
 0.000000e+00 0.000000e+00 6.117922e-01 3.882078e-01 0.000000e+00
 0.000000e+00 0.000000e+00 0.000000e+00 7.477765e-01 2.522235e-01
 0.000000e+00 0.000000e+00 0.000000e+00 0.000000e+00 0.000000e+00
<ENDHMM>
~h "w"
<BEGINHMM>
<NUMSTATES> 5
<STATE> 2
<MEAN> 39
 7.531271e-01 -3.619964e+00 -2.646491e+00 -1.295531e+00 3.341205e+00 -6.902306e+00 -7.157116e+00 -9.069542e+00 -7.206717e+00 -8.619595e+00 -3.096237e+00 -5.012211e+00 6.745731e+01 2.329213e-01 5.435435e-01 -2.739486e-01 2.076105e-01 -1.640860e-01 7.124620e-02 -1.095227e-02 1.888091e-03 1.277812e-01 9.228735e-02 1.827803e-01 1.235720e-01 -3.813441e-01 -9.978274e-02 2.773846e-02 2.668336e-02 -3.936249e-02 -2.354408e-02 -5.271505e-02 3.393521e-02 6.111629e-03 9.325840e-02 4.179339e-02 1.318100e-02 4.441937e-02 -2.588543e-02
<VARIANCE> 39
 8.921114e+01 8.876795e+01 8.117953e+01 7.512065e+01 8.603465e+01 5.445184e+01 8.193436e+01 4.649940e+01 5.081592e+01 3.262791e+01 3.158716e+01 4.548400e+01 6.794728e+01 1.972038e+00 3.101274e+00 2.690295e+00 2.578120e+00 3.294830e+00 3.004827e+00 3.912976e+00 2.947505e+00 2.521656e+00 2.187081e+00 2.140986e+00 2.549997e+00 1.269911e+00 1.946701e-01 3.539803e-01 4.020329e-01 3.921878e-01 4.740501e-01 4.869773e-01 6.275742e-01 5.459681e-01 4.574115e-01 3.925880e-01 3.745514e-01 4.364307e-01 1.028424e-01
<GCONST> 1.242367e+02
<STATE> 3
<MEAN> 39
 7.984862e-01 -2.461760e+00 -3.096601e+00 -9.115028e-01 3.085409e+00 -6.757104e+00 -7.077469e+00 -9.037201e+00 -6.650940e+00 -8.298904e+00 -2.631876e+00 -4.436858e+00 6.655682e+01 3.371744e-02 5.501881e-01 -1.216086e-01 1.413298e-01 -2.231756e-01 -4.970498e-02 1.639746e-02 2.228844e-03 2.827354e-01 1.954512e-01 1.784142e-01 2.011436e-01 -3.713914e-01 -5.295378e-02 -8.082928e-03 4.589467e-02 -7.539193e-02 -2.824733e-02 -1.046193e-01 -1.774586e-02 5.500440e-03 5.076345e-02 4.445016e-02 -3.320780e-02 5.659867e-04 4.107497e-02
<VARIANCE> 39
 9.227347e+01 9.109903e+01 8.422424e+01 6.750042e+01 8.275852e+01 5.449867e+01 7.740826e+01 4.356845e+01 4.758330e+01 3.410783e+01 2.998082e+01 4.700602e+01 6.751578e+01 1.593832e+00 2.895734e+00 2.285218e+00 2.456131e+00 3.025414e+00 3.001409e+00 3.587014e+00 2.673982e+00 2.417434e+00 2.157078e+00 1.906669e+00 2.537300e+00 1.165284e+00 1.806470e-01 3.445746e-01 3.682726e-01 3.710189e-01 4.308098e-01 4.512503e-01 5.780097e-01 5.023185e-01 4.129061e-01 3.454788e-01 3.564664e-01 4.194882e-01 9.577025e-02
<GCONST> 1.220196e+02
<STATE> 4
<MEAN> 39
 -1.919748e+00 -2.050732e+00 -2.961500e+00 -1.230417e+00 1.684535e+00 -6.680313e+00 -6.447728e+00 -8.439901e+00 -4.517113e+00 -7.523851e+00 -2.314962e+00 -3.637162e+00 6.426329e+01 -3.970955e-02 3.329630e-01 3.389293e-02 -1.398919e-01 -2.890432e-01 -3.259196e-01 -8.090732e-02 7.919839e-02 2.631912e-01 2.356818e-01 1.142779e-02 3.792395e-02 -1.700894e-01 2.078248e-02 -6.827563e-02 -1.309473e-02 -1.047961e-01 -1.149558e-02 -9.681078e-02 -2.498966e-02 3.904501e-02 -3.148790e-02 3.021289e-03 -7.899102e-02 -4.382074e-02 9.333551e-02
<VARIANCE> 39
 1.187522e+02 9.940331e+01 8.871716e+01 5.979211e+01 6.948804e+01 6.247559e+01 7.251970e+01 4.366985e+01 4.235227e+01 3.795122e+01 3.030727e+01 4.675470e+01 9.237346e+01 1.659159e+00 2.494089e+00 2.001836e+00 2.527912e+00 2.372580e+00 2.771336e+00 3.034003e+00 2.474056e+00 2.250227e+00 2.018144e+00 1.774962e+00 2.177750e+00 1.182619e+00 1.928181e-01 3.455713e-01 3.413715e-01 3.802613e-01 3.436424e-01 4.103228e-01 4.853652e-01 4.154245e-01 3.856030e-01 3.341078e-01 3.201068e-01 3.535599e-01 1.182602e-01
<GCONST> 1.205310e+02
<TRANSP> 5
 0.000000e+00 1.000000e+00 0.000000e+00 0.000000e+00 0.000000e+00
 0.000000e+00 5.564339e-01 4.435661e-01 0.000000e+00 0.000000e+00
 0.000000e+00 0.000000e+00 5.601387e-01 4.398613e-01 0.000000e+00
 0.000000e+00 0.000000e+00 0.000000e+00 7.555070e-01 2.444930e-01
 0.000000e+00 0.000000e+00 0.000000e+00 0.000000e+00 0.000000e+00
<ENDHMM>
~h "y"
<BEGINHMM>
<NUMSTATES> 5
<STATE> 2
<MEAN> 39
 -8.710203e-01 -6.901579e+00 1.713046e+00 6.515948e+00 1.374759e+01 -1.036143e+01 -9.710293e+00 -1.050387e+01 -1.189852e+01 -4.514352e+00 -1.688679e+00 -6.878899e+00 7.088826e+01 4.146193e-01 2.436512e-01 2.294138e-01 7.013505e-01 2.891592e-01 -2.050715e-01 -2.904806e-01 1.596556e-01 3.547074e-03 1.625079e-01 1.997157e-01 2.340809e-01 -1.675380e-01 -2.146648e-02 4.698039e-02 -1.002844e-01 -1.471754e-01 -1.348960e-01 5.698767e-02 9.683653e-02 4.917404e-02 1.618613e-01 -1.262978e-01 -3.188919e-02 4.666314e-02 -4.079277e-02
<VARIANCE> 39
 7.173509e+01 2.395735e+01 9.648184e+01 8.807855e+01 7.099225e+01 9.844820e+01 5.042067e+01 6.770901e+01 8.091632e+01 3.421584e+01 4.966674e+01 3.596700e+01 2.895503e+01 1.806281e+00 1.431466e+00 2.736824e+00 3.324715e+00 2.765928e+00 3.894933e+00 2.901132e+00 3.035667e+00 4.207819e+00 2.630370e+00 3.719190e+00 2.097130e+00 1.071530e+00 1.896807e-01 1.909112e-01 3.947887e-01 5.481740e-01 3.681262e-01 5.815637e-01 5.266401e-01 4.637316e-01 4.893622e-01 4.536571e-01 5.584271e-01 3.080962e-01 8.684681e-02
<GCONST> 1.226709e+02
<STATE> 3
<MEAN> 39
 6.082239e-01 -5.045965e+00 2.897732e+00 8.570423e+00 1.393902e+01 -9.137359e+00 -1.064289e+01 -8.767047e+00 -8.370760e+00 -5.642009e+00 -1.596927e+00 -5.485797e+00 6.928068e+01 2.157114e-01 4.225474e-01 -2.103111e-01 -1.002261e-01 -4.362798e-02 2.398627e-01 -7.583834e-04 1.941716e-01 5.812003e-01 -8.416864e-02 -1.454072e-01 2.569879e-01 -2.990277e-01 -6.569763e-02 -2.998576e-02 -6.252395e-02 -1.667878e-01 -1.012208e-01 4.912185e-02 9.698755e-02 2.042818e-02 5.023507e-02 -3.043896e-02 -4.843304e-02 -1.833829e-02 1.485782e-02
<VARIANCE> 39
 5.286622e+01 3.181184e+01 9.222392e+01 9.691944e+01 9.650984e+01 7.852038e+01 6.512174e+01 5.462690e+01 6.049988e+01 2.895361e+01 4.452475e+01 4.474813e+01 2.813864e+01 1.304829e+00 1.122111e+00 2.525450e+00 3.354855e+00 3.072390e+00 2.826712e+00 2.952657e+00 2.448167e+00 3.067142e+00 2.424291e+00 2.800267e+00 2.405811e+00 8.271793e-01 1.302410e-01 1.554905e-01 3.055928e-01 4.603149e-01 4.959270e-01 4.322694e-01 5.238644e-01 4.538324e-01 4.967520e-01 4.780209e-01 4.755339e-01 4.100620e-01 7.959579e-02
<GCONST> 1.196563e+02
<STATE> 4
<MEAN> 39
 1.115834e+00 -2.617388e-01 2.902622e+00 6.789686e+00 1.032944e+01 -5.697382e+00 -8.332016e+00 -5.694717e+00 -1.104061e+00 -4.285365e+00 -2.459167e+00 -6.817492e+00 6.631402e+01 -1.042700e-01 2.045845e-01 -4.278048e-01 -4.260257e-01 -4.179124e-01 2.853625e-01 4.766314e-01 2.284020e-01 4.894442e-01 -1.164143e-01 -3.248571e-01 2.862833e-02 -2.882761e-01 -3.759732e-02 -7.122593e-02 5.977410e-03 -6.568657e-02 -7.915176e-02 -1.248093e-02 5.305348e-02 -3.367876e-03 -6.310540e-02 -4.043092e-02 -2.559279e-02 -2.127706e-02 2.828726e-02
<VARIANCE> 39
 4.538027e+01 6.208312e+01 6.490041e+01 7.992063e+01 1.039291e+02 6.173460e+01 6.580154e+01 5.333033e+01 1.085482e+02 4.914533e+01 3.398801e+01 4.447506e+01 3.654069e+01 1.449660e+00 1.492528e+00 2.367953e+00 3.172609e+00 3.776070e+00 2.796119e+00 3.240592e+00 2.264703e+00 4.045672e+00 2.887061e+00 2.168876e+00 2.024821e+00 7.928588e-01 1.128366e-01 1.915592e-01 2.906107e-01 4.265319e-01 5.852273e-01 4.336371e-01 5.559497e-01 4.291824e-01 6.094251e-01 4.687272e-01 3.952650e-01 3.750597e-01 8.078434e-02
<GCONST> 1.210454e+02
<TRANSP> 5
 0.000000e+00 1.000000e+00 0.000000e+00 0.000000e+00 0.000000e+00
 0.000000e+00 7.997343e-01 2.002657e-01 0.000000e+00 0.000000e+00
 0.000000e+00 0.000000e+00 7.643746e-01 2.356254e-01 0.000000e+00
 0.000000e+00 0.000000e+00 0.000000e+00 8.057854e-01 1.942146e-01
 0.000000e+00 0.000000e+00 0.000000e+00 0.000000e+00 0.000000e+00
<ENDHMM>
~h "z"
<BEGINHMM>
<NUMSTATES> 5
<STATE> 2
<MEAN> 39
 -1.621702e+01 -4.153933e+00 9.287360e+00 -9.804007e+00 4.427893e+00 -1.105002e+00 -2.382644e+00 -1.229876e+01 -2.910336e+00 -6.002226e+00 -4.079039e+00 -4.270310e+00 6.991454e+01 -9.275740e-01 7.129166e-02 3.106664e-01 3.337136e-02 -1.550707e-01 1.415950e-01 1.870886e-01 3.459051e-02 5.380808e-02 -4.941169e-02 -3.217645e-02 1.371349e-02 -3.876747e-01 2.953574e-01 -7.855009e-02 -1.701345e-01 1.164333e-01 -2.994969e-02 -1.045487e-01 -8.673952e-02 5.528213e-02 -9.749075e-02 6.697682e-03 -4.350983e-02 2.551913e-02 -1.215565e-01
<VARIANCE> 39
 1.764190e+02 3.762906e+01 1.312784e+02 1.209272e+02 4.563356e+01 4.325372e+01 5.955317e+01 5.289739e+01 4.098972e+01 3.118708e+01 4.614172e+01 2.997987e+01 9.789473e+01 4.701140e+00 1.812874e+00 3.101079e+00 2.226460e+00 1.715263e+00 2.049855e+00 2.214603e+00 2.056740e+00 2.162138e+00 1.632041e+00 1.799138e+00 1.391094e+00 9.720718e-01 4.165978e-01 2.491744e-01 4.055094e-01 3.839187e-01 3.063523e-01 3.580475e-01 3.786192e-01 3.865827e-01 3.611343e-01 2.917680e-01 3.378463e-01 2.605236e-01 1.250024e-01
<GCONST> 1.187443e+02
<STATE> 3
<MEAN> 39
 -1.633903e+01 -4.339268e+00 9.205680e+00 -8.578611e+00 4.255293e+00 -1.409129e+00 -2.664080e+00 -1.191845e+01 -3.901209e+00 -6.352536e+00 -3.944082e+00 -4.280666e+00 6.879913e+01 -2.523577e-01 -6.807046e-02 1.048918e-01 1.734657e-01 -1.539034e-01 -9.069531e-02 -1.537657e-02 8.699415e-02 -1.783599e-01 -2.168535e-02 -1.839898e-01 -3.753693e-02 -6.182680e-01 2.337497e-01 -5.515365e-02 -1.029868e-01 2.953885e-02 -1.629397e-02 -8.008943e-02 -8.370790e-02 6.582513e-03 -6.056058e-02 1.818742e-02 -6.338918e-03 2.590619e-03 -4.246751e-02
<VARIANCE> 39
 1.698909e+02 3.880393e+01 1.283018e+02 1.311664e+02 4.688306e+01 4.586611e+01 5.433257e+01 5.945630e+01 4.209947e+01 3.209592e+01 3.859287e+01 3.003139e+01 1.027207e+02 3.313318e+00 1.739537e+00 2.560471e+00 2.115418e+00 1.796264e+00 2.108685e+00 2.346877e+00 2.348972e+00 2.207958e+00 1.547381e+00 1.910282e+00 1.382035e+00 1.003313e+00 3.398737e-01 2.608234e-01 3.360654e-01 3.416815e-01 3.197834e-01 3.855253e-01 3.956259e-01 4.679304e-01 3.718417e-01 2.744242e-01 3.490329e-01 2.792713e-01 1.438497e-01
<GCONST> 1.186173e+02
<STATE> 4
<MEAN> 39
 -1.781855e+01 -4.684182e+00 1.267797e+01 -7.003850e+00 4.543536e+00 9.109983e-01 -4.044894e+00 -1.336101e+01 -5.246015e+00 -5.539358e+00 -3.946052e+00 -5.335993e+00 6.842380e+01 4.671503e-01 -1.093250e-01 -3.693520e-01 1.539036e-01 -3.096087e-01 -2.551714e-01 -1.840616e-01 1.562365e-01 -1.865163e-01 -2.571529e-02 6.810439e-02 -2.947439e-02 -3.429688e-01 1.872090e-01 1.211486e-02 -1.680008e-01 1.317815e-02 -4.399566e-02 -8.296000e-02 -2.227697e-02 5.161918e-02 4.423372e-02 -7.013742e-03 3.361753e-02 1.770422e-02 5.167671e-02
<VARIANCE> 39
 1.462350e+02 3.575624e+01 1.074064e+02 9.034439e+01 4.016399e+01 8.185623e+01 5.408570e+01 7.001329e+01 4.884923e+01 4.112177e+01 3.383468e+01 2.576097e+01 8.262193e+01 6.150254e+00 2.702401e+00 5.445175e+00 3.057529e+00 2.635888e+00 3.876599e+00 3.381936e+00 4.402275e+00 3.293918e+00 2.378844e+00 2.584205e+00 1.870821e+00 2.911374e+00 6.199093e-01 4.558163e-01 7.300969e-01 4.243064e-01 4.299086e-01 6.897355e-01 5.787552e-01 7.238606e-01 5.878113e-01 4.609899e-01 4.395110e-01 3.773525e-01 3.452930e-01
<GCONST> 1.312102e+02
<TRANSP> 5
 0.000000e+00 1.000000e+00 0.000000e+00 0.000000e+00 0.000000e+00
 0.000000e+00 6.993102e-01 3.006898e-01 0.000000e+00 0.000000e+00
 0.000000e+00 0.000000e+00 6.359923e-01 3.640078e-01 0.000000e+00
 0.000000e+00 0.000000e+00 0.000000e+00 8.178576e-01 1.821424e-01
 0.000000e+00 0.000000e+00 0.000000e+00 0.000000e+00 0.000000e+00
<ENDHMM>
~h "aa"
<BEGINHMM>
<NUMSTATES> 5
<STATE> 2
<MEAN> 39
 3.223386e-01 -7.206952e+00 -9.078903e+00 -1.091310e+01 -9.053524e+00 -1.597840e+01 2.703012e+00 -1.815120e+00 -3.429597e+00 -3.221557e+00 -4.102886e+00 -4.545852e+00 7.097839e+01 5.959710e-02 3.455243e-02 -2.030480e-01 7.001009e-02 -3.592843e-01 1.363525e-01 2.164574e-01 2.372110e-01 1.163948e-01 -3.253662e-02 6.612690e-02 -4.423535e-02 -2.342970e-01 -5.436917e-02 2.288814e-02 1.173964e-01 4.150222e-02 1.255475e-01 3.163235e-02 -1.008451e-01 -5.083588e-02 4.097721e-02 -2.735039e-02 -2.955242e-02 -2.798651e-03 1.360094e-02
<VARIANCE> 39
 7.280328e+01 3.406061e+01 5.086384e+01 4.987907e+01 5.600890e+01 8.439944e+01 5.440070e+01 4.965822e+01 3.748232e+01 4.828577e+01 2.913200e+01 2.851184e+01 7.966733e+01 2.813179e+00 1.522075e+00 3.011242e+00 2.403679e+00 2.548293e+00 3.800158e+00 2.952180e+00 2.466719e+00 2.363177e+00 2.110760e+00 2.511612e+00 1.940192e+00 2.227286e+00 3.104843e-01 2.594885e-01 4.006917e-01 3.923281e-01 4.508744e-01 4.036733e-01 5.608880e-01 4.371559e-01 4.365166e-01 2.815582e-01 4.413462e-01 3.680749e-01 2.084537e-01
<GCONST> 1.210166e+02
<STATE> 3
<MEAN> 39
 -2.080884e-01 -7.487429e+00 -7.221328e+00 -1.111243e+01 -9.177083e+00 -1.309821e+01 7.476425e-01 -2.773335e+00 -2.502151e+00 -4.135993e+00 -4.169878e+00 -3.763669e+00 7.020321e+01 -8.325316e-04 -4.547422e-02 1.593412e-01 1.988708e-01 1.806443e-01 2.761481e-01 -3.983339e-01 9.641425e-02 2.266135e-01 -1.242632e-01 8.688483e-02 8.825907e-02 -1.512702e-02 -1.267843e-02 2.867524e-04 1.330269e-01 3.169454e-03 2.310547e-01 -2.317773e-02 -1.640148e-01 -1.278407e-01 -5.158298e-02 -7.529353e-02 3.667770e-03 1.861408e-03 1.535983e-01
<VARIANCE> 39
 8.602275e+01 3.785443e+01 5.294403e+01 4.764242e+01 6.073071e+01 6.110274e+01 5.921343e+01 4.918061e+01 3.972709e+01 3.773012e+01 2.812230e+01 3.441665e+01 8.615440e+01 3.597851e+00 2.443810e+00 3.660674e+00 2.540397e+00 3.297199e+00 2.981905e+00 3.877330e+00 3.231594e+00 2.539962e+00 2.382222e+00 2.746039e+00 2.544547e+00 2.483540e+00 4.649999e-01 4.197948e-01 5.623562e-01 3.727610e-01 4.990559e-01 4.602322e-01 6.723283e-01 5.818501e-01 5.272942e-01 3.716328e-01 4.818882e-01 4.652208e-01 3.466412e-01
<GCONST> 1.265191e+02
<STATE> 4
<MEAN> 39
 -2.110176e+00 -8.683946e+00 -3.742162e+00 -1.061203e+01 -7.591466e+00 -1.126974e+01 -1.704762e+00 -4.906858e+00 -2.119124e+00 -4.470885e+00 -3.452890e+00 -2.760996e+00 7.055180e+01 3.111898e-02 -1.943969e-01 3.835459e-01 1.679560e-01 8.201540e-01 1.340620e-01 -6.188577e-01 -4.041048e-01 -2.336550e-01 -3.569005e-01 1.618127e-01 6.990510e-02 6.276232e-01 -1.475938e-02 1.767811e-04 -3.732656e-02 -1.851999e-02 9.988864e-02 1.681837e-02 1.115616e-01 -4.229178e-02 -1.251167e-01 -3.746714e-02 -3.830963e-03 4.254692e-02 1.620007e-02
<VARIANCE> 39
 1.241399e+02 4.835220e+01 7.242684e+01 4.385213e+01 4.530060e+01 5.932410e+01 6.340409e+01 5.331835e+01 3.666807e+01 3.034463e+01 4.469538e+01 4.845356e+01 8.318967e+01 4.530052e+00 3.704426e+00 4.511630e+00 2.564646e+00 3.477493e+00 3.989714e+00 4.185585e+00 4.250661e+00 3.346865e+00 2.486266e+00 3.156812e+00 3.331999e+00 4.586926e+00 6.117690e-01 5.984740e-01 7.816722e-01 3.834642e-01 4.738620e-01 6.693962e-01 7.707026e-01 7.400362e-01 5.164292e-01 4.842539e-01 5.761926e-01 6.184825e-01 5.797507e-01
<GCONST> 1.334692e+02
<TRANSP> 5
 0.000000e+00 1.000000e+00 0.000000e+00 0.000000e+00 0.000000e+00
 0.000000e+00 7.535345e-01 2.464655e-01 0.000000e+00 0.000000e+00
 0.000000e+00 0.000000e+00 6.670072e-01 3.329928e-01 0.000000e+00
 0.000000e+00 0.000000e+00 0.000000e+00 7.964830e-01 2.035169e-01
 0.000000e+00 0.000000e+00 0.000000e+00 0.000000e+00 0.000000e+00
<ENDHMM>
~h "ae"
<BEGINHMM>
<NUMSTATES> 5
<STATE> 2
<MEAN> 39
 -9.886422e-01 -7.432599e+00 -4.686614e+00 -4.228403e+00 5.875959e-01 -7.562679e+00 -9.294513e+00 -1.464188e+01 -5.052342e+00 -7.265383e+00 -1.266121e+00 -1.588086e+00 7.107558e+01 4.930435e-01 -4.264712e-01 6.334551e-02 -9.038487e-02 -4.767780e-02 -1.554392e-01 -5.869301e-01 -9.326028e-01 -5.141697e-02 -2.877813e-02 3.186006e-01 3.141571e-01 1.032722e+00 -6.625121e-02 -1.145416e-02 7.614570e-02 4.875933e-02 1.220452e-01 -5.380762e-03 4.947035e-02 7.403710e-02 -6.000585e-02 -5.049183e-02 1.162428e-02 -4.244425e-02 1.602340e-02
<VARIANCE> 39
 7.776305e+01 3.700596e+01 5.147363e+01 7.284474e+01 5.843379e+01 6.666380e+01 8.235872e+01 8.811747e+01 6.592941e+01 4.961652e+01 6.227308e+01 4.647756e+01 9.553903e+01 4.633409e+00 2.270777e+00 3.105549e+00 4.101055e+00 3.487228e+00 4.211385e+00 5.590584e+00 5.935345e+00 4.581041e+00 3.762187e+00 4.384404e+00 3.697075e+00 5.896383e+00 6.264901e-01 3.639172e-01 4.851655e-01 6.782459e-01 5.443990e-01 7.177753e-01 1.006269e+00 9.968477e-01 8.058525e-01 6.810914e-01 7.879559e-01 6.635706e-01 5.945237e-01
<GCONST> 1.388503e+02
<STATE> 3
<MEAN> 39
 3.708315e-02 -8.431097e+00 -4.218192e+00 -4.088281e+00 1.625603e+00 -8.037164e+00 -1.050199e+01 -1.695578e+01 -5.939255e+00 -7.682581e+00 -8.145332e-02 -8.412709e-01 7.410211e+01 1.444166e-01 -2.077969e-01 1.440687e-01 1.215706e-01 3.531533e-01 3.576122e-02 -1.330796e-01 -4.136339e-01 -2.559713e-01 -2.092407e-01 2.787736e-01 1.738763e-01 4.726676e-01 -8.391926e-02 7.951297e-02 1.681169e-03 7.680231e-02 8.461104e-02 6.585604e-02 1.208088e-01 1.892700e-01 1.782489e-03 -2.474703e-02 -3.855575e-02 -6.201618e-02 -1.636362e-01
<VARIANCE> 39
 6.172532e+01 3.328672e+01 4.879971e+01 6.223963e+01 5.138387e+01 6.149221e+01 6.029144e+01 6.981509e+01 5.644978e+01 4.584538e+01 5.783739e+01 4.223515e+01 6.483057e+01 3.707075e+00 2.032699e+00 2.696367e+00 3.268199e+00 3.028291e+00 3.621725e+00 4.577451e+00 4.694767e+00 3.392355e+00 3.174554e+00 3.728027e+00 3.193393e+00 3.489083e+00 4.688876e-01 3.026398e-01 4.480633e-01 5.704843e-01 5.030550e-01 6.469998e-01 7.539116e-01 8.015342e-01 6.107945e-01 5.805947e-01 6.585841e-01 5.986642e-01 3.736477e-01
<GCONST> 1.314252e+02
<STATE> 4
<MEAN> 39
 -6.104665e-01 -8.320427e+00 -4.557400e+00 -2.967090e+00 3.051659e+00 -7.305098e+00 -1.031197e+01 -1.782896e+01 -6.440972e+00 -8.313801e+00 1.235264e+00 -3.800890e-01 7.431570e+01 -2.230979e-02 1.039444e-01 1.283248e-01 2.716536e-01 3.585154e-01 1.561810e-01 1.359392e-01 1.824673e-01 -2.136846e-01 -6.557953e-02 8.966679e-02 -8.247294e-02 -2.463259e-01 -2.521365e-02 5.748163e-02 1.922175e-03 3.964409e-02 -9.672980e-04 3.914353e-03 3.669901e-02 1.366032e-01 2.428808e-02 3.787815e-02 -4.446572e-02 -8.244457e-02 -1.031121e-01
<VARIANCE> 39
 6.799183e+01 3.548763e+01 4.285308e+01 5.515756e+01 4.180536e+01 4.956599e+01 5.028217e+01 5.460307e+01 4.647895e+01 3.691195e+01 4.726002e+01 3.356222e+01 6.499942e+01 3.034881e+00 1.681924e+00 2.106755e+00 2.726930e+00 2.317772e+00 3.289785e+00 3.297107e+00 3.439775e+00 2.600111e+00 2.455643e+00 2.965801e+00 2.725228e+00 2.399420e+00 3.848583e-01 2.697733e-01 3.419733e-01 4.937755e-01 4.053884e-01 6.090806e-01 5.744405e-01 6.130319e-01 4.726082e-01 4.745247e-01 5.336267e-01 5.098395e-01 2.704310e-01
<GCONST> 1.238454e+02
<TRANSP> 5
 0.000000e+00 1.000000e+00 0.000000e+00 0.000000e+00 0.000000e+00
 0.000000e+00 6.544445e-01 3.455555e-01 0.000000e+00 0.000000e+00
 0.000000e+00 0.000000e+00 6.269395e-01 3.730605e-01 0.000000e+00
 0.000000e+00 0.000000e+00 0.000000e+00 7.682683e-01 2.317317e-01
 0.000000e+00 0.000000e+00 0.000000e+00 0.000000e+00 0.000000e+00
<ENDHMM>
~h "ah"
<BEGINHMM>
<NUMSTATES> 5
<STATE> 2
<MEAN> 39
 5.178459e+00 -3.543037e+00 -5.498369e+00 -9.315071e+00 -2.994385e+00 -1.860948e+01 -7.226582e+00 -4.456650e+00 -4.124538e+00 -3.075385e+00 -6.006558e+00 -5.476181e+00 7.325134e+01 6.241217e-01 -5.006531e-01 -6.656759e-01 -3.729649e-01 -3.569825e-01 -7.740249e-01 -2.015683e-02 6.220769e-01 -3.636139e-01 4.729980e-01 -3.710216e-01 6.435668e-02 4.916284e-01 -1.231590e-01 2.589531e-02 3.139893e-02 1.804596e-01 1.371529e-01 2.920339e-01 4.771816e-02 -5.332746e-02 -9.448658e-03 -1.257682e-01 2.510805e-02 -2.168171e-02 -1.101724e-01
<VARIANCE> 39
 4.407137e+01 5.325391e+01 5.198372e+01 8.564699e+01 5.942955e+01 1.161232e+02 6.790171e+01 5.326356e+01 7.267097e+01 7.197280e+01 4.754012e+01 3.211894e+01 3.982125e+01 2.243386e+00 2.711584e+00 3.033507e+00 5.018655e+00 3.257617e+00 5.562574e+00 4.091388e+00 4.291371e+00 3.401439e+00 3.769638e+00 2.677607e+00 2.253014e+00 1.392946e+00 2.546453e-01 3.988893e-01 3.795610e-01 7.246438e-01 4.683106e-01 6.921733e-01 7.143867e-01 6.816206e-01 5.528583e-01 6.441668e-01 4.729818e-01 3.679395e-01 1.482624e-01
<GCONST> 1.293067e+02
<STATE> 3
<MEAN> 39
 6.314059e+00 -4.985641e+00 -7.055742e+00 -9.356156e+00 -3.029545e+00 -1.872180e+01 -6.603743e+00 -3.266477e+00 -5.123518e+00 -2.950918e+00 -6.916972e+00 -5.367786e+00 7.428181e+01 2.882391e-01 -1.889302e-01 -4.115270e-01 2.189858e-01 1.269839e-01 2.584105e-01 1.010624e-01 2.167809e-01 -1.884433e-01 -1.849574e-01 -1.850038e-01 -6.520277e-03 6.972348e-02 -1.126228e-01 1.062627e-01 9.910107e-02 1.407063e-01 1.336644e-01 2.701261e-01 1.826716e-02 -1.034105e-01 1.129533e-01 -1.702500e-01 6.167435e-02 -1.685373e-02 -1.274933e-01
<VARIANCE> 39
 4.089034e+01 4.056903e+01 4.042379e+01 6.905165e+01 5.447585e+01 1.172305e+02 6.030433e+01 5.465511e+01 6.931779e+01 7.305676e+01 4.542479e+01 3.196306e+01 3.617902e+01 1.684069e+00 1.911599e+00 2.198946e+00 4.389800e+00 2.713338e+00 4.063144e+00 3.431848e+00 3.368556e+00 3.359710e+00 3.744226e+00 2.365039e+00 2.064218e+00 1.176373e+00 1.823590e-01 2.399319e-01 2.996001e-01 5.533301e-01 4.032802e-01 5.419129e-01 5.476397e-01 5.887731e-01 5.363454e-01 5.663905e-01 4.091462e-01 3.525024e-01 1.022278e-01
<GCONST> 1.228637e+02
<STATE> 4
<MEAN> 39
 5.914646e+00 -4.931866e+00 -7.003825e+00 -7.805957e+00 -1.571666e+00 -1.590296e+01 -6.380195e+00 -3.232930e+00 -3.364516e+00 -4.826002e+00 -7.487816e+00 -5.526114e+00 7.385446e+01 -1.096005e-01 1.747879e-01 4.206739e-03 4.167907e-01 4.281124e-01 8.373541e-01 -2.909703e-02 -1.178044e-01 1.890245e-01 -5.419469e-01 8.761133e-02 -5.610026e-02 -3.356876e-01 -1.080009e-01 6.262179e-02 1.058946e-01 -9.399607e-03 4.295708e-02 5.863853e-02 -4.937436e-03 -3.237457e-02 6.715003e-02 -2.855660e-02 5.815294e-02 -1.520134e-02 -5.036018e-02
<VARIANCE> 39
 6.432729e+01 3.440508e+01 4.209327e+01 7.614365e+01 5.182425e+01 9.639877e+01 6.219461e+01 5.069821e+01 7.124364e+01 6.214611e+01 4.063347e+01 3.591369e+01 3.435014e+01 1.816268e+00 1.151682e+00 1.819417e+00 3.617081e+00 2.103720e+00 2.802917e+00 2.745034e+00 2.607032e+00 3.104226e+00 2.928319e+00 2.314576e+00 1.915600e+00 9.028393e-01 2.038085e-01 1.536550e-01 2.587828e-01 4.881510e-01 3.383108e-01 4.336794e-01 4.772525e-01 4.862776e-01 4.677776e-01 4.486161e-01 4.064844e-01 3.214259e-01 1.030103e-01
<GCONST> 1.184192e+02
<TRANSP> 5
 0.000000e+00 1.000000e+00 0.000000e+00 0.000000e+00 0.000000e+00
 0.000000e+00 6.644871e-01 3.355130e-01 0.000000e+00 0.000000e+00
 0.000000e+00 0.000000e+00 6.694190e-01 3.305811e-01 0.000000e+00
 0.000000e+00 0.000000e+00 0.000000e+00 8.074718e-01 1.925282e-01
 0.000000e+00 0.000000e+00 0.000000e+00 0.000000e+00 0.000000e+00
<ENDHMM>
~h "ao"
<BEGINHMM>
<NUMSTATES> 5
<STATE> 2
<MEAN> 39
 5.792072e+00 -3.445849e-01 -4.929540e+00 -9.035469e+00 -5.958611e+00 -2.195431e+01 -9.808118e+00 -3.980316e+00 -3.977002e+00 -2.645225e+00 -3.907032e+00 -4.968806e+00 7.111553e+01 1.077682e+00 1.509721e-01 -6.523346e-01 -2.638324e-01 -5.478212e-01 -1.404628e+00 -5.277559e-01 6.355966e-01 1.115650e-01 9.315256e-01 -2.292234e-01 5.762253e-02 2.416987e-01 -2.783619e-01 -1.514636e-01 -9.269746e-03 7.218392e-02 2.824423e-01 2.977026e-01 1.520915e-01 -1.012895e-02 3.485356e-02 -1.347338e-01 -4.430432e-02 7.983963e-03 -1.253483e-02
<VARIANCE> 39
 5.311760e+01 4.722351e+01 4.362904e+01 4.482629e+01 7.356450e+01 1.000999e+02 6.684400e+01 4.607170e+01 6.451027e+01 5.834669e+01 2.775307e+01 2.942633e+01 2.928977e+01 3.524894e+00 3.269818e+00 2.930941e+00 3.019925e+00 5.020265e+00 6.458214e+00 3.872273e+00 2.891372e+00 2.678233e+00 4.485394e+00 2.099905e+00 2.160976e+00 1.094892e+00 3.991710e-01 4.258033e-01 3.988121e-01 4.516395e-01 6.675847e-01 8.281747e-01 5.062312e-01 4.614450e-01 4.394367e-01 5.952147e-01 3.637896e-01 3.301065e-01 1.241180e-01
<GCONST> 1.258642e+02
<STATE> 3
<MEAN> 39
 7.679926e+00 -7.916336e-01 -6.847019e+00 -9.256516e+00 -5.961060e+00 -2.371725e+01 -1.055883e+01 -2.224353e+00 -3.192406e+00 -1.294043e+00 -5.079472e+00 -4.757323e+00 7.180762e+01 3.964083e-01 -1.691671e-01 -4.617614e-01 -3.300435e-03 2.392654e-01 -1.921550e-01 -1.098341e-01 4.338781e-01 1.733810e-01 2.381524e-01 -3.680586e-01 3.856321e-02 1.672494e-01 -1.746686e-01 -7.696963e-02 7.652273e-02 5.221860e-02 1.907752e-01 3.103962e-01 1.118622e-01 -6.710128e-02 -1.306792e-02 -1.746720e-01 -2.549015e-02 -8.129449e-03 -1.158140e-02
<VARIANCE> 39
 3.695645e+01 3.992684e+01 3.557093e+01 3.746250e+01 5.911463e+01 9.514685e+01 6.073604e+01 4.426759e+01 6.500966e+01 5.754565e+01 3.561274e+01 2.793893e+01 2.491294e+01 1.817731e+00 2.081131e+00 2.006770e+00 2.246626e+00 3.414099e+00 5.927220e+00 3.154256e+00 2.530638e+00 2.713915e+00 4.554590e+00 2.188421e+00 1.817172e+00 7.375636e-01 2.379653e-01 2.795590e-01 2.778173e-01 3.440644e-01 4.710367e-01 6.729886e-01 4.308682e-01 4.064822e-01 4.697080e-01 5.425457e-01 3.536791e-01 2.990187e-01 8.421103e-02
<GCONST> 1.185204e+02
<STATE> 4
<MEAN> 39
 7.673641e+00 -2.458613e+00 -8.075198e+00 -8.088003e+00 -2.412352e+00 -2.127025e+01 -9.657795e+00 -2.044209e+00 -3.612922e+00 -2.006650e+00 -7.316482e+00 -5.442667e+00 7.252979e+01 -1.141967e-01 -1.882349e-01 -7.313848e-02 1.803104e-01 3.977241e-01 6.746833e-01 2.649305e-01 -7.845567e-02 -1.171799e-01 -4.037867e-01 -8.134834e-02 -4.130105e-02 1.555078e-02 -6.880834e-02 9.325240e-03 5.137851e-02 2.780716e-02 1.961410e-02 7.565351e-02 1.076542e-02 -6.632268e-02 -1.249646e-02 -4.701096e-02 4.039861e-02 -7.155921e-03 -1.892210e-02
<VARIANCE> 39
 3.397643e+01 3.287886e+01 3.858955e+01 4.260774e+01 7.290065e+01 1.289577e+02 5.800589e+01 4.906923e+01 6.169529e+01 9.315390e+01 5.245695e+01 3.008329e+01 2.129563e+01 1.452251e+00 1.500780e+00 1.699993e+00 2.453959e+00 3.072416e+00 5.544267e+00 2.715259e+00 2.857844e+00 3.435898e+00 4.489362e+00 2.590807e+00 1.849745e+00 9.486092e-01 1.804733e-01 2.342926e-01 2.508666e-01 3.774512e-01 4.151813e-01 6.785223e-01 4.240407e-01 4.445070e-01 5.766467e-01 6.248041e-01 3.878701e-01 3.237805e-01 1.192977e-01
<GCONST> 1.199460e+02
<TRANSP> 5
 0.000000e+00 1.000000e+00 0.000000e+00 0.000000e+00 0.000000e+00
 0.000000e+00 6.974306e-01 3.025695e-01 0.000000e+00 0.000000e+00
 0.000000e+00 0.000000e+00 7.099002e-01 2.900998e-01 0.000000e+00
 0.000000e+00 0.000000e+00 0.000000e+00 9.399872e-01 6.001284e-02
 0.000000e+00 0.000000e+00 0.000000e+00 0.000000e+00 0.000000e+00
<ENDHMM>
~h "aw"
<BEGINHMM>
<NUMSTATES> 5
<STATE> 2
<MEAN> 39
 1.001359e+00 -2.451279e+00 -2.514875e+00 -1.063448e+01 -4.268124e+00 -1.768059e+01 -4.837879e+00 -4.982291e+00 -2.061932e+00 1.904517e+00 -9.006552e+00 -7.214567e+00 7.156042e+01 5.458176e-01 -2.150348e-01 -1.106766e-01 -4.939315e-01 -4.915109e-01 -8.974049e-01 -2.676281e-01 2.317655e-01 9.462273e-02 6.655957e-01 -3.622307e-01 8.596773e-02 6.010932e-01 -8.011334e-03 1.295032e-03 -1.643513e-02 5.279887e-02 6.424206e-02 1.100281e-01 1.761949e-02 -5.584517e-03 -7.420116e-02 -6.682102e-02 4.550782e-02 3.070196e-02 -1.215919e-02
<VARIANCE> 39
 9.129101e+01 6.986131e+01 6.687211e+01 7.236803e+01 6.708737e+01 9.247481e+01 7.987293e+01 5.537315e+01 5.492542e+01 1.227948e+02 4.848167e+01 3.920606e+01 4.748732e+01 4.499045e+00 3.230791e+00 3.960136e+00 4.288821e+00 5.619599e+00 6.148172e+00 5.045590e+00 3.770126e+00 5.103378e+00 6.717729e+00 2.724809e+00 3.030002e+00 2.407934e+00 5.493477e-01 4.827667e-01 6.101733e-01 6.169153e-01 9.371675e-01 8.222417e-01 8.056230e-01 5.244420e-01 8.387598e-01 8.560394e-01 4.694162e-01 5.931253e-01 3.183291e-01
<GCONST> 1.386170e+02
<STATE> 3
<MEAN> 39
 3.643100e+00 -4.454181e+00 -3.524096e+00 -1.126931e+01 -4.463995e+00 -2.030459e+01 -7.182055e+00 -3.447792e+00 -2.115788e+00 1.526914e+00 -9.436534e+00 -6.026282e+00 7.431706e+01 1.437214e-01 -1.139712e-01 -1.796895e-02 -5.321471e-02 2.106846e-01 -1.071948e-01 -1.719091e-01 1.095340e-01 -2.611413e-01 -9.355796e-02 9.705155e-02 5.359405e-02 2.058567e-01 -6.921260e-02 4.304743e-02 2.587131e-02 6.885151e-02 5.101900e-02 1.572636e-01 6.248143e-02 -5.490522e-03 1.340871e-02 -1.198676e-01 4.673314e-02 -1.371621e-02 -6.379874e-02
<VARIANCE> 39
 7.318964e+01 5.503353e+01 6.395299e+01 6.336607e+01 5.081914e+01 1.108301e+02 7.299052e+01 6.072318e+01 5.185661e+01 1.080072e+02 5.191981e+01 3.971800e+01 2.770707e+01 3.374815e+00 2.611190e+00 3.174906e+00 3.451764e+00 3.706932e+00 5.048034e+00 4.658686e+00 3.560115e+00 3.453524e+00 5.699780e+00 2.570109e+00 2.806298e+00 1.355277e+00 3.782937e-01 3.614625e-01 4.774970e-01 5.558892e-01 6.201265e-01 7.262381e-01 8.275357e-01 5.277736e-01 5.165704e-01 8.180562e-01 4.490559e-01 5.022390e-01 1.857073e-01
<GCONST> 1.314934e+02
<STATE> 4
<MEAN> 39
 5.647217e+00 -4.682150e+00 -5.029017e+00 -8.930524e+00 -3.974872e+00 -1.913782e+01 -8.939365e+00 -1.444284e+00 -3.024951e+00 -2.363495e+00 -7.992784e+00 -5.787419e+00 7.382856e+01 -3.194034e-03 -1.803530e-02 -2.563853e-02 3.133560e-01 2.066830e-01 4.396762e-01 -5.699148e-03 -4.089919e-02 -5.799943e-02 -4.749974e-01 1.940290e-01 -7.745048e-02 -1.101419e-01 -2.624382e-02 5.653823e-04 9.922113e-03 2.554845e-02 1.046698e-02 7.496250e-02 4.135871e-02 -1.425749e-02 1.591406e-02 -3.763280e-02 2.743309e-02 -2.676566e-03 -2.870202e-02
<VARIANCE> 39
 5.051214e+01 4.340241e+01 4.273434e+01 6.559566e+01 5.788165e+01 1.005174e+02 7.382732e+01 5.331227e+01 6.128341e+01 7.797922e+01 3.421310e+01 3.647836e+01 1.978305e+01 1.634377e+00 1.957440e+00 2.193682e+00 2.562108e+00 3.118860e+00 3.461032e+00 3.136396e+00 2.816014e+00 3.074769e+00 4.360581e+00 2.142718e+00 2.499343e+00 9.024724e-01 1.755821e-01 2.916550e-01 3.144981e-01 3.929959e-01 4.859648e-01 5.492612e-01 4.440113e-01 4.265112e-01 4.444446e-01 6.335409e-01 3.773867e-01 4.333428e-01 1.217320e-01
<GCONST> 1.212279e+02
<TRANSP> 5
 0.000000e+00 1.000000e+00 0.000000e+00 0.000000e+00 0.000000e+00
 0.000000e+00 9.079483e-01 9.205171e-02 0.000000e+00 0.000000e+00
 0.000000e+00 0.000000e+00 8.715686e-01 1.284314e-01 0.000000e+00
 0.000000e+00 0.000000e+00 0.000000e+00 9.249897e-01 7.501029e-02
 0.000000e+00 0.000000e+00 0.000000e+00 0.000000e+00 0.000000e+00
<ENDHMM>
~h "ax"
<BEGINHMM>
<NUMSTATES> 5
<STATE> 2
<MEAN> 39
 -1.364111e+00 -4.355063e+00 -1.938165e+00 -4.248644e+00 1.550555e+00 -8.120264e+00 -6.137170e+00 -7.751410e+00 -6.168788e+00 -8.245408e+00 -3.511344e+00 -4.868766e+00 6.830199e+01 4.502187e-01 1.557800e-01 1.808902e-02 -4.283225e-03 2.650091e-02 -1.402169e-01 -2.216334e-01 -6.690847e-02 -1.299368e-01 -8.297501e-02 -9.976795e-02 -9.103173e-02 2.278368e-01 -2.326644e-03 -1.429491e-02 -2.790079e-02 -3.490131e-03 2.634660e-02 1.300996e-02 -1.459159e-02 -3.749871e-02 -1.877025e-02 -1.288697e-02 9.054103e-03 -3.683692e-03 3.302752e-02
<VARIANCE> 39
 1.123384e+02 6.313505e+01 7.173660e+01 6.247599e+01 7.922345e+01 8.530537e+01 6.120800e+01 6.802823e+01 7.122904e+01 4.634694e+01 3.605901e+01 4.019726e+01 7.833131e+01 4.889756e+00 3.443888e+00 3.603410e+00 3.210816e+00 3.868107e+00 4.668434e+00 4.651375e+00 3.963481e+00 4.869140e+00 2.623021e+00 2.493081e+00 2.512586e+00 3.155371e+00 6.286184e-01 5.437423e-01 6.072167e-01 5.044679e-01 6.007043e-01 7.475690e-01 7.421047e-01 6.491386e-01 7.720717e-01 4.548307e-01 4.315457e-01 4.463763e-01 3.781262e-01
<GCONST> 1.350040e+02
<STATE> 3
<MEAN> 39
 -3.757396e-01 -4.317547e+00 -2.126698e+00 -4.303841e+00 1.832693e+00 -8.375290e+00 -6.538066e+00 -7.982900e+00 -6.726027e+00 -8.641590e+00 -3.594966e+00 -5.066785e+00 6.919314e+01 2.635501e-01 1.437408e-01 -8.155530e-02 -2.032047e-02 1.147120e-01 4.508332e-02 -1.183796e-01 -7.953653e-02 -1.313475e-01 -9.225501e-02 -2.498818e-02 -9.969954e-02 1.257236e-01 -7.567393e-02 -7.194694e-03 -2.579734e-02 -2.495945e-02 1.612943e-02 3.865611e-02 4.258985e-02 6.945836e-04 4.979092e-02 2.507483e-02 1.918558e-02 1.649817e-03 -2.878290e-02
<VARIANCE> 39
 1.018828e+02 5.738661e+01 6.986253e+01 6.431384e+01 8.256480e+01 8.209600e+01 5.989249e+01 6.729758e+01 7.379865e+01 4.737757e+01 3.835638e+01 4.031347e+01 6.468078e+01 4.530942e+00 2.994247e+00 3.550284e+00 3.262111e+00 3.632324e+00 4.340210e+00 4.209308e+00 3.605738e+00 4.589089e+00 2.747408e+00 2.396094e+00 2.425463e+00 2.624738e+00 5.730564e-01 4.909270e-01 5.928041e-01 4.948269e-01 5.763472e-01 6.895884e-01 7.074886e-01 6.207061e-01 8.006197e-01 4.772779e-01 4.270292e-01 4.422823e-01 3.083968e-01
<GCONST> 1.333053e+02
<STATE> 4
<MEAN> 39
 -7.055130e-01 -3.819471e+00 -2.051864e+00 -4.020367e+00 1.884018e+00 -7.675752e+00 -6.302095e+00 -7.902585e+00 -6.538275e+00 -8.730302e+00 -3.395364e+00 -5.489245e+00 6.864021e+01 -2.360225e-02 1.278168e-01 -1.061186e-01 -5.699880e-02 1.726792e-01 1.425155e-01 5.348326e-03 -1.994327e-02 5.967300e-02 -1.281308e-02 -1.575034e-03 -7.374187e-02 -3.901799e-02 -6.392469e-02 -7.944428e-03 1.386428e-02 -3.328409e-02 -1.207245e-04 -2.226985e-02 3.908683e-02 2.057468e-02 7.896178e-02 5.264248e-02 -3.554471e-03 2.885708e-02 -5.622962e-03
<VARIANCE> 39
 1.006886e+02 5.382497e+01 7.035997e+01 6.937216e+01 7.848731e+01 7.177866e+01 5.824187e+01 5.993993e+01 7.328369e+01 4.631632e+01 3.854714e+01 3.820607e+01 7.070444e+01 4.238572e+00 2.611045e+00 3.412945e+00 3.088161e+00 3.356190e+00 3.962556e+00 3.741404e+00 3.325792e+00 4.180765e+00 2.773751e+00 2.139652e+00 2.356582e+00 1.963654e+00 5.207604e-01 4.427548e-01 5.328471e-01 4.656188e-01 5.319210e-01 6.365246e-01 6.629220e-01 5.560802e-01 6.829500e-01 4.714621e-01 3.900628e-01 4.174671e-01 2.911457e-01
<GCONST> 1.307329e+02
<TRANSP> 5
 0.000000e+00 1.000000e+00 0.000000e+00 0.000000e+00 0.000000e+00
 0.000000e+00 4.938620e-01 5.061380e-01 0.000000e+00 0.000000e+00
 0.000000e+00 0.000000e+00 4.897428e-01 5.102572e-01 0.000000e+00
 0.000000e+00 0.000000e+00 0.000000e+00 5.948871e-01 4.051129e-01
 0.000000e+00 0.000000e+00 0.000000e+00 0.000000e+00 0.000000e+00
<ENDHMM>
~h "ay"
<BEGINHMM>
<NUMSTATES> 5
<STATE> 2
<MEAN> 39
 1.484867e+00 -6.042389e+00 -5.969713e+00 -7.183229e+00 -2.192632e+00 -1.195549e+01 -4.461383e+00 -7.229367e+00 -4.997713e+00 -4.728696e+00 -4.228399e+00 -2.244024e+00 7.169294e+01 7.404164e-02 -4.641659e-01 -3.739442e-01 -1.324617e-01 -4.709165e-01 6.573531e-02 1.933911e-01 -3.558493e-03 -1.911773e-01 9.608959e-03 1.154992e-01 3.668951e-01 4.166783e-01 -1.294204e-01 3.797540e-02 6.072989e-03 6.619761e-02 1.210410e-01 1.793048e-01 3.622200e-03 -9.157968e-02 -7.794969e-02 -1.298055e-01 1.822862e-02 6.360481e-03 -1.125087e-01
<VARIANCE> 39
 1.002763e+02 9.710252e+01 5.455514e+01 7.758274e+01 6.646788e+01 7.784035e+01 5.947702e+01 4.888990e+01 5.564896e+01 4.695408e+01 3.962205e+01 4.763264e+01 8.699193e+01 2.502361e+00 3.470394e+00 3.065372e+00 4.719122e+00 4.000017e+00 4.991438e+00 4.931632e+00 3.786034e+00 2.949104e+00 3.601548e+00 3.182189e+00 3.353848e+00 2.714202e+00 3.066147e-01 4.880104e-01 4.278871e-01 7.368883e-01 6.419317e-01 7.967915e-01 8.198376e-01 6.452777e-01 4.620693e-01 5.886153e-01 5.513989e-01 5.449802e-01 2.093891e-01
<GCONST> 1.336694e+02
<STATE> 3
<MEAN> 39
 1.549178e+00 -7.049351e+00 -6.768009e+00 -7.759511e+00 -2.322404e+00 -1.074322e+01 -4.509156e+00 -8.045483e+00 -5.980193e+00 -5.519992e+00 -4.068777e+00 -1.060676e+00 7.249546e+01 -1.701519e-01 -1.737102e-01 -2.128965e-01 7.364858e-02 1.140393e-01 5.265865e-01 3.437671e-02 -3.891201e-01 -2.736482e-01 -1.803728e-01 5.313730e-02 2.128710e-01 -2.474233e-02 -6.101754e-02 8.844861e-02 6.141090e-02 6.744013e-02 1.567466e-01 4.145816e-02 -3.847862e-02 -8.214204e-02 -5.135333e-05 -2.927873e-02 -2.519103e-03 -6.192242e-02 -7.362364e-02
<VARIANCE> 39
 1.018648e+02 7.396647e+01 4.354003e+01 5.801098e+01 6.423549e+01 7.189880e+01 5.925005e+01 5.465799e+01 5.410762e+01 4.249540e+01 3.807950e+01 4.668567e+01 9.383595e+01 1.261463e+00 1.786707e+00 2.184787e+00 2.980506e+00 3.122911e+00 3.182063e+00 3.419946e+00 3.120206e+00 2.697774e+00 2.743461e+00 2.601002e+00 2.823142e+00 9.708211e-01 1.578509e-01 2.254658e-01 3.215284e-01 4.447131e-01 5.041523e-01 5.363117e-01 6.011236e-01 5.039365e-01 4.488097e-01 4.664725e-01 4.936861e-01 4.743001e-01 9.253365e-02
<GCONST> 1.228618e+02
<STATE> 4
<MEAN> 39
 4.445162e-01 -7.289059e+00 -7.554967e+00 -6.971696e+00 -1.297900e+00 -9.085085e+00 -4.586164e+00 -8.412868e+00 -5.911463e+00 -5.302620e+00 -4.065260e+00 -6.657038e-01 7.046895e+01 -2.163568e-01 1.408337e-02 4.036814e-03 2.814578e-01 3.552272e-01 3.752948e-01 3.011330e-03 -1.951778e-01 -8.739367e-02 -1.470410e-01 8.835600e-02 1.199000e-03 -2.098870e-01 -2.550738e-02 5.041126e-02 2.836575e-02 1.296815e-02 4.145858e-02 -3.945153e-02 -1.592565e-02 5.673198e-02 5.186060e-02 -6.877332e-03 1.835585e-02 -4.530956e-02 -1.835049e-02
<VARIANCE> 39
 1.168903e+02 5.737413e+01 3.153044e+01 4.243032e+01 4.641145e+01 6.850022e+01 5.312214e+01 5.988705e+01 4.428833e+01 3.425307e+01 3.580825e+01 4.733495e+01 1.431665e+02 8.955627e-01 1.218864e+00 1.537776e+00 1.997670e+00 2.194983e+00 2.370780e+00 2.649598e+00 2.514377e+00 2.160067e+00 2.144466e+00 2.135011e+00 2.081597e+00 7.570981e-01 1.360571e-01 1.570818e-01 2.689884e-01 3.202474e-01 3.564407e-01 3.996176e-01 4.940202e-01 3.875855e-01 3.806004e-01 3.828785e-01 4.112567e-01 3.401518e-01 8.314128e-02
<GCONST> 1.147630e+02
<TRANSP> 5
 0.000000e+00 1.000000e+00 0.000000e+00 0.000000e+00 0.000000e+00
 0.000000e+00 5.878541e-01 4.121459e-01 0.000000e+00 0.000000e+00
 0.000000e+00 0.000000e+00 5.870743e-01 4.129257e-01 0.000000e+00
 0.000000e+00 0.000000e+00 0.000000e+00 8.221083e-01 1.778917e-01
 0.000000e+00 0.000000e+00 0.000000e+00 0.000000e+00 0.000000e+00
<ENDHMM>
~h "ch"
<BEGINHMM>
<NUMSTATES> 5
<STATE> 2
<MEAN> 39
 -3.946426e+00 -8.352033e+00 3.977839e+00 2.986884e-02 2.241195e+00 -4.737593e+00 -6.788649e+00 -8.566177e+00 -6.774659e+00 -1.050294e+01 -9.194168e-01 -3.991143e+00 7.069304e+01 -6.445589e-01 -1.184860e+00 9.930219e-01 7.610856e-02 3.859268e-01 -2.145079e-01 -3.715446e-01 1.717320e-01 -5.351043e-02 -3.714700e-01 -6.532724e-02 -6.653445e-02 7.533433e-01 -1.845334e-01 -2.192279e-01 2.001826e-02 -9.505144e-02 1.175657e-01 -1.589866e-02 1.553479e-02 -1.480763e-02 -2.768511e-02 4.722672e-02 -5.946537e-02 2.484192e-02 4.758135e-02
<VARIANCE> 39
 1.089178e+02 1.535258e+02 1.438836e+02 7.129668e+01 7.655463e+01 6.132877e+01 4.242807e+01 1.000537e+02 6.605217e+01 5.033633e+01 4.123834e+01 4.528909e+01 6.543091e+01 7.933189e+00 6.773054e+00 1.010267e+01 4.589142e+00 4.689462e+00 4.979310e+00 3.899300e+00 6.452038e+00 4.721234e+00 3.449750e+00 2.795828e+00 4.387602e+00 3.327582e+00 6.257337e-01 8.596429e-01 1.720053e+00 7.971964e-01 8.152310e-01 8.949751e-01 8.272183e-01 9.164068e-01 7.412744e-01 5.521911e-01 5.163397e-01 9.052884e-01 4.417077e-01
<GCONST> 1.445963e+02
<STATE> 3
<MEAN> 39
 -8.434230e+00 -1.415442e+01 7.017458e+00 3.966093e-02 4.036235e+00 -6.417408e+00 -7.992558e+00 -8.250022e+00 -6.881147e+00 -1.213196e+01 -7.620677e-01 -3.008281e+00 7.352332e+01 -9.126160e-01 -1.099416e+00 8.583704e-01 3.451663e-02 2.715292e-01 -1.752251e-01 -1.158162e-01 2.071089e-01 -1.378493e-02 -1.554482e-01 -9.713088e-02 1.416006e-02 3.183825e-01 7.566339e-02 3.271297e-02 -7.067416e-02 -3.959775e-02 -2.754683e-02 2.384059e-02 -4.155212e-03 -3.366836e-02 -5.006370e-02 6.772207e-02 -2.017857e-03 -5.230951e-03 -3.784504e-02
<VARIANCE> 39
 1.293481e+02 1.366721e+02 1.299032e+02 6.197860e+01 7.140112e+01 5.169319e+01 2.839037e+01 1.042486e+02 7.304922e+01 4.877663e+01 4.869936e+01 2.983050e+01 5.115145e+01 6.762810e+00 5.207584e+00 7.775428e+00 3.400233e+00 4.142142e+00 3.782839e+00 2.701325e+00 4.743635e+00 4.787694e+00 3.071982e+00 2.624806e+00 2.682377e+00 2.556472e+00 6.962023e-01 6.483626e-01 1.321028e+00 6.570116e-01 7.091743e-01 6.974275e-01 5.646010e-01 7.596322e-01 8.330144e-01 5.377357e-01 5.235776e-01 5.584346e-01 3.578825e-01
<GCONST> 1.382211e+02
<STATE> 4
<MEAN> 39
 -9.460424e+00 -1.502385e+01 1.027375e+01 2.018964e+00 4.616319e+00 -3.922310e+00 -7.995569e+00 -9.383224e+00 -7.827766e+00 -1.092617e+01 -1.547629e+00 -3.442791e+00 7.267590e+01 4.684020e-01 1.642151e-01 -1.963331e-01 -1.537268e-02 -7.028617e-02 3.589741e-02 -9.011917e-02 -2.505252e-01 -1.718809e-01 1.444011e-01 -1.864720e-02 -2.827097e-02 1.500924e-02 1.077937e-01 1.350891e-01 -1.277122e-01 -5.098679e-03 -3.747287e-04 3.282416e-03 2.669227e-02 -2.470274e-02 -1.592775e-02 2.738961e-02 -1.700675e-02 -1.185691e-02 -2.461751e-02
<VARIANCE> 39
 1.387037e+02 1.256921e+02 9.187778e+01 5.568565e+01 7.029122e+01 8.607626e+01 5.298299e+01 7.520806e+01 5.648313e+01 4.653617e+01 4.178197e+01 2.186671e+01 4.009717e+01 7.295168e+00 5.905374e+00 6.686047e+00 3.559372e+00 4.628098e+00 4.186197e+00 3.360767e+00 4.840653e+00 4.615641e+00 3.279162e+00 3.019715e+00 1.819673e+00 1.885572e+00 6.592333e-01 6.697719e-01 9.337524e-01 6.567652e-01 7.047824e-01 7.464482e-01 6.065624e-01 7.882820e-01 8.637858e-01 5.857567e-01 5.800843e-01 3.707689e-01 2.606784e-01
<GCONST> 1.368564e+02
<TRANSP> 5
 0.000000e+00 1.000000e+00 0.000000e+00 0.000000e+00 0.000000e+00
 0.000000e+00 8.147463e-01 1.852536e-01 0.000000e+00 0.000000e+00
 0.000000e+00 0.000000e+00 7.624294e-01 2.375707e-01 0.000000e+00
 0.000000e+00 0.000000e+00 0.000000e+00 9.468975e-01 5.310250e-02
 0.000000e+00 0.000000e+00 0.000000e+00 0.000000e+00 0.000000e+00
<ENDHMM>
~h "dh"
<BEGINHMM>
<NUMSTATES> 5
<STATE> 2
<MEAN> 39
 -3.596618e+00 -6.226094e+00 -3.054919e+00 -3.620316e+00 9.656881e-01 -7.089788e+00 -6.088559e+00 -8.915383e+00 -6.820195e+00 -7.796764e+00 -2.054107e+00 -4.156458e+00 6.736859e+01 6.239339e-02 5.900764e-02 -7.183494e-02 1.270952e-01 2.057534e-01 1.032142e-01 8.040696e-02 -9.478076e-02 -1.810236e-01 4.152669e-02 1.736449e-01 4.603968e-03 1.500699e-01 -4.834417e-02 3.263789e-02 -2.818615e-02 4.869075e-02 8.911892e-02 3.241921e-02 1.033224e-01 7.348810e-02 3.003323e-02 3.957371e-02 -9.197877e-04 2.646037e-03 -1.339618e-01
<VARIANCE> 39
 1.179990e+02 4.405615e+01 4.658105e+01 5.991717e+01 5.503630e+01 7.464872e+01 5.298557e+01 7.360853e+01 6.631321e+01 4.116849e+01 3.021708e+01 3.776782e+01 9.507732e+01 5.196105e+00 2.274806e+00 3.131433e+00 2.540432e+00 3.271866e+00 3.279182e+00 4.062537e+00 4.374941e+00 4.049501e+00 2.215366e+00 2.070743e+00 2.614379e+00 4.980248e+00 5.298741e-01 3.504285e-01 4.221743e-01 4.555934e-01 5.586498e-01 4.679569e-01 6.469744e-01 6.935844e-01 6.980706e-01 4.334554e-01 4.032922e-01 4.866081e-01 2.655109e-01
<GCONST> 1.299213e+02
<STATE> 3
<MEAN> 39
 -3.863720e+00 -6.132133e+00 -3.576779e+00 -3.330264e+00 1.394206e+00 -6.591441e+00 -5.255249e+00 -8.817736e+00 -7.025726e+00 -7.809710e+00 -1.593032e+00 -3.694252e+00 6.712282e+01 -1.302941e-01 1.774867e-01 -1.349858e-01 1.399077e-01 2.180941e-01 2.154175e-01 2.865856e-01 8.184052e-02 5.443544e-02 3.757060e-02 9.670899e-02 3.923335e-02 -2.953712e-01 -5.644085e-02 2.644219e-02 9.517196e-03 -2.139709e-02 2.516401e-02 5.105015e-03 1.588337e-02 1.814776e-02 4.487680e-02 5.816982e-03 -3.616484e-02 -2.427336e-02 -1.135560e-01
<VARIANCE> 39
 1.177606e+02 4.369096e+01 4.614174e+01 5.704946e+01 5.476720e+01 7.137608e+01 4.877224e+01 6.542357e+01 6.184121e+01 3.880156e+01 2.768091e+01 3.483942e+01 9.455508e+01 2.737555e+00 1.696180e+00 2.572649e+00 1.965334e+00 2.635965e+00 2.713645e+00 2.739929e+00 2.833584e+00 2.730221e+00 1.943532e+00 1.786054e+00 2.027675e+00 2.574691e+00 3.864756e-01 2.731543e-01 3.315146e-01 3.400829e-01 4.634922e-01 4.504515e-01 5.929189e-01 5.585188e-01 5.967898e-01 3.621254e-01 3.272109e-01 3.773121e-01 2.718289e-01
<GCONST> 1.226870e+02
<STATE> 4
<MEAN> 39
 -1.006733e+01 -6.367710e+00 -6.281571e+00 -2.853512e+00 1.001498e+00 -3.813942e+00 -2.913287e+00 -7.109704e+00 -4.700797e+00 -7.076321e+00 -7.782085e-01 -1.934382e+00 5.837822e+01 -2.395281e-01 2.122470e-01 7.443881e-02 3.318169e-02 4.793882e-02 6.184986e-02 1.749522e-01 1.638581e-01 1.785326e-01 8.090534e-02 -8.139794e-02 -1.108846e-01 -4.049264e-01 3.952627e-02 -5.294682e-03 5.903727e-02 -4.008812e-02 -2.374169e-02 -4.235102e-02 -9.881411e-02 -6.042356e-02 6.480074e-03 7.495302e-03 -2.109424e-02 -1.786290e-02 7.028374e-02
<VARIANCE> 39
 1.020814e+02 2.776761e+01 3.883881e+01 3.687305e+01 3.205299e+01 4.258054e+01 3.682824e+01 4.178728e+01 3.809345e+01 2.809265e+01 2.084810e+01 2.679064e+01 1.245536e+02 1.193564e+00 1.064451e+00 1.256802e+00 1.258658e+00 1.426430e+00 1.881993e+00 1.877390e+00 1.687566e+00 1.858172e+00 1.423189e+00 1.282976e+00 1.387979e+00 9.978444e-01 2.030369e-01 1.843190e-01 2.230760e-01 2.259251e-01 2.713079e-01 3.421371e-01 4.280687e-01 3.573979e-01 3.406723e-01 2.646689e-01 2.384506e-01 2.445659e-01 1.934169e-01
<GCONST> 1.065445e+02
<TRANSP> 5
 0.000000e+00 1.000000e+00 0.000000e+00 0.000000e+00 0.000000e+00
 0.000000e+00 4.450068e-01 5.549933e-01 0.000000e+00 0.000000e+00
 0.000000e+00 0.000000e+00 4.459628e-01 5.540372e-01 0.000000e+00
 0.000000e+00 0.000000e+00 0.000000e+00 7.709491e-01 2.290509e-01
 0.000000e+00 0.000000e+00 0.000000e+00 0.000000e+00 0.000000e+00
<ENDHMM>
~h "ea"
<BEGINHMM>
<NUMSTATES> 5
<STATE> 2
<MEAN> 39
 1.212217e+00 -8.406444e+00 -9.190533e+00 -6.290650e-01 4.920176e+00 -1.448153e+01 -6.849778e+00 -1.641882e+01 -7.959486e+00 -7.049691e+00 -3.165436e-02 4.883592e-01 7.401375e+01 1.206296e-02 -3.339002e-01 -7.139209e-01 -2.236235e-02 -8.154883e-01 3.366618e-01 6.047673e-01 -5.661117e-01 4.441037e-01 2.202863e-01 5.968367e-01 6.041494e-01 1.628846e-01 -1.614797e-02 -1.322194e-02 9.814116e-02 -1.694908e-01 -6.528758e-02 1.473499e-01 -2.870521e-02 3.190785e-01 -1.621261e-01 1.207029e-01 -1.755881e-01 -1.752908e-02 -1.259697e-01
<VARIANCE> 39
 9.444334e+01 2.831946e+01 4.347567e+01 5.424795e+01 3.768479e+01 6.708467e+01 3.835182e+01 1.105831e+02 4.475050e+01 2.793729e+01 2.987962e+01 5.287568e+01 1.063681e+02 1.279372e+00 1.400177e+00 1.584649e+00 2.314888e+00 2.266193e+00 1.420421e+00 1.847036e+00 3.462854e+00 2.247466e+00 1.737513e+00 1.569330e+00 2.350442e+00 1.019736e+00 1.431648e-01 1.635712e-01 1.698212e-01 2.511155e-01 3.485686e-01 3.192557e-01 3.678566e-01 6.361395e-01 3.960122e-01 2.888957e-01 2.887634e-01 4.479516e-01 4.920734e-02
<GCONST> 1.124978e+02
<STATE> 3
<MEAN> 39
 1.906607e+00 -9.701591e+00 -1.063133e+01 -1.778527e+00 2.405685e+00 -1.318435e+01 -5.665558e+00 -1.567468e+01 -8.070407e+00 -5.776639e+00 5.903292e-01 2.253093e+00 7.454995e+01 1.475252e-01 -2.014344e-01 -3.792235e-01 -3.153968e-01 -6.740219e-01 4.320980e-01 4.050907e-01 3.430253e-01 -9.817147e-02 3.513717e-01 -1.034259e-02 5.061644e-01 -1.480677e-01 2.824456e-02 6.049571e-02 1.219685e-01 -9.040424e-02 1.028717e-01 -1.546528e-02 -6.935190e-02 2.497834e-01 -1.614917e-01 -9.657457e-03 -2.196680e-01 -6.023892e-02 -9.696241e-02
<VARIANCE> 39
 9.198675e+01 3.008509e+01 3.654441e+01 3.943315e+01 3.658997e+01 5.637584e+01 2.977779e+01 9.474359e+01 5.659377e+01 2.930235e+01 3.008497e+01 5.048109e+01 1.216436e+02 5.717841e-01 1.014033e+00 1.143670e+00 2.001766e+00 2.063109e+00 1.276450e+00 1.752915e+00 3.368862e+00 2.132318e+00 1.669037e+00 1.845394e+00 2.015490e+00 6.152210e-01 9.378517e-02 1.071685e-01 1.159778e-01 1.881426e-01 3.330494e-01 2.459802e-01 2.557499e-01 4.773036e-01 4.006065e-01 2.756577e-01 2.870272e-01 3.284940e-01 4.459381e-02
<GCONST> 1.064126e+02
<STATE> 4
<MEAN> 39
 -2.399174e+00 -8.664104e+00 -1.090845e+01 -3.602872e+00 3.189921e-02 -8.705818e+00 -3.956527e+00 -9.784208e+00 -8.154424e+00 -5.039485e+00 -7.208062e-01 1.518985e+00 6.553855e+01 -7.685943e-02 2.520991e-01 -4.186267e-02 -1.395464e-01 2.346890e-02 1.499984e-01 -2.469736e-02 3.399343e-01 -7.693676e-02 -1.123654e-01 -1.581701e-01 -1.430846e-01 -5.086629e-01 -2.964523e-02 3.611905e-02 5.014107e-02 -6.480320e-03 3.843484e-02 -9.916835e-03 -4.447119e-02 1.359264e-03 1.215464e-02 -4.455489e-02 5.897447e-03 -7.074752e-02 -2.147831e-02
<VARIANCE> 39
 1.514953e+02 2.253596e+01 2.735023e+01 2.757255e+01 3.295458e+01 5.334001e+01 2.743346e+01 5.232794e+01 5.474805e+01 2.505950e+01 2.692751e+01 3.352601e+01 2.050835e+02 3.806466e-01 6.849900e-01 7.785956e-01 1.267099e+00 1.192844e+00 1.057120e+00 1.181464e+00 1.714280e+00 1.868752e+00 1.808534e+00 1.710813e+00 1.375814e+00 4.337551e-01 4.951742e-02 9.022288e-02 1.301028e-01 1.676610e-01 2.080110e-01 2.199446e-01 2.187202e-01 2.685927e-01 3.570921e-01 2.952362e-01 2.757384e-01 2.350107e-01 4.395626e-02
<GCONST> 9.808487e+01
<TRANSP> 5
 0.000000e+00 1.000000e+00 0.000000e+00 0.000000e+00 0.000000e+00
 0.000000e+00 5.045529e-01 4.954471e-01 0.000000e+00 0.000000e+00
 0.000000e+00 0.000000e+00 6.173514e-01 3.826486e-01 0.000000e+00
 0.000000e+00 0.000000e+00 0.000000e+00 9.183958e-01 8.160425e-02
 0.000000e+00 0.000000e+00 0.000000e+00 0.000000e+00 0.000000e+00
<ENDHMM>
~h "eh"
<BEGINHMM>
<NUMSTATES> 5
<STATE> 2
<MEAN> 39
 -8.201122e-01 -6.431055e+00 -1.362571e+00 -3.032376e+00 5.021746e+00 -8.561642e+00 -8.697862e+00 -1.444908e+01 -8.909421e+00 -7.099986e+00 -1.902345e+00 -3.382021e+00 7.164035e+01 2.660081e-01 -4.971139e-01 -3.240771e-01 -2.296236e-01 -5.785873e-02 -4.223968e-01 -3.904363e-01 -6.134756e-01 -2.791033e-01 1.382369e-01 1.844999e-01 2.242385e-01 7.384496e-01 -3.755529e-02 -6.056469e-02 4.015383e-03 7.291023e-02 2.184605e-02 2.858473e-02 6.361539e-02 7.127339e-03 2.272118e-02 8.753317e-03 2.670158e-02 1.175845e-02 3.565523e-02
<VARIANCE> 39
 8.837060e+01 5.754176e+01 1.001794e+02 8.897273e+01 9.023900e+01 7.354015e+01 6.489175e+01 6.532358e+01 6.563158e+01 4.891048e+01 3.744820e+01 4.612102e+01 5.553829e+01 5.724845e+00 3.920237e+00 5.264223e+00 5.161599e+00 5.174664e+00 5.001035e+00 4.751692e+00 4.914176e+00 5.165102e+00 3.980845e+00 3.420365e+00 3.481057e+00 3.652110e+00 7.134470e-01 6.202038e-01 6.641526e-01 8.496736e-01 8.004582e-01 7.995811e-01 7.307649e-01 8.049761e-01 8.889176e-01 7.381126e-01 6.287715e-01 5.730111e-01 5.154841e-01
<GCONST> 1.411480e+02
<STATE> 3
<MEAN> 39
 4.322689e-01 -7.944035e+00 -2.435682e+00 -2.944365e+00 4.994301e+00 -9.538737e+00 -9.467459e+00 -1.599030e+01 -9.854726e+00 -6.695089e+00 -9.772658e-01 -2.483327e+00 7.386899e+01 2.050813e-01 -2.861860e-01 -2.631854e-01 1.004989e-01 2.057234e-03 -1.550976e-02 -4.442419e-02 -2.164079e-01 -9.361347e-02 2.028808e-02 2.178729e-01 1.909359e-01 3.226584e-01 -7.633681e-02 6.920976e-02 5.231805e-02 5.833521e-02 2.799771e-02 1.044163e-01 9.126941e-02 1.395907e-01 1.008399e-01 -3.412982e-02 -2.551907e-02 -4.417402e-02 -1.180682e-01
<VARIANCE> 39
 8.006453e+01 4.731270e+01 1.002925e+02 7.082978e+01 8.257626e+01 6.891557e+01 5.619613e+01 6.340385e+01 6.386066e+01 4.648098e+01 3.746668e+01 4.545578e+01 4.244745e+01 4.357826e+00 3.141594e+00 4.135490e+00 4.402442e+00 4.644827e+00 4.200774e+00 4.225076e+00 4.229686e+00 4.805214e+00 3.450634e+00 3.040867e+00 3.272247e+00 2.835313e+00 5.550713e-01 4.953330e-01 5.768188e-01 6.918185e-01 7.338770e-01 6.747132e-01 6.671922e-01 7.264836e-01 8.242559e-01 6.330805e-01 5.633554e-01 5.516143e-01 3.393814e-01
<GCONST> 1.357783e+02
<STATE> 4
<MEAN> 39
 -2.409127e-01 -7.880183e+00 -1.557577e+00 -2.638321e+00 4.555827e+00 -8.244968e+00 -9.131503e+00 -1.621342e+01 -8.483404e+00 -6.484485e+00 -1.168200e+00 -2.546770e+00 7.390330e+01 -1.796194e-02 1.226005e-03 -1.102289e-01 5.583812e-03 1.347072e-01 1.788524e-01 2.891180e-02 1.705830e-01 1.623137e-01 -9.289260e-02 4.380322e-02 9.755970e-03 -1.961175e-03 -6.780530e-02 5.901898e-02 5.258955e-02 7.233900e-03 4.327038e-02 4.401775e-02 1.197145e-02 8.274765e-02 3.245859e-02 -2.113495e-02 -2.620046e-02 -3.702026e-02 -6.460989e-02
<VARIANCE> 39
 9.638734e+01 5.015210e+01 1.072408e+02 6.604270e+01 7.938443e+01 6.334256e+01 6.152554e+01 5.758350e+01 6.684618e+01 4.564035e+01 3.790906e+01 4.604660e+01 4.352402e+01 4.365106e+00 2.969683e+00 4.205845e+00 4.117901e+00 4.681967e+00 3.553754e+00 3.604729e+00 3.255470e+00 4.788486e+00 3.398994e+00 2.674172e+00 3.110382e+00 2.230379e+00 5.118191e-01 4.812257e-01 5.864189e-01 6.697335e-01 7.558725e-01 6.063132e-01 6.155300e-01 5.948663e-01 8.508972e-01 6.476089e-01 5.069803e-01 5.418475e-01 2.969514e-01
<GCONST> 1.341585e+02
<TRANSP> 5
 0.000000e+00 1.000000e+00 0.000000e+00 0.000000e+00 0.000000e+00
 0.000000e+00 7.450693e-01 2.549307e-01 0.000000e+00 0.000000e+00
 0.000000e+00 0.000000e+00 7.142576e-01 2.857424e-01 0.000000e+00
 0.000000e+00 0.000000e+00 0.000000e+00 8.249491e-01 1.750509e-01
 0.000000e+00 0.000000e+00 0.000000e+00 0.000000e+00 0.000000e+00
<ENDHMM>
~h "er"
<BEGINHMM>
<NUMSTATES> 5
<STATE> 2
<MEAN> 39
 -3.241353e-01 -1.496700e+00 -2.226738e+00 -5.079051e+00 9.134769e-01 -8.002228e+00 -5.844027e+00 -7.877564e+00 -3.767097e+00 -5.673472e+00 -2.499253e+00 -5.918516e+00 6.757262e+01 6.275873e-01 2.112889e-01 -1.132263e-01 -1.709613e-01 1.410019e-01 -3.838538e-01 -1.258876e-01 -3.458710e-01 -3.023393e-01 -6.942360e-02 -7.168041e-02 2.685592e-02 5.094211e-01 -5.577059e-03 -3.744497e-02 -4.845956e-02 -2.571075e-02 5.725260e-02 6.843907e-03 7.144576e-02 -6.397956e-03 -5.675423e-02 -1.084514e-01 -3.728943e-02 4.604780e-02 1.011560e-01
<VARIANCE> 39
